{"learner":{"attributes":{"best_iteration":"0","best_score":"0.6942126586985048"},"feature_names":["rsi_14","macd_line","macd_signal","macd_hist","bb_pct_upper","bb_pct_lower","atr_pct_14","volatility_regime","trend_regime_slope","adx_14","cmf_20","volume_sma_ratio","return_1","return_2","return_3","return_5","ma10_ratio","ma30_ratio","bb_zscore","macd_hist_ratio","volume_ratio","fft_real","fft_imag","corr_btc_eth_20","corr_btc_sol_20","corr_btc_eth_100","corr_btc_sol_100","ratio_btc_eth_norm","ratio_btc_sol_norm","ratio_btc_bnb_norm","btc_funding_rate","funding_mom_1","funding_mom_3","funding_spread_eth","funding_spread_sol","funding_spread_bnb"],"feature_types":["float","float","float","float","float","float","float","float","float","float","float","float","float","float","float","float","float","float","float","float","float","float","float","float","float","float","float","float","float","float","float","float","float","float","float","float"],"gradient_booster":{"model":{"gbtree_model_param":{"num_parallel_tree":"1","num_trees":"16"},"iteration_indptr":[0,1,2,3,4,5,6,7,8,9,10,11,12,13,14,15,16],"tree_info":[0,0,0,0,0,0,0,0,0,0,0,0,0,0,0,0],"trees":[{"base_weights":[3.1242209E-2,4.5575517E-1,-2.7938294E-1,9.2323285E-1,3.424631E-2,-7.374511E-1,2.3557352E-2,-4.4774376E-2,1.1803616E0,-8.2397115E-1,2.3149088E-1,-2.4828294E-1,-1.3801094E0,1.1936364E0,-1.0342252E-1,-9.337241E-1,6.802854E-1,1.4866852E0,6.091478E-1,1.528893E-1,-5.094738E-2,6.38062E-1,-3.6654028E-1,-5.923575E-1,4.973053E-1,-1.5227046E0,2.429291E-2,3.2463595E-2,1.5371386E0,2.4360041E-1,-6.818386E-1,1.3411305E-2,-4.6798117E-2,-3.3892814E-2,1.2219164E0,-7.6242425E-2,1.6363796E0,-3.5849426E-2,8.511732E-1,-2.712295E-2,8.851541E-1,1.7117198E-1,1.3983315E0,5.760494E-1,-9.6520805E-1,5.923228E-1,-9.03165E-1,1.3574831E0,-3.780354E-1,1.1327566E-2,-1.6227105E0,-3.159369E-2,3.220179E-2,5.054415E-2,1.1327566E-2,-3.781564E-1,6.7220664E-1,-1.0065771E0,7.494808E-1,4.7587138E-2,8.447787E-4,1.1327566E-2,-1.3941788E-2,5.1189438E-2,5.671478E-3,-6.3347286E-3,3.5290476E-2,3.9499186E-2,8.447787E-4,-3.3862155E-2,1.8964157E-2,4.7341786E-2,8.738927E-3,2.7860288E-2,-3.159369E-2,-3.959229E-2,-3.2730957E-3,-3.3892814E-2,3.8442377E-2,-4.685505E-2,-1.4315875E-2,5.671478E-3,4.8489764E-2,-4.6227682E-2,3.199464E-2,-1.6495822E-2,-5.3176727E-2,4.2585274E-3,-3.4850102E-2,3.232594E-2,-6.657786E-3,-7.5748684E-3,-5.26022E-2,3.66279E-2,-1.7357267E-2],"categories":[],"categories_nodes":[],"categories_segments":[],"categories_sizes":[],"default_left":[0,0,0,0,0,0,0,0,0,0,0,0,0,0,0,0,0,0,0,0,0,0,0,0,0,0,0,0,0,0,0,0,0,0,0,0,0,0,0,0,0,0,0,0,0,0,0,0,0,0,0,0,0,0,0,0,0,0,0,0,0,0,0,0,0,0,0,0,0,0,0,0,0,0,0,0,0,0,0,0,0,0,0,0,0,0,0,0,0,0,0,0,0,0,0],"id":0,"left_children":[1,3,5,7,9,11,13,15,17,19,21,23,25,27,29,31,33,35,37,39,-1,41,43,45,47,49,-1,51,53,55,57,-1,-1,-1,59,61,63,-1,65,-1,67,69,71,73,75,77,79,81,83,-1,85,-1,-1,-1,-1,87,89,91,93,-1,-1,-1,-1,-1,-1,-1,-1,-1,-1,-1,-1,-1,-1,-1,-1,-1,-1,-1,-1,-1,-1,-1,-1,-1,-1,-1,-1,-1,-1,-1,-1,-1,-1,-1,-1],"loss_changes":[3.7493595E1,2.3636497E1,2.2810478E1,1.4218712E1,1.105867E1,2.0222301E1,1.4956931E1,8.955129E0,6.9691963E0,1.0693736E1,1.3116549E1,1.0136267E1,9.993126E0,3.880375E0,1.8428675E1,6.0757413E0,8.917636E0,6.8162727E0,8.616562E0,5.97637E0,0E0,1.1086013E1,1.3014728E1,1.0368355E1,1.0043516E1,5.6840324E0,0E0,4.8267784E0,6.6218376E-1,1.56048155E1,1.6734612E1,0E0,0E0,0E0,2.7377853E0,7.846754E-1,2.3238297E0,0E0,5.7511625E0,0E0,1.6106281E0,1.3240897E1,1.927803E0,6.2645054E0,4.0677013E0,8.750768E0,5.301567E0,1.691082E0,1.3495437E1,0E0,3.131256E0,0E0,0E0,0E0,0E0,1.0004371E1,1.27271805E1,1.5579176E1,5.0459776E0,0E0,0E0,0E0,0E0,0E0,0E0,0E0,0E0,0E0,0E0,0E0,0E0,0E0,0E0,0E0,0E0,0E0,0E0,0E0,0E0,0E0,0E0,0E0,0E0,0E0,0E0,0E0,0E0,0E0,0E0,0E0,0E0,0E0,0E0,0E0,0E0],"parents":[2147483647,0,0,1,1,2,2,3,3,4,4,5,5,6,6,7,7,8,8,9,9,10,10,11,11,12,12,13,13,14,14,15,15,16,16,17,17,18,18,19,19,21,21,22,22,23,23,24,24,25,25,27,27,28,28,29,29,30,30,34,34,35,35,36,36,38,38,40,40,41,41,42,42,43,43,44,44,45,45,46,46,47,47,48,48,50,50,55,55,56,56,57,57,58,58],"right_children":[2,4,6,8,10,12,14,16,18,20,22,24,26,28,30,32,34,36,38,40,-1,42,44,46,48,50,-1,52,54,56,58,-1,-1,-1,60,62,64,-1,66,-1,68,70,72,74,76,78,80,82,84,-1,86,-1,-1,-1,-1,88,90,92,94,-1,-1,-1,-1,-1,-1,-1,-1,-1,-1,-1,-1,-1,-1,-1,-1,-1,-1,-1,-1,-1,-1,-1,-1,-1,-1,-1,-1,-1,-1,-1,-1,-1,-1,-1,-1],"split_conditions":[8.130878E-2,-3.6370206E-5,-9.257403E-2,3.2285713E1,1.4281884E-1,4.1108543E1,-3.957645E-2,3.363838E1,-4.7693007E-2,2.881915E-4,1.0322374E-3,1.3371457E-1,2.716089E-3,1.1905778E-1,3.473544E-1,-1.007815E-3,2.0427553E1,-9.017292E-4,-8.699998E-2,1.0870278E-2,-5.094738E-2,1.3338807E0,7.0824833E-3,-8.0434166E-2,1.5115766E-1,2.504982E-1,2.429291E-2,1.3955416E-1,4.4814774E-1,2.1889616E1,3.3259976E-1,1.3411305E-2,-4.6798117E-2,-3.3892814E-2,1.2815398E-3,-2.4540637E-1,2.240305E-2,-3.5849426E-2,8.8874465E-3,-2.712295E-2,6.370623E-2,-1.0559662E-4,1.8272711E0,3.2944713E0,1.4472537E-3,-2.2116457E-3,-1.6453126E-3,2.9391779E-2,1.7620304E-1,1.1327566E-2,-5.0259346E-1,-3.159369E-2,3.220179E-2,5.054415E-2,1.1327566E-2,1.6507936E1,3.5635864E1,2.0515394E1,3.861216E-1,4.7587138E-2,8.447787E-4,1.1327566E-2,-1.3941788E-2,5.1189438E-2,5.671478E-3,-6.3347286E-3,3.5290476E-2,3.9499186E-2,8.447787E-4,-3.3862155E-2,1.8964157E-2,4.7341786E-2,8.738927E-3,2.7860288E-2,-3.159369E-2,-3.959229E-2,-3.2730957E-3,-3.3892814E-2,3.8442377E-2,-4.685505E-2,-1.4315875E-2,5.671478E-3,4.8489764E-2,-4.6227682E-2,3.199464E-2,-1.6495822E-2,-5.3176727E-2,4.2585274E-3,-3.4850102E-2,3.232594E-2,-6.657786E-3,-7.5748684E-3,-5.26022E-2,3.66279E-2,-1.7357267E-2],"split_indices":[6,17,2,0,5,0,8,9,2,17,17,6,13,4,5,14,0,15,1,8,0,22,8,8,6,11,0,10,4,9,10,0,0,0,8,1,8,0,8,0,6,14,21,21,15,15,15,5,6,0,1,0,0,0,0,9,9,9,2,0,0,0,0,0,0,0,0,0,0,0,0,0,0,0,0,0,0,0,0,0,0,0,0,0,0,0,0,0,0,0,0,0,0,0,0],"split_type":[0,0,0,0,0,0,0,0,0,0,0,0,0,0,0,0,0,0,0,0,0,0,0,0,0,0,0,0,0,0,0,0,0,0,0,0,0,0,0,0,0,0,0,0,0,0,0,0,0,0,0,0,0,0,0,0,0,0,0,0,0,0,0,0,0,0,0,0,0,0,0,0,0,0,0,0,0,0,0,0,0,0,0,0,0,0,0,0,0,0,0,0,0,0,0],"sum_hessian":[2.8236884E2,1.1911467E2,1.6325418E2,5.5913292E1,6.3201378E1,6.441684E1,9.883734E1,1.1908288E1,4.4005005E1,1.121727E1,5.1984108E1,3.7363464E1,2.7053373E1,8.853642E0,8.9983696E1,5.2202644E0,6.6880236E0,2.7600876E1,1.640413E1,5.687516E0,5.529753E0,3.0905848E1,2.107826E1,2.570611E1,1.1657356E1,2.5685503E1,1.3678694E0,2.2710624E0,6.58258E0,5.6603226E1,3.3380474E1,1.7180872E0,3.5021772E0,1.2902758E0,5.3977475E0,2.4553876E0,2.5145487E1,1.4746009E0,1.4929529E1,2.2316217E0,3.4558947E0,1.9906307E1,1.0999541E1,8.202065E0,1.2876196E1,5.1542616E0,2.0551847E1,5.6017933E0,6.055563E0,1.1453915E0,2.4540112E1,1.1059507E0,1.1651118E0,5.4371886E0,1.1453915E0,2.3145279E1,3.3457947E1,2.744947E1,5.9310026E0,3.883706E0,1.5140417E0,1.1453915E0,1.3099961E0,2.3815771E1,1.3297166E0,3.5810587E0,1.1348471E1,1.941853E0,1.5140417E0,4.831894E0,1.5074413E1,9.097129E0,1.9024123E0,7.0961146E0,1.1059507E0,8.722442E0,4.153754E0,1.2902758E0,3.8639855E0,7.0240746E0,1.3527773E1,1.3297166E0,4.2720766E0,3.317852E0,2.737711E0,3.5797708E0,2.096034E1,1.4403116E1,8.742162E0,2.2880663E1,1.0577284E1,1.4324235E1,1.3125236E1,4.4366813E0,1.4943213E0],"tree_param":{"num_deleted":"0","num_feature":"36","num_nodes":"95","size_leaf_vector":"1"}},{"base_weights":[1.2000866E-2,3.5880995E-1,-2.757318E-1,6.2071997E-1,-3.5577372E-1,4.845235E-2,-3.4604004E-1,-4.1591194E-2,6.877522E-1,-9.1478974E-1,2.0302476E-1,-7.3881394E-1,-2.8236158E-2,2.960343E-1,1.0623974E0,5.335679E-1,-1.2280751E0,7.995869E-1,-8.4895355E-1,-3.6604574E-1,-1.524093E0,1.2318854E0,-2.0691015E-1,-4.426805E-1,6.365581E-1,5.257675E-1,1.3992571E0,3.6529638E-2,-1.360977E-2,-5.2814867E-2,-3.7582025E-1,1.1794E0,-3.5506956E-2,1.8806892E-2,-1.3625997E0,1.0819192E0,-6.1038786E-1,-1.6502063E0,1.1296438E-2,5.0907474E-2,1.932636E-1,1.370492E-1,-7.297904E-1,2.2650436E-2,-2.8997352E-2,-2.2290317E-2,3.0875308E-2,4.7827486E-2,3.776426E-3,4.4562913E-2,1.077218E-2,5.824784E-3,-3.8423356E-2,4.3676335E-2,-1.406416E-2,-9.830459E-3,-4.645743E-2,-1.6689075E-2,4.8383657E-2,-3.4262296E-2,1.0198891E-2,-9.761787E-3,-5.348811E-2,3.566262E-2,-2.2860104E-2,-1.5375756E-2,1.499219E-2,4.1202884E-2,-2.8735552E-2],"categories":[],"categories_nodes":[],"categories_segments":[],"categories_sizes":[],"default_left":[0,0,0,0,0,0,0,0,0,0,0,0,0,0,0,0,0,0,0,0,0,0,0,0,0,0,0,0,0,0,0,0,0,0,0,0,0,0,0,0,0,0,0,0,0,0,0,0,0,0,0,0,0,0,0,0,0,0,0,0,0,0,0,0,0,0,0,0,0],"id":1,"left_children":[1,3,5,7,9,-1,11,-1,13,15,17,19,21,23,25,27,29,31,33,35,37,39,41,43,45,47,49,-1,-1,-1,51,53,-1,-1,55,57,59,61,-1,-1,63,65,67,-1,-1,-1,-1,-1,-1,-1,-1,-1,-1,-1,-1,-1,-1,-1,-1,-1,-1,-1,-1,-1,-1,-1,-1,-1,-1],"loss_changes":[2.840323E1,2.4373867E1,2.1243065E1,1.3708286E1,1.1196854E1,0E0,1.8807295E1,0E0,1.3246788E1,8.733325E0,1.2255309E1,1.917818E1,1.9260996E1,1.1994155E1,7.732769E0,3.161366E0,6.1174145E0,1.0650196E1,6.2822E0,1.7301304E1,5.7476196E0,4.804653E0,1.3550649E1,1.0318012E1,1.8248978E1,8.203028E0,1.9924393E0,0E0,0E0,0E0,3.8675303E0,5.609584E0,0E0,0E0,5.755739E-1,7.116972E0,2.1046154E1,2.9791756E0,0E0,0E0,5.104342E0,1.1082728E1,1.562574E1,0E0,0E0,0E0,0E0,0E0,0E0,0E0,0E0,0E0,0E0,0E0,0E0,0E0,0E0,0E0,0E0,0E0,0E0,0E0,0E0,0E0,0E0,0E0,0E0,0E0,0E0],"parents":[2147483647,0,0,1,1,2,2,3,3,4,4,6,6,8,8,9,9,10,10,11,11,12,12,13,13,14,14,15,15,16,16,17,17,18,18,19,19,20,20,21,21,22,22,23,23,24,24,25,25,26,26,30,30,31,31,34,34,35,35,36,36,37,37,40,40,41,41,42,42],"right_children":[2,4,6,8,10,-1,12,-1,14,16,18,20,22,24,26,28,30,32,34,36,38,40,42,44,46,48,50,-1,-1,-1,52,54,-1,-1,56,58,60,62,-1,-1,64,66,68,-1,-1,-1,-1,-1,-1,-1,-1,-1,-1,-1,-1,-1,-1,-1,-1,-1,-1,-1,-1,-1,-1,-1,-1,-1,-1],"split_conditions":[3.908046E-1,2.2616117E-1,-1.44195E1,1.880531E1,2.1889616E1,4.845235E-2,-3.5312053E-2,-4.1591194E-2,1.5230961E-1,-8.5853634E-4,1.025911E-2,-1.0735535E-2,-2.5051821E-2,-1.0027711E-2,-3.8570102E-4,1.1485775E-3,1.460113E-1,6.7037565E-4,2.2906542E1,1.9491104E-4,1.150938E0,-1.4881945E-4,4.142195E-1,4.9357437E-2,-2.9276026E-4,-2.5030547E-1,1.4451758E0,3.6529638E-2,-1.360977E-2,-5.2814867E-2,4.4506055E-1,4.2578515E-1,-3.5506956E-2,1.8806892E-2,-8.123303E-2,5.920139E-1,-3.0452376E-2,-2.5253266E-3,1.1296438E-2,5.0907474E-2,-7.163919E-2,2.1812152E-2,-2.3511906E-1,2.2650436E-2,-2.8997352E-2,-2.2290317E-2,3.0875308E-2,4.7827486E-2,3.776426E-3,4.4562913E-2,1.077218E-2,5.824784E-3,-3.8423356E-2,4.3676335E-2,-1.406416E-2,-9.830459E-3,-4.645743E-2,-1.6689075E-2,4.8383657E-2,-3.4262296E-2,1.0198891E-2,-9.761787E-3,-5.348811E-2,3.566262E-2,-2.2860104E-2,-1.5375756E-2,1.499219E-2,4.1202884E-2,-2.8735552E-2],"split_indices":[7,5,22,0,9,0,2,0,7,19,8,8,8,8,15,17,10,19,9,19,18,19,2,5,19,10,18,0,0,0,1,5,0,0,10,7,8,17,0,0,8,8,3,0,0,0,0,0,0,0,0,0,0,0,0,0,0,0,0,0,0,0,0,0,0,0,0,0,0],"split_type":[0,0,0,0,0,0,0,0,0,0,0,0,0,0,0,0,0,0,0,0,0,0,0,0,0,0,0,0,0,0,0,0,0,0,0,0,0,0,0,0,0,0,0,0,0,0,0,0,0,0,0,0,0,0,0,0,0,0,0,0,0,0,0,0,0,0,0,0,0],"sum_hessian":[2.826434E2,1.280525E2,1.545909E2,9.380306E1,3.4249447E1,4.754554E0,1.4983633E2,2.3954628E0,9.14076E1,1.680292E1,1.7446527E1,6.642139E1,8.341495E1,4.5560776E1,4.584683E1,2.8631382E0,1.3939782E1,1.12862015E1,6.160326E0,4.6034954E1,2.0386435E1,9.626712E0,7.378824E1,1.4280782E1,3.1279993E1,1.8668314E1,2.7178514E1,1.5533527E0,1.3097855E0,7.923884E0,6.015898E0,9.812251E0,1.4739507E0,1.5335429E0,4.626783E0,6.151781E0,3.9883175E1,1.9241468E1,1.1449658E0,6.211688E0,3.4150238E0,4.4954388E1,2.8833849E1,4.211539E0,1.00692425E1,6.7322016E0,2.454779E1,4.270621E0,1.4397693E1,2.470389E1,2.4746246E0,4.173013E0,1.8428851E0,8.502662E0,1.3095891E0,1.1255298E0,3.5012531E0,1.4938788E0,4.6579022E0,2.5445534E1,1.4437641E1,2.06653E0,1.7174938E1,1.5526137E0,1.8624101E0,1.5958959E1,2.899543E1,2.329414E0,2.6504436E1],"tree_param":{"num_deleted":"0","num_feature":"36","num_nodes":"69","size_leaf_vector":"1"}},{"base_weights":[-2.0920238E-2,4.2549846E-1,-3.3396313E-1,8.466373E-1,3.700785E-2,-1.5342893E-1,-8.113122E-1,3.4419754E-1,1.0527785E0,1.2201645E0,-1.0562033E-1,2.4859625E-1,-3.5493857E-1,-1.3173088E0,-5.886764E-2,-3.6401734E-2,5.7778156E-1,1.6386516E0,4.668918E-1,5.026987E-3,4.3376278E-2,2.9025057E-1,-4.9147668E-1,-1.17408745E-1,1.5660082E0,-1.3501698E0,-1.1557566E-3,-1.479097E0,-1.8959165E-1,2.3111306E-1,-4.231727E-2,-4.0898106E-1,9.4816124E-1,1.3391505E-2,5.1881738E-2,7.0058674E-1,-3.857004E-2,7.821027E-1,-3.70978E-1,1.0312784E0,-7.934942E-1,-6.712283E-1,5.9621114E-1,5.0709438E-2,1.1207818E-2,-1.9776608E-1,-1.5681928E0,-4.8855776E-1,4.5947912E-1,-1.6861194E0,-4.847603E-1,1.9357953E-2,-3.482378E-2,4.870675E-1,-3.7522707E-2,3.8939135E-3,-3.4037855E-2,3.6585994E-2,-1.7643468E-2,3.1029634E-2,1.5794076E-3,-4.083243E-2,3.6116377E-2,-2.7326372E-2,2.3391878E-2,3.8187746E-2,5.515546E-3,-3.0251894E-2,2.7130729E-2,-9.82199E-3,-4.7370918E-2,-9.753881E-3,3.6157772E-2,-3.9595436E-2,3.6309093E-2,1.21476585E-2,-5.1783077E-2,1.6476058E-3,-3.2533966E-2,2.4283862E-2,-1.6512347E-2,-5.2487127E-2,-1.6704908E-2,7.3063956E-3,-3.756405E-2,2.2602575E-2,-3.4967076E-2],"categories":[],"categories_nodes":[],"categories_segments":[],"categories_sizes":[],"default_left":[0,0,0,0,0,0,0,0,0,0,0,0,0,0,0,0,0,0,0,0,0,0,0,0,0,0,0,0,0,0,0,0,0,0,0,0,0,0,0,0,0,0,0,0,0,0,0,0,0,0,0,0,0,0,0,0,0,0,0,0,0,0,0,0,0,0,0,0,0,0,0,0,0,0,0,0,0,0,0,0,0,0,0,0,0,0,0],"id":2,"left_children":[1,3,5,7,9,11,13,15,17,19,21,23,25,27,29,-1,31,33,35,-1,-1,37,39,41,43,45,47,49,51,53,-1,55,57,-1,-1,59,-1,61,63,65,67,69,71,-1,-1,73,75,77,79,81,83,-1,-1,85,-1,-1,-1,-1,-1,-1,-1,-1,-1,-1,-1,-1,-1,-1,-1,-1,-1,-1,-1,-1,-1,-1,-1,-1,-1,-1,-1,-1,-1,-1,-1,-1,-1],"loss_changes":[3.9898407E1,1.9225698E1,1.433473E1,5.482506E0,1.0636998E1,1.0050604E1,1.7363653E1,7.2147017E0,1.2803471E1,1.3682194E0,8.771636E0,2.0265171E1,2.8985447E1,4.7084236E0,7.9560385E0,0E0,6.3252296E0,1.3231926E0,9.568226E0,0E0,0E0,9.563146E0,1.4145592E1,1.3648815E1,7.209892E-1,5.114277E0,1.4085421E1,4.0748215E0,4.460668E0,7.0141997E0,0E0,2.1537147E0,5.7673597E0,0E0,0E0,4.1233206E0,0E0,1.6709183E1,8.687561E0,8.3718395E-1,9.941664E0,5.521117E0,8.908594E0,0E0,0E0,8.832154E0,6.310581E0,9.931484E0,1.1846102E1,4.0634918E-1,3.3782094E0,0E0,0E0,7.5334253E0,0E0,0E0,0E0,0E0,0E0,0E0,0E0,0E0,0E0,0E0,0E0,0E0,0E0,0E0,0E0,0E0,0E0,0E0,0E0,0E0,0E0,0E0,0E0,0E0,0E0,0E0,0E0,0E0,0E0,0E0,0E0,0E0,0E0],"parents":[2147483647,0,0,1,1,2,2,3,3,4,4,5,5,6,6,7,7,8,8,9,9,10,10,11,11,12,12,13,13,14,14,16,16,17,17,18,18,21,21,22,22,23,23,24,24,25,25,26,26,27,27,28,28,29,29,31,31,32,32,35,35,37,37,38,38,39,39,40,40,41,41,42,42,45,45,46,46,47,47,48,48,49,49,50,50,53,53],"right_children":[2,4,6,8,10,12,14,16,18,20,22,24,26,28,30,-1,32,34,36,-1,-1,38,40,42,44,46,48,50,52,54,-1,56,58,-1,-1,60,-1,62,64,66,68,70,72,-1,-1,74,76,78,80,82,84,-1,-1,86,-1,-1,-1,-1,-1,-1,-1,-1,-1,-1,-1,-1,-1,-1,-1,-1,-1,-1,-1,-1,-1,-1,-1,-1,-1,-1,-1,-1,-1,-1,-1,-1,-1],"split_conditions":[8.1468344E-2,-3.5312053E-2,6.0571883E-2,8.462614E-2,-2.4295346E-1,-1.4945121E-2,5.421065E-1,5.2291047E-2,2.0639466E-1,-1.1025603E-1,2.1084131E1,-1.9048108E-1,-5.0241213E-2,7.2753468E0,5.7066254E-2,-3.6401734E-2,2.2459085E1,-5.066387E-4,-1.6580682E-1,5.026987E-3,4.3376278E-2,2.122085E-1,3.155648E-2,1.2425215E-1,2.7701181E1,-2.5253266E-3,2.2312323E1,1.4924917E0,-8.829242E-5,5.266531E0,-4.231727E-2,1.6850792E1,6.698954E-2,1.3391505E-2,5.1881738E-2,3.7823408E-3,-3.857004E-2,-1.3215073E-2,1.2013821E-1,9.537186E-2,1.6142951E-1,4.9661305E-2,-1.2292778E-4,5.0709438E-2,1.1207818E-2,6.432136E-2,2.8225806E-1,1.59651165E1,4.0872253E1,1.4141144E-1,1.10231586E-1,1.9357953E-2,-3.482378E-2,3.070017E-1,-3.7522707E-2,3.8939135E-3,-3.4037855E-2,3.6585994E-2,-1.7643468E-2,3.1029634E-2,1.5794076E-3,-4.083243E-2,3.6116377E-2,-2.7326372E-2,2.3391878E-2,3.8187746E-2,5.515546E-3,-3.0251894E-2,2.7130729E-2,-9.82199E-3,-4.7370918E-2,-9.753881E-3,3.6157772E-2,-3.9595436E-2,3.6309093E-2,1.21476585E-2,-5.1783077E-2,1.6476058E-3,-3.2533966E-2,2.4283862E-2,-1.6512347E-2,-5.2487127E-2,-1.6704908E-2,7.3063956E-3,-3.756405E-2,2.2602575E-2,-3.4967076E-2],"split_indices":[6,2,3,4,10,8,5,6,4,3,9,2,2,21,8,0,9,15,1,0,0,5,5,6,9,17,9,11,12,21,0,9,4,0,0,8,0,8,3,2,3,10,13,0,0,5,7,9,9,6,6,0,0,4,0,0,0,0,0,0,0,0,0,0,0,0,0,0,0,0,0,0,0,0,0,0,0,0,0,0,0,0,0,0,0,0,0],"split_type":[0,0,0,0,0,0,0,0,0,0,0,0,0,0,0,0,0,0,0,0,0,0,0,0,0,0,0,0,0,0,0,0,0,0,0,0,0,0,0,0,0,0,0,0,0,0,0,0,0,0,0,0,0,0,0,0,0,0,0,0,0,0,0,0,0,0,0,0,0,0,0,0,0,0,0,0,0,0,0,0,0,0,0,0,0,0,0],"sum_hessian":[2.8348532E2,1.167019E2,1.6678342E2,5.543208E1,6.1269817E1,1.21974045E2,4.480937E1,1.6903046E1,3.8529034E1,5.7786646E0,5.549115E1,4.064697E1,8.132708E1,2.6343464E1,1.8465904E1,1.6572797E0,1.5245766E1,1.8366295E1,2.0162739E1,1.3279947E0,4.45067E0,2.7512434E1,2.7978718E1,3.2522427E1,8.124541E0,2.0589659E1,6.073742E1,2.276578E1,3.5776834E0,1.5886754E1,2.5791495E0,4.1323004E0,1.1113465E1,1.7175856E0,1.6648708E1,1.8320097E1,1.8426424E0,1.5672046E1,1.1840387E1,4.2311044E0,2.3747614E1,1.8344894E1,1.4177533E1,6.9793983E0,1.1451433E0,3.5790381E0,1.701062E1,2.948182E1,3.1255602E1,1.8266867E1,4.498913E0,2.1043544E0,1.473329E0,1.4119325E1,1.7674297E0,2.8426878E0,1.2896128E0,9.620288E0,1.4931766E0,1.16983185E1,6.621778E0,2.2108715E0,1.3461174E1,8.200982E0,3.6394055E0,2.9015982E0,1.329506E0,2.1439968E1,2.3076468E0,1.4292344E1,4.0525503E0,5.827746E0,8.349787E0,2.0266595E0,1.5523787E0,1.1445812E0,1.5866039E1,1.5894032E1,1.3587788E1,2.3358913E1,7.8966885E0,1.6775059E1,1.4918087E0,2.6584406E0,1.8404726E0,1.26281805E1,1.4911442E0],"tree_param":{"num_deleted":"0","num_feature":"36","num_nodes":"87","size_leaf_vector":"1"}},{"base_weights":[-8.095964E-3,4.3409142E-1,-3.1302375E-1,7.2601616E-1,-4.289201E-2,-6.457161E-1,-2.7277356E-2,-1.0413306E-2,9.5882875E-1,5.065312E-1,-8.582815E-1,-1.5563877E-1,-1.3540883E0,3.3978835E-1,-5.355008E-1,1.0232763E0,-8.7817454E-1,-3.291887E-2,1.0302144E0,1.0989163E0,-4.1335005E-1,-1.2118684E0,5.1260984E-1,1.9255714E-1,-9.393782E-1,-1.5202035E0,2.225744E-2,1.1412362E0,7.865513E-2,-1.304187E0,1.3595985E-1,-1.5045107E-2,1.3621795E0,-1.5028019E0,2.707037E-2,1.0952355E0,-3.1377558E-2,8.262981E-2,1.3710139E0,-8.695542E-1,2.8614953E-2,1.4962516E-2,-1.5663059E0,-1.7314762E-2,3.7890725E-2,-2.8615918E-2,4.23827E-2,3.2242835E-2,-1.1979305E0,-3.496139E-1,-5.2560035E-2,-6.3751475E-3,1.3914517E0,8.131578E-1,-3.0761936E-1,-5.5090255E-1,-1.6376607E0,6.5393E-1,-1.174324E0,4.4965398E-2,9.885626E-3,-4.9731635E-2,-8.78464E-3,1.3810607E-2,3.890475E-2,-3.8070276E-2,3.8301792E-2,4.1533024E-3,4.4932522E-2,-4.583537E-2,-3.8590576E-3,-7.438356E-3,-5.3320087E-2,3.6752712E-2,-1.0017982E-2,-4.1118667E-2,1.0077617E-2,-4.088723E-2,2.3604507E-2,7.169793E-4,4.8190013E-2,3.1832024E-2,-2.0005804E-2,-2.9589294E-2,1.6464027E-2,-4.185777E-2,7.7510956E-3,-1.3224755E-2,-5.2324727E-2,1.6087973E-3,4.8673805E-2,4.875026E-3,-4.6739854E-2],"categories":[],"categories_nodes":[],"categories_segments":[],"categories_sizes":[],"default_left":[0,0,0,0,0,0,0,0,0,0,0,0,0,0,0,0,0,0,0,0,0,0,0,0,0,0,0,0,0,0,0,0,0,0,0,0,0,0,0,0,0,0,0,0,0,0,0,0,0,0,0,0,0,0,0,0,0,0,0,0,0,0,0,0,0,0,0,0,0,0,0,0,0,0,0,0,0,0,0,0,0,0,0,0,0,0,0,0,0,0,0,0,0],"id":3,"left_children":[1,3,5,7,9,11,13,15,17,19,21,23,25,27,29,31,33,-1,35,37,39,41,43,45,47,49,-1,51,53,55,57,-1,59,61,-1,63,-1,65,67,69,-1,-1,71,-1,-1,73,-1,-1,75,77,-1,-1,79,81,83,85,87,89,91,-1,-1,-1,-1,-1,-1,-1,-1,-1,-1,-1,-1,-1,-1,-1,-1,-1,-1,-1,-1,-1,-1,-1,-1,-1,-1,-1,-1,-1,-1,-1,-1,-1,-1],"loss_changes":[3.7660957E1,1.5905674E1,1.5696495E1,1.2144863E1,2.0248526E1,2.6288006E1,1.696538E1,1.7035717E1,9.025303E0,1.5195615E1,9.431465E0,1.2801443E1,1.1950542E1,1.0970853E1,1.9851177E1,5.1644077E0,1.2831537E1,0E0,8.232456E0,4.512665E0,7.892066E0,9.7218895E0,4.351289E0,8.90604E0,8.784456E0,7.291374E0,0E0,4.67E0,1.1864395E1,3.5858345E0,1.5190591E1,0E0,5.453987E-1,1.0167427E0,0E0,5.9805717E0,0E0,9.0398445E0,1.8439503E0,4.199741E0,0E0,0E0,3.024952E0,0E0,0E0,1.1429302E1,0E0,0E0,3.9651794E0,8.055279E0,0E0,0E0,3.2034702E0,5.984823E0,1.6556175E1,5.1363344E0,7.4497414E-1,9.141439E0,3.5246286E0,0E0,0E0,0E0,0E0,0E0,0E0,0E0,0E0,0E0,0E0,0E0,0E0,0E0,0E0,0E0,0E0,0E0,0E0,0E0,0E0,0E0,0E0,0E0,0E0,0E0,0E0,0E0,0E0,0E0,0E0,0E0,0E0,0E0,0E0],"parents":[2147483647,0,0,1,1,2,2,3,3,4,4,5,5,6,6,7,7,8,8,9,9,10,10,11,11,12,12,13,13,14,14,15,15,16,16,18,18,19,19,20,20,21,21,22,22,23,23,24,24,25,25,27,27,28,28,29,29,30,30,32,32,33,33,35,35,37,37,38,38,39,39,42,42,45,45,48,48,49,49,52,52,53,53,54,54,55,55,56,56,57,57,58,58],"right_children":[2,4,6,8,10,12,14,16,18,20,22,24,26,28,30,32,34,-1,36,38,40,42,44,46,48,50,-1,52,54,56,58,-1,60,62,-1,64,-1,66,68,70,-1,-1,72,-1,-1,74,-1,-1,76,78,-1,-1,80,82,84,86,88,90,92,-1,-1,-1,-1,-1,-1,-1,-1,-1,-1,-1,-1,-1,-1,-1,-1,-1,-1,-1,-1,-1,-1,-1,-1,-1,-1,-1,-1,-1,-1,-1,-1,-1,-1],"split_conditions":[8.180948E-2,1.1141069E-2,-3.3683714E-2,5.8373086E-2,2.2906542E1,4.2023346E1,3.473544E-1,-8.6393695E-5,1.880531E1,2.122085E-1,3.441906E-2,-1.690503E-2,3.0884584E-3,1.2768106E-1,5.354746E-1,-1.2474226E0,2.122085E-1,-3.291887E-2,8.301158E1,-7.5697567E-4,1.2311443E-3,5.439646E-2,1.3787847E0,-1.0297173E0,1.4320685E-1,9.0652026E-2,2.225744E-2,4.1808748E-1,4.9698535E-1,2.518018E-4,8.77193E-1,-1.5045107E-2,5.4636784E-2,4.22833E-4,2.707037E-2,8.440249E-5,-3.1377558E-2,2.8858218E-1,1.4205497E-2,1.4592764E0,2.8614953E-2,1.4962516E-2,-8.3447783E-4,-1.7314762E-2,3.7890725E-2,-1.44195E1,4.23827E-2,3.2242835E-2,6.687488E-1,4.566745E-1,-5.2560035E-2,-6.3751475E-3,5.3271027E1,5.664557E1,1.1275398E-1,1.1576552E-1,9.537186E-2,1.4943215E-1,-5.3766433E-2,4.4965398E-2,9.885626E-3,-4.9731635E-2,-8.78464E-3,1.3810607E-2,3.890475E-2,-3.8070276E-2,3.8301792E-2,4.1533024E-3,4.4932522E-2,-4.583537E-2,-3.8590576E-3,-7.438356E-3,-5.3320087E-2,3.6752712E-2,-1.0017982E-2,-4.1118667E-2,1.0077617E-2,-4.088723E-2,2.3604507E-2,7.169793E-4,4.8190013E-2,3.1832024E-2,-2.0005804E-2,-2.9589294E-2,1.6464027E-2,-4.185777E-2,7.7510956E-3,-1.3224755E-2,-5.2324727E-2,1.6087973E-3,4.8673805E-2,4.875026E-3,-4.6739854E-2],"split_indices":[6,8,2,6,9,0,5,17,0,5,8,8,14,4,5,22,5,0,0,16,16,6,22,22,7,6,0,7,7,16,7,0,6,12,0,19,0,7,8,22,0,0,14,0,0,22,0,0,4,7,0,0,0,0,6,6,2,6,8,0,0,0,0,0,0,0,0,0,0,0,0,0,0,0,0,0,0,0,0,0,0,0,0,0,0,0,0,0,0,0,0,0,0],"split_type":[0,0,0,0,0,0,0,0,0,0,0,0,0,0,0,0,0,0,0,0,0,0,0,0,0,0,0,0,0,0,0,0,0,0,0,0,0,0,0,0,0,0,0,0,0,0,0,0,0,0,0,0,0,0,0,0,0,0,0,0,0,0,0,0,0,0,0,0,0,0,0,0,0,0,0,0,0,0,0,0,0,0,0,0,0,0,0,0,0,0,0,0,0],"sum_hessian":[2.773032E2,1.1300572E2,1.6429747E2,6.977793E1,4.3227787E1,7.5330734E1,8.896674E1,1.6990164E1,5.278777E1,2.6052177E1,1.717561E1,4.524697E1,3.0083765E1,5.1849632E1,3.7117107E1,7.6719785E0,9.318185E0,1.2890083E0,5.149876E1,1.5728627E1,1.0323549E1,1.374614E1,3.4294703E0,3.1850775E1,1.3396196E1,2.8129148E1,1.9546157E0,1.191397E1,3.993566E1,1.6866302E1,2.0250807E1,1.3078713E0,6.364107E0,7.0136805E0,2.304505E0,5.0392998E1,1.1057612E0,3.5971022E0,1.2131525E1,8.013552E0,2.3099985E0,2.2894454E0,1.1456695E1,1.4926666E0,1.9368037E0,2.7790098E1,4.0606775E0,1.1648781E0,1.2231318E1,5.0639944E0,2.3065155E1,1.8820778E0,1.0031892E1,1.3382897E1,2.6552767E1,5.9892297E0,1.0877073E1,1.4872473E1,5.3783336E0,5.2216096E0,1.1424975E0,5.889572E0,1.124108E0,1.2936066E1,3.7456932E1,1.6578215E0,1.9392807E0,1.3261845E0,1.0805341E1,3.68098E0,4.3325715E0,1.8809358E0,9.575758E0,4.852404E0,2.2937693E1,1.10892315E1,1.1420869E0,2.5716794E0,2.492315E0,1.5131464E0,8.518745E0,1.1705281E1,1.6776158E0,1.4728864E1,1.1823902E1,2.5767157E0,3.4125142E0,1.3087195E0,9.568354E0,9.833162E0,5.0393105E0,1.3279203E0,4.050413E0],"tree_param":{"num_deleted":"0","num_feature":"36","num_nodes":"93","size_leaf_vector":"1"}},{"base_weights":[2.983599E-2,4.698518E-1,-2.6919755E-1,7.661473E-1,5.457372E-3,-3.74851E-1,6.5429544E-1,1.6795914E-1,1.0233843E0,3.6763966E-1,-9.382417E-1,-1.10460766E-1,-7.6001054E-1,1.2068573E0,-9.1772115E-1,-1.8816845E-1,1.2044652E0,1.0927014E0,-3.0790353E-2,-4.2431968E-1,7.2735196E-1,-1.2943523E0,1.4887384E-2,2.4242102E-1,-8.618624E-1,-8.841784E-1,4.2336985E-2,1.469396E0,-2.9910384E-2,1.212446E-2,-4.2408522E-2,5.7731926E-1,-7.4219483E-1,4.2947005E-2,1.2549735E-2,1.1816934E0,-4.8390117E-1,-1.1687799E0,4.747822E-1,-2.6245633E-1,1.2640097E0,1.1883654E-2,-1.5402318E0,-2.1035003E-2,8.18159E-1,-1.3954833E0,-4.414314E-1,9.1766095E-1,-1.026298E0,8.81816E-3,4.9593512E-2,3.1011922E-2,-2.079815E-2,-3.9117087E-2,2.2836253E-2,-1.8615136E-2,3.7957493E-2,-3.341418E-2,1.0771383E-2,-3.2137919E-3,-4.5914315E-2,3.0238194E-2,-9.682312E-3,2.5962232E-2,-2.7737254E-2,4.1384507E-2,8.716867E-3,-5.010189E-2,-9.162905E-3,3.412443E-2,-8.017562E-3,3.3286046E-2,5.9089693E-4,-4.786861E-2,9.3473773E-4,-2.381073E-2,3.6711056E-2,-9.339069E-3,4.1219603E-2,-1.2579034E-2,-4.0703677E-2],"categories":[],"categories_nodes":[],"categories_segments":[],"categories_sizes":[],"default_left":[0,0,0,0,0,0,0,0,0,0,0,0,0,0,0,0,0,0,0,0,0,0,0,0,0,0,0,0,0,0,0,0,0,0,0,0,0,0,0,0,0,0,0,0,0,0,0,0,0,0,0,0,0,0,0,0,0,0,0,0,0,0,0,0,0,0,0,0,0,0,0,0,0,0,0,0,0,0,0,0,0],"id":4,"left_children":[1,3,5,7,9,11,13,15,17,19,21,23,25,27,29,31,33,35,-1,37,39,41,-1,43,45,47,-1,49,-1,-1,-1,51,53,-1,-1,55,57,59,61,63,65,-1,67,69,71,73,75,77,79,-1,-1,-1,-1,-1,-1,-1,-1,-1,-1,-1,-1,-1,-1,-1,-1,-1,-1,-1,-1,-1,-1,-1,-1,-1,-1,-1,-1,-1,-1,-1,-1],"loss_changes":[3.717125E1,1.5720562E1,1.6662304E1,1.0562511E1,1.59033985E1,1.5355967E1,1.6428467E1,8.411709E0,8.024647E0,9.8844795E0,7.2354107E0,2.435821E1,1.7840256E1,9.266033E0,3.9506764E0,7.79448E0,4.3762112E-1,7.233639E0,0E0,8.005074E0,1.2805859E1,5.0230236E0,0E0,9.535581E0,5.9627247E0,1.6006962E1,0E0,2.2030945E0,0E0,0E0,0E0,5.27188E0,9.870916E0,0E0,0E0,7.596752E0,2.1236484E0,2.2850876E0,2.771416E0,7.583956E0,1.3301792E0,0E0,1.008625E0,1.2862487E1,4.567333E0,3.6072102E0,1.1449471E1,3.1358414E0,1.0464836E1,0E0,0E0,0E0,0E0,0E0,0E0,0E0,0E0,0E0,0E0,0E0,0E0,0E0,0E0,0E0,0E0,0E0,0E0,0E0,0E0,0E0,0E0,0E0,0E0,0E0,0E0,0E0,0E0,0E0,0E0,0E0,0E0],"parents":[2147483647,0,0,1,1,2,2,3,3,4,4,5,5,6,6,7,7,8,8,9,9,10,10,11,11,12,12,13,13,14,14,15,15,16,16,17,17,19,19,20,20,21,21,23,23,24,24,25,25,27,27,31,31,32,32,35,35,36,36,37,37,38,38,39,39,40,40,42,42,43,43,44,44,45,45,46,46,47,47,48,48],"right_children":[2,4,6,8,10,12,14,16,18,20,22,24,26,28,30,32,34,36,-1,38,40,42,-1,44,46,48,-1,50,-1,-1,-1,52,54,-1,-1,56,58,60,62,64,66,-1,68,70,72,74,76,78,80,-1,-1,-1,-1,-1,-1,-1,-1,-1,-1,-1,-1,-1,-1,-1,-1,-1,-1,-1,-1,-1,-1,-1,-1,-1,-1,-1,-1,-1,-1,-1,-1],"split_conditions":[8.130878E-2,1.2081729E-2,1.7823716E-1,5.9626542E-2,2.3186027E-1,1.2723947E-4,4.4412613E-3,4.4412613E-3,8.301158E1,1.9670071E-2,1.2787323E-3,3.473544E-1,2.6014452E-3,2.3795576E-1,-1.2241969E-3,-1.6001613E-4,1.6789052E-1,1.4875398E-3,-3.0790353E-2,2.3940516E0,-4.2833292E-4,-2.8347515E-4,1.4887384E-2,3.7801984E-1,1.0871323E-1,-1.3892748E1,4.2336985E-2,2.7784315E-1,-2.9910384E-2,1.212446E-2,-4.2408522E-2,-1.2072968E-2,6.3557213E1,4.2947005E-2,1.2549735E-2,1.880531E1,1.1380947E-3,2.6894866E-2,6.567256E-2,-1.1802558E-3,2.6371956E0,1.1883654E-2,2.0207562E0,-1.2072968E-2,1.4916982E-3,8.7797615E1,-1.4881945E-4,-1.2077086E-3,-6.6829205E-1,8.81816E-3,4.9593512E-2,3.1011922E-2,-2.079815E-2,-3.9117087E-2,2.2836253E-2,-1.8615136E-2,3.7957493E-2,-3.341418E-2,1.0771383E-2,-3.2137919E-3,-4.5914315E-2,3.0238194E-2,-9.682312E-3,2.5962232E-2,-2.7737254E-2,4.1384507E-2,8.716867E-3,-5.010189E-2,-9.162905E-3,3.412443E-2,-8.017562E-3,3.3286046E-2,5.9089693E-4,-4.786861E-2,9.3473773E-4,-2.381073E-2,3.6711056E-2,-9.339069E-3,4.1219603E-2,-1.2579034E-2,-4.0703677E-2],"split_indices":[6,8,6,6,5,19,8,8,0,8,16,5,17,3,16,16,4,16,0,22,16,16,0,18,6,22,0,5,0,0,0,8,0,0,0,0,14,7,6,16,21,0,21,8,17,0,19,14,21,0,0,0,0,0,0,0,0,0,0,0,0,0,0,0,0,0,0,0,0,0,0,0,0,0,0,0,0,0,0,0,0],"split_type":[0,0,0,0,0,0,0,0,0,0,0,0,0,0,0,0,0,0,0,0,0,0,0,0,0,0,0,0,0,0,0,0,0,0,0,0,0,0,0,0,0,0,0,0,0,0,0,0,0,0,0,0,0,0,0,0,0,0,0,0,0,0,0,0,0,0,0,0,0,0,0,0,0,0,0,0,0,0,0,0,0],"sum_hessian":[2.805391E2,1.1328036E2,1.6725873E2,6.875997E1,4.452039E1,1.5062083E2,1.6637882E1,2.1174036E1,4.758593E1,3.2613922E1,1.190647E1,9.007574E1,6.0545105E1,1.2482564E1,4.1553187E0,1.6368523E1,4.8055143E0,4.6480957E1,1.1049753E0,1.013051E1,2.2483412E1,9.616797E0,2.2896726E0,6.1752296E1,2.8323439E1,5.7830692E1,2.7144122E0,1.145164E1,1.0309247E0,1.1840659E0,2.9712527E0,6.8550234E0,9.513498E0,3.0914464E0,1.7140679E0,4.4234596E1,2.2463584E0,5.3777604E0,4.75275E0,8.084096E0,1.4399315E1,1.1435574E0,8.47324E0,4.3026814E1,1.8725481E1,1.1459545E1,1.6863895E1,3.8289564E0,5.4001736E1,1.8993593E0,9.55228E0,5.1805315E0,1.6744915E0,7.0224423E0,2.4910564E0,1.6752629E0,4.2559334E1,1.1017417E0,1.1446167E0,1.6959594E0,3.6818008E0,2.690367E0,2.0623827E0,2.8767555E0,5.2073402E0,1.2499471E1,1.8998444E0,7.3481374E0,1.1251029E0,6.9071293E0,3.6119686E1,1.3433663E1,5.291818E0,9.945843E0,1.5137025E0,1.4351233E1,2.5126617E0,1.1228195E0,2.7061367E0,1.9836937E1,3.41648E1],"tree_param":{"num_deleted":"0","num_feature":"36","num_nodes":"81","size_leaf_vector":"1"}},{"base_weights":[-1.8555207E-2,3.982984E-1,-2.9886517E-1,7.1725446E-1,5.5077374E-2,-4.0793332E-1,6.0711795E-1,2.9178068E-1,1.1626331E0,-1.0478457E0,2.2774547E-1,-4.8421016E-1,9.228568E-1,1.1158096E0,-9.0772307E-1,4.173505E-1,-2.7698373E-2,1.372543E0,7.67447E-3,9.495845E-3,-4.652977E-2,6.5282965E-1,-1.7355067E-1,-2.5615254E-1,-1.0609376E0,1.3578853E-2,4.2770714E-2,1.3626492E0,-2.9807022E-2,1.2185504E-2,-4.1991167E-2,1.2562393E0,1.631278E-1,-1.4147471E-2,1.5006179E0,1.6973961E-2,-5.286116E-1,-4.5965275E-1,8.583917E-1,5.524725E-1,-8.0407935E-1,-1.5557502E-1,-1.3262509E0,-1.546363E0,-6.756716E-1,3.498113E-2,-3.5400573E-2,-5.192849E-3,4.9184278E-2,4.3766657E-3,4.5249987E-2,-3.2935053E-2,1.606018E-2,4.8765715E-2,1.7345464E-2,-3.28817E-2,8.337266E-3,1.1138441E-2,-2.607309E-2,3.0543383E-2,-1.14004E-2,-1.6460475E-2,3.136069E-2,-3.2874711E-3,-4.8302833E-2,-1.0008897E-2,1.1563878E-2,-1.6739994E-2,-4.68857E-2,-7.318052E-3,-5.129676E-2,2.975199E-2,-2.5464732E-2],"categories":[],"categories_nodes":[],"categories_segments":[],"categories_sizes":[],"default_left":[0,0,0,0,0,0,0,0,0,0,0,0,0,0,0,0,0,0,0,0,0,0,0,0,0,0,0,0,0,0,0,0,0,0,0,0,0,0,0,0,0,0,0,0,0,0,0,0,0,0,0,0,0,0,0,0,0,0,0,0,0,0,0,0,0,0,0,0,0,0,0,0,0],"id":5,"left_children":[1,3,5,7,9,11,13,15,17,19,21,23,25,27,29,31,-1,33,35,-1,-1,37,39,41,43,45,-1,47,-1,-1,-1,49,51,-1,53,-1,55,57,59,61,63,65,67,69,71,-1,-1,-1,-1,-1,-1,-1,-1,-1,-1,-1,-1,-1,-1,-1,-1,-1,-1,-1,-1,-1,-1,-1,-1,-1,-1,-1,-1],"loss_changes":[3.2684334E1,1.2274513E1,1.6770561E1,1.069334E1,1.0763244E1,1.5657221E1,1.5167751E1,5.132024E0,6.8043213E0,5.74893E0,8.404636E0,1.8454567E1,3.851934E0,8.747425E0,3.9099798E0,5.9552875E0,0E0,6.3244057E0,1.8940626E0,0E0,0E0,5.840249E0,1.2251373E1,1.0916826E1,6.4410934E0,6.912128E0,0E0,5.8674755E0,0E0,0E0,0E0,1.6185741E0,1.153131E1,0E0,1.6497536E0,0E0,1.7849095E0,1.8078226E0,4.4314985E0,7.401827E0,7.7786484E0,9.338377E0,7.177439E-1,3.1899261E0,7.797614E0,0E0,0E0,0E0,0E0,0E0,0E0,0E0,0E0,0E0,0E0,0E0,0E0,0E0,0E0,0E0,0E0,0E0,0E0,0E0,0E0,0E0,0E0,0E0,0E0,0E0,0E0,0E0,0E0],"parents":[2147483647,0,0,1,1,2,2,3,3,4,4,5,5,6,6,7,7,8,8,9,9,10,10,11,11,12,12,13,13,14,14,15,15,17,17,18,18,21,21,22,22,23,23,24,24,25,25,27,27,31,31,32,32,34,34,36,36,37,37,38,38,39,39,40,40,41,41,42,42,43,43,44,44],"right_children":[2,4,6,8,10,12,14,16,18,20,22,24,26,28,30,32,-1,34,36,-1,-1,38,40,42,44,46,-1,48,-1,-1,-1,50,52,-1,54,-1,56,58,60,62,64,66,68,70,72,-1,-1,-1,-1,-1,-1,-1,-1,-1,-1,-1,-1,-1,-1,-1,-1,-1,-1,-1,-1,-1,-1,-1,-1,-1,-1,-1,-1],"split_conditions":[8.130878E-2,1.8188657E-4,1.7823716E-1,-3.11653E-4,1.4011493E-1,3.3259976E-1,9.432738E-3,1.05215164E-4,1.7591001E-1,-1.17794126E-1,1.025911E-2,4.986511E-2,1.0809912E-1,2.3795576E-1,-1.5295179E-1,-2.5030547E-1,-2.7698373E-2,-8.818217E-2,3.9830978E-4,9.495845E-3,-4.652977E-2,5.6811042E-2,2.3186027E-1,1.5115766E-1,1.0942347E0,1.0079208E-1,4.2770714E-2,-2.2369709E-2,-2.9807022E-2,1.2185504E-2,-4.1991167E-2,-4.0212602E-4,-1.4669079E-1,-1.4147471E-2,4.3986205E-4,1.6973961E-2,8.60201E-4,5.3762406E-2,1.4875398E-3,-1.224954E-4,9.6408315E-2,2.0604464E-1,-2.1235636E-1,-6.122337E-1,4.8623976E-4,3.498113E-2,-3.5400573E-2,-5.192849E-3,4.9184278E-2,4.3766657E-3,4.5249987E-2,-3.2935053E-2,1.606018E-2,4.8765715E-2,1.7345464E-2,-3.28817E-2,8.337266E-3,1.1138441E-2,-2.607309E-2,3.0543383E-2,-1.14004E-2,-1.6460475E-2,3.136069E-2,-3.2874711E-3,-4.8302833E-2,-1.0008897E-2,1.1563878E-2,-1.6739994E-2,-4.68857E-2,-7.318052E-3,-5.129676E-2,2.975199E-2,-2.5464732E-2],"split_indices":[6,17,6,16,5,10,8,14,5,10,8,3,6,3,3,10,0,3,16,0,0,6,5,6,18,6,0,10,0,0,0,12,10,0,13,0,19,3,16,14,7,18,3,1,16,0,0,0,0,0,0,0,0,0,0,0,0,0,0,0,0,0,0,0,0,0,0,0,0,0,0,0,0],"split_type":[0,0,0,0,0,0,0,0,0,0,0,0,0,0,0,0,0,0,0,0,0,0,0,0,0,0,0,0,0,0,0,0,0,0,0,0,0,0,0,0,0,0,0,0,0,0,0,0,0,0,0,0,0,0,0,0,0,0,0,0,0,0,0,0,0,0,0,0,0,0,0,0,0],"sum_hessian":[2.776974E2,1.1148511E2,1.6621228E2,5.7220345E1,5.4264767E1,1.4884329E2,1.7368992E1,3.0110588E1,2.7109756E1,6.659356E0,4.7605408E1,1.4137619E2,7.467105E0,1.3199832E1,4.1691585E0,2.7885311E1,2.2252762E0,2.2780994E1,4.328763E0,1.8940897E0,4.7652664E0,2.2813145E1,2.4792265E1,1.02348335E2,3.902785E1,3.0246367E0,4.442468E0,1.2133923E1,1.06591E0,1.1833245E0,2.9858341E0,5.5685654E0,2.2316746E1,1.3052253E0,2.1475769E1,2.0942261E0,2.234537E0,3.3651564E0,1.9447989E1,1.1581047E1,1.3211218E1,9.460215E1,7.7461824E0,1.5935624E1,2.3092228E1,1.5505849E0,1.4740517E0,1.9103944E0,1.0223528E1,1.322464E0,4.2461014E0,4.6418347E0,1.7674911E1,1.8243261E1,3.2325077E0,1.1009471E0,1.1335897E0,1.1416084E0,2.223548E0,1.7383823E1,2.0641646E0,3.5459073E0,8.03514E0,7.7067285E0,5.5044894E0,7.146609E1,2.313606E1,2.614698E0,5.131484E0,2.0555863E0,1.3880037E1,1.7276858E0,2.1364544E1],"tree_param":{"num_deleted":"0","num_feature":"36","num_nodes":"73","size_leaf_vector":"1"}},{"base_weights":[2.3700008E-2,4.634191E-1,-2.9978302E-1,8.28008E-1,1.186436E-1,-7.0343506E-1,4.052892E-2,1.3167216E0,3.7334225E-1,6.5825903E-1,-1.5268E-1,1.0782828E0,-8.4536225E-1,-3.0556524E-1,5.0398666E-1,1.4379827E0,4.5975325E-1,1.280671E0,1.0283361E-1,9.0168613E-1,-3.8263418E-2,-3.4777993E-1,9.6533316E-1,7.1739904E-3,4.204003E-2,-9.836954E-1,4.198805E-1,-1.3784148E-1,-1.4080988E0,1.1954398E0,5.1346537E-2,4.598521E-2,6.1285123E-3,-1.1179976E-2,3.528862E-2,4.556174E-2,3.3736099E-3,-2.5131342E-1,7.532584E-1,1.109369E0,-2.1685041E-2,-5.699905E-1,6.036132E-1,-3.551379E-3,4.36785E-2,-1.2158905E0,-9.5668845E-2,-9.775328E-1,4.3582905E-2,6.8167555E-1,-2.9006067E-1,-4.6376895E-2,-1.3957704E-2,1.4143045E0,4.0761817E-1,9.1612065E-1,-5.808312E-1,1.0303066E-2,-2.631914E-2,-1.1107573E-2,3.361572E-2,5.015825E-3,4.5839556E-2,-2.844334E-2,-2.122067E-3,-1.0851154E-2,3.0708907E-2,-9.738735E-3,9.517313E-3,1.0399098E-4,-3.9550815E-2,2.2537759E-2,-2.2943707E-2,-6.444437E-3,-3.566425E-2,-2.3199663E-2,3.8377352E-2,3.4975528E-4,-3.683662E-2,4.9101308E-2,2.1504695E-2,3.436263E-2,-1.826744E-2,3.638495E-2,-1.7227434E-2,3.2431707E-2,-2.8154947E-2],"categories":[],"categories_nodes":[],"categories_segments":[],"categories_sizes":[],"default_left":[0,0,0,0,0,0,0,0,0,0,0,0,0,0,0,0,0,0,0,0,0,0,0,0,0,0,0,0,0,0,0,0,0,0,0,0,0,0,0,0,0,0,0,0,0,0,0,0,0,0,0,0,0,0,0,0,0,0,0,0,0,0,0,0,0,0,0,0,0,0,0,0,0,0,0,0,0,0,0,0,0,0,0,0,0,0,0],"id":6,"left_children":[1,3,5,7,9,11,13,15,17,19,21,23,25,27,29,31,33,35,37,39,-1,41,43,-1,-1,45,47,49,51,53,55,-1,-1,-1,-1,-1,-1,57,59,61,-1,63,65,67,-1,69,71,73,-1,75,77,-1,-1,79,81,83,85,-1,-1,-1,-1,-1,-1,-1,-1,-1,-1,-1,-1,-1,-1,-1,-1,-1,-1,-1,-1,-1,-1,-1,-1,-1,-1,-1,-1,-1,-1],"loss_changes":[4.1206314E1,1.5333466E1,2.2962141E1,1.2729549E1,9.509443E0,2.0236912E1,1.4835078E1,2.277748E0,7.776346E0,1.1359775E1,9.840362E0,1.3125606E0,1.2900188E1,9.610619E0,1.2303447E1,2.5311966E0,3.406137E0,1.8628035E0,6.156957E0,7.499134E0,0E0,8.342813E0,3.2085896E0,0E0,0E0,1.32064705E1,1.2580852E1,6.076856E0,1.7622471E-1,2.110817E0,1.4156494E1,0E0,0E0,0E0,0E0,0E0,0E0,6.825588E0,4.286731E0,6.8418827E0,0E0,5.8201733E0,3.4717176E0,4.3906233E-1,0E0,6.3936996E0,8.779212E0,3.7052202E-1,0E0,7.667656E0,1.14594E1,0E0,0E0,6.559849E-1,4.2924614E0,5.5221252E0,9.935909E0,0E0,0E0,0E0,0E0,0E0,0E0,0E0,0E0,0E0,0E0,0E0,0E0,0E0,0E0,0E0,0E0,0E0,0E0,0E0,0E0,0E0,0E0,0E0,0E0,0E0,0E0,0E0,0E0,0E0,0E0],"parents":[2147483647,0,0,1,1,2,2,3,3,4,4,5,5,6,6,7,7,8,8,9,9,10,10,11,11,12,12,13,13,14,14,15,15,16,16,17,17,18,18,19,19,21,21,22,22,25,25,26,26,27,27,28,28,29,29,30,30,37,37,38,38,39,39,41,41,42,42,43,43,45,45,46,46,47,47,49,49,50,50,53,53,54,54,55,55,56,56],"right_children":[2,4,6,8,10,12,14,16,18,20,22,24,26,28,30,32,34,36,38,40,-1,42,44,-1,-1,46,48,50,52,54,56,-1,-1,-1,-1,-1,-1,58,60,62,-1,64,66,68,-1,70,72,74,-1,76,78,-1,-1,80,82,84,86,-1,-1,-1,-1,-1,-1,-1,-1,-1,-1,-1,-1,-1,-1,-1,-1,-1,-1,-1,-1,-1,-1,-1,-1,-1,-1,-1,-1,-1,-1],"split_conditions":[8.1468344E-2,-3.6370206E-5,-4.7693007E-2,2.0262815E-1,-4.3180484E-2,-1.44195E1,1.1200846E-1,-1.9758363E-4,-4.33787E0,8.848162E-2,1.4585713E-3,1.1576552E-1,1.7823716E-1,5.079875E-1,1.2200963E-1,7.704427E-2,6.007576E-2,-1.5277879E-3,3.7441197E-1,1.8696551E-1,-3.8263418E-2,2.5394046E0,-1.7016008E-2,7.1739904E-3,4.204003E-2,9.387156E-1,2.5939455E-2,1.1151834E1,1.1760058E1,3.6035833E-1,1.0556431E-2,4.598521E-2,6.1285123E-3,-1.1179976E-2,3.528862E-2,4.556174E-2,3.3736099E-3,7.0824833E-3,-1.6686519E0,1.5845424E-1,-2.1685041E-2,1.0069432E0,-1.3215073E-2,5.09512E-2,4.36785E-2,-2.3464808E-1,-3.2817017E-2,-3.957645E-2,4.3582905E-2,-2.2369709E-2,3.4382957E-1,-4.6376895E-2,-1.3957704E-2,1.4010508E-4,2.0515394E1,1.6072942E0,9.260884E-2,1.0303066E-2,-2.631914E-2,-1.1107573E-2,3.361572E-2,5.015825E-3,4.5839556E-2,-2.844334E-2,-2.122067E-3,-1.0851154E-2,3.0708907E-2,-9.738735E-3,9.517313E-3,1.0399098E-4,-3.9550815E-2,2.2537759E-2,-2.2943707E-2,-6.444437E-3,-3.566425E-2,-2.3199663E-2,3.8377352E-2,3.4975528E-4,-3.683662E-2,4.9101308E-2,2.1504695E-2,3.436263E-2,-1.826744E-2,3.638495E-2,-1.7227434E-2,3.2431707E-2,-2.8154947E-2],"split_indices":[6,17,2,4,10,22,6,17,22,3,14,6,6,2,6,6,6,17,22,1,0,21,4,0,0,22,10,9,22,5,8,0,0,0,0,0,0,8,21,5,0,20,8,21,0,10,3,8,0,10,5,0,0,14,9,18,5,0,0,0,0,0,0,0,0,0,0,0,0,0,0,0,0,0,0,0,0,0,0,0,0,0,0,0,0,0,0],"split_type":[0,0,0,0,0,0,0,0,0,0,0,0,0,0,0,0,0,0,0,0,0,0,0,0,0,0,0,0,0,0,0,0,0,0,0,0,0,0,0,0,0,0,0,0,0,0,0,0,0,0,0,0,0,0,0,0,0,0,0,0,0,0,0,0,0,0,0,0,0,0,0,0,0,0,0,0,0,0,0,0,0,0,0,0,0,0,0],"sum_hessian":[2.8771564E2,1.2176484E2,1.6595079E2,5.8500683E1,6.326416E1,7.542289E1,9.05279E1,2.7280863E1,3.121982E1,2.0689749E1,4.2574413E1,5.0779643E0,7.0344925E1,5.202106E1,3.850684E1,2.3305187E1,3.975675E0,6.3124747E0,2.4907345E1,1.8850437E1,1.839311E0,3.6835354E1,5.739058E0,1.8952214E0,3.1827428E0,6.3612484E1,6.732439E0,4.612872E1,5.8923435E0,1.4585298E1,2.3921541E1,2.1416058E1,1.8891304E0,2.061118E0,1.9145572E0,4.9946523E0,1.3178221E0,1.6523922E1,8.383423E0,1.6994879E1,1.8555589E0,3.0185917E1,6.6494365E0,2.262926E0,3.4761317E0,5.013446E1,1.3478024E1,2.8840814E0,3.848358E0,6.6810517E0,3.9447666E1,4.582928E0,1.3094152E0,1.0791972E1,3.7933247E0,9.912626E0,1.4008916E1,8.704872E0,7.8190503E0,2.0633247E0,6.3200984E0,5.6585774E0,1.1336301E1,1.6665165E1,1.3520752E1,2.0581212E0,4.5913153E0,1.1250072E0,1.1379191E0,3.9613996E0,4.617306E1,5.8944645E0,7.5835586E0,1.0630724E0,1.8210089E0,1.8594476E0,4.821604E0,3.0592852E1,8.854815E0,7.161715E0,3.6302574E0,2.1245368E0,1.668788E0,8.422122E0,1.4905041E0,2.1228127E0,1.1886104E1],"tree_param":{"num_deleted":"0","num_feature":"36","num_nodes":"87","size_leaf_vector":"1"}},{"base_weights":[4.556074E-2,4.3994752E-1,-2.3220824E-1,7.5686044E-1,-2.1425778E-2,1.1729461E0,-2.934249E-1,2.3203102E-1,1.004366E0,-1.2887675E0,1.625832E-1,-4.4169146E-4,4.4746052E-2,-7.213279E-1,-2.114338E-2,-6.7691964E-1,9.122672E-1,1.1234365E0,-1.8935773E-1,-4.410341E-2,-7.0485836E-3,6.370176E-1,-2.226435E-1,-3.3167058E-1,-1.2519305E0,8.6407006E-1,-1.4755286E-1,3.0816052E-2,-9.91423E-1,1.1459823E0,-1.358458E-1,-3.6079925E-3,1.1861755E0,2.892392E-2,-7.646278E-1,8.031821E-1,-2.180819E-2,4.8739952E-1,-8.4149605E-1,-5.004578E-1,4.037017E-2,-1.431189E0,-1.342199E-1,1.2244301E0,-3.33852E-2,9.561395E-2,-5.9360975E-1,3.879382E-3,-4.8910122E-2,9.858629E-3,4.1953515E-2,2.2003895E-2,-3.108409E-2,-1.082866E-2,1.0559156E-2,3.6985658E-2,-5.311675E-4,-3.9843522E-2,1.0235821E-2,-1.2758365E-2,3.0091448E-2,-1.3872628E-2,2.707961E-2,3.1399917E-2,-3.3067383E-2,-1.7361459E-3,-3.5252433E-2,-1.034941E-2,-5.006046E-2,-3.5237573E-2,3.1696614E-2,4.0812534E-3,4.3765772E-2,2.0048775E-2,-6.637864E-3,-2.547537E-2,3.147391E-2],"categories":[],"categories_nodes":[],"categories_segments":[],"categories_sizes":[],"default_left":[0,0,0,0,0,0,0,0,0,0,0,0,0,0,0,0,0,0,0,0,0,0,0,0,0,0,0,0,0,0,0,0,0,0,0,0,0,0,0,0,0,0,0,0,0,0,0,0,0,0,0,0,0,0,0,0,0,0,0,0,0,0,0,0,0,0,0,0,0,0,0,0,0,0,0,0,0],"id":7,"left_children":[1,3,5,7,9,11,13,15,17,19,21,-1,-1,23,25,27,29,31,33,-1,-1,35,37,39,41,43,45,-1,47,49,51,53,55,-1,57,59,-1,61,63,65,-1,67,69,71,-1,73,75,-1,-1,-1,-1,-1,-1,-1,-1,-1,-1,-1,-1,-1,-1,-1,-1,-1,-1,-1,-1,-1,-1,-1,-1,-1,-1,-1,-1,-1,-1],"loss_changes":[3.1191133E1,1.7214457E1,1.4723883E1,8.828022E0,1.1605588E1,2.738309E0,1.8741749E1,1.5243094E1,6.9074974E0,8.6002636E-1,8.103063E0,0E0,0E0,1.2522205E1,1.125209E1,6.7525945E0,3.574175E0,3.0428734E0,4.1398377E0,0E0,0E0,5.0665693E0,1.1299272E1,1.1273087E1,5.0442657E0,1.0316458E1,9.58524E0,0E0,7.0427217E0,1.9170303E0,3.4510367E0,5.4165953E-1,2.3096008E0,0E0,2.932627E0,4.8721094E0,0E0,5.218856E0,7.853215E0,1.03062315E1,0E0,5.2077484E0,7.0829844E0,2.635458E0,0E0,1.0621307E1,1.3961347E1,0E0,0E0,0E0,0E0,0E0,0E0,0E0,0E0,0E0,0E0,0E0,0E0,0E0,0E0,0E0,0E0,0E0,0E0,0E0,0E0,0E0,0E0,0E0,0E0,0E0,0E0,0E0,0E0,0E0,0E0],"parents":[2147483647,0,0,1,1,2,2,3,3,4,4,5,5,6,6,7,7,8,8,9,9,10,10,13,13,14,14,15,15,16,16,17,17,18,18,21,21,22,22,23,23,24,24,25,25,26,26,28,28,29,29,30,30,31,31,32,32,34,34,35,35,37,37,38,38,39,39,41,41,42,42,43,43,45,45,46,46],"right_children":[2,4,6,8,10,12,14,16,18,20,22,-1,-1,24,26,28,30,32,34,-1,-1,36,38,40,42,44,46,-1,48,50,52,54,56,-1,58,60,-1,62,64,66,-1,68,70,72,-1,74,76,-1,-1,-1,-1,-1,-1,-1,-1,-1,-1,-1,-1,-1,-1,-1,-1,-1,-1,-1,-1,-1,-1,-1,-1,-1,-1,-1,-1,-1,-1],"split_conditions":[8.1468344E-2,3.0072534E-4,-1.44195E1,-7.674976E-2,1.4011493E-1,6.5594614E-1,-9.257403E-2,2.0889203E-1,1.9190279E-1,3.374059E-4,9.919776E-3,-4.4169146E-4,4.4746052E-2,4.188862E1,-2.6991557E-2,5.2291047E-2,-1.7620214E-5,-1.0918184E-3,4.885496E1,-4.410341E-2,-7.0485836E-3,2.1346232E-1,2.3186027E-1,1.888305E-1,1.6217427E-1,1.9491104E-4,3.6035833E-1,3.0816052E-2,-8.098456E-2,7.088503E-2,-2.5030547E-1,4.6710526E1,1.0121176E0,2.892392E-2,-8.3895564E-2,5.6040682E-2,-2.180819E-2,-1.224954E-4,4.2918455E-3,6.697039E-1,4.037017E-2,9.0652026E-2,1.4141144E-1,1.1200846E-1,-3.33852E-2,4.8856208E-1,1.463317E-4,3.879382E-3,-4.8910122E-2,9.858629E-3,4.1953515E-2,2.2003895E-2,-3.108409E-2,-1.082866E-2,1.0559156E-2,3.6985658E-2,-5.311675E-4,-3.9843522E-2,1.0235821E-2,-1.2758365E-2,3.0091448E-2,-1.3872628E-2,2.707961E-2,3.1399917E-2,-3.3067383E-2,-1.7361459E-3,-3.5252433E-2,-1.034941E-2,-5.006046E-2,-3.5237573E-2,3.1696614E-2,4.0812534E-3,4.3765772E-2,2.0048775E-2,-6.637864E-3,-2.547537E-2,3.147391E-2],"split_indices":[6,17,22,3,5,7,2,7,5,12,8,0,0,0,8,6,13,14,0,0,0,10,5,6,10,19,5,0,2,6,10,0,18,0,1,6,0,14,7,7,0,6,6,6,0,7,19,0,0,0,0,0,0,0,0,0,0,0,0,0,0,0,0,0,0,0,0,0,0,0,0,0,0,0,0,0,0],"split_type":[0,0,0,0,0,0,0,0,0,0,0,0,0,0,0,0,0,0,0,0,0,0,0,0,0,0,0,0,0,0,0,0,0,0,0,0,0,0,0,0,0,0,0,0,0,0,0,0,0,0,0,0,0,0,0,0,0,0,0,0,0,0,0,0,0,0,0,0,0,0,0,0,0,0,0,0,0],"sum_hessian":[2.8279208E2,1.1662281E2,1.6616928E2,6.875512E1,4.7867687E1,6.178927E0,1.5999036E2,2.2654432E1,4.610069E1,5.3076944E0,4.2559994E1,1.5086417E0,4.670285E0,6.1574303E1,9.841605E1,9.6991E0,1.2955333E1,4.1972893E1,4.1277947E0,4.1913786E0,1.1163158E0,1.8778858E1,2.3781136E1,3.643944E1,2.5134861E1,1.1568602E1,8.684746E1,1.1580662E0,8.541034E0,1.0516842E1,2.4384909E0,2.2629893E0,3.9709904E1,1.1486486E0,2.9791458E0,1.7106049E1,1.672811E0,1.117354E1,1.26075945E1,3.3745358E1,2.6940835E0,2.1419186E1,3.715676E0,1.0106904E1,1.4616971E0,5.671504E1,3.0132418E1,3.3907826E0,5.150251E0,3.025021E0,7.491821E0,1.3348658E0,1.1036252E0,1.1211494E0,1.1418399E0,3.820448E1,1.5054266E0,1.8403451E0,1.1388007E0,2.2358375E0,1.4870211E1,3.364426E0,7.8091145E0,1.1640867E0,1.1443507E1,2.1032667E1,1.2712689E1,4.2829747E0,1.7136211E1,1.990336E0,1.7253401E0,2.0712025E0,8.035702E0,1.9807915E1,3.6907124E1,2.6493729E1,3.6386907E0],"tree_param":{"num_deleted":"0","num_feature":"36","num_nodes":"77","size_leaf_vector":"1"}},{"base_weights":[-2.821509E-2,3.8959622E-1,-3.2778394E-1,7.825058E-1,2.0691134E-2,-6.4204913E-1,-6.616999E-2,3.5093164E-1,1.2717785E0,5.12079E-1,-2.0181414E-1,-2.3700207E-1,-1.1089994E0,7.7745736E-2,-1.2541202E0,7.1361226E-1,-7.0307386E-1,-1.4157515E-2,1.3838412E0,7.681933E-1,-3.6928456E-2,-4.7320238E-1,4.5272684E-1,-3.8691556E-1,4.016206E-2,-1.2730607E0,6.667193E-1,1.6947192E-1,-4.3452688E-2,2.8393233E-2,-4.9853157E-2,1.00367E0,-5.625359E-3,2.7985789E-2,-1.0864563E0,4.5079432E-2,2.2135907E-1,9.943385E-1,-2.1700969E-2,2.345629E-1,-8.812248E-1,7.291072E-1,-5.235173E-1,4.5767605E-1,-6.79888E-1,2.4215627E-2,-1.3939238E0,2.9463893E-2,2.7407033E-3,-1.4586475E-1,6.228431E-1,-1.956734E-3,3.7231352E-2,-1.9186994E-2,2.4132088E-2,1.715301E-2,-4.868014E-2,2.8962996E-2,-1.7212568E-2,3.5487305E-2,-1.4041476E-2,2.213835E-2,-2.914298E-2,1.6918082E-2,-3.260654E-2,3.5257664E-2,-1.6813308E-3,-3.3683054E-2,1.0824178E-2,-2.4673164E-2,3.9178617E-2,-3.1320248E-2,1.0387271E-2,-1.0369745E-2,-4.5445513E-2,-1.884658E-2,9.521504E-3,2.7547842E-2,-1.6373985E-2],"categories":[],"categories_nodes":[],"categories_segments":[],"categories_sizes":[],"default_left":[0,0,0,0,0,0,0,0,0,0,0,0,0,0,0,0,0,0,0,0,0,0,0,0,0,0,0,0,0,0,0,0,0,0,0,0,0,0,0,0,0,0,0,0,0,0,0,0,0,0,0,0,0,0,0,0,0,0,0,0,0,0,0,0,0,0,0,0,0,0,0,0,0,0,0,0,0,0,0],"id":8,"left_children":[1,3,5,7,9,11,13,15,17,19,21,23,25,27,29,31,33,-1,35,37,-1,39,41,43,-1,45,47,49,-1,-1,-1,51,53,-1,55,-1,57,59,-1,61,63,65,67,69,71,-1,73,-1,-1,75,77,-1,-1,-1,-1,-1,-1,-1,-1,-1,-1,-1,-1,-1,-1,-1,-1,-1,-1,-1,-1,-1,-1,-1,-1,-1,-1,-1,-1],"loss_changes":[3.453179E1,1.668753E1,1.31641445E1,1.1331547E1,6.7141633E0,1.35173855E1,1.5274822E1,1.2358645E1,5.6866913E0,9.484512E0,7.73446E0,1.00347805E1,1.0629002E1,1.1461939E1,1.0230296E1,4.9234533E0,6.3097124E0,0E0,3.0454216E0,6.552352E0,0E0,8.990326E0,3.8675647E0,9.6058445E0,0E0,8.93837E0,5.4465234E-1,1.1024247E1,0E0,0E0,0E0,4.344612E0,4.5039215E0,0E0,7.4214478E0,0E0,2.5895162E0,4.8107557E0,0E0,7.9485354E0,6.409623E0,3.7393436E0,2.2241616E0,1.2228138E1,1.0932076E1,0E0,3.2458115E0,0E0,0E0,1.045902E1,1.1397457E1,0E0,0E0,0E0,0E0,0E0,0E0,0E0,0E0,0E0,0E0,0E0,0E0,0E0,0E0,0E0,0E0,0E0,0E0,0E0,0E0,0E0,0E0,0E0,0E0,0E0,0E0,0E0,0E0],"parents":[2147483647,0,0,1,1,2,2,3,3,4,4,5,5,6,6,7,7,8,8,9,9,10,10,11,11,12,12,13,13,14,14,15,15,16,16,18,18,19,19,21,21,22,22,23,23,25,25,26,26,27,27,31,31,32,32,34,34,36,36,37,37,39,39,40,40,41,41,42,42,43,43,44,44,46,46,49,49,50,50],"right_children":[2,4,6,8,10,12,14,16,18,20,22,24,26,28,30,32,34,-1,36,38,-1,40,42,44,-1,46,48,50,-1,-1,-1,52,54,-1,56,-1,58,60,-1,62,64,66,68,70,72,-1,74,-1,-1,76,78,-1,-1,-1,-1,-1,-1,-1,-1,-1,-1,-1,-1,-1,-1,-1,-1,-1,-1,-1,-1,-1,-1,-1,-1,-1,-1,-1,-1],"split_conditions":[8.1468344E-2,-3.6370206E-5,-3.9639834E-2,-3.11653E-4,-4.3180484E-2,4.0217392E1,3.7829611E0,-3.325923E-4,-8.818217E-2,1.0393976E-1,1.258992E-1,1.888305E-1,2.0938453E-3,7.6853104E-2,-8.4848784E-2,1.5674192E-2,-5.518469E0,-1.4157515E-2,8.45666E-4,1.8696551E-1,-3.6928456E-2,-8.7269694E-1,2.3338592E-3,-7.4326776E-2,4.016206E-2,2.5861406E-1,-7.510425E-4,1.1200846E-1,-4.3452688E-2,2.8393233E-2,-4.9853157E-2,1.7167898E1,2.8858218E-1,2.7985789E-2,3.867894E-1,4.5079432E-2,-9.3768686E-1,4.225255E1,-2.1700969E-2,2.9998976E-1,-3.6203842E0,6.865718E-2,1.8300973E-3,-1.16423324E-1,-1.0297173E0,2.4215627E-2,-5.3307056E-1,2.9463893E-2,2.7407033E-3,2.1770475E1,8.77193E-1,-1.956734E-3,3.7231352E-2,-1.9186994E-2,2.4132088E-2,1.715301E-2,-4.868014E-2,2.8962996E-2,-1.7212568E-2,3.5487305E-2,-1.4041476E-2,2.213835E-2,-2.914298E-2,1.6918082E-2,-3.260654E-2,3.5257664E-2,-1.6813308E-3,-3.3683054E-2,1.0824178E-2,-2.4673164E-2,3.9178617E-2,-3.1320248E-2,1.0387271E-2,-1.0369745E-2,-4.5445513E-2,-1.884658E-2,9.521504E-3,2.7547842E-2,-1.6373985E-2],"split_indices":[6,17,2,16,10,0,21,14,3,3,3,6,17,8,8,8,22,0,14,1,0,21,17,8,0,11,4,6,0,0,0,9,7,0,11,0,21,9,0,1,22,6,15,3,22,0,1,0,0,9,7,0,0,0,0,0,0,0,0,0,0,0,0,0,0,0,0,0,0,0,0,0,0,0,0,0,0,0,0],"split_type":[0,0,0,0,0,0,0,0,0,0,0,0,0,0,0,0,0,0,0,0,0,0,0,0,0,0,0,0,0,0,0,0,0,0,0,0,0,0,0,0,0,0,0,0,0,0,0,0,0,0,0,0,0,0,0,0,0,0,0,0,0,0,0,0,0,0,0,0,0,0,0,0,0,0,0,0,0,0,0],"sum_hessian":[2.7387375E2,1.1424071E2,1.5963306E2,5.47776E1,5.9463108E1,7.1858475E1,8.7774574E1,3.0017353E1,2.4760244E1,1.8127758E1,4.133535E1,3.9287144E1,3.257133E1,7.9123604E1,8.650974E0,2.2572996E1,7.444359E0,1.3012702E0,2.3458973E1,1.6292997E1,1.8347592E0,2.9415876E1,1.1919474E1,3.656304E1,2.7241035E0,3.0075666E1,2.4956627E0,7.5476265E1,3.6473377E0,1.1455331E0,7.5054407E0,1.5804012E1,6.768983E0,1.1412572E0,6.3031015E0,2.1018267E1,2.440706E0,1.4437404E1,1.8555948E0,1.0912289E1,1.8503588E1,9.486844E0,2.43263E0,9.271793E0,2.7291248E1,1.3396484E0,2.873602E1,1.1553376E0,1.3403251E0,4.491468E1,3.056158E1,3.0036914E0,1.2800321E1,3.9152696E0,2.8537133E0,1.5239736E0,4.779128E0,1.1501609E0,1.290545E0,1.2957653E1,1.4797505E0,7.972622E0,2.9396663E0,2.0881536E0,1.6415434E1,5.732566E0,3.7542782E0,1.289309E0,1.143321E0,3.7074437E0,5.56435E0,2.0130543E1,7.160704E0,3.3711617E0,2.5364857E1,2.1829119E1,2.3085564E1,2.4565882E1,5.9957E0],"tree_param":{"num_deleted":"0","num_feature":"36","num_nodes":"79","size_leaf_vector":"1"}},{"base_weights":[-3.1131364E-2,4.3219018E-1,-3.3072552E-1,6.5058464E-1,-1.3902605E-1,-6.735492E-1,-8.969722E-2,2.3461546E-1,9.5830643E-1,-3.7946117E-1,8.4696716E-1,-2.1548794E-1,-1.233958E0,-4.2328382E-1,3.6207977E-1,-4.5957157E-1,6.633402E-1,-9.883248E-2,1.0594238E0,4.6655364E-2,-1.2963939E0,-7.337184E-3,1.1172613E0,3.7439144E-1,-5.872401E-1,-3.8812637E-1,-1.3918328E0,-8.9004636E-2,-1.1870569E0,1.0939155E0,-2.899056E-2,3.3413208E-1,-9.9417824E-1,9.468621E-1,-6.0199076E-1,2.7724843E-2,-2.807012E-2,1.2967708E0,4.0327755E-1,4.632739E-1,-1.1839294E0,-4.7852002E-2,9.508767E-3,1.2076169E-2,4.0146485E-2,-9.6783733E-1,7.436178E-1,-8.1774545E-1,3.4832373E-2,-1.1516801E0,3.617076E-2,-1.4758844E0,-7.823653E-3,-1.01063E0,1.5409341E-1,3.616871E-2,-1.4362175E0,1.3366765E0,-9.600327E-3,1.0387672E0,-6.265211E-1,3.2389954E-2,-2.5875786E-2,-4.098222E-2,1.7798202E-3,-1.8477118E-2,3.3505414E-2,-3.852718E-2,1.1497921E-2,4.0998984E-2,-8.520934E-3,-1.2114827E-2,3.3055358E-2,2.308632E-2,-1.8762589E-2,-8.015011E-3,-4.131509E-2,-3.459385E-2,-7.9448065E-3,-9.972782E-3,4.365036E-2,-4.7175987E-3,-3.710792E-2,-3.967944E-2,-8.976103E-3,-4.7343437E-2,-1.5684428E-3,-4.041147E-2,-2.5135009E-3,-3.7979588E-2,8.708818E-3,-3.412659E-2,3.4718625E-2,-5.1192902E-2,1.5930383E-3,4.7386296E-2,1.1645013E-2,3.7059568E-2,-1.1215226E-2,-2.6869036E-2,3.6435373E-2],"categories":[],"categories_nodes":[],"categories_segments":[],"categories_sizes":[],"default_left":[0,0,0,0,0,0,0,0,0,0,0,0,0,0,0,0,0,0,0,0,0,0,0,0,0,0,0,0,0,0,0,0,0,0,0,0,0,0,0,0,0,0,0,0,0,0,0,0,0,0,0,0,0,0,0,0,0,0,0,0,0,0,0,0,0,0,0,0,0,0,0,0,0,0,0,0,0,0,0,0,0,0,0,0,0,0,0,0,0,0,0,0,0,0,0,0,0,0,0,0,0],"id":9,"left_children":[1,3,5,7,9,11,13,15,17,19,21,23,25,27,29,31,33,35,37,39,41,-1,43,45,47,49,51,53,55,57,59,61,63,65,67,-1,-1,69,71,73,75,-1,-1,-1,-1,77,79,81,-1,83,-1,85,-1,87,89,91,93,95,-1,97,99,-1,-1,-1,-1,-1,-1,-1,-1,-1,-1,-1,-1,-1,-1,-1,-1,-1,-1,-1,-1,-1,-1,-1,-1,-1,-1,-1,-1,-1,-1,-1,-1,-1,-1,-1,-1,-1,-1,-1,-1],"loss_changes":[3.935911E1,1.39849205E1,1.4163717E1,1.0111221E1,7.819701E0,1.7937004E1,1.5560203E1,1.091765E1,5.031414E0,1.02658E1,2.1940002E0,9.041839E0,3.6903152E0,1.5026548E1,1.2613642E1,6.3598204E0,8.625368E0,5.092312E0,6.041382E0,1.0185675E1,4.515522E0,0E0,3.137207E-1,8.729839E0,1.105139E1,9.14044E0,2.116394E0,9.6344E0,5.526457E0,5.6918964E0,1.9552593E1,6.699627E0,3.505208E0,5.6640873E0,3.6660142E0,0E0,0E0,3.756813E0,7.57628E0,5.4034147E0,5.241494E-1,0E0,0E0,0E0,0E0,2.0543599E-1,1.0619933E1,6.099759E0,0E0,3.064785E-1,0E0,3.4505692E0,0E0,2.6817255E0,7.010256E0,6.5997915E0,6.105837E0,2.4465847E0,0E0,3.517746E0,1.0808121E1,0E0,0E0,0E0,0E0,0E0,0E0,0E0,0E0,0E0,0E0,0E0,0E0,0E0,0E0,0E0,0E0,0E0,0E0,0E0,0E0,0E0,0E0,0E0,0E0,0E0,0E0,0E0,0E0,0E0,0E0,0E0,0E0,0E0,0E0,0E0,0E0,0E0,0E0,0E0,0E0],"parents":[2147483647,0,0,1,1,2,2,3,3,4,4,5,5,6,6,7,7,8,8,9,9,10,10,11,11,12,12,13,13,14,14,15,15,16,16,17,17,18,18,19,19,20,20,22,22,23,23,24,24,25,25,26,26,27,27,28,28,29,29,30,30,31,31,32,32,33,33,34,34,37,37,38,38,39,39,40,40,45,45,46,46,47,47,49,49,51,51,53,53,54,54,55,55,56,56,57,57,59,59,60,60],"right_children":[2,4,6,8,10,12,14,16,18,20,22,24,26,28,30,32,34,36,38,40,42,-1,44,46,48,50,52,54,56,58,60,62,64,66,68,-1,-1,70,72,74,76,-1,-1,-1,-1,78,80,82,-1,84,-1,86,-1,88,90,92,94,96,-1,98,100,-1,-1,-1,-1,-1,-1,-1,-1,-1,-1,-1,-1,-1,-1,-1,-1,-1,-1,-1,-1,-1,-1,-1,-1,-1,-1,-1,-1,-1,-1,-1,-1,-1,-1,-1,-1,-1,-1,-1,-1],"split_conditions":[8.0158E-2,1.15519166E-1,-8.098456E-2,1.5230961E-1,7.696719E-2,-3.7922028E-1,1.1200846E-1,-1.8594734E-3,-6.315125E-4,6.885949E-2,1.0404624E-1,-1.13235734E-1,8.814622E-2,4.142195E-1,1.2088896E-1,-1.6001613E-4,2.3645438E-1,-1.011775E-3,4.0585132E-4,2.182835E-1,1.1843801E-3,-7.337184E-3,7.866147E-2,7.055034E-1,1.888305E-1,5.2509654E-1,-9.257403E-2,-9.892914E-4,1.1255411E-1,5.6786764E-1,1.4203041E-3,1.2153518E-1,2.8943745E-2,1.2073389E-2,7.820203E-1,2.7724843E-2,-2.807012E-2,1.042482E-1,2.967452E1,1.3223556E0,2.3605151E-2,-4.7852002E-2,9.508767E-3,1.2076169E-2,4.0146485E-2,5.248799E-1,-1.6414037E-3,1.09273694E-1,3.4832373E-2,2.2312323E1,3.617076E-2,2.344289E-1,-7.823653E-3,3.0248035E1,-1.38006965E-2,1.5016776E-1,3.5163086E1,1.1843801E-3,-9.600327E-3,2.2646494E-3,-1.5493631E-4,3.2389954E-2,-2.5875786E-2,-4.098222E-2,1.7798202E-3,-1.8477118E-2,3.3505414E-2,-3.852718E-2,1.1497921E-2,4.0998984E-2,-8.520934E-3,-1.2114827E-2,3.3055358E-2,2.308632E-2,-1.8762589E-2,-8.015011E-3,-4.131509E-2,-3.459385E-2,-7.9448065E-3,-9.972782E-3,4.365036E-2,-4.7175987E-3,-3.710792E-2,-3.967944E-2,-8.976103E-3,-4.7343437E-2,-1.5684428E-3,-4.041147E-2,-2.5135009E-3,-3.7979588E-2,8.708818E-3,-3.412659E-2,3.4718625E-2,-5.1192902E-2,1.5930383E-3,4.7386296E-2,1.1645013E-2,3.7059568E-2,-1.1215226E-2,-2.6869036E-2,3.6435373E-2],"split_indices":[6,1,2,7,6,1,6,8,12,6,7,10,6,2,6,16,4,12,13,2,14,0,6,20,6,7,2,14,7,1,8,7,1,4,20,0,0,1,9,20,7,0,0,0,0,20,16,6,0,9,0,10,0,9,8,4,9,14,0,16,19,0,0,0,0,0,0,0,0,0,0,0,0,0,0,0,0,0,0,0,0,0,0,0,0,0,0,0,0,0,0,0,0,0,0,0,0,0,0,0,0],"split_type":[0,0,0,0,0,0,0,0,0,0,0,0,0,0,0,0,0,0,0,0,0,0,0,0,0,0,0,0,0,0,0,0,0,0,0,0,0,0,0,0,0,0,0,0,0,0,0,0,0,0,0,0,0,0,0,0,0,0,0,0,0,0,0,0,0,0,0,0,0,0,0,0,0,0,0,0,0,0,0,0,0,0,0,0,0,0,0,0,0,0,0,0,0,0,0,0,0,0,0,0,0],"sum_hessian":[2.8152014E2,1.1037811E2,1.7114204E2,7.974867E1,3.0629442E1,6.991079E1,1.01231255E2,3.4659466E1,4.5089203E1,2.5119244E1,5.5101967E0,3.9229942E1,3.068085E1,5.8269115E1,4.2962135E1,1.3205422E1,2.1454044E1,3.9383223E0,4.1150883E1,1.7797512E1,7.3217335E0,1.1125404E0,4.3976564E0,1.5162954E1,2.4066988E1,5.3698316E0,2.5311016E1,4.1306923E1,1.6962193E1,1.4336348E1,2.8625788E1,5.465727E0,7.7396955E0,1.7732437E1,3.7216072E0,1.7251099E0,2.2132123E0,2.9502598E1,1.1648283E1,1.3761906E1,4.035605E0,6.187587E0,1.1341466E0,1.7048373E0,2.692819E0,2.921462E0,1.2241492E1,2.1733786E1,2.3332014E0,3.8180964E0,1.5517349E0,2.3276386E1,2.03463E0,7.962492E0,3.3344433E1,3.0150385E0,1.3947154E1,1.2282214E1,2.054133E0,1.0006403E1,1.8619385E1,3.427881E0,2.037846E0,5.5010777E0,2.238618E0,1.4822272E0,1.625021E1,2.0196342E0,1.701973E0,2.838369E1,1.1189082E0,5.6000576E0,6.0482254E0,1.0969209E1,2.7926974E0,1.1173384E0,2.9182668E0,1.805356E0,1.116106E0,5.0840893E0,7.157403E0,8.97205E0,1.2761736E1,2.720877E0,1.0972195E0,2.1615614E1,1.660772E0,5.5093765E0,2.4531152E0,2.1922417E0,3.115219E1,1.4658021E0,1.5492365E0,1.1681887E1,2.2652671E0,9.248768E0,3.0334463E0,8.89434E0,1.112063E0,1.6692823E1,1.9265614E0],"tree_param":{"num_deleted":"0","num_feature":"36","num_nodes":"101","size_leaf_vector":"1"}},{"base_weights":[3.155067E-2,4.3423378E-1,-2.5044075E-1,1.2206087E0,2.4437939E-1,1.158445E0,-3.2035214E-1,1.3202237E0,-3.2854099E-3,5.500894E-1,-7.072892E-2,2.405793E-3,4.5305707E-2,-7.0586896E-1,-8.353467E-2,-5.7127164E-3,1.4611377E0,-7.133696E-2,8.6785537E-1,-4.966757E-1,2.953172E-1,-7.879302E-1,3.566554E-2,1.6561633E-1,-4.581432E-1,3.9857267E-3,4.6533074E-2,-4.629639E-1,9.333035E-1,2.5793588E-1,1.1723036E0,-8.770186E-1,5.399256E-1,6.7791086E-1,-4.7109243E-1,-1.2281669E0,-3.6483195E-1,2.7343345E-1,-4.0114135E-2,-5.663526E-1,2.7798247E-2,2.3199635E-2,-2.2279015E-2,3.9853167E-2,-6.091977E-4,3.1059926E-2,-3.0174537E-2,1.9196296E-3,4.1831497E-2,-3.9621323E-2,-6.951462E-3,2.6291162E-2,-1.4459155E-2,3.4315225E-3,3.9814763E-2,-3.4226455E-2,2.0749211E-2,-4.2366903E-2,-1.0955767E-2,-2.2462886E-2,1.2504701E-2,1.4075856E-2,-1.3421783E-2,2.8507477E-2,-1.9950153E-2],"categories":[],"categories_nodes":[],"categories_segments":[],"categories_sizes":[],"default_left":[0,0,0,0,0,0,0,0,0,0,0,0,0,0,0,0,0,0,0,0,0,0,0,0,0,0,0,0,0,0,0,0,0,0,0,0,0,0,0,0,0,0,0,0,0,0,0,0,0,0,0,0,0,0,0,0,0,0,0,0,0,0,0,0,0],"id":10,"left_children":[1,3,5,7,9,11,13,15,-1,17,19,-1,-1,21,23,-1,25,27,29,31,33,35,-1,37,39,-1,-1,41,43,45,47,49,51,53,55,57,59,61,-1,63,-1,-1,-1,-1,-1,-1,-1,-1,-1,-1,-1,-1,-1,-1,-1,-1,-1,-1,-1,-1,-1,-1,-1,-1,-1],"loss_changes":[3.2174107E1,1.711988E1,1.6791939E1,3.1177483E0,9.212502E0,2.950286E0,1.4513475E1,4.7383537E0,0E0,9.629107E0,7.596328E0,0E0,0E0,1.0359699E1,9.410325E0,0E0,2.0978355E0,7.2451124E0,5.664358E0,9.327089E0,8.038144E0,1.0483723E1,0E0,1.0216226E1,6.5504885E0,0E0,0E0,5.1132812E0,1.9820261E0,1.2812011E1,5.1169815E0,4.506731E0,2.707607E0,6.4223413E0,8.074858E0,3.9858208E0,9.720327E0,8.331928E0,0E0,6.305291E0,0E0,0E0,0E0,0E0,0E0,0E0,0E0,0E0,0E0,0E0,0E0,0E0,0E0,0E0,0E0,0E0,0E0,0E0,0E0,0E0,0E0,0E0,0E0,0E0,0E0],"parents":[2147483647,0,0,1,1,2,2,3,3,4,4,5,5,6,6,7,7,9,9,10,10,13,13,14,14,16,16,17,17,18,18,19,19,20,20,21,21,23,23,24,24,27,27,28,28,29,29,30,30,31,31,32,32,33,33,34,34,35,35,36,36,37,37,39,39],"right_children":[2,4,6,8,10,12,14,16,-1,18,20,-1,-1,22,24,-1,26,28,30,32,34,36,-1,38,40,-1,-1,42,44,46,48,50,52,54,56,58,60,62,-1,64,-1,-1,-1,-1,-1,-1,-1,-1,-1,-1,-1,-1,-1,-1,-1,-1,-1,-1,-1,-1,-1,-1,-1,-1,-1],"split_conditions":[8.130878E-2,-3.2148852E0,-1.3892748E1,7.6840486E-4,2.881915E-4,2.517992E1,-1.0297173E0,2.2309711E1,-3.2854099E-3,-7.674976E-2,6.3376625E1,2.405793E-3,4.5305707E-2,2.7081722E-3,9.095258E-1,-5.7127164E-3,-6.0865346E-5,2.8858218E-1,-2.2212423E-4,4.70818E-4,6.885949E-2,3.7679672E-1,3.566554E-2,7.6853104E-2,1.7491692E-3,3.9857267E-3,4.6533074E-2,8.474576E-3,-1.24083765E-1,-3.3723985E-4,-5.6973804E-4,2.1603878E0,5.665445E-1,1.3808334E-1,1.3538169E0,1.6304438E-1,-8.053857E-3,8.6645596E-2,-4.0114135E-2,-4.4535348E-1,2.7798247E-2,2.3199635E-2,-2.2279015E-2,3.9853167E-2,-6.091977E-4,3.1059926E-2,-3.0174537E-2,1.9196296E-3,4.1831497E-2,-3.9621323E-2,-6.951462E-3,2.6291162E-2,-1.4459155E-2,3.4315225E-3,3.9814763E-2,-3.4226455E-2,2.0749211E-2,-4.2366903E-2,-1.0955767E-2,-2.2462886E-2,1.2504701E-2,1.4075856E-2,-1.3421783E-2,2.8507477E-2,-1.9950153E-2],"split_indices":[6,22,22,16,17,9,22,0,0,3,0,0,0,17,11,0,19,7,8,12,6,4,0,8,12,0,0,7,3,17,16,22,21,10,22,10,10,3,0,1,0,0,0,0,0,0,0,0,0,0,0,0,0,0,0,0,0,0,0,0,0,0,0,0,0],"split_type":[0,0,0,0,0,0,0,0,0,0,0,0,0,0,0,0,0,0,0,0,0,0,0,0,0,0,0,0,0,0,0,0,0,0,0,0,0,0,0,0,0,0,0,0,0,0,0,0,0,0,0,0,0,0,0,0,0,0,0,0,0,0,0,0,0],"sum_hessian":[2.8138187E2,1.15668144E2,1.6571373E2,2.143897E1,9.422917E1,7.0981636E0,1.5861557E2,1.9952164E1,1.4868078E0,4.744933E1,4.6779842E1,2.048035E0,5.0501285E0,5.960444E1,9.901113E1,1.6723744E0,1.8279789E1,1.631637E1,3.113296E1,2.1455938E1,2.5323904E1,5.7690002E1,1.9144379E0,5.9797733E1,3.9213394E1,1.3166704E0,1.6963118E1,1.2127879E1,4.188491E0,1.0981095E1,2.0151863E1,1.58092575E1,5.64668E0,1.6968607E1,8.355299E0,2.7339874E1,3.0350128E1,5.6557953E1,3.2397811E0,3.691939E1,2.2940047E0,1.9117664E0,1.0216113E1,2.6835E0,1.5049909E0,6.9107275E0,4.0703673E0,3.5789258E0,1.6572939E1,8.747839E0,7.0614185E0,4.355195E0,1.2914848E0,9.713646E0,7.25496E0,5.3133492E0,3.0419495E0,2.2009104E1,5.330771E0,2.0381357E1,9.96877E0,4.475303E1,1.1804925E1,1.7276502E0,3.5191742E1],"tree_param":{"num_deleted":"0","num_feature":"36","num_nodes":"65","size_leaf_vector":"1"}},{"base_weights":[4.7867317E-2,3.9809442E-1,-2.026489E-1,2.0975515E-1,8.8081735E-1,-3.0817595E-1,5.8126646E-1,3.9231068E-1,-3.133134E-1,1.0830842E0,1.3695177E-1,-6.251399E-1,-4.0130075E-2,8.805968E-1,-3.7136555E-2,-1.04999E0,4.7246158E-1,-4.4399858E-2,3.2326896E-2,-1.2890006E-3,1.1522832E0,-3.899818E-2,8.05588E-1,-1.2543166E-1,-1.0030367E0,2.624169E-1,-5.477265E-1,4.254909E-2,-1.23176575E-1,-9.631422E-3,-3.7081346E-2,-2.217984E-3,7.118191E-1,8.5775954E-1,-5.0399184E-1,3.5083226E-3,1.2310383E0,-2.455522E-3,1.0991175E0,4.0551332E-1,-6.5323514E-1,-1.0889115E0,2.8936716E-2,-6.732394E-1,4.389151E-1,-1.0548292E0,2.4866995E-1,3.7412528E-2,-3.974721E-2,-1.0293488E-2,2.4320247E-2,4.8117912E-3,2.9182017E-2,3.994984E-2,-4.0213075E-3,8.763802E-3,-4.514021E-2,3.8881157E-2,2.8132424E-3,3.782575E-2,9.259376E-3,3.5518012E-3,3.7810795E-2,-4.66747E-2,6.862247E-3,1.388339E-2,-3.5255603E-2,-3.978186E-2,1.4549672E-2,1.5762374E-2,-3.382341E-2,-1.7560448E-2,-4.6824783E-2,-3.177757E-2,1.5246577E-2],"categories":[],"categories_nodes":[],"categories_segments":[],"categories_sizes":[],"default_left":[0,0,0,0,0,0,0,0,0,0,0,0,0,0,0,0,0,0,0,0,0,0,0,0,0,0,0,0,0,0,0,0,0,0,0,0,0,0,0,0,0,0,0,0,0,0,0,0,0,0,0,0,0,0,0,0,0,0,0,0,0,0,0,0,0,0,0,0,0,0,0,0,0,0,0],"id":11,"left_children":[1,3,5,7,9,11,13,15,17,19,21,23,25,27,-1,29,31,-1,33,-1,35,-1,37,39,41,43,45,-1,47,-1,-1,49,51,53,55,-1,57,-1,59,61,63,65,-1,67,69,71,73,-1,-1,-1,-1,-1,-1,-1,-1,-1,-1,-1,-1,-1,-1,-1,-1,-1,-1,-1,-1,-1,-1,-1,-1,-1,-1,-1,-1],"loss_changes":[2.5353176E1,1.076656E1,1.4125685E1,8.522268E0,4.891205E0,1.2654649E1,1.2170547E1,8.085155E0,9.448828E0,2.0902061E0,9.026561E0,1.2774225E1,1.2725769E1,9.9212E0,0E0,1.1399031E-1,7.146119E0,0E0,8.827298E0,0E0,1.8707466E0,0E0,1.7271972E0,8.828409E0,7.598503E0,8.884356E0,1.2749631E1,0E0,1.353992E1,0E0,0E0,6.395729E0,5.8588295E0,3.862843E0,1.0098794E1,0E0,1.5681229E0,0E0,2.2354889E-1,3.7412674E0,1.2860046E1,5.577915E0,0E0,7.182376E0,6.602625E0,3.6194382E0,4.896528E0,0E0,0E0,0E0,0E0,0E0,0E0,0E0,0E0,0E0,0E0,0E0,0E0,0E0,0E0,0E0,0E0,0E0,0E0,0E0,0E0,0E0,0E0,0E0,0E0,0E0,0E0,0E0,0E0],"parents":[2147483647,0,0,1,1,2,2,3,3,4,4,5,5,6,6,7,7,8,8,9,9,10,10,11,11,12,12,13,13,15,15,16,16,18,18,20,20,22,22,23,23,24,24,25,25,26,26,28,28,31,31,32,32,33,33,34,34,36,36,38,38,39,39,40,40,41,41,43,43,44,44,45,45,46,46],"right_children":[2,4,6,8,10,12,14,16,18,20,22,24,26,28,-1,30,32,-1,34,-1,36,-1,38,40,42,44,46,-1,48,-1,-1,50,52,54,56,-1,58,-1,60,62,64,66,-1,68,70,72,74,-1,-1,-1,-1,-1,-1,-1,-1,-1,-1,-1,-1,-1,-1,-1,-1,-1,-1,-1,-1,-1,-1,-1,-1,-1,-1,-1,-1],"split_conditions":[8.1468344E-2,3.3754553E-4,1.7823716E-1,5.524432E-2,6.1120842E1,-4.7693007E-2,2.3795576E-1,2.4567474E1,6.3732395E1,5.50386E-2,-1.7165786E-2,-4.5477992E-1,3.473544E-1,-1.0735535E-2,-3.7136555E-2,-3.6988762E-4,-2.1094304E-4,-4.4399858E-2,5.4444396E-3,-1.2890006E-3,-3.0452376E-2,-3.899818E-2,1.2670252E-1,-6.924826E-2,6.054341E-1,-9.658756E-2,1.3706288E-1,4.254909E-2,-9.1617374E-4,-9.631422E-3,-3.7081346E-2,2.8858218E-1,-9.792581E-3,1.0434964E-3,9.6408315E-2,3.5083226E-3,2.2616117E-1,-2.455522E-3,6.636334E-2,-2.1853615E-2,-3.603276E-2,2.5861406E-1,2.8936716E-2,1.4642202E-2,7.6853104E-2,8.599846E-4,8.774465E-4,3.7412528E-2,-3.974721E-2,-1.0293488E-2,2.4320247E-2,4.8117912E-3,2.9182017E-2,3.994984E-2,-4.0213075E-3,8.763802E-3,-4.514021E-2,3.8881157E-2,2.8132424E-3,3.782575E-2,9.259376E-3,3.5518012E-3,3.7810795E-2,-4.66747E-2,6.862247E-3,1.388339E-2,-3.5255603E-2,-3.978186E-2,1.4549672E-2,1.5762374E-2,-3.382341E-2,-1.7560448E-2,-4.6824783E-2,-3.177757E-2,1.5246577E-2],"split_indices":[6,19,6,3,0,2,3,0,0,6,8,1,5,8,0,12,19,0,8,0,8,0,10,10,5,10,3,0,19,0,0,7,8,15,7,0,5,0,6,8,3,11,0,3,8,16,16,0,0,0,0,0,0,0,0,0,0,0,0,0,0,0,0,0,0,0,0,0,0,0,0,0,0,0,0],"split_type":[0,0,0,0,0,0,0,0,0,0,0,0,0,0,0,0,0,0,0,0,0,0,0,0,0,0,0,0,0,0,0,0,0,0,0,0,0,0,0,0,0,0,0,0,0,0,0,0,0,0,0,0,0,0,0,0,0,0,0,0,0,0,0,0,0,0,0,0,0,0,0,0,0,0,0],"sum_hessian":[2.8704657E2,1.1945575E2,1.6759082E2,8.69614E1,3.249435E1,1.4824205E2,1.934878E1,6.464849E1,2.231291E1,2.5189085E1,7.3052654E0,6.731267E1,8.0929375E1,1.705793E1,2.290849E0,2.7664557E0,6.1882034E1,4.349527E0,1.7963383E1,1.4802706E0,2.3708815E1,2.0200458E0,5.285219E0,2.9558369E1,3.7754303E1,5.1009045E1,2.992033E1,1.0838786E1,6.219144E0,1.1167406E0,1.649715E0,2.1076035E1,4.0806E1,6.838736E0,1.1124647E1,1.8516288E0,2.1857185E1,1.4928826E0,3.7923367E0,1.4850838E1,1.4707532E1,3.6603344E1,1.1509593E0,7.6484547E0,4.3360588E1,1.8082106E1,1.1838223E1,2.8881826E0,3.3309612E0,1.52560835E1,5.81995E0,1.3625066E1,2.7180935E1,4.3957148E0,2.4430213E0,6.5899296E0,4.534718E0,2.0543415E1,1.3137715E0,2.6541853E0,1.1381514E0,1.1969202E1,2.8816354E0,6.8912344E0,7.816298E0,1.6981176E0,3.4905224E1,4.798774E0,2.849681E0,4.172123E1,1.639358E0,1.0498275E1,7.5838313E0,1.4500422E0,1.0388182E1],"tree_param":{"num_deleted":"0","num_feature":"36","num_nodes":"75","size_leaf_vector":"1"}},{"base_weights":[4.6688262E-2,4.021476E-1,-2.0366785E-1,7.334678E-1,1.119073E-1,-5.2393144E-1,5.596038E-2,1.7814253E-1,8.8286483E-1,7.8489935E-1,-1.6334872E-1,-1.0444271E-1,-1.0531005E0,5.0384814E-1,-2.2411132E-1,1.1353979E0,-7.117761E-1,3.3779138E-1,1.227742E0,-2.7499765E-2,1.0989391E0,1.1992275E-1,-7.714996E-1,-2.9006764E-1,4.121224E-2,-1.3323272E0,2.0202622E-1,-4.1379448E-2,7.2004586E-1,-1.0037872E0,-7.927677E-2,3.0103205E-3,4.137654E-2,-1.1692317E0,2.1902375E-2,-3.7207982E-1,9.361665E-1,-1.2538538E-2,1.3207074E0,1.3962436E0,-3.2677647E-2,7.142827E-1,-4.0058076E-1,6.22468E-1,-1.1067222E0,-1.0910915E0,-1.0519621E-1,-2.7877626E-1,-1.4701686E0,-8.862055E-1,3.7401438E-2,8.31876E-1,-2.1684505E-2,1.736066E-2,-1.4210149E0,1.3904174E-1,-6.7430025E-1,2.4861437E-3,-4.6510678E-2,2.8726488E-2,-2.5029909E-2,3.432125E-2,-1.07492525E-2,1.7943723E-5,4.184146E-2,4.375228E-2,1.5620473E-2,5.0456857E-4,3.730378E-2,-2.3612699E-2,1.0370105E-2,2.7461637E-2,2.4645175E-3,-4.2230003E-2,2.2340164E-2,-4.1560415E-2,-1.1119355E-2,3.914351E-3,-3.1909354E-2,1.6596258E-2,-3.0884752E-2,-7.1565663E-3,-4.5639556E-2,-5.5091386E-3,-3.287298E-2,1.564368E-2,3.6885172E-2,-8.943838E-3,-4.732572E-2,1.331855E-2,-1.4085763E-2,-3.716289E-2,9.253342E-3],"categories":[],"categories_nodes":[],"categories_segments":[],"categories_sizes":[],"default_left":[0,0,0,0,0,0,0,0,0,0,0,0,0,0,0,0,0,0,0,0,0,0,0,0,0,0,0,0,0,0,0,0,0,0,0,0,0,0,0,0,0,0,0,0,0,0,0,0,0,0,0,0,0,0,0,0,0,0,0,0,0,0,0,0,0,0,0,0,0,0,0,0,0,0,0,0,0,0,0,0,0,0,0,0,0,0,0,0,0,0,0,0,0],"id":12,"left_children":[1,3,5,7,9,11,13,15,17,19,21,23,25,27,29,31,33,35,37,-1,39,41,43,45,-1,47,49,-1,51,53,55,-1,-1,57,-1,59,61,-1,63,65,-1,67,69,71,73,75,77,79,81,83,-1,85,-1,-1,87,89,91,-1,-1,-1,-1,-1,-1,-1,-1,-1,-1,-1,-1,-1,-1,-1,-1,-1,-1,-1,-1,-1,-1,-1,-1,-1,-1,-1,-1,-1,-1,-1,-1,-1,-1,-1,-1],"loss_changes":[2.4695047E1,1.0941381E1,1.3578122E1,4.2687397E0,1.1666216E1,1.610569E1,1.1514862E1,1.1509788E1,7.440399E0,1.0760577E1,7.850397E0,1.1883801E1,1.1551346E1,1.5356272E1,6.3138056E0,1.486228E0,5.5530653E0,7.812689E0,4.409477E0,0E0,1.1840876E1,1.0058388E1,7.4388065E0,5.514535E0,0E0,3.4335175E0,8.752236E0,0E0,5.8134594E0,6.6218996E0,6.4373655E0,0E0,0E0,2.8930287E0,0E0,6.178781E0,3.052268E0,0E0,2.3542595E0,2.4642944E-2,0E0,5.554797E0,5.3141623E0,4.692973E-1,7.736762E0,9.750519E-1,7.3652515E0,3.2527146E0,1.0966911E0,3.6991477E-1,0E0,3.1166096E0,0E0,0E0,8.0216503E-1,6.9913573E0,7.7481065E0,0E0,0E0,0E0,0E0,0E0,0E0,0E0,0E0,0E0,0E0,0E0,0E0,0E0,0E0,0E0,0E0,0E0,0E0,0E0,0E0,0E0,0E0,0E0,0E0,0E0,0E0,0E0,0E0,0E0,0E0,0E0,0E0,0E0,0E0,0E0,0E0],"parents":[2147483647,0,0,1,1,2,2,3,3,4,4,5,5,6,6,7,7,8,8,9,9,10,10,11,11,12,12,13,13,14,14,15,15,16,16,17,17,18,18,20,20,21,21,22,22,23,23,25,25,26,26,28,28,29,29,30,30,33,33,35,35,36,36,38,38,39,39,41,41,42,42,43,43,44,44,45,45,46,46,47,47,48,48,49,49,51,51,54,54,55,55,56,56],"right_children":[2,4,6,8,10,12,14,16,18,20,22,24,26,28,30,32,34,36,38,-1,40,42,44,46,-1,48,50,-1,52,54,56,-1,-1,58,-1,60,62,-1,64,66,-1,68,70,72,74,76,78,80,82,84,-1,86,-1,-1,88,90,92,-1,-1,-1,-1,-1,-1,-1,-1,-1,-1,-1,-1,-1,-1,-1,-1,-1,-1,-1,-1,-1,-1,-1,-1,-1,-1,-1,-1,-1,-1,-1,-1,-1,-1,-1,-1],"split_conditions":[8.1468344E-2,-3.9639834E-2,-3.9639834E-2,-4.2833292E-4,-1.13235734E-1,4.1108543E1,5.0464397E1,-2.5030547E-1,8.462614E-2,-8.286357E-2,2.7055763E1,1.888305E-1,1.6217427E-1,-9.658756E-2,-1.963166E-2,6.852505E-1,3.6756683E1,1.2670252E-1,-7.799478E-2,-2.7499765E-2,1.8272711E0,2.122085E-1,3.155648E-2,9.238922E-2,4.121224E-2,-5.2255483E0,1.406869E-1,-4.1379448E-2,1.6217427E-1,-7.555657E-4,5.180636E-1,3.0103205E-3,4.137654E-2,-3.26205E-1,2.1902375E-2,3.9978877E-2,-8.4314406E-2,-1.2538538E-2,1.31628895E1,1.5535808E0,-3.2677647E-2,1.2635452E-1,1.8299762E0,1.7084374E-1,1.4729004E-1,-9.6280087E-4,1.5115766E-1,-4.021906E-1,2.504982E-1,2.1346232E-1,3.7401438E-2,-1.11482844E-1,-2.1684505E-2,1.736066E-2,-4.764594E-4,6.6826114E-4,1.6730478E-1,2.4861437E-3,-4.6510678E-2,2.8726488E-2,-2.5029909E-2,3.432125E-2,-1.07492525E-2,1.7943723E-5,4.184146E-2,4.375228E-2,1.5620473E-2,5.0456857E-4,3.730378E-2,-2.3612699E-2,1.0370105E-2,2.7461637E-2,2.4645175E-3,-4.2230003E-2,2.2340164E-2,-4.1560415E-2,-1.1119355E-2,3.914351E-3,-3.1909354E-2,1.6596258E-2,-3.0884752E-2,-7.1565663E-3,-4.5639556E-2,-5.5091386E-3,-3.287298E-2,1.564368E-2,3.6885172E-2,-8.943838E-3,-4.732572E-2,1.331855E-2,-1.4085763E-2,-3.716289E-2,9.253342E-3],"split_indices":[6,2,2,16,10,0,0,10,4,3,9,6,10,10,10,11,9,10,3,0,21,5,5,6,0,21,6,0,10,12,2,0,0,1,0,3,2,0,9,11,0,1,18,4,10,15,6,18,11,10,0,3,0,0,16,13,6,0,0,0,0,0,0,0,0,0,0,0,0,0,0,0,0,0,0,0,0,0,0,0,0,0,0,0,0,0,0,0,0,0,0,0,0],"split_type":[0,0,0,0,0,0,0,0,0,0,0,0,0,0,0,0,0,0,0,0,0,0,0,0,0,0,0,0,0,0,0,0,0,0,0,0,0,0,0,0,0,0,0,0,0,0,0,0,0,0,0,0,0,0,0,0,0,0,0,0,0,0,0,0,0,0,0,0,0,0,0,0,0,0,0,0,0,0,0,0,0,0,0,0,0,0,0,0,0,0,0,0,0],"sum_hessian":[2.7557886E2,1.1363371E2,1.6194514E2,5.234865E1,6.1285057E1,7.205003E1,8.989511E1,1.15623865E1,4.0786263E1,1.7252275E1,4.4032784E1,4.0857994E1,3.1192038E1,3.427842E1,5.5616688E1,5.4375515E0,6.124835E0,1.6572737E1,2.4213528E1,2.3890078E0,1.4863269E1,3.0587973E1,1.3444809E1,3.7013718E1,3.8442793E0,2.546529E1,5.726747E0,2.9760487E0,3.1302372E1,7.783867E0,4.783282E1,1.3057958E0,4.131756E0,4.793185E0,1.3316498E0,7.753134E0,8.819604E0,1.1077726E0,2.3105755E1,1.34040165E1,1.4592515E0,1.4106991E1,1.6480984E1,2.44031E0,1.1004499E1,6.02149E0,3.0992226E1,3.2959657E0,2.2169325E1,2.8792212E0,2.8475258E0,2.9443766E1,1.8586053E0,1.5433211E0,6.2405453E0,3.555409E1,1.2278732E1,1.3011367E0,3.4920487E0,1.7236596E0,6.0294743E0,7.6993966E0,1.1202068E0,1.2801021E0,2.1825653E1,1.1893855E1,1.5101616E0,6.5309157E0,7.5760746E0,1.0821453E1,5.65953E0,1.1322961E0,1.3080139E0,9.671988E0,1.3325118E0,3.620037E0,2.4014528E0,2.556891E1,5.4233165E0,1.6881524E0,1.6078132E0,1.1098377E0,2.1059486E1,1.092576E0,1.7866453E0,1.7833216E1,1.161055E1,1.1187618E0,5.1217837E0,2.3866682E1,1.16874075E1,7.6336517E0,4.6450806E0],"tree_param":{"num_deleted":"0","num_feature":"36","num_nodes":"93","size_leaf_vector":"1"}},{"base_weights":[-1.5907113E-3,8.5954416E-1,-6.2755235E-2,-1.5849052E-2,1.0101107E0,3.430491E-2,-4.1203994E-1,1.22910686E-1,1.2598624E0,-3.7056202E-1,1.5715209E-1,6.326269E-2,-8.072212E-1,-2.8680006E-2,6.8885034E-1,1.3648441E0,5.321576E-3,-8.4002894E-1,2.3788449E-1,2.9093438E-1,-1.1851996E-1,-3.5653934E-1,1.1658936E0,2.7125232E-2,-9.495425E-1,2.5477018E-3,2.9162455E-2,4.3313704E-2,1.5029708E-2,-9.8578143E-1,5.4132175E-1,5.2750766E-1,-1.0619473E0,8.232082E-1,1.04838915E-1,-9.3756175E-1,1.0844623E-1,-9.869553E-1,3.9455137E-1,1.3433055E0,5.4314355E-3,-1.3614109E0,-3.3764467E-2,-3.51153E-2,-1.7780793E-3,3.3388093E-2,-9.1048395E-3,3.1439632E-2,-2.0207177E-4,-8.067154E-3,-3.7622515E-2,3.6628242E-3,3.750913E-2,9.510306E-3,-1.2097818E-2,-3.6981493E-2,1.9114997E-2,-1.0514666E-2,1.910432E-2,-8.585558E-3,-4.3725654E-2,2.6341733E-2,-3.4446735E-2,4.4754777E-2,1.0429894E-2,-1.2074853E-2,-4.8652284E-2,-3.337882E-2,2.7155327E-2],"categories":[],"categories_nodes":[],"categories_segments":[],"categories_sizes":[],"default_left":[0,0,0,0,0,0,0,0,0,0,0,0,0,0,0,0,0,0,0,0,0,0,0,0,0,0,0,0,0,0,0,0,0,0,0,0,0,0,0,0,0,0,0,0,0,0,0,0,0,0,0,0,0,0,0,0,0,0,0,0,0,0,0,0,0,0,0,0,0],"id":13,"left_children":[1,3,5,-1,7,9,11,13,15,17,19,21,23,-1,25,27,-1,29,31,33,35,37,39,-1,41,-1,-1,-1,-1,43,45,47,49,51,53,55,57,59,61,63,-1,65,67,-1,-1,-1,-1,-1,-1,-1,-1,-1,-1,-1,-1,-1,-1,-1,-1,-1,-1,-1,-1,-1,-1,-1,-1,-1,-1],"loss_changes":[1.4765956E1,4.4186487E0,8.887133E0,0E0,3.637619E0,1.02909155E1,1.0755728E1,3.6308436E0,1.2633743E0,1.3965517E1,5.8816366E0,1.2821068E1,8.455679E0,0E0,5.6302667E-1,9.0084076E-2,0E0,6.054884E0,8.755113E0,1.0515691E1,9.8634815E0,9.94268E0,1.0889139E0,0E0,1.09993725E1,0E0,0E0,0E0,0E0,4.2368946E0,1.9134548E0,5.1428566E0,3.177271E-1,8.10634E0,8.800849E0,6.129591E0,1.0411086E1,3.2942238E0,8.408823E0,4.1362762E-1,0E0,4.383415E0,1.1248499E1,0E0,0E0,0E0,0E0,0E0,0E0,0E0,0E0,0E0,0E0,0E0,0E0,0E0,0E0,0E0,0E0,0E0,0E0,0E0,0E0,0E0,0E0,0E0,0E0,0E0,0E0],"parents":[2147483647,0,0,1,1,2,2,4,4,5,5,6,6,7,7,8,8,9,9,10,10,11,11,12,12,14,14,15,15,17,17,18,18,19,19,20,20,21,21,22,22,24,24,29,29,30,30,31,31,32,32,33,33,34,34,35,35,36,36,37,37,38,38,39,39,41,41,42,42],"right_children":[2,4,6,-1,8,10,12,14,16,18,20,22,24,-1,26,28,-1,30,32,34,36,38,40,-1,42,-1,-1,-1,-1,44,46,48,50,52,54,56,58,60,62,64,-1,66,68,-1,-1,-1,-1,-1,-1,-1,-1,-1,-1,-1,-1,-1,-1,-1,-1,-1,-1,-1,-1,-1,-1,-1,-1,-1,-1],"split_conditions":[-2.5030547E-1,1.6997147E1,3.473544E-1,-1.5849052E-2,-3.6936876E-1,-1.032407E-3,1.3159942E-2,-1.8665195E-1,2.009782E0,5.230068E-1,3.9978877E-2,3.7921408E-1,8.87864E0,-2.8680006E-2,1.4980192E-1,3.1775172E-4,5.321576E-3,5.9278725E1,2.5211144E-4,-1.816907E-2,-2.8797371E-2,1.4528255E-1,8.6031324E-4,2.7125232E-2,-2.6478939E-4,2.5477018E-3,2.9162455E-2,4.3313704E-2,1.5029708E-2,-7.5697567E-4,-6.073128E-2,8.0540514E-1,2.095637E-1,-3.9794772E0,2.3598741E-1,1.1190209E-3,3.3754553E-4,3.1628888E-4,4.3408054E1,1.6574419E-1,5.4314355E-3,1.871397E-3,3.1520233E-1,-3.51153E-2,-1.7780793E-3,3.3388093E-2,-9.1048395E-3,3.1439632E-2,-2.0207177E-4,-8.067154E-3,-3.7622515E-2,3.6628242E-3,3.750913E-2,9.510306E-3,-1.2097818E-2,-3.6981493E-2,1.9114997E-2,-1.0514666E-2,1.910432E-2,-8.585558E-3,-4.3725654E-2,2.6341733E-2,-3.4446735E-2,4.4754777E-2,1.0429894E-2,-1.2074853E-2,-4.8652284E-2,-3.337882E-2,2.7155327E-2],"split_indices":[10,9,5,0,10,15,8,3,11,22,3,2,9,0,5,13,0,9,17,8,8,10,13,0,19,0,0,0,0,16,3,11,4,22,4,16,19,14,9,10,0,17,1,0,0,0,0,0,0,0,0,0,0,0,0,0,0,0,0,0,0,0,0,0,0,0,0,0,0],"split_type":[0,0,0,0,0,0,0,0,0,0,0,0,0,0,0,0,0,0,0,0,0,0,0,0,0,0,0,0,0,0,0,0,0,0,0,0,0,0,0,0,0,0,0,0,0,0,0,0,0,0,0,0,0,0,0,0,0,0,0,0,0,0,0,0,0,0,0,0,0],"sum_hessian":[2.7831958E2,1.7591799E1,2.6072778E2,1.4761988E0,1.6115599E1,2.0473677E2,5.5991005E1,3.8678515E0,1.2247748E1,4.71915E1,1.5754527E2,2.5800035E1,3.019097E1,1.0936617E0,2.77419E0,1.0927149E1,1.320599E0,2.64232E1,2.0768303E1,1.06032745E2,5.151253E1,1.917589E1,6.6241446E0,1.9069612E0,2.8284008E1,1.3006614E0,1.4735284E0,9.397035E0,1.530114E0,2.4160303E1,2.2628977E0,1.7469904E1,3.298399E0,2.6581175E1,7.945157E1,1.0498014E1,4.1014515E1,1.0254724E1,8.921167E0,5.30459E0,1.3195544E0,1.9173962E1,9.110046E0,1.9924408E1,4.235894E0,1.1603904E0,1.1025074E0,8.361847E0,9.108057E0,1.1112546E0,2.1871445E0,1.0549371E1,1.6031803E1,5.6312702E1,2.3138868E1,9.023844E0,1.4741703E0,2.2129543E1,1.8884972E1,4.765737E0,5.4889865E0,7.1204686E0,1.8006986E0,4.1823516E0,1.1222384E0,4.6376324E0,1.453633E1,4.1530876E0,4.956959E0],"tree_param":{"num_deleted":"0","num_feature":"36","num_nodes":"69","size_leaf_vector":"1"}},{"base_weights":[2.190462E-2,3.1951138E-1,-1.850249E-1,9.900238E-1,1.6221645E-1,-6.041232E-1,7.644158E-2,1.0901175E0,-1.2724778E-2,3.2336208E-1,-3.1919453E-1,-8.103319E-2,-1.123447E0,1.1146979E0,-5.001593E-2,-1.0320897E-2,1.1937349E0,-3.7987355E-2,5.3282624E-1,-7.3116213E-1,4.4562402E-1,6.3668245E-1,-4.4204256E-1,-1.1947736E0,1.2022468E-2,1.3478682E0,-3.527821E-3,8.2575545E-2,-1.2711915E0,1.8451725E-3,1.2739356E0,1.6326429E-1,-4.0861137E-2,9.2328393E-1,1.8021E-1,-1.1640577E0,3.2147995E-1,-6.53251E-1,9.9909353E-1,1.0769657E0,-5.061248E-1,-6.413862E-1,2.9522147E-2,2.4642528E-3,-1.3096972E0,4.405672E-2,7.3878956E-3,3.4100956E-1,-3.0903706E-1,-4.687097E-2,-5.7444265E-3,8.166819E-3,3.9796256E-2,2.7627584E-2,-2.864496E-3,-1.3086919E-2,3.1144377E-2,-9.533727E-3,2.564754E-2,-4.0226538E-2,-3.0703305E-3,2.613319E-2,-1.1383725E-2,7.618088E-3,-3.4663122E-2,8.259408E-3,3.605479E-2,4.744152E-3,4.5610715E-2,1.2857398E-2,-3.2172043E-2,-2.5297632E-2,2.4653504E-2,-2.7027858E-2,2.2428446E-2,-1.6665235E-2,-4.2872634E-2,-3.2688188E-3,2.5084691E-2,-2.8176514E-2,7.684628E-3],"categories":[],"categories_nodes":[],"categories_segments":[],"categories_sizes":[],"default_left":[0,0,0,0,0,0,0,0,0,0,0,0,0,0,0,0,0,0,0,0,0,0,0,0,0,0,0,0,0,0,0,0,0,0,0,0,0,0,0,0,0,0,0,0,0,0,0,0,0,0,0,0,0,0,0,0,0,0,0,0,0,0,0,0,0,0,0,0,0,0,0,0,0,0,0,0,0,0,0,0,0],"id":14,"left_children":[1,3,5,7,9,11,13,15,-1,17,19,21,23,25,27,-1,29,31,33,35,37,39,41,43,-1,45,-1,47,49,-1,51,53,-1,55,57,59,61,63,65,67,69,71,-1,73,75,-1,-1,77,79,-1,-1,-1,-1,-1,-1,-1,-1,-1,-1,-1,-1,-1,-1,-1,-1,-1,-1,-1,-1,-1,-1,-1,-1,-1,-1,-1,-1,-1,-1,-1,-1],"loss_changes":[1.6665846E1,1.1542696E1,1.7545725E1,3.4192314E0,7.1686573E0,1.6606426E1,1.308421E1,3.3512726E0,0E0,5.2225575E0,7.6810846E0,8.494913E0,3.8235893E0,3.2665186E0,1.4582565E1,0E0,1.6177711E0,7.191876E0,5.833358E0,7.4603357E0,6.00086E0,6.0891438E0,6.7948594E0,4.0817146E0,0E0,8.58305E-1,0E0,8.363295E0,2.4731922E0,0E0,5.553913E-1,4.7139564E0,0E0,3.6441402E0,8.3830385E0,1.9720898E0,2.3782146E0,1.9107752E0,5.852437E-1,3.1303196E0,2.441697E0,6.4903555E0,0E0,3.0930884E0,1.6416054E0,0E0,0E0,1.1149036E1,1.1981343E1,0E0,0E0,0E0,0E0,0E0,0E0,0E0,0E0,0E0,0E0,0E0,0E0,0E0,0E0,0E0,0E0,0E0,0E0,0E0,0E0,0E0,0E0,0E0,0E0,0E0,0E0,0E0,0E0,0E0,0E0,0E0,0E0],"parents":[2147483647,0,0,1,1,2,2,3,3,4,4,5,5,6,6,7,7,9,9,10,10,11,11,12,12,13,13,14,14,16,16,17,17,18,18,19,19,20,20,21,21,22,22,23,23,25,25,27,27,28,28,30,30,31,31,33,33,34,34,35,35,36,36,37,37,38,38,39,39,40,40,41,41,43,43,44,44,47,47,48,48],"right_children":[2,4,6,8,10,12,14,16,-1,18,20,22,24,26,28,-1,30,32,34,36,38,40,42,44,-1,46,-1,48,50,-1,52,54,-1,56,58,60,62,64,66,68,70,72,-1,74,76,-1,-1,78,80,-1,-1,-1,-1,-1,-1,-1,-1,-1,-1,-1,-1,-1,-1,-1,-1,-1,-1,-1,-1,-1,-1,-1,-1,-1,-1,-1,-1,-1,-1,-1,-1],"split_conditions":[8.1468344E-2,-3.2148852E0,-9.027177E-2,1.4255292E-3,6.947824E-2,-4.3067592E-1,-3.957645E-2,-5.3513526E-5,-1.2724778E-2,-3.11653E-4,3.4895807E-4,-8.9304465E-1,3.2128373E-3,1.7814568E-4,4.335645E0,-1.0320897E-2,-1.24083765E-1,7.0417576E-5,2.6276365E-1,3.437014E-1,8.90476E-2,1.5129192E-2,1.5216783E-1,3.1182796E1,1.2022468E-2,1.5444231E0,-3.527821E-3,4.142195E-1,6.5936923E-1,1.8451725E-3,-2.9110441E0,-2.2761042E-1,-4.0861137E-2,-8.818217E-2,4.1693568E-4,2.8485434E0,1.8272711E0,4.952897E-4,-1.7165786E-2,-1.9665337E-3,-4.5107508E-1,-2.7603197E-1,2.9522147E-2,2.7597403E1,8.867809E-2,4.405672E-2,7.3878956E-3,1.755813E-1,1.1200846E-1,-4.687097E-2,-5.7444265E-3,8.166819E-3,3.9796256E-2,2.7627584E-2,-2.864496E-3,-1.3086919E-2,3.1144377E-2,-9.533727E-3,2.564754E-2,-4.0226538E-2,-3.0703305E-3,2.613319E-2,-1.1383725E-2,7.618088E-3,-3.4663122E-2,8.259408E-3,3.605479E-2,4.744152E-3,4.5610715E-2,1.2857398E-2,-3.2172043E-2,-2.5297632E-2,2.4653504E-2,-2.7027858E-2,2.2428446E-2,-1.6665235E-2,-4.2872634E-2,-3.2688188E-3,2.5084691E-2,-2.8176514E-2,7.684628E-3],"split_indices":[6,22,2,15,3,1,8,19,0,16,19,21,15,19,21,0,3,12,18,7,10,10,10,0,0,18,0,2,1,0,21,10,0,3,16,21,21,19,8,15,2,22,0,0,6,0,0,1,6,0,0,0,0,0,0,0,0,0,0,0,0,0,0,0,0,0,0,0,0,0,0,0,0,0,0,0,0,0,0,0,0],"split_type":[0,0,0,0,0,0,0,0,0,0,0,0,0,0,0,0,0,0,0,0,0,0,0,0,0,0,0,0,0,0,0,0,0,0,0,0,0,0,0,0,0,0,0,0,0,0,0,0,0,0,0,0,0,0,0,0,0,0,0,0,0,0,0,0,0,0,0,0,0,0,0,0,0,0,0,0,0,0,0,0,0],"sum_hessian":[2.686614E2,1.09965126E2,1.5869629E2,1.9888962E1,9.0076164E1,6.046611E1,9.823018E1,1.878831E1,1.1006532E0,6.773209E1,2.2344074E1,3.0699757E1,2.9766356E1,9.816748E0,8.841343E1,1.1096516E0,1.7678658E1,2.5155188E1,4.2576904E1,1.4550493E1,7.7935805E0,1.0018518E1,2.0681238E1,2.8642141E1,1.1242136E0,8.175935E0,1.6408129E0,8.059505E1,7.8183813E0,1.286299E0,1.6392359E1,2.259718E1,2.5580091E0,1.9436346E1,2.314056E1,1.0235381E1,4.3151116E0,2.5501506E0,5.2434297E0,7.273796E0,2.7447221E0,1.8627697E1,2.0535417E0,2.5942824E0,2.604786E1,7.068428E0,1.1075071E0,4.863134E1,3.1963705E1,5.8056917E0,2.0126896E0,1.1260176E0,1.526634E1,5.1011195E0,1.749606E1,1.2962272E0,1.8140118E1,1.3618075E1,9.522485E0,8.548669E0,1.6867123E0,2.282534E0,2.0325778E0,1.0848091E0,1.4653416E0,1.6632928E0,3.580137E0,2.8091447E0,4.464651E0,1.1272417E0,1.6174805E0,1.6741598E1,1.8860981E0,1.0781355E0,1.516147E0,4.3324847E0,2.1715374E1,2.5886572E1,2.2744768E1,1.4800073E1,1.7163633E1],"tree_param":{"num_deleted":"0","num_feature":"36","num_nodes":"81","size_leaf_vector":"1"}},{"base_weights":[7.5918E-3,3.5445845E-1,-2.2789074E-1,7.228262E-1,1.7279781E-2,-6.0563886E-1,7.3273135E-3,-6.794509E-1,8.118167E-1,-2.5453097E-1,4.6504867E-1,-1.1169312E0,-1.4653976E-1,1.0306317E0,-9.6420154E-2,9.623071E-3,-3.66339E-2,1.122413E0,5.239139E-1,-1.0539593E0,8.4911354E-2,9.465511E-1,-3.107082E-1,-1.2572973E0,-7.557205E-2,1.020126E0,-2.9250604E-1,-8.4076374E-4,1.2226291E0,3.2707164E-1,-2.7909476E-1,1.2708491E0,4.4330892E-1,9.277553E-1,8.690967E-2,4.445015E-1,-1.4702681E0,4.5848987E-1,-6.8753415E-1,3.8460184E-2,-1.9998635E-1,7.8372705E-1,-8.7880236E-1,7.7822497E-3,-1.3465126E0,-3.1017773E-2,2.9776325E-2,3.6037575E-2,8.8547375E-3,-9.839594E-1,2.8006036E-2,4.2137835E-2,9.325506E-3,7.158382E-1,-4.2152262E-1,1.16149336E-1,-5.330317E-1,1.7858813E-2,4.082025E-2,-8.759006E-3,3.385752E-2,3.8512316E-2,1.6850855E-2,-2.2986071E-2,2.2840047E-2,3.0590372E-2,-1.0517131E-2,-4.769138E-2,-9.62308E-3,2.3478819E-2,-1.5275638E-2,-4.3876868E-2,1.3599087E-2,2.5812725E-2,-2.6105361E-2,3.212793E-2,3.7230577E-3,1.2111312E-2,-3.613152E-2,7.7736396E-3,-4.29531E-2,-3.6142547E-2,8.353377E-3,1.7764062E-2,-2.0065986E-2,-2.4458714E-2,2.8717766E-2,1.1669309E-2,-3.1220023E-2,2.360334E-2,-7.6638185E-3,-2.5169881E-2,8.745146E-3],"categories":[],"categories_nodes":[],"categories_segments":[],"categories_sizes":[],"default_left":[0,0,0,0,0,0,0,0,0,0,0,0,0,0,0,0,0,0,0,0,0,0,0,0,0,0,0,0,0,0,0,0,0,0,0,0,0,0,0,0,0,0,0,0,0,0,0,0,0,0,0,0,0,0,0,0,0,0,0,0,0,0,0,0,0,0,0,0,0,0,0,0,0,0,0,0,0,0,0,0,0,0,0,0,0,0,0,0,0,0,0,0,0],"id":15,"left_children":[1,3,5,7,9,11,13,15,17,19,21,23,25,27,29,-1,-1,31,33,35,37,39,41,43,45,47,49,-1,51,53,55,57,59,61,63,65,67,69,71,-1,73,75,77,-1,79,-1,-1,-1,-1,81,83,-1,-1,85,87,89,91,-1,-1,-1,-1,-1,-1,-1,-1,-1,-1,-1,-1,-1,-1,-1,-1,-1,-1,-1,-1,-1,-1,-1,-1,-1,-1,-1,-1,-1,-1,-1,-1,-1,-1,-1,-1],"loss_changes":[2.2880825E1,1.405558E1,1.483145E1,7.303211E0,7.440356E0,1.4870218E1,1.1121908E1,2.4359126E0,4.0020638E0,1.0423351E1,8.914515E0,4.3120384E0,6.2410836E0,1.9942532E0,7.454642E0,0E0,0E0,1.8374615E0,4.9515567E0,7.7806387E0,8.296143E0,5.8282385E0,6.652089E0,3.9357262E0,5.781168E0,1.842618E-1,7.073559E0,0E0,9.2135334E-1,8.783586E0,6.7902346E0,3.4352303E-1,3.2558427E0,1.1966181E0,9.097594E0,1.8445684E0,7.495384E-1,6.4337325E0,8.988077E0,0E0,3.6939464E0,5.881312E-1,3.3195305E0,0E0,3.819847E0,0E0,0E0,0E0,0E0,3.1498766E0,9.318439E0,0E0,0E0,8.008141E0,5.7197165E0,6.9406075E0,1.0586359E1,0E0,0E0,0E0,0E0,0E0,0E0,0E0,0E0,0E0,0E0,0E0,0E0,0E0,0E0,0E0,0E0,0E0,0E0,0E0,0E0,0E0,0E0,0E0,0E0,0E0,0E0,0E0,0E0,0E0,0E0,0E0,0E0,0E0,0E0,0E0,0E0],"parents":[2147483647,0,0,1,1,2,2,3,3,4,4,5,5,6,6,7,7,8,8,9,9,10,10,11,11,12,12,13,13,14,14,17,17,18,18,19,19,20,20,21,21,22,22,23,23,24,24,25,25,26,26,28,28,29,29,30,30,31,31,32,32,33,33,34,34,35,35,36,36,37,37,38,38,40,40,41,41,42,42,44,44,49,49,50,50,53,53,54,54,55,55,56,56],"right_children":[2,4,6,8,10,12,14,16,18,20,22,24,26,28,30,-1,-1,32,34,36,38,40,42,44,46,48,50,-1,52,54,56,58,60,62,64,66,68,70,72,-1,74,76,78,-1,80,-1,-1,-1,-1,82,84,-1,-1,86,88,90,92,-1,-1,-1,-1,-1,-1,-1,-1,-1,-1,-1,-1,-1,-1,-1,-1,-1,-1,-1,-1,-1,-1,-1,-1,-1,-1,-1,-1,-1,-1,-1,-1,-1,-1,-1,-1],"split_conditions":[8.0158E-2,-3.6370206E-5,-9.257403E-2,2.2309711E1,1.6696113E-1,3.6079147E-1,-3.957645E-2,-7.835217E-4,1.9052146E-1,5.5555557E1,7.689438E-3,8.3599573E-1,-1.5587186E1,1.1905778E-1,4.8856208E-1,9.623071E-3,-3.66339E-2,-1.9758363E-4,-1.1560734E-3,-9.969662E-2,1.0609071E-3,1.6810523E-1,5.0809846E-4,2.504982E-1,9.928076E-2,-4.0858286E-3,-1.6223973E0,-8.4076374E-4,6.3557213E1,5.7096775E1,1.3626866E-1,-6.8173476E-4,6.0946953E-2,-3.2148852E0,-4.186498E-2,3.5237324E-5,3.0314283E0,7.420828E-1,1.8299762E0,3.8460184E-2,6.33137E-2,-7.4831736E-1,5.242013E-1,7.7822497E-3,8.1468344E-2,-3.1017773E-2,2.9776325E-2,3.6037575E-2,8.8547375E-3,-7.799478E-2,6.6045547E-1,4.2137835E-2,9.325506E-3,-8.5707575E-2,1.2557541E-3,6.0571883E-2,7.597949E0,1.7858813E-2,4.082025E-2,-8.759006E-3,3.385752E-2,3.8512316E-2,1.6850855E-2,-2.2986071E-2,2.2840047E-2,3.0590372E-2,-1.0517131E-2,-4.769138E-2,-9.62308E-3,2.3478819E-2,-1.5275638E-2,-4.3876868E-2,1.3599087E-2,2.5812725E-2,-2.6105361E-2,3.212793E-2,3.7230577E-3,1.2111312E-2,-3.613152E-2,7.7736396E-3,-4.29531E-2,-3.6142547E-2,8.353377E-3,1.7764062E-2,-2.0065986E-2,-2.4458714E-2,2.8717766E-2,1.1669309E-2,-3.1220023E-2,2.360334E-2,-7.6638185E-3,-2.5169881E-2,8.745146E-3],"split_indices":[6,17,2,0,7,4,8,13,4,0,8,7,22,4,7,0,0,17,17,10,17,10,17,11,10,17,18,0,0,0,4,13,6,22,10,13,21,21,18,0,6,22,18,0,6,0,0,0,0,3,7,0,0,10,17,3,22,0,0,0,0,0,0,0,0,0,0,0,0,0,0,0,0,0,0,0,0,0,0,0,0,0,0,0,0,0,0,0,0,0,0,0,0],"split_type":[0,0,0,0,0,0,0,0,0,0,0,0,0,0,0,0,0,0,0,0,0,0,0,0,0,0,0,0,0,0,0,0,0,0,0,0,0,0,0,0,0,0,0,0,0,0,0,0,0,0,0,0,0,0,0,0,0,0,0,0,0,0,0,0,0,0,0,0,0,0,0,0,0,0,0,0,0,0,0,0,0,0,0,0,0,0,0,0,0,0,0,0,0],"sum_hessian":[2.7813513E2,1.1226425E2,1.658709E2,5.3104176E1,5.9160072E1,6.304656E1,1.0282433E2,2.7730134E0,5.0331165E1,3.7081757E1,2.2078314E1,2.9149872E1,3.3896687E1,8.642797E0,9.418154E1,1.117449E0,1.6555644E0,2.2817022E1,2.7514141E1,1.04248905E1,2.6656866E1,1.3486964E1,8.591351E0,2.55047E1,3.6451712E0,3.1033928E0,3.0793295E1,1.4579298E0,7.1848674E0,2.8144382E1,6.6037155E1,1.8009264E1,4.807759E0,1.3716009E1,1.3798132E1,2.251854E0,8.173037E0,1.824127E1,8.415598E0,1.0342725E1,3.1442392E0,2.8060033E0,5.7853475E0,1.3109084E0,2.4193792E1,1.9381766E0,1.7069944E0,1.9573851E0,1.1460078E0,9.0973215E0,2.1695972E1,5.538949E0,1.6459184E0,1.855302E1,9.591362E0,2.6043676E1,3.999348E1,3.0087173E0,1.50005455E1,2.5961378E0,2.2116213E0,5.6827197E0,8.03329E0,6.0319514E0,7.7661805E0,1.1426971E0,1.109157E0,7.056802E0,1.1162345E0,1.3807487E1,4.433783E0,4.8432946E0,3.5723028E0,1.107714E0,2.0365252E0,1.520448E0,1.2855554E0,1.1227416E0,4.662606E0,1.1170678E0,2.3076723E1,7.7819443E0,1.3153774E0,1.20729885E1,9.622984E0,2.2031615E0,1.634986E1,4.314786E0,5.2765756E0,8.887524E0,1.7156153E1,2.9156656E1,1.0836823E1],"tree_param":{"num_deleted":"0","num_feature":"36","num_nodes":"93","size_leaf_vector":"1"}}]},"name":"gbtree"},"learner_model_param":{"base_score":"5.0133556E-1","boost_from_average":"1","num_class":"0","num_feature":"36","num_target":"1"},"objective":{"name":"binary:logistic","reg_loss_param":{"scale_pos_weight":"1"}}},"version":[2,0,3]}