tree
version=v4
num_class=1
num_tree_per_iteration=1
label_index=0
max_feature_idx=35
objective=binary sigmoid:1
feature_names=rsi_14 macd_line macd_signal macd_hist bb_pct_upper bb_pct_lower atr_pct_14 volatility_regime trend_regime_slope adx_14 cmf_20 volume_sma_ratio return_1 return_2 return_3 return_5 ma10_ratio ma30_ratio bb_zscore macd_hist_ratio volume_ratio fft_real fft_imag corr_btc_eth_20 corr_btc_sol_20 corr_btc_eth_100 corr_btc_sol_100 ratio_btc_eth_norm ratio_btc_sol_norm ratio_btc_bnb_norm btc_funding_rate funding_mom_1 funding_mom_3 funding_spread_eth funding_spread_sol funding_spread_bnb
feature_infos=[1.5217391258020427:92.999999837249362] [-1.8262961020286639:1.5813659749740054] [-1.5015635032351629:1.344698979111469] [-0.46654119822837448:0.60011065775384931] [-0.21069578365482314:1.8270090715357221] [-0.1759882146776556:1.5652437254063825] [0.042060988433154638:0.29545437224149806] [0.0017094017094017094:1] [-0.16744321902731726:0.093321416158147819] [6.0450352359700945:76.099929550308914] [-0.63485184605358058:0.50387457293148008] [0.12920329919303636:6.6332018306654286] [-0.0039846232161352413:0.0047736480535491843] [-0.0056634448752078681:0.0061299982385061291] [-0.0060922230361066809:0.0073888091822094104] [-0.0061558909427956721:0.010803134886396393] [-0.0055017609566069608:0.0056584270145079076] [-0.010604559439081942:0.0087038921840297927] [-3.5143507158360987:3.3722101678582463] [-0.0024929399793926039:0.0031368473855201847] [0.12920329919303636:6.6332018306654286] [-14.804806572453339:14.423425603955211] [-20.366399126452208:23.561784678940221] none none [0:1.0000000000000007] [0:1.0000000000000007] none none none none none none none none none
tree_sizes=3192 2986 3332 3303 2443 2982 3388 3413 3397 3407 2863 2984 2570 2570

Tree=0
num_leaves=29
num_cat=0
split_feature=6 2 0 19 8 5 8 22 5 7 18 7 26 9 17 13 6 5 3 0 19 9 22 0 9 6 2 13
split_gain=54.4327 21.5638 24.9466 18.1898 15.9607 18.3899 14.9235 15.5535 18.184 12.3997 12.3585 13.0374 11.9778 30.833 16.5238 11.8328 11.2155 9.46888 18.2265 8.03285 7.92909 19.1118 6.22078 5.39343 4.00804 3.93084 2.39501 1.98723
threshold=0.081508426521748251 -0.035422672518608596 41.995132111335423 -0.00021293447849248166 -0.037066665904418643 0.34598046768904128 -0.01399609454890635 -0.086871223182279453 0.25177691125303847 0.30756710083316802 0.50115767252708754 0.48905022043319918 0.99999999999999867 32.708210511056997 -0.00017798820138737693 0.0013532413039875071 0.066897733880248347 0.1398421994142672 0.067345801806411434 26.184174158063978 -0.00014881639541714482 15.81265793207306 3.4443670219043381 34.8257942437412 21.839156502036037 0.090664293418451822 -0.7297237335205925 0.00021143511643961779
decision_type=2 2 2 2 2 2 2 2 2 2 2 2 2 2 2 2 2 2 2 2 2 2 2 2 2 2 2 2
left_child=3 2 6 9 -3 10 7 8 -2 16 11 -6 14 -14 19 25 22 -16 -19 -5 21 -7 -1 -8 -12 -4 -27 -21
right_child=1 4 15 12 5 20 23 -9 -10 -11 24 -13 13 -15 17 -17 -18 18 -20 27 -22 -23 -24 -25 -26 26 -28 -29
leaf_value=0.024246060004040962 -0.012374180975810429 0.045564656275390261 -0.022638191658420813 0.012930998808550304 0.030916439516671959 0.012182945089490027 -0.012014908853239288 0.060218897330277688 0.048908043849166055 0.037346257605768644 0.015278855063109109 -0.0094620784056535911 -0.04740534504416917 0.04216711834835854 -0.011384655111431512 0.0082813427030624318 -0.042243750860247661 0.052454151891136863 0.0083356910951138848 0.057705624932633162 0.0095966273760406812 -0.043521901202018952 -0.022293219765835044 -0.054818495524420863 0.048088127525988338 -0.027356718038849502 -0.054818495534306323 0.042167118348358547
leaf_weight=6.4839780032634788 21.960445836186413 7.8925760537385932 5.7929600328207078 5.5031913071870795 10.328243285417555 8.3469495177269 5.4440301805734617 4.4564017504453686 5.4365847557783118 5.5623524338006964 5.3188661932945243 23.735802559182048 6.2867742478847486 7.6885305643081665 7.5110471844673148 4.4315299168229094 7.4124453067779532 13.902460217475889 21.400628760457039 20.708805963397026 7.9585789144039145 16.502249149605632 4.2986387461423874 5.1611031889915466 9.0576878637075406 3.3941578231751981 18.100726183503863 11.532795846462248
leaf_count=23 97 24 27 21 35 32 24 12 17 18 20 105 33 24 33 21 38 40 84 57 31 86 20 28 27 18 100 36
internal_value=0.0053422 -0.00510865 -0.0170586 0.0216141 0.00483543 0.000878942 -0.00202135 0.00824118 -0.00021352 -0.00185273 0.0126249 0.00278072 0.0275115 0.00187305 0.0319592 -0.0371871 -0.0138361 0.0192021 0.0257097 0.0464297 -0.0164639 -0.0248104 0.00569253 -0.0328457 0.0359497 -0.0445711 -0.0504821 0.0521475
internal_weight=0 163.319 74.1779 118.292 89.141 81.2484 42.4586 31.8534 27.397 23.7574 48.4406 34.064 94.5342 13.9753 80.5589 31.7194 18.1951 42.8141 35.3031 37.7448 32.8078 24.8492 10.7826 10.6051 14.3766 27.2878 21.4949 32.2416
internal_count=1131 704 344 427 360 336 178 126 114 99 187 140 328 57 271 166 81 157 124 114 149 118 43 52 47 145 118 93
is_linear=0
shrinkage=1


Tree=1
num_leaves=27
num_cat=0
split_feature=6 2 0 19 8 8 22 5 8 5 18 7 25 9 17 13 6 5 3 5 0 22 0 6 14 2
split_gain=51.2343 20.2983 23.4874 17.1228 15.208 14.0473 14.6472 17.116 12.8526 15.8999 11.8095 11.6704 11.274 29.0259 15.565 11.144 10.5587 8.91161 17.1674 8.04507 7.56956 5.85389 5.08326 3.70657 3.06347 2.25931
threshold=0.081508426521748251 -0.035422672518608596 41.995132111335423 -0.00021293447849248166 0.076779399499975018 -0.01399609454890635 -0.086871223182279453 0.25177691125303847 -0.037066665904418643 0.34598046768904128 0.34636957172932664 0.30756710083316802 0.99999999999999867 32.708210511056997 -0.00017798820138737693 0.0013532413039875071 0.066897733880248347 0.1398421994142672 0.067345801806411434 0.50224675845776312 26.184174158063978 3.4443670219043381 34.8257942437412 0.090664293418451822 0.00031578416697042316 -0.7297237335205925
decision_type=2 2 2 2 2 2 2 2 2 2 2 2 2 2 2 2 2 2 2 2 2 2 2 2 2 2
left_child=3 2 5 11 8 6 7 -2 -3 10 -10 16 14 -14 20 23 21 -16 -19 -11 -5 -1 -7 -4 -22 -25
right_child=1 4 15 12 -6 22 -8 -9 9 19 -12 -13 13 -15 17 -17 -18 18 -20 -21 24 -23 -24 25 -26 -27
leaf_value=0.018339343877214257 -0.017185423825913683 0.039035990649152946 -0.027144283671171488 0.0073613960600303965 -0.050381565659031423 -0.016836880987102069 0.053278827465623062 0.042284129087667321 -0.0010642844202477287 -0.035364118583014727 0.030879539645150535 0.031054667919637888 -0.051193757153824099 0.035735978425717442 -0.016225456650605274 0.0028510006314393863 -0.046178817858076496 0.04573006226649378 0.0029037179639193056 -0.0039198416055601665 0.050429255445729793 -0.026809517086729243 -0.058399705387637807 -0.031723701365912835 0.028306278078384893 -0.058399705392514996
leaf_weight=6.4830713570118004 21.959760949015621 7.8885370045900336 5.7922590970993104 5.5030004382133475 5.1794669926166526 5.4438726454973203 4.4523959010839489 5.4333736822009078 30.868818005546927 13.608178006485106 15.720462024211882 5.5604530125856391 6.2832882702350599 7.6851687431335449 7.5108572840690604 4.4314856082200995 7.4091920852661124 13.893000602722166 21.400409728288651 15.855181336402891 24.942592352628708 4.2981352508068085 5.1572646498680115 3.3935470394790235 7.2768836170434943 18.087263878434893
leaf_count=23 97 24 27 21 27 24 12 17 126 67 51 18 33 24 33 21 38 40 84 65 69 20 28 18 24 100
internal_value=0 -0.0101403 -0.0217367 0.0157899 -0.000491653 -0.0071446 0.00281283 -0.00538976 0.00258673 -0.00119396 0.00971441 -0.00698103 0.0215133 -0.00336674 0.025829 -0.0412729 -0.0186078 0.0134473 0.019762 -0.0184429 0.0398788 0.000339883 -0.0370565 -0.0484424 0.0454327 -0.0541854
internal_weight=0 163.272 74.1512 118.246 89.1206 42.4467 31.8455 27.3931 83.9412 76.0526 46.5893 23.7509 94.4952 13.9685 80.5267 31.7046 18.1904 42.8043 35.2934 29.4634 37.7225 10.7812 10.6011 27.2731 32.2195 21.4808
internal_count=1131 704 344 427 360 178 126 114 333 309 177 99 328 57 271 166 81 157 124 132 114 43 52 145 93 118
is_linear=0
shrinkage=0.03


Tree=2
num_leaves=30
num_cat=0
split_feature=6 2 0 17 8 10 14 8 22 17 8 22 22 3 7 10 8 8 8 16 4 12 6 8 8 3 2 19 3
split_gain=48.2533 19.1285 22.1488 16.3121 14.3259 14.0553 13.5162 13.2357 13.8131 12.8148 11.2743 11.103 10.9885 14.2984 12.7868 10.0248 7.70655 7.60655 13.3082 6.99312 5.83124 5.52037 5.31549 5.14883 4.02207 3.38255 3.42003 2.78852 0.857752
threshold=0.081508426521748251 -0.035422672518608596 41.995132111335423 0.00051604812804431752 0.076779399499975018 -0.07495586673978559 0.00020075155853549467 -0.01399609454890635 -0.086871223182279453 -6.8425622856050234e-05 -0.0076377837391643135 -12.247444892184795 -4.3291038282882912 -0.07862246511424438 0.30756710083316802 0.16182264901688978 0.0093046772499044729 -0.00054019341320029615 -0.022385151113861943 -0.00031635740200845205 0.45883004085678886 -0.00033274678441586042 0.090664293418451822 0.026090193671550396 0.013902340562543474 0.085187384943426356 -0.056123503251263272 -0.0001243818335048213 -0.040968275819820939
decision_type=2 2 2 2 2 2 2 2 2 2 2 2 2 2 2 2 2 2 2 2 2 2 2 2 2 2 2 2 2
left_child=3 2 7 12 5 21 27 8 11 23 -11 -2 -1 14 16 22 -14 18 -15 -19 -9 -3 -4 -7 25 -8 -27 -5 -24
right_child=1 4 15 6 -6 9 24 20 -10 10 -12 -13 13 17 -16 -17 -18 19 -20 -21 -22 -23 28 -25 -26 26 -28 -29 -30
leaf_value=0.048811728430779688 0.025360602071975769 -0.01230706799260204 -0.020251035672097056 -0.017389935221885373 -0.048927968608168892 0.013350518859551439 0.037054172424004522 -0.057340170593479053 0.051801763918678766 0.028811965452540882 -0.0066589950434896693 -0.017160210767275322 0.0015451070471949914 0.037068826722211234 0.041723873480579848 -0.0059310382821784026 -0.044011273630342816 0.014903872390980155 -0.01291843598206739 0.045550461844069239 -0.012772849657440926 -0.060183649820166538 -0.038293882422556332 0.04467008632915502 -0.006070882072083515 0.025848924345471046 -0.0062324877854530378 -0.048565292872018363 -0.057341562274920925
leaf_weight=12.547879114747046 7.6822806075215366 4.9275698103010654 4.8683521747589174 7.685238778591156 5.1734193563461295 10.080038577318193 6.1439310163259568 5.5159673690795881 4.4421125352382687 9.7621990740299207 46.37887916341424 19.698861554265022 7.3745036870241183 9.4097953289747256 4.0432740747928611 6.2118390053510657 6.1116749346256256 9.8817478418350237 9.7705290615558607 20.819677099585533 5.0716045647859573 3.8697359561920148 2.4100520014762976 8.8909305259585363 8.4839534759521467 5.9297339618206033 6.0337667763233158 3.8888620883226377 18.164789300411933
leaf_count=35 27 22 22 34 27 37 19 30 12 32 194 87 29 29 12 26 31 36 42 60 22 21 12 27 35 20 25 20 106
internal_value=0 -0.00984369 -0.0211094 0.0153323 -0.000477083 0.00251015 -0.000803985 -0.00693609 0.0027307 0.00671216 -0.000491059 -0.00523022 0.0230344 0.0182362 -0.00507073 -0.0400985 -0.0191002 0.0264267 0.0116051 0.0356864 -0.0359918 -0.0333669 -0.0484403 0.0280287 0.0109744 0.0189607 0.00966873 -0.0278648 -0.0551104
internal_weight=0 163.149 74.0659 118.125 89.0828 83.9094 38.1655 42.4108 31.8233 75.112 56.1411 27.3811 79.9591 67.4112 17.5295 31.655 13.4862 49.8817 19.1803 30.7014 10.5876 8.79731 25.4432 18.971 26.5914 18.1074 11.9635 11.5741 20.5748
internal_count=1131 704 344 427 360 333 153 178 126 290 226 114 274 239 72 166 60 167 71 96 52 43 140 64 99 64 45 54 118
is_linear=0
shrinkage=0.03


Tree=3
num_leaves=30
num_cat=0
split_feature=6 2 0 19 8 5 10 8 5 7 26 9 17 10 8 13 18 6 9 10 3 0 26 4 7 6 6 2 13
split_gain=45.4471 18.0375 20.9125 15.5 13.6476 15.8522 14.5461 12.4811 10.7368 10.6176 10.5569 26.9577 14.1618 11.1442 13.2226 10.4201 9.8449 9.79767 7.29902 18.1469 8.46213 7.01857 6.56333 5.52565 4.96504 4.37586 3.31047 2.14549 1.87349
threshold=0.081508426521748251 -0.035422672518608596 41.995132111335423 -0.00021293447849248166 -0.037066665904418643 0.34598046768904128 -0.07495586673978559 -0.01399609454890635 0.25177691125303847 0.30756710083316802 0.99999999999999867 32.708210511056997 -0.00017798820138737693 -0.037719691899604682 0.010185149133210772 0.0013532413039875071 0.50115767252708754 0.066897733880248347 20.794984411647746 0.32607526951720373 0.12160434966786697 26.184174158063978 0.99999999999999867 0.45883004085678886 0.083005381508681697 0.062612555042429477 0.090664293418451822 -0.7297237335205925 0.00021143511643961779
decision_type=2 2 2 2 2 2 2 2 2 2 2 2 2 2 2 2 2 2 2 2 2 2 2 2 2 2 2 2 2
left_child=3 2 7 9 -3 6 -6 8 22 17 12 -12 21 25 -15 26 -8 24 20 -20 -7 -5 -2 -9 -1 -14 -4 -28 -23
right_child=1 4 15 10 5 18 16 23 -10 -11 11 -13 13 14 -16 -17 -18 -19 19 -21 -22 28 -24 -25 -26 -27 27 -29 -30
leaf_value=0.018845569336160158 0.020005983884380355 0.037257952139059219 -0.025817840512662157 0.006636735937987563 -0.030007811793162264 -0.021759193426362972 0.0043279688701477227 -0.055817542090226546 0.041088326372140035 0.029523499870186043 -0.049890580586516839 0.033971520241884885 0.016312249749273623 0.014705739946972114 -0.03165933787246783 0.0036726041230217073 0.036523126699717981 -0.044487486419212782 -0.053956239227314289 0.013451689715003061 0.024374492556481296 0.04872440552271419 -0.014119441574798596 -0.012393717497473361 -0.022075029254953495 0.046889318204414304 -0.029485906214015957 -0.055522565063445314 0.033607318254794599
leaf_weight=5.9075225442647987 6.8525748103857103 7.8695545345544806 5.786318287253386 5.5003976523876181 8.0593295954167825 10.101084291934965 28.054139081388712 5.4967163503169996 5.4248089343309394 5.5500283837318412 6.2717433422803861 7.6671687960624695 8.3705913573503512 17.885260328650478 8.0172524899244291 4.4305169209837905 12.294248402118681 7.3915569782257071 11.997523300349714 5.1318519115447989 5.5414813905954352 20.612700343132019 19.525165989995003 5.0699695199728012 4.8672577291727066 8.4791124165058118 3.3845126517117086 17.981510177254673 11.491867348551748
leaf_count=21 24 24 27 21 39 46 110 30 17 18 33 24 30 65 38 21 38 38 65 19 19 57 85 22 22 24 18 100 36
internal_value=0 -0.00955738 -0.0205084 0.014887 -0.000462972 -0.00411964 0.00678815 -0.00673471 0.00265087 -0.00679235 0.0203395 -0.00376181 0.0245202 0.0127085 0.000354988 -0.0389861 0.0141379 -0.0178873 -0.0202316 -0.0337613 -0.00541603 0.0379486 -0.00525412 -0.0349825 0.000360636 0.0316993 -0.0459469 -0.0513982 0.0433132
internal_weight=0 163.001 73.9521 118.012 89.0492 81.1797 48.4077 42.3692 31.8025 23.7164 94.2961 13.9389 80.3572 42.7522 25.9025 31.5829 40.3484 18.1663 32.7719 17.1294 15.6426 37.605 26.3777 10.5667 10.7748 16.8497 27.1523 21.366 32.1046
internal_count=1131 704 344 427 360 336 187 178 126 99 328 57 271 157 103 166 148 81 149 84 65 114 109 52 43 54 145 118 93
is_linear=0
shrinkage=0.03


Tree=4
num_leaves=22
num_cat=0
split_feature=6 22 22 0 22 10 6 10 8 9 8 8 7 4 21 21 1 21 1 4 18
split_gain=42.8346 17.5264 18.3061 15.5885 14.2562 12.9357 22.7202 11.7272 10.1939 9.3 9.11515 13.3613 8.84739 17.1342 8.22532 7.42795 11.4077 6.05174 8.39809 5.71812 1.62987
threshold=0.081508426521748251 -13.88947309864947 -1.028955073578546 42.528350154908914 -4.3291038282882912 0.15037472131908067 0.14112583343842552 -0.014749304427605621 0.076779399499975018 12.193822987156848 -0.012052545409742691 0.027425487172891463 0.66445159216724725 0.37733699203647031 -1.9149479235497344 0.86000115512962949 0.23465221864626076 1.2857219439428245 0.11992017198696205 0.17415947084231287 -1.4739237333901254
decision_type=2 2 2 2 2 2 2 2 2 2 2 2 2 2 2 2 2 2 2 2 2
left_child=4 -2 5 10 -1 12 -7 14 -9 -6 -4 -12 13 -3 -5 16 19 -17 -19 -11 -14
right_child=1 2 3 7 9 6 -8 8 -10 15 11 -13 20 -15 -16 17 -18 18 -20 -21 -22
leaf_value=0.043803723650980869 0.038651148201856916 -0.042737006717449094 0.04671449159178042 -0.010686081472515097 -0.034754892933083328 -0.034204465464189308 0.053426081610379601 -0.00064078644563086453 -0.046246018111356819 0.029628376195573809 -0.024420046783778168 0.032013448489015724 -0.030412745078883072 0.0018591161078989572 -0.056468016891279331 -0.022615457533449766 -0.018111103599814226 0.018512375050915665 -0.015701020319279946 0.0090788436314711597 -0.053849016307655109
leaf_weight=13.232407733798025 6.5867822077125302 16.597789973020557 7.1095397472381618 6.7918547354638577 3.8911375850439063 5.9363518804311735 4.8289152830839157 56.574243456125259 4.7842176407575598 38.786921724677086 7.1112740039825431 8.0504208207130414 3.3525120615959194 14.551691010594366 7.3583802152425033 7.2896209061145774 6.7423882484436026 20.718494698405269 9.3804505765438062 17.770296677947044 13.131188968196509
leaf_count=38 22 85 20 31 19 29 13 228 25 126 34 26 16 58 42 33 30 73 41 67 75
internal_value=0 -0.00928474 -0.0113064 -0.00336891 0.0144656 -0.0245967 0.00510348 -0.00987429 -0.0041967 0.0107534 0.018687 0.0055445 -0.031309 -0.0219036 -0.0344935 0.0125121 0.0187744 0.00190988 0.00784964 0.0231717 -0.0490825
internal_weight=0 162.765 156.178 97.7799 117.812 58.3984 10.7653 75.5087 61.3585 104.579 22.2712 15.1617 47.6332 31.1495 14.1502 100.688 63.2996 37.3886 30.0989 56.5572 16.4837
internal_count=1131 704 682 406 427 276 42 326 253 389 80 60 234 143 73 370 223 147 114 193 91
is_linear=0
shrinkage=0.03


Tree=5
num_leaves=27
num_cat=0
split_feature=7 5 7 16 3 7 22 2 8 11 9 2 8 25 1 8 16 10 3 3 3 11 25 13 12 3
split_gain=23.201 23.1449 16.0495 18.3199 12.8902 14.9014 11.8679 15.1821 19.6036 11.391 12.8355 10.4162 10.2421 17.7655 12.7308 10.1174 10.0056 10.182 12.9183 8.83406 8.33972 8.12293 4.50078 2.99958 1.52314 0.0277692
threshold=0.38832547169811327 0.22881562087834076 0.16142474713507671 -0.00087847775179992007 0.040163278947985832 0.11117902743819615 -13.88947309864947 -0.094720106213243227 -0.024146422467057872 0.83227657794486676 24.180566143106443 0.42934779038167209 -0.014937851222617971 0.99999999999999867 -0.51665154235007538 0.029224251349999196 0.0014808532340598482 0.14033679701169374 0.084630892712213385 0.013258283463795721 0.1005645670619368 0.9687210737478974 0.99999999999999867 0.00020841214120892462 -0.00036800785637192129 -0.082420703608801937
decision_type=2 2 2 2 2 2 2 2 2 2 2 2 2 2 2 2 2 2 2 2 2 2 2 2 2 2
left_child=1 2 3 -1 19 -6 -2 12 20 10 -10 -11 13 -8 -15 16 17 18 -3 -5 -9 25 23 24 -4 -14
right_child=6 15 22 4 5 -7 7 8 9 11 -12 -13 21 14 -16 -17 -18 -19 -20 -21 -22 -23 -24 -25 -26 -27
leaf_value=-0.048773007467041829 0.042080294807185746 0.01665847475783664 0.029294265560684502 0.011094237720867451 -0.042071611206796485 0.027126164170732568 0.019772252775651759 0.054015856786977304 -0.013406971004875637 -0.010549798308535651 0.020249091853873202 -0.047764507227820725 -0.056646379082898039 -0.0069405744250392457 -0.048689944490247279 -0.04476880151185253 -0.047221746142858456 0.02814334971003607 -0.039746182094279124 0.044227927666532017 0.0060986658739525801 -0.012945358435644245 0.014045042683899235 0.021022190888197026 0.046762229913723606 -0.053556129094056805
leaf_weight=4.9783129692077628 4.1396620590239754 7.2144105434417778 6.0968775451183346 24.029390588402748 7.2277616560459119 4.572832003235817 10.802045226097105 7.1224203407764417 20.609842553734779 26.89465431496501 20.187908118590713 9.0456044077873212 3.847432717680932 14.500260405242441 12.02490007132292 6.6577785909175864 4.0540468990802756 9.3726217001676542 7.4057984948158264 10.366327956318854 6.0421158075332642 6.5108058899641028 10.604676023125647 8.1671566814184171 17.073746055364612 8.1839808467775583
leaf_count=26 15 26 20 89 36 15 38 19 90 116 72 47 21 63 68 34 21 31 37 30 23 29 39 28 48 46
internal_value=0 0.00938786 0.0171812 0.00590569 0.0117981 -0.0152569 -0.00800893 -0.00943137 -0.00179915 -0.00760146 0.00324702 -0.0199162 -0.0217128 -0.0126597 -0.0258672 -0.0115228 -0.00363083 0.00373469 -0.011913 0.0210802 0.0320233 -0.0399375 0.0309387 0.0366555 0.0421659 -0.0545443
internal_weight=0 127.822 93.1171 51.1746 46.1963 11.8006 149.912 145.772 89.9025 76.738 40.7978 35.9403 55.8694 37.3272 26.5252 34.7047 28.0469 23.9928 14.6202 34.3957 13.1645 18.5422 41.9425 31.3378 23.1706 12.0314
internal_count=1127 480 331 196 170 51 647 632 367 325 162 163 265 169 131 149 115 94 63 119 42 96 135 96 68 67
is_linear=0
shrinkage=0.03


Tree=6
num_leaves=31
num_cat=0
split_feature=6 17 6 3 8 7 4 7 6 5 9 8 7 7 18 2 3 3 16 4 9 0 17 6 17 7 8 12 18 9
split_gain=29.7254 16.2332 15.9692 15.2738 15.1027 13.7482 13.3759 11.9477 22.4752 11.6295 11.2617 10.5972 9.62762 9.83212 9.51585 8.36514 8.27035 10.33 9.14001 7.94442 7.76924 7.74666 7.74295 11.0948 5.23197 4.94622 2.84284 1.18072 1.09232 0.48603
threshold=0.081508426521748251 0.00029378335455422126 0.17750785929239274 0.055430266716660258 0.010594413099171323 0.54828445747800603 0.19088766480975614 0.76328603992302024 0.11243392304586418 0.14919791044047062 22.265424606283556 0.041632789420714925 0.16142474713507671 0.033127572016460917 1.0257188081264028 0.40428469663749228 0.083480791222714609 0.13880903507917602 0.00015319456250837112 0.036770140428194202 34.16473409367871 40.232534513038125 -0.00010535379460899844 0.060212578828228148 0.00090860977921156029 0.89711297515671207 0.0059746901285392751 -0.00059459799522926227 -0.25430610486643085 27.571744204580362
decision_type=2 2 2 2 2 2 2 2 2 2 2 2 2 2 2 2 2 2 2 2 2 2 2 2 2 2 2 2 2 2
left_child=1 6 3 7 25 29 22 8 10 -3 -2 -10 13 -8 -7 -16 18 19 -11 -18 27 26 28 -24 -20 -4 -14 -9 -1 -5
right_child=2 9 4 5 -6 14 12 20 11 16 -12 -13 21 -15 15 -17 17 -19 24 -21 -22 -23 23 -25 -26 -27 -28 -29 -30 -31
leaf_value=0.038313789881385278 -0.025617525034937486 -0.038982157332385005 0.056651929548931876 -0.055024212546971429 -0.032207189071054951 -0.042946885298784626 0.0099365004963075272 -0.03398983483461495 0.011085795131516798 -0.011877004349544832 0.00032834168984846541 0.055421353029606088 0.03727091166867056 -0.048006641548561151 0.013517180809963943 -0.0321372024935049 -0.0076945264771821681 0.014161162354239903 0.045520235947782636 -0.057924383235148785 -0.0065037840568188121 -0.012668922658952447 -0.017882462558242558 0.03795593749345319 0.010439210052954007 0.019113945878658944 0.011188312705271108 -0.055204491069218639 0.051929969529489639 -0.042506252599040915
leaf_weight=10.318483188748358 27.338199287652969 6.4923379868268958 5.4012207984924334 10.205310851335524 3.9611743669956914 7.1587730050087002 5.8578119277954084 4.0561107099056244 20.193937242031101 6.9196723103523281 33.512273102998734 6.3866186439990988 11.244160294532781 4.7914999276399612 10.994603976607324 5.3792518377304068 6.9612068086862582 9.3177572935819608 8.4391522258520109 4.7796476930379868 8.069932669401167 5.4211129397153845 5.2416861504316321 8.2323549091815931 6.9996924847364417 7.610642958432436 5.6510744839906684 5.6501386016607302 10.907995462417604 3.8425857573747626
leaf_count=31 128 32 14 56 22 37 22 20 76 30 135 17 34 25 41 26 29 34 24 26 34 23 23 25 26 36 21 31 29 20
internal_value=0 0.0114464 -0.00842807 -0.0116982 0.0190821 -0.028115 0.0210199 -0.00583399 -0.00127544 -0.00153313 -0.0113283 0.0217385 0.00733517 -0.0161342 -0.0140955 -0.00148151 0.00406677 -0.0094247 0.0167739 -0.0281429 -0.0282549 0.0185347 0.0340204 0.0162336 0.0296151 0.034696 0.0285469 -0.0463392 0.045311 -0.0516001
internal_weight=0 117.576 159.761 142.788 16.973 37.5805 67.6662 105.207 87.431 49.9095 60.8505 26.5806 32.9657 10.6493 23.5326 16.3739 43.4171 21.0586 22.3585 11.7409 17.7762 22.3163 34.7005 13.474 15.4388 13.0119 16.8952 9.70625 21.2265 14.0479
internal_count=1127 434 693 621 72 180 233 441 356 201 263 93 125 47 104 67 169 89 80 55 85 78 108 48 50 50 55 51 60 76
is_linear=0
shrinkage=0.03


Tree=7
num_leaves=31
num_cat=0
split_feature=6 17 6 3 10 8 4 2 8 9 10 5 9 13 8 3 3 16 4 17 6 18 4 17 6 10 19 14 8 21
split_gain=28.0226 15.3274 15.0513 14.4797 18.013 14.2407 12.6596 12.5802 19.4705 16.2299 11.1945 10.9447 10.0029 9.92722 9.05068 7.7941 9.7301 8.62245 7.51459 7.37065 10.4659 5.13954 8.58936 4.96174 4.91566 4.84436 4.29678 3.3896 2.63612 1.33291
threshold=0.081508426521748251 0.00029378335455422126 0.17750785929239274 0.063176191504618465 0.33378623507761807 0.010594413099171323 0.19088766480975614 -0.039746082398901449 -0.016067155821966241 22.109420468932054 -0.036223147772179866 0.14919791044047062 40.911372356894383 0.00041742583638937353 0.014844255293696125 0.083480791222714609 0.13880903507917602 0.00015319456250837112 0.036770140428194202 -0.00010535379460899844 0.060212578828228148 1.1170821335560195 0.057780466667201089 0.00090860977921156029 0.066556679445600161 0.041117817732595693 -0.00030374368084794663 -0.00019287420726959989 0.027425487172891463 -0.79217904448538345
decision_type=2 2 2 2 2 2 2 2 2 2 2 2 2 2 2 2 2 2 2 2 2 2 2 2 2 2 2 2 2 2
left_child=1 6 3 7 21 25 19 8 10 13 -2 -3 -11 -9 24 17 18 -13 -17 29 -21 -5 -23 -19 -8 -4 -16 -26 -10 -1
right_child=2 11 5 4 -6 -7 14 9 28 12 -12 15 -14 -15 26 16 -18 23 -20 20 -22 22 -24 -25 27 -27 -28 -29 -30 -31
leaf_value=0.053792024457964521 0.01241342339385005 -0.037818472310224047 0.0052016808458413607 -0.050483098887731344 0.024832850499647077 -0.03130734581256079 -0.0017867555618120961 -0.006228448671005366 -0.049447126165119752 0.025844239066333947 -0.023680481101944741 -0.011524100387712195 -0.016094149409647387 -0.05737204061255935 -8.7736163339695666e-05 -0.0074627233769582208 0.013739648195384155 0.044327937288242199 -0.056356845712261301 -0.017336285471415372 0.036914824177769201 -0.049280789832005741 -0.0058056240180021628 0.010130708073482172 0.039933677407350487 0.045497349417046279 -0.039034353952183236 0.010694603505531246 -0.02224207403267961 0.038270006196604318
leaf_weight=8.0395274758338928 17.954645738005642 6.4913484007120124 3.7931725066155222 13.608296096324922 4.9661105275154105 3.9528990909457198 7.5028622150421169 22.182714968919758 13.027572497725489 26.118636280298233 13.584947511553763 6.9176569581031826 6.3660679459571829 4.0374619364738455 6.3772965222597122 6.9620950222015399 9.3155373483896238 8.4066368937492353 4.7654126137495041 5.2445730566978446 8.2109127938747388 7.5013050734996822 8.9936179220676404 6.9965112358331671 8.763517424464224 9.1918285340070707 4.2474484443664533 6.0192248225212088 4.2518122345209113 13.079423427581787
leaf_count=21 67 32 24 74 17 22 30 93 71 88 63 30 28 22 26 29 34 24 26 23 25 40 38 26 26 26 21 22 20 39
internal_value=0 0.0111263 -0.0081876 -0.0113635 -0.0281029 0.0185489 0.0204456 -0.00590386 -0.0171565 0.00345386 -0.00313319 -0.00148855 0.0176255 -0.0141037 0.00712758 0.00394986 -0.00914923 0.0162991 -0.0273306 0.0331226 0.0157693 -0.0368357 -0.0255766 0.0287947 0.0179904 0.0337262 -0.0156574 0.0280281 -0.042753 0.0441789
internal_weight=0 117.34 159.531 142.593 35.0693 16.9379 67.4848 107.524 48.819 58.7049 31.5396 49.8552 32.4847 26.2202 32.9103 43.3639 21.043 22.3208 11.7275 34.5744 13.4555 30.1032 16.4949 15.4031 22.2856 12.985 10.6247 14.7827 17.2794 21.119
internal_count=1127 434 693 621 169 72 233 452 221 231 130 201 116 115 125 169 89 80 55 108 48 152 78 50 78 50 47 48 91 60
is_linear=0
shrinkage=0.03


Tree=8
num_leaves=31
num_cat=0
split_feature=6 17 6 8 2 1 17 9 9 4 9 7 7 21 22 0 17 8 21 6 19 0 7 21 6 7 22 1 7 12
split_gain=26.4296 14.4723 14.1975 13.4417 12.6212 13.0846 12.4224 12.6512 12.6053 12.0018 10.6411 8.81599 9.1896 7.85405 7.30909 7.16365 7.02467 10.1406 6.55071 11.4796 6.32824 5.63209 8.07808 10.6766 7.66532 16.1171 6.89637 5.22772 4.68769 4.00323
threshold=0.081508426521748251 0.00029378335455422126 0.17750785929239274 0.010594413099171323 -0.039746082398901449 -0.45683379474786528 0.0015207444733699841 22.109420468932054 40.911372356894383 0.19088766480975614 16.024858606916286 0.16142474713507671 0.033127572016460917 -0.81156972146688167 -1.1839849732053476 40.232534513038125 -0.00010535379460899844 0.0023053298512264058 -0.40833317321154838 0.11181691966529238 -0.00050540869289295975 63.420909864907252 0.1591695988740324 -0.57231672739105732 0.068104517734175488 0.31630751534974283 3.2794824388426544 -0.6638797868827736 0.89711297515671207 0.00045368884049779018
decision_type=2 2 2 2 2 2 2 2 2 2 2 2 2 2 2 2 2 2 2 2 2 2 2 2 2 2 2 2 2 2
left_child=1 9 4 28 5 13 7 10 -9 16 -6 12 -11 -2 -7 -13 -1 -18 20 -20 -8 22 23 -3 26 -26 -23 -15 -4 -16
right_child=2 21 3 -5 6 14 18 8 -10 11 -12 15 -14 27 29 -17 17 -19 19 -21 -22 24 -24 -25 25 -27 -28 -29 -30 -31
leaf_value=0.043106609380756368 0.019964817142048553 0.0052188369915408053 0.054308524084067208 -0.030445988446472741 0.0068952233534236703 -0.043960249164822093 -0.049686643644606475 0.030477757729225299 -0.017033285460985117 0.0096472837999409741 -0.03671630401516849 0.027333887842288594 -0.046424133757844058 -0.031822694352914793 -0.025907934631761172 -0.012324397111011331 -0.012168594970386033 0.040040240480503579 -0.030503435869729367 0.019016528562497213 -0.0050330366331476466 0.032020532603732901 0.012334819517178207 -0.048257895214080457 -0.04976838017479443 0.021624712699306881 -0.010252945941252882 0.00094153538718162657 0.017651842836101796 0.0075175010111176556
leaf_weight=20.996837049722672 8.147291377186777 5.6566753983497629 5.3564618527889269 3.942938743159174 11.932053521275522 20.973613604903221 8.4208061397075635 21.583278685808185 6.5513439029455176 5.85463137924671 8.7116619497537595 16.816156864166263 4.7770265489816666 8.8969701975584048 12.990160629153253 5.4207078069448462 6.3581694066524488 7.0729383379220963 8.5273935347795504 8.3276291936635953 4.3225912898778942 12.21834614872933 7.3443243056535712 8.2759314775466919 5.3425077944993955 6.0898430049419403 4.8525681048631659 8.6381954848766309 7.5869037732481956 4.2896644771099082
leaf_count=60 29 22 14 22 46 112 45 70 29 22 43 55 25 43 63 23 27 21 41 30 18 39 27 43 28 21 21 35 36 17
internal_value=0 0.0108178 -0.00795946 0.0180488 -0.0110455 -0.0209372 -0.00297635 0.00632726 0.0194145 0.0198895 -0.0115089 0.00692322 -0.0155468 -0.00437393 -0.0320574 0.0176663 0.0322684 0.015325 -0.0183087 -0.00603691 -0.03454 -0.00144593 -0.0131253 -0.0265462 0.00727243 -0.0117383 0.0200039 -0.0156823 0.0328218 -0.0176102
internal_weight=0 117.077 159.199 16.8863 142.313 63.9359 78.3768 48.7783 28.1346 67.2965 20.6437 32.8685 10.6317 25.6825 38.2534 22.2369 34.4279 13.4311 29.5984 16.855 12.7434 49.7802 21.2769 13.9326 28.5033 11.4324 17.0709 17.5352 12.9434 17.2798
internal_count=1127 434 693 72 621 299 322 188 99 233 89 125 47 107 192 78 108 48 134 71 63 201 92 65 109 49 60 78 50 80
is_linear=0
shrinkage=0.03


Tree=9
num_leaves=31
num_cat=0
split_feature=6 17 6 8 19 10 1 17 10 10 6 6 4 17 6 16 8 0 18 21 6 22 22 10 8 10 6 14 10 21
split_gain=24.9287 13.7916 13.3927 12.689 11.0443 14.7913 18.4883 14.5862 15.3623 9.19768 8.53993 10.5671 8.01016 10.968 11.1953 14.8276 8.14672 7.98147 7.13715 6.54126 6.21487 13.0202 5.89603 4.90823 4.69719 4.59894 4.51402 3.209 2.03041 1.28439
threshold=0.081508426521748251 0.00051604812804431752 0.17750785929239274 0.010594413099171323 1.0000000180025095e-35 0.29713614887986178 -0.45683379474786528 0.0015207444733699841 -0.093547831738076584 -0.058967058610846619 0.10892672796034256 0.12044439373663803 0.19088766480975614 -0.00010535379460899844 0.061619208780770339 0.00016903305409996289 0.014844255293696125 63.420909864907252 0.50115767252708754 0.30709076586096545 0.068104517734175488 1.6833049993992175 3.1242761938104429 -0.036223147772179866 0.034235013684229841 0.041117817732595693 0.066556679445600161 -0.00019287420726959989 0.1529432998801292 -0.79217904448538345
decision_type=2 2 2 2 2 2 2 2 2 2 2 2 2 2 2 2 2 2 2 2 2 2 2 2 2 2 2 2 2 2
left_child=1 12 4 25 7 6 9 8 -2 -6 28 -12 13 29 15 -15 26 19 -10 -3 22 -22 -19 -8 -18 -4 -14 -28 -9 -1
right_child=2 17 3 -5 5 -7 23 10 18 -11 11 -13 16 14 -16 -17 24 20 -20 -21 21 -23 -24 -25 -26 -27 27 -29 -30 -31
leaf_value=0.051598094821858634 -0.032476130428326165 -0.001136716220001274 0.0041820945726823641 -0.029620146266729062 0.014774855475292777 0.037341805471657816 -0.023189251516913693 -0.028825384644719856 0.0068944119295961826 -0.021290503361882037 0.020075117310247297 -0.02924109012800314 -0.0018926553260281455 0.015591422620298301 0.030770421484952029 -0.059511741017579098 -0.029712190555556909 0.029973453646712962 0.036488210362365874 -0.044012492705014394 -0.03850915536770122 0.026466839100302834 -0.0098078552820006649 -0.046047919927705898 0.011987491244143894 0.043499124636665526 0.03835763519018303 0.0098417416523450419 -0.055498157954312982 0.036263104860119869
leaf_weight=7.9313130378723171 7.773883953690528 6.2003613859415037 3.7922206688672331 3.9314585644751778 12.306682854890825 3.8332154005765906 13.687824368476866 4.9948175102472323 33.622586369514465 13.179834783077238 7.0091486126184455 8.8448806256055814 7.4883614629507091 6.6378664672374743 12.873064011335371 3.6761728972196579 6.8401603102684003 10.854402258992197 9.3807260096073133 6.6233187913894653 6.6534259617328626 4.7622333765029907 4.8519049286842337 22.109901189804077 3.7717482298612595 9.1093674153089506 8.704492047429083 5.9998382776975623 5.2877910137176514 12.927628725767134
leaf_count=21 38 25 24 22 45 12 66 24 129 61 25 43 30 24 41 20 33 35 29 34 33 16 21 120 14 26 26 22 29 39
internal_value=0 0.0105194 -0.00773767 0.0175642 -0.0107364 -0.0198282 -0.0234041 -0.00303894 0.00633411 -0.00387561 -0.0212485 -0.00743814 0.0179517 0.0263103 0.0121114 -0.0111772 0.00672885 -0.00377954 0.01335 -0.0232817 0.00544137 -0.0114033 0.0176844 -0.0373075 -0.014891 0.0319425 0.0170669 0.0267222 -0.0425418 0.042094
internal_weight=0 116.796 158.864 16.833 142.031 65.1175 61.2842 76.9138 50.7772 25.4865 26.1366 15.854 76.8506 44.046 23.1871 10.314 32.8046 39.9456 43.0033 12.8237 27.122 11.4157 15.7063 35.7977 10.6119 12.9016 22.1927 14.7043 10.2826 20.8589
internal_count=1127 434 693 72 621 304 292 317 196 106 121 68 270 145 85 44 125 164 158 59 105 49 56 186 47 50 78 48 53 60
is_linear=0
shrinkage=0.03


Tree=10
num_leaves=26
num_cat=0
split_feature=6 17 6 22 22 0 3 26 9 7 3 17 10 9 6 7 6 22 7 4 10 4 12 18 7
split_gain=26.7839 12.9986 12.5212 13.3967 14.8785 8.99343 8.53568 7.92444 13.8313 9.21875 9.71836 12.6646 7.72578 7.47639 6.91524 9.88243 5.6641 5.62511 5.07621 14.1049 4.04019 3.90728 5.64909 2.118 1.12569
threshold=0.081508426521748251 0.00051604812804431752 0.18980174567696312 -13.88947309864947 -4.448030970579536 63.420909864907252 -0.17511738578942213 0.99999999999999867 36.545553832275708 0.16142474713507671 -0.077139290889600573 -0.00017798820138737693 0.32607526951720373 20.419011382929138 0.068104517734175488 0.31630751534974283 0.20443445223886417 3.4443670219043381 0.66445159216724725 0.37733699203647031 0.10629883262976796 0.19088766480975614 0.00010584264125867994 -0.40538667301784942 0.28010743061772608
decision_type=2 2 2 2 2 2 2 2 2 2 2 2 2 2 2 2 2 2 2 2 2 2 2 2 2
left_child=1 7 3 -2 18 13 17 9 -9 10 -1 -12 -8 -3 20 -16 -4 -6 19 -5 -7 24 -23 -20 -11
right_child=2 5 16 4 6 14 12 8 -10 21 11 -13 -14 -15 15 -17 -18 -19 23 -21 -22 22 -24 -25 -26
leaf_value=-0.029379979170720969 0.03121388573719748 0.00038223759851863944 0.038403718522430012 -0.05185208281095554 -0.0097533307928593434 0.003776700974535239 -0.013102309738082228 -0.034992129813902893 0.031599501999924062 0.052024677525498747 0.040177726967643809 -0.0026951269320179762 0.019578425358423069 -0.044872046751063585 -0.039284310773663914 0.018539654641771906 -0.0028041747272899717 0.032238868767292664 -0.055405921933496138 0.0016856990516036857 0.035407154260037856 0.033979390419110404 -0.0016277177132049561 -0.027792070721214708 0.035214107013128243
leaf_weight=4.7926883697509792 6.4840555638074866 6.1882645487785322 6.9704650938510877 7.8553084880113664 4.6836052089929563 6.9347389340400714 89.855264961719513 6.2797631770372373 5.076399952173233 7.9290242195129377 11.604007959365847 13.318231418728827 7.0188443511724463 7.0046728402376175 5.5253113210201246 5.1295983195304871 5.2729463204741478 7.4185488522052765 8.1982454508542997 10.15339122712612 7.6367170810699463 14.179293423891069 5.5912960916757575 3.5965357571840277 6.543793797492981
leaf_count=23 21 25 21 44 20 27 400 31 16 21 34 54 25 36 28 18 31 24 45 41 24 44 22 18 20
internal_value=0 0.0106258 -0.00847895 -0.0109346 -0.0129039 -0.00357427 -0.00776691 0.0178695 -0.00522453 0.0219699 0.00974323 0.0172668 -0.0107345 -0.0236451 0.00692243 -0.0114461 0.0206565 0.0159876 -0.0316871 -0.0216672 0.0203538 0.0325797 0.0239094 -0.0469857 0.0444239
internal_weight=0 113.734 157.507 145.264 138.78 38.4193 108.976 75.3145 11.3562 63.9583 29.7149 24.9222 96.8741 13.1929 25.2264 10.6549 12.2434 12.1022 29.8035 18.0087 14.5715 34.2434 19.7706 11.7948 14.4728
internal_count=1113 423 690 638 617 158 469 265 47 218 111 88 425 61 97 46 52 44 148 85 51 107 66 63 41
is_linear=0
shrinkage=0.03


Tree=11
num_leaves=27
num_cat=0
split_feature=6 17 6 22 2 21 11 4 8 0 7 21 8 17 25 8 6 7 3 22 1 14 8 10 21 17
split_gain=25.2641 12.3529 11.8064 12.623 14.8092 11.0435 10.5395 8.63398 8.26801 7.75464 9.43601 8.68973 7.70571 8.2743 7.63158 7.25951 10.4037 6.75867 13.5356 6.21548 10.2074 3.66962 3.12426 3.0341 2.42414 0.670124
threshold=0.081508426521748251 0.00029378335455422126 0.18980174567696312 -13.88947309864947 -0.094720106213243227 4.6044127097533316 0.85168836173462947 0.19088766480975614 0.0064131454438700356 63.420909864907252 0.14120042027843449 -0.34391557091631836 0.0013554538058250982 -0.00033648818047989955 0.99999999999999867 0.010185149133210772 0.056766552414771389 0.22262190247801761 -0.082420703608801937 -5.5562573706352261 -0.38111645575827419 -0.00012321669211651229 -0.080139971584402225 0.090580561671439672 1.0460033663734405 -0.00024350953949101297
decision_type=2 2 2 2 2 2 2 2 2 2 2 2 2 2 2 2 2 2 2 2 2 2 2 2 2 2
left_child=1 7 3 -2 19 6 -6 12 -4 10 11 -3 13 -1 17 24 -17 18 -9 22 -21 -19 -5 -12 -11 -14
right_child=2 9 8 4 5 -7 -8 14 -10 15 23 -13 25 -15 -16 16 -18 21 -20 20 -22 -23 -24 -25 -26 -27
leaf_value=0.035402086251660504 0.030313975751232423 -0.0027298728802978745 0.03666209648145663 -0.018595569131251023 0.0077057554340767137 -0.04283520166745465 -0.014133305582658746 -0.035492407708320954 -0.016690855897373444 0.037426940230705183 0.020248219560288962 -0.055592945923686729 0.049723172574159251 -0.010408842747312902 -0.023877637204880359 0.023220438432066122 -0.030602933797070041 0.039460251285697148 0.029463663143065286 0.0002844343770628965 -0.033263496395570497 0.0094407528564552663 -0.046346972841988895 -0.011986597643395699 0.01265841736983904 0.037884409366381364
leaf_weight=7.5694824457168597 6.4763578176498404 4.878504142165184 8.4179970361292344 4.9590475261211422 44.885843649506569 6.4265384525060645 35.711371138691902 5.6956872344017029 3.7915598060935727 6.8571557551622409 6.0100916326045972 6.5643514245748538 8.5326598286628741 6.6797665506601334 5.5380783230066291 5.8759797662496549 7.1834812313318253 9.4222208857536298 5.8553838431835192 15.497186049818991 17.246565893292427 5.9977252334356299 13.842632636427878 4.669972151517868 7.3878908902406693 8.6811750382184965
leaf_count=23 21 20 31 23 174 33 159 28 21 21 21 36 23 28 26 20 35 28 19 64 89 22 75 20 27 26
internal_value=0 0.0103386 -0.0082383 -0.0106232 -0.0125365 -0.00498855 -0.00197079 0.019042 0.0200939 -0.000925886 -0.0141271 -0.0330555 0.0302449 0.0139268 0.00819947 0.00977013 -0.00638562 0.014786 -0.00256535 -0.0252797 -0.0173857 0.0277839 -0.0390274 0.0061532 0.0245813 0.0437527
internal_weight=0 113.4 157.255 145.046 138.569 87.0238 80.5972 63.9722 12.2096 49.4274 22.1229 11.4429 31.4631 14.2492 32.5091 27.3045 13.0595 26.971 11.5511 51.5454 32.7438 15.4199 18.8017 10.6801 14.245 17.2138
internal_count=1113 423 690 638 617 366 333 223 52 200 97 56 100 51 123 103 55 97 47 251 153 50 98 41 48 49
is_linear=0
shrinkage=0.03


Tree=12
num_leaves=23
num_cat=0
split_feature=6 17 6 22 2 21 11 8 22 8 22 1 25 9 22 1 3 14 17 6 8 14
split_gain=23.8381 11.7336 11.1397 11.8979 14.0305 10.4244 9.92259 7.82171 7.64859 12.3046 10.232 7.3527 7.08118 12.8178 5.91134 9.68592 5.30284 9.47073 7.01457 8.68685 2.99357 2.67895
threshold=0.081508426521748251 0.00051604812804431752 0.18980174567696312 -13.88947309864947 -0.094720106213243227 4.6044127097533316 0.85168836173462947 -1.0000000180025095e-35 0.81950791021414982 0.012560202406546256 3.7749950380765025 0.17382804706335267 0.99999999999999867 36.545553832275708 -5.5562573706352261 -0.38111645575827419 -0.082420703608801937 -0.00031727931770081369 -0.00024350953949101297 0.062007141132874012 -0.080139971584402225 0.00031578416697042316
decision_type=2 2 2 2 2 2 2 2 2 2 2 2 2 2 2 2 2 2 2 2 2 2
left_child=1 12 3 -2 14 6 -6 -4 9 -3 11 -10 16 -14 20 -16 17 -1 21 -20 -5 -18
right_child=2 8 7 4 5 -7 -8 -9 10 -11 -12 -13 13 -15 15 -17 18 -19 19 -21 -22 -23
leaf_value=0.020696790760710248 0.029452693505284518 0.0027977465227101055 0.035746360562880129 -0.018066231002845119 0.0074739313157786156 -0.041665534245240707 -0.013720755303475518 -0.016218048468979236 -0.0023586266955210517 -0.049282693887254918 -0.022950005696331443 0.040251719810998787 -0.033592795336716171 0.030694354657520941 0.00027589618604515604 -0.032446289418336584 0.042430546865353122 -0.031498060157090231 -0.0092627025980708856 0.028420509284429143 -0.045271253265803925 0.020027903526318783
leaf_weight=10.630215331912039 6.4659264534711829 9.96482001245022 8.3752806540578586 4.9513336271047619 44.889694526791573 6.4089965969324103 35.682017907500267 3.7851309087127438 6.3362534195184734 6.9167717397212973 6.4999132603406897 8.5799484848976117 6.2547247409820539 5.040915384888649 15.497461840510367 17.151950374245644 18.719493016600609 4.4337002635002127 8.9901718348264748 14.204780548810957 13.747830927371977 6.4625805467367163
leaf_count=37 21 39 31 23 174 33 159 21 26 37 30 26 31 16 64 89 54 21 38 46 75 22
internal_value=0 0.0100621 -0.00800706 -0.0103232 -0.0121825 -0.00484149 -0.00191236 0.0195716 -0.00344037 -0.0185408 0.00846278 0.0221513 0.0169812 -0.00490331 -0.0246175 -0.0169143 0.0208777 0.0053345 0.0257177 0.0138148 -0.0380677 0.0366813
internal_weight=0 113.034 156.956 144.795 138.329 86.9807 80.5717 12.1604 38.2977 16.8816 21.4161 14.9162 74.7366 11.2956 51.3486 32.6494 63.4409 15.0639 48.377 23.195 18.6992 25.1821
internal_count=1113 423 690 638 617 366 333 52 158 76 82 52 265 47 251 153 218 58 160 84 98 76
is_linear=0
shrinkage=0.03


Tree=13
num_leaves=23
num_cat=0
split_feature=6 17 6 22 2 21 10 8 22 8 22 1 25 9 7 8 6 17 7 21 13 16
split_gain=22.4932 11.0956 10.5136 7.88239 12.6543 9.8947 9.96495 7.40342 7.21004 11.6469 9.63729 6.93829 6.69139 12.1055 8.5484 6.26486 9.25649 5.40355 9.87312 4.30596 3.55842 4.57076
threshold=0.081508426521748251 0.00051604812804431752 0.18980174567696312 -13.186369869413424 -0.094720106213243227 4.2446094563477468 -0.078070942467216575 0.0064131454438700356 0.81950791021414982 0.012560202406546256 3.7749950380765025 0.17382804706335267 0.99999999999999867 36.545553832275708 0.16142474713507671 -0.0067178339068303819 0.067160665612595885 -0.00083074724359092961 0.65969002420319034 4.6044127097533316 0.00043993173363143795 -0.00023367880638097897
decision_type=2 2 2 2 2 2 2 2 2 2 2 2 2 2 2 2 2 2 2 2 2 2
left_child=1 12 3 -2 17 6 -6 -4 9 -3 11 -10 14 -14 15 -1 -17 18 -5 -19 21 -16
right_child=2 8 7 4 5 -7 -8 -9 10 -11 -12 -13 13 -15 20 16 -18 19 -20 -21 -22 -23
leaf_value=-0.015006753394659548 0.020636419047044857 0.0027140974288851517 0.034870851293976504 -0.0061125410260285708 -0.032689705567754371 -0.037195765634123384 0.0020873135345878149 -0.015759957996389989 -0.0022878389213428067 -0.048024381306417674 -0.022278600107574726 0.03912129002884094 -0.032680555797369316 0.029917048466559543 0.022862970675314131 0.027698678780142552 -0.017937214238877272 -0.049612567757144607 -0.038674290236794064 -0.011230035728240419 0.0090394935353973766 0.047068327725726312
leaf_weight=7.5732662081718471 7.1676317602396002 9.963794484734537 8.3286972995847446 23.773716285824776 8.2806973010301572 7.6870932579040518 70.961120247840881 3.7784003894776097 6.336332947015765 6.8855224102735511 6.4949973225593558 8.5632743984460813 6.2367075830697996 5.0170931965112686 13.98556110262871 16.541199743747715 5.2760507166385642 10.152294695377348 12.943602710962294 3.5505130887031546 5.7119316011667243 14.099493533372877
leaf_count=33 25 39 31 104 41 39 286 21 26 37 30 26 31 16 47 54 24 58 68 17 21 39
internal_value=0 0.00979155 -0.00778403 -0.0100338 -0.0116343 -0.00469927 -0.00154685 0.0190699 -0.00334223 -0.0180203 0.00821751 0.0215113 0.016539 -0.00477372 0.0203348 0.00850212 0.0166626 -0.0235909 -0.0175912 -0.0396673 0.0306247 0.0350147
internal_weight=0 112.685 156.624 144.517 137.349 86.9289 79.2418 12.1071 38.2439 16.8493 21.3946 14.8996 74.4413 11.2538 63.1875 29.3905 21.8173 50.4201 36.7173 13.7028 33.797 28.0851
internal_count=1113 423 690 638 613 366 327 52 158 76 82 52 265 47 218 111 78 247 172 75 107 86
is_linear=0
shrinkage=0.03


end of trees

feature_importances:
atr_pct_14=46
trend_regime_slope=44
volatility_regime=28
fft_imag=27
ma30_ratio=26
macd_hist=21
cmf_20=21
adx_14=20
rsi_14=16
macd_signal=16
fft_real=15
bb_pct_upper=14
bb_pct_lower=12
macd_line=10
bb_zscore=9
return_2=8
macd_hist_ratio=8
return_3=7
ma10_ratio=7
corr_btc_eth_100=6
return_1=5
volume_sma_ratio=4
corr_btc_sol_100=4

parameters:
[boosting: gbdt]
[objective: binary]
[metric: binary_logloss]
[tree_learner: serial]
[device_type: cpu]
[data_sample_strategy: bagging]
[data: ]
[valid: ]
[num_iterations: 100]
[learning_rate: 0.03]
[num_leaves: 31]
[num_threads: 0]
[seed: 42]
[deterministic: 0]
[force_col_wise: 0]
[force_row_wise: 0]
[histogram_pool_size: -1]
[max_depth: 6]
[min_data_in_leaf: 20]
[min_sum_hessian_in_leaf: 0.001]
[bagging_fraction: 0.8]
[pos_bagging_fraction: 1]
[neg_bagging_fraction: 1]
[bagging_freq: 5]
[bagging_seed: 400]
[feature_fraction: 0.8]
[feature_fraction_bynode: 1]
[feature_fraction_seed: 30056]
[extra_trees: 0]
[extra_seed: 12879]
[early_stopping_round: 0]
[first_metric_only: 0]
[max_delta_step: 0]
[lambda_l1: 0]
[lambda_l2: 0]
[linear_lambda: 0]
[min_gain_to_split: 0]
[drop_rate: 0.1]
[max_drop: 50]
[skip_drop: 0.5]
[xgboost_dart_mode: 0]
[uniform_drop: 0]
[drop_seed: 17869]
[top_rate: 0.2]
[other_rate: 0.1]
[min_data_per_group: 100]
[max_cat_threshold: 32]
[cat_l2: 10]
[cat_smooth: 10]
[max_cat_to_onehot: 4]
[top_k: 20]
[monotone_constraints: ]
[monotone_constraints_method: basic]
[monotone_penalty: 0]
[feature_contri: ]
[forcedsplits_filename: ]
[refit_decay_rate: 0.9]
[cegb_tradeoff: 1]
[cegb_penalty_split: 0]
[cegb_penalty_feature_lazy: ]
[cegb_penalty_feature_coupled: ]
[path_smooth: 0]
[interaction_constraints: ]
[verbosity: -1]
[saved_feature_importance_type: 0]
[use_quantized_grad: 0]
[num_grad_quant_bins: 4]
[quant_train_renew_leaf: 0]
[stochastic_rounding: 1]
[linear_tree: 0]
[max_bin: 255]
[max_bin_by_feature: ]
[min_data_in_bin: 3]
[bin_construct_sample_cnt: 200000]
[data_random_seed: 175]
[is_enable_sparse: 1]
[enable_bundle: 1]
[use_missing: 1]
[zero_as_missing: 0]
[feature_pre_filter: 1]
[pre_partition: 0]
[two_round: 0]
[header: 0]
[label_column: ]
[weight_column: ]
[group_column: ]
[ignore_column: ]
[categorical_feature: ]
[forcedbins_filename: ]
[precise_float_parser: 0]
[parser_config_file: ]
[objective_seed: 16083]
[num_class: 1]
[is_unbalance: 0]
[scale_pos_weight: 1]
[sigmoid: 1]
[boost_from_average: 1]
[reg_sqrt: 0]
[alpha: 0.9]
[fair_c: 1]
[poisson_max_delta_step: 0.7]
[tweedie_variance_power: 1.5]
[lambdarank_truncation_level: 30]
[lambdarank_norm: 1]
[label_gain: ]
[lambdarank_position_bias_regularization: 0]
[eval_at: ]
[multi_error_top_k: 1]
[auc_mu_weights: ]
[num_machines: 1]
[local_listen_port: 12400]
[time_out: 120]
[machine_list_filename: ]
[machines: ]
[gpu_platform_id: -1]
[gpu_device_id: -1]
[gpu_use_dp: 0]
[num_gpu: 1]

end of parameters

pandas_categorical:[]
