{"learner":{"attributes":{"best_iteration":"0","best_score":"0.683158468414139"},"feature_names":["rsi_14","macd_line","macd_signal","macd_hist","bb_pct_upper","bb_pct_lower","atr_pct_14","volatility_regime","trend_regime_slope","adx_14","cmf_20","volume_sma_ratio","return_1","return_2","return_3","return_5","ma10_ratio","ma30_ratio","bb_zscore","macd_hist_ratio","volume_ratio","fft_real","fft_imag","corr_btc_eth_20","corr_btc_sol_20","corr_btc_eth_100","corr_btc_sol_100","ratio_btc_eth_norm","ratio_btc_sol_norm","ratio_btc_bnb_norm","btc_funding_rate","funding_mom_1","funding_mom_3","funding_spread_eth","funding_spread_sol","funding_spread_bnb"],"feature_types":["float","float","float","float","float","float","float","float","float","float","float","float","float","float","float","float","float","float","float","float","float","float","float","float","float","float","float","float","float","float","float","float","float","float","float","float"],"gradient_booster":{"model":{"gbtree_model_param":{"num_parallel_tree":"1","num_trees":"16"},"iteration_indptr":[0,1,2,3,4,5,6,7,8,9,10,11,12,13,14,15,16],"tree_info":[0,0,0,0,0,0,0,0,0,0,0,0,0,0,0,0],"trees":[{"base_weights":[-5.361033E-2,2.1246527E-1,-8.090559E-1,3.1510442E-1,-4.4323076E-2,-9.136684E-2,-1.6461036E0,-9.4370526E-1,4.4962612E-1,-9.144737E-1,9.250387E-1,-5.284059E-2,-1.6919777E-2,2.537637E-2,-4.760768E-2,2.196429E-2,9.737916E-1,-1.3827453E0,1.9198632E-2,4.4300854E-2,-1.6919777E-2,3.8957813E-1,-1.4544643E0,1.6217002E0,6.0833955E-1,-1.3531125E-2,-4.59755E-2,2.2425886E-2,-5.05978E-3,-9.553973E-3,-4.8764065E-2,5.2679136E-2,1.1705248E-2,-7.137498E-3,4.4268403E-2],"categories":[],"categories_nodes":[],"categories_segments":[],"categories_sizes":[],"default_left":[0,0,0,0,0,0,0,0,0,0,0,0,0,0,0,0,0,0,0,0,0,0,0,0,0,0,0,0,0,0,0,0,0,0,0],"id":0,"left_children":[1,3,5,7,-1,9,11,13,15,17,19,-1,-1,-1,-1,21,23,25,-1,-1,-1,27,29,31,33,-1,-1,-1,-1,-1,-1,-1,-1,-1,-1],"loss_changes":[1.788642E1,1.1907417E1,1.3764585E1,1.1094837E1,0E0,1.2164784E1,3.3276176E-1,8.716751E0,1.2892119E1,6.6923513E0,6.2140546E0,0E0,0E0,0E0,0E0,1.8340189E1,5.1365967E0,2.0851707E-1,0E0,0E0,0E0,5.5227623E0,7.9155064E-1,7.577305E-1,1.3660559E1,0E0,0E0,0E0,0E0,0E0,0E0,0E0,0E0,0E0,0E0],"parents":[2147483647,0,0,1,1,2,2,3,3,5,5,6,6,7,7,8,8,9,9,10,10,15,15,16,16,17,17,21,21,22,22,23,23,24,24],"right_children":[2,4,6,8,-1,10,12,14,16,18,20,-1,-1,-1,-1,22,24,26,-1,-1,-1,28,30,32,34,-1,-1,-1,-1,-1,-1,-1,-1,-1,-1],"split_conditions":[2.1031052E-1,9.503728E-2,6.038968E-3,-5.171103E-1,-4.4323076E-2,4.6431095E1,1.6991976E0,-1.6042498E1,4.1573033E-1,1.4415711E0,5.8876812E1,-5.284059E-2,-1.6919777E-2,2.537637E-2,-4.760768E-2,3.3905885E-1,-1.1397176E-2,2.6362625E1,1.9198632E-2,4.4300854E-2,-1.6919777E-2,2.1825686E-1,1.2672448E-1,1.4112832E-3,5.380164E-1,-1.3531125E-2,-4.59755E-2,2.2425886E-2,-5.05978E-3,-9.553973E-3,-4.8764065E-2,5.2679136E-2,1.1705248E-2,-7.137498E-3,4.4268403E-2],"split_indices":[6,8,8,1,0,0,11,22,7,11,0,0,0,0,0,5,8,0,0,0,0,5,6,13,2,0,0,0,0,0,0,0,0,0,0],"split_type":[0,0,0,0,0,0,0,0,0,0,0,0,0,0,0,0,0,0,0,0,0,0,0,0,0,0,0,0,0,0,0,0,0,0,0],"sum_hessian":[8.712948E1,6.496641E1,2.2163073E1,6.2013447E1,2.9529598E0,1.2529429E1,9.633644E0,5.406446E0,5.6607002E1,6.9784327E0,5.550997E0,8.139095E0,1.4945487E0,1.3461263E0,4.06032E0,3.1746899E1,2.4860102E1,5.4477463E0,1.5306864E0,4.056448E0,1.4945487E0,2.6007471E1,5.7394285E0,7.725707E0,1.7134394E1,1.3099887E0,4.1377573E0,1.5639846E1,1.0367625E1,1.1254287E0,4.614E0,6.5822096E0,1.1434976E0,9.039568E0,8.094827E0],"tree_param":{"num_deleted":"0","num_feature":"36","num_nodes":"35","size_leaf_vector":"1"}},{"base_weights":[3.0223241E-2,-1.2676312E0,1.8234377E-1,5.3342026E-2,-5.0304957E-2,-3.2815784E-1,5.1917535E-1,-3.0906886E-2,3.254291E-2,1.940467E-1,-9.192883E-1,7.8899425E-1,-4.5684722E-1,9.682071E-1,-7.324617E-1,3.6939007E-1,-1.3547975E0,-2.4228407E-2,8.971805E-1,2.5362125E-1,-4.6343423E-2,1.2537202E0,-6.8605766E-3,-1.2927122E0,3.6066517E-2,-4.1167125E-1,3.6614064E-2,-6.2582204E-3,-1.5455358E0,-5.02918E-2,1.0933888E0,-2.249776E-2,6.932254E-1,4.8006285E-2,-3.2786361E-3,-9.786774E-3,-4.8015065E-2,-3.0865505E-2,1.1610662E-2,-5.0385043E-2,-8.130542E-3,3.6462106E-2,-1.7737776E-2,-1.2088218E-2,3.6699302E-2,3.6975343E-2,-1.6520746E-2],"categories":[],"categories_nodes":[],"categories_segments":[],"categories_sizes":[],"default_left":[0,0,0,0,0,0,0,0,0,0,0,0,0,0,0,0,0,0,0,0,0,0,0,0,0,0,0,0,0,0,0,0,0,0,0,0,0,0,0,0,0,0,0,0,0,0,0],"id":1,"left_children":[1,3,5,7,-1,9,11,-1,-1,13,15,17,19,21,23,25,27,-1,29,31,-1,33,-1,35,-1,37,-1,-1,39,41,43,-1,45,-1,-1,-1,-1,-1,-1,-1,-1,-1,-1,-1,-1,-1,-1],"loss_changes":[1.8288496E1,5.344204E0,1.4397882E1,4.770303E0,0E0,1.0520691E1,1.3590306E1,0E0,0E0,1.4060856E1,9.417893E0,7.5860596E0,9.290982E0,3.8993921E0,1.1355751E1,3.692642E0,2.3207188E0,0E0,7.059103E0,3.9715014E0,0E0,4.2788525E0,0E0,1.7071867E0,0E0,2.0003736E0,0E0,0E0,1.2879276E0,5.798912E0,6.569374E0,0E0,4.677065E0,0E0,0E0,0E0,0E0,0E0,0E0,0E0,0E0,0E0,0E0,0E0,0E0,0E0,0E0],"parents":[2147483647,0,0,1,1,2,2,3,3,5,5,6,6,9,9,10,10,11,11,12,12,13,13,14,14,15,15,16,16,18,18,19,19,21,21,23,23,25,25,28,28,29,29,30,30,32,32],"right_children":[2,4,6,8,-1,10,12,-1,-1,14,16,18,20,22,24,26,28,-1,30,32,-1,34,-1,36,-1,38,-1,-1,40,42,44,-1,46,-1,-1,-1,-1,-1,-1,-1,-1,-1,-1,-1,-1,-1,-1],"split_conditions":[-1.410568E-3,2.7777778E-2,-2.6955973E-2,2.976694E-1,-5.0304957E-2,4.948472E-1,1.0459763E-1,-3.0906886E-2,3.254291E-2,2.1825686E-1,2.7693857E1,1.7904498E-2,2.9369984E-3,3.398178E-2,4.5118606E-1,2.0354834E0,-3.4385362E-1,-2.4228407E-2,1.0502283E-1,-1.4682066E-2,-4.6343423E-2,4.9404762E1,-6.8605766E-3,-7.529841E-1,3.6066517E-2,1.0661649E-3,3.6614064E-2,-6.2582204E-3,4.4590164E1,-1.3788882E0,-2.8313838E-3,-2.249776E-2,1.6211384E-4,4.8006285E-2,-3.2786361E-3,-9.786774E-3,-4.8015065E-2,-3.0865505E-2,1.1610662E-2,-5.0385043E-2,-8.130542E-3,3.6462106E-2,-1.7737776E-2,-1.2088218E-2,3.6699302E-2,3.6975343E-2,-1.6520746E-2],"split_indices":[19,7,10,4,0,4,10,0,0,5,0,4,17,1,2,11,3,0,7,3,0,0,0,22,0,19,0,0,0,18,17,0,19,0,0,0,0,0,0,0,0,0,0,0,0,0,0],"split_type":[0,0,0,0,0,0,0,0,0,0,0,0,0,0,0,0,0,0,0,0,0,0,0,0,0,0,0,0,0,0,0,0,0,0,0,0,0,0,0,0,0,0,0,0,0,0,0],"sum_hessian":[9.046192E1,8.721257E0,8.174067E1,2.2683291E0,6.452928E0,3.2503757E1,4.923691E1,1.1067626E0,1.1615664E0,1.7614683E1,1.4889073E1,3.872352E1,1.0513393E1,9.5717945E0,8.042889E0,3.7991502E0,1.1089923E1,2.0471241E0,3.667639E1,6.8239393E0,3.6894543E0,7.6899223E0,1.8818727E0,6.4941206E0,1.5487674E0,2.250287E0,1.5488632E0,1.8808931E0,9.209029E0,6.419736E0,3.0256657E1,1.8636382E0,4.9603014E0,5.9925356E0,1.6973869E0,2.0661466E0,4.427974E0,1.1068317E0,1.1434555E0,8.045596E0,1.1634331E0,1.548951E0,4.870785E0,2.2493243E0,2.8007334E1,3.4665756E0,1.4937257E0],"tree_param":{"num_deleted":"0","num_feature":"36","num_nodes":"47","size_leaf_vector":"1"}},{"base_weights":[3.8717236E-2,3.001699E-1,-8.110789E-1,5.216318E-1,-4.7783622E-1,-3.22026E-1,-1.497502E0,-8.136209E-1,6.691343E-1,-1.3638438E0,5.065988E-1,-9.858535E-1,6.846899E-1,-4.922539E-2,-8.671665E-3,2.4930427E-2,-4.4708278E-2,-5.440849E-1,8.800635E-1,-5.044391E-2,6.428941E-3,1.2032809E0,-3.709205E-2,1.1836839E-2,-1.2478052E0,4.355762E-2,-4.202803E-1,3.16594E-2,-9.744068E-1,9.5613945E-1,-3.0910177E-2,1.1899922E-3,4.6688136E-2,-4.6843454E-2,-5.988243E-3,1.1160274E-2,-3.0795546E-2,9.299967E-3,-4.615692E-2,1.5204784E-2,3.811334E-2],"categories":[],"categories_nodes":[],"categories_segments":[],"categories_sizes":[],"default_left":[0,0,0,0,0,0,0,0,0,0,0,0,0,0,0,0,0,0,0,0,0,0,0,0,0,0,0,0,0,0,0,0,0,0,0,0,0,0,0,0,0],"id":2,"left_children":[1,3,5,7,9,11,13,15,17,19,21,23,25,-1,-1,-1,-1,27,29,-1,-1,31,-1,-1,33,-1,35,-1,37,39,-1,-1,-1,-1,-1,-1,-1,-1,-1,-1,-1],"loss_changes":[2.008793E1,1.2143402E1,6.662861E0,1.1222061E1,1.4487679E1,9.832537E0,1.0121975E0,7.7424145E0,1.3112696E1,4.6691027E0,1.1471832E1,3.626587E0,5.726776E0,0E0,0E0,0E0,0E0,6.4862113E0,7.153145E0,0E0,0E0,2.5591803E0,0E0,0E0,2.1623907E0,0E0,1.9423273E0,0E0,5.38162E0,5.193218E0,0E0,0E0,0E0,0E0,0E0,0E0,0E0,0E0,0E0,0E0,0E0],"parents":[2147483647,0,0,1,1,2,2,3,3,4,4,5,5,6,6,7,7,8,8,9,9,10,10,11,11,12,12,17,17,18,18,21,21,24,24,26,26,28,28,29,29],"right_children":[2,4,6,8,10,12,14,16,18,20,22,24,26,-1,-1,-1,-1,28,30,-1,-1,32,-1,-1,34,-1,36,-1,38,40,-1,-1,-1,-1,-1,-1,-1,-1,-1,-1,-1],"split_conditions":[2.1031052E-1,1.011191E-1,6.038968E-3,-4.7618154E-1,5.349794E-1,-2.8483588E-3,1.6991976E0,-3.1161565E-1,1.4042831E1,1.4311966E-3,4.434524E-3,-1.7448632E0,1.2355992E-3,-4.922539E-2,-8.671665E-3,2.4930427E-2,-4.4708278E-2,-3.1781714E-2,1.6103623E-3,-5.044391E-2,6.428941E-3,1.7277987E-1,-3.709205E-2,1.1836839E-2,9.038707E-4,4.355762E-2,1.5369779E-1,3.16594E-2,-1.1211493E-3,-2.6955973E-2,-3.0910177E-2,1.1899922E-3,4.6688136E-2,-4.6843454E-2,-5.988243E-3,1.1160274E-2,-3.0795546E-2,9.299967E-3,-4.615692E-2,1.5204784E-2,3.811334E-2],"split_indices":[6,3,8,1,7,17,11,3,9,12,17,2,15,0,0,0,0,1,12,0,0,6,0,0,12,0,4,0,16,10,0,0,0,0,0,0,0,0,0,0,0],"split_type":[0,0,0,0,0,0,0,0,0,0,0,0,0,0,0,0,0,0,0,0,0,0,0,0,0,0,0,0,0,0,0,0,0,0,0,0,0,0,0,0,0],"sum_hessian":[8.83165E1,6.803215E1,2.0284348E1,5.3214115E1,1.4818036E1,1.270302E1,7.5813284E0,4.844426E0,4.8369686E1,7.596055E0,7.2219806E0,7.667681E0,5.0353384E0,6.45753E0,1.1237986E0,1.3456509E0,3.4987752E0,6.9300523E0,4.1439636E1,6.268894E0,1.3271608E0,5.3808784E0,1.8411022E0,1.1422253E0,6.5254564E0,2.7865322E0,2.2488062E0,1.1613235E0,5.7687287E0,4.0333004E1,1.1066298E0,1.5113065E0,3.8695722E0,4.645708E0,1.8797481E0,1.1423018E0,1.1065044E0,1.8980305E0,3.8706985E0,1.7676378E1,2.2656628E1],"tree_param":{"num_deleted":"0","num_feature":"36","num_nodes":"41","size_leaf_vector":"1"}},{"base_weights":[-2.7353112E-2,-1.16054E0,1.4211889E-1,-1.7818335E-1,-4.8282534E-2,-8.0592895E-1,3.628983E-1,-3.5743073E-2,2.4184871E-2,-1.1541246E0,2.3121378E-1,1.4268264E0,1.2556265E-1,-1.5070136E0,9.97045E-3,-2.183198E-2,3.651346E-2,1.5850344E0,-8.266875E-4,3.934417E-1,-1.1914285E0,-1.2365561E-2,-4.9211934E-2,1.7983316E-2,5.0816894E-2,5.804354E-1,-8.425269E-1,-1.4806522E0,1.1927462E-2,2.006884E-2,-3.2076772E-2,1.1685134E-2,-3.6314074E-2,-1.2546945E-2,-4.8997324E-2],"categories":[],"categories_nodes":[],"categories_segments":[],"categories_sizes":[],"default_left":[0,0,0,0,0,0,0,0,0,0,0,0,0,0,0,0,0,0,0,0,0,0,0,0,0,0,0,0,0,0,0,0,0,0,0],"id":3,"left_children":[1,3,5,7,-1,9,11,-1,-1,13,15,17,19,21,-1,-1,-1,23,-1,25,27,-1,-1,-1,-1,29,31,33,-1,-1,-1,-1,-1,-1,-1],"loss_changes":[1.623356E1,4.561367E0,1.57138195E1,5.5212755E0,0E0,5.4047546E0,1.5084936E1,0E0,0E0,6.175705E0,5.0541697E0,2.5583572E0,1.8292295E1,6.269722E-1,0E0,0E0,0E0,4.3994904E-2,0E0,1.0365547E1,4.6272116E0,0E0,0E0,0E0,0E0,6.222355E0,3.2020774E0,5.5646515E-1,0E0,0E0,0E0,0E0,0E0,0E0,0E0],"parents":[2147483647,0,0,1,1,2,2,3,3,5,5,6,6,9,9,10,10,11,11,12,12,13,13,17,17,19,19,20,20,25,25,26,26,27,27],"right_children":[2,4,6,8,-1,10,12,-1,-1,14,16,18,20,22,-1,-1,-1,24,-1,26,28,-1,-1,-1,-1,30,32,34,-1,-1,-1,-1,-1,-1,-1],"split_conditions":[-1.3874443E-3,1.5980184E-1,-2.8313838E-3,9.308315E0,-4.8282534E-2,1.4685358E0,-1.9074908E-2,-3.5743073E-2,2.4184871E-2,-3.366464E0,1.4427416E-2,6.8613124E-1,5.585469E-4,2.2319891E1,9.97045E-3,-2.183198E-2,3.651346E-2,1.3373095E-1,-8.266875E-4,1.9205378E-1,8.8323926E-4,-1.2365561E-2,-4.9211934E-2,1.7983316E-2,5.0816894E-2,2.895302E-1,-3.3359125E0,3.9192707E1,1.1927462E-2,2.006884E-2,-3.2076772E-2,1.1685134E-2,-3.6314074E-2,-1.2546945E-2,-4.8997324E-2],"split_indices":[19,6,17,22,0,11,8,0,0,22,5,5,19,9,0,0,0,6,0,3,12,0,0,0,0,6,22,0,0,0,0,0,0,0,0],"split_type":[0,0,0,0,0,0,0,0,0,0,0,0,0,0,0,0,0,0,0,0,0,0,0,0,0,0,0,0,0,0,0,0,0,0,0],"sum_hessian":[8.267183E1,9.994553E0,7.267728E1,3.572716E0,6.4218364E0,1.3227359E1,5.9449917E1,1.6568385E0,1.9158776E0,9.818307E0,3.409052E0,9.928883E0,4.9521034E1,7.9234576E0,1.894849E0,1.8608954E0,1.5481566E0,8.87376E0,1.0551223E0,4.1733585E1,7.7874503E0,1.3046876E0,6.6187696E0,1.5298274E0,7.3439326E0,3.670999E1,5.023594E0,6.645976E0,1.1414741E0,3.540456E1,1.3054332E0,1.1417876E0,3.8818061E0,1.3044686E0,5.3415074E0],"tree_param":{"num_deleted":"0","num_feature":"36","num_nodes":"35","size_leaf_vector":"1"}},{"base_weights":[-3.2143902E-2,2.671519E-1,-6.7253304E-1,7.0155156E-1,-7.449563E-1,-9.804532E-2,-1.3635728E0,-2.8831995E-1,8.099205E-1,1.0066642E0,-1.3308201E0,-8.8413185E-1,4.6718083E-2,1.4172017E-2,-5.083892E-2,2.4401663E-2,-9.286545E-1,4.609794E-1,1.220658E0,4.1145537E-2,2.0214377E-3,-1.5846606E0,-1.4736274E-1,2.7261183E-1,-1.2521112E0,-3.335975E-2,-8.280715E-3,-8.319378E-1,8.4655404E-1,1.3508279E0,-1.0012623E-2,-8.471149E-3,-5.0896905E-2,3.0759472E-2,-3.3400223E-2,-1.614195E-2,3.2433707E-2,-4.7891073E-2,1.8942446E-3,-4.482379E-2,1.7408388E-2,-1.2424641E-2,3.45075E-2,1.0820073E-2,5.075067E-2],"categories":[],"categories_nodes":[],"categories_segments":[],"categories_sizes":[],"default_left":[0,0,0,0,0,0,0,0,0,0,0,0,0,0,0,0,0,0,0,0,0,0,0,0,0,0,0,0,0,0,0,0,0,0,0,0,0,0,0,0,0,0,0,0,0],"id":4,"left_children":[1,3,5,7,9,11,13,15,17,19,21,23,-1,-1,-1,-1,25,27,29,-1,-1,31,33,35,37,-1,-1,39,41,43,-1,-1,-1,-1,-1,-1,-1,-1,-1,-1,-1,-1,-1,-1,-1],"loss_changes":[1.6852434E1,2.6901299E1,1.0978479E1,4.792013E0,2.0327612E1,2.266716E1,8.476606E0,4.2337575E0,4.96447E0,1.6919909E0,4.0611496E0,5.3349314E0,0E0,0E0,0E0,0E0,1.22036934E-1,1.1899708E1,3.9122066E0,0E0,0E0,1.2214184E0,5.250518E0,2.9757147E0,4.211629E0,0E0,0E0,6.162958E0,7.2893295E0,4.7842655E0,0E0,0E0,0E0,0E0,0E0,0E0,0E0,0E0,0E0,0E0,0E0,0E0,0E0,0E0,0E0],"parents":[2147483647,0,0,1,1,2,2,3,3,4,4,5,5,6,6,7,7,8,8,9,9,10,10,11,11,16,16,17,17,18,18,21,21,22,22,23,23,24,24,27,27,28,28,29,29],"right_children":[2,4,6,8,10,12,14,16,18,20,22,24,-1,-1,-1,-1,26,28,30,-1,-1,32,34,36,38,-1,-1,40,42,44,-1,-1,-1,-1,-1,-1,-1,-1,-1,-1,-1,-1,-1,-1,-1],"split_conditions":[4.06606E-1,9.875474E-2,-4.9154024E-4,-1.3909928E-3,-5.4217806E0,-3.8877812E-1,-3.017949E-3,-1.1211493E-3,3.5828447E0,-2.0234574E-2,9.821784E0,2.7076923E1,4.6718083E-2,1.4172017E-2,-5.083892E-2,2.4401663E-2,6.6985644E-2,-5.0789816E-4,8.595803E-5,4.1145537E-2,2.0214377E-3,-4.7439415E-5,5.928009E1,2.7071726E-1,8.815117E-2,-3.335975E-2,-8.280715E-3,2.176715E0,6.6985644E-2,-4.854076E-2,-1.0012623E-2,-8.471149E-3,-5.0896905E-2,3.0759472E-2,-3.3400223E-2,-1.614195E-2,3.2433707E-2,-4.7891073E-2,1.8942446E-3,-4.482379E-2,1.7408388E-2,-1.2424641E-2,3.45075E-2,1.0820073E-2,5.075067E-2],"split_indices":[4,3,8,19,22,1,13,16,22,8,21,0,0,0,0,0,7,19,19,0,0,16,0,6,3,0,0,22,7,3,0,0,0,0,0,0,0,0,0,0,0,0,0,0,0],"split_type":[0,0,0,0,0,0,0,0,0,0,0,0,0,0,0,0,0,0,0,0,0,0,0,0,0,0,0,0,0,0,0,0,0,0,0,0,0,0,0,0,0,0,0,0,0],"sum_hessian":[8.5988754E1,5.8997967E1,2.699079E1,4.149503E1,1.750294E1,1.5361812E1,1.1628978E1,3.9306698E0,3.7564358E1,4.2068896E0,1.329605E1,1.0731466E1,4.630345E0,1.7113376E0,9.91764E0,1.3454828E0,2.585187E0,2.1457504E1,1.6106853E1,2.698509E0,1.5083805E0,1.0668704E1,2.6273468E0,2.6524987E0,8.078968E0,1.4687297E0,1.1164571E0,4.6631784E0,1.6794327E1,1.4983107E1,1.1237471E0,1.1229973E0,9.545707E0,1.1589618E0,1.4683849E0,1.4915022E0,1.1609964E0,6.2336254E0,1.8453424E0,3.1351204E0,1.5280582E0,3.1896534E0,1.3604672E1,4.3640885E0,1.0619019E1],"tree_param":{"num_deleted":"0","num_feature":"36","num_nodes":"45","size_leaf_vector":"1"}},{"base_weights":[-3.0431842E-2,-1.2153269E0,1.2975748E-1,-1.4023712E-1,-4.6876214E-2,4.559169E-1,-3.8768443E-1,2.420828E-2,-3.1520307E-2,6.060072E-1,-4.0807653E-2,1.5364066E-1,-1.0644801E0,7.7212363E-1,-3.703047E-1,-9.273483E-1,6.204335E-1,-4.885923E-2,-1.4303102E-1,1.6244225E-1,1.045034E0,5.106377E-1,-8.8481265E-1,-4.2409614E-2,9.260915E-3,9.8122704E-1,-5.8781636E-1,3.2796275E-2,-1.0408725E0,3.086156E-2,-2.7232341E-2,3.356127E-2,-9.698484E-3,-7.75708E-3,3.0861871E-2,1.1072275E-2,-4.092189E-2,-1.5696999E-2,3.8748637E-2,1.0052187E-2,-3.4426533E-2,-7.761551E-3,-3.7351206E-2],"categories":[],"categories_nodes":[],"categories_segments":[],"categories_sizes":[],"default_left":[0,0,0,0,0,0,0,0,0,0,0,0,0,0,0,0,0,0,0,0,0,0,0,0,0,0,0,0,0,0,0,0,0,0,0,0,0,0,0,0,0,0,0],"id":5,"left_children":[1,3,5,7,-1,9,11,-1,-1,13,-1,15,17,19,21,23,25,-1,27,29,31,33,35,-1,-1,37,39,-1,41,-1,-1,-1,-1,-1,-1,-1,-1,-1,-1,-1,-1,-1,-1],"loss_changes":[1.6523172E1,3.6498985E0,1.3147736E1,3.97718E0,0E0,1.3799953E1,1.1248085E1,0E0,0E0,7.5288754E0,0E0,9.498629E0,6.822092E0,6.23452E0,3.7014766E0,3.883144E0,6.221973E0,0E0,8.07509E0,1.3065277E1,3.0234852E0,1.5721645E0,3.4432366E0,0E0,0E0,5.507476E0,2.2457821E0,0E0,3.3785534E-1,0E0,0E0,0E0,0E0,0E0,0E0,0E0,0E0,0E0,0E0,0E0,0E0,0E0,0E0],"parents":[2147483647,0,0,1,1,2,2,3,3,5,5,6,6,9,9,11,11,12,12,13,13,14,14,15,15,16,16,18,18,19,19,20,20,21,21,22,22,25,25,26,26,28,28],"right_children":[2,4,6,8,-1,10,12,-1,-1,14,-1,16,18,20,22,24,26,-1,28,30,32,34,36,-1,-1,38,40,-1,42,-1,-1,-1,-1,-1,-1,-1,-1,-1,-1,-1,-1,-1,-1],"split_conditions":[-1.3874443E-3,1.541696E-1,1.0453451E-4,-1.9363353E-3,-4.6876214E-2,2.895302E-1,-1.2762099E-2,2.420828E-2,-3.1520307E-2,1.4936672E-1,-4.0807653E-2,1E0,9.645287E-1,-6.335671E-2,6.162431E-1,2.7839112E-1,1.5621709E-3,-4.885923E-2,1.8584071E-1,1.4591599E-1,1.6103623E-3,1.7066815E-1,-4.3981563E-4,-4.2409614E-2,9.260915E-3,-1.6886212E-1,-6.236212E-1,3.2796275E-2,3.865408E-3,3.086156E-2,-2.7232341E-2,3.356127E-2,-9.698484E-3,-7.75708E-3,3.0861871E-2,1.1072275E-2,-4.092189E-2,-1.5696999E-2,3.8748637E-2,1.0052187E-2,-3.4426533E-2,-7.761551E-3,-3.7351206E-2],"split_indices":[19,6,19,19,0,6,8,0,0,3,0,25,11,10,1,6,14,0,7,6,12,6,13,0,0,10,1,0,8,0,0,0,0,0,0,0,0,0,0,0,0,0,0],"split_type":[0,0,0,0,0,0,0,0,0,0,0,0,0,0,0,0,0,0,0,0,0,0,0,0,0,0,0,0,0,0,0,0,0,0,0,0,0,0,0,0,0,0,0],"sum_hessian":[8.522141E1,9.364782E0,7.585663E1,2.6288555E0,6.7359266E0,4.6601307E1,2.9255325E1,1.3441459E0,1.2847095E0,4.3659565E1,2.9417431E0,1.6683922E1,1.2571403E1,3.7489914E1,6.1696506E0,4.7341166E0,1.1949805E1,7.321379E0,5.250024E0,1.20857E1,2.5404213E1,2.2775474E0,3.892103E0,3.2943199E0,1.4397967E0,9.346698E0,2.6031082E0,2.1172204E0,3.1328032E0,6.7005796E0,5.3851204E0,2.4279348E1,1.124865E0,1.1182331E0,1.1593144E0,1.13982E0,2.752283E0,1.4812875E0,7.86541E0,1.1342806E0,1.4688275E0,1.1177927E0,2.0150106E0],"tree_param":{"num_deleted":"0","num_feature":"36","num_nodes":"43","size_leaf_vector":"1"}},{"base_weights":[8.15011E-2,3.414458E-1,-7.231733E-1,-1.2258961E0,4.7049612E-1,-2.0022619E-1,-1.3419365E0,-8.230559E-3,-4.1881964E-2,6.2180823E-1,-5.5284065E-1,3.6632374E-2,-5.326442E-1,-4.7230326E-2,-2.4524624E-3,-7.440983E-1,7.5640845E-1,-1.0964237E0,4.9077556E-1,-4.1618172E-2,-9.2237415E-3,3.0691212E-2,-4.2161435E-2,8.574839E-1,-1.6004646E-1,-4.2482E-2,-3.517609E-1,-1.0021779E-2,2.8528515E-2,-8.668057E-1,3.3437394E-2,1.9899527E-2,4.4502757E-2,-3.1399686E-2,3.6092464E-2,1.2012876E-2,-2.8547006E-2,1.3613129E-2,-4.108306E-2],"categories":[],"categories_nodes":[],"categories_segments":[],"categories_sizes":[],"default_left":[0,0,0,0,0,0,0,0,0,0,0,0,0,0,0,0,0,0,0,0,0,0,0,0,0,0,0,0,0,0,0,0,0,0,0,0,0,0,0],"id":6,"left_children":[1,3,5,7,9,11,13,-1,-1,15,17,-1,19,-1,-1,21,23,25,27,-1,29,-1,-1,31,33,-1,35,-1,-1,37,-1,-1,-1,-1,-1,-1,-1,-1,-1],"loss_changes":[1.9954386E1,1.5118012E1,7.2789536E0,5.474634E-1,1.0740749E1,7.1784115E0,2.9490185E0,0E0,0E0,1.1403931E1,5.7450767E0,0E0,5.3078117E0,0E0,0E0,8.208032E0,5.15534E0,1.0120087E0,1.7730496E0,0E0,9.045384E0,0E0,0E0,4.96513E0,8.781235E0,0E0,1.8409747E0,0E0,0E0,4.1508045E0,0E0,0E0,0E0,0E0,0E0,0E0,0E0,0E0,0E0],"parents":[2147483647,0,0,1,1,2,2,3,3,4,4,5,5,6,6,9,9,10,10,12,12,15,15,16,16,17,17,18,18,20,20,23,23,24,24,26,26,29,29],"right_children":[2,4,6,8,10,12,14,-1,-1,16,18,-1,20,-1,-1,22,24,26,28,-1,30,-1,-1,32,34,-1,36,-1,-1,38,-1,-1,-1,-1,-1,-1,-1,-1,-1],"split_conditions":[2.0711264E-1,-1.410568E-3,6.038968E-3,-1.108745E-3,2.3638995E-3,1.2583462E1,1.6991976E0,-8.230559E-3,-4.1881964E-2,-5.171103E-1,3.6373344E1,3.6632374E-2,4.6074577E1,-4.7230326E-2,-2.4524624E-3,-4.870546E-2,1.5653141E-1,7.050147E1,6.2110725E1,-4.1618172E-2,-1.0679616E0,3.0691212E-2,-4.2161435E-2,3.9268506E-1,1.7716683E-1,-4.2482E-2,7.491776E1,-1.0021779E-2,2.8528515E-2,5.4285385E1,3.3437394E-2,1.9899527E-2,4.4502757E-2,-3.1399686E-2,3.6092464E-2,1.2012876E-2,-2.8547006E-2,1.3613129E-2,-4.108306E-2],"split_indices":[6,19,8,13,15,9,20,0,0,1,9,0,9,0,0,8,3,0,0,0,2,0,0,1,6,0,0,0,0,9,0,0,0,0,0,0,0,0,0],"split_type":[0,0,0,0,0,0,0,0,0,0,0,0,0,0,0,0,0,0,0,0,0,0,0,0,0,0,0,0,0,0,0,0,0,0,0,0,0,0,0],"sum_hessian":[9.321704E1,7.089164E1,2.2325401E1,4.746392E0,6.614525E1,1.2816848E1,9.508554E0,1.1163386E0,3.6300533E0,5.7966595E1,8.178657E0,1.9227036E0,1.0894144E1,7.8175282E0,1.6910266E0,4.793593E0,5.3173E1,5.344364E0,2.8342922E0,3.5110266E0,7.383117E0,1.156374E0,3.637219E0,4.7949062E1,5.2239375E0,3.108454E0,2.2359102E0,1.1131322E0,1.7211598E0,4.3172674E0,3.0658498E0,3.816884E1,9.780226E0,3.3058827E0,1.9180547E0,1.1394184E0,1.0964918E0,1.2170018E0,3.1002657E0],"tree_param":{"num_deleted":"0","num_feature":"36","num_nodes":"39","size_leaf_vector":"1"}},{"base_weights":[5.1860586E-2,-1.145203E0,2.0040788E-1,1.6463695E-3,-1.3664757E0,-6.513021E-1,4.4278428E-1,-4.5021683E-2,-1.046603E-2,7.5466555E-1,-9.241634E-1,7.265316E-1,-2.8919894E-1,3.9862636E-3,3.219838E-2,-2.7690566E-1,-1.4114666E0,8.1017417E-1,-3.1639747E-2,1.1823976E0,-7.6268595E-1,-9.5798534E-1,3.2486454E-2,-4.63485E-2,-7.9401955E-3,-2.843124E-2,8.772026E-1,1.0784319E-2,4.0141784E-2,-1.0654918E0,2.7792022E-2,1.20922765E-2,-4.1267052E-2,9.117009E-3,3.1417314E-2,-5.2306917E-3,-4.728048E-2],"categories":[],"categories_nodes":[],"categories_segments":[],"categories_sizes":[],"default_left":[0,0,0,0,0,0,0,0,0,0,0,0,0,0,0,0,0,0,0,0,0,0,0,0,0,0,0,0,0,0,0,0,0,0,0,0,0],"id":7,"left_children":[1,3,5,-1,7,9,11,-1,-1,13,15,17,19,-1,-1,21,23,25,-1,27,29,31,-1,-1,-1,-1,33,-1,-1,35,-1,-1,-1,-1,-1,-1,-1],"loss_changes":[1.5973212E1,2.7099676E0,1.6723484E1,0E0,6.2626266E-1,7.6189165E0,1.3206263E1,0E0,0E0,5.4737663E-1,4.5166454E0,7.6149063E0,1.3579763E1,0E0,0E0,8.378578E0,9.125004E-1,6.0048656E0,0E0,1.3659048E-1,8.338744E0,3.857777E0,0E0,0E0,0E0,0E0,3.8554726E0,0E0,0E0,5.481986E0,0E0,0E0,0E0,0E0,0E0,0E0,0E0],"parents":[2147483647,0,0,1,1,2,2,4,4,5,5,6,6,9,9,10,10,11,11,12,12,15,15,16,16,17,17,19,19,20,20,21,21,26,26,29,29],"right_children":[2,4,6,-1,8,10,12,-1,-1,14,16,18,20,-1,-1,22,24,26,-1,28,30,32,-1,-1,-1,-1,34,-1,-1,36,-1,-1,-1,-1,-1,-1,-1],"split_conditions":[-1.3874443E-3,1.3513514E-2,-2.219967E-3,1.6463695E-3,1.9750486E1,1.4930408E-1,1.011191E-1,-4.5021683E-2,-1.046603E-2,8.966994E-3,-9.039996E-1,2.895302E-1,-6.3417525E0,3.9862636E-3,3.219838E-2,-1.0679616E0,-3.493981E-2,-4.7618154E-1,-3.1639747E-2,6.150121E-1,6.1074574E-2,-1.7448632E0,3.2486454E-2,-4.63485E-2,-7.9401955E-3,-2.843124E-2,-8.431024E-2,1.0784319E-2,4.0141784E-2,3.865408E-3,2.7792022E-2,1.20922765E-2,-4.1267052E-2,9.117009E-3,3.1417314E-2,-5.2306917E-3,-4.728048E-2],"split_indices":[19,7,17,0,22,6,3,0,0,2,2,6,22,0,0,2,10,1,0,7,8,2,0,0,0,0,10,0,0,8,0,0,0,0,0,0,0],"split_type":[0,0,0,0,0,0,0,0,0,0,0,0,0,0,0,0,0,0,0,0,0,0,0,0,0,0,0,0,0,0,0,0,0,0,0,0,0],"sum_hessian":[8.7537025E1,8.922886E0,7.861414E1,1.5061584E0,7.4167275E0,1.704188E1,6.157226E1,6.1328955E0,1.2838321E0,2.4828415E0,1.4559038E1,4.4377235E1,1.7195026E1,1.3213013E0,1.16154E0,6.926798E0,7.6322403E0,4.29075E1,1.4697349E0,3.8212812E0,1.3373745E1,4.81206E0,2.114738E0,6.5254993E0,1.1067411E0,1.0933911E0,4.181411E1,1.1342599E0,2.6870215E0,1.1653746E1,1.7199988E0,1.1379125E0,3.6741474E0,1.0202638E1,3.1611473E1,4.733247E0,6.9204993E0],"tree_param":{"num_deleted":"0","num_feature":"36","num_nodes":"37","size_leaf_vector":"1"}},{"base_weights":[9.695231E-3,2.4801475E-1,-6.863882E-1,-1.1613194E0,3.7159416E-1,-1.133733E0,-6.3456394E-2,-3.9647654E-2,-8.557075E-3,5.974993E-1,-6.329924E-1,-1.3337905E0,8.185733E-3,8.599359E-1,-1.1162767E0,-5.652335E-1,7.773878E-1,-4.4849724E-2,4.2234948E-1,-4.6757262E-2,1.9679791E-3,1.2349265E-3,1.124208E0,-3.9201524E-2,-6.51824E-3,2.1759484E-2,-1.1796744E0,3.4663844E-1,1.035617E0,3.8232412E-2,-4.8297817E-1,3.8183868E-2,1.0915929E-2,-4.1007597E-2,-7.753865E-3,-1.880569E-2,2.0247268E-2,3.6345296E-2,7.7821272E-3,1.0959421E-2,-3.071573E-2],"categories":[],"categories_nodes":[],"categories_segments":[],"categories_sizes":[],"default_left":[0,0,0,0,0,0,0,0,0,0,0,0,0,0,0,0,0,0,0,0,0,0,0,0,0,0,0,0,0,0,0,0,0,0,0,0,0,0,0,0,0],"id":8,"left_children":[1,3,5,7,9,11,13,-1,-1,15,17,19,-1,21,23,25,27,-1,29,-1,-1,-1,31,-1,-1,-1,33,35,37,-1,39,-1,-1,-1,-1,-1,-1,-1,-1,-1,-1],"loss_changes":[1.4085018E1,1.1442329E1,5.9636345E0,3.7269163E-1,1.3740849E1,3.8945942E0,1.0790546E1,0E0,0E0,1.0601742E1,1.0907039E1,3.6109657E0,0E0,1.2416143E0,5.995183E-1,6.476733E0,4.368067E0,0E0,5.1343565E0,0E0,0E0,0E0,4.0945053E-2,0E0,0E0,0E0,5.407386E-1,5.993511E0,3.244545E0,0E0,2.00992E0,0E0,0E0,0E0,0E0,0E0,0E0,0E0,0E0,0E0,0E0],"parents":[2147483647,0,0,1,1,2,2,3,3,4,4,5,5,6,6,9,9,10,10,11,11,13,13,14,14,15,15,16,16,18,18,22,22,26,26,27,27,28,28,30,30],"right_children":[2,4,6,8,10,12,14,-1,-1,16,18,20,-1,22,24,26,28,-1,30,-1,-1,-1,32,-1,-1,-1,34,36,38,-1,40,-1,-1,-1,-1,-1,-1,-1,-1,-1,-1],"split_conditions":[2.0711264E-1,-5.171103E-1,4.7712933E1,3.6967022E-4,1.5653141E-1,8.815117E-2,6.4405626E-1,-3.9647654E-2,-8.557075E-3,1.4042831E1,5.349794E-1,1.4467317E0,8.185733E-3,7.4440897E-1,5.031863E-1,4E1,-3.0522946E-2,-4.4849724E-2,6.162431E-1,-4.6757262E-2,1.9679791E-3,1.2349265E-3,5.0164916E-4,-3.9201524E-2,-6.51824E-3,2.1759484E-2,7.500305E-4,-3.984478E-4,9.5711014E-4,3.8232412E-2,6.873112E1,3.8183868E-2,1.0915929E-2,-4.1007597E-2,-7.753865E-3,-1.880569E-2,2.0247268E-2,3.6345296E-2,7.7821272E-3,1.0959421E-2,-3.071573E-2],"split_indices":[6,1,0,16,3,3,1,0,0,9,7,4,0,7,4,0,10,0,1,0,0,0,17,0,0,0,12,12,16,0,0,0,0,0,0,0,0,0,0,0,0],"split_type":[0,0,0,0,0,0,0,0,0,0,0,0,0,0,0,0,0,0,0,0,0,0,0,0,0,0,0,0,0,0,0,0,0,0,0,0,0,0,0,0,0],"sum_hessian":[8.287944E1,6.2220562E1,2.0658882E1,4.339084E0,5.7881477E1,1.1546803E1,9.112079E0,3.238179E0,1.1009053E0,4.7585888E1,1.02955885E1,1.0154324E1,1.3924793E0,4.9520307E0,4.1600475E0,6.088694E0,4.1497196E1,5.437593E0,4.857995E0,8.650961E0,1.5033624E0,1.4903551E0,3.4616756E0,3.0586054E0,1.1014421E0,1.9056616E0,4.183033E0,1.6431068E1,2.5066126E1,2.2925968E0,2.5653985E0,2.3319814E0,1.1296941E0,3.0743194E0,1.1087134E0,3.9141073E0,1.2516961E1,1.9978195E1,5.087932E0,1.1252295E0,1.4401689E0],"tree_param":{"num_deleted":"0","num_feature":"36","num_nodes":"41","size_leaf_vector":"1"}},{"base_weights":[3.1825878E-2,2.4701141E-1,-7.126081E-1,3.4915233E-1,-1.1275578E0,-1.8688032E-1,-1.3444054E0,-6.787148E-1,4.6615618E-1,-7.342919E-3,-3.9416447E-2,-1.0883847E0,5.725219E-1,-4.4015635E-2,-7.6877605E-3,2.380722E-2,-1.1630269E0,-6.152802E-1,5.9336746E-1,-9.6198486E-4,-3.9052133E-2,9.1367537E-1,-1.365023E-2,-5.9442776E-3,-4.0536977E-2,1.4424139E-2,-1.0876654E0,6.852246E-1,-7.1706194E-1,4.0413816E-2,-2.5085642E-3,-3.848042E-2,-6.2665306E-3,9.036725E-3,2.9102162E-2,-3.698056E-2,9.118303E-3],"categories":[],"categories_nodes":[],"categories_segments":[],"categories_sizes":[],"default_left":[0,0,0,0,0,0,0,0,0,0,0,0,0,0,0,0,0,0,0,0,0,0,0,0,0,0,0,0,0,0,0,0,0,0,0,0,0],"id":9,"left_children":[1,3,5,7,9,11,13,15,17,-1,-1,19,21,-1,-1,-1,23,25,27,-1,-1,29,-1,-1,-1,-1,31,33,35,-1,-1,-1,-1,-1,-1,-1,-1],"loss_changes":[1.4217601E1,1.0045021E1,6.362994E0,8.103583E0,4.9938345E-1,8.859203E0,8.108082E-1,5.9317994E0,8.444082E0,0E0,0E0,1.2755985E0,2.9344492E0,0E0,0E0,0E0,7.658005E-1,3.9774954E0,6.8775997E0,0E0,0E0,2.588153E0,0E0,0E0,0E0,0E0,5.836396E-1,5.186735E0,2.4615173E0,0E0,0E0,0E0,0E0,0E0,0E0,0E0,0E0],"parents":[2147483647,0,0,1,1,2,2,3,3,4,4,5,5,6,6,7,7,8,8,11,11,12,12,16,16,17,17,18,18,21,21,26,26,27,27,28,28],"right_children":[2,4,6,8,10,12,14,16,18,-1,-1,20,22,-1,-1,-1,24,26,28,-1,-1,30,-1,-1,-1,-1,32,34,36,-1,-1,-1,-1,-1,-1,-1,-1],"split_conditions":[2.1031052E-1,2.4859528E-3,6.038968E-3,-4.7618154E-1,1.1194811E0,1E0,1.6991976E0,-4.870546E-2,-1.3874443E-3,-7.342919E-3,-3.9416447E-2,-1.6020601E0,8.904239E-1,-4.4015635E-2,-7.6877605E-3,2.380722E-2,-1.3069389E-3,-1.1211493E-3,5.630281E1,-9.6198486E-4,-3.9052133E-2,5.115988E-1,-1.365023E-2,-5.9442776E-3,-4.0536977E-2,1.4424139E-2,9.823875E-1,1.8704191E-1,2.976694E-1,4.0413816E-2,-2.5085642E-3,-3.848042E-2,-6.2665306E-3,9.036725E-3,2.9102162E-2,-3.698056E-2,9.118303E-3],"split_indices":[6,16,8,1,20,26,20,8,19,0,0,2,4,0,0,0,12,16,9,0,0,5,0,0,0,0,20,4,4,0,0,0,0,0,0,0,0],"split_type":[0,0,0,0,0,0,0,0,0,0,0,0,0,0,0,0,0,0,0,0,0,0,0,0,0,0,0,0,0,0,0,0,0,0,0,0,0],"sum_hessian":[8.665499E1,6.774179E1,1.8913202E1,6.3750626E1,3.9911637E0,1.1030419E1,7.8827825E0,6.0245714E0,5.7726055E1,1.0987909E0,2.8923728E0,4.845271E0,6.1851482E0,6.770489E0,1.1122934E0,1.3331848E0,4.6913867E0,5.6719055E0,5.205415E1,1.0074825E0,3.8377883E0,4.726644E0,1.4585046E0,1.1007762E0,3.5906105E0,1.7028729E0,3.9690328E0,4.9090176E1,2.9639738E0,3.050172E0,1.6764718E0,2.8720636E0,1.0969692E0,2.1782658E1,2.7307516E1,1.8316416E0,1.1323322E0],"tree_param":{"num_deleted":"0","num_feature":"36","num_nodes":"37","size_leaf_vector":"1"}},{"base_weights":[1.636894E-2,-1.0925596E0,1.5902433E-1,-1.4983293E-1,-4.3087706E-2,3.8267288E-1,-5.694398E-1,-3.2181185E-2,3.1160079E-2,1.1956232E0,1.5959209E-1,-1.0995522E0,-1.7854162E-2,-1.2346424E-5,4.0707666E-2,7.6635504E-1,-2.3090018E-1,-4.380706E-2,-1.5711236E-1,7.292511E-1,-9.7809225E-1,-3.2757122E-2,9.4164133E-1,5.44675E-1,-7.038239E-1,-3.0784674E-2,2.9008977E-2,-1.04388725E-2,1.0762258E0,1.1538645E-4,-3.7064496E-2,-7.477743E-3,3.577597E-2,3.0579085E-2,-2.0097382E-2,-3.302612E-2,2.843602E-2,6.657997E-3,3.9640207E-2],"categories":[],"categories_nodes":[],"categories_segments":[],"categories_sizes":[],"default_left":[0,0,0,0,0,0,0,0,0,0,0,0,0,0,0,0,0,0,0,0,0,0,0,0,0,0,0,0,0,0,0,0,0,0,0,0,0,0,0],"id":10,"left_children":[1,3,5,7,-1,9,11,-1,-1,13,15,17,19,-1,-1,21,23,-1,25,27,29,-1,31,33,35,-1,-1,-1,37,-1,-1,-1,-1,-1,-1,-1,-1,-1,-1],"loss_changes":[1.3831607E1,3.01443E0,1.2822735E1,5.259731E0,0E0,1.0652811E1,5.411886E0,0E0,0E0,2.4546223E0,1.156696E1,2.9847536E0,7.9732623E0,0E0,0E0,7.2349052E0,1.1393259E1,0E0,4.6435413E0,2.715927E0,1.2319202E0,0E0,5.660286E0,7.5625362E0,1.3558124E1,0E0,0E0,0E0,7.500987E-1,0E0,0E0,0E0,0E0,0E0,0E0,0E0,0E0,0E0,0E0],"parents":[2147483647,0,0,1,1,2,2,3,3,5,5,6,6,9,9,10,10,11,11,12,12,15,15,16,16,18,18,19,19,20,20,22,22,23,23,24,24,28,28],"right_children":[2,4,6,8,-1,10,12,-1,-1,14,16,18,20,-1,-1,22,24,-1,26,28,30,-1,32,34,36,-1,-1,-1,38,-1,-1,-1,-1,-1,-1,-1,-1,-1,-1],"split_conditions":[-1.3874443E-3,2.7777778E-2,2.1031052E-1,2.976694E-1,-4.3087706E-2,-8.0691406E-4,2.671829E-1,-3.2181185E-2,3.1160079E-2,1.8491129E0,-1.2762099E-2,6.755732E1,3.035162E-1,-1.2346424E-5,4.0707666E-2,-4.2859055E-4,2.0535715E-1,-4.380706E-2,4.2825363E1,-1.0592172E-1,-6.6138875E-1,-3.2757122E-2,-4.7618154E-1,4.2326797E1,4.608899E-2,-3.0784674E-2,2.9008977E-2,-1.04388725E-2,8.595989E-1,1.1538645E-4,-3.7064496E-2,-7.477743E-3,3.577597E-2,3.0579085E-2,-2.0097382E-2,-3.302612E-2,2.843602E-2,6.657997E-3,3.9640207E-2],"split_indices":[19,7,6,4,0,19,6,0,0,22,8,9,6,0,0,19,7,0,0,10,1,0,1,9,8,0,0,0,7,0,0,0,0,0,0,0,0,0,0],"split_type":[0,0,0,0,0,0,0,0,0,0,0,0,0,0,0,0,0,0,0,0,0,0,0,0,0,0,0,0,0,0,0,0,0,0,0,0,0,0,0],"sum_hessian":[8.5335815E1,8.967605E0,7.636821E1,2.7795439E0,6.188061E0,5.879272E1,1.757549E1,1.619461E0,1.1600828E0,1.1720675E1,4.7072044E1,8.455616E0,9.119875E0,1.5113615E0,1.0209314E1,1.8054964E1,2.901708E1,5.7178893E0,2.7377262E0,5.2644587E0,3.8554163E0,1.1055423E0,1.6949423E1,1.0934022E1,1.8083057E1,1.5931494E0,1.1445768E0,1.2818855E0,3.9825733E0,1.0052971E0,2.8501194E0,2.9505618E0,1.399886E1,7.9774384E0,2.9565833E0,1.4847408E1,3.2356503E0,1.3127384E0,2.6698346E0],"tree_param":{"num_deleted":"0","num_feature":"36","num_nodes":"39","size_leaf_vector":"1"}},{"base_weights":[3.951403E-2,1.426189E-1,-4.11677E-2,3.303106E-1,-5.096941E-1,1.2143325E0,1.7643811E-1,-8.289899E-1,5.4606473E-1,5.765132E-3,4.057814E-2,5.4149324E-1,-5.963345E-1,5.1100236E-1,-1.1099836E0,3.0188441E-2,-3.701119E-3,7.66325E-1,-6.901492E-1,2.5479087E-1,-1.3242635E0,-8.069611E-3,3.1129995E-2,2.8872897E-3,-1.2763622E0,-2.973331E-2,2.6261494E-2,3.1361055E-2,-3.7757337E-2,3.719274E-2,-1.7135203E-2,-4.7629617E-2,1.286583E-2,-4.4262003E-2,-1.3209417E-2],"categories":[],"categories_nodes":[],"categories_segments":[],"categories_sizes":[],"default_left":[0,0,0,0,0,0,0,0,0,0,0,0,0,0,0,0,0,0,0,0,0,0,0,0,0,0,0,0,0,0,0,0,0,0,0],"id":11,"left_children":[1,3,-1,5,7,9,11,13,15,-1,-1,17,19,21,23,-1,-1,25,27,29,31,-1,-1,-1,33,-1,-1,-1,-1,-1,-1,-1,-1,-1,-1],"loss_changes":[1.3012454E1,1.0325948E1,0E0,8.631992E0,6.834245E0,1.0787325E0,1.6279232E1,6.1895676E0,1.6641785E0,0E0,0E0,1.1311521E1,1.1875383E1,1.6237226E0,2.6633577E0,0E0,0E0,7.269474E0,7.764574E0,8.374678E0,5.390459E0,0E0,0E0,0E0,1.2131977E0,0E0,0E0,0E0,0E0,0E0,0E0,0E0,0E0,0E0,0E0],"parents":[2147483647,0,0,1,1,3,3,4,4,5,5,6,6,7,7,8,8,11,11,12,12,13,13,14,14,17,17,18,18,19,19,20,20,24,24],"right_children":[2,4,-1,6,8,10,12,14,16,-1,-1,18,20,22,24,-1,-1,26,28,30,32,-1,-1,-1,34,-1,-1,-1,-1,-1,-1,-1,-1,-1,-1],"split_conditions":[1.0701003E0,2.0711264E-1,-4.11677E-2,-1.9074908E-2,1.5372111E-3,-1.6124399E-1,8.193437E-6,-2.3004808E-3,5.115988E-1,5.765132E-3,4.057814E-2,1.0937394E-1,2.0535715E-1,-6.564133E-2,4.3644786E-1,3.0188441E-2,-3.701119E-3,-1.410568E-3,-8.913123E-4,3.1247554E-2,2.4166405E0,-8.069611E-3,3.1129995E-2,2.8872897E-3,9.038707E-4,-2.973331E-2,2.6261494E-2,3.1361055E-2,-3.7757337E-2,3.719274E-2,-1.7135203E-2,-4.7629617E-2,1.286583E-2,-4.4262003E-2,-1.3209417E-2],"split_indices":[1,6,0,8,13,3,19,12,5,0,0,10,7,3,11,0,0,19,12,3,11,0,0,0,12,0,0,0,0,0,0,0,0,0,0],"split_type":[0,0,0,0,0,0,0,0,0,0,0,0,0,0,0,0,0,0,0,0,0,0,0,0,0,0,0,0,0,0,0,0,0,0,0],"sum_hessian":[8.705102E1,8.1963974E1,5.0870395E0,6.403317E1,1.7930801E1,8.471464E0,5.556171E1,1.3932079E1,3.9987226E0,1.2941812E0,7.1772833E0,3.7938824E1,1.7622885E1,2.2731943E0,1.1658885E1,2.07147E0,1.9272525E0,3.24018E1,5.537026E0,8.423615E0,9.19927E0,1.1134452E0,1.1597492E0,1.4643141E0,1.0194571E1,1.4206461E0,3.0981153E1,1.1590831E0,4.377943E0,3.613506E0,4.8101096E0,8.07975E0,1.1195205E0,7.616565E0,2.5780058E0],"tree_param":{"num_deleted":"0","num_feature":"36","num_nodes":"35","size_leaf_vector":"1"}},{"base_weights":[8.752434E-3,1.0943523E-1,-4.0216688E-2,3.0738327E-1,-5.341022E-1,4.3307793E-1,-6.596878E-1,-7.193781E-1,2.0318141E-2,-7.034783E-2,7.22113E-1,-1.189069E0,1.2421295E-2,-4.2652E-2,-1.8453845E-1,3.3487362E-1,-8.4529597E-1,-2.7487908E-2,8.079113E-1,-3.994296E-2,-1.0253146E-2,2.4150226E-1,-3.406205E-2,2.8065428E-2,-1.9452682E-2,1.331806E-2,-3.4156375E-2,2.4482545E-3,3.135377E-2,2.784863E-2,-1.9281236E-2],"categories":[],"categories_nodes":[],"categories_segments":[],"categories_sizes":[],"default_left":[0,0,0,0,0,0,0,0,0,0,0,0,0,0,0,0,0,0,0,0,0,0,0,0,0,0,0,0,0,0,0],"id":12,"left_children":[1,3,-1,5,7,9,11,13,-1,15,17,19,-1,-1,21,23,25,-1,27,-1,-1,29,-1,-1,-1,-1,-1,-1,-1,-1,-1],"loss_changes":[1.1782791E1,1.0435341E1,0E0,7.8582907E0,4.8261275E0,8.160713E0,4.7906775E0,6.2185583E0,0E0,6.9528537E0,5.7298813E0,1.8705416E-1,0E0,0E0,4.707483E0,9.266728E0,3.3698878E0,0E0,5.81748E0,0E0,0E0,5.6866755E0,0E0,0E0,0E0,0E0,0E0,0E0,0E0,0E0,0E0],"parents":[2147483647,0,0,1,1,3,3,4,4,5,5,6,6,7,7,9,9,10,10,11,11,14,14,15,15,16,16,18,18,21,21],"right_children":[2,4,-1,6,8,10,12,14,-1,16,18,20,-1,-1,22,24,26,-1,28,-1,-1,30,-1,-1,-1,-1,-1,-1,-1,-1,-1],"split_conditions":[9.3213916E-1,2.0711264E-1,-4.0216688E-2,2.4372584E-3,1.3858968E0,-3.0522946E-2,1.4311966E-3,4.3263287E1,2.0318141E-2,1.5126492E-1,-5.343141E-1,1.7147742E-1,1.2421295E-2,-4.2652E-2,2.8736505E-1,2.1825686E-1,-1.7105249E0,-2.7487908E-2,1.6953102E1,-3.994296E-2,-1.0253146E-2,3.5241088E-1,-3.406205E-2,2.8065428E-2,-1.9452682E-2,1.331806E-2,-3.4156375E-2,2.4482545E-3,3.135377E-2,2.784863E-2,-1.9281236E-2],"split_indices":[2,6,0,15,4,10,12,0,0,6,1,6,0,0,6,5,18,0,9,0,0,1,0,0,0,0,0,0,0,0,0],"split_type":[0,0,0,0,0,0,0,0,0,0,0,0,0,0,0,0,0,0,0,0,0,0,0,0,0,0,0,0,0,0,0],"sum_hessian":[8.465256E1,7.962965E1,5.022914E0,6.129733E1,1.8332317E1,5.4735306E1,6.562022E0,1.6252666E1,2.0796492E0,2.0239626E1,3.449568E1,4.3231587E0,2.2388632E0,6.309173E0,9.943494E0,1.3663066E1,6.5765595E0,1.2349123E0,3.326077E1,3.212078E0,1.1110806E0,7.3819704E0,2.5615237E0,8.512096E0,5.1509695E0,1.1234825E0,5.4530773E0,8.519576E0,2.4741192E1,4.1267686E0,3.2552016E0],"tree_param":{"num_deleted":"0","num_feature":"36","num_nodes":"31","size_leaf_vector":"1"}},{"base_weights":[1.3458988E-2,2.6126796E-1,-5.532494E-1,5.2511847E-1,-5.826001E-1,-1.7255902E-1,-1.1367362E0,1.3238485E0,2.536591E-1,2.551979E-1,-1.1894358E0,-8.6373043E-1,3.958889E-2,8.254508E-3,-4.4804968E-2,8.9841485E-3,1.4008367E0,5.408276E-1,-7.3540395E-1,-3.1080296E-2,6.49062E-1,-4.406954E-2,1.4424709E-3,1.0576875E-2,-1.1038611E0,4.461506E-2,1.0321359E-2,9.468564E-1,-2.572819E-1,5.800202E-1,-4.5059595E-2,-6.611495E-3,3.0261833E-2,-1.3288283E0,-1.8819922E-3,-1.9376789E-3,3.422335E-2,-3.7416786E-2,1.5329068E-2,3.0740444E-2,-3.0504167E-3,-6.5825363E-3,-4.3646634E-2],"categories":[],"categories_nodes":[],"categories_segments":[],"categories_sizes":[],"default_left":[0,0,0,0,0,0,0,0,0,0,0,0,0,0,0,0,0,0,0,0,0,0,0,0,0,0,0,0,0,0,0,0,0,0,0,0,0,0,0,0,0,0,0],"id":13,"left_children":[1,3,5,7,9,11,13,15,17,19,21,23,-1,-1,-1,-1,25,27,29,-1,31,-1,-1,-1,33,-1,-1,35,37,39,-1,-1,-1,41,-1,-1,-1,-1,-1,-1,-1,-1,-1],"loss_changes":[1.274901E1,1.4361162E1,5.940604E0,1.0205133E1,8.188969E0,1.9599028E1,5.815318E0,5.3432465E-1,1.1054707E1,4.404533E0,3.2434998E0,4.138337E0,0E0,0E0,0E0,0E0,4.898529E-1,9.853296E0,9.811951E0,0E0,2.1730137E0,0E0,0E0,0E0,2.4841948E0,0E0,0E0,3.9707832E0,8.840061E0,1.312447E0,0E0,0E0,0E0,9.345131E-1,0E0,0E0,0E0,0E0,0E0,0E0,0E0,0E0,0E0],"parents":[2147483647,0,0,1,1,2,2,3,3,4,4,5,5,6,6,7,7,8,8,9,9,10,10,11,11,16,16,17,17,18,18,20,20,24,24,27,27,28,28,29,29,33,33],"right_children":[2,4,6,8,10,12,14,16,18,20,22,24,-1,-1,-1,-1,26,28,30,-1,32,-1,-1,-1,34,-1,-1,36,38,40,-1,-1,-1,42,-1,-1,-1,-1,-1,-1,-1,-1,-1],"split_conditions":[4.1905236E-1,1.0459763E-1,6.038968E-3,-5.983838E0,3.34394E-1,-3.6157402E-1,-3.394612E-1,-7.560174E-4,8.193437E-6,-4.0620704E0,3.851289E1,-2.4114002E1,3.958889E-2,8.254508E-3,-4.4804968E-2,8.9841485E-3,2.238911E-3,9.115291E-4,-1.8203387E-2,-3.1080296E-2,1.2386343E-1,-4.406954E-2,1.4424709E-3,1.0576875E-2,8.815117E-2,4.461506E-2,1.0321359E-2,1.4504775E1,5.6125518E-2,-3.0942554E0,-4.5059595E-2,-6.611495E-3,3.0261833E-2,2.2103168E1,-1.8819922E-3,-1.9376789E-3,3.422335E-2,-3.7416786E-2,1.5329068E-2,3.0740444E-2,-3.0504167E-3,-6.5825363E-3,-4.3646634E-2],"split_indices":[4,10,8,22,5,1,3,12,19,22,9,22,0,0,0,0,13,15,8,0,10,0,0,0,3,0,0,9,3,22,0,0,0,9,0,0,0,0,0,0,0,0,0],"split_type":[0,0,0,0,0,0,0,0,0,0,0,0,0,0,0,0,0,0,0,0,0,0,0,0,0,0,0,0,0,0,0,0,0,0,0,0,0,0,0,0,0,0,0],"sum_hessian":[8.875273E1,6.2125576E1,2.6627157E1,4.7615467E1,1.4510107E1,1.6897972E1,9.729186E0,1.1094556E1,3.6520912E1,6.3385544E0,8.171553E0,1.1836536E1,5.061435E0,2.008665E0,7.7205205E0,1.117349E0,9.977207E0,2.8654457E1,7.8664556E0,1.1004771E0,5.238077E0,6.5132117E0,1.658341E0,1.8743743E0,9.962162E0,8.847206E0,1.1300004E0,1.8868801E1,9.785656E0,2.9859893E0,4.880466E0,1.6461002E0,3.5919771E0,7.9647927E0,1.9973695E0,3.142949E0,1.5725851E1,4.003459E0,5.7821965E0,1.5026878E0,1.4833014E0,1.0923095E0,6.8724833E0],"tree_param":{"num_deleted":"0","num_feature":"36","num_nodes":"43","size_leaf_vector":"1"}},{"base_weights":[-3.715258E-2,1.7605591E-1,-9.3370265E-1,-3.193911E-1,5.631545E-1,-1.3125426E0,-8.316317E-2,1.095913E-1,-7.7508193E-1,-3.1201337E-2,6.6988003E-1,3.3540216E-3,-4.619336E-2,6.9280124E-1,-8.231739E-1,6.249335E-1,-6.50178E-1,7.193588E-2,-1.3001815E0,-3.0537674E-2,7.8477293E-1,3.666483E-3,2.9444586E-2,-7.0908093E-3,-2.9551584E-2,1.1546468E0,-5.936097E-1,2.7024457E-2,-4.402389E-2,-2.4056353E-2,8.18335E-1,-4.380972E-2,-7.3946095E-3,9.4243354E-1,-1.1658688E-1,4.75424E-3,4.3838117E-2,-3.5619345E-2,1.2770419E-2,3.4616135E-2,4.2700632E-3,4.7291615E-3,3.233286E-2,-2.883843E-2,2.988441E-2],"categories":[],"categories_nodes":[],"categories_segments":[],"categories_sizes":[],"default_left":[0,0,0,0,0,0,0,0,0,0,0,0,0,0,0,0,0,0,0,0,0,0,0,0,0,0,0,0,0,0,0,0,0,0,0,0,0,0,0,0,0,0,0,0,0],"id":14,"left_children":[1,3,5,7,9,11,13,15,17,-1,19,-1,-1,21,23,25,27,29,31,-1,33,-1,-1,-1,-1,35,37,-1,-1,-1,39,-1,-1,41,43,-1,-1,-1,-1,-1,-1,-1,-1,-1,-1],"loss_changes":[1.569713E1,1.293147E1,4.9722805E0,5.9105387E0,7.1451063E0,3.681572E0,3.9738863E0,6.759647E0,6.575819E0,0E0,7.768856E0,0E0,0E0,4.460827E-1,9.878707E-2,7.2553244E0,1.025611E1,4.911993E0,1.1670542E0,0E0,4.972452E0,0E0,0E0,0E0,0E0,2.039116E0,2.771387E0,0E0,0E0,0E0,7.462418E-1,0E0,0E0,2.934826E0,6.5820284E0,0E0,0E0,0E0,0E0,0E0,0E0,0E0,0E0,0E0,0E0],"parents":[2147483647,0,0,1,1,2,2,3,3,4,4,5,5,6,6,7,7,8,8,10,10,13,13,14,14,15,15,16,16,17,17,18,18,20,20,25,25,26,26,30,30,33,33,34,34],"right_children":[2,4,6,8,10,12,14,16,18,-1,20,-1,-1,22,24,26,28,30,32,-1,34,-1,-1,-1,-1,36,38,-1,-1,-1,40,-1,-1,42,44,-1,-1,-1,-1,-1,-1,-1,-1,-1,-1],"split_conditions":[1.04400605E-1,-2.6955973E-2,1.8147182E-5,4.42802E-1,-1.3909928E-3,-1.0908771E-3,1.8038593E-1,-5.8015514E-5,-3.1161565E-1,-3.1201337E-2,-1.019433E0,3.3540216E-3,-4.619336E-2,5.4266007E-4,7.729764E-2,4.528302E-1,-1.2762099E-2,-3.8360483E-3,2.634433E-1,-3.0537674E-2,2.3638995E-3,3.666483E-3,2.9444586E-2,-7.0908093E-3,-2.9551584E-2,-1.1224884E0,1.1431832E1,2.7024457E-2,-4.402389E-2,-2.4056353E-2,7.029136E-5,-4.380972E-2,-7.3946095E-3,1.0502283E-1,6.13577E-1,4.75424E-3,4.3838117E-2,-3.5619345E-2,1.2770419E-2,3.4616135E-2,4.2700632E-3,4.7291615E-3,3.233286E-2,-2.883843E-2,2.988441E-2],"split_indices":[10,10,19,4,19,12,3,19,3,0,1,0,0,13,1,7,8,15,6,0,15,0,0,0,0,22,22,0,0,0,12,0,0,7,7,0,0,0,0,0,0,0,0,0,0],"split_type":[0,0,0,0,0,0,0,0,0,0,0,0,0,0,0,0,0,0,0,0,0,0,0,0,0,0,0,0,0,0,0,0,0,0,0,0,0,0,0,0,0,0,0,0,0],"sum_hessian":[8.0258575E1,6.548841E1,1.47701645E1,2.8800983E1,3.668743E1,9.842856E0,4.927308E0,1.5226463E1,1.3574521E1,1.7440332E0,3.4943398E1,1.4241445E0,8.418712E0,2.4363658E0,2.4909422E0,9.178362E0,6.048101E0,5.5251384E0,8.049382E0,1.7261478E0,3.321725E1,1.2967323E0,1.1396337E0,1.0704933E0,1.4204488E0,6.433912E0,2.7444506E0,2.051909E0,3.9961917E0,2.511076E0,3.0140622E0,6.6524253E0,1.3969572E0,2.823328E1,4.9839697E0,1.8712748E0,4.562637E0,1.63012E0,1.1143305E0,1.5418466E0,1.4722157E0,4.470849E0,2.376243E1,2.9105973E0,2.0733724E0],"tree_param":{"num_deleted":"0","num_feature":"36","num_nodes":"45","size_leaf_vector":"1"}},{"base_weights":[7.3630065E-2,1.6105108E-1,-3.8290948E-2,3.8291743E-1,-3.2650277E-1,1.1286901E0,1.3061105E-1,-7.4022184E-3,-4.1166626E-2,-1.5107589E-2,1.3238535E0,3.550489E-1,-1.0635327E0,-4.7695407E-1,6.726398E-1,4.41719E-2,5.8772594E-1,-6.5705264E-1,5.550937E-1,-3.986203E-2,-3.478982E-1,-1.1737902E0,2.2213215E-1,4.0366188E-2,-1.0751521E-1,3.1391017E-2,-9.316367E-3,1.162191E-2,-4.3715864E-2,-6.9061057E-3,2.3241492E-2,1.2880176E-2,-2.7773645E-2,-4.044534E-2,-3.2516494E-3,1.8911991E-2,-2.5201559E-2,-2.5621573E-2,2.391962E-2],"categories":[],"categories_nodes":[],"categories_segments":[],"categories_sizes":[],"default_left":[0,0,0,0,0,0,0,0,0,0,0,0,0,0,0,0,0,0,0,0,0,0,0,0,0,0,0,0,0,0,0,0,0,0,0,0,0,0,0],"id":15,"left_children":[1,3,-1,5,7,9,11,13,-1,-1,15,17,19,21,23,-1,25,27,29,-1,31,33,35,-1,37,-1,-1,-1,-1,-1,-1,-1,-1,-1,-1,-1,-1,-1,-1],"loss_changes":[1.0783112E1,9.326516E0,0E0,1.0939317E1,9.04712E0,5.369854E0,1.2480175E1,7.282574E0,0E0,0E0,6.0673714E-1,8.212755E0,9.4115734E-1,6.828558E0,5.0373425E0,0E0,1.9419171E0,6.293313E0,5.8538303E0,0E0,1.9039962E0,1.1379051E0,3.8128123E0,0E0,4.221911E0,0E0,0E0,0E0,0E0,0E0,0E0,0E0,0E0,0E0,0E0,0E0,0E0,0E0,0E0],"parents":[2147483647,0,0,1,1,3,3,4,4,5,5,6,6,7,7,10,10,11,11,12,12,13,13,14,14,16,16,17,17,18,18,20,20,21,21,22,22,24,24],"right_children":[2,4,-1,6,8,10,12,14,-1,-1,16,18,20,22,24,-1,26,28,30,-1,32,34,36,-1,38,-1,-1,-1,-1,-1,-1,-1,-1,-1,-1,-1,-1,-1,-1],"split_conditions":[1.0701003E0,4.099971E-1,-3.8290948E-2,-5.983838E0,3.6080215E-2,6.6985644E-2,1.8038593E-1,-3.8877812E-1,-4.1166626E-2,-1.5107589E-2,4.91909E0,-3.0821312E-2,5.349794E-1,6.666667E-1,-4.9154024E-4,4.41719E-2,-1.939763E-2,-3.0942554E0,-9.170335E-2,-3.986203E-2,5.824176E-1,5.2626873E-4,6.9930224E0,4.0366188E-2,2.1230293E-2,3.1391017E-2,-9.316367E-3,1.162191E-2,-4.3715864E-2,-6.9061057E-3,2.3241492E-2,1.2880176E-2,-2.7773645E-2,-4.044534E-2,-3.2516494E-3,1.8911991E-2,-2.5201559E-2,-2.5621573E-2,2.391962E-2],"split_indices":[1,4,0,22,8,7,3,1,0,0,21,2,7,7,8,0,8,22,3,0,7,8,21,0,8,0,0,0,0,0,0,0,0,0,0,0,0,0,0],"split_type":[0,0,0,0,0,0,0,0,0,0,0,0,0,0,0,0,0,0,0,0,0,0,0,0,0,0,0,0,0,0,0,0,0,0,0,0,0,0,0],"sum_hessian":[8.8626656E1,8.406368E1,4.562971E0,5.792083E1,2.6142853E1,1.3763852E1,4.415698E1,2.0802158E1,5.3406935E0,1.3011519E0,1.2462701E1,3.776228E1,6.394699E0,1.2482173E1,8.319985E0,9.537861E0,2.9248393E0,5.8550186E0,3.190726E1,4.0406013E0,2.3540978E0,5.911082E0,6.5710917E0,4.077956E0,4.242029E0,1.8270915E0,1.0977478E0,2.7635357E0,3.0914829E0,6.9627233E0,2.4944538E1,1.1135192E0,1.2405787E0,4.8515496E0,1.0595319E0,5.0402837E0,1.5308079E0,2.355085E0,1.8869445E0],"tree_param":{"num_deleted":"0","num_feature":"36","num_nodes":"39","size_leaf_vector":"1"}}]},"name":"gbtree"},"learner_model_param":{"base_score":"4.9437732E-1","boost_from_average":"1","num_class":"0","num_feature":"36","num_target":"1"},"objective":{"name":"binary:logistic","reg_loss_param":{"scale_pos_weight":"1"}}},"version":[2,0,3]}