{"learner":{"attributes":{"best_iteration":"0","best_score":"1.1036307378248735"},"feature_names":["rsi_14","macd_line","macd_signal","macd_hist","bb_pct_upper","bb_pct_lower","atr_pct_14","volatility_regime","trend_regime_slope","adx_14","cmf_20","volume_sma_ratio","corr_btc_eth_20","corr_btc_sol_20","corr_btc_eth_100","corr_btc_sol_100","ratio_btc_eth_norm","ratio_btc_sol_norm","ratio_btc_bnb_norm","btc_funding_rate","funding_mom_1","funding_mom_3","funding_spread_eth","funding_spread_sol","funding_spread_bnb"],"feature_types":["float","float","float","float","float","float","float","float","float","float","float","float","float","float","float","float","float","float","float","float","float","float","float","float","float"],"gradient_booster":{"model":{"gbtree_model_param":{"num_parallel_tree":"1","num_trees":"48"},"iteration_indptr":[0,3,6,9,12,15,18,21,24,27,30,33,36,39,42,45,48],"tree_info":[0,1,2,0,1,2,0,1,2,0,1,2,0,1,2,0,1,2,0,1,2,0,1,2,0,1,2,0,1,2,0,1,2,0,1,2,0,1,2,0,1,2,0,1,2,0,1,2],"trees":[{"base_weights":[4.056597E-2,-2.4456942E-1,5.950242E-2,5.4617066E-2,-4.2686522E-1,3.16412E-2,-5.5671954E-1,-6.402316E-1,3.979043E-2,-3.6929783E-3,-3.361264E-2,2.792162E-2,-2.2566374E-2],"categories":[],"categories_nodes":[],"categories_segments":[],"categories_sizes":[],"default_left":[0,0,0,0,0,0,0,0,0,0,0,0,0],"id":0,"left_children":[1,3,-1,-1,5,-1,7,9,11,-1,-1,-1,-1],"loss_changes":[1.1537461E1,7.368926E0,0E0,0E0,3.8809524E0,0E0,1.1899667E0,3.2328892E-1,1.2230678E0,0E0,0E0,0E0,0E0],"parents":[2147483647,0,0,1,1,4,4,6,6,7,7,8,8],"right_children":[2,4,-1,-1,6,-1,8,10,12,-1,-1,-1,-1],"split_conditions":[8.1525064E-1,2.6032323E-1,5.950242E-2,5.4617066E-2,9.439452E-2,3.16412E-2,1.2661241E0,9.31415E-2,3.4146342E-1,-3.6929783E-3,-3.361264E-2,2.792162E-2,-2.2566374E-2],"split_indices":[14,12,0,0,4,0,11,5,7,0,0,0,0],"split_type":[0,0,0,0,0,0,0,0,0,0,0,0,0],"sum_hessian":[3.331315E1,2.7322811E1,5.990338E0,2.679549E0,2.4643263E1,2.2673106E0,2.2375952E1,1.9563715E1,2.8122382E0,1.2238325E0,1.8339882E1,1.3011272E0,1.5111111E0],"tree_param":{"num_deleted":"0","num_feature":"25","num_nodes":"13","size_leaf_vector":"1"}},{"base_weights":[1.0586112E-1,8.663054E-1,-3.0444643E-1,1.067757E0,-2.3274284E-2,-3.4817666E-2,9.064566E-2,-2.0925269E-2,6.305931E-2,4.5664947E-2,-3.2948997E-2],"categories":[],"categories_nodes":[],"categories_segments":[],"categories_sizes":[],"default_left":[0,0,0,0,0,0,0,0,0,0,0],"id":1,"left_children":[1,3,5,7,-1,-1,9,-1,-1,-1,-1],"loss_changes":[1.3175379E1,4.4577456E0,4.3395615E0,4.3015547E0,0E0,0E0,9.62897E0,0E0,0E0,0E0,0E0],"parents":[2147483647,0,0,1,1,2,2,3,3,6,6],"right_children":[2,4,6,8,-1,-1,10,-1,-1,-1,-1],"split_conditions":[3.7763878E1,2.659977E-1,9.36171E-2,1.2977953E-1,-2.3274284E-2,-3.4817666E-2,1.1836239E-1,-2.0925269E-2,6.305931E-2,4.5664947E-2,-3.2948997E-2],"split_indices":[0,5,10,2,0,0,10,0,0,0,0],"split_type":[0,0,0,0,0,0,0,0,0,0,0],"sum_hessian":[4.038132E1,1.3762748E1,2.6618572E1,1.2126677E1,1.6360707E0,1.2980354E1,1.3638218E1,1.2624798E0,1.0864197E1,6.398282E0,7.2399354E0],"tree_param":{"num_deleted":"0","num_feature":"25","num_nodes":"11","size_leaf_vector":"1"}},{"base_weights":[-4.6740882E-2,6.607929E-2,-3.698067E-1,-6.3854605E-1,5.560237E-2,-3.2815848E-2,-6.717986E-3],"categories":[],"categories_nodes":[],"categories_segments":[],"categories_sizes":[],"default_left":[0,0,0,0,0,0,0],"id":2,"left_children":[1,-1,3,5,-1,-1,-1],"loss_changes":[1.944063E1,0E0,1.4833174E1,1.8648434E-1,0E0,0E0,0E0],"parents":[2147483647,0,0,2,2,3,3],"right_children":[2,-1,4,6,-1,-1,-1],"split_conditions":[-2.1832763E-1,6.607929E-2,6.987952E-1,8.0751354E-1,5.560237E-2,-3.2815848E-2,-6.717986E-3],"split_indices":[2,0,7,15,0,0,0],"split_type":[0,0,0,0,0,0,0],"sum_hessian":[4.187182E1,7.4074073E0,3.4464413E1,2.9655394E1,4.8090177E0,2.8354265E1,1.3011272E0],"tree_param":{"num_deleted":"0","num_feature":"25","num_nodes":"7","size_leaf_vector":"1"}},{"base_weights":[2.216105E-2,-2.362157E-1,5.703003E-2,5.1921185E-2,-3.8901028E-1,5.0127294E-2,-6.593999E-1,8.94133E-1,-3.1993818E-2,-3.4738775E-2,-1.2895471E-2,1.4581449E-2,5.5171557E-2],"categories":[],"categories_nodes":[],"categories_segments":[],"categories_sizes":[],"default_left":[0,0,0,0,0,0,0,0,0,0,0,0,0],"id":3,"left_children":[1,3,-1,-1,5,7,9,11,-1,-1,-1,-1,-1],"loss_changes":[1.1547828E1,6.7399664E0,0E0,0E0,3.5688248E0,7.721984E0,8.357334E-2,4.271922E-1,0E0,0E0,0E0,0E0,0E0],"parents":[2147483647,0,0,1,1,4,4,5,5,6,6,7,7],"right_children":[2,4,-1,-1,6,8,10,12,-1,-1,-1,-1,-1],"split_conditions":[7.7110565E-1,2.6032323E-1,5.703003E-2,5.1921185E-2,2.549405E1,3.5304907E-1,5.1789826E-1,-2.2214875E-1,-3.1993818E-2,-3.4738775E-2,-1.2895471E-2,1.4581449E-2,5.5171557E-2],"split_indices":[15,12,0,0,9,6,3,1,0,0,0,0,0],"split_type":[0,0,0,0,0,0,0,0,0,0,0,0,0],"sum_hessian":[3.8028473E1,3.1532726E1,6.495746E0,2.754874E0,2.8777853E1,1.1277222E1,1.750063E1,4.939471E0,6.337751E0,1.5412168E1,2.0884633E0,1.8905461E0,3.048925E0],"tree_param":{"num_deleted":"0","num_feature":"25","num_nodes":"13","size_leaf_vector":"1"}},{"base_weights":[4.3335386E-2,8.2862276E-1,-4.63626E-1,1.0178225E0,-2.2824427E-2,-3.509888E-2,5.894322E-1,5.9911735E-2,-2.0899624E-2,-2.0277707E-2,5.1605433E-2],"categories":[],"categories_nodes":[],"categories_segments":[],"categories_sizes":[],"default_left":[0,0,0,0,0,0,0,0,0,0,0],"id":4,"left_children":[1,3,5,7,-1,-1,9,-1,-1,-1,-1],"loss_changes":[1.5218615E1,4.106189E0,6.2582765E0,3.9628153E0,0E0,0E0,2.5509295E0,0E0,0E0,0E0,0E0],"parents":[2147483647,0,0,1,1,2,2,3,3,6,6],"right_children":[2,4,6,8,-1,-1,10,-1,-1,-1,-1],"split_conditions":[3.7763878E1,2.659977E-1,9.314342E-1,6.60905E-1,-2.2824427E-2,-3.509888E-2,9.36171E-2,5.9911735E-2,-2.0899624E-2,-2.0277707E-2,5.1605433E-2],"split_indices":[0,5,13,13,0,0,10,0,0,0,0],"split_type":[0,0,0,0,0,0,0,0,0,0,0],"sum_hessian":[3.6262135E1,1.3977062E1,2.2285074E1,1.236467E1,1.6123929E0,1.8443844E1,3.8412304E0,1.1131454E1,1.2332149E0,1.2085899E0,2.6326406E0],"tree_param":{"num_deleted":"0","num_feature":"25","num_nodes":"11","size_leaf_vector":"1"}},{"base_weights":[-1.2773803E-1,5.9609123E-2,-3.798513E-1,-5.793747E-1,4.793001E-2,-2.4003014E-1,-6.763968E-1,2.4962986E-2,-4.4023225E-1,-3.514185E-2,-1.3017692E-2,-1.1650879E-2,-2.733447E-2],"categories":[],"categories_nodes":[],"categories_segments":[],"categories_sizes":[],"default_left":[0,0,0,0,0,0,0,0,0,0,0,0,0],"id":5,"left_children":[1,-1,3,5,-1,7,9,-1,11,-1,-1,-1,-1],"loss_changes":[1.3426336E1,0E0,9.499601E0,8.17811E-1,0E0,1.428906E0,6.5633774E-2,0E0,2.6142716E-2,0E0,0E0,0E0,0E0],"parents":[2147483647,0,0,2,2,3,3,5,5,6,6,8,8],"right_children":[2,-1,4,6,-1,8,10,-1,12,-1,-1,-1,-1],"split_conditions":[-2.2054744E-1,5.9609123E-2,6.987952E-1,2.9631719E-2,4.793001E-2,6.346957E-1,3.88E-6,2.4962986E-2,3.4660633E1,-3.514185E-2,-1.3017692E-2,-1.1650879E-2,-2.733447E-2],"split_indices":[2,0,7,10,0,13,21,0,0,0,0,0,0],"split_type":[0,0,0,0,0,0,0,0,0,0,0,0,0],"sum_hessian":[3.7986397E1,5.4940333E0,3.2492363E1,2.8770645E1,3.7217178E0,7.169294E0,2.160135E1,1.2094305E0,5.9598637E0,1.9662436E1,1.938916E0,3.1049805E0,2.8548834E0],"tree_param":{"num_deleted":"0","num_feature":"25","num_nodes":"13","size_leaf_vector":"1"}},{"base_weights":[1.1980023E-2,5.50384E-2,-2.8296384E-1,4.953796E-2,-4.4605854E-1,6.472135E-3,-3.4844425E-2,4.9226772E-2,-3.1535834E-2],"categories":[],"categories_nodes":[],"categories_segments":[],"categories_sizes":[],"default_left":[0,0,0,0,0,0,0,0,0],"id":6,"left_children":[1,-1,3,-1,5,7,-1,-1,-1],"loss_changes":[1.2599581E1,0E0,6.8619213E0,0E0,3.1924896E0,7.48045E0,0E0,0E0,0E0],"parents":[2147483647,0,0,2,2,4,4,5,5],"right_children":[2,-1,4,-1,6,8,-1,-1,-1],"split_conditions":[-1.462164E0,5.50384E-2,2.6032323E-1,4.953796E-2,2.549405E1,3.5304907E-1,-3.4844425E-2,4.9226772E-2,-3.1535834E-2],"split_indices":[16,0,12,0,9,6,0,0,0],"split_type":[0,0,0,0,0,0,0,0,0],"sum_hessian":[3.726504E1,7.360726E0,2.9904314E1,2.8184307E0,2.7085884E1,1.0006685E1,1.7079199E1,3.732421E0,6.2742643E0],"tree_param":{"num_deleted":"0","num_feature":"25","num_nodes":"9","size_leaf_vector":"1"}},{"base_weights":[9.419298E-2,7.2691584E-1,-2.8231114E-1,-2.2853939E-2,8.8810414E-1,5.1610064E-2,-4.6770743E-1,5.4523315E-2,-2.2381952E-2,-3.4658723E-2,3.2165054E-2],"categories":[],"categories_nodes":[],"categories_segments":[],"categories_sizes":[],"default_left":[0,0,0,0,0,0,0,0,0,0,0],"id":7,"left_children":[1,3,5,-1,7,-1,9,-1,-1,-1,-1],"loss_changes":[1.0139774E1,3.4284515E0,7.0300074E0,0E0,4.3479404E0,0E0,6.516143E0,0E0,0E0,0E0,0E0],"parents":[2147483647,0,0,1,1,2,2,4,4,6,6],"right_children":[2,4,6,-1,8,-1,10,-1,-1,-1,-1],"split_conditions":[3.7763878E1,1.2977953E-1,3.6871514E-1,-2.2853939E-2,2.659977E-1,5.1610064E-2,9.314342E-1,5.4523315E-2,-2.2381952E-2,-3.4658723E-2,3.2165054E-2],"split_indices":[0,2,13,0,5,0,13,0,0,0,0],"split_type":[0,0,0,0,0,0,0,0,0,0,0],"sum_hessian":[4.070281E1,1.4837459E1,2.586535E1,1.5579549E0,1.3279504E1,2.6325164E0,2.3232834E1,1.1691841E1,1.5876625E0,1.962603E1,3.606803E0],"tree_param":{"num_deleted":"0","num_feature":"25","num_nodes":"11","size_leaf_vector":"1"}},{"base_weights":[-8.99184E-3,-3.8127083E-1,1.0688176E0,4.975934E-2,-5.7055676E-1,2.057985E-2,5.8732886E-2,-2.0024101E-1,-3.29069E-2,-4.6462598E-1,2.5373394E-2,-6.307134E-3,-2.725603E-2],"categories":[],"categories_nodes":[],"categories_segments":[],"categories_sizes":[],"default_left":[0,0,0,0,0,0,0,0,0,0,0,0,0],"id":8,"left_children":[1,3,5,-1,7,-1,-1,9,-1,11,-1,-1,-1],"loss_changes":[1.533349E1,7.9636416E0,1.9911003E-1,0E0,6.981678E-1,0E0,0E0,1.4205241E0,0E0,7.105851E-2,0E0,0E0,0E0],"parents":[2147483647,0,0,1,1,2,2,4,4,7,7,9,9],"right_children":[2,4,6,-1,8,-1,-1,10,-1,12,-1,-1,-1],"split_conditions":[3.933611E-1,-2.1832763E-1,4.6804795E-1,4.975934E-2,1.0973581E-1,2.057985E-2,5.8732886E-2,1.4399882E-1,-3.29069E-2,-2.0456947E-1,2.5373394E-2,-6.307134E-3,-2.725603E-2],"split_indices":[6,2,6,0,1,0,0,2,0,1,0,0,0],"split_type":[0,0,0,0,0,0,0,0,0,0,0,0,0],"sum_hessian":[3.6199093E1,2.7386099E1,8.812996E0,2.7960534E0,2.4590046E1,1.9005101E0,6.9124856E0,5.331873E0,1.9258173E1,4.131799E0,1.2000736E0,1.287001E0,2.844798E0],"tree_param":{"num_deleted":"0","num_feature":"25","num_nodes":"13","size_leaf_vector":"1"}},{"base_weights":[-2.0224173E-2,-3.760559E-1,5.692367E-1,6.5203923E-1,-5.306721E-1,5.7495017E-2,-2.9472737E-2,3.9179634E-2,1.1390999E-2,-6.542499E-1,2.903972E-2,-3.442471E-2,-2.7985258E-3],"categories":[],"categories_nodes":[],"categories_segments":[],"categories_sizes":[],"default_left":[0,0,0,0,0,0,0,0,0,0,0,0,0],"id":9,"left_children":[1,3,5,7,9,-1,-1,-1,-1,11,-1,-1,-1],"loss_changes":[8.36316E0,4.2928576E0,1.0785143E1,2.7668476E-2,3.4202175E0,0E0,0E0,0E0,0E0,3.7920856E-1,0E0,0E0,0E0],"parents":[2147483647,0,0,1,1,2,2,3,3,4,4,9,9],"right_children":[2,4,6,8,10,-1,-1,-1,-1,12,-1,-1,-1],"split_conditions":[5.170455E-1,2.2653662E1,4.6804795E-1,-2.9783009E-2,8.396662E-1,5.7495017E-2,-2.9472737E-2,3.9179634E-2,1.1390999E-2,6.3427563E1,2.903972E-2,-3.442471E-2,-2.7985258E-3],"split_indices":[1,9,6,3,14,0,0,0,0,0,0,0,0],"split_type":[0,0,0,0,0,0,0,0,0,0,0,0,0],"sum_hessian":[3.7851677E1,2.3829115E1,1.402256E1,2.694608E0,2.1134508E1,9.346345E0,4.676216E0,1.4101651E0,1.2844429E0,1.9390003E1,1.7445046E0,1.8197618E1,1.1923854E0],"tree_param":{"num_deleted":"0","num_feature":"25","num_nodes":"13","size_leaf_vector":"1"}},{"base_weights":[1.9296223E-2,4.696122E-2,-1.8390007E-1,5.395981E-1,-4.5916015E-1,5.078357E-2,-2.6184684E-2,3.1667914E-2,-3.4356356E-2],"categories":[],"categories_nodes":[],"categories_segments":[],"categories_sizes":[],"default_left":[0,0,0,0,0,0,0,0,0],"id":10,"left_children":[1,-1,3,5,7,-1,-1,-1,-1],"loss_changes":[7.3240724E0,0E0,6.6548824E0,5.2530165E0,6.374192E0,0E0,0E0,0E0,0E0],"parents":[2147483647,0,0,2,2,3,3,4,4],"right_children":[2,-1,4,6,8,-1,-1,-1,-1],"split_conditions":[3.118971E1,4.696122E-2,3.310534E-1,4.6400177E-1,-3.45E-6,5.078357E-2,-2.6184684E-2,3.1667914E-2,-3.4356356E-2],"split_indices":[0,0,12,2,21,0,0,0,0],"split_type":[0,0,0,0,0,0,0,0,0],"sum_hessian":[3.7257645E1,6.0853343E0,3.1172312E1,8.326494E0,2.2845818E1,5.7823277E0,2.5441663E0,3.6370723E0,1.9208746E1],"tree_param":{"num_deleted":"0","num_feature":"25","num_nodes":"9","size_leaf_vector":"1"}},{"base_weights":[5.8953807E-2,5.4882985E-2,-2.0865227E-1,-4.5637575E-1,5.1574003E-2,3.589443E-2,-5.7904774E-1,-3.1109562E-2,-2.3390935E-1,9.089852E-3,-2.3656538E-2],"categories":[],"categories_nodes":[],"categories_segments":[],"categories_sizes":[],"default_left":[0,0,0,0,0,0,0,0,0,0,0],"id":11,"left_children":[1,-1,3,5,-1,-1,7,-1,9,-1,-1],"loss_changes":[1.0049354E1,0E0,9.359029E0,3.989328E0,0E0,0E0,1.9717455E-1,0E0,4.9968413E-1,0E0,0E0],"parents":[2147483647,0,0,2,2,3,3,6,6,8,8],"right_children":[2,-1,4,6,-1,-1,8,-1,10,-1,-1],"split_conditions":[-2.1832763E-1,5.4882985E-2,7.288136E-1,1.4285715E-1,5.1574003E-2,3.589443E-2,2.873E-5,-3.1109562E-2,1.7245431E0,9.089852E-3,-2.3656538E-2],"split_indices":[2,0,7,7,0,0,22,0,1,0,0],"split_type":[0,0,0,0,0,0,0,0,0,0,0],"sum_hessian":[3.432948E1,6.397188E0,2.7932291E1,2.3808418E1,4.1238728E0,1.7930019E0,2.2015417E1,1.8855663E1,3.159754E0,1.2418243E0,1.9179298E0],"tree_param":{"num_deleted":"0","num_feature":"25","num_nodes":"11","size_leaf_vector":"1"}},{"base_weights":[3.105634E-2,5.0823804E-2,-2.737542E-1,4.511481E-2,-4.3974218E-1,1.9468665E-1,-6.1115587E-1,6.936843E-1,-2.4555614E-2,-3.201416E-2,-6.940819E-3,1.0823508E-2,4.194021E-2],"categories":[],"categories_nodes":[],"categories_segments":[],"categories_sizes":[],"default_left":[0,0,0,0,0,0,0,0,0,0,0,0,0],"id":12,"left_children":[1,-1,3,-1,5,7,9,11,-1,-1,-1,-1,-1],"loss_changes":[1.1400285E1,0E0,6.071203E0,0E0,2.962285E0,2.503415E0,1.9763565E-1,1.0046899E-1,0E0,0E0,0E0,0E0,0E0],"parents":[2147483647,0,0,2,2,4,4,5,5,6,6,7,7],"right_children":[2,-1,4,-1,6,8,10,12,-1,-1,-1,-1,-1],"split_conditions":[-1.5266984E0,5.0823804E-2,2.6032323E-1,4.511481E-2,2.2465113E1,7.919334E-1,1.6831242E0,1.6778828E1,-2.4555614E-2,-3.201416E-2,-6.940819E-3,1.0823508E-2,4.194021E-2],"split_indices":[16,0,12,0,9,1,11,9,0,0,0,0,0],"split_type":[0,0,0,0,0,0,0,0,0,0,0,0,0],"sum_hessian":[3.6028187E1,7.9599023E0,2.8068283E1,2.9229336E0,2.514535E1,5.3198776E0,1.9825472E1,3.0726633E0,2.247214E0,1.8339018E1,1.4864538E0,1.2975256E0,1.7751377E0],"tree_param":{"num_deleted":"0","num_feature":"25","num_nodes":"13","size_leaf_vector":"1"}},{"base_weights":[-2.2676362E-2,5.6792015E-1,-4.5301238E-1,8.83853E-1,-2.7586577E-2,-3.37497E-2,5.3511626E-1,5.2383035E-2,4.2395616E-1,-2.0067142E-2,4.706102E-2,4.5383047E-2,-2.2632912E-2],"categories":[],"categories_nodes":[],"categories_segments":[],"categories_sizes":[],"default_left":[0,0,0,0,0,0,0,0,0,0,0,0,0],"id":13,"left_children":[1,3,5,7,-1,-1,9,-1,11,-1,-1,-1,-1],"loss_changes":[1.05189905E1,6.6647954E0,5.6064706E0,6.108179E-1,0E0,0E0,2.2581098E0,0E0,2.682638E0,0E0,0E0,0E0,0E0],"parents":[2147483647,0,0,1,1,2,2,3,3,6,6,8,8],"right_children":[2,4,6,8,-1,-1,10,-1,12,-1,-1,-1,-1],"split_conditions":[3.6775056E-1,5.170455E-1,9.314342E-1,3.310534E-1,-2.7586577E-2,-3.37497E-2,9.36171E-2,5.2383035E-2,2.9662262E1,-2.0067142E-2,4.706102E-2,4.5383047E-2,-2.2632912E-2],"split_indices":[12,1,13,12,0,0,10,0,0,0,0,0,0],"split_type":[0,0,0,0,0,0,0,0,0,0,0,0,0],"sum_hessian":[3.9375824E1,1.6462648E1,2.2913177E1,1.30039215E1,3.458726E0,1.896877E1,3.944409E0,8.64624E0,4.3576813E0,1.1966676E0,2.7477412E0,2.785346E0,1.5723352E0],"tree_param":{"num_deleted":"0","num_feature":"25","num_nodes":"13","size_leaf_vector":"1"}},{"base_weights":[-5.320239E-2,8.5153186E-1,-4.2601538E-1,-2.7666332E-3,5.1667847E-2,-5.866613E-1,4.403001E-2,-3.5619017E-1,-3.376059E-2,-5.357638E-1,1.7585723E-2,-2.9931245E-2,-8.208076E-3],"categories":[],"categories_nodes":[],"categories_segments":[],"categories_sizes":[],"default_left":[0,0,0,0,0,0,0,0,0,0,0,0,0],"id":14,"left_children":[1,3,5,-1,-1,7,-1,9,-1,11,-1,-1,-1],"loss_changes":[1.3871689E1,2.0393295E0,6.609994E0,0E0,0E0,2.9932404E-1,0E0,1.3908211E0,0E0,8.7225914E-2,0E0,0E0,0E0],"parents":[2147483647,0,0,1,1,2,2,5,5,7,7,9,9],"right_children":[2,4,6,-1,-1,8,-1,10,-1,12,-1,-1,-1],"split_conditions":[2.7234184E-2,2.117432E1,6.987952E-1,-2.7666332E-3,5.1667847E-2,-3.1407824E-1,4.403001E-2,9.0651226E-1,-3.376059E-2,3.680739E1,1.7585723E-2,-2.9931245E-2,-8.208076E-3],"split_indices":[2,9,7,0,0,3,0,11,0,0,0,0,0],"split_type":[0,0,0,0,0,0,0,0,0,0,0,0,0],"sum_hessian":[3.9050568E1,1.1020993E1,2.8029575E1,1.9568347E0,9.064159E0,2.5451382E1,2.5781925E0,8.45859E0,1.6992792E1,6.941033E0,1.5175569E0,5.414222E0,1.5268114E0],"tree_param":{"num_deleted":"0","num_feature":"25","num_nodes":"13","size_leaf_vector":"1"}},{"base_weights":[3.6877513E-2,5.132878E-2,-2.2404474E-1,4.3311078E-2,-3.7262568E-1,5.3201735E-1,-5.048101E-1,-3.0927013E-3,4.0361766E-2,-6.766829E-2,-3.346659E-2,5.49806E-1,-2.802505E-2,3.8314678E-2,6.4463145E-3],"categories":[],"categories_nodes":[],"categories_segments":[],"categories_sizes":[],"default_left":[0,0,0,0,0,0,0,0,0,0,0,0,0,0,0],"id":15,"left_children":[1,-1,3,-1,5,7,9,-1,-1,11,-1,13,-1,-1,-1],"loss_changes":[9.911602E0,0E0,5.2619987E0,0E0,3.5609257E0,7.032186E-1,1.7193007E0,0E0,0E0,2.6883802E0,0E0,2.635343E-1,0E0,0E0,0E0],"parents":[2147483647,0,0,2,2,4,4,5,5,6,6,9,9,11,11],"right_children":[2,-1,4,-1,6,8,10,-1,-1,12,-1,14,-1,-1,-1],"split_conditions":[-1.5266984E0,5.132878E-2,2.6032323E-1,4.3311078E-2,1.1442007E-1,2.1796523E-1,-9.8065175E-2,-3.0927013E-3,4.0361766E-2,6.171856E-1,-3.346659E-2,5.4807884E-1,-2.802505E-2,3.8314678E-2,6.4463145E-3],"split_indices":[16,0,12,0,4,1,1,0,0,12,0,4,0,0,0],"split_type":[0,0,0,0,0,0,0,0,0,0,0,0,0,0,0],"sum_hessian":[3.6491558E1,7.0011706E0,2.9490387E1,2.9576437E0,2.6532743E1,2.9970107E0,2.3535732E1,1.1945782E0,1.8024327E0,6.8216343E0,1.6714098E1,2.9766102E0,3.845024E0,1.4236393E0,1.5529709E0],"tree_param":{"num_deleted":"0","num_feature":"25","num_nodes":"15","size_leaf_vector":"1"}},{"base_weights":[-1.9500058E-2,5.830285E-1,-3.995084E-1,4.190531E-2,-2.4499683E-2,-3.2700077E-2,5.134296E-1,-1.9839492E-2,4.513263E-2],"categories":[],"categories_nodes":[],"categories_segments":[],"categories_sizes":[],"default_left":[0,0,0,0,0,0,0,0,0],"id":16,"left_children":[1,3,5,-1,-1,-1,7,-1,-1],"loss_changes":[7.573978E0,3.9159665E0,5.041731E0,0E0,0E0,0E0,2.1209285E0,0E0,0E0],"parents":[2147483647,0,0,1,1,2,2,6,6],"right_children":[2,4,6,-1,-1,-1,8,-1,-1],"split_conditions":[3.7763878E1,3.6775056E-1,9.314342E-1,4.190531E-2,-2.4499683E-2,-3.2700077E-2,9.36171E-2,-1.9839492E-2,4.513263E-2],"split_indices":[0,12,13,0,0,0,10,0,0],"split_type":[0,0,0,0,0,0,0,0,0],"sum_hessian":[3.106178E1,1.18069E1,1.925488E1,9.716124E0,2.090777E0,1.5279229E1,3.9756508E0,1.1850067E0,2.7906442E0],"tree_param":{"num_deleted":"0","num_feature":"25","num_nodes":"9","size_leaf_vector":"1"}},{"base_weights":[5.5756245E-2,6.7819375E-1,-3.5432175E-1,-2.2274388E-1,4.8166167E-2,-3.1194896E-2,4.3876447E-2,-2.2433518E-2,6.4808913E-3],"categories":[],"categories_nodes":[],"categories_segments":[],"categories_sizes":[],"default_left":[0,0,0,0,0,0,0,0,0],"id":17,"left_children":[1,3,5,7,-1,-1,-1,-1,-1],"loss_changes":[8.336533E0,3.5388703E0,7.115402E0,3.704706E-1,0E0,0E0,0E0,0E0,0E0],"parents":[2147483647,0,0,1,1,2,2,3,3],"right_children":[2,4,6,8,-1,-1,-1,-1,-1],"split_conditions":[1.1466292E-1,2.2653662E1,6.987952E-1,2.622665E-1,4.8166167E-2,-3.1194896E-2,4.3876447E-2,-2.2433518E-2,6.4808913E-3],"split_indices":[1,9,7,5,0,0,0,0,0],"split_type":[0,0,0,0,0,0,0,0,0],"sum_hessian":[3.0719099E1,1.1940847E1,1.8778252E1,2.923168E0,9.017679E0,1.5811596E1,2.9666555E0,1.6145996E0,1.3085684E0],"tree_param":{"num_deleted":"0","num_feature":"25","num_nodes":"9","size_leaf_vector":"1"}},{"base_weights":[-5.1321246E-2,3.5764825E-1,-4.2717466E-1,4.7292825E-2,-4.4355422E-1,-5.496708E-1,2.520736E-2,6.571448E-3,-2.9635498E-2,2.9438019E-2,-3.3044107E-2],"categories":[],"categories_nodes":[],"categories_segments":[],"categories_sizes":[],"default_left":[0,0,0,0,0,0,0,0,0,0,0],"id":18,"left_children":[1,3,5,-1,7,9,-1,-1,-1,-1,-1],"loss_changes":[5.8200088E0,8.997167E0,2.5209134E0,0E0,7.9711235E-1,2.6503224E0,0E0,0E0,0E0,0E0,0E0],"parents":[2147483647,0,0,1,1,2,2,4,4,5,5],"right_children":[2,4,6,-1,8,10,-1,-1,-1,-1,-1],"split_conditions":[2.549405E1,5.964912E-1,8.396662E-1,4.7292825E-2,-1.23165965E-1,2.6032323E-1,2.520736E-2,6.571448E-3,-2.9635498E-2,2.9438019E-2,-3.3044107E-2],"split_indices":[9,7,14,0,2,12,0,0,0,0,0],"split_type":[0,0,0,0,0,0,0,0,0,0,0],"sum_hessian":[3.5869007E1,1.7200943E1,1.8668064E1,9.814797E0,7.386145E0,1.6860243E1,1.8078216E0,1.5458531E0,5.840292E0,1.1183205E0,1.5741922E1],"tree_param":{"num_deleted":"0","num_feature":"25","num_nodes":"11","size_leaf_vector":"1"}},{"base_weights":[1.09351836E-1,6.370572E-1,-2.3821296E-1,7.71224E-1,-2.0748759E-2,4.272311E-1,-3.9787573E-1,-2.0490043E-2,4.5398373E-2,-2.1153092E-2,4.328696E-2,2.974288E-1,-3.2250457E-2,-2.4201857E-2,4.4825E-2],"categories":[],"categories_nodes":[],"categories_segments":[],"categories_sizes":[],"default_left":[0,0,0,0,0,0,0,0,0,0,0,0,0,0,0],"id":19,"left_children":[1,3,5,7,-1,9,11,-1,-1,-1,-1,13,-1,-1,-1],"loss_changes":[7.5084996E0,2.6066098E0,2.8166637E0,2.7489023E0,0E0,2.3433802E0,3.7330008E0,0E0,0E0,0E0,0E0,3.2842603E0,0E0,0E0,0E0],"parents":[2147483647,0,0,1,1,2,2,3,3,5,5,6,6,11,11],"right_children":[2,4,6,8,-1,10,12,-1,-1,-1,-1,14,-1,-1,-1],"split_conditions":[3.7763878E1,2.659977E-1,1.3356256E1,2.621543E-1,-2.0748759E-2,1.2940171E1,2.7757055E-1,-2.0490043E-2,4.5398373E-2,-2.1153092E-2,4.328696E-2,2.7601734E-1,-3.2250457E-2,-2.4201857E-2,4.4825E-2],"split_indices":[0,5,9,6,0,9,6,0,0,0,0,6,0,0,0],"split_type":[0,0,0,0,0,0,0,0,0,0,0,0,0,0,0],"sum_hessian":[3.911053E1,1.5199823E1,2.3910707E1,1.3717354E1,1.4824694E0,4.3025723E0,1.9608137E1,1.2162235E0,1.250113E1,1.4759136E0,2.8266585E0,5.0884304E0,1.4519706E1,2.2914023E0,2.797028E0],"tree_param":{"num_deleted":"0","num_feature":"25","num_nodes":"15","size_leaf_vector":"1"}},{"base_weights":[-1.5669458E-2,4.8956256E-2,-3.0429256E-1,-5.486181E-1,4.5639373E-2,-6.1236405E-1,-1.643871E-1,-9.617323E-3,-3.3465594E-2,2.4481958E-2,-2.5448242E-2],"categories":[],"categories_nodes":[],"categories_segments":[],"categories_sizes":[],"default_left":[0,0,0,0,0,0,0,0,0,0,0],"id":20,"left_children":[1,-1,3,5,-1,7,9,-1,-1,-1,-1],"loss_changes":[1.0953187E1,0E0,9.2813E0,5.169525E-1,0E0,3.797984E-1,1.3659066E0,0E0,0E0,0E0,0E0],"parents":[2147483647,0,0,2,2,3,3,5,5,6,6],"right_children":[2,-1,4,6,-1,8,10,-1,-1,-1,-1],"split_conditions":[-2.185202E-1,4.8956256E-2,7.3170733E-1,7.0775574E-1,4.5639373E-2,8.879973E-2,3.3333566E-2,-9.617323E-3,-3.3465594E-2,2.4481958E-2,-2.5448242E-2],"split_indices":[2,0,7,4,0,5,8,0,0,0,0],"split_type":[0,0,0,0,0,0,0,0,0,0,0],"sum_hessian":[3.6110683E1,7.5827813E0,2.8527905E1,2.4215868E1,4.3120365E0,2.026076E1,3.955108E0,2.941723E0,1.7319036E1,1.2194831E0,2.7356248E0],"tree_param":{"num_deleted":"0","num_feature":"25","num_nodes":"11","size_leaf_vector":"1"}},{"base_weights":[3.1361498E-2,4.6704825E-2,-1.9190145E-1,7.4611604E-1,-4.7742626E-1,-2.4691436E-3,4.565559E-2,3.4590378E-1,-5.8936805E-1,-3.799867E-3,3.126237E-2,-1.12607945E-2,-6.1625E-1,-3.256467E-2,-2.4708538E-1,-1.7494488E-3,-1.7401638E-2],"categories":[],"categories_nodes":[],"categories_segments":[],"categories_sizes":[],"default_left":[0,0,0,0,0,0,0,0,0,0,0,0,0,0,0,0,0],"id":21,"left_children":[1,-1,3,5,7,-1,-1,9,11,-1,-1,-1,13,-1,15,-1,-1],"loss_changes":[7.1004686E0,0E0,7.952053E0,9.7613454E-1,2.2639809E0,0E0,0E0,4.3708843E-1,5.745268E-2,0E0,0E0,0E0,7.3138714E-2,0E0,5.590558E-2,0E0,0E0],"parents":[2147483647,0,0,2,2,3,3,4,4,7,7,8,8,12,12,14,14],"right_children":[2,-1,4,6,8,-1,-1,10,12,-1,-1,-1,14,-1,16,-1,-1],"split_conditions":[-1.462164E0,4.6704825E-2,5.6909597E-1,2.1796523E-1,2.8360236E-1,-2.4691436E-3,4.565559E-2,1.3815346E-1,-3.600936E-2,-3.799867E-3,3.126237E-2,-1.12607945E-2,1.4043681E-1,-3.256467E-2,3.4612414E-1,-1.7494488E-3,-1.7401638E-2],"split_indices":[16,0,13,1,6,0,0,5,10,0,0,0,10,0,6,0,0],"split_type":[0,0,0,0,0,0,0,0,0,0,0,0,0,0,0,0,0],"sum_hessian":[3.33404E1,5.979445E0,2.7360956E1,6.008489E0,2.1352468E1,1.1646869E0,4.843802E0,2.305503E0,1.9046965E1,1.2083853E0,1.0971175E0,1.9540912E0,1.7092873E1,1.4913E1,2.1798735E0,1.1371853E0,1.042688E0],"tree_param":{"num_deleted":"0","num_feature":"25","num_nodes":"17","size_leaf_vector":"1"}},{"base_weights":[1.06191054E-1,-3.0913403E-2,3.5251614E-1,7.363525E-1,-2.301329E-1,-1.920636E-2,8.3591133E-1,2.733322E-2,-3.0413482E-2,4.7221903E-2,-1.8378355E-2],"categories":[],"categories_nodes":[],"categories_segments":[],"categories_sizes":[],"default_left":[0,0,0,0,0,0,0,0,0,0,0],"id":22,"left_children":[1,-1,3,5,7,-1,9,-1,-1,-1,-1],"loss_changes":[7.323266E0,0E0,6.957047E0,2.3887281E0,4.096854E0,0E0,2.6115503E0,0E0,0E0,0E0,0E0],"parents":[2147483647,0,0,2,2,3,3,4,4,6,6],"right_children":[2,-1,4,6,8,-1,10,-1,-1,-1,-1],"split_conditions":[-5.995144E-3,-3.0913403E-2,3.7931034E-1,2.5947998E1,1.3356256E1,-1.920636E-2,3.77644E1,2.733322E-2,-3.0413482E-2,4.7221903E-2,-1.8378355E-2],"split_indices":[2,0,7,9,9,0,9,0,0,0,0],"split_type":[0,0,0,0,0,0,0,0,0,0,0],"sum_hessian":[3.88163E1,9.466043E0,2.9350256E1,1.753487E1,1.1815387E1,1.1976532E0,1.6337217E1,3.7225535E0,8.0928335E0,1.51832695E1,1.1539471E0],"tree_param":{"num_deleted":"0","num_feature":"25","num_nodes":"11","size_leaf_vector":"1"}},{"base_weights":[-1.3417481E-2,7.6125157E-1,-3.872633E-1,3.550379E-1,4.9852457E-2,-2.8726889E-2,3.4303606E-2,4.0879067E-2,-1.5901074E-2],"categories":[],"categories_nodes":[],"categories_segments":[],"categories_sizes":[],"default_left":[0,0,0,0,0,0,0,0,0],"id":23,"left_children":[1,3,5,7,-1,-1,-1,-1,-1],"loss_changes":[1.1301948E1,8.633003E-1,5.680396E0,2.1966138E0,0E0,0E0,0E0,0E0,0E0],"parents":[2147483647,0,0,1,1,2,2,3,3],"right_children":[2,4,6,8,-1,-1,-1,-1,-1],"split_conditions":[1.0973581E-1,5.6643605E-1,6.987952E-1,-2.185202E-1,4.9852457E-2,-2.8726889E-2,3.4303606E-2,4.0879067E-2,-1.5901074E-2],"split_indices":[1,4,7,2,0,0,0,0,0],"split_type":[0,0,0,0,0,0,0,0,0],"sum_hessian":[3.70072E1,1.170867E1,2.529853E1,5.220642E0,6.488027E0,2.1935896E1,3.362635E0,2.966953E0,2.2536893E0],"tree_param":{"num_deleted":"0","num_feature":"25","num_nodes":"9","size_leaf_vector":"1"}},{"base_weights":[-7.6875696E-4,4.2429447E-2,-2.404643E-1,2.6984692E-1,-5.4132E-1,-1.498617E-1,4.2140055E-2,-3.1519238E-2,-3.0658454E-1,-3.8366127E-1,3.3119265E-2,1.216143E-1,-2.7114455E-2,-2.8619414E-2,1.1249785E-2,-1.6763443E-2,2.2805234E-2],"categories":[],"categories_nodes":[],"categories_segments":[],"categories_sizes":[],"default_left":[0,0,0,0,0,0,0,0,0,0,0,0,0,0,0,0,0],"id":24,"left_children":[1,-1,3,5,7,9,-1,-1,11,13,-1,15,-1,-1,-1,-1,-1],"loss_changes":[7.8245344E0,0E0,4.7476497E0,2.959965E0,2.0789385E-1,1.7069715E0,0E0,0E0,7.9513204E-1,8.839091E-1,0E0,6.6973597E-1,0E0,0E0,0E0,0E0,0E0],"parents":[2147483647,0,0,2,2,3,3,4,4,5,5,8,8,9,9,11,11],"right_children":[2,-1,4,6,8,10,-1,-1,12,14,-1,16,-1,-1,-1,-1,-1],"split_conditions":[-1.462164E0,4.2429447E-2,3.8949552E-1,5.9635085E-1,9.175483E-1,1.5039687E-1,4.2140055E-2,-3.1519238E-2,1.269727E0,2.5815716E-1,3.3119265E-2,-2.215492E-1,-2.7114455E-2,-2.8619414E-2,1.1249785E-2,-1.6763443E-2,2.2805234E-2],"split_indices":[16,0,4,1,11,10,0,0,11,4,0,2,0,0,0,0,0],"split_type":[0,0,0,0,0,0,0,0,0,0,0,0,0,0,0,0,0],"sum_hessian":[3.643102E1,7.459194E0,2.8971827E1,1.078366E1,1.8188166E1,6.650431E0,4.133229E0,1.1963423E1,6.2247434E0,5.573727E0,1.0767038E0,2.3818085E0,3.842935E0,4.300007E0,1.2737205E0,1.005737E0,1.3760716E0],"tree_param":{"num_deleted":"0","num_feature":"25","num_nodes":"17","size_leaf_vector":"1"}},{"base_weights":[2.3269987E-2,6.3167137E-1,-4.1331008E-1,7.459107E-1,-2.0816406E-2,-3.1793963E-2,2.6935956E-2,5.129656E-1,4.7085863E-2,-2.3996616E-2,4.179555E-2],"categories":[],"categories_nodes":[],"categories_segments":[],"categories_sizes":[],"default_left":[0,0,0,0,0,0,0,0,0,0,0],"id":25,"left_children":[1,3,5,7,-1,-1,-1,9,-1,-1,-1],"loss_changes":[1.0025864E1,2.196722E0,5.0059414E0,1.8123722E-1,0E0,0E0,0E0,3.2382278E0,0E0,0E0,0E0],"parents":[2147483647,0,0,1,1,2,2,3,3,7,7],"right_children":[2,4,6,8,-1,-1,-1,10,-1,-1,-1],"split_conditions":[3.7763878E1,6.60905E-1,9.314342E-1,3.75E-1,-2.0816406E-2,-3.1793963E-2,2.6935956E-2,6.4044183E-1,4.7085863E-2,-2.3996616E-2,4.179555E-2],"split_indices":[0,13,13,7,0,0,0,13,0,0,0],"split_type":[0,0,0,0,0,0,0,0,0,0,0],"sum_hessian":[3.576281E1,1.4754557E1,2.1008253E1,1.3564216E1,1.1903418E0,1.7296654E1,3.7116005E0,7.8477483E0,5.716467E0,1.8067555E0,6.0409927E0],"tree_param":{"num_deleted":"0","num_feature":"25","num_nodes":"11","size_leaf_vector":"1"}},{"base_weights":[3.7985034E-2,7.216854E-1,-3.4616116E-1,-6.4629684E-3,8.3246344E-1,2.479265E-1,-5.652566E-1,5.846726E-3,4.5832943E-2,-2.5353003E-2,4.045868E-2,-3.4176335E-3,-5.990674E-1,-1.1030294E-2,-3.1621635E-2],"categories":[],"categories_nodes":[],"categories_segments":[],"categories_sizes":[],"default_left":[0,0,0,0,0,0,0,0,0,0,0,0,0,0,0],"id":26,"left_children":[1,3,5,-1,7,9,11,-1,-1,-1,-1,-1,13,-1,-1],"loss_changes":[8.974447E0,1.2646518E0,2.996487E0,0E0,5.551877E-1,3.210175E0,2.3352432E-1,0E0,0E0,0E0,0E0,0E0,5.20072E-2,0E0,0E0],"parents":[2147483647,0,0,1,1,2,2,4,4,5,5,6,6,12,12],"right_children":[2,4,6,-1,8,10,12,-1,-1,-1,-1,-1,14,-1,-1],"split_conditions":[2.7234184E-2,1.8727028E1,2.8066231E-2,-6.4629684E-3,4.1489235E-1,2.9662262E1,-1.4901483E0,5.846726E-3,4.5832943E-2,-2.5353003E-2,4.045868E-2,-3.4176335E-3,8.27446E-2,-1.1030294E-2,-3.1621635E-2],"split_indices":[2,9,10,0,12,0,17,0,0,0,0,0,10,0,0],"split_type":[0,0,0,0,0,0,0,0,0,0,0,0,0,0,0],"sum_hessian":[3.221884E1,1.1274285E1,2.0944557E1,1.2794344E0,9.99485E0,5.6076245E0,1.5336933E1,1.3037632E0,8.691088E0,2.4322808E0,3.1753435E0,1.1695879E0,1.4167346E1,1.7645018E0,1.2402843E1],"tree_param":{"num_deleted":"0","num_feature":"25","num_nodes":"15","size_leaf_vector":"1"}},{"base_weights":[-3.4620345E-2,-2.6806206E-1,8.1221044E-1,3.1114984E-2,-3.979031E-1,1.2580703E-2,4.311207E-2,3.2525938E-2,-5.0627464E-1,-2.1820547E-1,-3.1636264E-2,2.6819503E-2,-2.8530678E-2],"categories":[],"categories_nodes":[],"categories_segments":[],"categories_sizes":[],"default_left":[0,0,0,0,0,0,0,0,0,0,0,0,0],"id":27,"left_children":[1,3,5,-1,7,-1,-1,-1,9,11,-1,-1,-1],"loss_changes":[7.396225E0,3.6253264E0,1.00951195E-2,0E0,3.295825E0,0E0,0E0,0E0,7.443838E-1,2.6771834E0,0E0,0E0,0E0],"parents":[2147483647,0,0,1,1,2,2,4,4,8,8,9,9],"right_children":[2,4,6,-1,8,-1,-1,-1,10,12,-1,-1,-1],"split_conditions":[8.1525064E-1,1.1442007E-1,3.5594795E1,3.1114984E-2,2.5571302E-1,1.2580703E-2,4.311207E-2,3.2525938E-2,-1.22110225E-1,6.171856E-1,-3.1636264E-2,2.6819503E-2,-2.8530678E-2],"split_indices":[14,4,0,0,12,0,0,0,2,12,0,0,0],"split_type":[0,0,0,0,0,0,0,0,0,0,0,0,0],"sum_hessian":[3.5312717E1,2.821757E1,7.0951476E0,3.1085389E0,2.5109032E1,1.075324E0,6.0198236E0,1.8836179E0,2.3225414E1,7.9164505E0,1.5308963E1,2.3539572E0,5.5624933E0],"tree_param":{"num_deleted":"0","num_feature":"25","num_nodes":"13","size_leaf_vector":"1"}},{"base_weights":[-1.6832142E-1,4.2957988E-1,-4.1396183E-1,-2.5450239E-2,3.8083743E-2,-3.1437714E-2,4.3461293E-1,-1.9586064E-2,3.9158046E-2],"categories":[],"categories_nodes":[],"categories_segments":[],"categories_sizes":[],"default_left":[0,0,0,0,0,0,0,0,0],"id":28,"left_children":[1,3,5,-1,-1,-1,7,-1,-1],"loss_changes":[4.6400013E0,3.298354E0,4.291169E0,0E0,0E0,0E0,1.7595439E0,0E0,0E0],"parents":[2147483647,0,0,1,1,2,2,6,6],"right_children":[2,4,6,-1,-1,-1,8,-1,-1],"split_conditions":[1.1702391E-1,9.31415E-2,9.314342E-1,-2.5450239E-2,3.8083743E-2,-3.1437714E-2,9.36171E-2,-1.9586064E-2,3.9158046E-2],"split_indices":[5,5,13,0,0,0,10,0,0],"split_type":[0,0,0,0,0,0,0,0,0],"sum_hessian":[2.9382038E1,8.33803E0,2.1044008E1,2.0399387E0,6.298092E0,1.6999992E1,4.044016E0,1.1629765E0,2.8810391E0],"tree_param":{"num_deleted":"0","num_feature":"25","num_nodes":"9","size_leaf_vector":"1"}},{"base_weights":[-1.04144454E-1,-2.9817945E-1,4.216976E-2,5.8010006E-1,-4.8904485E-1,1.5282052E-3,3.8992587E-2,-1.3625075E-1,-5.7967836E-1,-2.7928147E-2,2.9361013E-2,-1.062253E-2,-3.1732496E-2],"categories":[],"categories_nodes":[],"categories_segments":[],"categories_sizes":[],"default_left":[0,0,0,0,0,0,0,0,0,0,0,0,0],"id":29,"left_children":[1,3,-1,5,7,-1,-1,9,11,-1,-1,-1,-1],"loss_changes":[6.8861203E0,5.4285717E0,0E0,6.278156E-1,7.445278E-1,0E0,0E0,2.3357544E0,2.7261353E-1,0E0,0E0,0E0,0E0],"parents":[2147483647,0,0,1,1,3,3,4,4,7,7,8,8],"right_children":[2,4,-1,6,8,-1,-1,10,12,-1,-1,-1,-1],"split_conditions":[7.288136E-1,-2.2214875E-1,4.216976E-2,-7.054393E-2,1.0973581E-1,1.5282052E-3,3.8992587E-2,2.8617237E1,1.0927498E-2,-2.7928147E-2,2.9361013E-2,-1.062253E-2,-3.1732496E-2],"split_indices":[7,1,0,3,1,0,0,9,10,0,0,0,0],"split_type":[0,0,0,0,0,0,0,0,0,0,0,0,0],"sum_hessian":[3.5086086E1,2.9691284E1,5.3948007E0,4.936473E0,2.4754812E1,1.623388E0,3.3130846E0,5.5713696E0,1.9183441E1,3.661803E0,1.9095665E0,3.1311445E0,1.6052298E1],"tree_param":{"num_deleted":"0","num_feature":"25","num_nodes":"13","size_leaf_vector":"1"}},{"base_weights":[4.191717E-2,-1.8392752E-1,4.2231143E-2,3.7785728E-2,-3.45212E-1,1.4301944E-1,-5.884735E-1,3.8864765E-2,-2.658757E-2,-3.114349E-2,-1.02201775E-2],"categories":[],"categories_nodes":[],"categories_segments":[],"categories_sizes":[],"default_left":[0,0,0,0,0,0,0,0,0,0,0],"id":30,"left_children":[1,3,-1,-1,5,7,9,-1,-1,-1,-1],"loss_changes":[6.420451E0,4.472737E0,0E0,0E0,2.9829144E0,4.2314777E0,9.046984E-2,0E0,0E0,0E0,0E0],"parents":[2147483647,0,0,1,1,4,4,5,5,6,6],"right_children":[2,4,-1,-1,6,8,10,-1,-1,-1,-1],"split_conditions":[2.4813011E-2,2.6032323E-1,4.2231143E-2,3.7785728E-2,2.2653662E1,-1.704E-5,6.0425533E1,3.8864765E-2,-2.658757E-2,-3.114349E-2,-1.02201775E-2],"split_indices":[8,12,0,0,9,22,0,0,0,0,0],"split_type":[0,0,0,0,0,0,0,0,0,0,0],"sum_hessian":[3.355906E1,2.6791906E1,6.767152E0,3.385048E0,2.3406858E1,7.9211006E0,1.5485757E1,4.004749E0,3.9163516E0,1.3642235E1,1.8435221E0],"tree_param":{"num_deleted":"0","num_feature":"25","num_nodes":"11","size_leaf_vector":"1"}},{"base_weights":[-4.2003658E-1,3.1805273E-2,-3.1821072E-2],"categories":[],"categories_nodes":[],"categories_segments":[],"categories_sizes":[],"default_left":[0,0,0],"id":31,"left_children":[1,-1,-1],"loss_changes":[5.6834955E0,0E0,0E0],"parents":[2147483647,0,0],"right_children":[2,-1,-1],"split_conditions":[3.118971E1,3.1805273E-2,-3.1821072E-2],"split_indices":[0,0,0],"split_type":[0,0,0],"sum_hessian":[2.2098026E1,3.4277916E0,1.8670235E1],"tree_param":{"num_deleted":"0","num_feature":"25","num_nodes":"3","size_leaf_vector":"1"}},{"base_weights":[-1.6029865E-2,-3.4670892E-1,8.061923E-1,3.752998E-2,-4.9611723E-1,9.739414E-3,4.306356E-2,-1.9112325E-1,-6.012675E-1,3.7792694E-2,-2.4350015E-2,-3.1668622E-2,-9.657613E-3],"categories":[],"categories_nodes":[],"categories_segments":[],"categories_sizes":[],"default_left":[0,0,0,0,0,0,0,0,0,0,0,0,0],"id":32,"left_children":[1,3,5,-1,7,-1,-1,9,11,-1,-1,-1,-1],"loss_changes":[1.0329486E1,4.808878E0,1.9938517E-1,0E0,6.6822577E-1,0E0,0E0,2.5329916E0,1.0948706E-1,0E0,0E0,0E0,0E0],"parents":[2147483647,0,0,1,1,2,2,4,4,7,7,8,8],"right_children":[2,4,6,-1,8,-1,-1,10,12,-1,-1,-1,-1],"split_conditions":[4.017011E-1,-2.1832763E-1,1.2808839E1,3.752998E-2,2.8066231E-2,9.739414E-3,4.306356E-2,8.879973E-2,3.88E-6,3.7792694E-2,-2.4350015E-2,-3.1668622E-2,-9.657613E-3],"split_indices":[6,2,9,0,10,0,0,5,21,0,0,0,0],"split_type":[0,0,0,0,0,0,0,0,0,0,0,0,0],"sum_hessian":[3.596315E1,2.6060526E1,9.902625E0,2.6409106E0,2.3419615E1,1.1932677E0,8.709357E0,6.726542E0,1.6693073E1,1.2312406E0,5.4953012E0,1.4963967E1,1.729106E0],"tree_param":{"num_deleted":"0","num_feature":"25","num_nodes":"13","size_leaf_vector":"1"}},{"base_weights":[-3.828199E-2,7.680726E-1,-2.576502E-1,1.1667567E-2,4.0738404E-2,3.3790894E-2,-3.6821628E-1,2.857978E-2,-4.6663943E-1,-7.059843E-2,-3.1848013E-2,-2.7531926E-2,3.2096427E-2],"categories":[],"categories_nodes":[],"categories_segments":[],"categories_sizes":[],"default_left":[0,0,0,0,0,0,0,0,0,0,0,0,0],"id":33,"left_children":[1,3,5,-1,-1,-1,7,-1,9,11,-1,-1,-1],"loss_changes":[6.979273E0,2.0867348E-2,3.4366708E0,0E0,0E0,0E0,2.8810463E0,0E0,1.7179003E0,3.4263668E0,0E0,0E0,0E0],"parents":[2147483647,0,0,1,1,2,2,6,6,8,8,9,9],"right_children":[2,4,6,-1,-1,-1,8,-1,10,12,-1,-1,-1],"split_conditions":[-1.462164E0,3.7383178E-1,2.5571302E-1,1.1667567E-2,4.0738404E-2,3.3790894E-2,1.1442007E-1,2.857978E-2,-8.560058E-2,-2.185202E-1,-3.1848013E-2,-2.7531926E-2,3.2096427E-2],"split_indices":[16,7,12,0,0,0,4,0,2,2,0,0,0],"split_type":[0,0,0,0,0,0,0,0,0,0,0,0,0],"sum_hessian":[3.733701E1,7.450208E0,2.98868E1,1.0800132E0,6.370195E0,2.6236827E0,2.7263117E1,2.128756E0,2.5134361E1,7.983987E0,1.7150373E1,4.9059668E0,3.07802E0],"tree_param":{"num_deleted":"0","num_feature":"25","num_nodes":"13","size_leaf_vector":"1"}},{"base_weights":[4.9371157E-2,5.3625554E-1,-3.7073663E-1,-2.5061328E-2,4.0196333E-2,-3.0617207E-2,4.7456244E-1,3.8586047E-2,-1.6726725E-2],"categories":[],"categories_nodes":[],"categories_segments":[],"categories_sizes":[],"default_left":[0,0,0,0,0,0,0,0,0],"id":34,"left_children":[1,3,5,-1,-1,-1,7,-1,-1],"loss_changes":[7.4037824E0,5.0473676E0,4.273139E0,0E0,0E0,0E0,1.4358103E0,0E0,0E0],"parents":[2147483647,0,0,1,1,2,2,6,6],"right_children":[2,4,6,-1,-1,-1,8,-1,-1],"split_conditions":[3.6775056E-1,2.549405E1,9.627215E-1,-2.5061328E-2,4.0196333E-2,-3.0617207E-2,5.8385525E1,3.8586047E-2,-1.6726725E-2],"split_indices":[12,9,12,0,0,0,0,0,0],"split_type":[0,0,0,0,0,0,0,0,0],"sum_hessian":[3.422458E1,1.5724352E1,1.8500227E1,3.0459251E0,1.2678427E1,1.4602155E1,3.898071E0,2.884771E0,1.0133E0],"tree_param":{"num_deleted":"0","num_feature":"25","num_nodes":"9","size_leaf_vector":"1"}},{"base_weights":[-1.2645446E-1,3.965985E-2,-3.1300512E-1,-4.6836293E-1,3.631425E-2,2.0873401E-2,-5.288006E-1,-1.959842E-3,-5.4906565E-1,-3.1709158E-1,-3.2087974E-2,4.4695013E-3,-2.761445E-2],"categories":[],"categories_nodes":[],"categories_segments":[],"categories_sizes":[],"default_left":[0,0,0,0,0,0,0,0,0,0,0,0,0],"id":35,"left_children":[1,-1,3,5,-1,-1,7,-1,9,11,-1,-1,-1],"loss_changes":[6.386233E0,0E0,5.258386E0,1.6720166E0,0E0,0E0,2.3463154E-1,0E0,3.279209E-1,9.129203E-1,0E0,0E0,0E0],"parents":[2147483647,0,0,2,2,3,3,6,6,8,8,9,9],"right_children":[2,-1,4,6,-1,-1,8,-1,10,12,-1,-1,-1],"split_conditions":[-2.185202E-1,3.965985E-2,7.3170733E-1,2.621543E-1,3.631425E-2,2.0873401E-2,-1.4901483E0,-1.959842E-3,7.034496E-1,3.5091526E1,-3.2087974E-2,4.4695013E-3,-2.761445E-2],"split_indices":[2,0,7,6,0,0,17,0,11,9,0,0,0],"split_type":[0,0,0,0,0,0,0,0,0,0,0,0,0],"sum_hessian":[3.4776997E1,5.316411E0,2.9460585E1,2.610729E1,3.353293E0,1.2901556E0,2.4817135E1,1.1029938E0,2.3714142E1,8.0326395E0,1.5681502E1,3.171466E0,4.861173E0],"tree_param":{"num_deleted":"0","num_feature":"25","num_nodes":"13","size_leaf_vector":"1"}},{"base_weights":[2.0065072E-3,-3.35775E-1,5.9498954E-1,3.277003E-2,-4.8580232E-1,4.197536E-2,-2.2439634E-2,-5.3299433E-1,9.698729E-3,-5.879214E-1,-2.0289299E-1,-9.776778E-3,-3.1228265E-2,1.0753416E-2,-2.191668E-2],"categories":[],"categories_nodes":[],"categories_segments":[],"categories_sizes":[],"default_left":[0,0,0,0,0,0,0,0,0,0,0,0,0,0,0],"id":36,"left_children":[1,3,5,-1,7,-1,-1,9,-1,11,13,-1,-1,-1,-1],"loss_changes":[7.3106785E0,3.7767837E0,3.7570677E0,0E0,7.6981115E-1,0E0,0E0,2.3776197E-1,0E0,1.13049984E-1,5.2097297E-1,0E0,0E0,0E0,0E0],"parents":[2147483647,0,0,1,1,2,2,4,4,7,7,9,9,10,10],"right_children":[2,4,6,-1,8,-1,-1,10,-1,12,14,-1,-1,-1,-1],"split_conditions":[5.170455E-1,2.2653662E1,4.6804795E-1,3.277003E-2,8.396662E-1,4.197536E-2,-2.2439634E-2,1.4043681E-1,9.698729E-3,2.4744423E1,9.9459946E-1,-9.776778E-3,-3.1228265E-2,1.0753416E-2,-2.191668E-2],"split_indices":[1,9,6,0,14,0,0,10,0,9,5,0,0,0,0],"split_type":[0,0,0,0,0,0,0,0,0,0,0,0,0,0,0],"sum_hessian":[3.4501453E1,2.2256956E1,1.2244498E1,2.4831502E0,1.9773806E1,1.007907E1,2.1654282E0,1.8692078E1,1.0817282E0,1.5355906E1,3.3361723E0,1.8527383E0,1.3503167E1,1.2333033E0,2.102869E0],"tree_param":{"num_deleted":"0","num_feature":"25","num_nodes":"15","size_leaf_vector":"1"}},{"base_weights":[3.4197073E-2,5.3920144E-1,-3.7969774E-1,-2.4210028E-2,3.845689E-2,-3.028742E-2,4.167529E-1,-1.9016808E-2,3.723557E-2],"categories":[],"categories_nodes":[],"categories_segments":[],"categories_sizes":[],"default_left":[0,0,0,0,0,0,0,0,0],"id":37,"left_children":[1,3,5,-1,-1,-1,7,-1,-1],"loss_changes":[7.5843797E0,4.2118473E0,3.8514447E0,0E0,0E0,0E0,1.5933785E0,0E0,0E0],"parents":[2147483647,0,0,1,1,2,2,6,6],"right_children":[2,4,6,-1,-1,-1,8,-1,-1],"split_conditions":[2.659977E-1,1.2977953E-1,9.314342E-1,-2.4210028E-2,3.845689E-2,-3.028742E-2,9.36171E-2,-1.9016808E-2,3.723557E-2],"split_indices":[5,2,13,0,0,0,10,0,0],"split_type":[0,0,0,0,0,0,0,0,0],"sum_hessian":[3.4306152E1,1.5315969E1,1.8990183E1,2.6069846E0,1.2708985E1,1.4978412E1,4.011772E0,1.122901E0,2.888871E0],"tree_param":{"num_deleted":"0","num_feature":"25","num_nodes":"9","size_leaf_vector":"1"}},{"base_weights":[-4.6732374E-2,4.0113013E-2,-2.8138778E-1,-4.778398E-1,3.741896E-2,-1.8641748E-1,-2.9842867E-2,-4.240154E-1,3.6430504E-2,-2.7850214E-2,-8.2133216E-4],"categories":[],"categories_nodes":[],"categories_segments":[],"categories_sizes":[],"default_left":[0,0,0,0,0,0,0,0,0,0,0],"id":38,"left_children":[1,-1,3,5,-1,7,-1,9,-1,-1,-1],"loss_changes":[7.880087E0,0E0,6.5969152E0,8.0825377E-1,0E0,2.2964363E0,0E0,4.1849518E-1,0E0,0E0,0E0],"parents":[2147483647,0,0,2,2,3,3,5,5,7,7],"right_children":[2,-1,4,6,-1,8,-1,10,-1,-1,-1],"split_conditions":[-2.1832763E-1,4.0113013E-2,7.288136E-1,-3.079659E-1,3.741896E-2,-3.2518616E-1,-2.9842867E-2,3.118971E1,3.6430504E-2,-2.7850214E-2,-8.2133216E-4],"split_indices":[2,0,7,3,0,3,0,0,0,0,0],"split_type":[0,0,0,0,0,0,0,0,0,0,0],"sum_hessian":[3.7421413E1,7.57952E0,2.9841894E1,2.5511042E1,4.330852E0,8.141745E0,1.7369297E1,6.88943E0,1.2523143E0,4.918144E0,1.9712856E0],"tree_param":{"num_deleted":"0","num_feature":"25","num_nodes":"11","size_leaf_vector":"1"}},{"base_weights":[-4.9313772E-2,3.4186006E-1,-4.3653905E-1,7.4418837E-1,-2.3268891E-2,-5.2491385E-1,2.4376415E-2,1.5459272E-2,4.0692218E-2,-5.8403856E-1,-1.0334169E-1,-3.1354826E-2,-3.7624843E-3,-1.6894005E-2,8.590769E-3],"categories":[],"categories_nodes":[],"categories_segments":[],"categories_sizes":[],"default_left":[0,0,0,0,0,0,0,0,0,0,0,0,0,0,0],"id":39,"left_children":[1,3,5,7,-1,9,-1,-1,-1,11,13,-1,-1,-1,-1],"loss_changes":[5.5487494E0,6.2877016E0,1.7546966E0,1.299653E-1,0E0,3.6917162E-1,0E0,0E0,0E0,2.7918768E-1,2.7324787E-1,0E0,0E0,0E0,0E0],"parents":[2147483647,0,0,1,1,2,2,3,3,5,5,9,9,10,10],"right_children":[2,4,6,8,-1,10,-1,-1,-1,12,14,-1,-1,-1,-1],"split_conditions":[2.549405E1,4.017011E-1,8.3995694E-1,-2.2214875E-1,-2.3268891E-2,3.7931034E-1,2.4376415E-2,1.5459272E-2,4.0692218E-2,6.3427563E1,4.6082745E1,-3.1354826E-2,-3.7624843E-3,-1.6894005E-2,8.590769E-3],"split_indices":[9,6,2,1,0,7,0,0,0,0,0,0,0,0,0],"split_type":[0,0,0,0,0,0,0,0,0,0,0,0,0,0,0],"sum_hessian":[3.464685E1,1.729383E1,1.7353022E1,1.1593648E1,5.7001824E0,1.6232546E1,1.1204755E0,2.3509102E0,9.242738E0,1.3897996E1,2.3345504E0,1.2599217E1,1.2987783E0,1.1372378E0,1.1973125E0],"tree_param":{"num_deleted":"0","num_feature":"25","num_nodes":"15","size_leaf_vector":"1"}},{"base_weights":[-2.0890536E-2,-2.950398E-2,2.4427333E-1,4.8998806E-1,-2.6649479E-2,-2.313082E-2,6.89863E-1,1.7786627E-1,4.681079E-2,3.3505023E-2,-2.4332743E-2],"categories":[],"categories_nodes":[],"categories_segments":[],"categories_sizes":[],"default_left":[0,0,0,0,0,0,0,0,0,0,0],"id":40,"left_children":[1,-1,3,5,-1,-1,7,9,-1,-1,-1],"loss_changes":[4.842042E0,0E0,4.4516773E0,3.592597E0,0E0,0E0,1.6765285E0,2.2826033E0,0E0,0E0,0E0],"parents":[2147483647,0,0,2,2,3,3,6,6,7,7],"right_children":[2,-1,4,6,-1,-1,8,10,-1,-1,-1],"split_conditions":[1.4773959E-1,-2.950398E-2,5.8385525E1,-1.462164E0,-2.6649479E-2,-2.313082E-2,8.609991E-2,1.6347136E-1,4.681079E-2,3.3505023E-2,-2.4332743E-2],"split_indices":[1,0,0,16,0,0,10,1,0,0,0],"split_type":[0,0,0,0,0,0,0,0,0,0,0],"sum_hessian":[3.0126696E1,9.185077E0,2.094162E1,1.6192356E1,4.749263E0,2.5802674E0,1.3612089E1,4.981338E0,8.630752E0,2.8568056E0,2.1245325E0],"tree_param":{"num_deleted":"0","num_feature":"25","num_nodes":"11","size_leaf_vector":"1"}},{"base_weights":[-8.50602E-2,-3.316073E-1,6.9932663E-1,3.0961115E-2,-4.8504186E-1,1.0538555E-2,3.8692717E-2,-1.7366861E-1,-2.9194782E-2,-3.7825593E-1,2.240797E-2,6.0216114E-3,-2.6948793E-2],"categories":[],"categories_nodes":[],"categories_segments":[],"categories_sizes":[],"default_left":[0,0,0,0,0,0,0,0,0,0,0,0,0],"id":41,"left_children":[1,3,5,-1,7,-1,-1,9,-1,11,-1,-1,-1],"loss_changes":[7.0454807E0,4.310154E0,1.5539885E-1,0E0,6.4430904E-1,0E0,0E0,1.0932982E0,0E0,5.462895E-1,0E0,0E0,0E0],"parents":[2147483647,0,0,1,1,2,2,4,4,7,7,9,9],"right_children":[2,4,6,-1,8,-1,-1,10,-1,12,-1,-1,-1],"split_conditions":[3.933611E-1,1.0869565E-1,4.6804795E-1,3.0961115E-2,1.0973581E-1,1.0538555E-2,3.8692717E-2,1.4399882E-1,-2.9194782E-2,1.6778828E1,2.240797E-2,6.0216114E-3,-2.6948793E-2],"split_indices":[6,7,6,0,1,0,0,2,0,9,0,0,0],"split_type":[0,0,0,0,0,0,0,0,0,0,0,0,0],"sum_hessian":[3.4232628E1,2.6485111E1,7.7475147E0,3.2582269E0,2.3226885E1,1.5321057E0,6.2154093E0,6.2613807E0,1.6965504E1,5.006047E0,1.2553338E0,1.2812388E0,3.7248082E0],"tree_param":{"num_deleted":"0","num_feature":"25","num_nodes":"13","size_leaf_vector":"1"}},{"base_weights":[4.9795963E-2,3.9067876E-2,-1.6931742E-1,3.4676798E-2,-3.2766557E-1,1.2871289E-1,-5.71554E-1,3.4311842E-2,-4.207166E-1,-3.0510357E-2,-3.3796143E-3,-2.5653718E-2,-3.752902E-3],"categories":[],"categories_nodes":[],"categories_segments":[],"categories_sizes":[],"default_left":[0,0,0,0,0,0,0,0,0,0,0,0,0],"id":42,"left_children":[1,-1,3,-1,5,7,9,-1,11,-1,-1,-1,-1],"loss_changes":[5.8242044E0,0E0,4.0729647E0,0E0,2.796251E0,3.1483893E0,2.7288055E-1,0E0,1.3138598E-1,0E0,0E0,0E0,0E0],"parents":[2147483647,0,0,2,2,4,4,5,5,6,6,8,8],"right_children":[2,-1,4,-1,6,8,10,-1,12,-1,-1,-1,-1],"split_conditions":[-1.462164E0,3.9067876E-2,2.6032323E-1,3.4676798E-2,2.890268E-1,2.549405E1,1.9651131E-1,3.4311842E-2,1.5039687E-1,-3.0510357E-2,-3.3796143E-3,-2.5653718E-2,-3.752902E-3],"split_indices":[16,0,12,0,6,9,10,0,10,0,0,0,0],"split_type":[0,0,0,0,0,0,0,0,0,0,0,0,0],"sum_hessian":[3.4508965E1,7.3622766E0,2.7146688E1,3.685306E0,2.3461384E1,8.3355875E0,1.5125795E1,4.013728E0,4.3218594E0,1.3852508E1,1.2732881E0,3.028362E0,1.2934971E0],"tree_param":{"num_deleted":"0","num_feature":"25","num_nodes":"13","size_leaf_vector":"1"}},{"base_weights":[-7.64815E-4,5.003718E-1,-3.465048E-1,-2.3026465E-2,3.5839092E-2,4.0671802E-1,-2.9444361E-2,-1.7774446E-2,3.543747E-2],"categories":[],"categories_nodes":[],"categories_segments":[],"categories_sizes":[],"default_left":[0,0,0,0,0,0,0,0,0],"id":43,"left_children":[1,3,5,-1,-1,7,-1,-1,-1],"loss_changes":[5.247635E0,2.901473E0,3.511311E0,0E0,0E0,1.3925058E0,0E0,0E0,0E0],"parents":[2147483647,0,0,1,1,2,2,5,5],"right_children":[2,4,6,-1,-1,8,-1,-1,-1],"split_conditions":[3.7763878E1,1.4773959E-1,-3.45E-6,-2.3026465E-2,3.5839092E-2,4.856917E-1,-2.9444361E-2,-1.7774446E-2,3.543747E-2],"split_indices":[0,1,21,0,0,6,0,0,0],"split_type":[0,0,0,0,0,0,0,0,0],"sum_hessian":[2.828643E1,1.1365432E1,1.6920998E1,1.8818082E0,9.4836235E0,3.954395E0,1.2966602E1,1.0720284E0,2.8823667E0],"tree_param":{"num_deleted":"0","num_feature":"25","num_nodes":"9","size_leaf_vector":"1"}},{"base_weights":[-3.8924452E-2,5.617967E-1,-3.4521216E-1,2.372718E-1,3.54384E-2,-5.5290115E-1,5.711474E-1,3.0964926E-2,-2.0653432E-2,-3.9093564E-3,-5.790201E-1,7.517699E-3,3.2295875E-2,-1.3043175E-2,-3.051248E-2],"categories":[],"categories_nodes":[],"categories_segments":[],"categories_sizes":[],"default_left":[0,0,0,0,0,0,0,0,0,0,0,0,0,0,0],"id":44,"left_children":[1,3,5,7,-1,9,11,-1,-1,-1,13,-1,-1,-1,-1],"loss_changes":[6.274072E0,3.8222408E-1,4.599018E0,1.5229683E0,0E0,1.885171E-1,4.9192667E-2,0E0,0E0,0E0,1.6831875E-2,0E0,0E0,0E0,0E0],"parents":[2147483647,0,0,1,1,2,2,3,3,5,5,6,6,10,10],"right_children":[2,4,6,8,-1,10,12,-1,-1,-1,14,-1,-1,-1,-1],"split_conditions":[1.1466292E-1,5.648331E-1,6.987952E-1,1.4285715E-1,3.54384E-2,6.951962E-2,-1.23165965E-1,3.0964926E-2,-2.0653432E-2,-3.9093564E-3,1.0927498E-2,7.517699E-3,3.2295875E-2,-1.3043175E-2,-3.051248E-2],"split_indices":[1,12,7,7,0,4,2,0,0,0,10,0,0,0,0],"split_type":[0,0,0,0,0,0,0,0,0,0,0,0,0,0,0],"sum_hessian":[3.204537E1,1.053969E1,2.1505676E1,4.100296E0,6.439394E0,1.7855448E1,3.6502285E0,2.6130533E0,1.4872429E0,1.1394444E0,1.6716003E1,1.0050216E0,2.645207E0,2.3301606E0,1.4385843E1],"tree_param":{"num_deleted":"0","num_feature":"25","num_nodes":"15","size_leaf_vector":"1"}},{"base_weights":[4.4783954E-2,-3.7940022E-1,3.5560423E-1,1.9450794E-1,-5.303881E-1,-2.4138512E-2,5.4455996E-1,2.852018E-2,-1.6728995E-2,-6.555895E-3,-2.8519237E-2,7.5319755E-1,-1.6096022E-2,3.9588276E-2,1.2940319E-2],"categories":[],"categories_nodes":[],"categories_segments":[],"categories_sizes":[],"default_left":[0,0,0,0,0,0,0,0,0,0,0,0,0,0,0],"id":45,"left_children":[1,3,5,7,9,-1,11,-1,-1,-1,-1,13,-1,-1,-1],"loss_changes":[4.270467E0,1.2944945E0,3.212359E0,9.0588224E-1,1.0331893E-1,0E0,3.074203E0,0E0,0E0,0E0,0E0,4.150915E-2,0E0,0E0,0E0],"parents":[2147483647,0,0,1,1,2,2,3,3,4,4,6,6,11,11],"right_children":[2,4,6,8,10,-1,12,-1,-1,-1,-1,14,-1,-1,-1],"split_conditions":[5.2768998E-2,2.117432E1,-2.1832763E-1,1.3909551E0,2.7649075E-1,-2.4138512E-2,9.300588E-1,2.852018E-2,-1.6728995E-2,-6.555895E-3,-2.8519237E-2,3.88E-6,-1.6096022E-2,3.9588276E-2,1.2940319E-2],"split_indices":[10,9,2,5,4,0,13,0,0,0,0,21,0,0,0],"split_type":[0,0,0,0,0,0,0,0,0,0,0,0,0,0,0],"sum_hessian":[3.0366745E1,1.274825E1,1.7618496E1,2.5952845E0,1.0152966E1,2.9545527E0,1.4663942E1,1.4716487E0,1.1236358E0,1.3140048E0,8.838961E0,1.1923623E1,2.7403195E0,1.0502794E1,1.4208288E0],"tree_param":{"num_deleted":"0","num_feature":"25","num_nodes":"15","size_leaf_vector":"1"}},{"base_weights":[-1.8801698E-2,-2.882868E-2,2.4777949E-1,5.002902E-1,-2.6025588E-2,-2.1777578E-2,6.7620224E-1,2.336392E-1,4.24367E-2,3.1665362E-2,-2.2473205E-2],"categories":[],"categories_nodes":[],"categories_segments":[],"categories_sizes":[],"default_left":[0,0,0,0,0,0,0,0,0,0,0],"id":46,"left_children":[1,-1,3,5,-1,-1,7,9,-1,-1,-1],"loss_changes":[4.653664E0,0E0,4.378237E0,3.0083995E0,0E0,0E0,8.9118814E-1,1.754039E0,0E0,0E0,0E0],"parents":[2147483647,0,0,2,2,3,3,6,6,7,7],"right_children":[2,-1,4,6,-1,-1,8,10,-1,-1,-1],"split_conditions":[1.4773959E-1,-2.882868E-2,5.8385525E1,-1.5266984E0,-2.6025588E-2,-2.1777578E-2,8.609991E-2,1.6347136E-1,4.24367E-2,3.1665362E-2,-2.2473205E-2],"split_indices":[1,0,0,16,0,0,10,1,0,0,0],"split_type":[0,0,0,0,0,0,0,0,0,0,0],"sum_hessian":[2.9336641E1,9.110907E0,2.0225735E1,1.5485135E1,4.7406E0,2.2166615E0,1.3268474E1,4.382096E0,8.886378E0,2.8105843E0,1.5715113E0],"tree_param":{"num_deleted":"0","num_feature":"25","num_nodes":"11","size_leaf_vector":"1"}},{"base_weights":[1.9990392E-2,-2.97242E-1,3.6821127E-2,2.9294753E-2,-4.7017035E-1,-2.2620443E-1,-5.5139047E-1,-4.566431E-1,2.0915354E-2,-1.2643972E-2,-2.9367952E-2,-2.6037207E-2,-6.694646E-3],"categories":[],"categories_nodes":[],"categories_segments":[],"categories_sizes":[],"default_left":[0,0,0,0,0,0,0,0,0,0,0,0,0],"id":47,"left_children":[1,3,-1,-1,5,7,9,11,-1,-1,-1,-1,-1],"loss_changes":[7.5959682E0,3.8200214E0,0E0,0E0,2.708559E-1,1.1834129E0,4.814625E-3,4.199767E-2,0E0,0E0,0E0,0E0,0E0],"parents":[2147483647,0,0,1,1,4,4,5,5,6,6,7,7],"right_children":[2,4,-1,-1,6,8,10,12,-1,-1,-1,-1,-1],"split_conditions":[3.933611E-1,1.0869565E-1,3.6821127E-2,2.9294753E-2,1.0973581E-1,2.8617237E1,1.0927498E-2,3.272727E-1,2.0915354E-2,-1.2643972E-2,-2.9367952E-2,-2.6037207E-2,-6.694646E-3],"split_indices":[6,7,0,0,1,9,10,7,0,0,0,0,0],"split_type":[0,0,0,0,0,0,0,0,0,0,0,0,0],"sum_hessian":[3.1458725E1,2.2209558E1,9.2491665E0,3.2457235E0,1.8963835E1,5.681884E0,1.3281951E1,4.400145E0,1.2817385E0,2.2918599E0,1.0990091E1,3.159234E0,1.2409111E0],"tree_param":{"num_deleted":"0","num_feature":"25","num_nodes":"13","size_leaf_vector":"1"}}]},"name":"gbtree"},"learner_model_param":{"base_score":"5E-1","boost_from_average":"1","num_class":"3","num_feature":"25","num_target":"1"},"objective":{"name":"multi:softprob","softmax_multiclass_param":{"num_class":"3"}}},"version":[2,0,3]}