{"learner":{"attributes":{"best_iteration":"1","best_score":"1.1007320660655782"},"feature_names":["rsi_14","macd_line","macd_signal","macd_hist","bb_pct_upper","bb_pct_lower","atr_pct_14","volatility_regime","trend_regime_slope","adx_14","cmf_20","volume_sma_ratio","corr_btc_eth_20","corr_btc_sol_20","corr_btc_eth_100","corr_btc_sol_100","ratio_btc_eth_norm","ratio_btc_sol_norm","ratio_btc_bnb_norm","btc_funding_rate","funding_mom_1","funding_mom_3","funding_spread_eth","funding_spread_sol","funding_spread_bnb"],"feature_types":["float","float","float","float","float","float","float","float","float","float","float","float","float","float","float","float","float","float","float","float","float","float","float","float","float"],"gradient_booster":{"model":{"gbtree_model_param":{"num_parallel_tree":"1","num_trees":"51"},"iteration_indptr":[0,3,6,9,12,15,18,21,24,27,30,33,36,39,42,45,48,51],"tree_info":[0,1,2,0,1,2,0,1,2,0,1,2,0,1,2,0,1,2,0,1,2,0,1,2,0,1,2,0,1,2,0,1,2,0,1,2,0,1,2,0,1,2,0,1,2,0,1,2,0,1,2],"trees":[{"base_weights":[3.662289E-2,1.5903208E-1,-4.591902E-1,-1.9171463E-1,2.5987092E-1,6.211157E-1,-5.106632E-1,-5.2191013E-1,1.45805E-1,1.7424428E-1,7.9481083E-1,3.4395874E-2,9.607883E-3,-6.4029527E-1,-7.5325966E-2,-1.7102039E-1,-6.244024E-1,3.4548432E-1,-3.4108996E-1,4.521916E-1,-1.2089775E-1,-2.9370034E-2,9.429608E-1,-3.4505224E-1,-3.4024984E-2,-3.7546492E-1,8.7492263E-1,-5.438483E-1,5.0608393E-2,-2.842283E-1,-3.604205E-2,5.1843435E-1,-3.0432452E-2,4.1680764E-2,-3.4037154E-2,-8.825162E-2,6.592901E-1,-2.5191233E-1,5.396111E-1,-2.0527486E-2,9.991199E-1,1.9989423E-1,-5.1766634E-1,-1.3984015E-2,-3.3608176E-2,5.676178E-2,5.15741E-3,-3.2655448E-2,-3.8786144E-5,-2.5120929E-2,2.7182281E-2,5.755181E-2,1.5223491E-2,-1.5758822E-2,4.090983E-2,4.5191806E-2,1.2034158E-3,1.2477094E-2,-2.3123529E-2,4.1949353E-3,4.109169E-2,-4.508762E-3,5.3089846E-2,3.8188633E-2,-2.0527486E-2,-3.2172825E-2,5.8322973E-3,-2.9075062E-2,2.2407379E-2],"categories":[],"categories_nodes":[],"categories_segments":[],"categories_sizes":[],"default_left":[0,0,0,0,0,0,0,0,0,0,0,0,0,0,0,0,0,0,0,0,0,0,0,0,0,0,0,0,0,0,0,0,0,0,0,0,0,0,0,0,0,0,0,0,0,0,0,0,0,0,0,0,0,0,0,0,0,0,0,0,0,0,0,0,0,0,0,0,0],"id":0,"left_children":[1,3,5,7,9,11,13,15,17,19,21,-1,-1,23,25,27,29,31,33,35,37,-1,39,41,-1,43,45,47,-1,49,-1,51,-1,-1,-1,53,55,57,59,-1,61,63,65,67,-1,-1,-1,-1,-1,-1,-1,-1,-1,-1,-1,-1,-1,-1,-1,-1,-1,-1,-1,-1,-1,-1,-1,-1,-1],"loss_changes":[2.932418E1,1.3747267E1,5.6379642E0,9.777993E0,1.3658936E1,5.441904E-3,5.137081E0,1.4836111E0,4.379212E0,2.146046E1,9.007402E0,0E0,0E0,6.0401726E-1,6.664631E0,5.5679336E0,9.055414E-1,5.5268297E0,5.8544216E0,1.5122675E1,1.1155779E1,0E0,3.2735138E0,1.0910076E0,0E0,1.8763928E0,1.0145712E0,5.512874E-1,0E0,1.9218516E0,0E0,3.341236E0,0E0,0E0,0E0,8.109267E0,1.5112278E1,1.1407455E1,2.6828966E0,0E0,2.5850105E0,1.4311911E0,7.3344207E-1,2.6072202E0,0E0,0E0,0E0,0E0,0E0,0E0,0E0,0E0,0E0,0E0,0E0,0E0,0E0,0E0,0E0,0E0,0E0,0E0,0E0,0E0,0E0,0E0,0E0,0E0,0E0],"parents":[2147483647,0,0,1,1,2,2,3,3,4,4,5,5,6,6,7,7,8,8,9,9,10,10,13,13,14,14,15,15,16,16,17,17,18,18,19,19,20,20,22,22,23,23,25,25,26,26,27,27,29,29,31,31,35,35,36,36,37,37,38,38,40,40,41,41,42,42,43,43],"right_children":[2,4,6,8,10,12,14,16,18,20,22,-1,-1,24,26,28,30,32,34,36,38,-1,40,42,-1,44,46,48,-1,50,-1,52,-1,-1,-1,54,56,58,60,-1,62,64,66,68,-1,-1,-1,-1,-1,-1,-1,-1,-1,-1,-1,-1,-1,-1,-1,-1,-1,-1,-1,-1,-1,-1,-1,-1,-1],"split_conditions":[8.863636E-1,-1.2573959E0,-1.00390546E-1,6.89243E-1,6.340769E-2,-1.4039974E-1,2.0153284E1,-1.62676E0,6.888908E-1,1.700398E-2,-6.2342978E0,3.4395874E-2,9.607883E-3,9.09935E-1,9.7003746E-1,-4.3035517E0,2.5810328E-1,1.7512682E1,-4.1109554E-2,-4.757018E0,6.738142E1,-2.9370034E-2,-1.6691661E-1,9.718291E-2,-3.4024984E-2,3.1370103E-1,1.9938469E0,-5.086781E0,5.0608393E-2,2.4883763E-1,-3.604205E-2,-1.3231029E-1,-3.0432452E-2,4.1680764E-2,-3.4037154E-2,2.3199403E0,-2.5575252E-2,2.3603603E-1,6.6671975E-2,-2.0527486E-2,-1.084612E0,3.9182808E0,2.0475936E-1,2.7081987E1,-3.3608176E-2,5.676178E-2,5.15741E-3,-3.2655448E-2,-3.8786144E-5,-2.5120929E-2,2.7182281E-2,5.755181E-2,1.5223491E-2,-1.5758822E-2,4.090983E-2,4.5191806E-2,1.2034158E-3,1.2477094E-2,-2.3123529E-2,4.1949353E-3,4.109169E-2,-4.508762E-3,5.3089846E-2,3.8188633E-2,-2.0527486E-2,-3.2172825E-2,5.8322973E-3,-2.9075062E-2,2.2407379E-2],"split_indices":[7,3,5,7,8,5,1,2,4,8,2,0,0,7,7,1,4,2,8,2,0,0,10,4,0,4,5,1,0,4,0,10,0,0,0,3,2,7,10,0,3,1,8,1,0,0,0,0,0,0,0,0,0,0,0,0,0,0,0,0,0,0,0,0,0,0,0,0,0],"split_type":[0,0,0,0,0,0,0,0,0,0,0,0,0,0,0,0,0,0,0,0,0,0,0,0,0,0,0,0,0,0,0,0,0,0,0,0,0,0,0,0,0,0,0,0,0,0,0,0,0,0,0,0,0,0,0,0,0,0,0,0,0,0,0,0,0,0,0,0,0],"sum_hessian":[4.8096002E2,3.8627377E2,9.468624E1,8.6053535E1,3.0022025E2,3.802989E0,9.0883255E1,4.3222572E1,4.283096E1,2.5993823E2,4.0282013E1,2.7682014E0,1.0347877E0,6.966733E1,2.1215921E1,1.037424E1,3.2848335E1,3.0580215E1,1.2250744E1,1.3359462E2,1.2634362E2,3.6125643E0,3.666945E1,9.498321E0,6.016901E1,1.6583006E1,4.6329165E0,8.299412E0,2.074828E0,8.127372E0,2.4720963E1,2.6274277E1,4.305938E0,2.4215147E0,9.829229E0,3.716995E1,9.642467E1,1.0594718E2,2.039644E1,1.2094542E0,3.545999E1,2.2468681E0,7.2514524E0,7.947432E0,8.635573E0,3.1122417E0,1.5206743E0,6.7406445E0,1.5587673E0,6.743271E0,1.3841007E0,5.5337567E0,2.074052E1,3.0249447E1,6.9205036E0,6.931651E1,2.7108154E1,3.1276234E1,7.467095E1,8.296745E0,1.2099694E1,1.9054542E0,3.355454E1,1.037414E0,1.2094542E0,6.039372E0,1.2120805E0,3.4510696E0,4.4963627E0],"tree_param":{"num_deleted":"0","num_feature":"25","num_nodes":"69","size_leaf_vector":"1"}},{"base_weights":[-3.3936019E-3,8.58385E-2,-2.935555E-1,-1.726973E-1,1.8679129E-1,-3.6938214E-1,2.184536E-1,7.511312E-2,-3.9012074E-1,7.322602E-1,9.983661E-2,-4.4059956E-1,2.698861E-1,-2.7066955E-1,6.647443E-1,-3.8766775E-1,3.537247E-1,8.7861943E-1,-4.8554516E-1,9.940059E-1,2.4161035E-1,1.6966157E-1,-5.472819E-1,-4.7074285E-1,4.3576483E-2,-1.4962971E-1,5.591722E-1,1.4777402E-2,-4.1348198E-1,6.04658E-2,-1.6273847E-1,2.9162258E-2,-5.274461E-1,9.020642E-1,8.889476E-3,5.065031E-2,1.4715335E-2,2.8332131E-2,-5.277767E-1,4.6213932E-2,1.2349628E0,-2.5272867E-2,4.11528E-1,4.9957477E-2,4.1118747E-1,-3.2597804E-1,-6.4670277E-1,-1.2950078E-1,-5.260591E-1,-2.7049322E-2,2.288329E-2,5.512453E-2,-1.3523754E-1,4.878665E-3,-3.0203078E-2,-2.5506524E-2,2.199227E-2,5.558466E-3,-3.2331474E-2,6.041907E-2,7.2214214E-5,-2.0953106E-2,2.5872737E-2,-2.2783974E-2,1.9012837E-2,5.4955273E-3,-2.8288905E-2,3.399485E-2,-2.7049322E-2,2.288329E-2,6.39286E-2,-2.5262386E-2,3.2567598E-2,3.1106163E-2,-1.5270846E-3,3.5099383E-2,-6.5983213E-3,5.8723623E-3,-3.088127E-2,-3.4707323E-2,-5.411482E-3,1.750846E-2,-2.379199E-2,1.396062E-3,-2.7840411E-2,1.4777402E-2,-2.2783974E-2],"categories":[],"categories_nodes":[],"categories_segments":[],"categories_sizes":[],"default_left":[0,0,0,0,0,0,0,0,0,0,0,0,0,0,0,0,0,0,0,0,0,0,0,0,0,0,0,0,0,0,0,0,0,0,0,0,0,0,0,0,0,0,0,0,0,0,0,0,0,0,0,0,0,0,0,0,0,0,0,0,0,0,0,0,0,0,0,0,0,0,0,0,0,0,0,0,0,0,0,0,0,0,0,0,0,0,0],"id":1,"left_children":[1,3,5,7,9,11,13,15,17,19,21,23,25,27,29,31,33,35,37,39,41,43,45,47,-1,49,51,-1,53,-1,55,-1,57,59,61,-1,-1,63,65,67,69,-1,71,73,75,77,79,81,83,-1,-1,-1,85,-1,-1,-1,-1,-1,-1,-1,-1,-1,-1,-1,-1,-1,-1,-1,-1,-1,-1,-1,-1,-1,-1,-1,-1,-1,-1,-1,-1,-1,-1,-1,-1,-1,-1],"loss_changes":[1.2635513E1,9.774403E0,4.5367603E0,5.705039E0,1.2682192E1,4.687211E0,3.5489662E0,6.5927925E0,7.239394E0,4.488144E0,1.0625722E1,3.996214E0,1.3795809E0,7.751024E-1,3.9638193E0,2.9258907E0,6.000408E0,3.8906097E-2,1.1647129E0,5.352766E0,2.001584E0,6.0846124E0,2.939062E-1,1.6170979E0,0E0,1.4708859E0,2.6132212E0,0E0,7.2753775E-1,0E0,1.103434E0,0E0,1.3954673E0,3.3799572E0,4.6824007E0,0E0,0E0,1.0202523E0,1.2497778E0,2.54103E0,5.373001E-2,0E0,2.9811816E0,6.5744796E0,1.1123452E1,1.252917E0,3.0327892E-1,2.455867E0,1.3186398E0,0E0,0E0,0E0,6.533942E-1,0E0,0E0,0E0,0E0,0E0,0E0,0E0,0E0,0E0,0E0,0E0,0E0,0E0,0E0,0E0,0E0,0E0,0E0,0E0,0E0,0E0,0E0,0E0,0E0,0E0,0E0,0E0,0E0,0E0,0E0,0E0,0E0,0E0,0E0],"parents":[2147483647,0,0,1,1,2,2,3,3,4,4,5,5,6,6,7,7,8,8,9,9,10,10,11,11,12,12,13,13,14,14,15,15,16,16,17,17,18,18,19,19,20,20,21,21,22,22,23,23,25,25,26,26,28,28,30,30,32,32,33,33,34,34,37,37,38,38,39,39,40,40,42,42,43,43,44,44,45,45,46,46,47,47,48,48,52,52],"right_children":[2,4,6,8,10,12,14,16,18,20,22,24,26,28,30,32,34,36,38,40,42,44,46,48,-1,50,52,-1,54,-1,56,-1,58,60,62,-1,-1,64,66,68,70,-1,72,74,76,78,80,82,84,-1,-1,-1,86,-1,-1,-1,-1,-1,-1,-1,-1,-1,-1,-1,-1,-1,-1,-1,-1,-1,-1,-1,-1,-1,-1,-1,-1,-1,-1,-1,-1,-1,-1,-1,-1,-1,-1],"split_conditions":[1.9876856E-1,-1.9048639E-2,9.6791446E-1,-4.5467224E0,-1.8083786E0,2.6749926E1,-8.753046E0,-8.21358E0,-1.3610104E-1,1.6198014E-1,2.1031463E-1,2.3350245E-1,3.1370103E-1,1.1816146E1,2.0153284E1,-1.693833E1,2.4677738E1,5.8995907E1,3.887055E-2,9.5104136E-2,-1.21174656E-1,2.8330822E0,3.0934893E-2,7.8540397E-1,4.3576483E-2,2.3920536E-1,2.4990108E1,1.4777402E-2,-4.2108597E1,6.04658E-2,2.4854736E1,2.9162258E-2,6.3881055E-2,7.567621E-1,-7.710124E-2,5.065031E-2,1.4715335E-2,-6.1911892E-2,-3.633829E-2,3.2681473E1,-1.3256946E-2,-2.5272867E-2,6.4991623E-1,-5.0178947E0,6.5893616E1,1.08567536E-1,3.7587008E-1,-5.580253E-1,8.874801E0,-2.7049322E-2,2.288329E-2,5.512453E-2,5.5754536E1,4.878665E-3,-3.0203078E-2,-2.5506524E-2,2.199227E-2,5.558466E-3,-3.2331474E-2,6.041907E-2,7.2214214E-5,-2.0953106E-2,2.5872737E-2,-2.2783974E-2,1.9012837E-2,5.4955273E-3,-2.8288905E-2,3.399485E-2,-2.7049322E-2,2.288329E-2,6.39286E-2,-2.5262386E-2,3.2567598E-2,3.1106163E-2,-1.5270846E-3,3.5099383E-2,-6.5983213E-3,5.8723623E-3,-3.088127E-2,-3.4707323E-2,-5.411482E-3,1.750846E-2,-2.379199E-2,1.396062E-3,-2.7840411E-2,1.4777402E-2,-2.2783974E-2],"split_indices":[6,8,7,2,3,1,1,1,8,6,10,10,4,0,1,1,9,0,4,6,10,1,4,7,0,8,9,0,1,0,2,0,5,11,8,0,0,8,5,0,8,0,7,2,0,6,7,3,9,0,0,0,0,0,0,0,0,0,0,0,0,0,0,0,0,0,0,0,0,0,0,0,0,0,0,0,0,0,0,0,0,0,0,0,0,0,0],"split_type":[0,0,0,0,0,0,0,0,0,0,0,0,0,0,0,0,0,0,0,0,0,0,0,0,0,0,0,0,0,0,0,0,0,0,0,0,0,0,0,0,0,0,0,0,0,0,0,0,0,0,0,0,0,0,0,0,0,0,0,0,0,0,0,0,0,0,0,0,0,0,0,0,0,0,0,0,0,0,0,0,0,0,0,0,0,0,0],"sum_hessian":[4.8603983E2,3.7226355E2,1.1377626E2,1.0434072E2,2.6792285E2,9.934255E1,1.44337015E1,4.9068714E1,5.5272007E1,3.5817505E1,2.3210533E2,8.9664314E1,9.67824E0,7.0741396E0,7.359562E0,1.8292683E1,3.0776031E1,3.2922013E0,5.1979805E1,2.2688196E1,1.312931E1,2.1016597E2,2.193937E1,8.827757E1,1.3867471E0,4.1470494E0,5.5311904E0,1.2094542E0,5.864685E0,4.160241E0,3.1993206E0,1.9028277E0,1.6389854E1,1.1258078E1,1.9517954E1,2.0801206E0,1.2120805E0,3.972403E0,4.8007404E1,4.840423E0,1.7847773E1,2.066949E0,1.1062361E1,1.4132826E2,6.88377E1,8.127312E0,1.38120575E1,1.2779956E1,7.549761E1,2.588282E0,1.5587673E0,2.7734942E0,2.7576962E0,1.7255348E0,4.1391506E0,2.1266985E0,1.072622E0,2.5883021E0,1.3801552E1,8.145816E0,3.1122618E0,1.0694583E1,8.823372E0,1.5482419E0,2.424161E0,2.593555E0,4.541385E1,2.252141E0,2.588282E0,1.5587673E0,1.6289005E1,2.0643225E0,8.998038E0,1.660145E1,1.24726814E2,4.4643505E1,2.4194197E1,3.461575E0,4.665736E0,1.2427957E1,1.3841007E0,5.353897E0,7.426059E0,3.9750292E0,7.152258E1,1.2094542E0,1.5482419E0],"tree_param":{"num_deleted":"0","num_feature":"25","num_nodes":"87","size_leaf_vector":"1"}},{"base_weights":[-5.1738583E-3,-8.347525E-2,1.0596011E0,-1.7956379E-1,4.1254032E-1,1.3167907E0,-4.5006223E-2,-2.3210548E-1,3.0112368E-1,5.1278627E-1,-3.2080006E-2,6.910368E-2,2.6260102E-3,-2.8822616E-2,5.4024595E-1,-2.546191E-1,1.017191E0,-5.587424E-1,5.8428776E-1,-1.9088729E-1,6.174146E-1,-1.1588687E-4,4.432548E-2,-1.198608E-1,-4.7989708E-1,6.0376257E-2,5.750078E-3,9.462675E-3,-3.3313762E-2,9.7718775E-1,-1.5521216E-1,4.556794E-2,-5.1406586E-1,1.8575597E-1,8.4339494E-1,6.282627E-2,-7.985487E-3,8.617062E-4,-2.81275E-2,5.5546608E-2,-2.1770803E-2,2.3100326E-2,-2.4878597E-2,-8.09282E-3,-3.109081E-2,3.491802E-2,-1.1807372E-2,5.111907E-2,-1.8611633E-3],"categories":[],"categories_nodes":[],"categories_segments":[],"categories_sizes":[],"default_left":[0,0,0,0,0,0,0,0,0,0,0,0,0,0,0,0,0,0,0,0,0,0,0,0,0,0,0,0,0,0,0,0,0,0,0,0,0,0,0,0,0,0,0,0,0,0,0,0,0],"id":2,"left_children":[1,3,5,7,9,11,13,15,17,19,-1,-1,-1,-1,21,23,25,27,29,31,33,-1,-1,35,37,-1,-1,-1,-1,39,41,-1,43,45,47,-1,-1,-1,-1,-1,-1,-1,-1,-1,-1,-1,-1,-1,-1],"loss_changes":[4.095974E1,2.188235E1,9.619968E0,9.768451E0,8.207861E0,2.1831512E0,2.5890188E0,1.0011305E1,9.645417E0,5.171404E0,0E0,0E0,0E0,0E0,7.5375414E-1,1.0306616E1,9.4949436E-1,9.2984986E-1,8.65919E0,3.9055898E0,5.6952496E0,0E0,0E0,1.1990032E1,5.246477E0,0E0,0E0,0E0,0E0,4.1221867E0,2.5590045E0,0E0,2.0677376E-1,4.9005327E0,6.2000465E0,0E0,0E0,0E0,0E0,0E0,0E0,0E0,0E0,0E0,0E0,0E0,0E0,0E0,0E0],"parents":[2147483647,0,0,1,1,2,2,3,3,4,4,5,5,6,6,7,7,8,8,9,9,14,14,15,15,16,16,17,17,18,18,19,19,20,20,23,23,24,24,29,29,30,30,32,32,33,33,34,34],"right_children":[2,4,6,8,10,12,14,16,18,20,-1,-1,-1,-1,22,24,26,28,30,32,34,-1,-1,36,38,-1,-1,-1,-1,40,42,-1,44,46,48,-1,-1,-1,-1,-1,-1,-1,-1,-1,-1,-1,-1,-1,-1],"split_conditions":[7.9656565E-1,8.7860394E-1,9.8141265E-1,5.390809E-1,4.0726015E-1,5.299998E0,3.3367737E1,1.6692455E1,6.455026E-1,1.4629519E1,-3.2080006E-2,6.910368E-2,2.6260102E-3,-2.8822616E-2,-3.448216E1,3.323832E-2,2.2225183E1,1.2456152E0,2.6273045E1,-5.0368414E0,-3.6778562E0,-1.1588687E-4,4.432548E-2,1.0824742E-1,9.002017E-2,6.0376257E-2,5.750078E-3,9.462675E-3,-3.3313762E-2,8.507065E0,1.7548582E-2,4.556794E-2,2.0679214E0,-7.900627E-2,1.6060804E0,6.282627E-2,-7.985487E-3,8.617062E-4,-2.81275E-2,5.5546608E-2,-2.1770803E-2,2.3100326E-2,-2.4878597E-2,-8.09282E-3,-3.109081E-2,3.491802E-2,-1.1807372E-2,5.111907E-2,-1.8611633E-3],"split_indices":[4,7,7,5,6,11,9,2,7,9,0,0,0,0,2,8,1,3,9,3,2,0,0,7,5,0,0,0,0,2,8,0,1,8,5,0,0,0,0,0,0,0,0,0,0,0,0,0,0],"split_type":[0,0,0,0,0,0,0,0,0,0,0,0,0,0,0,0,0,0,0,0,0,0,0,0,0,0,0,0,0,0,0,0,0,0,0,0,0,0,0,0,0,0,0,0,0,0,0,0,0],"sum_hessian":[4.8922003E2,4.5656665E2,3.265338E1,3.83008E2,7.355863E1,2.6330637E1,6.322744E0,3.4573453E2,3.7273483E1,6.763982E1,5.918817E0,2.4949163E1,1.3814744E0,3.321577E0,3.0011666E0,3.4039642E2,5.338099E0,8.992705E0,2.8280779E1,8.648725E0,5.8991093E1,1.5561409E0,1.4450257E0,2.1394778E2,1.2644864E2,4.128645E0,1.2094542E0,1.0347877E0,7.9579177E0,1.8258518E1,1.002226E1,1.5482419E0,7.100483E0,2.0896822E1,3.809427E1,5.160806E0,2.0878697E2,1.8139107E1,1.0830953E2,1.6874418E1,1.3841007E0,3.4510696E0,6.5711904E0,2.2495146E0,4.8509684E0,9.138482E0,1.1758341E1,3.1525665E1,6.5686045E0],"tree_param":{"num_deleted":"0","num_feature":"25","num_nodes":"49","size_leaf_vector":"1"}},{"base_weights":[-3.9248966E-2,6.928238E-2,-5.385162E-1,2.5039585E-2,6.860589E-1,-5.7696635E-1,5.7605207E-1,-2.1803533E-1,1.4408004E-1,-2.8735045E-2,8.897262E-1,4.7750595E-1,-6.147705E-1,7.576345E-3,3.6000904E-2,-4.294417E-1,2.1856071E-1,4.977631E-1,4.218063E-2,-1.8921087E-2,9.659624E-1,2.5698536E-3,3.697879E-2,-6.651282E-1,-9.014337E-2,1.2263525E-1,-6.0630476E-1,8.466715E-1,-3.06032E-1,6.5139323E-1,-3.959365E-1,-4.3638553E-2,7.21508E-1,-3.0809115E-3,5.2889284E-2,-2.7596807E-1,-3.3910844E-2,3.2096526E-1,-3.811804E-1,3.0238926E-2,-3.299361E-2,2.664709E-2,-3.2052405E-2,-2.8788803E-2,6.0982835E-2,-2.9321915E-2,4.7616016E-2,3.7330333E-2,-1.7673217E-2,-1.5920006E-3,-3.04441E-2,-2.8081229E-2,1.8819707E-3,-2.715779E-2,4.603564E-2,9.561181E-3,-2.4882961E-2,-1.9037506E-2,3.5023462E-2,-2.7967973E-2,6.0312785E-3],"categories":[],"categories_nodes":[],"categories_segments":[],"categories_sizes":[],"default_left":[0,0,0,0,0,0,0,0,0,0,0,0,0,0,0,0,0,0,0,0,0,0,0,0,0,0,0,0,0,0,0,0,0,0,0,0,0,0,0,0,0,0,0,0,0,0,0,0,0,0,0,0,0,0,0,0,0,0,0,0,0],"id":3,"left_children":[1,3,5,7,9,11,13,15,17,-1,19,21,23,-1,-1,25,27,29,31,-1,33,-1,-1,35,37,39,41,43,45,47,49,51,53,-1,-1,55,-1,57,59,-1,-1,-1,-1,-1,-1,-1,-1,-1,-1,-1,-1,-1,-1,-1,-1,-1,-1,-1,-1,-1,-1],"loss_changes":[2.5993229E1,1.0744219E1,4.0028706E0,1.0708922E1,7.279272E0,3.6138706E0,9.604156E-2,1.1327043E1,8.927884E0,0E0,2.5972881E0,3.467608E-1,2.0759354E0,0E0,0E0,8.11383E0,1.3560404E1,7.870472E0,1.13333E1,0E0,2.146349E0,0E0,0E0,1.8777084E-1,1.1079342E0,8.249924E0,2.8165398E0,1.0590035E1,8.579119E0,4.826687E0,6.5941596E-1,7.3070345E0,5.9921703E0,0E0,0E0,5.178654E-1,0E0,1.3205367E0,5.395783E-1,0E0,0E0,0E0,0E0,0E0,0E0,0E0,0E0,0E0,0E0,0E0,0E0,0E0,0E0,0E0,0E0,0E0,0E0,0E0,0E0,0E0,0E0],"parents":[2147483647,0,0,1,1,2,2,3,3,4,4,5,5,6,6,7,7,8,8,10,10,11,11,12,12,15,15,16,16,17,17,18,18,20,20,23,23,24,24,25,25,26,26,27,27,28,28,29,29,30,30,31,31,32,32,35,35,37,37,38,38],"right_children":[2,4,6,8,10,12,14,16,18,-1,20,22,24,-1,-1,26,28,30,32,-1,34,-1,-1,36,38,40,42,44,46,48,50,52,54,-1,-1,56,-1,58,60,-1,-1,-1,-1,-1,-1,-1,-1,-1,-1,-1,-1,-1,-1,-1,-1,-1,-1,-1,-1,-1,-1],"split_conditions":[8.954545E-1,2.1549861E-1,4.931296E-1,2.2630188E1,4.7909462E1,-1.00390546E-1,6.1743146E-1,6.1732795E-2,-1.9048639E-2,-2.8735045E-2,-8.105889E-2,-7.709523E0,1.6950945E0,7.576345E-3,3.6000904E-2,-6.933169E-2,5.9611053E0,1.3140188E-1,6.5893616E1,-1.8921087E-2,2.8786576E-1,2.5698536E-3,3.697879E-2,9.0463215E-1,2.5438393E1,1.5172887E-1,5.3554107E-2,-7.7923336E0,-8.1654465E-1,4.3188018E-1,-7.2164595E-2,-5.8442254E0,9.7366667E-1,-3.0809115E-3,5.2889284E-2,8.531419E0,-3.3910844E-2,3.4775627E-1,4.179053E1,3.0238926E-2,-3.299361E-2,2.664709E-2,-3.2052405E-2,-2.8788803E-2,6.0982835E-2,-2.9321915E-2,4.7616016E-2,3.7330333E-2,-1.7673217E-2,-1.5920006E-3,-3.04441E-2,-2.8081229E-2,1.8819707E-3,-2.715779E-2,4.603564E-2,9.561181E-3,-2.4882961E-2,-1.9037506E-2,3.5023462E-2,-2.7967973E-2,6.0312785E-3],"split_indices":[7,10,6,9,0,5,11,8,8,0,8,2,5,0,0,8,2,10,0,0,1,0,0,7,9,5,6,1,3,1,8,2,1,0,0,1,0,6,9,0,0,0,0,0,0,0,0,0,0,0,0,0,0,0,0,0,0,0,0,0,0],"split_type":[0,0,0,0,0,0,0,0,0,0,0,0,0,0,0,0,0,0,0,0,0,0,0,0,0,0,0,0,0,0,0,0,0,0,0,0,0,0,0,0,0,0,0,0,0,0,0,0,0,0,0,0,0,0,0,0,0,0,0,0,0],"sum_hessian":[4.7801385E2,3.9336493E2,8.464893E1,3.680075E2,2.5357428E1,8.2292366E1,2.3565617E0,1.2070404E2,2.4730347E2,3.2732577E0,2.2084171E1,2.4456158E0,7.9846756E1,1.1165656E0,1.239996E0,8.1336205E1,3.936783E1,5.4445057E1,1.9285841E2,1.0275538E0,2.1056618E1,1.386833E0,1.0587828E0,7.2609344E1,7.2374125E0,1.9809036E1,6.1527172E1,1.7636797E1,2.1731033E1,4.6690006E1,7.75505E0,1.7205814E2,2.0800282E1,1.7542288E0,1.9302387E1,3.08122E0,6.952812E1,2.9572594E0,4.280153E0,1.2397453E1,7.4115834E0,1.3964839E0,6.0130688E1,3.550939E0,1.4085857E1,1.820767E1,3.5233626E0,4.2883648E1,3.8063586E0,3.2860498E0,4.4690003E0,2.2534622E1,1.4952351E2,2.5955637E0,1.8204718E1,1.0358026E0,2.0454173E0,1.0368344E0,1.9204249E0,3.0739694E0,1.2061837E0],"tree_param":{"num_deleted":"0","num_feature":"25","num_nodes":"61","size_leaf_vector":"1"}},{"base_weights":[1.4666764E-2,9.219641E-2,-2.4438661E-1,2.1134545E-1,-6.8380184E-2,-3.3341584E-1,2.047541E-1,1.3975804E-1,5.803855E-1,5.5995184E-1,-1.2922257E-1,-4.1257876E-1,4.3992636E-1,4.835732E-2,5.1070146E-2,3.841341E-1,6.260211E-2,7.625774E-1,-2.8793702E-1,-3.0005345E-2,1.0929899E0,-2.0545821E-1,3.43819E-1,-3.089658E-1,-5.732651E-1,7.8266126E-1,-2.5007224E-2,-2.8928587E-1,2.5022694E-1,6.2574357E-1,-2.039357E-2,1.5358942E-2,5.6765395E-1,9.7862446E-1,2.2540937E-1,-2.686477E-2,-1.7187727E-3,6.344219E-2,3.7948483E-1,-4.8247498E-1,-5.6517523E-2,-1.3233288E-1,6.432841E-1,-3.7645924E-1,2.9673058E-1,1.4857073E-2,-6.1681885E-1,2.3109418E-1,5.5893976E-2,1.4445201E-2,-4.7047332E-1,7.013383E-1,-2.9236466E-1,-2.528948E-2,3.7008237E-2,4.60833E-2,-9.472073E-3,7.968409E-3,-1.8491361E-2,2.1450538E-3,4.644404E-2,5.934915E-2,1.7142877E-2,-2.7430056E-2,2.9899636E-2,-1.8933134E-2,1.2315096E-2,-1.886675E-2,4.3053843E-2,9.720184E-3,-2.926882E-2,7.2955475E-3,-2.2363674E-2,1.7026564E-2,-2.375238E-2,4.3271072E-2,-6.393434E-3,-2.1379365E-2,2.903682E-2,5.3287935E-2,-2.6513988E-2,-3.28586E-2,-1.2729511E-2,2.2810353E-2,-5.4022847E-3,-2.8343124E-2,-5.308385E-3,5.78484E-2,-2.2520464E-2,1.4795432E-2,-2.5618797E-2],"categories":[],"categories_nodes":[],"categories_segments":[],"categories_sizes":[],"default_left":[0,0,0,0,0,0,0,0,0,0,0,0,0,0,0,0,0,0,0,0,0,0,0,0,0,0,0,0,0,0,0,0,0,0,0,0,0,0,0,0,0,0,0,0,0,0,0,0,0,0,0,0,0,0,0,0,0,0,0,0,0,0,0,0,0,0,0,0,0,0,0,0,0,0,0,0,0,0,0,0,0,0,0,0,0,0,0,0,0,0,0],"id":4,"left_children":[1,3,5,7,9,11,13,15,17,19,21,23,25,-1,27,29,31,33,35,-1,37,39,41,43,45,47,-1,49,51,53,55,57,59,61,63,-1,65,-1,67,69,71,73,75,77,79,-1,81,83,-1,-1,85,87,89,-1,-1,-1,-1,-1,-1,-1,-1,-1,-1,-1,-1,-1,-1,-1,-1,-1,-1,-1,-1,-1,-1,-1,-1,-1,-1,-1,-1,-1,-1,-1,-1,-1,-1,-1,-1,-1,-1],"loss_changes":[9.697806E0,7.122096E0,4.5162954E0,5.5592957E0,6.150563E0,5.8882074E0,2.1793158E0,3.3723438E0,5.656912E0,9.451364E0,5.32748E0,1.2393322E0,3.33629E0,0E0,1.2170043E0,4.218443E0,3.2864113E0,3.1081772E0,4.7631145E-1,0E0,7.858E-1,5.1781373E0,3.0233295E0,2.3148785E0,1.4033394E0,1.052176E0,0E0,8.375256E-1,2.943766E0,3.8664103E0,2.891256E0,7.121198E0,2.1941168E0,2.2631187E0,3.0753465E0,0E0,4.7811228E-1,0E0,1.5728267E0,3.1772156E0,6.644969E0,1.5854883E0,2.3068438E0,2.642949E0,4.3572516E0,0E0,2.854519E-1,3.500829E-1,0E0,0E0,1.3223791E-1,3.8816028E0,9.0038246E-1,0E0,0E0,0E0,0E0,0E0,0E0,0E0,0E0,0E0,0E0,0E0,0E0,0E0,0E0,0E0,0E0,0E0,0E0,0E0,0E0,0E0,0E0,0E0,0E0,0E0,0E0,0E0,0E0,0E0,0E0,0E0,0E0,0E0,0E0,0E0,0E0,0E0,0E0],"parents":[2147483647,0,0,1,1,2,2,3,3,4,4,5,5,6,6,7,7,8,8,9,9,10,10,11,11,12,12,14,14,15,15,16,16,17,17,18,18,20,20,21,21,22,22,23,23,24,24,25,25,27,27,28,28,29,29,30,30,31,31,32,32,33,33,34,34,36,36,38,38,39,39,40,40,41,41,42,42,43,43,44,44,46,46,47,47,50,50,51,51,52,52],"right_children":[2,4,6,8,10,12,14,16,18,20,22,24,26,-1,28,30,32,34,36,-1,38,40,42,44,46,48,-1,50,52,54,56,58,60,62,64,-1,66,-1,68,70,72,74,76,78,80,-1,82,84,-1,-1,86,88,90,-1,-1,-1,-1,-1,-1,-1,-1,-1,-1,-1,-1,-1,-1,-1,-1,-1,-1,-1,-1,-1,-1,-1,-1,-1,-1,-1,-1,-1,-1,-1,-1,-1,-1,-1,-1,-1,-1],"split_conditions":[1.9792749E-1,4.9390603E-2,9.6791446E-1,3.8111305E0,1.129625E1,1.4870849E0,2.0737697E-1,-1.4339235E0,8.51227E-1,2.318339E-1,5.378148E1,6.2224413E-3,7.857281E1,4.835732E-2,7.5320643E-1,7.202797E-1,6.2647297E1,1.539447E0,1.4077334E-1,-3.0005345E-2,5.155942E-1,-9.945427E-3,3.69462E-1,5.8903934E1,7.4663675E-1,5.658609E-1,-2.5007224E-2,1.1816146E1,2.0153284E1,8.210357E-2,1.22593515E-1,4.640491E1,4.7085002E-1,6.4383804E1,4.1688818E-1,-2.686477E-2,3.0078486E-1,6.344219E-2,8.79744E-1,-6.6929326E0,6.473862E1,5.895594E1,7.414634E-1,8.776454E-1,-1.1284709E0,1.4857073E-2,4.4861183E1,6.989538E1,5.5893976E-2,1.4445201E-2,4.062762E1,7.570969E1,4.1394886E-1,-2.528948E-2,3.7008237E-2,4.60833E-2,-9.472073E-3,7.968409E-3,-1.8491361E-2,2.1450538E-3,4.644404E-2,5.934915E-2,1.7142877E-2,-2.7430056E-2,2.9899636E-2,-1.8933134E-2,1.2315096E-2,-1.886675E-2,4.3053843E-2,9.720184E-3,-2.926882E-2,7.2955475E-3,-2.2363674E-2,1.7026564E-2,-2.375238E-2,4.3271072E-2,-6.393434E-3,-2.1379365E-2,2.903682E-2,5.3287935E-2,-2.6513988E-2,-3.28586E-2,-1.2729511E-2,2.2810353E-2,-5.4022847E-3,-2.8343124E-2,-5.308385E-3,5.78484E-2,-2.2520464E-2,1.4795432E-2,-2.5618797E-2],"split_indices":[6,10,7,1,9,5,6,3,7,7,9,10,0,0,5,7,9,3,6,0,5,1,7,0,7,11,0,0,1,6,6,9,11,0,5,0,5,0,3,2,0,9,7,5,3,0,9,0,0,0,0,9,6,0,0,0,0,0,0,0,0,0,0,0,0,0,0,0,0,0,0,0,0,0,0,0,0,0,0,0,0,0,0,0,0,0,0,0,0,0,0],"split_type":[0,0,0,0,0,0,0,0,0,0,0,0,0,0,0,0,0,0,0,0,0,0,0,0,0,0,0,0,0,0,0,0,0,0,0,0,0,0,0,0,0,0,0,0,0,0,0,0,0,0,0,0,0,0,0,0,0,0,0,0,0,0,0,0,0,0,0,0,0,0,0,0,0,0,0,0,0,0,0,0,0,0,0,0,0,0,0,0,0,0,0],"sum_hessian":[4.8073276E2,3.7049493E2,1.1023783E2,2.1250125E2,1.5799368E2,9.221627E1,1.8021563E1,1.7913153E2,3.336972E1,1.3223943E1,1.4476973E2,8.4076324E1,8.139949E0,2.135371E0,1.5886191E1,4.2030285E1,1.3710124E2,2.7683033E1,5.6866884E0,4.1236844E0,9.100259E0,1.2516392E2,1.960582E1,5.289294E1,3.1183384E1,6.087857E0,2.0520916E0,5.6972027E0,1.0188989E1,2.5971571E1,1.6058714E1,1.2631591E2,1.0785334E1,1.9156525E1,8.526508E0,2.5702333E0,3.1164548E0,6.6764283E0,2.4238303E0,4.298191E1,8.218201E1,7.785275E0,1.1820545E1,4.793046E1,4.9624777E0,1.2085513E0,2.9974833E1,2.939915E0,3.147942E0,1.2175043E0,4.4796987E0,5.403741E0,4.785248E0,2.0709643E0,2.3900608E1,1.765872E0,1.4292842E1,9.236845E1,3.394746E1,4.8534746E0,5.931859E0,1.3775048E1,5.3814764E0,2.617158E0,5.9093504E0,1.0277436E0,2.0887113E0,1.0267622E0,1.3970681E0,5.5546374E0,3.7427273E1,5.4549564E1,2.763244E1,3.2741306E0,4.5111446E0,9.082117E0,2.738428E0,4.6025337E1,1.9051237E0,2.421791E0,2.5406864E0,2.623765E1,3.7371824E0,1.5595409E0,1.380374E0,3.1027539E0,1.3769447E0,3.8687396E0,1.535001E0,1.2086227E0,3.5766249E0],"tree_param":{"num_deleted":"0","num_feature":"25","num_nodes":"91","size_leaf_vector":"1"}},{"base_weights":[-5.284787E-3,-8.352744E-2,9.8737556E-1,-1.630342E-1,3.6021036E-1,1.152962E0,-8.396347E-2,-2.959479E-1,1.2288321E-2,5.799244E-1,2.2462541E-2,8.02909E-2,6.258898E-2,-3.7792507E-1,1.8220896E-2,-3.3241275E-1,8.443503E-1,1.6734198E-1,-3.046673E-1,1.0223027E0,4.0908983E-1,7.215881E-1,-4.3972436E-1,-2.3440337E-2,3.654053E-2,-6.4584645E-3,-2.287941E-2,7.1746665E-1,-3.534934E-1,9.847894E-1,5.1364084E-3,5.7085073E-1,-1.6707825E-2,-6.238212E-1,2.981056E-1,4.9234694E-3,1.130649E0,2.6292682E-1,5.2052904E-2,-2.1669894E-2,9.2247564E-1,3.6829617E-2,-5.6055677E-1,5.0324578E-2,2.3107787E-3,-2.622515E-2,-1.195185E-2,8.896398E-3,5.6353003E-2,-2.1668097E-2,3.7735995E-2,-1.6412493E-2,1.5970549E-2,-1.0676432E-2,-3.5796683E-2,4.684971E-2,-6.6086003E-3,6.26419E-2,1.8380148E-2,-7.005093E-5,3.5597987E-2,6.0914136E-2,1.7592527E-2,-6.027221E-4,-3.448212E-2],"categories":[],"categories_nodes":[],"categories_segments":[],"categories_sizes":[],"default_left":[0,0,0,0,0,0,0,0,0,0,0,0,0,0,0,0,0,0,0,0,0,0,0,0,0,0,0,0,0,0,0,0,0,0,0,0,0,0,0,0,0,0,0,0,0,0,0,0,0,0,0,0,0,0,0,0,0,0,0,0,0,0,0,0,0],"id":5,"left_children":[1,3,5,7,9,11,13,15,17,19,21,23,-1,25,-1,27,29,31,33,35,37,39,41,-1,-1,-1,-1,43,45,47,-1,49,51,53,55,-1,57,59,-1,-1,61,-1,63,-1,-1,-1,-1,-1,-1,-1,-1,-1,-1,-1,-1,-1,-1,-1,-1,-1,-1,-1,-1,-1,-1],"loss_changes":[3.740793E1,1.580725E1,6.33947E0,8.8411E0,5.0434675E0,3.137432E0,8.8150465E-1,9.251806E0,8.135034E0,2.6986809E0,9.331347E0,1.6446831E0,0E0,1.8164814E-2,0E0,4.8965836E0,6.24578E-1,8.260702E0,1.0649395E1,9.71962E-1,2.6285934E0,3.0636482E0,2.8882651E0,0E0,0E0,0E0,0E0,8.186507E-1,3.9130402E0,4.5862436E-1,0E0,6.7583933E0,8.196426E0,1.2033167E0,5.485896E0,0E0,4.337101E-1,3.1886284E0,0E0,0E0,1.2761097E0,0E0,1.1501002E0,0E0,0E0,0E0,0E0,0E0,0E0,0E0,0E0,0E0,0E0,0E0,0E0,0E0,0E0,0E0,0E0,0E0,0E0,0E0,0E0,0E0,0E0],"parents":[2147483647,0,0,1,1,2,2,3,3,4,4,5,5,6,6,7,7,8,8,9,9,10,10,11,11,13,13,15,15,16,16,17,17,18,18,19,19,20,20,21,21,22,22,27,27,28,28,29,29,31,31,32,32,33,33,34,34,36,36,37,37,40,40,42,42],"right_children":[2,4,6,8,10,12,14,16,18,20,22,24,-1,26,-1,28,30,32,34,36,38,40,42,-1,-1,-1,-1,44,46,48,-1,50,52,54,56,-1,58,60,-1,-1,62,-1,64,-1,-1,-1,-1,-1,-1,-1,-1,-1,-1,-1,-1,-1,-1,-1,-1,-1,-1,-1,-1,-1,-1],"split_conditions":[7.9656565E-1,8.863636E-1,9.86637E-1,4.2058453E-2,9.60379E-1,-2.2666104E-1,3.1413965E0,1.6692455E1,3.1238042E-2,-3.9645527E-2,1.8099287E-1,2.8311333E-1,6.258898E-2,2.6588757E0,1.8220896E-2,-2.5959718E-1,2.6056969E1,2.3406061E1,1.4849004E-1,-1.3610104E-1,5.898921E-1,1.4629519E1,-1.2962233E1,-2.3440337E-2,3.654053E-2,-6.4584645E-3,-2.287941E-2,3.343645E1,1.9228918E-2,1.7512682E1,5.1364084E-3,1.129625E1,-9.7300345E-4,9.482205E-2,2.395893E1,4.9234694E-3,9.540034E-1,2.8481173E1,5.2052904E-2,-2.1669894E-2,2.4383892E1,3.6829617E-2,9.6505374E-1,5.0324578E-2,2.3107787E-3,-2.622515E-2,-1.195185E-2,8.896398E-3,5.6353003E-2,-2.1668097E-2,3.7735995E-2,-1.6412493E-2,1.5970549E-2,-1.0676432E-2,-3.5796683E-2,4.684971E-2,-6.6086003E-3,6.26419E-2,1.8380148E-2,-7.005093E-5,3.5597987E-2,6.0914136E-2,1.7592527E-2,-6.027221E-4,-3.448212E-2],"split_indices":[4,7,7,10,7,10,4,2,8,8,6,6,0,4,0,10,2,9,6,8,4,9,2,0,0,0,0,0,8,2,0,9,8,10,9,0,7,9,0,0,9,0,7,0,0,0,0,0,0,0,0,0,0,0,0,0,0,0,0,0,0,0,0,0,0],"split_type":[0,0,0,0,0,0,0,0,0,0,0,0,0,0,0,0,0,0,0,0,0,0,0,0,0,0,0,0,0,0,0,0,0,0,0,0,0,0,0,0,0,0,0,0,0,0,0,0,0,0,0,0,0,0,0,0,0,0,0,0,0,0,0,0,0],"sum_hessian":[4.7957468E2,4.4538477E2,3.4189896E1,3.7824524E2,6.7139534E1,2.9546928E1,4.6429667E0,2.147518E2,1.6349344E2,4.024321E1,2.6896328E1,2.6452372E0,2.690169E1,2.8993015E0,1.7436652E0,2.0878372E2,5.968072E0,1.10103294E2,5.3390137E1,9.822794E0,3.0420416E1,1.0481011E1,1.6415316E1,1.5859156E0,1.0593216E0,1.3391429E0,1.5601587E0,3.4594293E0,2.053243E2,4.742173E0,1.2258987E0,3.383099E1,7.627231E1,3.4884632E1,1.8505505E1,1.2314509E0,8.591343E0,2.5856346E1,4.5640697E0,1.381393E0,9.099618E0,1.0544218E0,1.5360894E1,2.069098E0,1.3903314E0,8.0887505E1,1.2443679E2,1.0481901E0,3.693983E0,5.0257335E0,2.8805256E1,3.9595455E1,3.667685E1,7.004209E0,2.7880424E1,6.9734592E0,1.1532044E1,6.85219E0,1.7391531E0,1.6903065E1,8.953282E0,5.2454348E0,3.8541834E0,3.1346645E0,1.222623E1],"tree_param":{"num_deleted":"0","num_feature":"25","num_nodes":"65","size_leaf_vector":"1"}},{"base_weights":[1.0565562E-2,1.1310399E-1,-4.672305E-1,-2.948439E-1,1.9974954E-1,5.954402E-1,-5.1197505E-1,-4.8224097E-1,8.213672E-2,1.1010922E-1,7.0690864E-1,4.402657E-2,2.0111913E-3,-5.4935414E-1,4.858543E-1,-5.6762403E-1,6.526095E-1,5.165899E-1,-3.986901E-1,3.389527E-1,-1.3351429E-1,-2.7034193E-2,7.9297864E-1,-5.740492E-1,1.640228E-2,3.5935827E-3,3.4715146E-2,4.257366E-2,-6.595132E-1,5.7154596E-3,4.2962767E-2,-2.4716675E-2,7.4010634E-1,-3.335577E-2,6.062152E-1,-1.4733683E-1,5.37088E-1,1.0768019E0,-2.115492E-1,9.720679E-1,1.7809406E-1,-5.865496E-1,9.712457E-3,4.1765813E-2,-2.8889958E-2,-3.4359377E-2,7.21213E-4,-1.8734096E-2,4.434232E-2,3.676304E-2,9.013007E-3,2.1508176E-2,-2.8883798E-2,8.106226E-3,4.1666366E-2,5.8312784E-3,6.0899485E-2,-1.7258001E-2,2.21356E-2,3.2165363E-2,6.234541E-2,-2.276677E-2,3.861792E-2,-1.0869234E-2,-3.040658E-2],"categories":[],"categories_nodes":[],"categories_segments":[],"categories_sizes":[],"default_left":[0,0,0,0,0,0,0,0,0,0,0,0,0,0,0,0,0,0,0,0,0,0,0,0,0,0,0,0,0,0,0,0,0,0,0,0,0,0,0,0,0,0,0,0,0,0,0,0,0,0,0,0,0,0,0,0,0,0,0,0,0,0,0,0,0],"id":6,"left_children":[1,3,5,7,9,11,13,15,17,19,21,-1,-1,23,25,27,29,31,33,35,37,-1,39,41,-1,-1,-1,43,45,-1,-1,-1,47,-1,49,51,53,55,57,59,61,63,-1,-1,-1,-1,-1,-1,-1,-1,-1,-1,-1,-1,-1,-1,-1,-1,-1,-1,-1,-1,-1,-1,-1],"loss_changes":[2.4219952E1,1.44425955E1,4.458336E0,5.1042995E0,1.52081785E1,5.964228E-1,3.4133778E0,5.0246735E0,5.357192E0,1.6041454E1,5.8320236E0,0E0,0E0,1.9603577E0,2.5875068E-1,2.5628366E0,3.2739222E-1,3.391415E0,3.7139673E0,1.43612385E1,1.3420996E1,0E0,5.0550137E0,8.8137627E-1,0E0,0E0,0E0,3.8544014E0,7.4383163E-1,0E0,0E0,0E0,2.191564E0,0E0,3.843057E-2,1.1107873E1,1.1587477E1,1.027216E0,1.1697359E1,2.4998283E0,4.8436522E0,4.9624825E-1,0E0,0E0,0E0,0E0,0E0,0E0,0E0,0E0,0E0,0E0,0E0,0E0,0E0,0E0,0E0,0E0,0E0,0E0,0E0,0E0,0E0,0E0,0E0],"parents":[2147483647,0,0,1,1,2,2,3,3,4,4,5,5,6,6,7,7,8,8,9,9,10,10,13,13,14,14,15,15,16,16,17,17,18,18,19,19,20,20,22,22,23,23,27,27,28,28,32,32,34,34,35,35,36,36,37,37,38,38,39,39,40,40,41,41],"right_children":[2,4,6,8,10,12,14,16,18,20,22,-1,-1,24,26,28,30,32,34,36,38,-1,40,42,-1,-1,-1,44,46,-1,-1,-1,48,-1,50,52,54,56,58,60,62,64,-1,-1,-1,-1,-1,-1,-1,-1,-1,-1,-1,-1,-1,-1,-1,-1,-1,-1,-1,-1,-1,-1,-1],"split_conditions":[8.954545E-1,-1.6732802E0,-1.00390546E-1,8.0407125E-1,6.1732795E-2,2.0611403E1,4.931296E-1,1.2948067E-1,5.2371387E0,1.66784E-2,-5.9929905E0,4.402657E-2,2.0111913E-3,2.9205364E-1,8.2007587E-1,9.5104136E-2,1.4770527E-1,-1.1926995E1,2.6908457E-1,2.3594149E1,6.1398126E-2,-2.7034193E-2,2.8068727E1,8.217461E1,1.640228E-2,3.5935827E-3,3.4715146E-2,-3.4194834E0,2.8618658E-1,5.7154596E-3,4.2962767E-2,-2.4716675E-2,1.1834257E-1,-3.335577E-2,4.5519035E1,1.6144651E-1,-3.2623036E0,9.556134E-2,6.63467E1,-3.361213E-1,2.537314E-1,9.09935E-1,9.712457E-3,4.1765813E-2,-2.8889958E-2,-3.4359377E-2,7.21213E-4,-1.8734096E-2,4.434232E-2,3.676304E-2,9.013007E-3,2.1508176E-2,-2.8883798E-2,8.106226E-3,4.1666366E-2,5.8312784E-3,6.0899485E-2,-1.7258001E-2,2.21356E-2,3.2165363E-2,6.234541E-2,-2.276677E-2,3.861792E-2,-1.0869234E-2,-3.040658E-2],"split_indices":[7,3,5,7,8,0,6,8,1,8,1,0,0,8,11,6,8,1,6,9,6,0,9,0,0,0,0,1,5,0,0,0,6,0,0,5,1,10,0,3,5,7,0,0,0,0,0,0,0,0,0,0,0,0,0,0,0,0,0,0,0,0,0,0,0],"split_type":[0,0,0,0,0,0,0,0,0,0,0,0,0,0,0,0,0,0,0,0,0,0,0,0,0,0,0,0,0,0,0,0,0,0,0,0,0,0,0,0,0,0,0,0,0,0,0,0,0,0,0,0,0,0,0,0,0,0,0,0,0,0,0,0,0],"sum_hessian":[4.9228214E2,4.0592993E2,8.635217E1,7.069205E1,3.3523788E2,2.991737E0,8.3360435E1,4.7032818E1,2.3659233E1,2.8591885E2,4.931903E1,1.5895922E0,1.4021447E0,8.07837E1,2.576738E0,4.4206654E1,2.826164E0,1.2389903E1,1.1269329E1,1.4722981E2,1.3868906E2,2.8420055E0,4.6477024E1,7.89085E1,1.8751985E0,1.3132982E0,1.2634398E0,5.856007E0,3.8350647E1,1.2148126E0,1.6113515E0,2.0240197E0,1.0365884E1,9.158972E0,2.110357E0,4.2696026E1,1.0453379E2,7.625111E0,1.3106393E2,3.554377E1,1.0933255E1,7.7877975E1,1.0305288E0,2.4187438E0,3.4372633E0,3.681906E1,1.5315857E0,1.0250657E0,9.340818E0,1.0623622E0,1.0479949E0,1.8231026E1,2.4465002E1,4.6819504E1,5.7714283E1,1.2115756E0,6.4135356E0,1.0922986E2,2.1834078E1,1.770542E1,1.783835E1,5.4053974E0,5.527858E0,4.9129786E0,7.2965E1],"tree_param":{"num_deleted":"0","num_feature":"25","num_nodes":"65","size_leaf_vector":"1"}},{"base_weights":[-1.5154724E-2,8.361628E-2,-1.8754084E-1,5.233518E-1,-8.7570696E-4,-2.5921386E-1,1.6408388E-1,5.5022724E-2,8.3178353E-1,4.1925192E-1,-5.4322474E-2,4.21181E-1,-3.3808494E-1,-4.8825997E-1,3.084278E-1,3.1843188E-1,-3.849998E-1,8.866431E-1,-1.859065E-2,7.100993E-1,-2.6943138E-1,-4.3429542E-1,6.4763114E-2,-3.1737217E-1,7.25801E-1,-3.898305E-1,3.589231E-1,-5.722895E-3,-2.8862739E-2,5.7155854E-1,-1.3692686E-1,-2.5479645E-2,5.107525E-1,1.46410465E-2,-5.4224074E-1,5.625925E-1,1.1128278E0,8.0548763E-1,-5.474031E-2,-3.0325783E-2,1.0232883E-1,3.3541318E-2,-4.9365178E-1,1.9555068E-1,-1.9376265E-1,4.1837306E-3,-2.6841922E-2,1.0388021E0,-2.4705902E-2,-4.3718562E-1,2.3151973E-1,6.470841E-1,-2.4657048E-2,5.329551E-2,8.443937E-1,-5.163655E-1,4.7913328E-1,3.5158794E-2,-2.258606E-2,-5.1181577E-3,-3.1493843E-2,3.5349302E-2,-1.1457899E-2,2.2739422E-2,6.0908902E-2,4.177975E-3,4.5926373E-2,1.3991728E-2,-1.9590065E-2,2.2839194E-2,-2.3200883E-2,-3.9399858E-3,-2.7809829E-2,-1.5873125E-2,1.3252328E-2,-2.611244E-3,-3.17217E-2,2.6311157E-2,6.0780156E-2,1.5735192E-2,-2.2383757E-2,-2.6418194E-2,2.922271E-2,5.0887787E-3,5.3800024E-2,4.1588705E-2,-1.5652848E-2,1.05762975E-2,4.943185E-2,-4.8129065E-3,-3.0099673E-2,4.5612104E-2,-1.9962614E-2],"categories":[],"categories_nodes":[],"categories_segments":[],"categories_sizes":[],"default_left":[0,0,0,0,0,0,0,0,0,0,0,0,0,0,0,0,0,0,0,0,0,0,0,0,0,0,0,0,0,0,0,0,0,0,0,0,0,0,0,0,0,0,0,0,0,0,0,0,0,0,0,0,0,0,0,0,0,0,0,0,0,0,0,0,0,0,0,0,0,0,0,0,0,0,0,0,0,0,0,0,0,0,0,0,0,0,0,0,0,0,0,0,0],"id":7,"left_children":[1,3,5,7,9,11,13,15,17,19,21,23,25,27,29,31,33,35,-1,37,39,41,43,45,47,49,51,-1,-1,53,55,-1,57,-1,59,61,63,65,67,-1,69,-1,71,73,75,-1,-1,77,-1,79,81,83,-1,85,87,89,91,-1,-1,-1,-1,-1,-1,-1,-1,-1,-1,-1,-1,-1,-1,-1,-1,-1,-1,-1,-1,-1,-1,-1,-1,-1,-1,-1,-1,-1,-1,-1,-1,-1,-1,-1,-1],"loss_changes":[8.321678E0,1.1548699E1,4.5285053E0,7.1907444E0,5.899603E0,8.097958E0,3.046215E0,2.552379E0,2.3194065E0,6.1307087E0,1.0574375E1,3.7951515E0,4.9514093E0,1.3215351E-1,3.1008332E0,2.4356904E0,1.043691E0,1.5080128E0,0E0,1.5851421E0,1.2562387E0,3.9878025E0,6.0674014E0,5.134071E-1,4.912947E0,3.7693424E0,2.7105923E0,0E0,0E0,2.274907E0,2.6752467E0,0E0,2.4632616E0,0E0,2.0883656E-1,1.7615414E0,5.638466E-1,1.4610558E0,4.7937575E-1,0E0,1.2934191E0,0E0,1.3437986E0,4.32375E0,3.7347057E0,0E0,0E0,2.2052765E-1,0E0,1.0572109E0,2.8517718E0,1.6940298E0,0E0,2.1785533E0,7.659068E-1,1.905806E-1,2.067593E0,0E0,0E0,0E0,0E0,0E0,0E0,0E0,0E0,0E0,0E0,0E0,0E0,0E0,0E0,0E0,0E0,0E0,0E0,0E0,0E0,0E0,0E0,0E0,0E0,0E0,0E0,0E0,0E0,0E0,0E0,0E0,0E0,0E0,0E0,0E0,0E0],"parents":[2147483647,0,0,1,1,2,2,3,3,4,4,5,5,6,6,7,7,8,8,9,9,10,10,11,11,12,12,13,13,14,14,15,15,16,16,17,17,19,19,20,20,21,21,22,22,23,23,24,24,25,25,26,26,29,29,30,30,32,32,34,34,35,35,36,36,37,37,38,38,40,40,42,42,43,43,44,44,47,47,49,49,50,50,51,51,53,53,54,54,55,55,56,56],"right_children":[2,4,6,8,10,12,14,16,18,20,22,24,26,28,30,32,34,36,-1,38,40,42,44,46,48,50,52,-1,-1,54,56,-1,58,-1,60,62,64,66,68,-1,70,-1,72,74,76,-1,-1,78,-1,80,82,84,-1,86,88,90,92,-1,-1,-1,-1,-1,-1,-1,-1,-1,-1,-1,-1,-1,-1,-1,-1,-1,-1,-1,-1,-1,-1,-1,-1,-1,-1,-1,-1,-1,-1,-1,-1,-1,-1,-1,-1],"split_conditions":[7.760417E-1,-1.374992E0,9.6791446E-1,6.3881055E-2,-4.757018E0,1.3582554E-1,1.297769E-1,-2.0772038E0,1.3976362E-1,3.502025E-3,-8.5526234E-1,-1.50198685E-2,1.6060804E0,1.1816146E1,1.7370704E0,-2.735541E-1,-6.922656E0,5.897711E-1,-1.859065E-2,4.4132003E-1,2.1040544E-1,-1.3815872E-1,1.0047574E-1,1.2935245E-1,6.738142E1,2.4483295E-1,7.857281E1,-5.722895E-3,-2.8862739E-2,-9.482798E0,4.335541E0,-2.5479645E-2,1.7547382E-1,1.46410465E-2,9.0867236E-2,3.459217E-1,8.288087E-2,-7.8844957E0,-7.9996595E0,-3.0325783E-2,3.4120947E-1,3.3541318E-2,6.929287E-2,-1.590204E-2,6.838718E1,4.1837306E-3,-2.6841922E-2,1.246307E0,-2.4705902E-2,-2.735541E-1,-4.2190213E0,3.942664E-2,-2.4657048E-2,-3.448216E1,4.3445E-1,1.0562087E-1,1.6654083E-1,3.5158794E-2,-2.258606E-2,-5.1181577E-3,-3.1493843E-2,3.5349302E-2,-1.1457899E-2,2.2739422E-2,6.0908902E-2,4.177975E-3,4.5926373E-2,1.3991728E-2,-1.9590065E-2,2.2839194E-2,-2.3200883E-2,-3.9399858E-3,-2.7809829E-2,-1.5873125E-2,1.3252328E-2,-2.611244E-3,-3.17217E-2,2.6311157E-2,6.0780156E-2,1.5735192E-2,-2.2383757E-2,-2.6418194E-2,2.922271E-2,5.0887787E-3,5.3800024E-2,4.1588705E-2,-1.5652848E-2,1.05762975E-2,4.943185E-2,-4.8129065E-3,-3.0099673E-2,4.5612104E-2,-1.9962614E-2],"split_indices":[7,3,7,5,2,6,5,3,8,8,2,8,5,0,3,10,2,11,0,4,4,8,10,6,0,8,0,0,0,2,3,0,6,0,6,4,5,2,2,0,4,0,4,8,0,0,0,2,0,10,3,10,0,2,11,4,8,0,0,0,0,0,0,0,0,0,0,0,0,0,0,0,0,0,0,0,0,0,0,0,0,0,0,0,0,0,0,0,0,0,0,0,0],"split_type":[0,0,0,0,0,0,0,0,0,0,0,0,0,0,0,0,0,0,0,0,0,0,0,0,0,0,0,0,0,0,0,0,0,0,0,0,0,0,0,0,0,0,0,0,0,0,0,0,0,0,0,0,0,0,0,0,0,0,0,0,0,0,0,0,0,0,0,0,0,0,0,0,0,0,0,0,0,0,0,0,0,0,0,0,0,0,0,0,0,0,0,0,0],"sum_hessian":[4.868205E2,3.098199E2,1.7700063E2,4.9097836E1,2.6072205E2,1.4724908E2,2.9751534E1,1.9963398E1,2.9134438E1,2.8652193E1,2.3206984E2,1.4845111E1,1.3240398E2,4.9587016E0,2.4792831E1,1.2660697E1,7.3027005E0,2.8116247E1,1.0181915E0,2.012277E1,8.529423E0,5.474501E1,1.7732483E2,4.322739E0,1.0522371E1,1.2366393E2,8.740045E0,1.3931628E0,3.565539E0,1.5406669E1,9.386163E0,2.0754154E0,1.0585281E1,1.2127291E0,6.0899715E0,1.2991245E1,1.5125002E1,1.7844158E1,2.2786126E0,4.1421566E0,4.387266E0,2.2653866E0,5.247962E1,1.17915344E2,5.9409492E1,1.7477264E0,2.5750127E0,8.492001E0,2.0303717E0,1.1518194E2,8.481993E0,6.7110066E0,2.0290377E0,5.725726E0,9.680943E0,5.908732E0,3.4774308E0,9.046133E0,1.5391484E0,1.3719088E0,4.718063E0,1.1077986E1,1.9132596E0,2.8210523E0,1.2303949E1,2.6512382E0,1.519292E1,1.228728E0,1.0498846E0,2.81741E0,1.5698562E0,7.171543E0,4.530808E1,1.3642135E1,1.0427321E2,4.5813366E1,1.359613E1,3.197682E0,5.294318E0,1.1857506E0,1.1399619E2,2.5324519E0,5.949541E0,3.4993484E0,3.2116582E0,1.4257233E0,4.3000026E0,2.2547364E0,7.426206E0,1.3600765E0,4.5486555E0,2.3032265E0,1.1742043E0],"tree_param":{"num_deleted":"0","num_feature":"25","num_nodes":"93","size_leaf_vector":"1"}},{"base_weights":[9.995641E-3,-7.124274E-2,8.985031E-1,-2.3372932E-1,1.1593478E-1,9.994117E-2,1.0530596E0,-1.5777248E-1,-6.4921784E-1,1.2142799E-2,7.1237594E-1,-2.7339596E-2,5.7615894E-1,1.14504E0,1.469212E-1,5.521958E-3,-4.643972E-1,-3.3918228E-2,-3.6851936E-3,3.995632E-1,-1.4873654E-1,3.0512017E-1,9.95635E-1,-2.5193088E-3,4.6798524E-2,4.789331E-1,6.1752856E-2,-1.8988911E-2,2.9754644E-2,-2.3822379E-1,2.2732373E-1,-6.1164635E-1,-4.6192177E-2,2.4909084E-1,9.769937E-1,-5.3019628E-2,-4.9935716E-1,-2.1109593E-1,8.5556364E-1,1.1621097E0,-2.2331523E-2,4.2088747E-2,-2.0293413E-2,-1.8980654E-2,2.2702394E-2,-3.256344E-2,1.7060278E-2,-3.239139E-2,-1.0703398E-2,4.011887E-2,-2.9456053E-2,3.0663956E-2,5.5638124E-4,1.6504088E-2,5.9313327E-2,8.528232E-3,-1.0711603E-2,1.926195E-2,-2.8774748E-2,3.9152995E-2,-2.339474E-2,2.502153E-3,5.2378785E-2,6.2021505E-2,1.7297262E-2],"categories":[],"categories_nodes":[],"categories_segments":[],"categories_sizes":[],"default_left":[0,0,0,0,0,0,0,0,0,0,0,0,0,0,0,0,0,0,0,0,0,0,0,0,0,0,0,0,0,0,0,0,0,0,0,0,0,0,0,0,0,0,0,0,0,0,0,0,0,0,0,0,0,0,0,0,0,0,0,0,0,0,0,0,0],"id":8,"left_children":[1,3,5,7,9,11,13,15,17,19,21,-1,23,25,27,29,31,-1,-1,33,35,37,39,-1,-1,41,-1,-1,-1,43,45,47,49,51,53,55,57,59,61,63,-1,-1,-1,-1,-1,-1,-1,-1,-1,-1,-1,-1,-1,-1,-1,-1,-1,-1,-1,-1,-1,-1,-1,-1,-1],"loss_changes":[3.46769E1,1.3417842E1,4.8619156E0,7.346136E0,1.2698493E1,2.6652598E0,2.6334038E0,1.0059711E1,5.5652237E-1,1.1020271E1,3.2040596E0,0E0,1.1476942E0,1.2294579E0,1.2280115E0,7.193274E0,4.270672E0,0E0,0E0,4.2635317E0,4.168131E0,4.1347303E0,4.718979E0,0E0,0E0,2.0267673E0,0E0,0E0,0E0,6.3781137E0,7.1910496E0,6.028557E-1,9.346404E0,3.6755064E0,1.0137568E0,3.6158538E0,2.0189447E0,2.4044926E0,1.019825E0,5.91074E-1,0E0,0E0,0E0,0E0,0E0,0E0,0E0,0E0,0E0,0E0,0E0,0E0,0E0,0E0,0E0,0E0,0E0,0E0,0E0,0E0,0E0,0E0,0E0,0E0,0E0],"parents":[2147483647,0,0,1,1,2,2,3,3,4,4,5,5,6,6,7,7,8,8,9,9,10,10,12,12,13,13,14,14,15,15,16,16,19,19,20,20,21,21,22,22,25,25,29,29,30,30,31,31,32,32,33,33,34,34,35,35,36,36,37,37,38,38,39,39],"right_children":[2,4,6,8,10,12,14,16,18,20,22,-1,24,26,28,30,32,-1,-1,34,36,38,40,-1,-1,42,-1,-1,-1,44,46,48,50,52,54,56,58,60,62,64,-1,-1,-1,-1,-1,-1,-1,-1,-1,-1,-1,-1,-1,-1,-1,-1,-1,-1,-1,-1,-1,-1,-1,-1,-1],"split_conditions":[7.645357E-1,1.371241E-1,-4.586302E-2,4.536035E-2,1.6621364E0,2.395893E1,1.2093627E0,4.0569477E1,3.25979E-1,4.8352933E-1,1.7547382E-1,-2.7339596E-2,1.8993984E-1,2.3950638E1,2.8436887E-1,1.0489891E-1,1.86577E-2,-3.3918228E-2,-3.6851936E-3,1.24272406E-1,9.556134E-2,8.524798E-3,2.6375765E-1,-2.5193088E-3,4.6798524E-2,4.8496845E1,6.1752856E-2,-1.8988911E-2,2.9754644E-2,2.3515332E0,-9.957692E-2,-2.5575252E-2,2.1674825E-1,1.7020208E-1,1.58821E-1,3.2227565E-2,3.5518757E1,-6.922656E0,-7.4656835E0,1.6060804E0,-2.2331523E-2,4.2088747E-2,-2.0293413E-2,-1.8980654E-2,2.2702394E-2,-3.256344E-2,1.7060278E-2,-3.239139E-2,-1.0703398E-2,4.011887E-2,-2.9456053E-2,3.0663956E-2,5.5638124E-4,1.6504088E-2,5.9313327E-2,8.528232E-3,-1.0711603E-2,1.926195E-2,-2.8774748E-2,3.9152995E-2,-2.339474E-2,2.502153E-3,5.2378785E-2,6.2021505E-2,1.7297262E-2],"split_indices":[4,6,5,8,11,9,5,9,4,11,6,0,6,0,11,6,8,0,0,10,10,10,10,0,0,9,0,0,0,2,8,2,2,6,6,8,0,2,1,5,0,0,0,0,0,0,0,0,0,0,0,0,0,0,0,0,0,0,0,0,0,0,0,0,0],"split_type":[0,0,0,0,0,0,0,0,0,0,0,0,0,0,0,0,0,0,0,0,0,0,0,0,0,0,0,0,0,0,0,0,0,0,0,0,0,0,0,0,0,0,0,0,0,0,0,0,0,0,0,0,0,0,0,0,0,0,0,0,0,0,0,0,0],"sum_hessian":[4.7852963E2,4.392846E2,3.9245033E1,2.3501884E2,2.0426575E2,6.630939E0,3.2614098E1,1.9986128E2,3.5157574E1,1.748576E2,2.9408154E1,2.7491825E0,3.8817563E0,2.936923E1,3.2448668E0,1.3105128E2,6.880999E1,3.329276E1,1.8648131E0,5.0870514E1,1.2398708E2,1.2915732E1,1.6492422E1,1.7297255E0,2.152031E0,4.2488837E0,2.5120346E1,1.5618998E0,1.6829671E0,6.240176E1,6.864953E1,5.0549175E1,1.8260818E1,4.1490025E1,9.380489E0,9.8302444E1,2.568464E1,6.983229E0,5.932503E0,1.4959908E1,1.5325135E0,3.047702E0,1.2011818E0,5.2193436E1,1.02083235E1,7.335753E0,6.1313774E1,4.5755756E1,4.793416E0,6.938475E0,1.1322343E1,1.577308E1,2.5716946E1,2.922776E0,6.4577136E0,4.1159977E1,5.7142464E1,1.7137626E0,2.3970879E1,1.0128459E0,5.970383E0,1.3845838E0,4.5479193E0,1.3175716E1,1.784191E0],"tree_param":{"num_deleted":"0","num_feature":"25","num_nodes":"65","size_leaf_vector":"1"}},{"base_weights":[3.422882E-2,1.022371E-1,-4.3920413E-1,2.5708262E-2,3.483116E-1,5.900204E-1,-4.855309E-1,-2.4560994E-1,1.625442E-1,9.7233504E-1,1.4532287E-1,9.12344E-3,3.5293885E-2,-5.164671E-1,1.6087558E-2,9.344851E-1,-3.408858E-1,3.2178003E-1,-4.2178784E-2,-2.2055726E-2,1.0748674E0,3.5939717E-1,-1.8969177E-1,-2.4276909E-1,-6.2271404E-1,-1.5608687E-4,5.7185154E-2,4.2132124E-1,-4.8840618E-1,3.854797E-1,-3.1754386E-2,-1.6015336E-1,9.1844237E-1,5.9283268E-2,-5.3836573E-3,5.156206E-1,-3.1829238E-2,2.1148443E-1,-4.4808695E-1,-3.290526E-2,3.7438303E-1,-2.1908641E-1,-3.356445E-2,-1.9931672E-2,5.7303607E-2,-1.1789448E-3,-2.849645E-2,-2.3414742E-2,2.3474537E-2,-2.1631533E-2,8.2855495E-3,8.252617E-3,5.5630174E-2,3.154817E-2,-2.8888747E-2,-3.0663297E-2,4.5719896E-2,-2.7576378E-2,1.9307949E-2,4.6835657E-2,-1.541728E-2,-2.658145E-2,1.0208662E-2],"categories":[],"categories_nodes":[],"categories_segments":[],"categories_sizes":[],"default_left":[0,0,0,0,0,0,0,0,0,0,0,0,0,0,0,0,0,0,0,0,0,0,0,0,0,0,0,0,0,0,0,0,0,0,0,0,0,0,0,0,0,0,0,0,0,0,0,0,0,0,0,0,0,0,0,0,0,0,0,0,0,0,0],"id":9,"left_children":[1,3,5,7,9,11,13,15,17,19,21,-1,-1,23,-1,25,27,29,31,-1,33,35,37,39,41,-1,-1,43,45,47,-1,49,51,-1,-1,53,-1,55,57,-1,59,61,-1,-1,-1,-1,-1,-1,-1,-1,-1,-1,-1,-1,-1,-1,-1,-1,-1,-1,-1,-1,-1],"loss_changes":[1.5924429E1,8.127447E0,3.2492008E0,1.2315387E1,1.2831443E1,1.8888235E-2,1.6648531E0,1.2826676E1,7.198266E0,4.0916824E0,5.694619E0,0E0,0E0,1.5406199E0,0E0,1.6862683E0,1.1862541E1,7.808094E0,1.1175017E1,0E0,3.2151356E0,7.8297286E0,3.333255E0,4.836601E0,6.620827E-1,0E0,0E0,1.0766066E1,3.2955475E0,8.6092E0,0E0,7.8423924E0,1.3949976E0,0E0,0E0,5.6900377E0,0E0,8.049905E0,1.8804126E0,0E0,3.2991788E0,8.91376E-1,0E0,0E0,0E0,0E0,0E0,0E0,0E0,0E0,0E0,0E0,0E0,0E0,0E0,0E0,0E0,0E0,0E0,0E0,0E0,0E0,0E0],"parents":[2147483647,0,0,1,1,2,2,3,3,4,4,5,5,6,6,7,7,8,8,9,9,10,10,13,13,15,15,16,16,17,17,18,18,20,20,21,21,22,22,23,23,24,24,27,27,28,28,29,29,31,31,32,32,35,35,37,37,38,38,40,40,41,41],"right_children":[2,4,6,8,10,12,14,16,18,20,22,-1,-1,24,-1,26,28,30,32,-1,34,36,38,40,42,-1,-1,44,46,48,-1,50,52,-1,-1,54,-1,56,58,-1,60,62,-1,-1,-1,-1,-1,-1,-1,-1,-1,-1,-1,-1,-1,-1,-1,-1,-1,-1,-1,-1,-1],"split_conditions":[5.898921E-1,6.1732795E-2,-2.4319729E-1,2.321083E1,7.696421E-2,2.8512669E0,4.931296E-1,6.1398126E-2,1.789141E-2,7.0950665E0,1.0871164E1,9.12344E-3,3.5293885E-2,-4.1109554E-2,1.6087558E-2,9.556134E-2,-9.957692E-2,1.9876856E-1,5.7692575E-1,-2.2055726E-2,1.491536E0,2.9960835E1,1.91682E-1,-1.3610104E-1,6.409234E-1,-1.5608687E-4,5.7185154E-2,-1.288564E-1,-3.2623036E0,3.4003113E1,-3.1754386E-2,3.1238042E-2,6.399519E-2,5.9283268E-2,-5.3836573E-3,2.7836518E0,-3.1829238E-2,1.4770527E-1,2.9205364E-1,-3.290526E-2,-2.4273129E0,1.7547382E-1,-3.356445E-2,-1.9931672E-2,5.7303607E-2,-1.1789448E-3,-2.849645E-2,-2.3414742E-2,2.3474537E-2,-2.1631533E-2,8.2855495E-3,8.252617E-3,5.5630174E-2,3.154817E-2,-2.8888747E-2,-3.0663297E-2,4.5719896E-2,-2.7576378E-2,1.9307949E-2,4.6835657E-2,-1.541728E-2,-2.658145E-2,1.0208662E-2],"split_indices":[4,8,5,9,8,11,6,6,8,9,1,0,0,8,0,10,8,6,5,0,11,9,8,8,4,0,0,8,1,0,0,8,10,0,0,3,0,8,8,0,3,6,0,0,0,0,0,0,0,0,0,0,0,0,0,0,0,0,0,0,0,0,0],"split_type":[0,0,0,0,0,0,0,0,0,0,0,0,0,0,0,0,0,0,0,0,0,0,0,0,0,0,0,0,0,0,0,0,0,0,0,0,0,0,0,0,0,0,0,0,0,0,0,0,0,0,0,0,0,0,0,0,0,0,0,0,0,0,0],"sum_hessian":[4.9219342E2,4.3105652E2,6.1136887E1,3.296426E2,1.01413925E2,2.127821E0,5.9009064E1,1.1024802E2,2.1939459E2,2.3961605E1,7.7452324E1,1.0409633E0,1.0868576E0,5.7178158E1,1.8309084E0,7.578004E0,1.0267001E2,1.23085526E2,9.630907E1,1.3972837E0,2.2564322E1,4.721144E1,3.0240883E1,1.6907764E1,4.0270393E1,1.5621843E0,6.01582E0,1.6347883E1,8.632213E1,1.159629E2,7.122627E0,8.651712E1,9.791948E0,2.062886E1,1.9354612E0,4.1227116E1,5.984326E0,1.191836E1,1.8322523E1,1.0066663E1,6.841102E0,4.9176927E0,3.53527E1,7.8812823E0,8.466601E0,1.3072801E1,7.324933E1,9.978699E0,1.059842E2,4.693987E1,3.957725E1,2.385548E0,7.4064E0,3.767563E1,3.551486E0,5.542596E0,6.375764E0,1.6602785E1,1.719738E0,3.547328E0,3.2937741E0,2.6815517E0,2.2361412E0],"tree_param":{"num_deleted":"0","num_feature":"25","num_nodes":"63","size_leaf_vector":"1"}},{"base_weights":[1.5654524E-3,1.15247376E-1,-1.654958E-1,7.41436E-1,4.4337366E-2,-3.0856976E-1,1.7023656E-3,-2.3106562E-2,8.2502216E-1,-1.06217645E-1,2.3224896E-1,4.6510223E-2,-3.4318298E-1,3.7844023E-1,-2.2962469E-1,-9.298055E-2,9.6661824E-1,-4.076464E-1,5.2863634E-3,7.492517E-1,1.3656184E-1,-3.9160228E-1,4.8364222E-1,-3.3013576E-1,5.510396E-1,-4.2204756E-1,1.8372856E-1,-2.3015209E-2,2.4124278E-1,1.027664E0,2.2264375E-1,2.6938337E-1,-5.6747264E-1,9.284878E-2,-4.088494E-1,-2.2680372E-2,8.891909E-1,2.1457613E-1,-4.278267E-1,-3.3206463E-1,-6.197579E-1,8.6744547E-1,-2.188139E-2,2.3246495E-2,-3.0530384E-2,3.742731E-1,1.0225734E0,-4.6038836E-1,3.546408E-2,-9.189498E-2,6.550338E-1,-1.8863818E-2,3.647915E-2,2.639466E-2,5.6925178E-2,-1.9091005E-2,3.518911E-2,4.050564E-2,-1.3977611E-2,-3.1360004E-2,-3.387199E-3,5.072078E-2,1.2644444E-3,-2.874879E-2,3.996732E-3,5.1256318E-2,5.593198E-3,3.934913E-3,3.7325043E-2,1.2486848E-2,-2.9366016E-2,-1.0867419E-2,-2.7683992E-2,-3.4467734E-2,-1.0612014E-2,4.9225125E-2,1.4487417E-2,-1.8669574E-2,2.5298351E-2,5.7108946E-2,1.2516911E-2,-2.9762024E-2,-1.2464735E-2,2.3901716E-2,-2.150993E-2,-2.0986622E-2,1.278877E-2,4.6689387E-2,-1.735793E-2],"categories":[],"categories_nodes":[],"categories_segments":[],"categories_sizes":[],"default_left":[0,0,0,0,0,0,0,0,0,0,0,0,0,0,0,0,0,0,0,0,0,0,0,0,0,0,0,0,0,0,0,0,0,0,0,0,0,0,0,0,0,0,0,0,0,0,0,0,0,0,0,0,0,0,0,0,0,0,0,0,0,0,0,0,0,0,0,0,0,0,0,0,0,0,0,0,0,0,0,0,0,0,0,0,0,0,0,0,0],"id":10,"left_children":[1,3,5,7,9,11,13,-1,15,17,19,-1,21,23,25,27,29,31,33,35,37,39,41,43,45,47,49,-1,51,53,55,57,59,61,63,-1,65,67,69,71,73,75,-1,-1,-1,77,79,81,83,85,87,-1,-1,-1,-1,-1,-1,-1,-1,-1,-1,-1,-1,-1,-1,-1,-1,-1,-1,-1,-1,-1,-1,-1,-1,-1,-1,-1,-1,-1,-1,-1,-1,-1,-1,-1,-1,-1,-1],"loss_changes":[9.30882E0,1.2917868E1,4.7485194E0,3.3595638E0,7.466867E0,4.9055367E0,8.149875E0,0E0,3.7348537E0,4.933904E0,5.701868E0,0E0,4.38439E0,4.5326915E0,4.6863317E0,6.830797E-1,8.7853813E-1,4.4416423E0,3.9578707E0,3.450163E0,4.5047717E0,1.1463461E0,2.5874891E0,1.9771917E0,2.032899E0,7.152033E-1,2.5416565E0,0E0,1.2103294E0,6.318741E-1,1.1777041E0,2.6746073E0,9.241867E-1,5.5806923E0,1.5929446E0,0E0,1.6343184E0,6.353653E0,1.4981143E0,1.9413309E0,4.052043E-1,3.5494566E-2,0E0,0E0,0E0,2.419742E0,3.9060783E-1,9.000993E-1,1.0318897E0,1.5811608E0,2.3277814E0,0E0,0E0,0E0,0E0,0E0,0E0,0E0,0E0,0E0,0E0,0E0,0E0,0E0,0E0,0E0,0E0,0E0,0E0,0E0,0E0,0E0,0E0,0E0,0E0,0E0,0E0,0E0,0E0,0E0,0E0,0E0,0E0,0E0,0E0,0E0,0E0,0E0,0E0],"parents":[2147483647,0,0,1,1,2,2,3,3,4,4,5,5,6,6,8,8,9,9,10,10,12,12,13,13,14,14,15,15,16,16,17,17,18,18,19,19,20,20,21,21,22,22,23,23,24,24,25,25,26,26,28,28,29,29,30,30,31,31,32,32,33,33,34,34,36,36,37,37,38,38,39,39,40,40,41,41,45,45,46,46,47,47,48,48,49,49,50,50],"right_children":[2,4,6,8,10,12,14,-1,16,18,20,-1,22,24,26,28,30,32,34,36,38,40,42,44,46,48,50,-1,52,54,56,58,60,62,64,-1,66,68,70,72,74,76,-1,-1,-1,78,80,82,84,86,88,-1,-1,-1,-1,-1,-1,-1,-1,-1,-1,-1,-1,-1,-1,-1,-1,-1,-1,-1,-1,-1,-1,-1,-1,-1,-1,-1,-1,-1,-1,-1,-1,-1,-1,-1,-1,-1,-1],"split_conditions":[7.248908E-1,-2.0227728E0,-1.3507836E-1,-2.735541E-1,4.1626015E-1,1.22593515E-1,4.7202688E-1,-2.3106562E-2,8.6769514E-2,-8.5526234E-1,1.1027283E-1,4.6510223E-2,8.776454E-1,-9.75434E0,2.769008E-1,-3.4194834E0,1.8563426E-1,-4.8054028E0,2.058759E-1,9.3875356E-2,6.726594E1,-9.564947E-1,4.9390603E-2,-1.693833E1,9.640449E-1,6.7232776E0,9.943726E-2,-2.3015209E-2,1.7748918E-1,5.2203023E-1,3.1952055E1,6.3881055E-2,1.1920994E-1,5.3003535E-2,1.7735432E0,-2.2680372E-2,3.6002145E0,4.7156672E0,-2.398727E-2,7.645357E-1,-2.8258625E-1,3.580216E-2,-2.188139E-2,2.3246495E-2,-3.0530384E-2,-1.6213952E-1,2.0737697E-1,7.5320643E-1,1.0586449E0,1.0123229E0,2.7847134E1,-1.8863818E-2,3.647915E-2,2.639466E-2,5.6925178E-2,-1.9091005E-2,3.518911E-2,4.050564E-2,-1.3977611E-2,-3.1360004E-2,-3.387199E-3,5.072078E-2,1.2644444E-3,-2.874879E-2,3.996732E-3,5.1256318E-2,5.593198E-3,3.934913E-3,3.7325043E-2,1.2486848E-2,-2.9366016E-2,-1.0867419E-2,-2.7683992E-2,-3.4467734E-2,-1.0612014E-2,4.9225125E-2,1.4487417E-2,-1.8669574E-2,2.5298351E-2,5.7108946E-2,1.2516911E-2,-2.9762024E-2,-1.2464735E-2,2.3901716E-2,-2.150993E-2,-2.0986622E-2,1.278877E-2,4.6689387E-2,-1.735793E-2],"split_indices":[7,3,3,10,7,6,5,0,6,2,6,0,5,2,6,1,6,1,10,6,0,3,10,1,7,3,10,0,7,11,0,5,6,7,3,0,2,2,10,4,3,10,0,0,0,10,6,5,5,11,1,0,0,0,0,0,0,0,0,0,0,0,0,0,0,0,0,0,0,0,0,0,0,0,0,0,0,0,0,0,0,0,0,0,0,0,0,0,0],"split_type":[0,0,0,0,0,0,0,0,0,0,0,0,0,0,0,0,0,0,0,0,0,0,0,0,0,0,0,0,0,0,0,0,0,0,0,0,0,0,0,0,0,0,0,0,0,0,0,0,0,0,0,0,0,0,0,0,0,0,0,0,0,0,0,0,0,0,0,0,0,0,0,0,0,0,0,0,0,0,0,0,0,0,0,0,0,0,0,0,0],"sum_hessian":[4.8814404E2,2.906634E2,1.9748064E2,2.8604872E1,2.6205853E2,1.0596191E2,9.151873E1,1.5634699E0,2.7041403E1,1.4573235E2,1.16326195E2,2.1769407E0,1.03784966E2,3.4574673E1,5.6944057E1,3.6594722E0,2.3381931E1,3.8634857E1,1.0709748E2,1.7100582E1,9.922561E1,9.854075E1,5.244218E0,6.593499E0,2.7981173E1,3.8841606E1,1.8102451E1,1.5636874E0,2.0957847E0,2.1256449E1,2.125481E0,7.247732E0,3.1387125E1,8.904594E1,1.8051544E1,1.5485373E0,1.5552046E1,8.7720055E1,1.1505557E1,8.009519E1,1.8445557E1,3.7432115E0,1.5010064E0,1.5479083E0,5.045591E0,2.1656439E1,6.3247333E0,3.5832455E1,3.0091524E0,1.1930442E1,6.1720095E0,1.0249901E0,1.0707947E0,4.904586E0,1.6351864E1,1.033499E0,1.0919819E0,3.4114714E0,3.8362606E0,2.7808393E1,3.5787318E0,5.124801E0,8.3921135E1,1.3340932E1,4.7106133E0,1.2965852E1,2.586194E0,7.078602E1,1.6934032E1,2.0844686E0,9.421089E0,5.4081394E1,2.6013796E1,1.5164188E1,3.2813675E0,2.5269904E0,1.2162211E0,2.968441E0,1.8687998E1,5.0617085E0,1.263025E0,2.0754284E1,1.5078169E1,1.5292095E0,1.4799429E0,6.033682E0,5.8967605E0,4.8822856E0,1.2897238E0],"tree_param":{"num_deleted":"0","num_feature":"25","num_nodes":"89","size_leaf_vector":"1"}},{"base_weights":[-3.5090034E-3,-1.3201605E-1,5.376417E-1,-1.5433449E-1,8.6929363E-1,6.574049E-1,-2.1632728E-1,4.238481E-1,-1.9305922E-1,5.5746246E-2,2.9158333E-1,8.155963E-1,7.95856E-2,-3.0173635E-2,2.6602018E-1,-1.5312155E-1,9.8669827E-1,-3.1263086E-1,-5.042433E-2,3.6080193E-2,-5.5007017E-3,1.0488845E0,4.370084E-1,-4.0341616E-1,4.6707264E-1,-2.2223903E-2,5.5377203E-1,5.399632E-1,-4.3031526E-1,5.8669813E-2,2.8588107E-1,3.22044E-1,-3.3815593E-1,1.00847825E-1,-3.7703663E-1,8.037352E-1,1.172519E0,-3.5552353E-1,7.2219956E-1,1.6877998E-2,-3.1781252E-2,6.1498135E-1,-2.0088056E-2,5.443728E-3,6.7204946E-1,5.1455654E-2,-1.96521E-2,-3.1256653E-2,-1.9371202E-3,-2.1740722E-2,4.1570257E-2,4.0681373E-2,-7.0798867E-3,-2.462505E-2,-1.1352389E-2,8.474721E-3,-3.3423077E-2,-3.342948E-2,5.1493724E-3,4.506582E-2,-2.4292765E-3,-1.3407907E-3,6.297448E-2,2.5252892E-2,-3.1660598E-2,4.8383642E-2,7.7268044E-3,6.9731595E-3,3.7744734E-2,4.3775808E-2,8.835348E-3],"categories":[],"categories_nodes":[],"categories_segments":[],"categories_sizes":[],"default_left":[0,0,0,0,0,0,0,0,0,0,0,0,0,0,0,0,0,0,0,0,0,0,0,0,0,0,0,0,0,0,0,0,0,0,0,0,0,0,0,0,0,0,0,0,0,0,0,0,0,0,0,0,0,0,0,0,0,0,0,0,0,0,0,0,0,0,0,0,0,0,0],"id":11,"left_children":[1,3,5,7,9,11,13,15,17,-1,19,21,23,-1,25,27,29,31,33,-1,-1,35,37,39,41,-1,43,45,47,-1,49,51,53,55,57,59,61,63,65,-1,-1,67,-1,-1,69,-1,-1,-1,-1,-1,-1,-1,-1,-1,-1,-1,-1,-1,-1,-1,-1,-1,-1,-1,-1,-1,-1,-1,-1,-1,-1],"loss_changes":[3.4495598E1,9.09177E0,8.737793E0,8.879734E0,9.364548E-1,7.4661407E0,2.7376022E0,8.2628565E0,6.2768974E0,0E0,7.712707E-1,5.2448654E0,3.7100673E0,0E0,1.6442997E0,2.7683802E0,1.3364887E0,3.3572674E0,8.409911E0,0E0,0E0,2.4694061E-1,6.208938E0,1.7480572E0,1.6483312E0,0E0,2.0639157E-1,2.327951E0,7.375419E-1,0E0,1.9381367E0,1.9988723E0,3.2022228E0,6.270881E0,7.605079E0,1.4023542E0,2.5272865E0,2.1452842E0,2.5949621E0,0E0,0E0,5.4093385E-1,0E0,0E0,2.4879575E-1,0E0,0E0,0E0,0E0,0E0,0E0,0E0,0E0,0E0,0E0,0E0,0E0,0E0,0E0,0E0,0E0,0E0,0E0,0E0,0E0,0E0,0E0,0E0,0E0,0E0,0E0],"parents":[2147483647,0,0,1,1,2,2,3,3,4,4,5,5,6,6,7,7,8,8,10,10,11,11,12,12,14,14,15,15,16,16,17,17,18,18,21,21,22,22,23,23,24,24,26,26,27,27,28,28,30,30,31,31,32,32,33,33,34,34,35,35,36,36,37,37,38,38,41,41,44,44],"right_children":[2,4,6,8,10,12,14,16,18,-1,20,22,24,-1,26,28,30,32,34,-1,-1,36,38,40,42,-1,44,46,48,-1,50,52,54,56,58,60,62,64,66,-1,-1,68,-1,-1,70,-1,-1,-1,-1,-1,-1,-1,-1,-1,-1,-1,-1,-1,-1,-1,-1,-1,-1,-1,-1,-1,-1,-1,-1,-1,-1],"split_conditions":[9.09935E-1,1.7512682E1,1.6060804E0,-8.385743E0,2.6056969E1,9.817708E-1,2.2679457E-1,-3.311196E-3,4.2058453E-2,5.5746246E-2,4.8752956E1,5.0068943E1,2.8359985E-1,-3.0173635E-2,9.46593E-1,9.135674E-2,-9.774767E0,1.2857144E-1,3.2227565E-2,3.6080193E-2,-5.5007017E-3,-1.21174656E-1,-3.736254E0,-1.6691661E-1,1.2093627E0,-2.2223903E-2,7.187611E1,-7.524129E-2,-9.180452E0,5.8669813E-2,2.3908412E-2,2.3187457E-2,4.5491803E-1,4.619964E0,5.582822E-1,4.6764965E1,9.279891E-1,-1.9123001E1,2.0153284E1,1.6877998E-2,-3.1781252E-2,4.118216E-1,-2.0088056E-2,5.443728E-3,1.838579E0,5.1455654E-2,-1.96521E-2,-3.1256653E-2,-1.9371202E-3,-2.1740722E-2,4.1570257E-2,4.0681373E-2,-7.0798867E-3,-2.462505E-2,-1.1352389E-2,8.474721E-3,-3.3423077E-2,-3.342948E-2,5.1493724E-3,4.506582E-2,-2.4292765E-3,-1.3407907E-3,6.297448E-2,2.5252892E-2,-3.1660598E-2,4.8383642E-2,7.7268044E-3,6.9731595E-3,3.7744734E-2,4.3775808E-2,8.835348E-3],"split_indices":[7,2,5,1,2,7,8,8,10,0,0,0,5,0,7,5,1,7,8,0,0,10,2,10,5,0,0,8,1,0,8,8,7,2,7,0,7,1,1,0,0,5,0,0,5,0,0,0,0,0,0,0,0,0,0,0,0,0,0,0,0,0,0,0,0,0,0,0,0,0,0],"split_type":[0,0,0,0,0,0,0,0,0,0,0,0,0,0,0,0,0,0,0,0,0,0,0,0,0,0,0,0,0,0,0,0,0,0,0,0,0,0,0,0,0,0,0,0,0,0,0,0,0,0,0,0,0,0,0,0,0,0,0,0,0,0,0,0,0,0,0,0,0,0,0],"sum_hessian":[4.940214E2,3.9982983E2,9.4191536E1,3.9193967E2,7.890169E0,8.139114E1,1.2800393E1,2.3978703E1,3.6796097E2,4.8837776E0,3.0063913E0,6.357462E1,1.7816525E1,6.9616575E0,5.838735E0,1.2200302E1,1.1778401E1,1.9951477E2,1.684462E2,1.0670195E0,1.9393718E0,3.824023E1,2.5334387E1,7.912501E0,9.904024E0,1.5260512E0,4.312684E0,3.214621E0,8.985681E0,8.768219E0,3.010182E0,7.2646365E0,1.9225014E2,1.1559774E2,5.2848454E1,1.5334682E1,2.2905548E1,6.638821E0,1.8695566E1,1.7797251E0,6.132776E0,8.712927E0,1.1910974E0,1.3090875E0,3.0035965E0,2.041374E0,1.1732471E0,5.602048E0,3.383633E0,1.3843067E0,1.6258752E0,3.1596766E0,4.10496E0,7.9031494E1,1.1321864E2,1.0684361E2,8.754128E0,3.2634415E1,2.021404E1,1.3707806E1,1.6268766E0,1.5954719E0,2.1310078E1,1.4198341E0,5.218987E0,1.2559733E1,6.1358323E0,2.4347646E0,6.278162E0,1.5850326E0,1.418564E0],"tree_param":{"num_deleted":"0","num_feature":"25","num_nodes":"71","size_leaf_vector":"1"}},{"base_weights":[-3.9929934E-3,8.747084E-2,-4.172705E-1,-2.271976E-1,1.7695713E-1,4.39528E-1,-4.575785E-1,4.587897E-2,-4.6515048E-1,1.46976E-1,8.1524515E-1,-2.1186499E-2,4.5253526E-2,-5.329477E-1,1.1533344E-1,2.3170465E-1,-4.017381E-1,-5.7451093E-1,-1.0073446E-1,-3.1651703E-1,1.9700444E-1,9.979199E-1,-2.2436714E-2,-6.26181E-1,-3.4834507E-1,-3.762476E-1,5.346895E-1,-2.824201E-2,3.6147398E-1,-5.6400067E-1,3.3666026E-2,-6.3020265E-1,-6.288528E-2,-3.9823166E-1,6.065377E-1,7.3849335E-2,-6.225182E-1,5.802875E-1,5.646073E-2,1.4144122E-2,5.529287E-2,-6.47484E-1,-5.5601066E-3,7.1965706E-1,-4.96E-1,6.1959582E-3,-2.7318215E-2,3.4608782E-4,7.0891917E-1,3.6574364E-2,5.5034813E-3,-3.2276228E-2,-7.7394764E-3,1.0006967E-2,-3.3188697E-2,3.8817625E-2,-2.5803065E-2,2.3177726E-2,-3.178644E-2,4.38427E-2,2.8019927E-3,-1.9148877E-2,3.5503607E-2,-3.4480132E-2,6.2747425E-3,3.740875E-2,-1.8816236E-2,-1.6161486E-3,3.469394E-2,-9.42449E-3,-3.348118E-2,4.6294447E-2,7.306186E-3,-6.316273E-4,-2.8550718E-2,4.570136E-2,7.085657E-3],"categories":[],"categories_nodes":[],"categories_segments":[],"categories_sizes":[],"default_left":[0,0,0,0,0,0,0,0,0,0,0,0,0,0,0,0,0,0,0,0,0,0,0,0,0,0,0,0,0,0,0,0,0,0,0,0,0,0,0,0,0,0,0,0,0,0,0,0,0,0,0,0,0,0,0,0,0,0,0,0,0,0,0,0,0,0,0,0,0,0,0,0,0,0,0,0,0],"id":12,"left_children":[1,3,5,7,9,11,13,15,17,19,21,-1,-1,23,25,27,29,31,33,35,37,39,-1,41,43,45,47,-1,49,51,-1,53,55,57,59,61,63,65,67,-1,-1,69,-1,71,73,-1,-1,-1,75,-1,-1,-1,-1,-1,-1,-1,-1,-1,-1,-1,-1,-1,-1,-1,-1,-1,-1,-1,-1,-1,-1,-1,-1,-1,-1,-1,-1],"loss_changes":[1.8212467E1,1.1149843E1,3.216342E0,5.726211E0,5.769356E0,2.165001E0,3.6831532E0,3.5691786E0,1.815382E0,6.9064183E0,3.584921E0,0E0,0E0,1.0606747E0,2.3808396E0,3.322267E0,2.582153E0,9.8447514E-1,2.7796373E0,3.526648E0,1.4351018E1,6.2730885E-1,0E0,4.5583916E-1,4.6442127E0,5.318077E-1,5.577389E-1,0E0,2.3891604E0,2.8418875E-1,0E0,1.0333061E0,2.165019E0,2.1561136E0,5.413151E-1,4.253224E0,9.1152143E-1,1.1770126E1,1.1141976E1,0E0,0E0,3.4118462E-1,0E0,3.0354643E-1,8.80301E-1,0E0,0E0,0E0,4.0450478E-1,0E0,0E0,0E0,0E0,0E0,0E0,0E0,0E0,0E0,0E0,0E0,0E0,0E0,0E0,0E0,0E0,0E0,0E0,0E0,0E0,0E0,0E0,0E0,0E0,0E0,0E0,0E0,0E0],"parents":[2147483647,0,0,1,1,2,2,3,3,4,4,5,5,6,6,7,7,8,8,9,9,10,10,13,13,14,14,15,15,16,16,17,17,18,18,19,19,20,20,21,21,23,23,24,24,25,25,26,26,28,28,29,29,31,31,32,32,33,33,34,34,35,35,36,36,37,37,38,38,41,41,43,43,44,44,48,48],"right_children":[2,4,6,8,10,12,14,16,18,20,22,-1,-1,24,26,28,30,32,34,36,38,40,-1,42,44,46,48,-1,50,52,-1,54,56,58,60,62,64,66,68,-1,-1,70,-1,72,74,-1,-1,-1,76,-1,-1,-1,-1,-1,-1,-1,-1,-1,-1,-1,-1,-1,-1,-1,-1,-1,-1,-1,-1,-1,-1,-1,-1,-1,-1,-1,-1],"split_conditions":[8.863636E-1,-1.2573959E0,-1.00390546E-1,-5.4465238E-2,3.6656508E0,-1.4068234E-1,1.6950945E0,4.0967262E1,-1.6100777E0,-5.3971663E0,6.7232776E0,-2.1186499E-2,4.5253526E-2,9.9532515E-1,9.60379E-1,-5.0368414E0,8.2954544E-1,4.2893116E1,1.9301842E-1,-6.1775822E-2,-1.1707634E0,7.582205E-1,-2.2436714E-2,3.385335E1,-1.5988761E-1,1.9999338E1,7.567621E-1,-2.824201E-2,-1.3806406E-1,7.514586E-1,3.3666026E-2,-1.6639642E-1,8.439537E-1,-3.633829E-2,2.4606192E-1,-1.1238085E-1,1.7086495E-1,1.24272406E-1,2.0258678E-1,1.4144122E-2,5.529287E-2,9.152442E0,-5.5601066E-3,3.0842184E1,1.4059609E0,6.1959582E-3,-2.7318215E-2,3.4608782E-4,6.520987E0,3.6574364E-2,5.5034813E-3,-3.2276228E-2,-7.7394764E-3,1.0006967E-2,-3.3188697E-2,3.8817625E-2,-2.5803065E-2,2.3177726E-2,-3.178644E-2,4.38427E-2,2.8019927E-3,-1.9148877E-2,3.5503607E-2,-3.4480132E-2,6.2747425E-3,3.740875E-2,-1.8816236E-2,-1.6161486E-3,3.469394E-2,-9.42449E-3,-3.348118E-2,4.6294447E-2,7.306186E-3,-6.316273E-4,-2.8550718E-2,4.570136E-2,7.085657E-3],"split_indices":[7,3,5,10,3,10,5,9,3,1,3,0,0,3,7,3,7,9,5,10,1,7,0,1,10,9,11,0,10,7,0,5,11,5,5,10,10,10,10,0,0,9,0,9,3,0,0,0,3,0,0,0,0,0,0,0,0,0,0,0,0,0,0,0,0,0,0,0,0,0,0,0,0,0,0,0,0],"split_type":[0,0,0,0,0,0,0,0,0,0,0,0,0,0,0,0,0,0,0,0,0,0,0,0,0,0,0,0,0,0,0,0,0,0,0,0,0,0,0,0,0,0,0,0,0,0,0,0,0,0,0,0,0,0,0,0,0,0,0,0,0,0,0,0,0,0,0,0,0,0,0,0,0,0,0,0,0],"sum_hessian":[4.7984644E2,3.935393E2,8.6307144E1,8.6795135E1,3.0674417E2,3.4328687E0,8.287428E1,4.079065E1,4.6004482E1,2.941575E2,1.2586657E1,1.2341648E0,2.198704E0,7.330096E1,9.573322E0,2.9165232E1,1.162542E1,3.494195E1,1.106253E1,2.8138557E1,2.6601895E2,1.1181204E1,1.4054532E0,4.7114037E1,2.6186918E1,4.454467E0,5.1188555E0,3.6161397E0,2.5549091E1,1.0513896E1,1.1115239E0,3.13028E1,3.6391523E0,8.094653E0,2.967876E0,1.2698155E1,1.5440401E1,7.0533905E1,1.9548505E2,1.9413601E0,9.239843E0,4.4995422E1,2.1186163E0,2.7101603E0,2.3476757E1,1.1994578E0,3.2550092E0,1.5285072E0,3.5903485E0,9.563728E0,1.5985363E1,8.285713E0,2.2281826E0,1.0236055E0,3.0279194E1,1.0259871E0,2.6131651E0,1.5431871E0,6.5514665E0,1.5928737E0,1.3750023E0,7.6228023E0,5.0753536E0,1.4241281E1,1.199121E0,6.0188572E1,1.034533E1,1.7241875E2,2.3066303E1,2.5082633E0,4.248716E1,1.5415046E0,1.1686556E0,3.310889E0,2.0165869E1,2.187771E0,1.4025774E0],"tree_param":{"num_deleted":"0","num_feature":"25","num_nodes":"77","size_leaf_vector":"1"}},{"base_weights":[4.108299E-3,9.8650314E-2,-1.4550996E-1,6.036037E-1,3.5693303E-2,7.882357E-1,-1.6690011E-1,9.137573E-1,5.4250885E-2,9.089498E-2,-5.0838137E-1,4.549902E-2,1.3136548E-2,2.6028013E-1,-2.060693E-1,1.6591167E-1,1.0310938E0,4.6613908E-1,-5.041526E-1,1.0376431E0,6.1624955E-2,-5.986422E-1,-2.3465468E-1,-2.4561076E-1,6.629865E-1,-4.8139158E-1,-1.2700176E-1,3.37308E-2,-1.2674629E-2,4.646054E-1,5.628682E-2,-1.2224009E-1,5.0252046E-2,-2.9630298E-2,-6.16062E-3,5.7944804E-2,1.2727383E-2,-1.719715E-1,2.0736216E-1,-6.338258E-1,-4.765229E-3,4.4454936E-2,-3.0524183E-2,-4.9131957E-1,2.3193074E-2,9.172178E-1,-1.08841155E-2,-5.329259E-1,2.1483859E-2,-1.6710007E-1,4.6345192E-1,4.3850493E-2,-2.0174189E-2,-2.3386031E-2,9.879767E-3,7.6812017E-3,-1.8186217E-2,1.2837744E-2,-2.8840521E-2,-3.362101E-2,-1.3887365E-2,-2.9291485E-2,-3.7752332E-3,1.4453693E-2,4.970998E-2,-1.5643872E-2,-2.9342104E-2,-1.0473802E-2,1.7409084E-2,4.5160424E-2,-5.4282895E-3],"categories":[],"categories_nodes":[],"categories_segments":[],"categories_sizes":[],"default_left":[0,0,0,0,0,0,0,0,0,0,0,0,0,0,0,0,0,0,0,0,0,0,0,0,0,0,0,0,0,0,0,0,0,0,0,0,0,0,0,0,0,0,0,0,0,0,0,0,0,0,0,0,0,0,0,0,0,0,0,0,0,0,0,0,0,0,0,0,0,0,0],"id":13,"left_children":[1,3,5,7,9,11,13,15,17,19,21,-1,-1,23,25,27,29,31,33,35,37,39,41,43,45,47,49,-1,-1,51,-1,53,-1,-1,-1,-1,-1,55,57,59,-1,-1,-1,61,-1,63,-1,65,-1,67,69,-1,-1,-1,-1,-1,-1,-1,-1,-1,-1,-1,-1,-1,-1,-1,-1,-1,-1,-1,-1],"loss_changes":[6.9571357E0,9.558969E0,3.9355397E0,5.6319933E0,8.125901E0,4.4979095E-2,3.182857E0,1.6935863E0,3.2470686E0,6.7277584E0,4.755187E-1,0E0,0E0,3.4529243E0,3.6802468E0,1.0401385E0,4.514675E-1,2.6773398E0,1.304915E-1,3.9691067E-1,8.1653185E0,2.602167E-1,3.8485503E0,1.6028771E0,2.273395E0,2.0125113E0,3.2708967E0,0E0,0E0,1.8949566E0,0E0,6.1649716E-1,0E0,0E0,0E0,0E0,0E0,5.8180304E0,5.8614635E0,4.3357372E-2,0E0,0E0,0E0,2.0508373E-1,0E0,6.9425106E-2,0E0,2.4824047E-1,0E0,2.8468812E0,2.3223433E0,0E0,0E0,0E0,0E0,0E0,0E0,0E0,0E0,0E0,0E0,0E0,0E0,0E0,0E0,0E0,0E0,0E0,0E0,0E0,0E0],"parents":[2147483647,0,0,1,1,2,2,3,3,4,4,5,5,6,6,7,7,8,8,9,9,10,10,13,13,14,14,15,15,16,16,17,17,18,18,19,19,20,20,21,21,22,22,23,23,24,24,25,25,26,26,29,29,31,31,37,37,38,38,39,39,43,43,45,45,47,47,49,49,50,50],"right_children":[2,4,6,8,10,12,14,16,18,20,22,-1,-1,24,26,28,30,32,34,36,38,40,42,44,46,48,50,-1,-1,52,-1,54,-1,-1,-1,-1,-1,56,58,60,-1,-1,-1,62,-1,64,-1,66,-1,68,70,-1,-1,-1,-1,-1,-1,-1,-1,-1,-1,-1,-1,-1,-1,-1,-1,-1,-1,-1,-1],"split_conditions":[7.44551E-1,-2.0227728E0,1.1920994E-1,1.1858176E0,2.058759E-1,1.3864597E0,-1.960862E-1,4.2049986E-1,2.8250324E1,-1.3610104E-1,4.5220748E-1,4.549902E-2,1.3136548E-2,2.2038652E-1,-2.8518212E0,1.4520635E-1,-1.2381936E-1,4.713103E-3,3.113364E-2,2.9380817E0,1.66784E-2,1.5127367E0,2.92517E-1,-2.3383203E-1,2.3360953E-1,1.0178325E0,2.4483295E-1,3.37308E-2,-1.2674629E-2,1.3466208E-2,5.628682E-2,-1.4039974E-1,5.0252046E-2,-2.9630298E-2,-6.16062E-3,5.7944804E-2,1.2727383E-2,-3.1808827E0,1.07413396E-1,1.4763613E-1,-4.765229E-3,4.4454936E-2,-3.0524183E-2,1.6824597E-1,2.3193074E-2,5.0352067E-1,-1.08841155E-2,8.2954544E-1,2.1483859E-2,6.7232776E0,1.4952142E0,4.3850493E-2,-2.0174189E-2,-2.3386031E-2,9.879767E-3,7.6812017E-3,-1.8186217E-2,1.2837744E-2,-2.8840521E-2,-3.362101E-2,-1.3887365E-2,-2.9291485E-2,-3.7752332E-3,1.4453693E-2,4.970998E-2,-1.5643872E-2,-2.9342104E-2,-1.0473802E-2,1.7409084E-2,4.5160424E-2,-5.4282895E-3],"split_indices":[7,3,6,11,10,11,10,11,0,8,5,0,0,5,3,6,10,8,5,3,8,11,7,10,6,5,8,0,0,8,0,5,0,0,0,0,0,1,8,4,0,0,0,6,0,11,0,7,0,3,3,0,0,0,0,0,0,0,0,0,0,0,0,0,0,0,0,0,0,0,0],"split_type":[0,0,0,0,0,0,0,0,0,0,0,0,0,0,0,0,0,0,0,0,0,0,0,0,0,0,0,0,0,0,0,0,0,0,0,0,0,0,0,0,0,0,0,0,0,0,0,0,0,0,0,0,0,0,0,0,0,0,0,0,0,0,0,0,0,0,0,0,0,0,0],"sum_hessian":[4.8982202E2,3.0036536E2,1.8945667E2,3.2345695E1,2.6801965E2,3.4399934E0,1.8601668E2,2.0249756E1,1.2095939E1,2.4408752E2,2.3932121E1,2.1989322E0,1.2410613E0,1.5149612E1,1.7086707E2,3.0736685E0,1.7176088E1,7.05631E0,5.039629E0,6.2868443E0,2.3780069E2,1.7104832E1,6.8272896E0,6.887476E0,8.262137E0,3.6986717E1,1.3388036E2,1.1139836E0,1.9596848E0,3.3046954E0,1.3871392E1,3.7429175E0,3.3133924E0,3.6390178E0,1.400611E0,5.0283704E0,1.258474E0,9.1292114E1,1.4650858E2,1.5745001E1,1.3598312E0,1.3687967E0,5.458493E0,5.3441443E0,1.5433313E0,6.3791146E0,1.8830224E0,3.5399414E1,1.5873017E0,1.2603798E2,7.842371E0,2.233396E0,1.0712993E0,1.577044E0,2.1658738E0,3.3910713E1,5.7381405E1,1.3845996E2,8.048608E0,1.3403794E1,2.341207E0,4.021281E0,1.3228636E0,1.2155724E0,5.1635423E0,8.305435E0,2.7093979E1,1.1700883E2,9.029152E0,4.1064343E0,3.7359364E0],"tree_param":{"num_deleted":"0","num_feature":"25","num_nodes":"71","size_leaf_vector":"1"}},{"base_weights":[-2.5716983E-2,-1.0793236E-1,7.6465976E-1,-1.9561411E-1,3.230848E-1,-5.836074E-2,9.1375595E-1,-3.5907328E-1,-2.9755065E-3,4.317565E-1,-3.430202E-1,-2.8247884E-2,4.9558568E-1,9.8360854E-1,-1.2766241E-2,-3.9164922E-1,8.0037427E-1,-6.123839E-1,6.635265E-2,1.03797875E-1,6.672132E-1,-3.0570125E-2,6.0507473E-2,-1.8883815E-2,4.477494E-2,1.0654665E0,4.8566344E-1,-4.0628302E-1,5.682074E-1,2.7596252E-3,5.051074E-2,-3.3790883E-2,2.9608454E-3,5.0822556E-1,-1.0648179E-1,6.1760026E-1,-2.863288E-1,8.0718833E-1,1.24679826E-1,5.136216E-1,-2.4099756E-2,2.3737863E-1,1.1194532E0,-2.1003474E-2,3.789141E-2,1.0879003E-2,-2.1389596E-2,6.20057E-3,3.846779E-2,4.5023434E-2,-1.2381964E-3,1.8859891E-2,-1.1911934E-2,5.5269003E-2,2.334266E-3,-3.0415624E-2,4.1143846E-2,2.1363987E-2,4.8123434E-2,-1.921362E-2,3.446821E-2,3.596845E-2,4.681248E-3,-1.9111428E-2,3.67286E-2,8.383192E-3,5.7542708E-2],"categories":[],"categories_nodes":[],"categories_segments":[],"categories_sizes":[],"default_left":[0,0,0,0,0,0,0,0,0,0,0,0,0,0,0,0,0,0,0,0,0,0,0,0,0,0,0,0,0,0,0,0,0,0,0,0,0,0,0,0,0,0,0,0,0,0,0,0,0,0,0,0,0,0,0,0,0,0,0,0,0,0,0,0,0,0,0],"id":14,"left_children":[1,3,5,7,9,11,13,15,17,19,21,-1,23,25,-1,27,29,31,33,35,37,-1,39,-1,-1,41,43,45,47,-1,-1,-1,-1,49,51,53,55,57,59,61,-1,63,65,-1,-1,-1,-1,-1,-1,-1,-1,-1,-1,-1,-1,-1,-1,-1,-1,-1,-1,-1,-1,-1,-1,-1,-1],"loss_changes":[3.050297E1,1.612157E1,5.480997E0,1.1136619E1,5.3747687E0,2.4475355E0,3.3141727E0,7.5402565E0,6.942863E0,4.7585354E0,1.1941595E0,0E0,1.8127414E0,9.3359756E-1,0E0,2.8544102E0,8.1325865E-1,7.550888E-1,1.1325295E1,5.6514544E0,2.6490383E0,0E0,1.5203508E0,0E0,0E0,1.0636253E0,2.0102859E0,2.569584E0,1.9245243E-1,0E0,0E0,0E0,0E0,8.733674E0,6.903409E0,3.319211E0,6.28905E0,1.2759056E0,2.738978E0,2.1828479E-1,0E0,1.2324054E0,6.333275E-1,0E0,0E0,0E0,0E0,0E0,0E0,0E0,0E0,0E0,0E0,0E0,0E0,0E0,0E0,0E0,0E0,0E0,0E0,0E0,0E0,0E0,0E0,0E0,0E0],"parents":[2147483647,0,0,1,1,2,2,3,3,4,4,5,5,6,6,7,7,8,8,9,9,10,10,12,12,13,13,15,15,16,16,17,17,18,18,19,19,20,20,22,22,25,25,26,26,27,27,28,28,33,33,34,34,35,35,36,36,37,37,38,38,39,39,41,41,42,42],"right_children":[2,4,6,8,10,12,14,16,18,20,22,-1,24,26,-1,28,30,32,34,36,38,-1,40,-1,-1,42,44,46,48,-1,-1,-1,-1,50,52,54,56,58,60,62,-1,64,66,-1,-1,-1,-1,-1,-1,-1,-1,-1,-1,-1,-1,-1,-1,-1,-1,-1,-1,-1,-1,-1,-1,-1,-1],"split_conditions":[7.395542E-1,8.734568E-1,2.0611403E1,4.2058453E-2,1.6060804E0,-8.927058E-2,1.2093627E0,1.6692455E1,1.1523885E1,-2.285766E0,1.91682E-1,-2.8247884E-2,5.897711E-1,1.2948067E-1,-1.2766241E-2,2.2679457E-1,-5.5793724E0,2.7913174E-1,2.1776775E1,-7.900627E-2,2.2679457E-1,-3.0570125E-2,2.4250454E1,-1.8883815E-2,4.477494E-2,7.645357E-1,9.0844065E-1,-1.733663E-1,1.4695835E1,2.7596252E-3,5.051074E-2,-3.3790883E-2,2.9608454E-3,2.6841616E-2,7.59269E-2,1.19351745E-1,6.046419E-1,4.3359876E0,9.349711E-1,7.371697E1,-2.4099756E-2,2.8514433E1,-2.4319729E-1,-2.1003474E-2,3.789141E-2,1.0879003E-2,-2.1389596E-2,6.20057E-3,3.846779E-2,4.5023434E-2,-1.2381964E-3,1.8859891E-2,-1.1911934E-2,5.5269003E-2,2.334266E-3,-3.0415624E-2,4.1143846E-2,2.1363987E-2,4.8123434E-2,-1.921362E-2,3.446821E-2,3.596845E-2,4.681248E-3,-1.9111428E-2,3.67286E-2,8.383192E-3,5.7542708E-2],"split_indices":[4,7,0,10,5,5,5,2,9,2,8,0,11,8,0,8,3,4,9,8,8,0,2,0,0,4,7,8,9,0,0,0,0,8,10,10,4,1,7,0,0,0,5,0,0,0,0,0,0,0,0,0,0,0,0,0,0,0,0,0,0,0,0,0,0,0,0],"split_type":[0,0,0,0,0,0,0,0,0,0,0,0,0,0,0,0,0,0,0,0,0,0,0,0,0,0,0,0,0,0,0,0,0,0,0,0,0,0,0,0,0,0,0,0,0,0,0,0,0,0,0,0,0,0,0,0,0,0,0,0,0,0,0,0,0,0,0],"sum_hessian":[4.671427E2,4.2391074E2,4.323196E1,3.5270596E2,7.120476E1,6.7239413E0,3.650802E1,1.9033635E2,1.6236963E2,6.1519913E1,9.684844E0,3.501688E0,3.2222533E0,3.4599354E1,1.9086648E0,1.857789E2,4.5574493E0,1.5784815E1,1.4658481E2,2.6311907E1,3.5208004E1,5.507029E0,4.177815E0,1.0295976E0,2.1926556E0,2.8735718E1,5.8636365E0,1.8355714E2,2.221751E0,1.2788925E0,3.2785568E0,1.4416843E1,1.3679714E0,4.0668964E1,1.0591584E2,1.1104304E1,1.5207603E1,2.7599457E1,7.608549E0,2.305462E0,1.8723531E0,2.0890634E0,2.6646654E1,1.2292838E0,4.6343527E0,5.8137703E0,1.7774338E2,1.1963558E0,1.0253952E0,2.303059E1,1.7638376E1,2.2276386E1,8.363946E1,5.4833074E0,5.6209974E0,1.2136237E1,3.0713663E0,9.0962515E0,1.8503204E1,4.169791E0,3.4387577E0,1.0689899E0,1.2364719E0,1.0329804E0,1.056083E0,1.0535033E0,2.5593151E1],"tree_param":{"num_deleted":"0","num_feature":"25","num_nodes":"67","size_leaf_vector":"1"}},{"base_weights":[-1.5083209E-2,4.5703854E-2,-4.095928E-1,2.2798178E-1,-9.6490405E-2,1.6451724E-1,-4.7121954E-1,-2.0985197E-1,4.712254E-1,-3.4974658E-1,6.349602E-2,3.5866767E-2,-3.1090912E-1,-2.8605896E-1,-3.3586092E-2,6.846178E-1,-2.7110323E-1,8.205975E-1,2.3524301E-1,-4.8999876E-1,5.0017935E-1,4.8398054E-1,-1.1961053E-1,9.448223E-3,-2.5718966E-2,-3.388449E-1,2.5781369E-2,8.653355E-4,5.039346E-2,-4.0575895E-1,1.4316522E-1,9.3593293E-1,-2.8166164E-2,7.3268783E-1,-2.206597E-2,2.5287831E-2,-5.2625096E-1,-2.7299164E-2,8.9510614E-1,-1.2914005E-1,8.6026347E-1,-1.5062246E-1,4.4959035E-2,-1.21788144E-1,-3.3426385E-2,-2.9704714E-2,-3.1315226E-3,3.5720266E-2,-1.9482547E-2,4.962616E-2,-2.2999242E-2,-2.5600538E-2,4.300295E-2,-3.3904504E-2,9.46194E-3,-2.7644439E-2,2.7837683E-2,-1.4678915E-3,5.3987738E-2,-1.635261E-2,4.3765847E-2,2.0914475E-2,5.288672E-2,8.204689E-3,-1.2818754E-2,-1.736476E-2,4.6977602E-2],"categories":[],"categories_nodes":[],"categories_segments":[],"categories_sizes":[],"default_left":[0,0,0,0,0,0,0,0,0,0,0,0,0,0,0,0,0,0,0,0,0,0,0,0,0,0,0,0,0,0,0,0,0,0,0,0,0,0,0,0,0,0,0,0,0,0,0,0,0,0,0,0,0,0,0,0,0,0,0,0,0,0,0,0,0,0,0],"id":15,"left_children":[1,3,5,7,9,11,13,15,17,19,21,-1,23,25,-1,27,29,31,33,35,37,39,41,-1,-1,43,-1,-1,-1,45,47,49,-1,51,53,-1,55,-1,57,59,61,63,-1,65,-1,-1,-1,-1,-1,-1,-1,-1,-1,-1,-1,-1,-1,-1,-1,-1,-1,-1,-1,-1,-1,-1,-1],"loss_changes":[1.1751686E1,1.1033306E1,2.3921824E0,1.9958523E1,9.720589E0,2.0846229E0,2.010807E0,3.8722775E0,9.715641E0,1.1309903E1,1.1417497E1,0E0,5.554724E-1,1.5539117E0,0E0,9.7401094E-1,3.6111898E0,8.196701E0,9.37718E0,3.1605186E0,6.125241E0,1.0482785E1,3.4081326E0,0E0,0E0,2.1499221E0,0E0,0E0,0E0,3.0860558E0,5.2589946E0,3.9899445E0,0E0,4.3978214E0,6.944661E0,0E0,2.553812E0,0E0,1.7869692E0,3.8579874E0,2.0003815E0,3.4162164E0,0E0,5.119104E0,0E0,0E0,0E0,0E0,0E0,0E0,0E0,0E0,0E0,0E0,0E0,0E0,0E0,0E0,0E0,0E0,0E0,0E0,0E0,0E0,0E0,0E0,0E0],"parents":[2147483647,0,0,1,1,2,2,3,3,4,4,5,5,6,6,7,7,8,8,9,9,10,10,12,12,13,13,15,15,16,16,17,17,18,18,19,19,20,20,21,21,22,22,25,25,29,29,30,30,31,31,33,33,34,34,36,36,38,38,39,39,40,40,41,41,43,43],"right_children":[2,4,6,8,10,12,14,16,18,20,22,-1,24,26,-1,28,30,32,34,36,38,40,42,-1,-1,44,-1,-1,-1,46,48,50,-1,52,54,-1,56,-1,58,60,62,64,-1,66,-1,-1,-1,-1,-1,-1,-1,-1,-1,-1,-1,-1,-1,-1,-1,-1,-1,-1,-1,-1,-1,-1,-1],"split_conditions":[5.898921E-1,-1.091102E-1,-1.4039974E-1,-4.757018E0,3.2227565E-2,-5.378206E-2,7.9656565E-1,-1.1639811E0,-1.6404256E-2,6.3514686E0,2.9229827E0,3.5866767E-2,-2.9500034E-1,1.2093627E0,-3.3586092E-2,4.8820755E-1,2.3199403E0,6.42122E-1,-2.6587567E0,-1.2803657E-1,-3.3849582E-2,-4.9318957E-1,5.013297E1,9.448223E-3,-2.5718966E-2,-2.0461414E0,2.5781369E-2,8.653355E-4,5.039346E-2,5.579385E1,-1.7129536E-1,2.2953894E0,-2.8166164E-2,1.0667078E-3,2.236035E1,2.5287831E-2,5.490797E0,-2.7299164E-2,8.279964E-2,1.07413396E-1,1.1001514E0,9.5750324E-2,4.4959035E-2,6.0382233E1,-3.3426385E-2,-2.9704714E-2,-3.1315226E-3,3.5720266E-2,-1.9482547E-2,4.962616E-2,-2.2999242E-2,-2.5600538E-2,4.300295E-2,-3.3904504E-2,9.46194E-3,-2.7644439E-2,2.7837683E-2,-1.4678915E-3,5.3987738E-2,-1.635261E-2,4.3765847E-2,2.0914475E-2,5.288672E-2,8.204689E-3,-1.2818754E-2,-1.736476E-2,4.6977602E-2],"split_indices":[4,2,5,2,8,8,4,3,8,1,2,0,10,5,0,4,3,1,1,8,8,3,9,0,0,3,0,0,0,9,8,11,0,8,9,0,2,0,10,8,2,4,0,9,0,0,0,0,0,0,0,0,0,0,0,0,0,0,0,0,0,0,0,0,0,0,0],"split_type":[0,0,0,0,0,0,0,0,0,0,0,0,0,0,0,0,0,0,0,0,0,0,0,0,0,0,0,0,0,0,0,0,0,0,0,0,0,0,0,0,0,0,0,0,0,0,0,0,0,0,0,0,0,0,0,0,0,0,0,0,0,0,0,0,0,0,0],"sum_hessian":[4.8825925E2,4.2383743E2,6.442182E1,1.8547496E2,2.3836247E2,6.0830464E0,5.8338776E1,6.629056E1,1.191844E2,9.182258E1,1.465399E2,2.5773363E0,3.5057104E0,3.1591372E1,2.6747404E1,3.596252E0,6.26943E1,4.7049793E1,7.213461E1,7.9180016E1,1.2642561E1,4.3956158E1,1.0258374E2,1.0347903E0,2.47092E0,3.0181452E1,1.4099212E0,1.5173715E0,2.0788805E0,4.7330364E1,1.5363938E1,4.3729134E1,3.3206587E0,2.3962122E1,4.817249E1,2.326481E0,7.685353E1,3.3598397E0,9.2827215E0,1.6966883E1,2.6989273E1,1.0038033E2,2.2034147E0,1.9025105E1,1.1156347E1,3.0085642E1,1.7244722E1,7.250143E0,8.113796E0,4.230315E1,1.4259813E0,1.9441016E0,2.201802E1,1.1197934E1,3.6974556E1,7.548634E1,1.3671923E0,1.6854308E0,7.5972905E0,1.4737494E1,2.2293882E0,9.297685E0,1.7691587E1,2.5108019E1,7.527231E1,1.6246025E1,2.7790792E0],"tree_param":{"num_deleted":"0","num_feature":"25","num_nodes":"67","size_leaf_vector":"1"}},{"base_weights":[1.6816526E-3,5.6472585E-2,-1.9788153E-1,-1.4876415E-1,1.5439937E-1,-2.6269323E-1,2.7349418E-1,1.933281E-1,-4.1353172E-1,2.0093597E-1,-3.8287228E-1,-2.8864574E-1,3.8903948E-2,-2.7614504E-2,6.306833E-1,-1.9186844E-1,5.21692E-1,6.316157E-1,-4.8767224E-1,2.3088348E-1,-3.983396E-1,1.2483092E-2,-4.3686602E-1,-2.0058298E-1,-5.951711E-1,7.563859E-1,3.2306202E-3,4.023893E-2,-2.8635052E-1,-9.2266485E-2,7.399353E-1,-7.432725E-3,4.9766123E-2,1.5462139E-1,-5.628974E-1,5.644052E-1,1.6450422E-1,-5.1066345E-1,1.562105E-2,5.573292E-4,-4.9331072E-1,1.4708796E-1,-3.0735087E-1,-3.1414337E-2,-9.609702E-3,1.30412625E-2,8.128193E-1,-1.9402241E-2,2.8913101E-2,4.736037E-2,-2.494905E-2,4.671596E-2,2.3927985E-2,-1.5752545E-2,4.3780517E-2,-3.2079693E-2,-9.246867E-3,-2.525318E-2,3.2155465E-2,3.2911766E-2,5.6264265E-3,-3.2554742E-2,1.4896653E-2,-1.2839558E-2,-3.211252E-2,-1.476337E-2,2.0454433E-2,-1.7096803E-2,3.647751E-2,1.7401965E-2,5.0958436E-2],"categories":[],"categories_nodes":[],"categories_segments":[],"categories_sizes":[],"default_left":[0,0,0,0,0,0,0,0,0,0,0,0,0,0,0,0,0,0,0,0,0,0,0,0,0,0,0,0,0,0,0,0,0,0,0,0,0,0,0,0,0,0,0,0,0,0,0,0,0,0,0,0,0,0,0,0,0,0,0,0,0,0,0,0,0,0,0,0,0,0,0],"id":16,"left_children":[1,3,5,7,9,11,13,15,17,19,21,23,-1,-1,25,27,29,31,33,35,37,-1,39,41,43,45,-1,-1,47,49,51,-1,-1,53,55,57,59,61,-1,-1,63,65,67,-1,-1,-1,69,-1,-1,-1,-1,-1,-1,-1,-1,-1,-1,-1,-1,-1,-1,-1,-1,-1,-1,-1,-1,-1,-1,-1,-1],"loss_changes":[5.182886E0,7.4969654E0,3.191316E0,1.1006075E1,6.3837295E0,2.663001E0,4.1333375E0,6.8431926E0,5.601927E0,4.2698526E0,8.0753136E-1,2.2778816E0,0E0,0E0,6.2174535E-1,2.6094282E0,3.9604435E0,1.5558668E0,3.1966028E0,4.8296537E0,1.0733824E0,0E0,4.9118614E-1,2.6620724E0,1.3695908E-1,1.0585785E-3,0E0,0E0,2.3182483E0,4.069068E0,6.473055E-1,0E0,0E0,2.8263617E0,1.6013374E0,3.3967094E0,4.720884E0,1.3594899E0,0E0,0E0,4.3673325E-1,2.118777E0,2.1952257E0,0E0,0E0,0E0,2.559476E-1,0E0,0E0,0E0,0E0,0E0,0E0,0E0,0E0,0E0,0E0,0E0,0E0,0E0,0E0,0E0,0E0,0E0,0E0,0E0,0E0,0E0,0E0,0E0,0E0],"parents":[2147483647,0,0,1,1,2,2,3,3,4,4,5,5,6,6,7,7,8,8,9,9,10,10,11,11,14,14,15,15,16,16,17,17,18,18,19,19,20,20,22,22,23,23,24,24,25,25,28,28,29,29,30,30,33,33,34,34,35,35,36,36,37,37,40,40,41,41,42,42,46,46],"right_children":[2,4,6,8,10,12,14,16,18,20,22,24,-1,-1,26,28,30,32,34,36,38,-1,40,42,44,46,-1,-1,48,50,52,-1,-1,54,56,58,60,62,-1,-1,64,66,68,-1,-1,-1,70,-1,-1,-1,-1,-1,-1,-1,-1,-1,-1,-1,-1,-1,-1,-1,-1,-1,-1,-1,-1,-1,-1,-1,-1],"split_conditions":[1.9876856E-1,-1.3256946E-2,2.4483295E-1,-4.5467224E0,2.1031463E-1,2.6375765E-1,-4.2190213E0,3.847487E1,-1.3610104E-1,1.4390194E-1,-6.439168E-1,1.334378E0,3.8903948E-2,-2.7614504E-2,3.25936E-2,-2.5959718E-1,-9.482798E0,-2.2201045E0,-1.7343265E0,1.8593252E1,1.9492315E-1,1.2483092E-2,1.3969389E-1,-9.7300345E-4,7.403922E1,4.486172E-1,3.2306202E-3,4.023893E-2,2.065115E0,-1.693833E1,7.008083E-1,-7.432725E-3,4.9766123E-2,-2.307525E0,1.3864597E0,-1.6382937E0,3.453057E1,2.1183525E1,1.562105E-2,5.573292E-4,2.108292E1,-1.5577784E-1,5.245874E1,-3.1414337E-2,-9.609702E-3,1.30412625E-2,-2.398727E-2,-1.9402241E-2,2.8913101E-2,4.736037E-2,-2.494905E-2,4.671596E-2,2.3927985E-2,-1.5752545E-2,4.3780517E-2,-3.2079693E-2,-9.246867E-3,-2.525318E-2,3.2155465E-2,3.2911766E-2,5.6264265E-3,-3.2554742E-2,1.4896653E-2,-1.2839558E-2,-3.211252E-2,-1.476337E-2,2.0454433E-2,-1.7096803E-2,3.647751E-2,1.7401965E-2,5.0958436E-2],"split_indices":[6,8,8,2,10,10,3,0,8,8,3,11,0,0,10,10,2,2,3,9,6,0,1,8,0,11,0,0,11,1,11,0,0,1,11,1,0,1,0,0,9,8,9,0,0,0,10,0,0,0,0,0,0,0,0,0,0,0,0,0,0,0,0,0,0,0,0,0,0,0,0],"split_type":[0,0,0,0,0,0,0,0,0,0,0,0,0,0,0,0,0,0,0,0,0,0,0,0,0,0,0,0,0,0,0,0,0,0,0,0,0,0,0,0,0,0,0,0,0,0,0,0,0,0,0,0,0,0,0,0,0,0,0,0,0,0,0,0,0,0,0,0,0,0,0],"sum_hessian":[4.7198257E2,3.7087442E2,1.01108154E2,1.1963083E2,2.5124359E2,8.9275894E1,1.1832256E1,5.2311592E1,6.731924E1,2.3179254E2,1.9451057E1,8.780897E1,1.4669291E0,3.4077287E0,8.424528E0,2.4263863E1,2.8047728E1,3.961098E0,6.335814E1,2.2134598E2,1.0446558E1,1.2447665E0,1.8206291E1,6.949723E1,1.8311733E1,6.61859E0,1.8059382E0,1.450061E0,2.2813803E1,7.5068407E0,2.0540886E1,1.447346E0,2.513752E0,6.5318527E0,5.6826286E1,3.5495678E1,1.858503E2,9.264053E0,1.182504E0,2.126933E0,1.607936E1,1.6239267E1,5.3257965E1,1.6404537E1,1.9071966E0,1.2514048E0,5.367185E0,2.0906057E1,1.9077439E0,1.7374277E0,5.769413E0,1.0303555E1,1.0237332E1,4.296211E0,2.2356417E0,4.6455986E1,1.0370299E1,2.0617929E0,3.3433884E1,1.6590294E1,1.6926001E2,8.059176E0,1.2048774E0,7.265582E0,8.813776E0,5.9933214E0,1.0245945E1,5.218752E1,1.070448E0,2.4762802E0,2.890905E0],"tree_param":{"num_deleted":"0","num_feature":"25","num_nodes":"71","size_leaf_vector":"1"}},{"base_weights":[2.3222968E-2,7.7596074E-1,-3.384362E-2,9.0520173E-1,-1.4694302E-1,5.6400144E-1,-7.4626714E-2,5.3125676E-2,-1.23688936E-1,-2.7301759E-2,3.2717865E-2,-2.4776034E-2,6.591284E-1,-1.4907554E-1,2.5387657E-1,1.6050516E-2,-2.4654731E-2,5.119068E-2,4.5913643E-1,-7.598867E-2,-3.8276055E-1,-4.5113164E-1,3.6398447E-1,7.755493E-1,4.2964954E-2,-2.2417856E-2,-4.341141E-1,-1.23236366E-1,-5.207191E-1,1.5703696E-1,-3.2024566E-2,5.25885E-1,-2.5225812E-1,4.7507927E-2,-2.0304138E-2,-2.2348462E-2,3.73914E-2,-1.1165629E-2,5.713585E-3,-2.847789E-2,6.1192396E-3,-2.7380897E-2,1.9818854E-2,-8.421983E-3,-3.0247524E-2,3.5042286E-2,-2.0156747E-2,3.18495E-2,-2.0992909E-2,3.2126408E-2,-1.8684864E-2],"categories":[],"categories_nodes":[],"categories_segments":[],"categories_sizes":[],"default_left":[0,0,0,0,0,0,0,0,0,0,0,0,0,0,0,0,0,0,0,0,0,0,0,0,0,0,0,0,0,0,0,0,0,0,0,0,0,0,0,0,0,0,0,0,0,0,0,0,0,0,0],"id":17,"left_children":[1,3,5,7,9,11,13,-1,15,-1,-1,-1,17,19,21,-1,-1,-1,23,25,27,29,31,33,35,37,39,41,43,45,-1,47,49,-1,-1,-1,-1,-1,-1,-1,-1,-1,-1,-1,-1,-1,-1,-1,-1,-1,-1],"loss_changes":[2.048444E1,4.1411304E0,1.0859238E1,4.9248676E0,1.9524416E0,3.1939402E0,1.0216836E1,0E0,9.506266E-1,0E0,0E0,0E0,1.4651747E0,5.776811E0,6.162233E0,0E0,0E0,0E0,2.4620042E0,4.9821615E0,2.8266354E0,1.3540113E0,6.8554955E0,2.5948257E0,3.526286E0,6.2698E0,2.6175742E0,6.685537E0,1.4531775E0,1.3144023E0,0E0,5.908778E0,1.8369662E0,0E0,0E0,0E0,0E0,0E0,0E0,0E0,0E0,0E0,0E0,0E0,0E0,0E0,0E0,0E0,0E0,0E0,0E0],"parents":[2147483647,0,0,1,1,2,2,3,3,4,4,5,5,6,6,8,8,12,12,13,13,14,14,18,18,19,19,20,20,21,21,22,22,23,23,24,24,25,25,26,26,27,27,28,28,29,29,31,31,32,32],"right_children":[2,4,6,8,10,12,14,-1,16,-1,-1,-1,18,20,22,-1,-1,-1,24,26,28,30,32,34,36,38,40,42,44,46,-1,48,50,-1,-1,-1,-1,-1,-1,-1,-1,-1,-1,-1,-1,-1,-1,-1,-1,-1,-1],"split_conditions":[-1.0051117E1,3.6656508E0,-3.7727659E0,9.86637E-1,1.8386804E-1,7.3209304E-1,5.390809E-1,5.3125676E-2,1.5257301E1,-2.7301759E-2,3.2717865E-2,-2.4776034E-2,4.7612414E-1,2.9611814E-1,6.455026E-1,1.6050516E-2,-2.4654731E-2,5.119068E-2,2.2354913E-1,5.796933E1,2.0983284E1,6.0728765E-1,3.533851E1,2.6056969E1,2.8311333E-1,1.0716718E-1,1.4194803E-1,1.766085E1,3.4567901E-1,5.2371387E0,-3.2024566E-2,2.7081987E1,5.1574097E1,4.7507927E-2,-2.0304138E-2,-2.2348462E-2,3.73914E-2,-1.1165629E-2,5.713585E-3,-2.847789E-2,6.1192396E-3,-2.7380897E-2,1.9818854E-2,-8.421983E-3,-3.0247524E-2,3.5042286E-2,-2.0156747E-2,3.18495E-2,-2.0992909E-2,3.2126408E-2,-1.8684864E-2],"split_indices":[1,3,3,7,6,7,5,0,0,0,0,0,11,5,7,0,0,0,6,9,9,5,9,2,6,6,6,9,7,1,0,1,0,0,0,0,0,0,0,0,0,0,0,0,0,0,0,0,0,0,0],"split_type":[0,0,0,0,0,0,0,0,0,0,0,0,0,0,0,0,0,0,0,0,0,0,0,0,0,0,0,0,0,0,0,0,0,0,0,0,0,0,0,0,0,0,0,0,0,0,0,0,0,0,0],"sum_hessian":[4.7525702E2,3.260343E1,4.426536E2,2.8615389E1,3.9880428E0,2.744878E1,4.152048E2,2.479213E1,3.823259E0,2.8747973E0,1.1132455E0,1.9146298E0,2.553415E1,3.3893747E2,7.6267334E1,1.7942761E0,2.028983E0,7.584518E0,1.794963E1,2.5919678E2,7.97407E1,9.8840065E0,6.638333E1,9.706387E0,8.243245E0,2.2639384E2,3.280292E1,2.833357E1,5.1407127E1,2.3873198E0,7.496687E0,5.2687725E1,1.3695604E1,8.627411E0,1.0789754E0,5.0788975E0,3.1643474E0,9.14114E1,1.3498244E2,2.636307E1,6.4398503E0,1.556629E1,1.2767281E1,1.049863E1,4.0908497E1,1.0839281E0,1.3033917E0,4.7440884E1,5.2468424E0,1.1238586E0,1.2571745E1],"tree_param":{"num_deleted":"0","num_feature":"25","num_nodes":"51","size_leaf_vector":"1"}},{"base_weights":[1.0556033E-2,1.1430527E-1,-4.5755342E-1,-1.928734E-1,2.027346E-1,3.8477834E-2,-5.135492E-1,-4.3868488E-1,5.47142E-2,-1.6304089E-1,2.722708E-1,-6.3442427E-1,-6.8536565E-2,1.6898777E-2,-5.85743E-1,-3.1142903E-2,2.0536715E-1,-3.4299555E-1,3.752892E-1,8.7890434E-1,1.8599272E-1,-6.5088135E-1,4.5581264E-3,-3.5727966E-1,4.9037106E-2,7.05185E-1,-4.7092253E-1,-6.444552E-1,-1.2970462E-1,5.0692755E-1,-2.8876072E-1,-6.458592E-1,9.113015E-2,6.6009086E-1,-2.7010987E-2,9.992752E-1,-2.7837828E-1,1.13819405E-1,8.3560616E-1,-1.9924828E-1,-3.4208965E-2,-4.913766E-1,2.2502307E-2,-1.8659357E-2,5.269856E-2,5.705621E-3,-3.013154E-2,-4.7830117E-4,-3.410841E-2,2.3678532E-2,-2.6281396E-2,4.2962562E-2,4.7214217E-3,-2.8500086E-2,3.8512196E-2,-3.4597524E-2,2.1994338E-4,2.718623E-2,-1.43687455E-2,-2.3188083E-2,4.7910836E-2,5.7164133E-2,2.1226803E-2,-2.5059333E-2,6.817403E-3,-5.9481184E-3,1.3188816E-2,5.176078E-2,1.0247961E-2,2.2163725E-2,-2.711672E-2,-6.1273393E-3,-3.1659205E-2],"categories":[],"categories_nodes":[],"categories_segments":[],"categories_sizes":[],"default_left":[0,0,0,0,0,0,0,0,0,0,0,0,0,0,0,0,0,0,0,0,0,0,0,0,0,0,0,0,0,0,0,0,0,0,0,0,0,0,0,0,0,0,0,0,0,0,0,0,0,0,0,0,0,0,0,0,0,0,0,0,0,0,0,0,0,0,0,0,0,0,0,0,0],"id":18,"left_children":[1,3,5,7,9,-1,11,13,15,17,19,21,23,25,27,-1,29,31,33,35,37,39,-1,41,-1,43,45,47,49,51,53,55,57,59,-1,61,63,65,67,69,-1,71,-1,-1,-1,-1,-1,-1,-1,-1,-1,-1,-1,-1,-1,-1,-1,-1,-1,-1,-1,-1,-1,-1,-1,-1,-1,-1,-1,-1,-1,-1,-1],"loss_changes":[2.3071346E1,1.05998745E1,6.3176117E0,5.3441553E0,7.734997E0,0E0,4.422722E0,2.9562016E0,4.6642704E0,4.8683605E0,1.3153824E1,8.3756256E-1,6.0633254E0,4.2615623E0,8.073034E-1,0E0,5.675889E0,4.948676E0,3.6770887E0,4.6541767E0,1.0408421E1,8.2388306E-1,0E0,1.9013479E0,0E0,2.3697007E0,6.4271057E-1,6.932535E-1,1.4544262E0,3.3207507E0,4.817503E0,6.6333103E-1,2.9245436E0,3.8496141E0,0E0,1.8877106E0,4.140821E-1,7.110047E0,2.587906E0,1.5178915E0,0E0,6.435287E-1,0E0,0E0,0E0,0E0,0E0,0E0,0E0,0E0,0E0,0E0,0E0,0E0,0E0,0E0,0E0,0E0,0E0,0E0,0E0,0E0,0E0,0E0,0E0,0E0,0E0,0E0,0E0,0E0,0E0,0E0,0E0],"parents":[2147483647,0,0,1,1,2,2,3,3,4,4,6,6,7,7,8,8,9,9,10,10,11,11,12,12,13,13,14,14,16,16,17,17,18,18,19,19,20,20,21,21,23,23,25,25,26,26,27,27,28,28,29,29,30,30,31,31,32,32,33,33,35,35,36,36,37,37,38,38,39,39,41,41],"right_children":[2,4,6,8,10,-1,12,14,16,18,20,22,24,26,28,-1,30,32,34,36,38,40,-1,42,-1,44,46,48,50,52,54,56,58,60,-1,62,64,66,68,70,-1,72,-1,-1,-1,-1,-1,-1,-1,-1,-1,-1,-1,-1,-1,-1,-1,-1,-1,-1,-1,-1,-1,-1,-1,-1,-1,-1,-1,-1,-1,-1,-1],"split_conditions":[8.863636E-1,-1.2573959E0,-1.00390546E-1,6.89243E-1,-4.704215E0,3.8477834E-2,1.2838198E0,-1.21174656E-1,-6.5473676E0,2.3199403E0,-2.8431854E0,4.197105E1,4.907327E1,4.8820755E-1,-1.374992E0,-3.1142903E-2,7.664718E0,5.672645E1,5.7966623E0,1.334378E0,2.1549861E-1,9.718291E-2,4.5581264E-3,7.857281E1,4.9037106E-2,2.6734218E-1,3.3561375E1,1.9112365E-1,2.5438598E-1,6.409234E-1,4.8525795E-1,-4.757018E0,-6.1775822E-2,7.4663675E-1,-2.7010987E-2,5.5802934E-2,3.3292267E-2,2.3471071E1,3.0712378E0,9.0463215E-1,-3.4208965E-2,3.1134264E0,2.2502307E-2,-1.8659357E-2,5.269856E-2,5.705621E-3,-3.013154E-2,-4.7830117E-4,-3.410841E-2,2.3678532E-2,-2.6281396E-2,4.2962562E-2,4.7214217E-3,-2.8500086E-2,3.8512196E-2,-3.4597524E-2,2.1994338E-4,2.718623E-2,-1.43687455E-2,-2.3188083E-2,4.7910836E-2,5.7164133E-2,2.1226803E-2,-2.5059333E-2,6.817403E-3,-5.9481184E-3,1.3188816E-2,5.176078E-2,1.0247961E-2,2.2163725E-2,-2.711672E-2,-6.1273393E-3,-3.1659205E-2],"split_indices":[7,3,5,7,2,0,5,10,2,3,2,2,9,4,3,0,2,9,3,11,10,4,0,0,0,7,9,4,7,4,4,2,10,7,0,10,5,9,2,7,0,3,0,0,0,0,0,0,0,0,0,0,0,0,0,0,0,0,0,0,0,0,0,0,0,0,0,0,0,0,0,0,0],"split_type":[0,0,0,0,0,0,0,0,0,0,0,0,0,0,0,0,0,0,0,0,0,0,0,0,0,0,0,0,0,0,0,0,0,0,0,0,0,0,0,0,0,0,0,0,0,0,0,0,0,0,0,0,0,0,0,0,0,0,0,0,0,0,0,0,0,0,0,0,0,0,0,0,0],"sum_hessian":[4.7297443E2,3.877839E2,8.5190506E1,8.641643E1,3.013675E2,3.1616638E0,8.202885E1,4.2976444E1,4.343998E1,4.7925293E1,2.534422E2,6.4172554E1,1.7856287E1,1.0703201E1,3.2273243E1,7.3315277E0,3.610845E1,3.619033E1,1.1734963E1,3.0413515E1,2.2302869E2,6.285001E1,1.3225467E0,1.4520108E1,3.3361795E0,4.254616E0,6.448585E0,2.8226141E1,4.0471034E0,2.2407509E1,1.3700943E1,2.1030724E1,1.5159607E1,9.163363E0,2.5716002E0,2.7671854E1,2.7416606E0,2.0178517E2,2.1243513E1,4.795159E0,5.805485E1,1.2787461E1,1.7326466E0,1.0226966E0,3.231919E0,1.2095377E0,5.2390475E0,1.6529424E0,2.6573198E1,1.5259181E0,2.5211854E0,1.150113E1,1.0906379E1,1.1190758E1,2.5101848E0,1.957883E1,1.4518924E0,6.7052965E0,8.45431E0,1.8046687E0,7.3586946E0,2.1336525E1,6.33533E0,1.6478767E0,1.0937839E0,7.914035E1,1.2264482E2,1.5648886E1,5.5946274E0,1.5675224E0,3.2276363E0,4.068861E0,8.7186E0],"tree_param":{"num_deleted":"0","num_feature":"25","num_nodes":"73","size_leaf_vector":"1"}},{"base_weights":[-2.4910567E-3,8.793819E-2,-1.6469887E-1,5.364695E-1,1.5394706E-2,-3.4030652E-1,3.7767425E-2,7.6354843E-1,5.1700886E-2,5.420361E-2,-4.284507E-1,-3.6712703E-1,3.741692E-2,4.9090257E-1,-2.0027013E-1,2.0557675E-1,8.5304564E-1,4.9812868E-1,-3.2267612E-1,5.4675836E-2,2.9382002E-2,-3.146872E-2,-2.7187565E-1,-4.69125E-1,-5.080886E-3,8.0767286E-1,-3.5745737E-1,-4.2490846E-1,1.7974816E-1,3.9794635E-2,-3.3990124E-1,3.1285575E-1,9.6005934E-1,-1.9160269E-2,7.087183E-1,-5.462662E-1,2.0455947E-2,7.098612E-1,-3.905085E-3,3.8366625E-1,-4.9892136E-1,2.9444054E-2,-5.139072E-1,-1.9009224E-1,4.2878547E-1,-9.084788E-2,1.0016015E0,5.6395535E-3,-4.9306962E-1,-4.8083505E-1,2.3076152E-2,5.5910486E-1,-8.495841E-2,-6.316241E-3,-2.114563E-2,-2.1939708E-2,3.4663547E-2,5.4461747E-2,2.5400518E-2,4.565739E-2,1.0997124E-2,-7.098301E-3,-3.1157946E-2,5.0994325E-2,-1.532422E-2,-7.046724E-3,5.7857707E-3,4.8219364E-2,-2.0924792E-2,-4.3431404E-3,-3.0979106E-2,1.4947556E-2,-2.6636383E-2,1.1573273E-2,-1.9369291E-2,3.8796768E-2,9.040092E-4,-2.6578624E-2,3.4846168E-2,5.5480298E-2,-6.426646E-3,-4.355733E-3,-2.8911874E-2,-1.34594515E-2,-3.163031E-2,3.6466215E-2,-1.8439168E-2,3.2570366E-2,-1.0423063E-2],"categories":[],"categories_nodes":[],"categories_segments":[],"categories_sizes":[],"default_left":[0,0,0,0,0,0,0,0,0,0,0,0,0,0,0,0,0,0,0,0,0,0,0,0,0,0,0,0,0,0,0,0,0,0,0,0,0,0,0,0,0,0,0,0,0,0,0,0,0,0,0,0,0,0,0,0,0,0,0,0,0,0,0,0,0,0,0,0,0,0,0,0,0,0,0,0,0,0,0,0,0,0,0,0,0,0,0,0,0],"id":19,"left_children":[1,3,5,7,9,11,13,15,17,19,21,23,-1,25,27,29,31,33,35,-1,37,-1,39,41,43,45,47,49,51,-1,53,55,57,-1,59,61,-1,63,65,67,69,-1,71,73,75,77,79,-1,81,83,-1,85,87,-1,-1,-1,-1,-1,-1,-1,-1,-1,-1,-1,-1,-1,-1,-1,-1,-1,-1,-1,-1,-1,-1,-1,-1,-1,-1,-1,-1,-1,-1,-1,-1,-1,-1,-1,-1],"loss_changes":[7.117306E0,1.0129125E1,6.1877484E0,4.7319527E0,4.660411E0,2.9932327E0,8.896486E0,1.2950363E0,2.6509383E0,6.377278E0,5.1341105E-1,3.377922E0,0E0,7.915807E0,4.7020917E0,2.0053587E0,1.1481647E0,1.6058562E0,1.6487386E0,0E0,5.5224943E0,0E0,2.2735858E0,3.6858635E0,1.7777115E0,3.745346E0,5.918952E-1,1.9249544E0,2.1395874E0,0E0,8.643806E-3,1.9130723E0,6.3969994E-1,0E0,4.1401315E-1,1.3226485E-1,0E0,3.8951426E0,3.840679E0,2.3433595E0,4.844122E-1,0E0,1.2154751E0,1.3793868E0,9.304311E-1,1.9813366E0,2.2581959E0,0E0,1.8173397E-1,8.8342285E-1,0E0,1.6422062E0,1.3307215E0,0E0,0E0,0E0,0E0,0E0,0E0,0E0,0E0,0E0,0E0,0E0,0E0,0E0,0E0,0E0,0E0,0E0,0E0,0E0,0E0,0E0,0E0,0E0,0E0,0E0,0E0,0E0,0E0,0E0,0E0,0E0,0E0,0E0,0E0,0E0,0E0],"parents":[2147483647,0,0,1,1,2,2,3,3,4,4,5,5,6,6,7,7,8,8,9,9,10,10,11,11,13,13,14,14,15,15,16,16,17,17,18,18,20,20,22,22,23,23,24,24,25,25,26,26,27,27,28,28,30,30,31,31,32,32,34,34,35,35,37,37,38,38,39,39,40,40,42,42,43,43,44,44,45,45,46,46,48,48,49,49,51,51,52,52],"right_children":[2,4,6,8,10,12,14,16,18,20,22,24,-1,26,28,30,32,34,36,-1,38,-1,40,42,44,46,48,50,52,-1,54,56,58,-1,60,62,-1,64,66,68,70,-1,72,74,76,78,80,-1,82,84,-1,86,88,-1,-1,-1,-1,-1,-1,-1,-1,-1,-1,-1,-1,-1,-1,-1,-1,-1,-1,-1,-1,-1,-1,-1,-1,-1,-1,-1,-1,-1,-1,-1,-1,-1,-1,-1,-1],"split_conditions":[7.760417E-1,-1.8083786E0,-1.3507836E-1,1.2642597E0,2.1031463E-1,4.750586E-1,4.2061222E-1,4.2946523E-1,2.6928736E1,5.3003535E-2,2.1428572E-1,5.1574097E1,3.741692E-2,1.7945048E0,2.769008E-1,1.9881594E1,-1.2381936E-1,-2.735541E-1,4.383722E1,5.4675836E-2,1.1523885E1,-3.146872E-2,1.9537468E1,1.3207173E-1,2.4126045E1,8.2042253E-1,5.390371E1,7.0874405E0,2.5225887E1,3.9794635E-2,4.1568443E1,5.6017186E-2,3.147989E-2,-1.9160269E-2,6.89243E-1,2.4215271E1,2.0455947E-2,9.636653E-1,4.1626015E-1,1.08567536E-1,5.431351E1,2.9444054E-2,-2.735541E-1,8.51227E-1,-4.7888804E-2,9.6658254E-1,2.0737697E-1,5.6395535E-3,2.219987E0,2.5245504E0,2.3076152E-2,7.857281E1,1.0586449E0,-6.316241E-3,-2.114563E-2,-2.1939708E-2,3.4663547E-2,5.4461747E-2,2.5400518E-2,4.565739E-2,1.0997124E-2,-7.098301E-3,-3.1157946E-2,5.0994325E-2,-1.532422E-2,-7.046724E-3,5.7857707E-3,4.8219364E-2,-2.0924792E-2,-4.3431404E-3,-3.0979106E-2,1.4947556E-2,-2.6636383E-2,1.1573273E-2,-1.9369291E-2,3.8796768E-2,9.040092E-4,-2.6578624E-2,3.4846168E-2,5.5480298E-2,-6.426646E-3,-4.355733E-3,-2.8911874E-2,-1.34594515E-2,-3.163031E-2,3.6466215E-2,-1.8439168E-2,3.2570366E-2,-1.0423063E-2],"split_indices":[7,3,3,11,10,6,5,11,0,7,7,0,0,3,6,9,10,10,9,0,9,0,9,6,9,7,0,3,9,0,0,5,10,0,7,9,0,11,7,6,0,0,10,7,10,3,6,0,3,1,0,0,5,0,0,0,0,0,0,0,0,0,0,0,0,0,0,0,0,0,0,0,0,0,0,0,0,0,0,0,0,0,0,0,0,0,0,0,0],"split_type":[0,0,0,0,0,0,0,0,0,0,0,0,0,0,0,0,0,0,0,0,0,0,0,0,0,0,0,0,0,0,0,0,0,0,0,0,0,0,0,0,0,0,0,0,0,0,0,0,0,0,0,0,0,0,0,0,0,0,0,0,0,0,0,0,0,0,0,0,0,0,0,0,0,0,0,0,0,0,0,0,0,0,0,0,0,0,0,0,0],"sum_hessian":[4.8322845E2,3.10555E2,1.7267346E2,4.2344814E1,2.6821017E2,9.210557E1,8.0567894E1,2.8445217E1,1.3899597E1,2.4745143E2,2.0758753E1,9.053779E1,1.5677761E0,2.7381464E1,5.318643E1,4.387611E0,2.4057606E1,6.188972E0,7.710625E0,4.7676744E0,2.4268376E2,7.7692685E0,1.2989485E1,7.0406624E1,2.0131165E1,1.9972038E1,7.4094267E0,3.3352695E1,1.9833738E1,1.8867247E0,2.500886E0,4.6266165E0,1.9430988E1,1.0355278E0,5.1534443E0,6.10029E0,1.6103352E0,1.0369866E1,2.3231389E2,3.1640894E0,9.825396E0,2.3656979E0,6.804093E1,1.450692E1,5.6242447E0,3.6397383E0,1.63323E1,1.6961491E0,5.7132773E0,3.1803701E1,1.5489928E0,7.694465E0,1.2139273E1,1.4057834E0,1.0951025E0,1.5031434E0,3.123473E0,1.4016221E1,5.414768E0,3.0214813E0,2.1319628E0,1.429628E0,4.670662E0,7.9433494E0,2.426517E0,1.08194824E2,1.24119064E2,1.718068E0,1.4460213E0,2.6150038E0,7.2103915E0,1.2029068E0,6.683802E1,4.569677E0,9.9372425E0,2.5660272E0,3.0582175E0,2.5425239E0,1.0972145E0,1.4924191E1,1.4081076E0,1.3415585E0,4.371719E0,1.4440277E1,1.7363424E1,6.6825576E0,1.0119078E0,1.1296265E0,1.1009646E1],"tree_param":{"num_deleted":"0","num_feature":"25","num_nodes":"89","size_leaf_vector":"1"}},{"base_weights":[-8.444448E-3,-7.779489E-2,7.43364E-1,-1.5407728E-1,2.7469337E-1,8.9086604E-1,-8.521171E-2,-2.878549E-1,4.5518694E-3,1.5961584E-1,8.633829E-1,-1.3747725E-1,9.6022314E-1,4.6216613E-1,-4.530154E-1,-3.2447958E-1,7.4723285E-1,1.8503839E-1,-3.629861E-1,-4.3038198E-1,2.884525E-1,3.2492473E-3,9.4552696E-1,9.037387E-3,-1.9384092E-2,1.0152426E0,-2.8584292E-3,3.2821883E-2,3.7041872E-3,-2.5945595E-2,-7.6649413E-3,4.1796267E-1,-3.527864E-1,4.9409E-2,-2.1975774E-3,-5.1517934E-1,2.7884346E-1,-6.2085533E-1,6.1134808E-2,-2.0041603E-1,-3.1743597E-2,5.615926E-1,-2.4887322E-1,1.465556E-2,5.1951874E-2,4.0334997E-1,5.263537E-2,-2.1327544E-2,3.463682E-2,2.387708E-2,-1.8753776E-2,-3.35108E-2,1.464764E-2,1.7491834E-2,-3.166055E-2,-3.3988826E-2,-1.5546309E-2,-1.0841276E-2,3.7952982E-2,-2.6695265E-2,2.7415096E-3,2.3006806E-3,4.5680102E-2,3.390425E-2,-2.1479307E-2,1.4568317E-3,3.0790612E-2],"categories":[],"categories_nodes":[],"categories_segments":[],"categories_sizes":[],"default_left":[0,0,0,0,0,0,0,0,0,0,0,0,0,0,0,0,0,0,0,0,0,0,0,0,0,0,0,0,0,0,0,0,0,0,0,0,0,0,0,0,0,0,0,0,0,0,0,0,0,0,0,0,0,0,0,0,0,0,0,0,0,0,0,0,0,0,0],"id":20,"left_children":[1,3,5,7,9,11,13,15,17,19,21,23,25,27,29,31,33,35,37,39,41,-1,43,-1,-1,45,-1,-1,-1,-1,-1,47,49,-1,-1,51,53,55,57,59,-1,61,63,-1,-1,65,-1,-1,-1,-1,-1,-1,-1,-1,-1,-1,-1,-1,-1,-1,-1,-1,-1,-1,-1,-1,-1],"loss_changes":[2.5449865E1,1.20558605E1,5.114315E0,7.8094015E0,5.2714396E0,2.634203E0,1.6473569E0,7.810066E0,1.1299082E1,5.2944007E0,7.799635E-1,3.1621554E-1,1.9047642E0,2.0510674E-1,1.4798582E-2,4.2140236E0,1.4016256E0,7.645953E0,6.1736355E0,4.6491337E-1,8.421083E0,0E0,4.0062904E-1,0E0,0E0,2.9411697E-1,0E0,0E0,0E0,0E0,0E0,2.0507526E0,3.6387367E0,0E0,0E0,1.930958E0,6.78541E0,4.273939E-1,4.4563446E0,6.5816784E-1,0E0,6.803051E0,3.5928621E0,0E0,0E0,2.5476438E-1,0E0,0E0,0E0,0E0,0E0,0E0,0E0,0E0,0E0,0E0,0E0,0E0,0E0,0E0,0E0,0E0,0E0,0E0,0E0,0E0,0E0],"parents":[2147483647,0,0,1,1,2,2,3,3,4,4,5,5,6,6,7,7,8,8,9,9,10,10,11,11,12,12,13,13,14,14,15,15,16,16,17,17,18,18,19,19,20,20,22,22,25,25,31,31,32,32,35,35,36,36,37,37,38,38,39,39,41,41,42,42,45,45],"right_children":[2,4,6,8,10,12,14,16,18,20,22,24,26,28,30,32,34,36,38,40,42,-1,44,-1,-1,46,-1,-1,-1,-1,-1,48,50,-1,-1,52,54,56,58,60,-1,62,64,-1,-1,66,-1,-1,-1,-1,-1,-1,-1,-1,-1,-1,-1,-1,-1,-1,-1,-1,-1,-1,-1,-1,-1],"split_conditions":[7.9656565E-1,8.8084465E-1,9.8141265E-1,4.2058453E-2,1.7331623E0,-2.2666104E-1,-1.3699347E-1,1.6692455E1,3.1238042E-2,-1.3699347E-1,1.4520635E-1,-2.9500034E-1,1.4325507E0,-1.5703398E-1,-8.441112E0,-8.158513E0,2.6056969E1,-9.957692E-2,5.582822E-1,1.7345935E-1,2.998344E-1,3.2492473E-3,-1.07072465E-1,9.037387E-3,-1.9384092E-2,8.235177E-1,-2.8584292E-3,3.2821883E-2,3.7041872E-3,-2.5945595E-2,-7.6649413E-3,-1.6056581E1,-1.733663E-1,4.9409E-2,-2.1975774E-3,1.6302733E-1,5.2148113E0,2.4015446E-1,1.6266451E0,-1.6100777E0,-3.1743597E-2,-3.7849593E0,-3.1529806E0,1.465556E-2,5.1951874E-2,-7.281706E0,5.263537E-2,-2.1327544E-2,3.463682E-2,2.387708E-2,-1.8753776E-2,-3.35108E-2,1.464764E-2,1.7491834E-2,-3.166055E-2,-3.3988826E-2,-1.5546309E-2,-1.0841276E-2,3.7952982E-2,-2.6695265E-2,2.7415096E-3,2.3006806E-3,4.5680102E-2,3.390425E-2,-2.1479307E-2,1.4568317E-3,3.0790612E-2],"split_indices":[4,7,7,10,11,10,10,2,8,10,6,10,5,10,2,2,2,8,7,3,6,0,4,0,0,4,0,0,0,0,0,1,8,0,0,10,2,4,11,3,0,2,3,0,0,1,0,0,0,0,0,0,0,0,0,0,0,0,0,0,0,0,0,0,0,0,0],"split_type":[0,0,0,0,0,0,0,0,0,0,0,0,0,0,0,0,0,0,0,0,0,0,0,0,0,0,0,0,0,0,0,0,0,0,0,0,0,0,0,0,0,0,0,0,0,0,0,0,0,0,0,0,0,0,0,0,0,0,0,0,0,0,0,0,0,0,0],"sum_hessian":[4.8601364E2,4.4578848E2,4.022516E1,3.669412E2,7.8847275E1,3.408263E1,6.1425295E0,1.9862172E2,1.6831947E2,6.701772E1,1.1829547E1,2.0914192E0,3.199121E1,2.3655224E0,3.7770069E0,1.924971E2,6.1246305E0,1.1321811E2,5.5101364E1,1.1592092E1,5.5425632E1,1.2706454E0,1.0558902E1,1.0427668E0,1.0486524E0,3.0351925E1,1.639286E0,1.1155801E0,1.2499423E0,2.4967277E0,1.2802793E0,6.564165E0,1.8593292E2,4.503997E0,1.6206338E0,1.2844794E1,1.00373314E2,3.3978355E1,2.1123007E1,6.388156E0,5.203936E0,3.671636E1,1.8709274E1,1.8419914E0,8.71691E0,2.4300098E0,2.7921915E1,1.4758346E0,5.0883307E0,4.3267164E0,1.8160622E2,1.0920419E1,1.9243753E0,9.369652E1,6.6767945E0,2.7547857E1,6.430499E0,1.5599551E1,5.5234556E0,2.2962668E0,4.0918894E0,1.5355815E1,2.1360542E1,2.603332E0,1.6105944E1,1.2918286E0,1.1381812E0],"tree_param":{"num_deleted":"0","num_feature":"25","num_nodes":"67","size_leaf_vector":"1"}},{"base_weights":[5.4188543E-3,-2.9437727E-1,9.817452E-2,-1.503079E-1,-4.4249356E-1,-3.0163285E-1,1.8304479E-1,-1.908712E-1,3.4261297E-2,-1.9234419E-1,-5.393472E-1,3.4696582E-1,-4.2799607E-1,6.6546947E-1,4.634785E-2,-9.3698144E-2,-4.7984856E-1,-3.0392198E-2,2.5122413E-1,-6.1145735E-1,-1.7200081E-1,-2.5548536E-2,6.3803214E-1,3.008777E-1,-4.7666278E-1,7.848596E-1,1.6894855E-1,-2.1228824E-2,5.906155E-1,-2.6586413E-1,6.2333286E-1,2.1794872E-2,-3.1189457E-2,-2.1013561E-1,4.290051E-2,8.220828E-3,-6.4512265E-1,4.4310186E-2,-2.9152725E-2,8.832876E-1,-2.0603385E-2,-2.1813206E-2,4.2983077E-2,-3.2138178E-1,-6.397083E-1,8.2734734E-1,-2.2657586E-2,-2.9205114E-2,4.267615E-1,-8.253332E-2,1.8173686E-1,7.9982746E-1,-2.2226503E-1,2.2482857E-2,-1.6625445E-2,-2.4919126E-3,3.977599E-2,-2.859602E-2,3.6390603E-2,-1.7148519E-2,-3.3946745E-2,1.586163E-2,5.0982278E-2,3.3555042E-3,-2.940212E-2,-1.32448515E-2,-3.408117E-2,4.3196134E-2,-1.8845262E-2,4.1450337E-2,-1.7170286E-2,3.656157E-3,-1.346211E-2,-3.8686947E-3,2.6381824E-2,4.588187E-2,1.6587539E-2,-2.5267366E-2,5.0648367E-3],