tree
version=v4
num_class=3
num_tree_per_iteration=3
label_index=0
max_feature_idx=24
objective=multiclass num_class:3
feature_names=rsi_14 macd_line macd_signal macd_hist bb_pct_upper bb_pct_lower atr_pct_14 volatility_regime trend_regime_slope adx_14 cmf_20 volume_sma_ratio corr_btc_eth_20 corr_btc_sol_20 corr_btc_eth_100 corr_btc_sol_100 ratio_btc_eth_norm ratio_btc_sol_norm ratio_btc_bnb_norm btc_funding_rate funding_mom_1 funding_mom_3 funding_spread_eth funding_spread_sol funding_spread_bnb
feature_infos=[2.8950953664666486:95.256087265592996] [-7.1959690592918832:7.867487325010643] [-5.6460397985475117:7.0331766667600686] [-2.2439846726682178:2.9075517537947277] [-0.36814224168813114:2.2891865529405195] [-0.31654853986927906:2.598894845915146] [0.033260951720104209:0.44620284684767852] [0.0023923444976076554:1] [-0.1614036801569384:0.1641478152023079] [5.4609993682944751:88.184825441898667] [-0.44188004693510241:0.48107087767910817] [0.10945569264633377:10.030852116988022] [0.99999999999997724:1.0000000000000004] [0.24368392854758728:0.97508318625273638] [0:1.0000000000000007] [0:0.94072988554105685] none [-3.9152604999365042:3.3984174434146031] [-2.9808540477169427:5.1682792220791889] none none none none none none
tree_sizes=2676 2869 3171 2341 3384 2960 2446 3175 3066 2550 3283 3377 2453 3185 3072 3385 3391 3396 3280 2649 2653 3387 2752 3387 3380 2955 2663

Tree=0
num_leaves=25
num_cat=0
split_feature=3 18 15 14 1 7 8 2 8 8 13 8 1 2 10 8 8 18 3 15 17 8 10 17
split_gain=32.0541 39.3709 9.95428 9.697 13.5847 13.3813 13.8503 22.2207 10.5663 15.3374 11.994 10.1216 9.7826 8.36164 8.21941 6.69095 5.16915 3.82714 3.72787 2.52525 1.2244 0.907888 0.130486 0.126215
threshold=0.38493927339866307 1.5238423368025824 1.0000000180025095e-35 1.0000000180025095e-35 -2.7922911582053298 0.57075608597762628 0.096639079232992642 1.6381804249785452 0.074776852582175882 -0.010417003827765947 0.93546888207776169 0.044135903540898851 -3.4268872062241367 0.65239264529452889 -0.03832163886935603 0.091718527730181534 0.031791990910446814 1.5238423368025824 0.48004621909551543 0.8646850095725912 1.4843646839755176 0.074776852582175882 0.015376630645982067 0.74485901840301072
decision_type=2 2 2 2 2 2 2 2 2 2 2 2 2 2 2 2 2 2 2 2 2 2 2 2
left_child=3 2 -2 4 -1 6 11 -8 9 12 -11 13 -7 -5 -3 18 -16 22 -4 -20 21 -18 -10 -13
right_child=1 14 15 5 -6 8 7 -9 17 10 -12 23 -14 -15 16 -17 20 -19 19 -21 -22 -23 -24 -25
leaf_value=-1.130053450585456 -1.0497121619085077 -1.0885586396272311 -1.0987659360649455 -1.1314661146196328 -1.031828914124969 -1.0959973073476039 -1.0422753221997494 -1.157446728668311 -1.157446728368944 -1.0754684677440081 -1.1397186647377608 -1.1574467277309202 -1.1574467283524794 -1.0932852699854458 -1.0712843074837819 -1.0712843074837819 -1.0187192094926711 -1.1111530312661719 -1.1134502318631301 -1.141515206855567 -1.0067611618195875 -1.0432611956378601 -1.1476210874489567 -1.1505705287640391
leaf_weight=6.5466756820678711 6.1035315096378318 8.6775962710380536 11.205733507871626 98.937886655330658 7.613990366458891 11.673659563064577 10.899791687726976 6.8012403547763816 7.5998901128768939 52.502184182405472 8.4298975802957994 28.720869809389114 14.548651754856108 16.770339399576187 6.937862396240237 6.9378623962402335 7.7562796473503131 9.0389867126941663 12.228353738784788 23.263658350333571 8.3308863937854749 7.3292667269706726 6.0839090943336487 8.6935099065303785
leaf_count=20 17 26 33 312 20 34 29 21 24 151 35 95 46 49 20 20 20 27 38 75 21 20 20 29
internal_value=-1.10767 -1.0847 -1.11022 -1.11761 -1.07724 -1.11965 -1.1284 -1.08653 -1.10603 -1.09812 -1.08436 -1.13324 -1.13009 -1.12593 -1.04565 -1.1171 -1.03338 -1.1364 -1.12391 -1.13185 -1.02215 -1.03064 -1.15308 -1.15585
internal_weight=0 98.771 59.7391 294.861 14.1607 280.701 170.824 17.701 109.877 87.1544 60.9321 153.123 26.2223 115.708 39.0319 53.6356 30.3543 22.7228 46.6977 35.492 23.4164 15.0855 13.6838 37.4144
internal_count=1202 290 183 912 40 872 535 50 337 266 186 485 80 361 107 166 81 71 146 113 61 40 44 124
is_linear=0
shrinkage=1


Tree=1
num_leaves=27
num_cat=0
split_feature=6 1 8 13 15 1 10 1 15 18 7 6 8 4 8 9 13 10 2 7 9 2 4 8 10 1
split_gain=109.424 17.7169 12.0177 10.9555 18.6007 9.83528 7.08093 8.29902 7.59422 6.59721 6.16383 5.48023 5.23084 4.80567 7.454 4.65531 4.25792 5.95163 4.09262 5.01275 3.50217 2.48361 2.17535 1.58581 1.55092 1.43354
threshold=0.103684131167151 -0.18675179600393219 0.005951534043134827 0.8732664380945363 0.74883672331946027 0.26215254565863694 0.11072934385999018 -0.72795217517648314 0.83142310650490125 -0.75475544296337183 0.25357801087624293 0.16128821707838337 0.040578908657478437 0.30186327760501253 0.010235695837957292 18.479648964815009 0.90262470405075945 0.13751961683400676 0.17562312075577016 0.019837366384680966 43.16679305585405 -3.6539187432517326 0.17197091479964585 0.089814593875087237 -0.15472670273878311 0.61007726830553122
decision_type=2 2 2 2 2 2 2 2 2 2 2 2 2 2 2 2 2 2 2 2 2 2 2 2 2 2
left_child=1 -1 5 4 22 -3 7 24 -8 13 18 -10 20 -5 -15 -9 23 -18 19 -4 21 -11 -2 -14 -6 -20
right_child=3 2 10 9 6 -7 8 15 11 12 -12 -13 16 14 -16 -17 17 -19 25 -21 -22 -23 -24 -25 -26 -27
leaf_value=-1.1049654889256142 -1.0185166691309455 -1.039169919600692 -1.011626161851773 -1.1210516176083019 -1.1121920009645032 -1.1183338770450197 -1.1161010635063822 -1.0676321340922226 -1.096954637663178 -1.1007905462367171 -1.059120189453189 -1.0522733543058183 -1.1095966243174737 -1.1067517423734838 -1.0323588526775433 -1.1045028120471843 -1.0730612426398991 -1.1204990945240585 -1.0038177566546076 -1.0634872840890774 -1.0973247463609153 -1.1338745816641882 -1.0593035097190291 -1.1430847977194745 -1.1372701003789722 -1.0303416692196798
leaf_weight=10.315747350454329 6.313479542732237 8.8296761214733106 9.3061944544315356 7.9320608973503139 8.4858868718147296 7.0610918104648581 12.953620433807371 9.8441349267959577 11.365786641836168 6.1983075886964789 11.44800019264221 17.320687860250473 6.5235162675380689 7.2152691781520826 6.3135525286197662 65.682040810585022 15.037515942007305 11.80047373101115 28.549352049827576 9.3315252065658552 8.5932852029800397 66.888665158301592 6.7795291841030121 7.7171912491321564 22.542253345251083 6.200591415166854
leaf_count=32 21 29 31 22 25 20 36 31 34 20 36 55 20 22 21 190 49 38 97 29 25 190 21 22 66 20
internal_value=-1.09294 -1.04326 -1.03538 -1.10571 -1.09676 -1.07435 -1.10181 -1.10864 -1.08433 -1.11573 -1.02583 -1.06998 -1.1202 -1.09015 -1.07203 -1.0997 -1.10565 -1.09392 -1.01869 -1.03759 -1.12752 -1.13107 -1.03964 -1.12774 -1.13041 -1.00855
internal_weight=0 91.0422 80.7264 305.507 161.287 15.8908 148.194 106.554 41.6401 144.22 64.8357 28.6865 122.759 21.4609 13.5288 75.5262 41.0787 26.838 53.3877 18.6377 81.6803 73.087 13.093 14.2407 31.0281 34.7499
internal_count=1202 294 262 908 479 49 437 312 125 429 213 89 364 65 43 221 129 87 177 60 235 210 42 42 91 117
is_linear=0
shrinkage=1


Tree=2
num_leaves=30
num_cat=0
split_feature=1 15 17 15 6 3 15 15 15 9 5 18 4 13 6 1 9 2 1 17 10 6 17 17 9 2 18 15 6
split_gain=42.6897 25.0907 24.7432 23.2738 31.469 21.1368 19.7547 13.4793 11.4244 10.2998 8.656 18.291 7.5562 11.4062 6.71093 6.46321 6.2422 7.72154 4.6162 4.3413 4.1686 3.14597 2.65908 2.27727 1.67723 1.36718 0.428919 0.124252 0.0787033
threshold=-0.27728613854526424 0.79515300111502796 -1.3935434509135163 0.87226646567328492 0.14973379954230201 -0.4097930071406391 0.91901557720847993 0.73009844468989671 0.87329973150850349 35.743427401555046 0.44165036719652612 1.7472804131644575 0.88276294814782941 0.90650758334203285 0.15242877754653053 -0.50804175566918264 26.571610944676625 0.75286306395803715 -0.97373694648729259 -0.39591534304889481 0.0083274954167268551 0.16635465780423261 0.55405386223268549 -0.74935336079260229 22.018392054591342 -2.2652967515851974 1.9444296780666406 0.7853682272931195 0.18923668318543233
decision_type=2 2 2 2 2 2 2 2 2 2 2 2 2 2 2 2 2 2 2 2 2 2 2 2 2 2 2 2 2
left_child=3 7 16 4 15 8 18 -2 24 21 14 -12 13 -11 -7 19 17 -3 25 -1 -10 -6 -21 -9 -4 -5 27 -25 -23
right_child=1 2 5 6 9 10 -8 23 20 12 11 -13 -14 -15 -16 -17 -18 -19 -20 22 -22 28 -24 26 -26 -27 -28 -29 -30
leaf_value=-1.0009764254093449 -1.0686931077942321 -1.0954688367851266 -1.0160374203375295 -1.0244161442430215 -1.1060176695604411 -1.1304997721147743 -1.094676212238757 -1.1128129106899438 -1.074405317123736 -1.0746120726987767 -1.077575144998888 -1.1320434107186654 -1.040541161633298 -1.1453694455318679 -1.0837843210082911 -1.0861614275112399 -1.0164880834187699 -1.0287355967440479 -1.0444266452288611 -1.0700795099140201 -1.1239750326281683 -1.1453694460493191 -1.0249082474653162 -1.1453694448685341 -1.0514078098579369 -0.99561809086265862 -1.133972354608932 -1.1379623153691862 -1.1386192079436528
leaf_weight=8.1540501117706352 7.6776483952999106 10.814219456166034 7.2070221602916735 6.0838971957564381 8.7265390455722827 62.684550851583481 12.580609828233717 7.5342524647712699 11.060873985290529 15.253142148256307 38.352265268564224 25.76946634054184 6.5517587065696707 9.0897460579872114 8.7624427676200849 6.6285387873649588 8.3741531372070295 7.2345608510076991 12.149908160790803 6.5158549845218641 6.8790619969367972 10.640048056840898 6.5160009562969208 39.002190679311752 6.2652587890625 12.776214122772215 12.913250684738157 6.6230552494525901 7.267570585012435
leaf_count=25 23 34 22 20 25 193 36 23 33 47 115 72 20 26 25 21 26 29 38 20 21 28 20 123 20 39 38 20 20
internal_value=-1.09529 -1.10659 -1.09712 -1.07155 -1.08674 -1.10424 -1.04183 -1.1314 -1.06728 -1.10785 -1.1128 -1.09947 -1.0882 -1.10103 -1.12477 -1.04307 -1.05217 -1.06872 -1.02039 -1.02959 -1.09341 -1.13063 -1.04749 -1.13869 -1.03249 -1.00491 -1.14202 -1.14429 -1.14263
internal_weight=0 267.154 193.404 128.934 85.3432 166.981 43.5906 73.7504 31.4122 57.5288 135.569 64.1217 30.8946 24.3429 71.447 27.8144 26.4229 18.0488 31.01 21.1859 17.9399 26.6342 13.0319 66.0727 13.4723 18.8601 58.5385 45.6252 17.9076
internal_count=1202 817 590 385 252 501 133 227 96 166 405 187 93 73 218 86 89 63 97 65 54 73 40 204 42 59 181 143 48
is_linear=0
shrinkage=1


Tree=3
num_leaves=21
num_cat=0
split_feature=6 18 10 4 15 2 9 15 10 15 15 7 15 18 1 13 5 11 7 2
split_gain=40.9342 23.7992 23.6099 10.9355 10.5146 13.9504 8.11061 8.03493 11.1158 9.76261 5.31528 4.69841 2.44623 1.9675 2.60013 3.04446 1.50462 0.394527 1.0188 0.000418193
threshold=0.1067734403379573 1.9698542436957827 -0.14428140805545334 0.041360851060384542 1.0000000180025095e-35 -1.8516203043364516 49.948622917687089 0.86587919821163184 -0.0010969117499822743 0.9136967525233145 0.79879430405073759 0.65171998380636831 0.82888090727257746 -1.3848133796309992 0.51013297692054504 0.77775274219417179 1.2538615660486567 0.86972777930422629 0.17343344155844159 0.19371348066744684
decision_type=2 2 2 2 2 2 2 2 2 2 2 2 2 2 2 2 2 2 2 2
left_child=3 4 -3 10 5 -2 7 8 -6 -9 -1 -4 -8 -5 17 -16 -13 19 -19 -15
right_child=1 2 11 13 6 -7 12 9 -10 -11 -12 16 -14 14 15 -17 -18 18 -20 -21
leaf_value=0.037728190101647151 0.00073236342161930206 -0.040760929699706086 0.03381681463098795 -0.011508186896006474 -0.0055252533554056345 0.083880645644098903 -0.011978730561454027 -0.018649248971420996 0.026361758029289736 0.011646314068843573 -0.020264701337009788 0.08871500894307871 -0.048992939951039885 -0.04917836696962577 0.0018793703044288112 -0.042271193725556731 0.061905436519509742 -0.048872609015828378 -0.025970272818151188 -0.048830111487808803
leaf_weight=7.5391816496849051 11.750720113515856 6.5941004157066336 9.2075160443782824 6.3138734698295584 51.27179017663002 8.8391066491603834 7.8899156451225307 72.064719578251243 58.531912297010422 42.142244542017579 8.301903307437895 11.593538273125889 10.279353350400923 18.265807688236237 6.9949387013912192 8.8380508720874769 9.5397964008152467 12.957887202501299 7.766271084547042 16.324270933866501
leaf_count=22 35 22 26 20 154 22 24 223 168 130 27 30 34 61 22 30 26 44 25 57
internal_value=0 0.00740778 0.0449892 -0.0305168 0.00212533 0.0364275 -0.000790997 0.00181493 0.0114724 -0.00747022 0.00733561 0.0636256 -0.0329197 -0.0382577 -0.0406316 -0.0227657 0.0766129 -0.0457455 -0.0402901 -0.049014
internal_weight=0 299.705 36.935 93.3022 262.77 20.5898 242.18 224.011 109.804 114.207 15.8411 30.3409 18.1693 77.4611 71.1472 15.833 21.1333 55.3142 20.7242 34.5901
internal_count=1202 894 104 308 790 57 733 675 322 353 49 82 58 259 239 52 56 187 69 118
is_linear=0
shrinkage=0.05


Tree=4
num_leaves=31
num_cat=0
split_feature=13 4 8 5 1 15 18 15 18 8 10 9 10 9 8 5 5 10 1 4 5 5 0 4 8 0 10 5 2 15
split_gain=40.5199 30.1227 32.2988 18.6853 14.483 8.90281 9.88248 8.41058 8.32933 8.10466 7.55737 6.76639 9.52203 6.72451 5.7754 7.44916 5.37314 4.74358 4.50664 4.44897 3.99283 4.69484 3.30253 2.50627 1.95643 1.7481 1.71355 1.04632 0.699954 0.638515
threshold=0.86984627099329537 0.32235221885909499 0.067477199138667385 0.35363193608980725 -0.1763227214839844 0.76211828706920259 0.36383292198168193 0.85555986094036596 0.080371008510735004 0.1294349466750441 0.17145679931916732 12.807126144667018 0.015376630645982067 25.122057185501493 0.005951534043134827 0.40155821500253069 0.70829313919864056 -0.080850886070822789 -0.67069443128389128 0.4222937250016276 0.5882930511374368 0.86268556930106166 29.913303454591667 0.52614122836753385 -0.0038071389898809132 61.843165920636146 0.16158241213496324 0.26025044259100516 -2.1455571451440307 0.81936385403407552
decision_type=2 2 2 2 2 2 2 2 2 2 2 2 2 2 2 2 2 2 2 2 2 2 2 2 2 2 2 2 2 2
left_child=1 2 3 4 8 -5 -7 -6 -1 16 18 12 -2 20 22 17 -4 -16 24 -20 26 -22 -15 -21 28 -17 29 -24 -3 -13
right_child=11 10 9 5 7 6 -8 -9 -10 -11 -12 13 -14 14 15 25 -18 -19 19 23 21 -23 27 -25 -26 -27 -28 -29 -30 -31
leaf_value=0.052685959807899141 -0.027393901468273738 -0.031488102511138746 -0.045207324472645465 0.061098127428249507 0.064707408248169604 0.033357356239577911 -0.022273389223458326 0.017349946949793065 -0.014751897821752062 0.031051634773217953 0.030503535442111231 -0.031730310149452844 0.047581692434283833 0.001266874085894109 -0.0064202957302948258 -0.044247644964065753 0.0059557620231731837 0.032591173049310779 -0.028213155902408776 0.035500540877174219 0.018685585118462213 -0.033598907526292104 -0.046199167466372856 -0.0071524852645901433 -0.04662285842814351 -0.011344533087246159 -0.017850934975599322 -0.026070293264191264 -0.0087423818189378971 -0.048007708302180777
leaf_weight=7.2339246571064022 8.0276918876916188 7.1572132110595703 19.103377491235737 6.6390186548233023 66.375036776065826 12.518045663833616 22.036819159984589 10.917466610670088 12.474279552698134 6.4683155715465537 8.0823695957660657 7.4098111391067496 8.962850119918583 7.7037944495677939 14.950991839170458 8.1334390342235583 7.0163857638835898 16.273990899324417 12.070047318935396 6.6324123442172986 7.0222830809652832 11.049154359847305 12.784955531358721 7.1642557680606842 15.801417142152786 8.0144853591918928 6.8310522437095633 13.041756421327589 6.4127651453018188 32.231976956129074
leaf_count=24 25 21 53 21 213 38 63 32 39 20 25 20 31 24 45 23 20 50 35 21 25 34 38 21 46 24 20 38 20 93
internal_value=0 0.014801 0.025722 0.0362811 0.0482623 0.00806833 -0.00212027 0.0580182 0.0100013 -0.0190552 -0.0146543 -0.0177003 0.0121572 -0.0211882 -0.0115855 -0.000346347 -0.0314637 0.0139119 -0.0212618 -0.00604337 -0.0332247 -0.013282 -0.0274645 0.0133519 -0.0346642 -0.0279173 -0.0409796 -0.0360347 -0.0207392 -0.0449652
internal_weight=0 234.103 170.783 138.195 97.0007 41.1939 34.5549 77.2925 19.7082 32.5881 63.3205 162.438 16.9905 145.448 80.9034 47.3729 26.1198 31.225 55.2381 25.8667 64.5443 18.0714 33.5305 13.7967 29.3714 16.1479 46.4728 25.8267 13.57 39.6418
internal_count=1202 712 523 430 308 122 101 245 63 93 189 490 56 434 242 142 73 95 164 77 192 59 100 42 87 47 133 76 41 113
is_linear=0
shrinkage=0.05


Tree=5
num_leaves=27
num_cat=0
split_feature=1 13 8 3 13 10 3 8 18 17 7 7 3 9 8 5 2 18 17 1 7 8 17 0 17 9
split_gain=38.2511 22.8609 29.6 13.4705 13.2389 12.6111 12.2823 13.3414 10.8238 17.8559 14.2023 10.4267 10.287 9.97695 9.88901 7.31677 7.13498 7.03636 6.80231 5.39367 5.77643 9.96445 5.34657 2.08827 0.796399 0.0914718
threshold=-0.27728613854526424 0.8715104820823647 0.0039049697221856458 -0.42891197165599043 0.69031361942001135 0.012369976843318161 0.069609433862328637 0.10322915062055464 0.4042140291683875 -0.92332543126603472 0.89108887239610579 0.72627846211272884 -0.57102101070046118 22.018392054591342 -0.033448326743743713 0.20548030894271588 0.49224444214330315 1.6463317735102982 -1.3116722691649281 -0.116586148901888 0.27344157330341251 0.029334142363615489 0.47594474533167835 47.821747395582456 0.018117334691360027 14.826458765623229
decision_type=2 2 2 2 2 2 2 2 2 2 2 2 2 2 2 2 2 2 2 2 2 2 2 2 2 2
left_child=4 3 16 5 -1 13 7 18 9 14 15 12 -10 -2 -6 -11 -3 22 -4 -5 23 -22 -8 -21 -14 -19
right_child=1 2 6 19 8 -7 17 -9 11 10 -12 -13 24 -15 -16 -17 -18 25 -20 20 21 -23 -24 -25 -26 -27
leaf_value=0.094525396727918196 0.083310128789795698 0.034597667527998692 0.045678180057948714 0.0082370678192043578 0.088439664464859666 -0.041869384026612028 -0.028276615710035882 0.069176315455781651 0.017141843706097355 0.0067822647525081258 0.063629420542320778 0.0045519606757026126 0.072991536236448148 -0.00062124239909196416 0.016285290832175166 -0.027704889676491984 0.095724403709108855 -0.042241795315789255 -0.012815829076342163 -0.023856472531812903 0.008066681686565819 -0.031535409620879577 0.029245875919229461 -0.046107511935004432 0.095790948767988257 -0.049409136274530058
leaf_weight=6.0466963052749625 7.2893509268760699 9.7523287832736987 6.1990684811025885 10.171993404626845 9.4427533391863125 6.4330051839351645 8.932327866554262 8.5761925578117353 8.6238250732421875 30.85643994808197 7.2398219108581534 12.480456463992594 7.0786014199256906 6.8849843740463257 9.5523680746555311 30.662518858909607 9.3515448570251447 6.9370272159576443 25.072273731231689 13.599732488393782 21.934815287590027 57.579813033342361 7.374869853258132 46.937023490667343 8.3464731872081739 12.424387097358702
leaf_count=18 22 29 27 33 29 20 26 26 25 93 21 37 21 20 28 88 28 20 75 46 68 170 21 152 25 34
internal_value=0 -0.0107972 0.00891869 -0.0217175 0.0222782 0.016191 -0.00514715 0.0139308 0.0187632 0.00924309 -0.00261144 0.0416332 0.0608769 0.0425416 0.0521543 -0.010407 0.0645198 -0.0264603 -0.00122028 -0.0269177 -0.029471 -0.0206108 -0.00226228 -0.0411088 0.0853282 -0.0468411
internal_weight=0 265.451 94.62 170.831 130.33 20.6073 75.5161 39.8475 124.283 87.7539 68.7588 36.5294 24.0489 14.1743 18.9951 61.519 19.1039 35.6686 31.2713 150.223 140.051 79.5146 16.3072 60.5368 15.4251 19.3614
internal_count=1202 817 286 531 385 62 229 128 367 259 202 108 71 42 57 181 57 101 102 469 436 238 47 198 46 54
is_linear=0
shrinkage=0.05


Tree=6
num_leaves=22
num_cat=0
split_feature=6 18 10 4 14 8 3 2 3 18 17 8 9 7 8 5 4 8 4 11 8
split_gain=37.73 21.3893 21.2546 10.4054 9.43808 18.3654 12.4958 12.479 12.3477 9.0308 7.52 7.07849 4.40269 4.12807 1.99667 2.90021 2.37254 1.7213 0.217383 0.450935 0.000395659
threshold=0.1067734403379573 1.9698542436957827 -0.14428140805545334 0.041360851060384542 1.0000000180025095e-35 -0.0038071389898809132 -0.91910478847121035 -1.8516203043364516 -0.015062772266645983 0.73126748860556245 0.027893371724243967 0.12796945044266225 22.761571488713127 0.65171998380636831 0.0065832577494619937 0.095085100381153712 0.06034841154355345 0.080905921969550695 0.10714852483897801 0.81319568884558169 0.016094554148040056
decision_type=2 2 2 2 2 2 2 2 2 2 2 2 2 2 2 2 2 2 2 2 2
left_child=3 4 -3 12 7 6 -6 -2 11 -10 -8 -7 -1 -4 15 -5 -16 -15 19 -18 -20
right_child=1 2 13 14 5 8 10 -9 9 -11 -12 -13 -14 17 16 -17 18 -19 20 -21 -22
leaf_value=0.037430302114303482 0.00035142138848392725 -0.03989342527824738 0.031799011555195482 -0.048240961372046476 0.033731931896793355 0.00078454213128680787 -0.040737869119160587 0.078324302305092935 0.049411206457698552 0.011727775758807422 0.00087050488421945734 -0.043027486019854282 -0.015763046261565734 0.082773701583467862 -0.014961549669420588 -0.0077495896778965907 -0.048243883599086601 0.053868699537661782 -0.048337324958310696 -0.031751522231057941 -0.047975793558111941
leaf_weight=6.8679066002368918 11.79249542951584 6.4917834997177115 9.3384558260440844 7.124386906623843 8.5750958919525129 87.74677112326026 45.511836847290397 9.0842569172382337 22.753563463687897 52.774552166461945 14.262116640806196 10.301551401615141 8.9711649715900403 13.2757415920496 7.1525385081768027 11.659630388021467 9.6147569715976733 8.4153885543346387 11.70480704307556 7.2850233912467948 21.411392122507095
leaf_count=20 35 22 26 24 24 269 149 22 62 153 43 33 29 34 24 37 34 22 41 25 74
internal_value=0 0.00706658 0.0423807 -0.0295623 0.00202463 -0.00075885 -0.0227126 0.0342803 0.00788586 0.0230803 -0.0308101 -0.00381862 0.00730188 0.0595935 -0.03725 -0.0231071 -0.0418969 0.0715596 -0.0457488 -0.0411345 -0.0481036
internal_weight=0 300.324 37.5214 91.7916 262.802 241.925 68.349 20.8768 173.576 75.5281 59.774 98.0483 15.8391 31.0296 75.9525 18.784 57.1685 21.6911 50.016 16.8998 33.1162
internal_count=1202 894 104 308 790 733 216 57 517 215 192 302 49 82 259 61 198 56 174 59 115
is_linear=0
shrinkage=0.05


Tree=7
num_leaves=29
num_cat=0
split_feature=6 17 15 13 15 17 10 15 9 15 17 18 17 7 14 8 13 17 8 8 4 15 17 8 4 10 13 6
split_gain=86.809 13.8786 12.8845 9.61249 15.6791 9.72257 8.5553 7.34817 7.04934 6.34499 10.7778 6.08802 11.1169 5.70563 5.64402 5.38526 3.749 5.68357 3.50162 3.36395 2.97723 1.81733 1.65868 1.52081 1.37057 1.25206 1.18263 0.00977093
threshold=0.103684131167151 -1.8788334971301561 0.85233428583374071 0.8732664380945363 0.74971012180028285 2.2088413878447652 0.11072934385999018 0.83142310650490125 16.860120515136458 0.80409206966224389 0.69164542308166721 -0.32510956221639981 -0.28480610567093201 0.24721581466875017 0.99999999999999611 0.040578908657478437 0.90262470405075945 0.78653117105146564 0.0086381318679723419 -0.066302993040356986 0.15536749363397429 0.78302308302203538 -0.82429578936771053 0.089814593875087237 0.10809788561390703 -0.15035773419799328 0.88894051884970238 0.086393268223807787
decision_type=2 2 2 2 2 2 2 2 2 2 2 2 2 2 2 2 2 2 2 2 2 2 2 2 2 2 2 2
left_child=1 -1 9 4 20 6 14 -8 -4 10 13 12 22 -3 -6 19 23 -18 -14 25 -2 -12 -5 -17 27 -13 -21 -11
right_child=3 2 8 11 5 -7 7 -9 -10 24 21 15 18 -15 -16 16 17 -19 -20 26 -22 -23 -24 -25 -26 -27 -28 -29
leaf_value=-0.025323729055192142 0.072696819728078454 0.040629214048536394 0.045817340608003729 -0.040460737922011193 0.0019589593246644062 0.036919985509263335 -0.024892614104162439 0.021098286795777153 -0.024389108223154505 0.086407588236912664 0.079924984133450783 -0.001566571372453549 0.008509818259376677 -0.010051496444348393 -0.0269765812619117 -0.015496252173778525 0.015152587778386484 -0.034244152951068446 0.060287897294364734 -0.022996529655819369 0.026488962621699703 0.04857268399420335 -0.010869268976241513 -0.048668845813756433 0.064558878910239967 -0.027602069683598324 -0.045496616505991169 0.089060431059434619
leaf_weight=6.8621490597724906 6.259370416402815 16.301338702440265 6.246527522802352 10.042810857295988 22.001722395420074 11.037774801254271 12.467859983444212 28.625950753688812 8.3616446256637555 7.1430338919162768 16.316657513380054 7.328261703252795 6.7967214882373792 8.4227930605411512 72.008483380079269 6.428562790155409 17.573012987151746 8.7092646360397321 6.2843782007694244 6.7770372331142417 7.8674556910991669 6.4488345384597769 8.9609747827053088 7.4696801602840424 11.865940123796461 12.484966324642299 42.242137912660837 6.7519225180149078
leaf_count=21 20 50 20 30 67 35 35 88 24 23 52 23 21 24 210 20 61 25 20 20 24 20 26 22 38 40 121 22
internal_value=0 0.0431592 0.0485081 -0.0117162 -0.00333746 -0.00819975 -0.011886 0.00714465 0.00563152 0.0570588 0.0462205 -0.0212333 -0.00208908 0.0233638 -0.0202046 -0.0268678 -0.0123225 -0.00121621 0.0333849 -0.0353585 0.0469629 0.0710437 -0.0265073 -0.033325 0.077039 -0.0179724 -0.0423859 0.0876967
internal_weight=0 94.7208 87.8587 301.366 160.269 146.142 135.104 41.0938 14.6082 73.2505 47.4896 141.098 32.0849 24.7241 94.0102 109.013 40.1805 26.2823 13.0811 68.8324 14.1268 22.7655 19.0038 13.8982 25.7609 19.8132 49.0192 13.895
internal_count=1202 294 273 908 479 435 400 123 44 229 146 429 97 74 277 332 128 86 41 204 44 72 56 42 83 63 141 45
is_linear=0
shrinkage=0.05


Tree=8
num_leaves=28
num_cat=0
split_feature=1 15 17 7 15 6 15 15 18 15 5 1 15 7 11 1 11 1 5 17 17 17 5 13 18 5 7
split_gain=34.5821 21.9102 21.5187 19.9951 19.3398 26.5965 15.857 12.4174 10.4284 6.68497 5.69377 5.52698 5.12193 16.4176 6.88284 4.3793 3.90483 5.03183 3.77717 3.28815 2.23928 2.13679 1.02279 0.831037 0.463424 0.22846 0.150216
threshold=-0.27728613854526424 0.79515300111502796 -1.9377134352327559 0.26931175667771501 0.87226646567328492 0.14973379954230201 0.91901557720847993 0.73009844468989671 1.955676858784859 0.86288196198093614 0.54823054289888218 -0.50804175566918264 0.79176911859398291 0.50256722109000085 0.5245082413685711 1.0000000180025095e-35 0.9026211619286989 -0.97373694648729259 0.30056013677255972 -0.39591534304889481 -0.74935336079260229 0.55405386223268549 0.19548876263687717 0.85608740511790316 1.9444296780666406 0.19118084333597532 0.012470068725316417
decision_type=2 2 2 2 2 2 2 2 2 2 2 2 2 2 2 2 2 2 2 2 2 2 2 2 2 2 2
left_child=4 7 18 15 5 11 16 -2 9 -5 -10 19 13 -7 -14 -4 17 -6 -3 -1 -9 -21 -16 -17 26 -18 -22
right_child=1 2 3 8 6 12 -8 20 10 -11 -12 -13 14 -15 22 23 25 -19 -20 21 24 -23 -24 -25 -26 -27 -28
leaf_value=0.082540433292610335 0.025816465926485316 0.086818524082414208 0.0029032808356376752 -0.0037137576253647299 0.07647763933389462 -0.043752346188110518 3.6672760266485228e-05 -0.015354465438543421 0.011565408222272908 0.020847768506922697 -0.044936335808281436 0.0067949687208080081 0.0083971275444526781 0.042365539722337281 -0.028742179539538306 -0.045338615419332401 0.09004643450215695 0.022396489616017208 0.0343466574477286 0.022795724189309613 -0.039853083785435124 0.062682856113028498 -0.049469567451832126 -0.028220592569165093 -0.036182680749114092 0.077799084497295543 -0.048329985055680744
leaf_weight=8.632682561874395 7.7186792194843283 6.3687916696071607 6.567533701658248 50.837345153093338 8.6775266826152784 9.586534261703493 12.646261334419249 7.3279209733009329 6.3110727667808559 60.877444425597787 15.191868782043455 6.7618528604507437 10.867303609848021 13.092669457197188 11.353520870208742 29.590542405843735 8.2317996919155103 8.5279725287109631 7.4317946247756481 6.6318121552467328 6.0668843686580649 6.8009384572505951 12.509147703647612 9.3242729902267438 12.333596169948576 7.0849790871143332 37.713470906019211
leaf_count=25 23 19 22 150 25 27 36 23 19 184 44 21 33 38 33 96 24 26 25 20 21 20 35 31 38 22 122
internal_value=0 -0.0103571 -0.00159372 -0.00623939 0.0210408 0.00715849 0.0475452 -0.0340636 0.0035332 0.00967071 -0.0283532 0.046344 -0.012518 0.00596338 -0.0245866 -0.0348633 0.0660188 0.0496721 0.0585617 0.0584636 -0.0413489 0.0429904 -0.0396078 -0.041237 -0.0447436 0.0843813 -0.0471553
internal_weight=0 263.661 192.501 178.7 131.405 86.2365 45.1685 71.1606 133.218 111.715 21.5029 28.8273 57.4092 22.6792 34.73 45.4823 32.5223 17.2055 13.8006 22.0654 63.4419 13.4328 23.8627 38.9148 56.114 15.3168 43.7804
internal_count=1202 817 590 546 385 252 133 227 397 334 63 86 166 65 101 149 97 51 44 65 204 40 68 127 181 46 143
is_linear=0
shrinkage=0.05


Tree=9
num_leaves=23
num_cat=0
split_feature=6 18 10 4 7 8 10 8 15 7 13 15 6 15 7 8 1 4 8 18 11 0
split_gain=34.5957 19.2063 19.1988 9.9088 8.57749 10.4647 11.1997 11.7578 11.0536 11.0501 10.4468 7.36964 7.09847 4.77908 3.69575 1.93202 3.16908 2.35159 1.56446 0.481071 0.127306 0.0012647
threshold=0.1067734403379573 1.9698542436957827 -0.14428140805545334 0.041360851060384542 0.12717080545451828 -0.010417003827765947 -0.046760167674904617 0.045000344469763094 0.82821778087831766 0.84711320425606151 0.83187655901376745 0.92990680909959 0.18169634185617767 0.79879430405073759 0.65171998380636831 0.0065832577494619937 0.20351931794346004 0.071169508315960736 0.080905921969550695 -0.7875117968017179 1.1398279086513272 58.507693732762775
decision_type=2 2 2 2 2 2 2 2 2 2 2 2 2 2 2 2 2 2 2 2 2 2
left_child=3 4 -3 13 10 8 7 -7 12 -8 -2 -10 -6 -1 -4 16 19 -17 -16 -5 21 -19
right_child=1 2 14 15 5 6 9 -9 11 -11 -12 -13 -14 -15 18 17 -18 20 -20 -21 -22 -23
leaf_value=0.03574998741433897 -0.01255825892503748 -0.039105343698294055 0.029764606449112219 -0.027540709524599763 -0.031138505232182753 0.0086200956842473475 0.022242689843412378 -0.03893404570881899 -0.037867466423838009 -0.015216373454638039 0.069646512792376838 0.012997831689456132 0.031102767596782044 -0.019246494483012268 0.077648550034695063 -0.019829699010764094 0.0057446010018345726 -0.047040199755149004 0.050367593367480257 -0.047584253892754835 -0.040377194619194055 -0.047837059658100485
leaf_weight=7.646137833595275 6.3869957029819515 6.3903897106647483 9.4658883810043353 6.0038874149322519 6.4518891274929073 28.523287862539291 96.60587066411972 23.881426755338907 41.981700781732798 24.726784413680434 9.7870161533355695 8.5756545662879926 15.796336829662321 8.1719667613506299 13.577977791428568 10.713527917861937 6.5396675765514365 30.651925683021545 8.5733448266983014 5.9707847833633432 8.5004317760467512 5.9449798166751853
leaf_count=22 20 22 26 20 20 84 275 77 140 81 25 25 43 27 34 37 20 110 22 21 30 21
internal_value=0 0.00671754 0.0399388 -0.0285963 0.00191137 -0.000402659 0.00626575 -0.0130509 -0.0163156 0.0146088 0.0371845 -0.0292396 0.0130531 0.00733764 0.055915 -0.0362438 -0.0222476 -0.0408869 0.0670899 -0.0375348 -0.0458893 -0.0471696
internal_weight=0 300.725 38.0076 90.1433 262.717 246.543 173.737 52.4047 72.8056 121.333 16.174 50.5574 22.2482 15.8181 31.6172 74.3252 18.5143 55.8109 22.1513 11.9747 45.0973 36.5969
internal_count=1202 894 104 308 790 745 517 161 228 356 45 165 63 49 82 259 61 198 56 41 161 131
is_linear=0
shrinkage=0.05


Tree=10
num_leaves=30
num_cat=0
split_feature=6 17 2 15 7 17 1 15 8 7 4 11 11 10 1 15 1 3 15 8 10 2 8 15 0 1 6 15 4
split_gain=77.1721 12.1352 13.3262 10.5853 9.026 6.22714 4.97418 8.21066 10.9288 10.5946 6.62898 5.96727 4.47526 4.24779 3.87836 2.89334 2.41744 3.5269 2.14433 2.83623 2.15713 1.58576 1.8504 2.2256 1.51785 0.910479 0.813985 0.655087 0.371537
threshold=0.103684131167151 0.43445680419240662 0.018155037177498806 0.85555986094036596 0.24721581466875017 -0.67653174149592632 -0.72795217517648314 0.74971012180028285 0.027552554158607672 0.54577944899035846 0.15536749363397429 1.1796156967483939 0.92187881494662871 0.12837009845738206 -0.09876739097160224 0.87091371981067722 -1.8366643465211607 -1.1738963775889586 0.83851861284163753 0.030181865676697971 0.17557249943016176 -2.6367967899358522 0.028545083973665977 0.91697158623634245 44.650064329228073 0.61007726830553122 0.07590452731334206 0.77941597070897572 0.1635121811980853
decision_type=2 2 2 2 2 2 2 2 2 2 2 2 2 2 2 2 2 2 2 2 2 2 2 2 2 2 2 2 2
left_child=1 2 14 4 12 15 13 10 11 -10 -8 -9 -4 16 -1 18 17 -7 19 -2 -20 -17 28 -24 -18 26 27 -3 -23
right_child=5 25 3 -5 -6 6 7 8 9 -11 -12 -13 -14 -15 -16 21 24 -19 20 -21 -22 22 23 -25 -26 -27 -28 -29 -30
leaf_value=-0.028660364042906464 -0.038371773589883688 0.073782341000809937 0.08314639895872615 -0.011984976880448448 0.013599427510992365 -0.039125915126540955 0.067917129813724095 0.024751762935904868 -0.042217552074394066 -0.0048801321381918812 -0.00058235063892044859 -0.013399402745816009 0.043956094645843137 0.012115888626392003 0.019191872356407916 -0.00084328902077413122 -0.042947515259048351 -0.0024788140108118199 0.023643764853018136 -0.0011829630483177725 -0.016950998755020218 -0.033147948358500129 -0.038231503568253965 0.0012112378897155226 -0.018677866398263545 0.050886534789658266 0.08421343466475717 0.052611935579377767 -0.047621216585847517
leaf_weight=10.334061890840532 12.119014650583269 8.3709831535816246 16.981287837028507 7.6925643086433402 11.158474445343016 9.4610795676708204 7.1998070180416089 34.400716513395309 26.934490621089935 64.489337116479874 6.9329485893249512 14.599158525466917 12.756903886795042 9.8890765607357007 7.1736924946308127 3.6449875757098189 17.535771340131767 21.45007985830307 6.4799731671810132 8.8862027525901777 6.6112199723720551 5.9125697910785702 8.3662645220756513 6.2469264846295109 10.183600038290022 6.9801056981086722 8.139104872941969 6.4848783016204825 17.733091630041599
leaf_count=32 36 26 54 22 33 29 23 107 77 189 20 43 39 31 21 13 52 65 20 26 20 19 24 27 31 21 26 20 56
internal_value=0 0.0403151 0.0283482 0.0418247 0.0519462 -0.0111948 -0.00698358 -0.0020123 -0.00566832 -0.0158802 0.0343141 0.0133849 0.0663348 -0.0181971 -0.00905321 -0.0235554 -0.0233099 -0.0136955 -0.0127402 -0.0226391 0.00314289 -0.0323556 -0.0353578 -0.0213703 -0.0340313 0.066703 0.0715041 0.064541 -0.0440022
internal_weight=0 96.0721 66.097 48.5892 40.8967 299.076 223.076 154.556 140.424 91.4238 14.1328 48.9999 29.7382 68.5196 17.5078 76.0003 58.6305 30.9112 34.0964 21.0052 13.0912 41.9038 38.2589 14.6132 27.7194 29.9751 22.995 14.8559 23.6457
internal_count=1202 294 201 148 126 908 667 459 416 266 43 150 93 208 53 241 177 94 102 62 40 139 126 51 83 93 72 46 75
is_linear=0
shrinkage=0.05


Tree=11
num_leaves=31
num_cat=0
split_feature=1 15 17 15 3 15 15 13 15 15 9 5 18 3 1 8 5 7 17 3 9 11 1 10 17 7 10 17 18 3
split_gain=31.5277 20.4245 19.7752 17.225 16.5548 14.3861 11.8576 11.042 9.95453 9.26487 9.2748 7.82459 14.722 7.67512 7.6484 7.04213 6.76864 6.29577 5.94129 4.87311 3.4701 3.46587 4.57619 2.82672 2.15765 1.48106 1.24519 1.19607 0.476053 0.282563
threshold=-0.27728613854526424 0.79515300111502796 -1.3935434509135163 0.87226646567328492 -0.4097930071406391 0.91901557720847993 0.73009844468989671 0.89005290380467506 0.87329973150850349 0.81761815382742442 40.688048955567673 0.44165036719652612 1.7472804131644575 -0.48112637434090794 -2.6091928910241218 0.028545083973665977 0.19922905129492779 0.29834758262086902 0.087445736173636782 0.10610959778201871 23.886248697784882 0.9026211619286989 -0.97373694648729259 -0.031075624450694787 -0.74935336079260229 0.52175121993474438 0.1559141379594487 0.82352335797017651 1.9444296780666406 -0.36554056345040337
decision_type=2 2 2 2 2 2 2 2 2 2 2 2 2 2 2 2 2 2 2 2 2 2 2 2 2 2 2 2 2 2
left_child=3 6 15 7 8 21 -2 9 25 18 27 19 -13 14 -9 17 -12 -3 -1 -6 -10 22 -5 -15 -8 -4 -19 -11 -26 -23
right_child=1 2 4 5 11 -7 24 13 20 10 16 12 -14 23 -16 -17 -18 26 -20 -21 -22 29 -24 -25 28 -27 -28 -29 -30 -31
leaf_value=0.015336433943770525 0.025177953451049142 0.011725334041752007 0.070775101702709592 0.072046552387798848 -0.016440935237392301 -0.000467593136082711 -0.014820044730643184 0.052540258041822843 0.018478696620996174 -0.037620767380357599 0.062798728684542199 0.015902637508776404 -0.033678446949961145 -0.0092109948748370467 -0.019842277224790754 -0.0035392131029277235 -0.0039373533942831124 0.087309945905527001 0.069090710179429499 -0.043409214443899856 -0.025587811449423282 0.085431758247610304 0.020855273903656258 -0.048601198626469506 -0.046275234536697102 0.038196956258026417 0.057065929564814225 -0.0092820813940726853 -0.035015332092368144 0.071966400767168384
leaf_weight=8.7538076043128985 7.7526403665542594 6.2058768570423188 7.5359772443771345 8.8504977226257306 40.784920126199722 12.705998122692106 7.2737008631229392 6.5981857180595389 10.480326294898989 7.8746485412120837 8.0290367007255536 38.887544244527817 24.344489812850952 6.9665845334529886 8.1667734682559949 7.4551365338265887 7.2124880850315085 6.9437856376171094 12.452944278717039 28.425838708877563 7.7868483662605277 8.4000322222709638 8.6154062338173407 13.154841482639313 42.76277020573616 6.4958473443984985 6.6746414303779602 7.0630130171775818 12.027075380086897 7.2660838589072219
leaf_count=26 23 20 22 25 130 36 23 20 31 22 24 115 72 20 24 29 23 20 37 88 23 24 26 36 143 20 20 20 38 22
internal_value=0 -0.00996463 -0.00154422 0.019996 -0.0080736 0.0447647 -0.033124 0.00683595 0.0240223 0.0215748 0.00377762 -0.0159009 -0.0031862 -0.0148736 0.0125041 0.037887 0.0312183 0.0534658 0.0469018 -0.0275172 -0.000305775 0.0621112 0.0467954 -0.0349632 -0.0404067 0.0556935 0.0724868 -0.0242213 -0.0438035 0.0791864
internal_weight=0 261.837 192.021 132.11 164.742 45.838 69.8162 86.2723 32.299 51.3859 30.1792 132.443 63.232 34.8864 14.765 27.2794 15.2415 19.8243 21.2068 69.2108 18.2672 33.132 17.4659 20.1214 62.0635 14.0318 13.6184 14.9377 54.7898 15.6661
internal_count=1202 817 590 385 501 133 227 252 96 152 89 405 187 100 44 89 47 60 63 218 54 97 51 56 204 42 40 42 181 46
is_linear=0
shrinkage=0.05


Tree=12
num_leaves=22
num_cat=0
split_feature=6 18 10 14 8 3 3 15 0 17 8 3 15 18 13 6 8 8 9 8 5
split_gain=31.8013 17.3271 17.4355 7.87567 15.5371 11.6268 10.7597 10.8111 10.6086 7.21329 6.6146 5.47 5.81957 5.21118 3.11933 3.11762 2.32321 1.94427 0.73191 1.25661 0.00133845
threshold=0.1067734403379573 1.9698542436957827 -0.14428140805545334 1.0000000180025095e-35 -0.0038071389898809132 -0.91910478847121035 -0.015062772266645983 0.90733339970533344 38.921779642050929 0.027893371724243967 0.12796945044266225 0.14233525971935118 0.79879430405073759 -1.6130179045253261 0.81997236722824718 0.18923668318543233 -0.003207294896528962 0.080905921969550695 16.473799501434225 0.040578908657478437 0.15547795496480485
decision_type=2 2 2 2 2 2 2 2 2 2 2 2 2 2 2 2 2 2 2 2 2
left_child=11 3 -3 8 5 -5 10 -8 -2 -7 -6 13 -13 -1 -14 -4 -15 -17 19 -18 -20
right_child=1 2 15 4 6 9 7 -9 -10 -11 -12 12 14 16 -16 17 18 -19 20 -21 -22
leaf_value=0.0081836484365634052 -0.0079008308702966136 -0.038358865664518439 0.033029672031011689 0.032959120474567463 0.00052062385841666393 -0.039272021152315671 0.013943256575199079 0.070225851519539986 0.063094560003851038 0.0018334975924305238 -0.042202671154409739 0.025609026675523189 0.00017641396364107082 -0.01166592441863817 -0.047492393059252576 0.079003703884582929 -0.04649179097578187 0.047381210754560588 -0.046236122337247026 -0.015242109562649092 -0.046869334721233481
leaf_weight=6.3217130303382865 9.6024442315101641 6.2861128747463217 12.371090590953825 8.6072446405887586 87.815927861258388 44.028448928147554 66.791566997766495 9.7817386090755445 11.640394896268843 14.087538093328474 10.101883351802824 8.6965325474739092 6.1277821958065015 6.6324145495891562 7.800672709941864 11.016280129551889 7.3361200690269452 8.6991365253925306 27.952170163393021 5.7294357419013977 11.897393345832823
leaf_count=20 28 22 33 24 269 149 190 25 29 43 33 26 20 22 27 27 27 22 103 20 43
internal_value=0 0.00640432 0.037787 0.00181601 -0.000754325 -0.0212755 0.00709271 0.021133 0.0310024 -0.0293079 -0.00388701 -0.0276938 -0.00648318 -0.0349793 -0.0265206 0.0527049 -0.0395616 0.0650507 -0.043058 -0.0327884 -0.0464252
internal_weight=0 300.83 38.3726 262.457 241.214 66.7232 174.491 76.5733 21.2428 58.116 97.9178 88.4942 22.625 65.8692 13.9285 32.0865 59.5475 19.7154 52.9151 13.0656 39.8496
internal_count=1202 894 104 790 733 216 517 215 57 192 302 308 73 235 47 82 215 49 193 47 146
is_linear=0
shrinkage=0.05


Tree=13
num_leaves=29
num_cat=0
split_feature=6 17 15 13 15 17 10 9 15 18 17 14 8 15 17 8 13 17 8 10 8 9 15 8 10 13 8 17
split_gain=68.6155 11.3061 10.2607 8.56305 13.5484 8.87455 7.86849 7.15105 6.68815 5.6772 10.1111 5.36703 5.10078 5.08225 8.49562 5.30359 3.63873 5.49673 3.35398 3.09218 3.04714 1.58194 1.47864 1.46183 1.36354 1.14045 0.823356 1.18855
threshold=0.103684131167151 -1.8788334971301561 0.85555986094036596 0.8732664380945363 0.74971012180028285 2.2088413878447652 0.11072934385999018 16.860120515136458 0.83142310650490125 -0.32510956221639981 -0.28480610567093201 0.99999999999999611 0.040578908657478437 0.80409206966224389 0.69164542308166721 0.011055094893278194 0.90262470405075945 0.78653117105146564 -0.066302993040356986 -0.034125122946708719 0.0086381318679723419 36.650887067967062 0.78302308302203538 0.089814593875087237 -0.15035773419799328 0.88894051884970238 0.046507949136614712 -0.83997371902633178
decision_type=2 2 2 2 2 2 2 2 2 2 2 2 2 2 2 2 2 2 2 2 2 2 2 2 2 2 2 2
left_child=1 -1 13 4 19 6 11 -4 -8 10 21 -6 18 14 15 -3 23 -18 24 -2 -12 -5 -16 -14 -11 -20 27 -15
right_child=3 2 7 9 5 -7 8 -9 -10 12 20 -13 16 26 22 -17 17 -19 25 -21 -22 -23 -24 -25 -26 -27 -28 -29
leaf_value=-0.024588489180983907 0.069786229182025955 0.048780064156748792 0.040960284283945957 -0.038973828503470365 0.0026254234858769589 0.035492340494324218 -0.023676232662187532 -0.031560430304450708 0.020460307561720549 0.0012094841130616814 0.0088682994070647028 -0.025747142031576842 -0.014550133713060815 0.071213454538181745 0.06916372249996304 0.0016104954980616813 0.015956320374825944 -0.033051572159002819 -0.021715398060046402 0.023046369588563223 0.056997465179949219 -0.0097337586278207523 0.041401088634736349 -0.047449004634759206 -0.02634024911080304 -0.044067687994119031 0.078449886833541371 0.045301301436272645
leaf_weight=6.7681141495704642 6.2996977865695944 9.645757734775545 6.4045127928256971 9.6918647885322624 21.825184911489487 11.145229607820509 12.23698905110359 7.2442400753498077 28.746184945106506 7.1004060208797481 6.7595976889133436 70.534396082162857 6.3346817493438703 10.55292445421219 17.002347022295002 15.591869205236433 17.430511159822348 8.5173228383064252 6.6365951895713797 8.0735676884651166 6.4045328497886658 8.8491083681583387 6.6804403364658347 7.2307662665843964 12.222751870751379 40.720020025968552 9.5984678566455823 7.6214120686054256
leaf_count=21 20 29 20 29 67 35 35 21 88 23 21 210 20 33 52 45 61 25 20 24 20 27 20 22 40 121 30 23
internal_value=0 0.0377428 0.0424124 -0.010677 -0.00276379 -0.00736918 -0.0109517 0.00246904 0.00728177 -0.0197932 -0.00122617 -0.0190425 -0.0253365 0.049521 0.0398229 0.0196386 -0.0111013 -0.000130419 -0.0337721 0.0435321 0.0322838 -0.0250183 0.0613324 -0.0320862 -0.0162169 -0.0409352 0.0666036 0.0603472
internal_weight=0 97.1101 90.342 296.759 158.861 144.488 133.343 13.6488 40.9832 137.898 31.7051 92.3596 106.193 76.6932 48.9204 25.2376 39.5133 25.9478 66.6798 14.3733 13.1641 18.541 23.6828 13.5654 19.3232 47.3566 27.7728 18.1743
internal_count=1202 294 273 908 479 435 400 41 123 429 97 277 332 232 146 74 128 86 204 44 41 56 72 42 63 141 86 56
is_linear=0
shrinkage=0.05


Tree=14
num_leaves=28
num_cat=0
split_feature=4 17 17 18 0 8 6 6 5 5 15 8 14 6 10 8 6 6 8 9 5 4 17 8 3 10 3
split_gain=28.9855 14.7489 12.7748 11.2606 10.9575 12.2498 12.7362 11.4142 8.04918 8.93507 7.00328 6.212 8.31966 6.16802 5.81852 9.70913 5.21223 5.25118 3.48242 3.33201 2.22943 1.77631 1.30915 1.22422 1.18961 0.0927875 0.0907563
threshold=0.13075939876245604 -0.80060035442612587 -1.966367364737186 1.3769971360262976 61.578031717219524 0.074776852582175882 0.29075417199671466 0.18169634185617767 0.44747031296442535 0.6888323685765414 0.87137833072935644 -0.018592045104848558 0.99999999999999611 0.26976772514393527 -0.060498259302814029 0.13321229158977524 0.25487683971102476 0.30583744890039372 0.018432701710765862 24.329258238401273 0.54823054289888218 0.1205922909437309 -1.132171942270271 -0.003207294896528962 -0.076802513091408384 0.23187244434146942 0.42551516824878771
decision_type=2 2 2 2 2 2 2 2 2 2 2 2 2 2 2 2 2 2 2 2 2 2 2 2 2 2 2
left_child=2 3 -1 10 5 6 7 -3 21 19 11 -2 -13 20 -7 -16 23 -18 -11 -10 -6 22 -4 -12 -24 -20 -22
right_child=1 4 8 -5 13 14 -8 -9 9 18 16 12 -14 -15 15 -17 17 -19 25 -21 26 -23 24 -25 -26 -27 -28
leaf_value=0.040732596867292227 0.057335658474858088 0.0082824214159171791 -0.02010363134020941 -0.023021811700542291 -0.015560736502482098 0.063508852334186502 0.059012137954788504 -0.022431481707083312 0.037299861552582199 -0.00017956952616158739 0.082244314506160487 0.052091489153558546 -0.015899479022769638 0.015320568989416458 -0.013207834544106671 0.060780060707824171 -0.0074775766294249884 0.056907409775551546 -0.047746561678775605 -0.0049132907283840526 -0.040195586170288393 -0.010141689942830176 -0.023406773343395762 0.055042899616411192 -0.044084759361557938 -0.039632374644929837 -0.047715182245901225
leaf_weight=7.8638446182012549 7.8419557213783291 85.88686129450798 8.7344507873058301 9.0043076556175929 10.161121189594271 11.991812258958818 8.9744412899017316 46.69565150141716 10.072856217622759 6.7145604491233852 10.615292876958849 6.5226828157901808 14.503971248865124 8.1507568061351758 10.314793318510057 7.7772563695907584 5.4721206128597242 7.5172890666872263 7.454872786998747 8.7228119373321515 6.253334283828738 6.2599247097969046 8.1930478215217573 6.7770878672599819 46.048978090286255 6.6804338991641998 11.198316276073454
leaf_count=24 23 264 29 30 30 35 25 135 29 20 30 20 44 24 30 23 15 27 22 26 20 20 29 20 154 20 34
internal_value=0 0.00891345 -0.0208115 0.0290742 0.00227876 0.00752474 0.00136694 -0.00253504 -0.0252564 -0.00729094 0.0369912 0.0193565 0.00519201 -0.0228984 0.0364997 0.0185975 0.0537476 0.0297836 -0.0298281 0.0177093 -0.0341799 -0.0355436 -0.0380686 0.0716451 -0.0409614 -0.0439117 -0.0450207
internal_weight=0 275.659 116.746 68.2547 207.404 171.641 141.557 132.583 108.882 39.6455 59.2504 28.8686 21.0267 35.7635 30.0839 18.092 30.3818 12.9894 20.8499 18.7957 27.6128 69.2364 62.9765 17.3924 54.242 14.1353 17.4517
internal_count=1202 829 373 209 620 512 424 399 349 117 179 87 64 108 88 53 92 42 62 55 84 232 212 50 183 42 54
is_linear=0
shrinkage=0.05


Tree=15
num_leaves=31
num_cat=0
split_feature=5 8 10 15 13 9 7 4 15 7 1 8 9 5 9 7 2 9 15 15 13 10 1 8 4 13 7 10 17 5
split_gain=31.0526 15.3742 21.0416 12.0892 13.9636 11.1106 13.0254 10.1064 8.96085 8.36377 16.9378 11.0577 9.27391 7.29175 6.39329 8.13472 5.53663 7.71496 4.91744 4.87205 8.96559 4.12315 3.61545 7.63921 2.8131 2.21623 2.71109 1.83584 1.282 0.638512
threshold=0.20182576560422946 0.024813569620114974 -0.14138166215903711 0.86868119901372054 0.88470984255155483 28.217259076446989 0.78586573814126603 0.67157998155990961 0.82326461859759681 0.62164886627395288 1.6946430439168128 0.096639079232992642 40.007925486672178 0.87944221803958789 20.089046694574858 0.41020744931636027 0.32079039259975484 29.789959871417214 0.92132289790266853 0.81936385403407552 0.80399443728218389 0.18345275590841564 -0.96174109978301192 -0.015080939107612927 0.062589161242062513 0.88152164449211312 0.5097955815674633 0.071454031439885241 0.14536156675846271 0.16915021667594379
decision_type=2 2 2 2 2 2 2 2 2 2 2 2 2 2 2 2 2 2 2 2 2 2 2 2 2 2 2 2 2 2
left_child=8 3 28 4 19 18 -7 27 24 10 11 -4 13 -11 15 -10 22 -18 -5 21 -21 -2 23 -16 -1 29 -27 -6 -3 -26
right_child=1 2 9 5 7 6 -8 -9 14 12 -12 -13 -14 -15 16 -17 17 -19 -20 20 -22 -23 -24 -25 25 26 -28 -29 -30 -31
leaf_value=-0.0050360169568144401 -0.044465006000666052 -0.017731509012292174 0.010501537932408295 -0.043415944081143631 0.046925430861069505 0.059917675828665078 -0.032622078292545598 -0.0047991265738955942 -0.015116199538413519 0.018579256814047842 -0.044448137967732039 0.074857003245308182 0.086515624314650499 0.052868174653811023 -0.041593287682421515 0.045370732945206757 -0.037164197766939383 0.037003921639644319 -0.0006280031008641904 0.049632601200559588 -0.017930365031992156 0.0060172757981930801 -0.04785082595693721 0.026219125417021358 -0.043459952652778695 0.0053886733307602769 -0.040643984480379647 0.080766363886689743 -0.048008309175875639 -0.028620537656094999
leaf_weight=8.3809399306774122 11.212226808071138 6.0001262575387946 23.358025074005127 31.217300852760673 7.6867611408233705 8.0099095404148084 7.2392264604568473 7.8012327551841727 11.067871183156969 38.610488532111049 10.368639677762983 9.3451575040817243 9.0047618448734266 25.90890771895647 10.125406086444857 11.166671661660073 5.766165778040885 8.9459791481494886 8.5550347268581373 8.3120197951793688 11.997761845588682 6.3272798061370841 14.248497128486635 7.0410723388195029 39.951341181993484 6.4639735966920835 6.3315430581569672 8.3731756210327131 8.378374904394148 8.8557989746332151
leaf_count=28 37 20 69 111 20 21 23 23 37 116 33 23 22 66 34 31 20 25 26 23 40 19 49 20 144 20 20 20 29 29
internal_value=0 0.00993545 0.0216952 -0.00325913 0.0119345 -0.0202998 0.0159863 0.0418897 -0.0196372 0.0287329 0.0112366 0.0288916 0.0389826 0.0323486 -0.00676202 0.0152617 -0.017378 0.00793504 -0.0342123 -0.00695009 0.00972058 -0.0262538 -0.0292326 -0.0137791 -0.032214 -0.0359116 -0.0173894 0.0645691 -0.0353738 -0.0407674
internal_weight=0 247.706 130.974 116.732 61.7105 55.0215 15.2491 23.8612 138.345 116.596 43.0718 32.7032 73.5242 64.5194 68.3617 22.2345 46.1271 14.7121 39.7723 37.8493 20.3098 17.5395 31.415 17.1665 69.9836 61.6027 12.7955 16.0599 14.3785 48.8071
internal_count=1198 741 378 363 182 181 44 63 457 329 125 92 204 182 216 68 148 45 137 119 63 56 103 54 241 213 40 40 49 173
is_linear=0
shrinkage=0.05


Tree=16
num_leaves=31
num_cat=0
split_feature=13 4 8 17 10 5 15 11 15 15 18 17 2 4 1 5 4 5 13 11 17 10 17 17 2 0 10 2 8 0
split_gain=26.6098 15.9217 18.1382 9.39145 8.00557 9.82827 11.4942 6.21748 6.26607 5.8332 5.42923 5.08019 4.08581 7.41971 3.65904 5.52323 9.85979 4.05964 3.50128 4.00781 3.79978 2.79448 4.17103 2.33429 2.02611 1.94159 1.54469 1.32076 1.29807 0.0890014
threshold=0.85410622801436131 0.32491580345134313 0.067477199138667385 2.0561404788247666 -0.14017757550818219 0.35682116116768453 0.73009844468989671 1.7468419280061263 0.88328529023402313 0.88286197308257564 -0.40694955049421894 -1.6401946877822173 0.31216003813986926 0.52102731213516063 -0.086532884506596006 0.29285693099755322 0.20015227936577265 0.55803467886485547 0.90304220673639424 0.60668365065424223 -0.28480610567093201 0.11199356813353536 0.63691859852137778 0.21991919559918591 -3.6539187432517326 53.719886847224679 -0.17609284817483725 1.8471720502193925 0.098509948800718575 30.224672037945876
decision_type=2 2 2 2 2 2 2 2 2 2 2 2 2 2 2 2 2 2 2 2 2 2 2 2 2 2 2 2 2 2
left_child=1 2 4 28 26 6 -6 10 23 -7 11 -2 21 27 24 16 -16 -17 19 -13 -20 22 29 -9 -12 -26 -1 -14 -4 -3
right_child=7 12 3 -5 5 9 -8 8 -10 -11 14 18 13 -15 15 17 -18 -19 20 -21 -22 -23 -24 -25 25 -27 -28 -29 -30 -31
leaf_value=0.045542535692143116 -0.041806552090817323 -0.039933926777233564 -0.018141151224867837 0.032816478027211209 -0.027374554129941032 -0.012874953104703346 0.037700634659715293 0.010040331914945754 -0.027714371126458255 0.033749125634283693 -0.012295099440591345 -0.038231295869613761 0.001901562770634138 0.049316910032421987 0.051974825249153048 -0.040140080896312297 -0.023954325670857101 -0.011758187590649267 -0.0034813184947436663 0.0093374353972548729 0.044954599390337698 0.0055996732349514527 -0.0038977519597239284 0.051971133956214444 -0.044445833097538023 -0.015113671624079381 0.078129643809743826 -0.02823494620224264 -0.044722461950099143 -0.047425284763678632
leaf_weight=7.2116705179214478 6.9384685158729544 6.2070153355598512 7.1179662942886415 6.7686413526535025 7.4530109465122214 24.512644350528717 75.776911407709122 6.5525271594524401 6.8089573606848708 9.2362616956233961 8.4519049637019616 7.4270991683006313 6.6922193169593829 6.6180364191532126 7.338362097740176 23.284206785261631 10.243944179266689 27.45574526488781 7.7009209692478207 10.965485394001005 8.5389104187488538 6.9979470670223227 9.8420180976390821 6.7264191806316376 32.151673913002014 6.8423351757228366 7.3355888426303846 7.9599006175994873 12.94688707590103 10.975173592567442
leaf_count=22 22 20 21 21 23 71 227 20 22 28 28 22 20 21 23 71 33 87 24 34 26 21 31 21 99 24 23 22 37 34
internal_value=0 0.0112861 0.0193514 -0.0181125 0.0269946 0.0226445 0.0318733 -0.0149114 0.0112836 -0.000115067 -0.0182558 -0.0027562 -0.0118133 0.00537652 -0.0238215 -0.0164139 0.00773637 -0.0247824 0.00506739 -0.00987127 0.0219863 -0.0225602 -0.0298522 0.0312803 -0.0344885 -0.0392989 0.0619749 -0.0144704 -0.0352928 -0.0447191
internal_weight=0 213.652 158.36 26.8335 131.526 116.979 83.2299 177.427 20.0879 33.7489 157.339 41.5709 55.2923 21.2702 115.768 68.3223 17.5823 50.74 34.6324 18.3926 16.2398 34.0222 27.0242 13.2789 47.4459 38.994 14.5473 14.6521 20.0649 17.1822
internal_count=1198 642 473 79 394 349 250 556 63 99 493 128 169 63 365 214 56 158 106 56 50 106 85 41 151 123 45 42 58 54
is_linear=0
shrinkage=0.05


Tree=17
num_leaves=31
num_cat=0
split_feature=4 18 17 18 6 2 4 7 7 6 7 18 7 17 18 8 9 8 15 13 2 10 3 9 6 10 15 6 17 17
split_gain=27.7358 17.9394 14.9051 13.7497 19.6194 13.7077 10.4845 9.84466 7.27314 11.3183 7.19651 7.43286 6.28621 5.63759 8.03155 5.57735 6.74477 4.71787 2.57501 2.25861 1.94354 3.50954 1.79262 1.24097 0.700944 0.403578 0.179872 0.0064136 0.00426508 0.00332249
threshold=0.13075939876245604 1.6070660448306564 -1.1513406856095283 0.4042140291683875 0.28321635153592367 0.032835659668010893 0.319017611427656 0.74873427261136427 0.6717272255781318 0.14360269036701487 0.28192934782608697 1.7357845956164151 0.34605980816249771 -1.35306933558367 0.39886682530103773 0.001411065990386101 18.189655657924359 0.029334142363615489 0.84646070981913701 0.7905890964625909 -0.015974686306495001 0.083440013321686407 -0.22431145267939692 20.266297775939076 0.074565933286812672 0.12430451938502378 0.77661681563131535 0.09700244966546763 0.55405386223268549 -0.73289791154194206
decision_type=2 2 2 2 2 2 2 2 2 2 2 2 2 2 2 2 2 2 2 2 2 2 2 2 2 2 2 2 2 2
left_child=10 2 15 4 6 7 -4 -5 9 -3 20 13 -7 -12 -15 18 -17 -16 -2 -13 21 -1 -10 -20 -22 -21 -24 29 -28 -26
right_child=1 8 3 5 -6 12 -8 -9 22 -11 11 19 -14 14 17 16 -18 -19 23 25 24 -23 26 -25 27 -27 28 -29 -30 -31
leaf_value=0.0091492234643878092 0.030112784361253073 -0.036040377633862974 -0.029763619164288886 0.062748038676726112 0.063695128222053782 -0.022315924443391522 0.003466356793986854 -0.0030621819960999211 -0.014620788961320059 0.050143238450915943 0.044446691138310332 -0.0051449024075285246 0.017533505677875837 -0.040707494309062994 0.04585426127687009 0.064114967795193822 -0.0094475611491406687 -0.0036590320696628766 0.051639601027006099 -0.047073281089399732 -0.030231024886409354 -0.045841596797271338 -0.036872206401819319 0.079080438034263692 -0.046769356283700367 -0.03134342752236121 -0.048253499135832718 -0.047720906294362195 -0.046500143675329703 -0.04533762547838064
leaf_weight=5.8555596470832807 5.8143303394317654 7.6798464655876142 38.135912537574768 26.924417942762375 10.195855706930159 12.569419920444487 62.8691386282444 7.2029493525624266 6.8419995196163681 7.5591857433319092 6.9814263880252829 5.8537925481796291 46.539818912744522 10.654526740312575 7.0613084733486202 5.0018815509974948 8.2643149085342866 15.097334057092665 6.6889767497777965 10.699232161045076 9.2833515554666501 5.7510495334863663 5.7073248773813274 10.728097528219221 6.7433885186910638 6.5889056473970404 7.2493134289979917 6.8698861300945273 6.6500460207462311 10.153150260448459
leaf_count=20 17 26 121 76 29 38 186 21 21 23 20 19 136 32 21 19 25 46 23 32 34 20 19 30 23 21 21 21 20 38
internal_value=0 0.00948064 0.0147206 0.00946595 -0.00240744 0.023627 -0.0090801 0.0488581 -0.0208035 0.00671023 -0.0203489 -0.00945639 0.00905963 0.00364702 -0.00503364 0.0441536 0.0182884 0.0121194 0.0589239 -0.0319889 -0.0357004 -0.0180986 -0.0366563 0.0685419 -0.0418819 -0.0410783 -0.0443458 -0.0464328 -0.0474146 -0.045909
internal_weight=0 282.623 240.935 204.438 111.201 93.2366 101.005 34.1274 41.6877 15.239 107.593 62.9365 59.1092 39.7946 32.8132 36.4976 13.2662 22.1586 23.2314 23.1419 44.6564 11.6066 26.4487 17.4171 33.0498 17.2881 19.6067 23.7664 13.8994 16.8965
internal_count=1198 851 721 607 336 271 307 97 130 49 347 191 174 119 99 114 44 67 70 72 156 40 81 53 116 53 60 82 41 61
is_linear=0
shrinkage=0.05


Tree=18
num_leaves=30
num_cat=0
split_feature=5 5 18 1 15 18 6 10 9 15 18 17 10 13 9 2 10 15 6 2 5 15 5 10 2 17 5 6 5
split_gain=28.5272 12.3772 12.6913 11.22 10.3024 17.5821 12.0722 10.7838 9.27119 8.57092 12.3037 9.29954 8.54666 7.45414 6.90354 5.72606 4.99759 4.42695 2.30083 2.14179 2.09528 3.35552 1.76657 1.71285 2.5206 0.854309 0.381912 0.025283 0.0118474
threshold=0.20182576560422946 0.86268556930106166 1.2001620230218073 1.8375540036083751 0.83777551075610168 1.3959577331808541 0.14250756702023332 -0.0010969117499822743 32.232353467822044 0.82326461859759681 1.0308878946225886 0.59207960678439808 0.18563955723765638 0.71884443285454658 17.12990389685044 -1.1247899157560981 -0.019211434047472022 0.83280816000094016 0.20908899259840222 0.32079039259975484 0.13761985605009794 0.79879430405073759 0.17157164243714643 0.10149454572969616 0.1859904625144963 0.75787020396109561 0.011595538561947947 0.11901399596042146 0.52207410732951798
decision_type=2 2 2 2 2 2 2 2 2 2 2 2 2 2 2 2 2 2 2 2 2 2 2 2 2 2 2 2 2
left_child=9 3 12 4 6 15 13 -8 18 20 11 17 -3 -2 -7 -6 -4 -11 28 -19 23 22 -22 26 -25 -18 -1 -28 -5
right_child=1 2 16 8 5 14 7 -9 -10 10 -12 -13 -14 -15 -16 -17 25 19 -20 -21 21 -23 -24 24 -26 -27 27 -29 -30
leaf_value=-0.033268968326577809 0.043407719345485041 0.039339112225664725 0.015936056494530702 -0.048162395379241385 -0.037190120210347254 0.075694272090832973 0.010520532856838669 0.057515412866882859 0.014647415938277231 0.0087221789640353608 0.037534954901651263 0.02385745452939866 -0.047740406604007288 -0.013289338816988891 0.01185106478754598 -0.0047828601360570752 0.050917294530789581 -0.042019299557945769 -0.016251512542611226 -0.015450461042336251 0.016635046815396178 -0.040918518192515442 -0.020785433170466664 0.0017793610937218548 -0.044726651525293599 0.070673354854220202 -0.044808927260642506 -0.048111358413561491 -0.050965040571789369
leaf_weight=7.7832832485437384 7.4301952719688407 4.9272919949144107 7.5579169690609005 6.0082350969314637 18.64787483215332 8.3504169285297412 21.005420684814453 29.143251121044159 12.015457794070242 7.1960039883851996 12.927395850419996 11.250363916158674 6.5815368890762329 26.377048954367638 8.5902042686939222 50.659571824595332 9.0708041638135928 25.734360530972481 7.4016893003135911 10.755526376888154 6.39673760533333 9.7064861208200437 6.2214482575654984 5.9800951182842237 5.681840106844902 13.792865931987761 18.518449515104297 8.4357130229473096 10.125489294528959
leaf_count=26 20 20 21 20 64 22 60 73 37 22 37 32 22 85 25 158 24 90 26 35 20 34 20 20 22 32 71 28 32
internal_value=0 0.009505 0.0342644 0.00445932 0.00979552 -0.0023413 0.0222637 0.037831 -0.0210884 -0.0189569 -0.00635272 -0.0166802 -0.0104589 -0.000828394 0.0433208 -0.0135024 0.0511838 -0.0271198 -0.0393325 -0.034188 -0.0314032 -0.0188169 -0.00181527 -0.037459 -0.0208789 0.0628354 -0.0430252 -0.0458425 -0.0499213
internal_weight=0 247.685 41.9304 205.755 170.204 86.2481 83.9559 50.1487 35.5509 136.588 67.8637 54.9363 11.5088 33.8072 16.9406 69.3074 30.4216 43.6859 23.5354 36.4899 68.7241 22.3247 12.6182 46.3994 11.6619 22.8637 34.7374 26.9542 16.1337
internal_count=1198 741 119 622 507 269 238 133 115 457 216 179 42 105 47 222 77 147 78 125 241 74 40 167 42 56 125 99 52
is_linear=0
shrinkage=0.05


Tree=19
num_leaves=24
num_cat=0
split_feature=6 15 15 6 18 7 8 1 17 0 18 17 17 7 18 6 7 1 8 6 8 18 1
split_gain=53.2207 7.17699 12.4376 7.38262 6.95564 6.86233 5.91181 5.55187 8.43766 5.44313 6.50206 6.5944 5.46055 5.08334 5.04215 4.85087 4.5778 4.39232 3.64603 3.49192 3.24554 1.98127 1.54458
threshold=0.103684131167151 0.76211828706920259 0.721768042554505 0.18462673375388902 -0.40694955049421894 0.25357801087624293 -0.033448326743743713 -0.09876739097160224 -0.29357809247894545 52.653685751548025 1.1648089667340555 2.4876182252234078 -1.1921825732758233 0.27344157330341251 1.350724756455242 0.18619502490509324 0.82986211077056904 1.0000000180025095e-35 0.0026379721356247937 0.065658492876369157 -0.075126751886192597 1.6463317735102982 0.63032910818640187
decision_type=2 2 2 2 2 2 2 2 2 2 2 2 2 2 2 2 2 2 2 2 2 2 2
left_child=5 2 20 -4 6 7 -3 8 -1 13 12 -12 -11 -6 -7 17 -17 -8 -9 -20 -2 -15 -21
right_child=1 4 3 -5 9 14 15 18 -10 10 11 -13 -14 21 -16 16 -18 -19 19 22 -22 -23 -24
leaf_value=-0.027241328851367097 -0.00016860371209127819 -0.038108747273493386 0.064350194904621308 0.0030441864590337216 0.021437247797516781 -0.016438156223276532 0.0090049379001498463 0.014145673506712404 0.044992881073807223 -0.03369823493867681 -0.025614346776298175 0.026518430180689528 0.015325889872943053 -0.033860134199758668 0.038148396450358307 0.047599969794825357 -0.00076222413394438546 -0.0274431146867051 0.025366371610544048 0.061280520874860106 -0.041551365383637351 -0.010333261919927049 0.035917869818000346
leaf_weight=7.3441135883331325 9.8870386183261889 8.6983301937580091 10.858743935823442 8.964999318122862 4.8996169269084922 11.228371500968935 21.625800281763077 8.1122787892818433 8.9933490455150586 7.0395414996892205 60.353115700185299 6.7436536848545066 29.413253009319305 72.887356424704194 6.787824034690856 10.974847733974459 8.8298920392990095 13.379835724830626 11.192259460687636 34.242730289697647 9.0974949300289136 10.200997352600096 7.2789229750633231
leaf_count=23 30 28 34 26 15 34 68 23 28 26 181 20 92 234 20 35 28 37 32 104 28 31 21
internal_value=0 -0.0111067 0.00892524 0.0366254 -0.0141548 0.0319129 0.000184923 0.0384001 0.0125217 -0.0189094 -0.0111397 -0.0203747 0.00585865 -0.0280533 0.004128 0.00626208 0.0260378 -0.00492622 0.0453508 0.050153 -0.0199995 -0.0309717 0.0568343
internal_weight=0 293.855 38.8083 19.8237 255.046 95.1798 63.5087 77.1637 16.3375 191.538 103.55 67.0968 36.4528 87.988 18.0162 54.8104 19.8047 35.0056 60.8262 52.7139 18.9845 83.0884 41.5217
internal_count=1198 913 118 60 795 285 196 231 51 599 319 201 118 280 54 168 63 105 180 157 58 265 125
is_linear=0
shrinkage=0.05


Tree=20
num_leaves=24
num_cat=0
split_feature=0 6 15 17 8 2 6 17 3 8 2 1 8 17 8 3 17 17 2 4 3 15 6
split_gain=29.2533 17.6306 10.8241 9.09881 10.3992 9.54152 17.2888 8.16198 6.9975 6.00749 5.88141 11.5465 10.2433 9.49389 5.46107 3.67807 3.31309 2.68004 2.63232 2.23916 0.716774 1.14825 0.00722452
threshold=48.312967506250793 0.29075417199671466 0.80103387900716172 -1.056546013605167 0.069022522660886751 -0.10487198808741752 0.16635465780423261 -1.5262836233877006 -0.73138093001107929 0.0086381318679723419 3.2085515778374485 2.0227086294130463 0.061710103873206613 1.8509762061971677 -0.013092871864671667 -0.19119521341590948 -0.67653174149592632 1.0000000180025095e-35 4.7432047342222736 0.30640000026346342 0.44716305594060191 0.75600064102708886 0.10003364737719604
decision_type=2 2 2 2 2 2 2 2 2 2 2 2 2 2 2 2 2 2 2 2 2 2 2
left_child=1 3 15 14 5 6 -5 9 -6 -4 11 12 -9 -13 -1 -2 -17 -7 -12 -16 22 -22 -18
right_child=2 -3 7 4 8 17 -8 10 -10 -11 18 13 -14 -15 19 16 20 -19 -20 -21 21 -23 -24
leaf_value=0.063024082168672405 0.0032566743066644597 0.07563783386510281 0.0514901395333765 0.040498104049241007 0.065079716394463333 -0.0040346413630857249 -0.010294151064444784 -0.019679799353397275 0.0083545578205703377 -0.0083180258208419757 -0.048484902564119317 0.041850013939973257 0.02600728282409482 -0.030597378455409465 0.038582361021782474 -0.010475610714867477 -0.044903578531772487 -0.028012923915341922 -0.010474624619324713 -0.00084866861922174334 -0.045549745235492371 -0.015956182382803177 -0.046551817340413817
leaf_weight=12.415468722581865 7.5141792595386496 11.706475540995596 10.614346843212845 30.761306822299957 11.59494933485985 22.315138757228851 36.79154559969902 77.59823926538229 10.236215889453886 6.9464459475129834 11.922241955995561 19.919438019394878 14.572496831417082 5.8501856178045264 6.832281827926634 11.456317961215971 15.026218354701998 24.389756411314011 7.3709169030189505 7.611250102519989 6.8496371656656247 6.2857651710510254 11.923974379897116
leaf_count=35 24 37 32 89 33 68 108 245 29 24 34 60 42 20 21 36 55 81 22 22 21 20 40
internal_value=0 0.0163693 -0.0112118 0.0121113 0.00686235 0.000820731 0.0128349 -0.00426373 0.0384824 0.0278321 -0.0083708 -0.0041843 -0.0124565 0.0254031 0.0387066 -0.0294237 -0.0341881 -0.0165563 -0.0339631 0.0178035 -0.0409651 -0.0313882 -0.0456328
internal_weight=0 174.654 213.85 162.948 136.089 114.258 67.5529 154.794 21.8312 17.5608 137.234 117.94 92.1707 25.7696 26.859 59.0561 51.5419 46.7049 19.2932 14.4435 40.0856 13.1354 26.9502
internal_count=1198 523 675 486 408 346 197 479 62 56 423 367 287 80 78 196 172 149 56 43 136 41 95
is_linear=0
shrinkage=0.05


Tree=21
num_leaves=31
num_cat=0
split_feature=5 5 1 15 2 6 10 9 15 6 1 2 11 3 15 13 10 2 4 6 6 3 10 15 5 1 13 9 5 6
split_gain=26.0562 11.3099 10.4593 9.44117 11.2294 10.8324 9.75297 8.75694 8.13181 8.28027 8.86645 8.71045 7.54457 9.09635 7.25313 6.9042 6.321 4.04826 2.69178 2.20858 2.17132 2.11755 2.61756 1.17159 1.04127 0.919048 0.321696 0.220964 0.0100182 0.00323736
threshold=0.20182576560422946 0.86268556930106166 1.8375540036083751 0.83777551075610168 -1.1247899157560981 0.14250756702023332 -0.0010969117499822743 32.232353467822044 0.82326461859759681 0.12427272664011728 0.39691702845107107 -1.8924572745740385 1.2568690046334228 -0.38657066489798625 0.89516771008617013 0.74120629867015053 -0.11934896853789607 3.5847246704581974 0.062589161242062513 0.20908899259840222 0.1957161915816614 0.87440357387700562 0.14149775101596224 0.91156897534182135 0.14244754594985315 -0.035094099616458145 0.68637168896117495 18.479648964815009 0.52207410732951798 0.103684131167151
decision_type=2 2 2 2 2 2 2 2 2 2 2 2 2 2 2 2 2 2 2 2 2 2 2 2 2 2 2 2 2 2
left_child=8 2 3 5 23 15 -7 19 18 10 27 -11 13 -13 21 -2 -6 -16 -1 28 24 -3 -23 -5 26 -26 -20 -10 -4 -29
right_child=1 14 7 4 16 6 -8 -9 9 11 -12 12 -14 -15 17 -17 -18 -19 20 -21 -22 22 -24 -25 25 -27 -28 29 -30 -31
leaf_value=-0.0037798766642935903 0.03115457967606888 0.07043580090732679 -0.047427495276599133 -0.045264802547754869 -0.038079315688566706 0.0098944396503828809 0.054417442014995071 0.013966817484111752 -0.034413968535765345 -0.038792962552210743 0.023558559253844678 -0.02489296648677574 0.052665989923712048 0.042778717816504455 -0.012194628395798424 -0.016792398278429668 0.012367795690630547 0.037040688370055662 -0.035390413182967602 -0.015925365817652526 -0.0078877423813414477 0.01716443052193356 0.05734791591348435 -0.018303907718036326 -0.012342709358197364 -0.038098081880706236 -0.045194266283604047 -0.045300869103881682 -0.050030022906914301 -0.046773535559408531
leaf_weight=8.2327565103769285 11.291926771402357 8.3828075528144854 5.8864923566579845 12.693389266729357 6.9205280244350424 21.087984025478363 29.516006082296371 12.074640557169912 5.3916473686695161 7.8236836791038504 6.5521137565374366 12.471264673396943 11.420665353536604 8.2514158487319964 10.273630851879718 22.406245037913322 60.433129590004683 7.0330929458141318 12.35102967917919 7.3688120525330296 6.877207785844802 7.2742036283016231 9.1508836746215803 5.9035064578056327 6.5027662217617035 7.4114566296339017 25.942843034863472 6.3136183172464362 9.9450905323028547 9.1260000467300397
leaf_count=28 31 20 20 46 23 60 73 37 20 27 20 41 30 23 39 74 181 18 46 26 21 20 22 19 20 27 99 24 32 31
internal_value=0 0.00905149 0.00421458 0.00934878 -0.00231209 0.0212377 0.0358636 -0.0205653 -0.0182753 -0.00599168 -0.0271719 0.0085199 0.0200358 0.00205274 0.0326566 -0.000725836 0.0071844 0.00781358 -0.0305648 -0.0385375 -0.0342969 0.0499878 0.0395518 -0.0367062 -0.0377757 -0.0260614 -0.0420322 -0.0431282 -0.0490624 -0.0461713
internal_weight=0 247.642 205.528 170.253 85.9506 84.3022 50.604 35.275 134.668 67.3504 27.3834 39.967 32.1433 20.7227 42.1146 33.6982 67.3537 17.3067 67.3181 23.2004 59.0853 24.8079 16.4251 18.5969 52.2081 13.9142 38.2939 20.8313 15.8316 15.4396
internal_count=1198 741 622 507 269 238 133 115 457 216 95 121 94 64 119 105 204 57 241 78 213 62 42 65 192 47 145 75 52 55
is_linear=0
shrinkage=0.05


Tree=22
num_leaves=25
num_cat=0
split_feature=7 15 15 15 15 18 9 3 9 17 17 13 3 13 10 8 18 11 15 8 17 10 4 18
split_gain=46.4426 13.6165 10.0239 13.2716 8.93058 7.25709 7.22754 7.13568 6.13042 9.14913 5.73254 5.77945 4.99908 4.78031 3.97052 5.0414 2.76991 2.50752 2.46982 3.47208 3.74939 1.49346 0.932763 0.356794
threshold=0.25763769910603723 0.72687820082598953 0.76211828706920259 0.72687820082598953 0.85555986094036596 -0.40694955049421894 17.511547296302286 0.34309381834906355 30.577004214848273 -0.44521641332438916 2.1622011064196087 0.84417899574331656 -0.31222832609233198 0.90499935807124321 0.062255792577971293 -0.010804195925769424 1.955676858784859 0.53258787799327234 0.81009957896760287 0.045335112393770964 0.21991919559918591 -0.078053670310163373 0.11101968255260584 1.82134416868583
decision_type=2 2 2 2 2 2 2 2 2 2 2 2 2 2 2 2 2 2 2 2 2 2 2 2
left_child=1 -1 3 21 18 6 -4 23 9 -6 14 -12 13 -8 16 -16 -7 -14 19 20 -3 -2 -20 -5
right_child=2 4 5 7 8 10 12 -9 -10 -11 11 -13 17 -15 15 -17 -18 -19 22 -21 -22 -23 -24 -25
leaf_value=-0.029182403254115349 -0.00296456620108752 0.0079610864048298199 0.04605117361940006 0.068797776333508684 -0.01401732002042645 -0.030963835188127599 -0.0084059307952197206 0.00050404996109141328 -0.01823600652701541 0.055832993697236891 0.033174064318549572 -0.027307950687704832 -0.037750285386447799 0.037949590723518049 0.017133951131383149 -0.019087063487017646 -0.0024608617851219171 -0.0079205014638510426 0.070190521856514462 0.063335875072488015 0.042470243014106575 -0.033924359339427709 0.046132405262207188 0.052575204650949427
leaf_weight=9.4228855669498426 6.6330249905586269 11.769601315259932 7.594144105911254 6.9370805621147174 7.7180249691009548 94.251007223501801 12.972140103578569 7.6592299640178672 10.976598173379896 11.940867722034456 9.7561279237270373 6.636658012866973 11.679196089506151 9.7353281676769239 11.657584875822065 54.60290408320725 9.3711448311805707 17.755196571350098 10.418276995420458 10.867004334926603 23.762303173542023 9.437404513359068 6.5694056153297415 6.6274472773075104
leaf_count=29 20 34 24 22 22 302 42 22 30 38 30 20 36 31 38 171 28 54 32 33 70 30 20 20
internal_value=0 0.0281197 -0.0110239 0.0131316 0.0338625 -0.0146858 0.000478857 0.0390862 0.0116969 0.02841 -0.0195489 0.00868778 -0.00615847 0.011468 -0.0222736 -0.0127145 -0.0283861 -0.0197566 0.0445755 0.0386035 0.0310394 -0.0211458 0.0608869 0.0608716
internal_weight=0 103.445 283.306 37.2942 94.0221 246.011 59.736 21.2238 30.6355 19.6589 186.275 16.3928 52.1419 22.7075 169.883 66.2605 103.622 29.4344 63.3866 46.3989 35.5319 16.0704 16.9877 13.5645
internal_count=1198 308 890 114 279 776 187 64 90 60 589 50 163 73 539 209 330 90 189 137 104 50 52 42
is_linear=0
shrinkage=0.05


Tree=23
num_leaves=31
num_cat=0
split_feature=0 18 10 1 2 18 4 2 13 8 13 2 18 1 9 13 11 8 9 14 18 18 8 3 5 8 13 5 11 10
split_gain=26.5667 10.5672 9.98599 12.7851 11.022 10.2242 11.7088 7.14596 8.96008 8.77743 8.60516 8.19971 6.57751 7.35892 6.06339 5.78454 5.62998 6.27595 10.8909 7.87999 5.52584 5.31097 4.82108 4.3955 2.80334 1.20668 0.964054 1.92309 0.380991 0.119604
threshold=48.312967506250793 1.7169494291050043 0.018303537915136035 1.9349068197117278 2.9036675295593044 -0.33708348842710545 0.1205922909437309 -0.10487198808741752 0.92763264105095267 0.067477199138667385 0.69747784031995341 1.7205650802533803 1.1648089667340555 0.53102120712526368 24.329258238401273 0.85263543399216857 0.41409532317288245 -0.071868828811765165 26.571610944676625 0.99999999999999611 -0.57868446879399327 1.2715445926337601 0.060155931943468514 -0.050329303343303704 0.43054265352131532 -0.028247335397762193 0.7905890964625909 0.79066858731138556 0.70031440344539542 0.015808942986113465
decision_type=2 2 2 2 2 2 2 2 2 2 2 2 2 2 2 2 2 2 2 2 2 2 2 2 2 2 2 2 2 2
left_child=7 2 5 15 14 -2 22 10 9 12 -1 -11 13 -9 -5 24 25 19 -19 -18 -17 -8 -7 -3 -4 -12 27 -25 -28 -14
right_child=1 23 3 4 -6 6 21 8 -10 11 16 -13 29 -15 -16 20 17 18 -20 -21 -22 -23 -24 26 -26 -27 28 -29 -30 -31
leaf_value=0.07581608509742245 -0.037260202517428301 0.0015939597957355244 -0.043046332064030364 0.078332991843171149 -0.031449825309861727 -0.036476074893256799 0.047761413051268214 -0.011643556919703049 0.056841173443114595 -0.0012336471228908831 0.034134187172261361 0.063145810937888333 -0.048161171423815534 0.0451722758097442 0.01335607725960488 0.024963549556129595 0.0061618630926697955 -0.021876252663248153 0.023698588490067531 0.073254030315953345 -0.021092559023240191 0.0062050618350518337 0.018421604594870196 -0.004985721876196122 -0.015724039820373552 0.063123091469251186 -0.032173081132009555 -0.044452195971062362 -0.04557005647303513 -0.038402434096681093
leaf_weight=7.5993082821369162 9.3279024809598905 8.6953103765845281 32.842690542340279 6.9585845768451708 7.068206548690795 10.259622320532801 25.676654003560543 32.591467127203941 7.4080703258514395 11.198270797729494 7.0110007226467133 8.8582632243633253 6.2364790737628919 6.9070482254028311 7.4174880385398865 9.2957789599895495 8.4633310735225677 21.007378727197647 34.862557858228683 9.0629986338317394 21.753608489409089 10.97461950778961 6.5540057569742194 5.8597697764635068 13.146005898714064 7.3563880026340467 6.9481721371412304 6.5221124887466431 22.466218173503876 6.323270246386528
leaf_count=21 29 31 116 20 20 38 78 106 25 32 20 25 20 21 22 28 25 59 102 26 66 30 21 20 40 21 23 21 72 20
internal_value=0 -0.0107883 -0.00453877 -0.0144735 0.0196724 0.0110426 0.0194699 0.0155443 0.00447635 -0.000902882 0.0247738 0.0272005 -0.0117303 -0.00170825 0.0448075 -0.0239784 0.0203541 0.0147512 0.00656222 0.0408557 -0.00730396 0.035318 -0.0150768 -0.0307498 -0.0352362 0.0489771 -0.0374787 -0.0257745 -0.0424055 -0.0432481
internal_weight=0 211.767 161.275 98.4824 21.4443 62.7928 53.4649 174.886 79.5229 72.1148 95.363 20.0565 52.0583 39.4985 14.3761 77.0381 87.7637 73.3963 55.8699 17.5263 31.0494 36.6513 16.8136 50.4916 45.9887 14.3674 41.7963 12.3819 29.4144 12.5597
internal_count=1198 675 508 312 62 196 167 523 249 224 274 57 167 127 42 250 253 212 161 51 94 108 59 167 156 41 136 41 95 40
is_linear=0
shrinkage=0.05


Tree=24
num_leaves=31
num_cat=0
split_feature=5 18 6 15 3 15 18 17 1 18 9 6 15 4 9 4 10 5 15 6 18 4 9 6 5 13 5 17 15 13
split_gain=23.8001 10.5911 19.7542 14.8643 13.3746 7.71 10.7727 8.24714 7.6679 7.25323 8.41324 8.15152 7.16591 5.71444 8.63573 5.27675 5.02124 4.29105 4.15868 7.79233 2.9419 2.61775 2.37276 2.07856 1.91774 1.85918 1.01893 1.32757 0.366953 0.325898
threshold=0.20182576560422946 1.3769971360262976 0.19296064625214554 0.86587919821163184 0.23032984542516671 0.82326461859759681 1.0308878946225886 0.59207960678439808 2.0227086294130463 0.4042140291683875 62.662607426252514 0.1067734403379573 0.80537309130865287 0.97970543529403187 37.719162617982917 0.046319611278799348 -0.016174896346871897 1.002941534838264 0.8395946529317867 0.11616024418534465 1.6463317735102982 0.062589161242062513 19.862242536028493 0.1957161915816614 0.38726811141714318 0.90650758334203285 0.14244754594985315 0.11999382301566322 0.82761225475521727 0.68637168896117495
decision_type=2 2 2 2 2 2 2 2 2 2 2 2 2 2 2 2 2 2 2 2 2 2 2 2 2 2 2 2 2 2
left_child=5 3 4 9 20 21 7 18 15 10 11 -2 -11 14 17 -6 -4 -5 19 -7 -3 -1 -20 26 -14 28 29 -28 -18 -23
right_child=1 2 16 13 8 6 -8 -9 -10 12 -12 -13 24 -15 -16 -17 25 -19 22 -21 -22 23 -24 -25 -26 -27 27 -29 -30 -31
leaf_value=-0.0032781648443276886 -0.015678972156719689 -0.002124544309737434 0.018981363664920051 -0.037348804309628461 0.0045095394820056393 -0.045625380408426661 0.034973664926913138 0.022250741869924408 -0.018007073482278643 0.02521689536216376 -0.024105448049284255 0.042611179279485045 -0.037449132600044448 0.022233790196402165 0.018284428607359144 0.055240146005718666 0.059508852689704274 0.0010795102058535672 -0.015292313193231884 0.032610537214992304 -0.043216037856944521 -0.034505875211964319 -0.045814539059116532 -0.0076464145689359737 -0.0047637916713966144 0.041369430477711522 -0.0073256178280539097 -0.038786480936236184 0.073234677752619701 -0.044514996900548845
leaf_weight=8.1754298508167249 7.0832689553499213 6.3228200972080257 11.397860854864119 41.451255491003394 7.9485719501972261 5.7169551402330381 13.11316369473934 11.355611145496367 8.7370423674583417 12.136351883411409 7.2933533191680899 39.136537134647369 11.045944124460222 8.3623135387897474 11.006457567214964 14.434038430452345 8.8604958951473289 8.8080534134060127 9.3277370203286427 7.1797333061695099 14.000878721475599 12.012832015752791 20.063080042600632 6.8480158746242514 7.5585645139217368 10.980072882026432 5.8590927869081479 7.8400010466575623 10.810297459363936 25.177710235118866
leaf_count=28 23 20 32 145 22 21 37 32 27 34 25 102 37 25 31 36 21 31 32 21 50 46 73 21 22 33 20 27 25 99
internal_value=0 0.00862093 0.021894 0.000556822 0.00111499 -0.0176281 -0.00565101 -0.0155818 0.0217179 0.0146837 0.0258027 0.0336781 -0.0046722 -0.0165375 -0.0218295 0.0372246 0.0473154 -0.0306142 -0.0257411 -0.00207055 -0.0304322 -0.0297584 -0.0361277 -0.0335079 -0.0241699 0.0578517 -0.036988 -0.0253307 0.067052 -0.041282
internal_weight=0 247.374 93.4921 153.882 51.4434 132.669 66.7563 53.6431 31.1197 84.254 53.5132 46.2198 30.7409 69.6281 61.2658 22.3826 42.0487 50.2593 42.2875 12.8967 20.3237 65.9131 29.3908 57.7377 18.6045 30.6509 50.8896 13.6991 19.6708 37.1905
internal_count=1198 741 266 475 155 457 216 179 85 243 150 125 93 232 207 58 111 176 147 42 70 241 105 213 59 79 192 47 46 145
is_linear=0
shrinkage=0.05


Tree=25
num_leaves=27
num_cat=0
split_feature=7 15 15 15 15 18 5 9 9 3 0 18 13 5 10 2 14 1 15 14 7 11 1 2 5 7
split_gain=41.794 12.2323 9.38025 12.2485 8.00556 6.92699 6.78559 6.62868 5.5997 4.72425 4.59724 6.58717 4.4323 4.20895 3.97108 3.63312 3.42387 3.68829 3.18406 2.97647 5.56754 2.40487 1.8291 1.78904 1.60348 1.29283
threshold=0.25763769910603723 0.72687820082598953 0.76211828706920259 0.72687820082598953 0.85555986094036596 -0.40694955049421894 0.6888323685765414 17.511547296302286 30.577004214848273 -0.31222832609233198 52.653685751548025 1.1648089667340555 0.90499935807124321 0.18693325732733188 0.018303537915136035 0.19371348066744684 0.99999999999999611 -0.45282787107589678 0.87226646567328492 0.99999999999999611 0.019837366384680966 0.53258787799327234 0.63032910818640187 -3.4929212255238089 0.26230858409185959 0.079082023135291168
decision_type=2 2 2 2 2 2 2 2 2 2 2 2 2 2 2 2 2 2 2 2 2 2 2 2 2 2
left_child=1 -1 3 24 15 7 -5 -4 13 12 16 14 -9 -6 -12 19 17 -7 -13 20 -3 -11 25 -18 -2 -17
right_child=2 4 5 6 8 10 -8 9 -10 21 11 18 -14 -15 -16 22 23 -19 -20 -21 -22 -23 -24 -25 -26 -27
leaf_value=-0.028247201205594485 -0.036887884544563675 0.044814934642744726 0.04406737506200914 0.061028123583412398 -0.0018276495831801834 -0.035175485312999626 0.0035831782754631907 -0.0078829484249697112 -0.01770861292118403 -0.036844291037201542 -0.018406936161478048 -0.0125018455755883 0.036721539168382659 0.045373149035100244 0.016551153657985457 0.043647164360043525 -0.004569623371927207 0.0087503951922463016 -0.035609950254548162 0.054207124142213348 -0.010232240980173474 -0.0074414178296667959 0.029081349654569773 -0.035479001683147299 -0.0050707608968341353 0.065076558738534421
leaf_weight=9.2441610395908338 7.6403330564498892 9.0590986311435753 7.6833001375198355 12.626677811145784 7.7598219215869966 8.1015563011169451 8.6709368824958784 12.879010438919069 10.903098970651625 11.473831593990328 12.066193241626022 38.333292067050934 9.8130313456058484 12.06820312142372 24.862913608551025 10.986150890588762 5.0807155407965174 11.652035504579542 24.393030982464552 7.5418324768543235 9.3181231021881086 17.654971987009048 7.0242258310317984 59.569267977029085 8.2204237878322584 19.585485637187958
leaf_count=29 24 27 24 39 23 28 25 42 30 36 42 115 31 37 78 33 18 35 76 23 26 54 20 197 26 60
internal_value=0 0.0266401 -0.0105326 0.0128674 0.0320238 -0.0141026 0.0376405 0.000727423 0.0110738 -0.00569844 -0.018897 -0.0116247 0.011406 0.0269008 0.00512897 0.0421602 -0.0274833 -0.00926496 -0.0214881 0.0277579 0.0169034 -0.0190232 0.0520894 -0.0330499 -0.0203975 0.0573757
internal_weight=0 103.49 280.722 37.1584 94.246 243.563 21.2976 59.5041 30.7311 51.8208 184.059 99.6554 22.692 19.828 36.9291 63.5149 84.4036 19.7536 62.7263 25.9191 18.3772 29.1288 37.5959 64.65 15.8608 30.5716
internal_count=1198 308 890 114 279 776 64 187 90 163 589 311 73 60 120 189 278 63 191 76 53 90 113 215 50 93
is_linear=0
shrinkage=0.05


Tree=26
num_leaves=24
num_cat=0
split_feature=0 7 18 7 10 5 15 15 18 13 8 4 18 8 7 3 1 3 7 15 8 8 15
split_gain=24.2091 13.8209 17.0803 11.6353 6.94537 6.2091 7.79108 5.76243 9.55888 7.43011 5.64406 7.83561 4.65334 12.7675 9.32495 4.27872 3.43834 2.83623 1.17857 0.202108 0.159228 0.398771 0.0211329
threshold=48.312967506250793 0.25763769910603723 1.7357845956164151 0.9115178445478912 -0.15300500770311623 0.17157164243714643 0.80135339509682868 0.86288196198093614 1.1247698422141148 0.5968306031420807 -0.071868828811765165 0.97970543529403187 0.36383292198168193 0.0026379721356247937 0.55406170642643982 -0.050329303343303704 -0.092148895486502611 0.42551516824878771 0.61816848270075742 0.75991305323874159 0.019028851382294692 0.024813569620114974 0.85691440730950674
decision_type=2 2 2 2 2 2 2 2 2 2 2 2 2 2 2 2 2 2 2 2 2 2 2
left_child=3 16 4 7 -3 -6 -7 9 10 -1 -9 -12 13 -11 -14 -4 -2 20 -17 -20 22 -22 -18
right_child=1 2 15 -5 5 6 -8 8 -10 12 11 -13 14 -15 -16 18 17 -19 19 -21 21 -23 -24
leaf_value=0.053859661214051863 -4.7194935004085443e-05 0.064007505929822073 0.0057424854328777244 0.070334593366286724 0.047650999155916945 -0.031218560134713958 0.0070669864202111818 0.07163921845796023 -0.016869133987892779 0.010466139458826252 0.03932853668124555 -0.01727145212563673 0.032737605202339676 -0.036270444284503572 -0.016848469241624111 -0.02271184956568037 -0.04401749804917713 -0.0042703185140413498 -0.033710890274498896 -0.044867910950550753 -0.028741137932253337 -0.044518070506045462 -0.047182483179163758
leaf_weight=7.3485195040702811 6.9799225330352774 5.119914934039115 7.0493245124816886 8.9453903958201391 7.7194895446300498 15.725075811147688 85.750447576865554 8.6737855374813062 10.86780074238777 39.73305581510067 27.175977468490601 7.8900859951972953 26.362144038081169 23.113184973597527 14.806539207696913 10.443790555000303 13.647926494479181 5.5484972745180121 5.0647091567516354 20.442700326442719 6.2471720129251507 11.159895241260527 8.5961628109216672
leaf_count=21 22 15 25 29 23 50 256 24 30 116 80 21 82 76 44 34 54 19 19 65 23 43 27
internal_value=0 -0.0104096 -0.00301329 0.0147878 0.00709126 0.00442259 0.0011341 0.0117939 0.0250985 0.00526996 0.035526 0.0265932 0.00183716 -0.00672234 0.0149037 -0.0298758 -0.0327087 -0.0377524 -0.0368598 -0.0426526 -0.0424377 -0.0388559 -0.0452406
internal_weight=0 209.495 157.315 174.916 114.315 109.195 101.476 165.971 54.6076 111.363 43.7398 35.0661 104.015 62.8462 41.1687 43.0005 52.1796 45.1997 35.9512 25.5074 39.6512 17.4071 22.2441
internal_count=1198 675 487 523 344 329 306 494 155 339 125 101 318 192 126 143 188 166 118 84 147 66 81
is_linear=0
shrinkage=0.05


end of trees

feature_importances:
corr_btc_sol_100=92
trend_regime_slope=76
ratio_btc_sol_norm=62
ratio_btc_bnb_norm=53
cmf_20=50
bb_pct_lower=46
atr_pct_14=46
macd_line=43
volatility_regime=39
adx_14=37
corr_btc_sol_20=37
macd_signal=33
bb_pct_upper=33
macd_hist=31
volume_sma_ratio=15
rsi_14=14
corr_btc_eth_100=9

parameters:
[boosting: gbdt]
[objective: multiclass]
[metric: multi_logloss]
[tree_learner: serial]
[device_type: cpu]
[data_sample_strategy: bagging]
[data: ]
[valid: ]
[num_iterations: 100]
[learning_rate: 0.05]
[num_leaves: 31]
[num_threads: 0]
[seed: 42]
[deterministic: 0]
[force_col_wise: 0]
[force_row_wise: 0]
[histogram_pool_size: -1]
[max_depth: 6]
[min_data_in_leaf: 20]
[min_sum_hessian_in_leaf: 0.001]
[bagging_fraction: 0.8]
[pos_bagging_fraction: 1]
[neg_bagging_fraction: 1]
[bagging_freq: 5]
[bagging_seed: 400]
[feature_fraction: 0.8]
[feature_fraction_bynode: 1]
[feature_fraction_seed: 30056]
[extra_trees: 0]
[extra_seed: 12879]
[early_stopping_round: 0]
[first_metric_only: 0]
[max_delta_step: 0]
[lambda_l1: 0]
[lambda_l2: 0]
[linear_lambda: 0]
[min_gain_to_split: 0]
[drop_rate: 0.1]
[max_drop: 50]
[skip_drop: 0.5]
[xgboost_dart_mode: 0]
[uniform_drop: 0]
[drop_seed: 17869]
[top_rate: 0.2]
[other_rate: 0.1]
[min_data_per_group: 100]
[max_cat_threshold: 32]
[cat_l2: 10]
[cat_smooth: 10]
[max_cat_to_onehot: 4]
[top_k: 20]
[monotone_constraints: ]
[monotone_constraints_method: basic]
[monotone_penalty: 0]
[feature_contri: ]
[forcedsplits_filename: ]
[refit_decay_rate: 0.9]
[cegb_tradeoff: 1]
[cegb_penalty_split: 0]
[cegb_penalty_feature_lazy: ]
[cegb_penalty_feature_coupled: ]
[path_smooth: 0]
[interaction_constraints: ]
[verbosity: -1]
[saved_feature_importance_type: 0]
[use_quantized_grad: 0]
[num_grad_quant_bins: 4]
[quant_train_renew_leaf: 0]
[stochastic_rounding: 1]
[linear_tree: 0]
[max_bin: 255]
[max_bin_by_feature: ]
[min_data_in_bin: 3]
[bin_construct_sample_cnt: 200000]
[data_random_seed: 175]
[is_enable_sparse: 1]
[enable_bundle: 1]
[use_missing: 1]
[zero_as_missing: 0]
[feature_pre_filter: 1]
[pre_partition: 0]
[two_round: 0]
[header: 0]
[label_column: ]
[weight_column: ]
[group_column: ]
[ignore_column: ]
[categorical_feature: ]
[forcedbins_filename: ]
[precise_float_parser: 0]
[parser_config_file: ]
[objective_seed: 16083]
[num_class: 3]
[is_unbalance: 0]
[scale_pos_weight: 1]
[sigmoid: 1]
[boost_from_average: 1]
[reg_sqrt: 0]
[alpha: 0.9]
[fair_c: 1]
[poisson_max_delta_step: 0.7]
[tweedie_variance_power: 1.5]
[lambdarank_truncation_level: 30]
[lambdarank_norm: 1]
[label_gain: ]
[lambdarank_position_bias_regularization: 0]
[eval_at: ]
[multi_error_top_k: 1]
[auc_mu_weights: ]
[num_machines: 1]
[local_listen_port: 12400]
[time_out: 120]
[machine_list_filename: ]
[machines: ]
[gpu_platform_id: -1]
[gpu_device_id: -1]
[gpu_use_dp: 0]
[num_gpu: 1]

end of parameters

pandas_categorical:[]
