{"learner":{"attributes":{"best_iteration":"0","best_score":"0.6941260977795249"},"feature_names":["rsi_14","macd_line","macd_signal","macd_hist","bb_pct_upper","bb_pct_lower","atr_pct_14","volatility_regime","trend_regime_slope","adx_14","cmf_20","volume_sma_ratio","return_1","return_2","return_3","return_5","ma10_ratio","ma30_ratio","bb_zscore","macd_hist_ratio","volume_ratio","fft_real","fft_imag","corr_btc_eth_20","corr_btc_sol_20","corr_btc_eth_100","corr_btc_sol_100","ratio_btc_eth_norm","ratio_btc_sol_norm","ratio_btc_bnb_norm","btc_funding_rate","funding_mom_1","funding_mom_3","funding_spread_eth","funding_spread_sol","funding_spread_bnb"],"feature_types":["float","float","float","float","float","float","float","float","float","float","float","float","float","float","float","float","float","float","float","float","float","float","float","float","float","float","float","float","float","float","float","float","float","float","float","float"],"gradient_booster":{"model":{"gbtree_model_param":{"num_parallel_tree":"1","num_trees":"16"},"iteration_indptr":[0,1,2,3,4,5,6,7,8,9,10,11,12,13,14,15,16],"tree_info":[0,0,0,0,0,0,0,0,0,0,0,0,0,0,0,0],"trees":[{"base_weights":[1.6149805E-1,-4.527464E-1,4.641624E-2,6.051696E-1,-5.0567627E-2,-6.11326E-1,1.1219302E0,4.197155E-3,-3.1195607E-2,-1.6211407E-2,4.8566964E-2],"categories":[],"categories_nodes":[],"categories_segments":[],"categories_sizes":[],"default_left":[0,0,0,0,0,0,0,0,0,0,0],"id":0,"left_children":[1,3,-1,5,-1,7,9,-1,-1,-1,-1],"loss_changes":[1.703847E1,1.9374895E1,0E0,5.909669E0,0E0,1.1514251E0,5.9842963E0,0E0,0E0,0E0,0E0],"parents":[2147483647,0,0,1,1,3,3,5,5,6,6],"right_children":[2,4,-1,6,-1,8,10,-1,-1,-1,-1],"split_conditions":[7.695735E-1,4.9576154E0,4.641624E-2,5.566974E-2,-5.0567627E-2,5.2562654E-1,-5.232179E-1,4.197155E-3,-3.1195607E-2,-1.6211407E-2,4.8566964E-2],"split_indices":[6,1,0,10,0,6,2,0,0,0,0],"split_type":[0,0,0,0,0,0,0,0,0,0,0],"sum_hessian":[1.8194847E1,1.3073171E1,5.1216764E0,7.3097296E0,5.763441E0,2.1247957E0,5.1849337E0,1.0164417E0,1.1083541E0,1.1732333E0,4.0117006E0],"tree_param":{"num_deleted":"0","num_feature":"36","num_nodes":"11","size_leaf_vector":"1"}},{"base_weights":[-8.863416E-2,-7.816561E-1,9.2450833E-1,4.123192E-2,-1.4099789E0,-1.9707671E-1,4.4549644E-2,-4.7972653E-2,4.117544E-3,-3.5936367E-2,3.20238E-2],"categories":[],"categories_nodes":[],"categories_segments":[],"categories_sizes":[],"default_left":[0,0,0,0,0,0,0,0,0,0,0],"id":1,"left_children":[1,3,5,-1,7,9,-1,-1,-1,-1,-1],"loss_changes":[1.4679415E1,1.866233E1,5.656233E0,0E0,3.1610222E0,5.9939466E0,0E0,0E0,0E0,0E0,0E0],"parents":[2147483647,0,0,1,1,2,2,4,4,5,5],"right_children":[2,4,6,-1,8,10,-1,-1,-1,-1,-1],"split_conditions":[6.7045456E-1,6.990322E-1,5.868799E-1,4.123192E-2,1.2932178E0,3.3076348E0,4.4549644E-2,-4.7972653E-2,4.117544E-3,-3.5936367E-2,3.20238E-2],"split_indices":[7,24,4,0,4,1,0,0,0,0,0],"split_type":[0,0,0,0,0,0,0,0,0,0,0],"sum_hessian":[1.8877756E1,1.1345532E1,7.5322237E0,2.2922843E0,9.053248E0,2.725854E0,4.80637E0,8.037367E0,1.015881E0,1.5510262E0,1.1748277E0],"tree_param":{"num_deleted":"0","num_feature":"36","num_nodes":"11","size_leaf_vector":"1"}},{"base_weights":[-1.0294817E-1,-6.745609E-1,1.3535897E0,4.512253E-2,-1.3916098E0,3.088437E-3,4.7186363E-2,-1.6249071E0,1.0240697E-3,-1.5392786E-2,-5.120525E-2],"categories":[],"categories_nodes":[],"categories_segments":[],"categories_sizes":[],"default_left":[0,0,0,0,0,0,0,0,0,0,0],"id":2,"left_children":[1,3,5,-1,7,-1,-1,9,-1,-1,-1],"loss_changes":[1.8654701E1,2.704279E1,1.576397E0,0E0,4.2250633E0,0E0,0E0,1.0746002E-1,0E0,0E0,0E0],"parents":[2147483647,0,0,1,1,2,2,4,4,7,7],"right_children":[2,4,6,-1,8,-1,-1,10,-1,-1,-1],"split_conditions":[7.695735E-1,7.024574E-1,1.2592167E0,4.512253E-2,3.524249E1,3.088437E-3,4.7186363E-2,3.928E-5,1.0240697E-3,-1.5392786E-2,-5.120525E-2],"split_indices":[6,24,2,0,9,0,0,30,0,0,0],"split_type":[0,0,0,0,0,0,0,0,0,0,0],"sum_hessian":[2.0309322E1,1.4970917E1,5.338406E0,3.4353917E0,1.1535525E1,1.0156202E0,4.322786E0,9.793335E0,1.7421904E0,1.1706325E0,8.622703E0],"tree_param":{"num_deleted":"0","num_feature":"36","num_nodes":"11","size_leaf_vector":"1"}},{"base_weights":[1.4250514E-1,-3.6370867E-1,1.3223274E0,4.413863E-2,-1.0327686E0,3.0418762E-3,4.6097785E-2,3.5281137E-2,-1.4595429E0,-4.965093E-2,-7.440739E-4],"categories":[],"categories_nodes":[],"categories_segments":[],"categories_sizes":[],"default_left":[0,0,0,0,0,0,0,0,0,0,0],"id":3,"left_children":[1,3,5,-1,7,-1,-1,-1,9,-1,-1],"loss_changes":[1.2641762E1,1.9975298E1,1.4999037E0,0E0,1.2654704E1,0E0,0E0,0E0,2.811613E0,0E0,0E0],"parents":[2147483647,0,0,1,1,2,2,4,4,8,8],"right_children":[2,4,6,-1,8,-1,-1,-1,10,-1,-1],"split_conditions":[7.695735E-1,7.024574E-1,1.2592167E0,4.413863E-2,3.3010772E-1,3.0418762E-3,4.6097785E-2,3.5281137E-2,3.6018265E1,-4.965093E-2,-7.440739E-4],"split_indices":[6,24,2,0,5,0,0,0,9,0,0],"split_type":[0,0,0,0,0,0,0,0,0,0,0],"sum_hessian":[1.9361618E1,1.4032547E1,5.32907E0,3.4289913E0,1.0603556E1,1.0155376E0,4.3135324E0,1.4327244E0,9.170832E0,7.935986E0,1.2348452E0],"tree_param":{"num_deleted":"0","num_feature":"36","num_nodes":"11","size_leaf_vector":"1"}},{"base_weights":[-1.0019432E-1,-6.326555E-1,4.0245973E-2,4.1368328E-2,-1.2704953E0,1.8181933E-2,-1.5321027E0,-4.855316E-2,-1.408853E-2],"categories":[],"categories_nodes":[],"categories_segments":[],"categories_sizes":[],"default_left":[0,0,0,0,0,0,0,0,0],"id":4,"left_children":[1,3,-1,-1,5,-1,7,-1,-1],"loss_changes":[1.4849855E1,1.9713747E1,0E0,0E0,6.4019737E0,0E0,1.6354942E-1,0E0,0E0],"parents":[2147483647,0,0,1,1,4,4,6,6],"right_children":[2,4,-1,-1,6,-1,8,-1,-1],"split_conditions":[7.695735E-1,7.024574E-1,4.0245973E-2,4.1368328E-2,3.3010772E-1,1.8181933E-2,-1.2752953E-3,-4.855316E-2,-1.408853E-2],"split_indices":[6,24,0,0,5,0,19,0,0],"split_type":[0,0,0,0,0,0,0,0,0],"sum_hessian":[1.7238623E1,1.2998994E1,4.23963E0,2.8497238E0,1.014927E1,1.0806764E0,9.068593E0,7.9031377E0,1.1654555E0],"tree_param":{"num_deleted":"0","num_feature":"36","num_nodes":"9","size_leaf_vector":"1"}},{"base_weights":[-1.1558117E-1,-7.879039E-1,1.0318177E0,-1.2972529E0,3.6281534E-2,-5.1676026E-3,4.0942084E-2,5.729392E-3,-4.741224E-2],"categories":[],"categories_nodes":[],"categories_segments":[],"categories_sizes":[],"default_left":[0,0,0,0,0,0,0,0,0],"id":5,"left_children":[1,3,5,7,-1,-1,-1,-1,-1],"loss_changes":[1.4981955E1,1.3927525E1,3.1288986E0,4.5841923E0,0E0,0E0,0E0,0E0,0E0],"parents":[2147483647,0,0,1,1,2,2,3,3],"right_children":[2,4,6,8,-1,-1,-1,-1,-1],"split_conditions":[-1.2752953E-3,7.695735E-1,-2.5637862E-1,-2.5554837E-3,3.6281534E-2,-5.1676026E-3,4.0942084E-2,5.729392E-3,-4.741224E-2],"split_indices":[19,6,2,16,0,0,0,0,0],"split_type":[0,0,0,0,0,0,0,0,0],"sum_hessian":[1.7367346E1,1.114828E1,6.2190647E0,9.162222E0,1.986059E0,1.4516085E0,4.7674565E0,1.5166101E0,7.6456113E0],"tree_param":{"num_deleted":"0","num_feature":"36","num_nodes":"9","size_leaf_vector":"1"}},{"base_weights":[-6.535559E-2,-5.7803816E-1,3.9333265E-2,4.1769537E-1,-4.5620777E-2,3.310755E-2,-1.04965985E-1,-3.8075052E-2,3.773522E-2],"categories":[],"categories_nodes":[],"categories_segments":[],"categories_sizes":[],"default_left":[0,0,0,0,0,0,0,0,0],"id":6,"left_children":[1,3,-1,5,-1,-1,7,-1,-1],"loss_changes":[1.4242984E1,1.4355424E1,0E0,2.9453893E0,0E0,0E0,1.0152334E1,0E0,0E0],"parents":[2147483647,0,0,1,1,3,3,6,6],"right_children":[2,4,-1,6,-1,-1,8,-1,-1],"split_conditions":[7.5810647E-1,4.9576154E0,3.9333265E-2,3.3730787E-1,-4.5620777E-2,3.310755E-2,5.945946E1,-3.8075052E-2,3.773522E-2],"split_indices":[6,1,0,5,0,0,0,0,0],"split_type":[0,0,0,0,0,0,0,0,0],"sum_hessian":[1.8109135E1,1.361726E1,4.4918747E0,6.893011E0,6.7242494E0,2.5003386E0,4.3926725E0,2.406007E0,1.9866655E0],"tree_param":{"num_deleted":"0","num_feature":"36","num_nodes":"9","size_leaf_vector":"1"}},{"base_weights":[-3.6298655E-2,9.861084E-1,-7.0406353E-1,-4.7419844E-3,1.2532775E0,-1.0935062E0,3.33243E-2,4.339491E-2,7.1987933E-3,3.0445853E-2,-4.3396104E-2],"categories":[],"categories_nodes":[],"categories_segments":[],"categories_sizes":[],"default_left":[0,0,0,0,0,0,0,0,0,0,0],"id":7,"left_children":[1,3,5,-1,7,9,-1,-1,-1,-1,-1],"loss_changes":[1.421201E1,2.7167034E0,1.0092281E1,0E0,9.826145E-1,9.540395E0,0E0,0E0,0E0,0E0,0E0],"parents":[2147483647,0,0,1,1,2,2,4,4,5,5],"right_children":[2,4,6,-1,8,10,-1,-1,-1,-1,-1],"split_conditions":[2.8776715E0,-3.457446E-1,7.695735E-1,-4.7419844E-3,9.87013E-1,3.3010772E-1,3.33243E-2,4.339491E-2,7.1987933E-3,3.0445853E-2,-4.3396104E-2],"split_indices":[2,2,6,0,7,5,0,0,0,0,0],"split_type":[0,0,0,0,0,0,0,0,0,0,0],"sum_hessian":[1.8799595E1,7.239125E0,1.156047E1,1.4476796E0,5.7914453E0,9.845302E0,1.7151681E0,4.5049543E0,1.2864907E0,1.1431963E0,8.702105E0],"tree_param":{"num_deleted":"0","num_feature":"36","num_nodes":"11","size_leaf_vector":"1"}},{"base_weights":[4.0579796E-2,-4.8537558E-1,3.8483743E-2,9.074411E-1,-1.2815393E0,-7.152637E-3,4.1022807E-2,-7.658112E-4,-4.4214554E-2],"categories":[],"categories_nodes":[],"categories_segments":[],"categories_sizes":[],"default_left":[0,0,0,0,0,0,0,0,0],"id":8,"left_children":[1,3,-1,5,7,-1,-1,-1,-1],"loss_changes":[1.2599788E1,1.6249056E1,0E0,3.242672E0,2.15304E0,0E0,0E0,0E0,0E0],"parents":[2147483647,0,0,1,1,3,3,4,4],"right_children":[2,4,-1,6,8,-1,-1,-1,-1],"split_conditions":[7.695735E-1,1.4750489E-2,3.8483743E-2,5.945946E1,-2.5554837E-3,-7.152637E-3,4.1022807E-2,-7.658112E-4,-4.4214554E-2],"split_indices":[6,8,0,0,16,0,0,0,0],"split_type":[0,0,0,0,0,0,0,0,0],"sum_hessian":[1.7331966E1,1.2604469E1,4.727497E0,4.5335917E0,8.070877E0,1.4365947E0,3.096997E0,1.221901E0,6.848976E0],"tree_param":{"num_deleted":"0","num_feature":"36","num_nodes":"9","size_leaf_vector":"1"}},{"base_weights":[3.2889586E-2,6.5814984E-1,-7.4811304E-1,-2.794052E-2,9.1835976E-1,-4.2771418E-2,3.3962086E-2,4.1275017E-2,1.5372267E-1,3.4777652E-2,-2.6697282E-2],"categories":[],"categories_nodes":[],"categories_segments":[],"categories_sizes":[],"default_left":[0,0,0,0,0,0,0,0,0,0,0],"id":9,"left_children":[1,3,5,-1,7,-1,-1,-1,9,-1,-1],"loss_changes":[9.997447E0,5.5464306E0,1.3236074E1,0E0,3.373973E0,0E0,0E0,0E0,6.2394977E0,0E0,0E0],"parents":[2147483647,0,0,1,1,2,2,4,4,8,8],"right_children":[2,4,6,-1,8,-1,-1,-1,10,-1,-1],"split_conditions":[4.9576154E0,5.5555556E-2,7.1849847E-1,-2.794052E-2,7.1428573E-1,-4.2771418E-2,3.3962086E-2,4.1275017E-2,2.0682504E0,3.4777652E-2,-2.6697282E-2],"split_indices":[1,7,6,0,7,0,0,0,1,0,0],"split_type":[0,0,0,0,0,0,0,0,0,0,0],"sum_hessian":[1.8464458E1,1.03420515E1,8.122407E0,1.0920433E0,9.250009E0,6.148322E0,1.9740846E0,5.2873282E0,3.9626803E0,1.9617543E0,2.000926E0],"tree_param":{"num_deleted":"0","num_feature":"36","num_nodes":"11","size_leaf_vector":"1"}},{"base_weights":[-1.3508788E-1,3.7317637E-2,-5.531369E-1,-1.1201867E0,6.711924E-1,2.9776696E-2,-4.5733325E-2,1.0337186E0,-1.2505213E-2,9.263684E-3,3.6567293E-2],"categories":[],"categories_nodes":[],"categories_segments":[],"categories_sizes":[],"default_left":[0,0,0,0,0,0,0,0,0,0,0],"id":10,"left_children":[1,-1,3,5,7,-1,-1,9,-1,-1,-1],"loss_changes":[1.1965041E1,0E0,1.1653753E1,1.099949E1,2.6381855E0,0E0,0E0,2.2570086E-1,0E0,0E0,0E0],"parents":[2147483647,0,0,2,2,3,3,4,4,7,7],"right_children":[2,-1,4,6,8,-1,-1,10,-1,-1,-1],"split_conditions":[8.442262E-4,3.7317637E-2,1.5222559E0,7.024574E-1,1E0,2.9776696E-2,-4.5733325E-2,-2.801176E1,-1.2505213E-2,9.263684E-3,3.6567293E-2],"split_indices":[17,0,3,24,25,0,0,21,0,0,0],"split_type":[0,0,0,0,0,0,0,0,0,0,0],"sum_hessian":[1.8561337E1,3.8583484E0,1.4702989E1,1.0106985E1,4.5960035E0,1.3895607E0,8.717424E0,3.4848063E0,1.1111972E0,1.2518522E0,2.2329543E0],"tree_param":{"num_deleted":"0","num_feature":"36","num_nodes":"11","size_leaf_vector":"1"}},{"base_weights":[-1.4175338E-1,-6.050938E-1,1.0719017E0,3.446742E-2,-1.0173242E0,3.905164E-2,6.8343774E-4,3.1964228E-2,-1.3915609E0,-4.4187006E-2,-1.0963406E-2],"categories":[],"categories_nodes":[],"categories_segments":[],"categories_sizes":[],"default_left":[0,0,0,0,0,0,0,0,0,0,0],"id":11,"left_children":[1,3,5,-1,7,-1,-1,-1,9,-1,-1],"loss_changes":[1.1310007E1,1.1551947E1,1.3203316E0,0E0,1.0959148E1,0E0,0E0,0E0,3.5809898E-1,0E0,0E0],"parents":[2147483647,0,0,1,1,2,2,4,4,8,8],"right_children":[2,4,6,-1,8,-1,-1,-1,10,-1,-1],"split_conditions":[7.695735E-1,7.024574E-1,9.866667E-1,3.446742E-2,-1.622305E-4,3.905164E-2,6.8343774E-4,3.1964228E-2,1.679984E0,-4.4187006E-2,-1.0963406E-2],"split_indices":[6,24,7,0,17,0,0,0,3,0,0],"split_type":[0,0,0,0,0,0,0,0,0,0,0],"sum_hessian":[1.7959158E1,1.3360074E1,4.599084E0,2.2023182E0,1.1157756E1,3.5751414E0,1.0239424E0,1.4181334E0,9.739623E0,8.620838E0,1.1187841E0],"tree_param":{"num_deleted":"0","num_feature":"36","num_nodes":"11","size_leaf_vector":"1"}},{"base_weights":[-5.596847E-2,8.950393E-1,-6.5821266E-1,3.593327E-2,4.5250374E-1,-1.0458353E0,3.0780716E-2,-1.229103E-2,3.2495033E-2,-2.3564631E-2,-4.1167434E-2,2.0963136E-2,-2.5048217E-2],"categories":[],"categories_nodes":[],"categories_segments":[],"categories_sizes":[],"default_left":[0,0,0,0,0,0,0,0,0,0,0,0,0],"id":12,"left_children":[1,3,5,-1,7,9,-1,-1,-1,11,-1,-1,-1],"loss_changes":[1.0738349E1,4.3526554E-1,8.532461E0,0E0,2.9289186E0,3.2322388E0,0E0,0E0,0E0,2.5675118E0,0E0,0E0,0E0],"parents":[2147483647,0,0,1,1,2,2,4,4,5,5,9,9],"right_children":[2,4,6,-1,8,10,-1,-1,-1,12,-1,-1,-1],"split_conditions":[2.8776715E0,7.024574E-1,7.695735E-1,3.593327E-2,1.2592167E0,4.9576154E0,3.0780716E-2,-1.229103E-2,3.2495033E-2,-1.3347642E-3,-4.1167434E-2,2.0963136E-2,-2.5048217E-2],"split_indices":[2,24,6,0,2,1,0,0,0,14,0,0,0],"split_type":[0,0,0,0,0,0,0,0,0,0,0,0,0],"sum_hessian":[1.6720505E1,6.2945557E0,1.0425949E1,2.7242737E0,3.5702822E0,8.783496E0,1.6424532E0,1.656282E0,1.9140004E0,2.3853047E0,6.3981905E0,1.3353119E0,1.0499929E0],"tree_param":{"num_deleted":"0","num_feature":"36","num_nodes":"13","size_leaf_vector":"1"}},{"base_weights":[-6.451453E-2,3.573444E-2,-4.280454E-1,-1.1493202E0,8.7328535E-1,2.5735538E-2,-4.372545E-2,3.9314605E-2,-8.120966E-3],"categories":[],"categories_nodes":[],"categories_segments":[],"categories_sizes":[],"default_left":[0,0,0,0,0,0,0,0,0],"id":13,"left_children":[1,-1,3,5,7,-1,-1,-1,-1],"loss_changes":[9.732532E0,0E0,1.6400524E1,8.046159E0,3.5646834E0,0E0,0E0,0E0,0E0],"parents":[2147483647,0,0,2,2,3,3,4,4],"right_children":[2,-1,4,6,8,-1,-1,-1,-1],"split_conditions":[8.442262E-4,3.573444E-2,1.6083457E0,7.024574E-1,8.800194E1,2.5735538E-2,-4.372545E-2,3.9314605E-2,-8.120966E-3],"split_indices":[17,0,3,24,22,0,0,0,0],"split_type":[0,0,0,0,0,0,0,0,0],"sum_hessian":[1.9204227E1,3.8004794E0,1.5403748E1,9.985823E0,5.4179254E0,1.0918019E0,8.89402E0,3.814554E0,1.6033713E0],"tree_param":{"num_deleted":"0","num_feature":"36","num_nodes":"9","size_leaf_vector":"1"}},{"base_weights":[-1.8445795E-2,-5.263807E-1,1.0864391E0,3.6081277E-2,-1.14562E0,3.862606E-2,5.2265017E-3,1.092506E-2,-4.1942637E-2],"categories":[],"categories_nodes":[],"categories_segments":[],"categories_sizes":[],"default_left":[0,0,0,0,0,0,0,0,0],"id":14,"left_children":[1,3,5,-1,7,-1,-1,-1,-1],"loss_changes":[1.0815217E1,1.5487356E1,8.900542E-1,0E0,4.4027863E0,0E0,0E0,0E0,0E0],"parents":[2147483647,0,0,1,1,2,2,4,4],"right_children":[2,4,6,-1,8,-1,-1,-1,-1],"split_conditions":[7.695735E-1,7.024574E-1,-1.6121255E-4,3.6081277E-2,-2.80912E-3,3.862606E-2,5.2265017E-3,1.092506E-2,-4.1942637E-2],"split_indices":[6,24,19,0,16,0,0,0,0],"split_type":[0,0,0,0,0,0,0,0,0],"sum_hessian":[1.7252247E1,1.2177585E1,5.0746613E0,2.962689E0,9.214896E0,3.8209245E0,1.2537367E0,1.2567787E0,7.9581175E0],"tree_param":{"num_deleted":"0","num_feature":"36","num_nodes":"9","size_leaf_vector":"1"}},{"base_weights":[-1.2521565E-1,3.6317356E-2,-5.045659E-1,3.6133986E-2,-1.0019224E0,-4.1717477E-2,5.4660356E-1,2.4711091E-2,-3.65655E-4],"categories":[],"categories_nodes":[],"categories_segments":[],"categories_sizes":[],"default_left":[0,0,0,0,0,0,0,0,0],"id":15,"left_children":[1,-1,3,-1,5,-1,7,-1,-1],"loss_changes":[9.5679655E0,0E0,1.3508364E1,0E0,7.835475E0,0E0,4.864028E-1,0E0,0E0],"parents":[2147483647,0,0,2,2,4,4,6,6],"right_children":[2,-1,4,-1,6,-1,8,-1,-1],"split_conditions":[7.024574E-1,3.6317356E-2,-4.478743E-5,3.6133986E-2,7.695735E-1,-4.1717477E-2,9.126588E-1,2.4711091E-2,-3.65655E-4],"split_indices":[24,0,17,0,6,0,6,0,0],"split_type":[0,0,0,0,0,0,0,0,0],"sum_hessian":[1.6676237E1,3.2037575E0,1.347248E1,2.7164366E0,1.07560425E1,8.679576E0,2.0764666E0,1.0711939E0,1.0052726E0],"tree_param":{"num_deleted":"0","num_feature":"36","num_nodes":"9","size_leaf_vector":"1"}}]},"name":"gbtree"},"learner_model_param":{"base_score":"4.944515E-1","boost_from_average":"1","num_class":"0","num_feature":"36","num_target":"1"},"objective":{"name":"binary:logistic","reg_loss_param":{"scale_pos_weight":"1"}}},"version":[2,0,3]}