tree
version=v4
num_class=3
num_tree_per_iteration=3
label_index=0
max_feature_idx=24
objective=multiclass num_class:3
feature_names=rsi_14 macd_line macd_signal macd_hist bb_pct_upper bb_pct_lower atr_pct_14 volatility_regime trend_regime_slope adx_14 cmf_20 volume_sma_ratio corr_btc_eth_20 corr_btc_sol_20 corr_btc_eth_100 corr_btc_sol_100 ratio_btc_eth_norm ratio_btc_sol_norm ratio_btc_bnb_norm btc_funding_rate funding_mom_1 funding_mom_3 funding_spread_eth funding_spread_sol funding_spread_bnb
feature_infos=[2.7046783598044755:99.922958343645419] [-30.904532145657868:55.938315768486063] [-29.17086661838718:49.678144288075444] [-10.404790135580079:24.332504944687837] [-1.7953032283118324:2.2439320447033317] [-0.29162512041870392:5.3283972428970348] [0.011444922447307136:0.74591520969783653] [0.0013623978201634877:1] [-0.19990910329297554:0.3283478475321151] [4.6664182694258551:90.93404779837195] [-0.65145877997831547:0.74498617397877187] [0.0002167215092329344:15.541270995793367] none none none none none none none none none none none none none
tree_sizes=3295 3302 3291 3400 3408 3367 3411 3412 3388 3374 3408 3380 3411 3410 3384 3394 3390 3390 3289 3395 3381 3405 3407 3397 3409 3403 3403 3400 3409 3396

Tree=0
num_leaves=31
num_cat=0
split_feature=4 4 2 8 8 8 2 9 8 2 6 8 7 5 7 7 0 7 2 7 6 2 5 4 3 0 3 8 6 7
split_gain=57.706 59.5494 44.8284 37.7192 31.0136 53.0558 29.749 29.2238 25.8235 25.6765 51.1183 20.5094 37.5056 35.3815 24.2237 19.012 18.8114 18.7417 20.4837 15.5865 14.7895 14.3933 14.0548 11.8133 9.1476 8.91138 8.46956 7.83063 7.63318 7.43496
threshold=0.14185765577218515 0.9754846241156977 2.459626917536109 0.031057833553425267 -0.0015136153976441954 -0.029164518274650619 -3.2175367210207844 37.369800022949882 0.23294715375067312 7.4425307230414779 0.10915304458474492 0.012098992074446967 0.73456392976156504 0.19386674285482366 0.078777694102771509 0.7593581974565351 53.974429296968083 0.43923178304413041 3.3212707551181411 0.85804113649508396 0.033248690211626464 0.71748364890366378 0.38558785909515875 0.062462008725610509 1.803434094763368 65.602607680604123 -0.69262297590266619 -0.060774629310775333 0.10785973473734674 0.94230261462203246
decision_type=2 2 2 2 2 2 2 2 2 2 2 2 2 2 2 2 2 2 2 2 2 2 2 2 2 2 2 2 2 2
left_child=2 6 4 17 5 27 20 16 9 10 -8 14 13 -13 21 -9 -7 -4 -19 25 -2 -6 -22 -20 -14 -5 -16 -1 -21 -29
right_child=1 -3 3 19 11 7 8 15 -10 -11 -12 12 24 -15 26 -17 -18 18 23 28 22 -23 -24 -25 -26 -27 -28 29 -30 -31
leaf_value=-1.0941427215711252 -1.0263774572693827 -1.0342761236340199 -1.1474287786089232 -1.0598604716664686 -1.1164212761072134 -1.0717927748265326 -1.1224200881224624 -1.1378852961963861 -1.0223352197820665 -1.1528517642132636 -1.0745833173329877 -1.1090817763433982 -1.1536297335920791 -1.0565605675477836 -1.0873268660830737 -1.0648175976464755 -1.0987302135583674 -1.0677665132249008 -1.0845706709090392 -1.1187585004751399 -1.1488792744617735 -1.046811563222757 -1.0769619132118156 -1.1375629915282202 -1.1000009802531434 -1.020223188463103 -1.1349158773560371 -1.1506593054616421 -1.0703994784023259 -1.0979742190298878
leaf_weight=9.0035514235496503 2.6507185995578757 18.974617514759302 19.594616591930389 35.42114345729351 16.401141718029979 156.95177015662193 451.0794011503458 43.656530559062958 6.8601627945899954 53.629587797448039 63.737095579504967 107.41132788360119 40.550165772438049 45.713148698210716 9.7829142212867719 11.183111995458601 110.3979783654213 41.041397348046303 17.274975582957268 11.562463343143461 144.87829427421093 13.570648640394209 7.1277701854705802 26.883127316832542 9.891113266348837 23.646278604865074 211.02365304529667 53.627212420105934 27.729956895112991 7.6519213765859595
leaf_count=34 5 67 55 74 70 457 1395 163 12 136 140 335 112 122 35 32 402 124 63 25 420 35 22 86 25 36 815 162 57 22
internal_value=-1.1097 -1.12172 -1.10356 -1.08246 -1.10862 -1.09832 -1.124 -1.08974 -1.11876 -1.11993 -1.1165 -1.11751 -1.10572 -1.0934 -1.12708 -1.12299 -1.08292 -1.10334 -1.0932 -1.06023 -1.14347 -1.0849 -1.14551 -1.11683 -1.14311 -1.04399 -1.13281 -1.13768 -1.08463 -1.14408
internal_weight=0 748.938 1049.97 203.154 846.816 392.472 729.963 322.189 575.306 568.446 514.816 454.344 203.566 153.124 250.778 54.8396 267.35 104.794 85.1995 98.3598 154.657 29.9718 152.006 44.1581 50.4413 59.0674 220.807 70.2827 39.2924 61.2791
internal_count=5538 2197 3341 520 2821 1272 2130 1054 1683 1671 1535 1549 594 457 955 195 859 328 273 192 447 105 442 149 137 110 850 218 82 184
is_linear=0
shrinkage=1


Tree=1
num_leaves=31
num_cat=0
split_feature=6 8 8 9 4 1 7 9 1 6 2 9 10 1 3 4 8 8 11 10 2 2 4 6 3 8 9 8 8 3
split_gain=119.327 29.922 22.1614 16.1112 22.9361 17.8842 16.9126 11.6431 17.2146 14.7769 10.8213 10.6622 10.2993 8.83202 10.8682 6.69256 8.01979 16.9255 6.67372 6.61388 5.99554 9.31912 5.80368 10.2941 5.4234 5.12504 10.7739 4.70289 4.36099 5.36147
threshold=0.074990909840867162 0.018915735424980106 -0.0074596064314103603 21.675227395175671 0.1742029065132383 2.5073846396421691 0.5274813112226443 14.587097384667338 0.91889606216955155 0.052336600086607878 -0.50011913645447592 8.9636959956779361 -0.21760878198548006 2.8955766162921468 -0.6807413153959474 0.49942137863849884 0.00037893464151075298 -0.036612239645669724 0.3040365660306884 -0.17126468555766683 3.5381373270612211 4.1640530362312278 0.1285176298780438 0.045784566995804236 0.32918482934930499 0.10044841687973784 17.069979554315974 0.029793169516592683 0.036356131675267883 2.3192608979569553
decision_type=2 2 2 2 2 2 2 2 2 2 2 2 2 2 2 2 2 2 2 2 2 2 2 2 2 2 2 2 2 2
left_child=1 2 7 5 18 6 -4 11 12 -10 -3 -1 -9 14 -2 16 17 -16 -5 -6 22 -22 27 -24 -13 28 -27 -12 29 -15
right_child=13 10 3 4 19 -7 -8 8 9 -11 20 24 -14 25 15 -17 -18 -19 -20 -21 21 -23 23 -25 -26 26 -28 -29 -30 -31
leaf_value=-1.0465219715303684 -1.1102470047965078 -1.0449227090876925 -1.0771020436376104 -1.0348629930110707 -1.1082290119222762 -1.105378114286004 -1.0448407402171498 -1.0548450554586786 -1.0678298637603723 -0.99876200569574292 -1.0980681866851281 -1.1153709679867889 -1.0859984976421493 -1.1016397294203149 -1.0964469434386559 -1.1219496253639571 -1.1024043584755554 -1.0537489251206789 -1.0568585978534433 -1.074193535664417 -1.0312554890589229 -1.0959534119319707 -0.98813731586470177 -1.0922027063908144 -1.0827060916772357 -1.0299142005904804 -1.1070178688118042 -1.1177831303717491 -1.1236809003564288 -1.1287040798319889
leaf_weight=8.054159075021742 152.66605332866311 9.9571850597858411 232.36605426669121 42.132760435342789 23.541289180517197 45.092063874006271 49.231604188680649 29.176603972911835 25.804248452186584 11.064777225255964 63.146113604307175 51.669586062431335 292.45423150062561 70.136572778224945 60.061137676239014 17.077671328559518 66.94127157330513 37.82703572511673 189.99839282035828 36.256789654493332 8.0063841342926043 18.2596275806427 2.5296034812927237 39.234728366136551 16.851501017808914 5.2709054946899405 32.261983640491962 58.063772559165955 99.558370433747768 24.758772701025009
leaf_count=35 361 44 775 200 54 108 217 119 94 66 165 105 887 176 162 34 168 156 763 125 39 49 16 111 53 26 92 114 184 40
internal_value=-1.08698 -1.07796 -1.0746 -1.06852 -1.05998 -1.07614 -1.07146 -1.08324 -1.07946 -1.0471 -1.09573 -1.10094 -1.08317 -1.10561 -1.10041 -1.09215 -1.08907 -1.07995 -1.05287 -1.08759 -1.0984 -1.07623 -1.10197 -1.0859 -1.10734 -1.11311 -1.09619 -1.10751 -1.11637 -1.1087
internal_weight=0 1252.89 1053.69 618.619 291.929 326.69 281.598 435.075 358.5 36.869 199.197 76.5752 321.631 566.56 334.573 181.907 164.829 97.8882 232.131 59.7981 189.24 26.266 162.974 41.7643 68.5211 231.987 37.5329 121.21 194.454 94.8953
internal_count=5538 4139 3601 2242 1142 1100 992 1359 1166 160 538 193 1006 1399 881 520 486 318 963 179 494 88 406 127 158 518 118 279 400 216
is_linear=0
shrinkage=1


Tree=2
num_leaves=31
num_cat=0
split_feature=4 6 9 4 8 8 2 8 9 7 7 5 2 1 7 1 10 4 8 0 2 10 5 9 7 4 9 6 2 10
split_gain=160.414 67.0325 40.5758 38.3068 33.474 30.9904 23.4675 22.4232 26.5852 19.4515 32.2967 30.3841 18.086 35.9727 25.6441 40.6499 17.4149 19.0903 17.0843 18.8982 20.1304 15.3623 15.1227 14.5957 13.2126 13.5574 22.7425 11.8727 10.6188 9.84053
threshold=0.16338082979960222 0.07798368574577709 49.437721131496481 0.80283943215712283 -0.042897144914841985 -0.057887361610045145 1.534116169828535 0.0016340122929103282 59.702602574010179 0.40809195187176356 0.16510910224865719 0.17514069507332045 7.4425307230414779 15.653184198927649 0.95688656543025485 -6.384875937763808 0.071864349547969109 0.12124944154461031 0.0044149895010221355 66.793366428347838 -3.9725590432344804 -0.13174286746894043 0.26740252629827171 17.835362021945606 0.95990573511414434 0.25065448349180525 56.66052058599066 0.027871264268516448 5.9724251210651174 -0.36307547094835341
decision_type=2 2 2 2 2 2 2 2 2 2 2 2 2 2 2 2 2 2 2 2 2 2 2 2 2 2 2 2 2 2
left_child=1 4 12 24 5 -1 18 8 27 10 -9 -11 14 -14 15 -2 17 -8 19 20 -3 -17 -20 -18 25 -4 -27 -6 -25 -16
right_child=2 6 3 -5 7 -7 16 9 -10 11 -12 -13 13 -15 29 21 23 -19 22 -21 -22 -23 -24 28 -26 26 -28 -29 -30 -31
leaf_value=-1.1361975096997483 -1.0303356259766856 -1.0601833787188024 -1.0329614623593668 -1.1383763765938757 -1.1421191843212042 -1.0187774835796615 -1.1350167565697791 -1.130189610855421 -1.0521541494935274 -1.10189533086874 -1.0868186123900532 -1.13550088593639 -1.0326683408871609 -1.1443348199111505 -0.99921605286454862 -1.0756463783725541 -1.1193032822828597 -1.0713887014117209 -1.0119583317160621 -1.0236683263753967 -1.1492664061169744 -1.0952142727155545 -1.0845787715751158 -1.0423003147167873 -1.0190676340933247 -1.0441822475676703 -1.1388992291293383 -1.1219773253144352 -1.0938861027868934 -1.1312561455833225
leaf_weight=8.4246601015329379 33.32725428044796 12.359370008110998 29.346399158239365 11.121283655986188 92.428369268774986 16.875150412321091 38.632882654666901 57.714625716209412 12.471248745918272 141.77768963575363 167.49344219267368 127.97308903932571 37.487844068557024 8.9302709959447366 1.4675208330154408 163.0128435343504 14.698201671242712 16.965216442942619 24.055615857243538 9.6427517831325513 13.024718567728998 260.72845517098904 10.21224634349346 26.761997312307358 41.520818457007408 15.716119050979616 10.620153382420538 351.01174400746822 15.904717415571211 36.679427921772003
leaf_count=34 76 30 73 29 335 34 88 215 39 511 518 385 97 32 2 470 39 44 43 21 51 775 35 47 73 37 40 1217 32 116
internal_value=-1.09928 -1.10944 -1.07841 -1.05047 -1.11464 -1.05788 -1.08161 -1.11615 -1.12415 -1.10878 -1.09793 -1.11784 -1.08399 -1.05415 -1.08679 -1.0835 -1.09566 -1.1156 -1.0587 -1.08326 -1.10589 -1.08769 -1.0336 -1.07633 -1.04042 -1.05633 -1.08238 -1.12618 -1.06153 -1.12618
internal_weight=0 1158.43 649.958 108.325 976.17 25.2998 182.258 950.87 455.911 494.959 225.208 269.751 541.634 46.4181 495.216 457.069 112.963 55.5981 69.2947 35.0268 25.3841 423.741 34.2679 57.3649 97.2035 55.6827 26.3363 443.44 42.6667 38.1469
internal_count=5538 3718 1820 252 3288 68 430 3220 1591 1629 733 896 1568 129 1439 1321 250 132 180 102 81 1245 78 118 223 150 77 1552 79 118
is_linear=0
shrinkage=1


Tree=3
num_leaves=31
num_cat=0
split_feature=2 2 8 4 4 1 8 8 10 9 4 1 10 10 8 2 4 9 9 8 5 9 3 0 10 1 9 10 4 8
split_gain=52.5072 41.7611 50.2903 40.1056 52.2955 34.8932 30.1704 48.2289 30.5491 27.4134 22.8527 20.2248 18.6899 18.3897 18.233 17.7261 24.2935 18.6604 17.0938 15.4273 13.6007 13.3544 15.6416 17.605 13.1282 10.5024 9.69802 9.26527 9.07813 9.0565
threshold=2.4251458217643242 7.4425307230414779 0.027846401275301112 0.14589196308192187 0.9754846241156977 15.653184198927649 -0.0015136153976441954 -0.029164518274650619 -0.053149078440015415 37.369800022949882 0.070046064411837222 -1.3546905735956896 0.030555856394352932 0.40660719909497384 -0.016727526062729679 -3.858722443943178 0.24610522688935563 10.578151975092085 27.75136073022178 0.012813007035059025 0.38558785909515875 26.628665841141537 1.6798690299122645 45.898556184361205 -0.16924043324589025 -2.5054063722600399 16.025139342309561 -0.01923264178457473 0.0070500514867032323 0.092330775560343595
decision_type=2 2 2 2 2 2 2 2 2 2 2 2 2 2 2 2 2 2 2 2 2 2 2 2 2 2 2 2 2 2
left_child=3 2 14 6 15 10 7 25 -8 11 -3 -9 -11 18 -2 20 17 -17 -10 28 -5 22 23 -4 -18 -1 -21 -6 -16 -23
right_child=1 5 21 4 27 -7 8 9 13 12 -12 -13 -14 -15 19 16 24 -19 -20 26 -22 29 -24 -25 -26 -27 -28 -29 -30 -31
leaf_value=0.0095279993312452089 0.067036953299001736 0.04157756085832183 -0.025430639172643179 -0.039776289787066654 0.011849071901021101 0.058260926946437287 -0.031510212088698093 0.053106300095144998 0.0041390098779380989 -0.041161333112413809 -0.044638103022098509 0.018809050765933217 0.017165555182091653 0.061107680609797321 0.026886808686354974 0.031192710904677526 -0.015829705484596324 -0.027116338686370714 -0.02090612921954425 0.030748969336528226 0.030913205889343078 0.071818146801430241 -0.02132347200698629 0.045900268134146383 0.013230743159971492 -0.036439071806922692 -0.0038232446965861611 0.09373186797926919 -0.031844228185472542 0.019369621351483946
leaf_weight=15.984893053770064 10.024369925260542 8.9134184420108777 9.6103219240903837 116.62287689745426 4.842214101925495 12.572375763207672 105.1497019380331 53.34640608727932 242.56259781122208 28.642684742808342 55.820362782105803 221.28249314427376 26.387379974126816 11.609358504414557 7.6612114012241355 14.561904639005659 66.486214622855186 237.63281205296516 94.738292619585991 34.997995182871819 7.2260394841432563 45.049999937415123 12.200856193900107 86.571234494447708 93.54157218337059 55.81403161585331 48.250585779547691 12.056615551933644 46.605433359742165 10.070531874895094
leaf_count=42 20 17 35 336 25 43 401 138 786 107 138 736 91 26 18 39 191 824 346 80 22 84 25 193 243 188 172 26 125 21
internal_value=0 0.0149259 0.0231001 -0.00583974 -0.0163342 -0.0179628 0.000943416 0.0109292 -0.00788555 0.019017 -0.0327668 0.0254713 -0.0131931 -0.000765873 0.00193543 -0.0190642 -0.0140806 -0.0237495 -0.00289546 -0.00281023 -0.0356519 0.0421983 0.0320078 0.038773 0.00115709 -0.0262052 0.010711 0.0702691 -0.0235527 0.0622358
internal_weight=0 388.349 311.043 1408.49 552.97 77.3062 855.518 401.458 454.06 329.659 64.7338 274.629 55.0301 348.91 147.54 536.071 412.223 252.195 337.301 137.515 123.849 163.503 108.382 96.1816 160.028 71.7989 83.2486 16.8988 54.2666 55.1205
internal_count=5538 971 773 4567 1706 198 2861 1302 1559 1072 155 874 198 1158 415 1655 1297 863 1132 395 358 358 253 228 434 230 252 51 143 105
is_linear=0
shrinkage=0.05


Tree=4
num_leaves=31
num_cat=0
split_feature=6 8 8 5 9 5 0 7 10 9 4 7 6 8 4 7 8 6 11 8 9 9 6 9 7 6 8 4 3 10
split_gain=108.716 27.0364 19.958 17.7025 14.7141 23.9333 16.7672 12.3995 10.867 13.8087 10.7059 10.1101 16.1115 7.99986 7.24772 7.86139 7.12534 13.6722 13.6757 10.4247 6.73568 6.70456 6.18532 4.52966 10.6354 5.99786 4.51039 6.63827 6.72662 4.1944
threshold=0.074990909840867162 0.018915735424980106 -0.0074596064314103603 0.10433554554866036 21.675227395175671 0.010094312624989407 70.441318105358974 0.5274813112226443 0.36952104368161476 17.265115854562573 0.1742029065132383 0.77402935808993545 0.062353659964396735 -0.019817210645108416 0.069351632565622351 0.40516334259025505 -0.0047212906026445475 0.10106477662580766 0.51560070518366541 -0.025608728642679098 27.643259492324329 32.34654806595092 0.046769888460574609 10.933774661926945 0.84822651848431163 0.11373551089662888 0.029793169516592683 0.047980266294527306 1.0686906892110566 -0.20340714150716008
decision_type=2 2 2 2 2 2 2 2 2 2 2 2 2 2 2 2 2 2 2 2 2 2 2 2 2 2 2 2 2 2
left_child=1 2 3 11 6 22 7 -4 9 -5 -7 13 -13 -1 26 -16 17 18 20 -20 -2 -21 -6 24 -18 -26 27 28 -3 -17
right_child=16 14 4 8 5 10 -8 -9 -10 -11 -12 12 -14 -15 15 29 23 -19 19 21 -22 -23 -24 -25 25 -27 -28 -29 -30 -31
leaf_value=-0.018164832488849963 0.014384935030420496 0.030806143493610882 0.0098188566759880233 -0.0035481659024925449 0.0038872086944083564 0.035158673816585759 -0.015350367746004255 0.036189155349456048 -0.037366812102183809 0.028774285019051851 0.0062666950136037363 0.068928332075248414 -0.0073955810715858536 0.00026571406323832079 0.069991160810920494 -0.036088269881440871 -0.038983751726639856 -0.020976389077397479 -0.02036779712851014 0.0056464986790830752 0.082588647228128073 0.065115652686389483 -0.038331340232892724 -0.023189218617538865 0.00060911302247239015 0.076637891395100008 -0.028541900404070314 -0.029495588753575181 -0.027539892903873112 0.00078414830677366737
leaf_weight=104.86328862607479 6.9109060466289503 15.154594928026201 218.79369992017746 46.818806484341621 22.904961720108986 220.68843905627728 53.723208352923393 55.983526170253754 8.9474989324808103 112.30587726831436 37.513771042227745 11.644013658165933 17.022836267948151 134.25851406157017 3.9129420071840277 8.3937565386295301 8.7173793017864245 113.25283246487379 37.324896603822708 17.246206343173984 7.6018990874290466 6.5354472398757926 13.964879319071768 353.38152778986841 5.5978656709194166 4.8342742770910263 51.331648662686348 17.177018612623215 7.3287757635116568 95.056758180260658
leaf_count=251 24 61 730 135 72 925 134 236 16 445 121 62 47 403 21 15 15 283 87 55 44 34 24 813 17 27 104 34 15 288
internal_value=0 0.00856659 0.0117385 0.00353007 0.017476 0.02558 0.0101967 0.0151916 0.0162493 0.0192641 0.030961 -0.00445292 0.023606 -0.00781673 -0.00837504 0.000423736 -0.0178949 -0.00998388 0.00647927 -0.00388314 0.0501105 0.0219892 -0.0121036 -0.0219058 0.00177875 0.035841 -0.0187569 -0.00609236 0.0117874 -0.0022076
internal_weight=0 1257.79 1059.43 435.861 623.572 295.072 328.5 274.777 168.072 159.125 258.202 267.789 28.6668 239.122 198.355 107.363 561.403 188.872 75.6194 61.1066 14.5128 23.7817 36.8698 372.531 19.1495 10.4321 90.992 39.6604 22.4834 103.451
internal_count=5538 4139 3601 1359 2242 1142 1100 966 596 580 1046 763 109 654 538 324 1399 527 244 176 68 89 96 872 59 44 214 110 76 303
is_linear=0
shrinkage=0.05


Tree=5
num_leaves=31
num_cat=0
split_feature=4 6 9 4 2 6 7 10 0 4 3 10 4 2 1 7 1 7 10 2 9 9 1 7 4 9 2 10 2 10
split_gain=144.178 61.1132 36.0595 33.8813 21.0943 19.9643 38.6177 37.2996 27.9701 27.5158 23.7606 16.0568 17.771 15.8834 31.638 23.6682 35.7199 14.9738 14.127 13.9561 13.2662 12.9125 12.3949 10.885 12.277 21.0007 9.59547 8.88708 9.76408 8.50385
threshold=0.16338082979960222 0.07798368574577709 49.437721131496481 0.80283943215712283 1.534116169828535 0.027678993819534713 0.40809195187176356 0.048603304449834538 69.263164212125147 0.040046817025108865 0.18297238595337353 0.071864349547969109 0.12124944154461031 7.4425307230414779 15.653184198927649 0.95688656543025485 -6.384875937763808 0.92843361231404276 -0.13174286746894043 1.9545332222253815 17.835362021945606 40.838630905857769 2.0112504854232616 0.95990573511414434 0.25065448349180525 56.66052058599066 5.9724251210651174 -0.36307547094835341 -13.551248089971116 0.10603863198358753
decision_type=2 2 2 2 2 2 2 2 2 2 2 2 2 2 2 2 2 2 2 2 2 2 2 2 2 2 2 2 2 2
left_child=1 5 13 23 17 19 8 10 22 -10 -8 12 -6 15 -15 16 -2 -3 -18 -1 -13 -9 -7 24 -4 -26 -22 -17 -29 -19
right_child=2 4 3 -5 11 6 7 21 9 -11 -12 20 -14 14 -16 27 18 29 -20 -21 26 -23 -24 -25 25 -27 -28 28 -30 -31
leaf_value=-0.033084149199143799 0.063948981953197898 0.049459673751762578 0.062354849261159334 -0.037975032060709506 -0.034921622585259701 -0.0084574779403672803 0.007903453845334656 -0.036665966327388902 0.0022352334783739603 0.077595343630234598 -0.022421581837023596 -0.019457973414414652 0.026338392382559469 0.061468580538135191 -0.043914992750165714 0.091863625577990021 0.022388489575001932 -0.037320380194996415 0.0036939511156187915 0.046457687855539859 0.053668238472609903 -0.0047157141473164205 0.025091883635485396 0.073823137141853748 0.051699652977953259 -0.03914631603076435 0.0048911795997171569 0.0509210200483943 -0.039447865354632794 0.046686744188676903
leaf_weight=162.53474001586437 34.303462699055672 56.894876480102539 30.041132152080536 10.906570698134599 38.127790108323097 189.36789451539516 142.95985105633736 232.79621988534927 25.29108102619648 23.245714068412781 117.83787815272808 14.591825082898138 17.169684872031212 38.632966678589582 8.7317244568839651 1.52726650238037 164.64313638210297 8.9692029953002912 261.65778866410255 5.708273157477378 27.32110969722271 36.593774124979973 32.213765189051628 42.979900166392326 16.057433009147648 10.535389140248297 15.979942649602888 3.2868064353242508 32.994936696253717 4.5359621793031684
leaf_count=598 76 132 73 29 88 660 470 806 85 48 412 39 44 97 32 2 470 38 775 18 47 107 84 73 37 40 32 14 102 10
internal_value=0 -0.00971525 0.0196456 0.0456901 0.0167344 -0.0147288 -0.0114375 -0.0192771 0.00395019 0.0383274 -0.0057985 0.00336819 -0.0159006 0.0143716 0.042041 0.0117421 0.0148638 0.0382249 0.010914 -0.0303854 0.0217731 -0.0323259 -0.00358004 0.0548504 0.0404519 0.0157088 0.0356674 -0.0262877 -0.0312612 -0.00910502
internal_weight=0 1152.14 656.299 110.52 183.59 968.549 800.306 530.188 270.118 48.5368 260.798 113.19 55.2975 545.778 47.3647 498.413 460.604 70.4 426.301 168.243 57.8929 269.39 221.582 99.6139 56.634 26.5928 43.3011 37.809 36.2817 13.5052
internal_count=5538 3718 1820 252 430 3288 2672 1795 877 133 882 250 132 1568 129 1439 1321 180 1245 616 118 913 744 223 150 77 79 118 116 48
is_linear=0
shrinkage=0.05


Tree=6
num_leaves=31
num_cat=0
split_feature=2 2 8 10 2 7 9 3 6 8 8 6 8 6 9 8 8 8 8 8 6 7 5 8 9 3 5 3 9 8
split_gain=47.861 37.8418 44.771 33.4095 32.3136 31.1631 34.8722 29.023 23.5949 28.7122 22.5715 25.1583 19.5773 42.5231 25.0013 18.3564 17.7441 16.6799 16.2542 15.8866 14.8576 18.3146 14.2127 14.1239 11.9137 14.1421 13.5257 9.53903 8.90443 8.07342
threshold=2.4251458217643242 7.4425307230414779 0.027846401275301112 0.035394639019850967 22.853469077776865 0.98147896814851376 25.599273846875906 3.1462523147817274 0.027304181749972439 -0.017725934009524689 0.030389964582603481 0.044905388915245266 -0.0071471076844296629 0.055035367261000348 42.046290954947814 -0.026709763855952064 -0.0074596064314103603 -0.016727526062729679 -0.0071471076844296629 -0.0010459457052554406 0.045508328069924185 0.64312641126717451 0.4062319476595006 0.012813007035059025 26.628665841141537 1.6798690299122645 0.099250450881032362 -2.0955147777524439 16.025139342309561 0.092330775560343595
decision_type=2 2 2 2 2 2 2 2 2 2 2 2 2 2 2 2 2 2 2 2 2 2 2 2 2 2 2 2 2 2
left_child=3 2 17 8 7 6 10 -3 9 -1 11 -5 13 14 -10 27 -17 -2 -11 -20 -14 -22 -15 -19 25 26 -4 -8 -25 -26
right_child=1 4 24 5 -6 -7 15 -9 12 18 -12 -13 20 22 -16 16 -18 23 19 -21 21 -23 -24 28 29 -27 -28 -29 -30 -31
leaf_value=0.093344151506080414 0.063417385595284995 -0.042124906850028829 -0.016785472323903743 0.0024243667924582213 0.080104748294033121 0.06809977525743563 0.076923358855477478 0.047532090848737711 0.020487617372131867 -0.049798268623296477 -0.032191633620417541 0.031288874603849638 -0.035058997867063353 -0.028317338023298569 -0.029533340877356231 0.016034018155189671 -0.016007171889028365 -0.022772754335838214 0.040170939029134309 -0.0098945886993636115 0.0047264787149605024 -0.024935713063500044 0.03661681798182994 0.029127693702863368 0.067256448525483542 -0.020840293814511114 0.04291793007195345 -0.03786734323962284 -0.0038804514763664238 0.018053357743403654
leaf_weight=9.7160594463348371 10.235656306147574 58.090606193989515 10.64622427523136 161.59616236388683 7.6543689221143714 17.992244020104408 1.8604490756988514 10.686981560662387 136.64469563961029 12.603018149733542 26.52266226708889 141.6751201748848 152.43351438641548 151.31627948582172 30.568751886487007 67.510585069656372 120.03828184306622 53.649000957608223 28.471328511834145 35.729174986481667 78.288388192653656 155.20661336742342 8.9239538703113777 35.427174359560013 46.178204670548439 12.123616889119146 87.077102154493332 66.47929348051548 48.270241290330887 10.17384786903858
leaf_count=12 20 152 34 545 22 35 4 24 411 55 80 438 602 482 103 226 439 143 84 168 241 427 32 80 84 25 194 183 172 21
internal_value=0 0.0142007 0.0218855 -0.00559527 -0.0173479 0.00328454 0.00129341 -0.0281936 -0.0122967 0.0123616 0.0120403 0.0159086 -0.0152873 -0.00629518 0.0113431 -0.0125574 -0.00447354 0.00184294 0.00211691 0.0123082 -0.022917 -0.0149903 -0.0247011 -0.00274586 0.0396829 0.0300947 0.0364137 -0.0347423 0.0100911 0.0583733
internal_weight=0 390.213 313.781 1403.58 76.432 603.675 585.683 68.7776 799.902 86.5196 329.794 303.271 713.382 327.454 167.213 255.889 187.549 147.582 76.8035 64.2005 385.929 233.495 160.24 137.346 166.199 109.847 97.7233 68.3397 83.6974 56.3521
internal_count=5538 971 773 4567 198 1950 1915 176 2617 319 1063 983 2298 1028 514 852 665 415 307 252 1270 668 514 395 358 253 228 187 252 105
is_linear=0
shrinkage=0.05


Tree=7
num_leaves=31
num_cat=0
split_feature=6 8 8 5 9 3 6 7 1 6 3 9 2 7 6 2 6 1 3 4 8 8 5 2 2 4 6 2 8 9
split_gain=98.5942 24.7073 17.9518 16.0682 13.2957 18.5185 14.9446 12.9637 12.5279 12.5246 10.1881 13.0532 9.87007 9.35251 13.2361 8.94562 8.25395 7.90203 10.0065 6.28483 7.05863 14.5496 8.35995 5.6796 8.40203 5.25668 9.12339 5.53284 4.97226 9.74351
threshold=0.074990909840867162 0.018915735424980106 -0.0074596064314103603 0.10433554554866036 24.643771700093474 -0.44793172960499356 0.027871264268516448 0.5274813112226443 2.6587386031242208 0.057353140729332848 1.9561212559835177 17.265115854562573 -0.50011913645447592 0.7593581974565351 0.062353659964396735 -0.39337338499977675 0.048662721928546114 2.8955766162921468 -0.6807413153959474 0.49942137863849884 0.00037893464151075298 -0.036612239645669724 0.29279281681260477 3.5381373270612211 4.1640530362312278 0.1285176298780438 0.045784566995804236 0.6613171403434438 0.10044841687973784 17.069979554315974
decision_type=2 2 2 2 2 2 2 2 2 2 2 2 2 2 2 2 2 2 2 2 2 2 2 2 2 2 2 2 2 2
left_child=1 2 3 13 7 16 -7 8 -4 -9 11 -5 -3 15 -15 -1 -6 18 -2 20 21 -20 -22 25 -25 27 -27 -14 -19 -30
right_child=17 12 4 10 5 6 -8 9 -10 -11 -12 -13 23 14 -16 -17 -18 28 19 -21 22 -23 -24 24 -26 26 -28 -29 29 -31
leaf_value=-0.013123165934899334 -0.021771192072775065 0.040050940597647501 0.0093318959893359445 -0.0036171320278047463 0.019296816358017652 0.065458855404132918 0.027858094116975797 0.04591440617372821 -0.025651251150135498 0.0063151333042782603 -0.032489563308663753 0.027817513647579391 0.019298768453120549 0.059634380026421102 -0.0071965437487904391 0.0095208145387857147 -0.012896364202365616 -0.027617826689448129 -0.008289959218325654 -0.033509217322697377 -0.021295135498693909 0.031233323303217205 0.02933599291304359 0.053066883931464338 -0.0081110087569473879 0.091351679858607662 -0.0049875351042432134 -0.022519299706606488 0.054913309023043311 -0.018130222876948921
leaf_weight=179.54639336466789 149.62774092331529 10.093309193849562 278.47184339165688 46.844227775931358 51.486231088638306 33.686887472867966 122.60164910554886 45.645358026027679 28.181594297289848 35.495599865913391 10.421419650316237 111.94495692849159 8.5158413052558881 13.140016227960588 16.986016646027565 57.610885262489319 32.464313536882401 189.42573561146855 59.260453268885612 16.680908748880029 56.220078349113464 38.357343569397926 9.5356580018997175 8.1383444517850894 18.080812111496925 2.6221394240856162 39.134410709142685 111.12587130069733 5.3398643583059302 31.484614487737417
leaf_count=459 361 44 925 135 189 176 485 208 61 114 20 441 31 66 47 191 84 400 162 34 130 156 38 39 49 16 111 248 26 92
internal_value=0 0.00811769 0.0111324 0.00334402 0.0165455 0.0257885 0.0359627 0.0108194 0.00611693 0.0285915 0.0154009 0.018544 -0.00811443 -0.00428893 0.021953 -0.00762243 0.00684747 -0.0171538 -0.0122156 -0.00427471 -0.00128978 0.00724008 -0.0139528 -0.0107056 0.0108784 -0.0142119 0.00106217 -0.0195428 -0.0243497 -0.00753829
internal_weight=0 1262.24 1064.53 436.494 628.033 240.239 156.289 387.794 306.653 81.141 169.211 158.789 197.711 267.283 30.126 237.157 83.9505 555.932 329.682 180.054 163.374 97.6178 65.7557 187.617 26.2192 161.398 41.7566 119.642 226.25 36.8245
internal_count=5538 4139 3601 1359 2242 934 661 1308 986 322 596 576 538 763 113 650 273 1399 881 520 486 318 168 494 88 406 127 279 518 118
is_linear=0
shrinkage=0.05


Tree=8
num_leaves=31
num_cat=0
split_feature=9 7 8 3 7 2 8 10 5 10 9 9 3 8 11 5 2 10 8 2 2 8 7 3 9 2 8 8 2 9
split_gain=85.1603 65.2997 29.6998 23.8532 28.3981 43.8175 23.2437 22.1373 18.9661 18.7753 18.5321 17.9238 17.8948 17.5973 16.1044 15.4194 14.4774 16.719 14.4117 13.1935 11.8959 11.0494 17.5671 18.4801 10.947 10.4426 18.5552 12.2082 7.63457 6.56448
threshold=47.06686665220149 0.73456392976156504 -0.044602267312867157 -0.24613204151252355 0.41237959762077331 1.8720805786227956 0.031057833553425267 -0.10365508755317543 0.16989243895009673 0.035394639019850967 17.835362021945606 33.059649218578606 1.8729781823314477 0.11160936613426235 0.63474455523166717 0.17348260885025504 4.1640530362312278 -0.033215153085420203 0.12802522373851416 7.0743779765876935 -5.095738500383006 -0.037775847528165644 0.8459964434679077 -1.4006484008578981 38.32423262066645 2.8058127479256436 0.015631217815433824 0.033729532097244323 -4.7574153048765924 33.258180979623639
decision_type=2 2 2 2 2 2 2 2 2 2 2 2 2 2 2 2 2 2 2 2 2 2 2 2 2 2 2 2 2 2
left_child=1 2 29 16 5 -5 9 11 -6 21 18 25 14 20 -11 -16 17 -4 19 -9 -12 -2 23 -23 -13 27 -27 -3 -24 -1
right_child=6 7 3 4 8 -7 -8 10 -10 12 13 24 -14 -15 15 -17 -18 -19 -20 -21 -22 22 28 -25 -26 26 -28 -29 -30 -31
leaf_value=0.02276986572703988 0.063537232096845989 0.029865063595087289 0.0060225296621120306 -0.016143687207270111 -0.018247970311055069 0.034534591507334476 0.072631170472002377 -0.020703723521607407 -0.044274157215234054 -0.040332802062652696 0.038331231890441235 -0.049848976634853125 0.055568360874327517 -0.047849210696466915 0.033720326561173512 -0.032723966214920318 0.060831261705497221 -0.01638836003368159 0.057986234642722345 0.032349363740820362 0.0092592272773658457 -0.026517785355725961 0.023358070499298958 0.049467547366999258 0.016256903704483339 0.086652519881881482 -0.008606492548358274 0.068627343576048314 -0.049798651385936643 0.080687388789511913
leaf_weight=10.528872668743135 29.281289683654904 58.445844918489456 193.61551256477833 275.69229470193386 155.65962241590023 50.459025770425797 28.273881748318672 113.88661644328386 127.20271353423595 22.504411973059177 40.244999391958117 10.75777803361416 14.269913196563719 12.37633047159761 27.340163171291351 12.828581199049948 8.9452100545167905 145.95719228684902 7.0938316583633414 13.062845110893248 280.00486194714904 9.3122079223394376 5.8561556115746489 56.86099810898304 14.98756020516157 6.3673913776874533 25.929180100560188 31.133282601833344 9.1204707548022252 9.1388965845108014
leaf_count=29 57 183 640 984 572 123 52 321 430 85 106 37 24 36 67 43 20 481 19 36 753 24 22 148 51 10 70 60 39 16
internal_value=0 -0.00310895 -0.011139 -0.0123883 -0.0183582 -0.00830323 0.0303729 0.00966509 -0.0299519 0.0239963 0.00432665 0.0265414 0.00503498 0.0106518 -0.00647085 0.0125002 -0.00195627 -0.00361025 -0.0113691 -0.0152447 0.0129126 0.0372077 0.0277072 0.0387745 -0.0113657 0.0345489 0.0101742 0.0433369 -0.0211929 0.049682
internal_weight=0 1591.49 977.199 957.532 609.014 326.151 215.648 614.291 282.862 187.374 466.669 147.621 76.9431 332.626 62.6732 40.1687 348.518 339.573 134.043 126.949 320.25 110.431 81.1498 66.1732 25.7453 121.876 32.2966 89.5791 14.9766 19.6678
internal_count=5538 4977 3295 3250 2109 1107 561 1682 1002 509 1271 411 219 895 195 110 1141 1121 376 357 859 290 233 172 88 323 80 243 61 45
is_linear=0
shrinkage=0.05


Tree=9
num_leaves=31
num_cat=0
split_feature=1 8 7 6 1 9 8 7 6 8 3 0 10 1 9 6 1 6 8 3 5 8 6 10 10 7 10 7 6 1
split_gain=37.8478 37.0802 38.766 29.7465 35.6136 29.5645 27.735 27.408 27.2279 19.8823 28.138 18.7489 19.517 17.4708 16.1061 16.0946 14.5278 16.7855 13.1086 13.0273 8.95863 8.64966 6.32693 9.49747 14.5884 6.40649 6.12146 5.90477 3.15266 2.68954
threshold=2.5073846396421691 0.01636802582089146 0.86113983812311401 0.20546113291036747 -3.3928727401344072 39.094985265167864 -0.0074596064314103603 0.16510910224865719 0.10300512372452013 -0.029164518274650619 -0.24613204151252355 59.76592002107347 0.1209499186138495 -1.9431936681585282 32.34654806595092 0.039598839431505203 13.488254578343005 0.18573971831637187 -0.016727526062729679 -4.844593999662262 0.3266082386936931 0.027846401275301112 0.033248690211626464 0.10761270548818087 0.17294691830730366 0.20361804192754573 -0.055041506066096361 0.45411638659379339 0.20546113291036747 3.5804121339433554
decision_type=2 2 2 2 2 2 2 2 2 2 2 2 2 2 2 2 2 2 2 2 2 2 2 2 2 2 2 2 2 2
left_child=3 18 11 4 15 16 9 14 -9 13 -11 12 26 -6 -8 -1 17 -4 -2 -17 -21 27 -20 25 -25 -24 -3 -13 -18 -23
right_child=1 2 5 -5 6 -7 7 8 -10 10 -12 21 -14 -15 -16 19 28 -19 22 20 -22 29 23 24 -26 -27 -28 -29 -30 -31
leaf_value=0.04617075869551493 0.030101448957815663 0.0070799162478897837 0.014303849202865147 0.067339916076220821 0.014821530035827049 -0.046376651225460891 0.025396501632571636 -0.014328831320973399 0.031263236053224293 -0.0074797041145683698 0.023908263968212495 -0.049520136667201724 -0.040936451713422778 -0.02895210296583809 -0.027859865162637217 0.057615502847181116 0.080633720700958478 -0.04764746043708179 -0.048621345997589126 -0.034291083877595024 0.011433179050067771 0.077714951701217436 0.11408454536985434 0.034639406578278124 -0.022490739594127833 -0.03562057365338215 0.048756200031925996 0.037169614750381628 0.036547417516440125 0.056273595632328602
leaf_weight=7.3767013251781455 15.880675062537192 14.157415345311163 93.216207057237625 14.013819571584461 36.839552819728851 24.510039659217 82.06139312684536 634.57290457189083 34.529250726103783 106.39984366297722 217.07027447223663 2.1208994090557125 11.707677796483038 59.788216158747673 17.166484490036964 4.2199973911046973 7.841456055641177 12.38679428398609 15.118486836552618 163.17833670973778 11.465106874704359 22.485379308462143 0.72938084602355857 19.385627761483192 26.380046188831329 35.359174489974976 23.330501765012741 26.603435531258583 8.3983288351446372 41.841001451015472
leaf_count=20 37 35 225 46 98 67 259 2200 79 326 681 10 40 214 94 6 11 36 37 479 42 37 1 49 70 105 53 75 30 76
internal_value=0 0.0122924 0.0217948 -0.00513831 -0.00587718 0.00372853 -0.0026913 -0.00833935 -0.011976 0.0076386 0.0135837 0.0403826 0.0154174 -0.0122633 0.0161831 -0.0262068 0.0138077 0.00703722 -0.0120081 -0.0291918 -0.0312893 0.0535816 -0.0189041 -0.0134153 0.0017087 -0.0325949 0.033017 0.0307688 0.0578347 0.0637685
internal_weight=0 401.453 288.599 1388.68 1374.67 146.353 1188.43 768.33 669.102 420.098 323.47 142.246 49.1956 96.6278 99.2279 186.24 121.843 105.603 112.853 178.863 174.643 93.0507 96.9727 81.8542 45.7657 36.0886 37.4879 28.7243 16.2398 64.3264
internal_count=5538 994 695 4544 4498 369 3951 2632 2279 1319 1007 326 128 312 353 547 302 261 299 527 521 198 262 225 119 106 88 85 41 113
is_linear=0
shrinkage=0.05


Tree=10
num_leaves=31
num_cat=0
split_feature=6 8 8 5 1 5 2 10 8 3 6 2 1 1 3 0 10 3 2 4 8 3 5 2 2 4 6 2 11 2
split_gain=89.7478 22.8135 15.8523 14.7538 12.1239 13.8388 11.5015 9.66785 10.9001 9.45013 17.1403 8.98666 8.1537 7.45699 9.39522 7.38641 7.3631 11.4206 6.76496 5.77901 6.67431 13.5223 7.73159 5.52194 7.67316 5.01223 8.26711 5.10561 3.63514 3.30129
threshold=0.074990909840867162 0.018915735424980106 -0.0074596064314103603 0.10433554554866036 2.5073846396421691 0.010094312624989407 -2.4685302848983377 0.36952104368161476 -0.021868922314011746 -0.41008849630402672 0.039156352830213965 -0.50011913645447592 -1.1773216776114166 2.8955766162921468 -0.6807413153959474 45.104609914374876 -0.21760878198548006 -0.10097926277127441 1.0000000180025095e-35 0.49942137863849884 0.00037893464151075298 0.18297238595337353 0.29279281681260477 3.5381373270612211 4.1640530362312278 0.1285176298780438 0.045784566995804236 0.6613171403434438 1.2207942806333667 -1.144774328150332
decision_type=2 2 2 2 2 2 2 2 2 2 2 2 2 2 2 2 2 2 2 2 2 2 2 2 2 2 2 2 2 2
left_child=1 2 3 16 5 12 -7 8 -5 -6 -11 29 -4 14 -2 -15 17 -1 -18 20 21 -16 -22 25 -25 27 -27 -13 -26 -3
right_child=13 11 4 7 9 6 -8 -9 -10 10 -12 23 -14 15 19 -17 18 -19 -20 -21 22 -23 -24 24 28 26 -28 -29 -30 -31
leaf_value=0.0068706528711471359 -0.020988472238729333 0.011645299694716364 -0.021538992437361525 0.034006677597944755 -0.046623723756607831 0.06787659853842315 0.019533897289564658 -0.036282124626734913 0.0072830376103016617 -0.021772691927622836 0.032179558723398179 0.01795904162961498 0.01653986758536569 0.014987580882079694 0.054185419663310447 -0.025659658668261316 -0.011254485674671483 0.096403569502273856 0.0096447099220459513 -0.032318713304161258 -0.020646062771124032 -0.00020900450643709793 0.027837353266913417 0.050777626866436942 0.014490305993432857 0.085847124980060641 -0.0048190283579440385 -0.022014711555382881 -0.030520904365419405 0.068605215779445047
leaf_weight=24.777883559465412 147.95987642370164 5.5692329108715057 32.71076899766922 62.006719619035721 10.954056471586226 12.619003951549528 492.20398598909378 8.7914445847272855 99.207587122917175 30.883767336606979 28.128953009843826 8.6115308552980405 24.653425127267838 11.800014197826384 13.21437695622444 211.56337201595306 188.96358750760555 4.1597069054841986 48.700270161032677 16.336200133897364 55.716242477297783 84.406969755887985 9.6465255469083768 8.2505152970552462 9.191083490848543 2.687188357114791 39.060614719986916 110.32071420550346 8.7615567594766599 4.682675361633299
leaf_count=80 361 19 75 258 16 67 1810 16 322 71 115 31 88 45 64 473 495 26 162 34 130 254 38 39 32 16 111 248 17 25
internal_value=0 0.00771166 0.0105944 0.00326716 0.0156551 0.0180979 0.0207423 0.0147772 0.0175616 -0.0039728 0.00394414 -0.00791714 -0.00517383 -0.0164691 -0.0116622 -0.0235123 -0.00407251 0.0197408 -0.00697198 -0.00396702 -0.00112528 0.00715402 -0.0134907 -0.0104175 0.0108656 -0.0138883 0.0010169 -0.0191203 -0.00747684 0.0376624
internal_weight=0 1265.9 1068.76 436.607 632.154 562.187 504.823 170.006 161.214 69.9668 59.0127 197.135 57.3642 550.644 327.28 223.363 266.601 28.9376 237.664 179.32 162.984 97.6213 65.3628 186.883 26.2032 160.68 41.7478 118.932 17.9526 10.2519
internal_count=5538 4139 3601 1359 2242 2040 1877 596 580 202 186 538 163 1399 881 518 763 106 657 520 486 318 168 494 88 406 127 279 49 44
is_linear=0
shrinkage=0.05


Tree=11
num_leaves=31
num_cat=0
split_feature=4 6 9 8 8 4 8 5 7 5 9 10 9 5 3 1 1 5 5 7 8 11 8 3 7 7 3 8 8 8
split_gain=119.906 52.3211 29.0928 27.4942 25.6424 25.6287 19.9295 41.8512 24.8631 41.8396 29.363 17.9621 20.1655 17.2153 15.2425 18.4671 21.0218 20.1055 15.23 13.5981 12.277 14.2738 10.5742 10.2133 9.83671 9.48256 17.5453 7.52101 6.99803 4.97729
threshold=0.16338082979960222 0.07798368574577709 50.914848784938449 -0.042897144914841985 -0.057887361610045145 0.80283943215712283 0.046330545585134129 0.2273065411976897 0.50226495382493097 0.096052474943907493 62.084536136529984 0.0616992575786059 16.239113129780986 0.2273065411976897 -4.844593999662262 6.0606714047503383 -4.8522624025076757 0.16703847337783631 0.3069734113507091 0.95990573511414434 0.11160936613426235 0.94629384997040178 -0.0018385491169548146 -0.10097926277127441 0.86667177893083613 0.95990573511414434 -1.4006484008578981 -0.010011654050411834 0.026042515127421319 0.052398686769470619
decision_type=2 2 2 2 2 2 2 2 2 2 2 2 2 2 2 2 2 2 2 2 2 2 2 2 2 2 2 2 2 2
left_child=1 3 14 4 -1 25 8 29 9 -5 -10 13 28 22 -2 16 18 -18 -16 24 21 -17 -3 -24 -14 26 -4 -28 -13 -8
right_child=2 11 5 6 -6 -7 7 -9 10 -11 -12 12 19 -15 15 20 17 -19 -20 -21 -22 -23 23 -25 -26 -27 27 -29 -30 -31
leaf_value=-0.035799659371864391 -0.038843355677888769 -0.04870585590370613 -0.020273999154406974 -0.024293530739145794 0.070836572083589511 -0.035343579264082471 0.092014457903923971 -0.047819469350111374 -0.029604082763364438 0.0033094862979464439 0.056709019146355594 -0.049474121667103473 0.030420153177830006 -0.01888883600301626 0.042854162454048994 0.07112760428267513 0.012532042110038014 -0.015131222812214387 -0.026410800894880182 -0.0052489282258533602 -0.006084924625094708 0.0039035927985024716 0.0045825043244456347 0.071860884303773312 0.067296216655349544 0.068711859617239676 0.026415947981764238 0.070920027728946539 0.012934004255425064 0.042919447490181159
leaf_weight=8.2604846507310885 13.667626393027602 3.6544609665870693 10.781685248017309 264.27649173140526 17.754388049244881 9.5386144081130606 10.060900494456293 12.949725925922392 335.43273827433586 285.68551287055016 10.151638850569723 9.292255640029909 38.633273676037788 53.471295893192291 71.038748815655708 32.078820137307048 336.89027774333954 81.589466147124767 8.9343411000445467 14.567619800567625 10.372676434926687 10.474890056997536 9.9166329354047829 13.083430618047709 33.999402925372124 40.719866394996643 16.619658574461933 22.139635443687443 8.695301949977873 10.603236213326452
leaf_count=34 40 20 29 967 34 26 16 27 1225 933 26 20 75 141 175 64 985 231 38 30 38 32 32 23 64 63 57 42 25 26
internal_value=0 -0.00900363 0.0177119 -0.0137207 0.0369764 0.0425993 -0.0151402 0.0226569 -0.0165589 -0.00995475 -0.0270686 0.01531 0.0288963 -0.00252571 0.0133162 0.0146091 0.0116274 0.00713864 0.0351161 0.0388393 0.0426907 0.0545799 0.0303002 0.0428534 0.0476819 0.0508362 0.0361434 0.0518371 -0.0193056 0.0668227
internal_weight=0 1140.49 664.846 955.175 26.0149 99.7995 929.16 33.6139 895.546 549.962 345.584 185.314 105.188 80.1258 565.047 551.379 498.453 418.48 79.9731 87.2003 52.9264 42.5537 26.6545 23.0001 72.6327 90.2608 49.541 38.7593 17.9876 20.6641
internal_count=5538 3718 1820 3288 68 217 3220 69 3151 1900 1251 430 214 216 1603 1563 1429 1216 213 169 134 96 75 55 139 191 128 99 45 42
is_linear=0
shrinkage=0.05


Tree=12
num_leaves=31
num_cat=0
split_feature=4 4 2 8 2 8 8 8 8 2 2 2 6 7 2 6 5 8 7 5 4 1 8 8 3 10 4 11 8 8
split_gain=42.7621 41.0668 29.0689 25.4354 23.3933 23.2935 24.1221 34.5219 27.5506 20.8379 19.2657 20.7004 38.4263 15.0281 16.8576 13.0605 11.4561 10.9602 12.9497 10.6682 10.0493 7.86019 9.13237 6.02653 4.92468 4.91335 4.8746 4.32845 4.15509 3.53158
threshold=0.14185765577218515 0.9754846241156977 2.459626917536109 0.031057833553425267 -3.2175367210207844 0.032559352381722688 -0.029164518274650619 -0.0074596064314103603 0.012098992074446967 -0.2930865201514547 22.853469077776865 7.4425307230414779 0.10915304458474492 0.43923178304413041 3.3212707551181411 0.033248690211626464 0.3266082386936931 0.092330775560343595 0.85804113649508396 0.25968820188527136 0.062462008725610509 -2.5054063722600399 -0.060774629310775333 0.064955992833057294 -2.0955147777524439 -0.01923264178457473 1.0000000180025095e-35 1.0824426081848022 0.042904047545893567 0.0091204516293814653
decision_type=2 2 2 2 2 2 2 2 2 2 2 2 2 2 2 2 2 2 2 2 2 2 2 2 2 2 2 2 2 2
left_child=2 4 5 13 15 6 21 9 -9 -8 11 12 -6 29 26 -2 24 18 28 -7 -16 -1 -23 -20 -17 -3 -15 -13 -5 -4
right_child=1 25 3 17 10 19 7 8 -10 -11 -12 27 -14 14 20 16 -18 -19 23 -21 -22 22 -24 -25 -26 -27 -28 -29 -30 -31
leaf_value=0.0070829244443311318 0.077977469050842102 0.024814694190596429 0.0012078571239153991 0.047791568558486479 -0.011234606384227831 -0.045535232240851604 0.033525327254169957 -0.0095550783270747456 0.015959960277534487 0.0028099781353386945 0.073714994775149659 -0.04640723792360707 0.029608482159106882 0.080561911587886337 0.020921177019017387 -0.010132006097981022 0.018624783056388532 -0.0018689088696309303 0.00091695071394392615 0.0085382053167508427 -0.027574010613941748 0.019249241929299967 -0.042459729090325728 0.044308186058417659 -0.039939104833288809 0.076513053192319561 0.029455226447605832 -0.0073299038941666457 0.074648730970137231 -0.048432458690839224
leaf_weight=14.568396613001822 2.7283901870250693 6.9226479455828693 4.8060757368803051 32.099572613835335 442.21476662158966 37.135391294956207 143.40392111241817 341.03092715144157 153.38198211789131 89.793648347258568 7.1420031562447539 41.245322331786156 66.21012581884861 5.3312133997678748 17.824183762073517 15.727171391248701 10.189797535538672 13.945822060108183 17.8362917304039 12.091362074017523 26.662192896008492 6.8960437327623358 45.91252563893795 14.513374224305151 116.55125617980957 13.673306128010152 37.380135729908943 8.5564235895872098 26.119612008333206 14.078480884432791
leaf_count=37 5 29 17 65 1395 93 392 1316 462 301 10 115 140 9 63 39 37 32 31 39 86 29 152 26 366 38 115 23 38 38
internal_value=0 -0.0104653 0.00526879 0.0218875 -0.0124828 0.00112311 0.00318983 0.00584018 -0.00163953 0.0216983 -0.00788522 -0.00892922 -0.00591578 0.00463981 0.0133977 -0.0303848 -0.03246 0.0393939 0.0457475 -0.0322534 -0.00814363 -0.0254316 -0.0344014 0.020384 -0.0363952 0.0591364 0.0358343 -0.0396934 0.0598408 -0.0357991
internal_weight=0 731.161 1054.81 210.597 710.565 844.214 794.987 727.61 494.413 233.198 565.369 558.227 508.425 106.082 87.1977 145.197 142.468 104.515 90.5689 49.2268 44.4864 67.377 52.8086 32.3497 132.278 20.596 42.7113 49.8017 58.2192 18.8846
internal_count=5538 2197 3341 520 2130 2821 2689 2471 1778 693 1683 1673 1535 328 273 447 442 192 160 132 149 218 181 57 405 67 124 138 103 55
is_linear=0
shrinkage=0.05


Tree=13
num_leaves=31
num_cat=0
split_feature=6 8 8 5 9 5 7 8 6 10 10 9 7 6 8 1 4 8 8 6 0 5 9 4 7 9 6 8 9 4
split_gain=81.1559 20.7724 14.5222 13.778 12.0606 18.1244 15.9123 12.9463 12.8755 11.5373 8.9722 11.5486 8.71032 13.4918 7.49536 6.90262 8.481 8.30867 12.5528 11.9977 6.98775 6.10459 8.55418 5.81111 9.8297 5.78725 5.72528 4.56715 4.09828 3.84413
threshold=0.074990909840867162 0.017570810613860292 -0.0074596064314103603 0.10433554554866036 22.311924617744463 0.010094312624989407 0.5274813112226443 0.0016340122929103282 0.020033243220616271 -0.10840282370369665 0.36952104368161476 17.265115854562573 0.77402935808993545 0.062353659964396735 -0.019817210645108416 2.8955766162921468 0.49942137863849884 -0.002095056940669149 -0.036612239645669724 0.1020475798779379 45.104609914374876 0.26740252629827171 28.687236161636925 0.069351632565622351 0.40516334259025505 54.202955378702647 0.049303231220601942 0.029793169516592683 32.34654806595092 0.047980266294527306
decision_type=2 2 2 2 2 2 2 2 2 2 2 2 2 2 2 2 2 2 2 2 2 2 2 2 2 2 2 2 2 2
left_child=1 2 3 12 6 26 7 -4 -7 -8 11 -5 14 -14 -1 16 17 18 25 -20 28 -19 -23 27 -25 -2 -6 29 -17 -3
right_child=15 23 4 10 5 8 9 -9 -10 -11 -12 -13 13 -15 -16 20 -18 21 19 -21 -22 22 -24 24 -26 -27 -28 -29 -30 -31
leaf_value=-0.017183027181427554 -0.0020736297866743073 0.0069596618004359083 0.01869406830699975 -0.0039588281058475045 0.0034701921227696451 0.077148459237247502 0.079362676742274305 -0.0042067319465313264 0.024845630909523877 0.021852470078626691 -0.035353556847204662 0.025462313968893969 0.062319367865754753 -0.0068648281077859814 0.00074014542100126585 0.038097397723222438 -0.026219106779751825 -0.019373660243391953 0.040750399416107468 -0.01077670819801407 -0.024719249441936139 0.053807403899983508 -0.018125771581668684 0.070628177402980011 -0.0024479118640196415 -0.034626103749932802 -0.039255192804530582 -0.026591703729335132 -0.022408170090451346 -0.022264825651971132
leaf_weight=103.55512151122093 50.700111925601959 27.916105762124062 93.362355276942253 46.9836615473032 23.247552648186684 12.385288119316099 10.506530314683912 182.05625934898853 235.58595441281796 51.307537496089935 8.6443087160587293 114.98014913499355 12.074807435274126 16.923363417387009 133.57003566622734 7.2687216550111753 72.381671348586679 117.24789750576019 31.393827766180038 17.647484168410301 208.33119177632034 7.2499552220106152 9.6129716187715513 4.8006975203752509 111.08400610089302 18.68550206720829 11.831332460045813 49.673538014292717 4.5508784204721451 18.850670471787453
leaf_count=251 149 90 340 135 73 70 60 524 913 193 16 445 62 47 403 32 177 277 138 47 473 35 23 26 325 35 20 104 13 42
internal_value=0 0.00730472 0.0101714 0.00318695 0.0150891 0.0226992 0.00870166 0.00355626 0.027458 0.0316275 0.0142786 0.0169276 -0.00392379 0.0219434 -0.0070871 -0.0157618 -0.0111303 -0.00680561 0.00284555 0.0222084 -0.0225975 -0.0153281 0.0128008 -0.0069666 0.000579375 -0.01084 -0.0109401 -0.016034 0.0148011 -0.00482009
internal_weight=0 1269.34 1057.01 436.731 620.283 283.05 337.233 275.419 247.971 61.8141 170.608 161.964 266.123 28.9982 237.125 545.07 324.919 252.538 118.427 49.0413 220.151 134.111 16.8629 212.325 115.885 69.3856 35.0789 96.4403 11.8196 46.7668
internal_count=5538 4139 3552 1359 2193 1076 1117 864 983 253 596 580 763 109 654 1399 881 704 369 185 518 335 58 587 351 184 93 236 45 132
is_linear=0
shrinkage=0.05


Tree=14
num_leaves=31
num_cat=0
split_feature=4 6 8 8 8 4 1 2 8 2 3 8 10 3 7 10 7 4 7 6 2 10 8 3 0 8 10 10 3 7
split_gain=108.505 48.1791 25.3264 21.6758 19.4551 19.0324 20.9263 23.2804 24.7893 17.2313 17.1426 19.4502 16.7742 17.5743 17.0289 13.5295 12.697 12.6908 12.3049 11.1963 10.1114 8.84017 7.88158 13.042 7.63103 7.38541 7.9782 7.1359 6.63707 6.07111
threshold=0.16338082979960222 0.07798368574577709 -0.041694415011555692 -0.057887361610045145 0.0016340122929103282 0.9754846241156977 -6.0582155491742915 7.4425307230414779 0.11160936613426235 1.534116169828535 -0.24613204151252355 -0.020933310842287011 -0.17126468555766683 0.42940512799176817 0.40809195187176356 0.055415820114649593 0.37035227050260494 0.12124944154461031 0.92843361231404276 0.14947829299405044 -2.1326945569460403 0.13429956130294979 0.019468689523867887 2.1466162564652653 86.115687317140171 -0.038654743123884491 -0.1864259712217107 0.10603863198358753 -2.0955147777524439 0.95990573511414434
decision_type=2 2 2 2 2 2 2 2 2 2 2 2 2 2 2 2 2 2 2 2 2 2 2 2 2 2 2 2 2 2
left_child=1 2 3 -1 10 6 21 16 -9 18 11 -4 13 -6 -14 17 20 -11 22 -18 -8 25 23 -3 -12 26 -2 -20 -10 -17
right_child=5 9 4 -5 12 -7 7 8 28 15 24 -13 14 -15 -16 29 19 -19 27 -21 -22 -23 -24 -25 -26 -27 -28 -29 -30 -31
leaf_value=-0.035090604182156586 -0.050999421177202256 -0.010925512015077044 0.044739549652867028 0.061704790958464845 0.001170131760366927 -0.034132080273950788 -0.05095789147079334 0.060507985961589066 -0.047475119438228817 -0.035016230098481226 -0.028506832270096566 -0.014181414779177427 4.9103780271644504e-05 0.077078001718367983 -0.01946449123399499 0.025328335074842025 0.010070213427215259 0.020181229074612748 -0.036093373749518522 -0.034454165646793183 0.04366948745333149 0.0034976274602870165 0.061278986401357809 0.056946607711971457 0.021932310953993138 0.025576332019927952 0.06280137147728948 0.04020507387352279 0.023869790397699181 -0.011593923957585031
leaf_weight=8.1513796150684374 1.5921062827110279 13.505215913057329 17.289025917649269 19.912086427211761 23.62148542702198 17.879226040095091 3.0365699231624594 47.922280812636018 7.5511606335639954 33.002653762698174 337.19591100513935 73.767672941088676 210.36727425456047 11.25972633063793 238.62119175493717 51.227409586310387 444.81282342970371 15.213706105947493 8.7538021802902204 14.582363620400427 40.144765719771385 13.305744826793669 30.422009170055389 14.871975809335707 7.6692820489406577 24.81008206307888 47.16687299311161 4.7151333242654792 5.7359943613409978 14.225100487470625
leaf_count=34 6 46 34 42 90 67 15 99 20 80 1268 262 689 24 826 101 1273 41 38 31 110 34 60 26 19 63 82 10 20 28
internal_value=0 -0.00863631 -0.0132014 0.0335894 -0.014629 0.0167607 0.0181591 0.0146393 0.0437531 0.014635 -0.0222903 -0.00299403 -0.00772686 0.0256733 -0.0103217 0.00249834 0.0110934 -0.0175998 0.0337245 0.0086569 0.0370152 0.041002 0.043599 0.024645 -0.0273851 0.047785 0.0590855 -0.00938322 -0.0166759 0.0173038
internal_weight=0 1133.79 947.855 28.0635 919.792 668.54 650.661 563.786 61.2094 185.937 435.922 91.0567 483.87 34.8812 448.988 113.669 502.577 48.2164 72.2681 459.395 43.1813 86.8748 58.7992 28.3772 344.865 73.5691 48.759 13.4689 13.2872 65.4525
internal_count=5538 3718 3288 76 3212 1820 1753 1568 139 430 1583 296 1629 114 1515 250 1429 121 180 1304 125 185 132 72 1287 151 88 48 40 129
is_linear=0
shrinkage=0.05


Tree=15
num_leaves=31
num_cat=0
split_feature=2 10 2 7 1 2 3 4 1 5 5 10 7 3 5 7 0 4 0 7 10 5 7 3 1 10 10 9 9 7
split_gain=36.5493 39.1017 37.2332 25.9214 26.0373 19.9178 22.5502 18.5888 21.1903 35.0809 14.1355 20.8606 19.8563 13.6909 13.2584 20.8346 12.9575 12.8268 12.3826 11.5147 13.0924 10.9049 16.8711 13.9641 10.2943 16.1576 10.26 9.44255 9.15738 9.10042
threshold=2.8058127479256436 0.053577071915994055 7.4425307230414779 0.98147896814851376 -2.7366431223167633 22.853469077776865 3.5287362809210561 0.15288478468579336 -1.3546905735956896 0.057370847692212339 0.16429484742082542 -0.0028085429943080875 0.86375199255153257 -1.0869149753599794 0.20231279340877242 0.72269174525648905 31.451326457013923 0.041191233056175842 59.49820965298786 0.7593581974565351 -0.22637963932127572 0.11063553165237927 0.36198530048803002 -0.76153739586538571 -5.3067429193883973 -0.098014240687685369 -0.36307547094835341 39.411414182738 10.578151975092085 0.83454566063368107
decision_type=2 2 2 2 2 2 2 2 2 2 2 2 2 2 2 2 2 2 2 2 2 2 2 2 2 2 2 2 2 2
left_child=1 7 10 4 -3 6 -4 8 9 -1 19 -12 18 24 16 -16 -10 -14 -13 -2 -21 23 -23 -6 -9 -26 -15 -11 -28 -22
right_child=2 3 5 -5 21 -7 -8 13 14 27 11 12 17 26 15 -17 -18 -19 -20 20 29 22 -24 -25 25 -27 28 -29 -30 -31
leaf_value=0.060864812430401594 -0.024634675950130566 -0.028825375998861785 -0.038145416856268002 0.067003359729567905 -0.01787854952201761 0.061634009011862737 0.051149932722961269 -0.029265348097829172 0.04921371440247075 0.0086417593248398639 0.052263536121128717 -0.00093944709660512445 0.033780661916959262 0.035407687815173637 0.039818494571150942 -0.023110873958894169 -0.014167874452586349 -0.020758851941807887 0.042821479578090099 0.096727117036973953 0.03089494197399198 -0.013943522835141321 0.010630552892629815 0.023684383021901446 -0.013887292682719583 0.024972525372273124 0.014977792185462004 -0.034547769910134689 -0.028339798534133827 -0.017719089143527877
leaf_weight=32.074428871273994 23.8077592253685 50.855565086007118 54.428432437591255 17.553404089063406 23.119071155786514 7.134189222007989 8.1257539838552457 33.845350680872798 8.293210953474043 45.532525971531868 68.815917789936066 20.904054969549179 14.99649243056774 6.9700225144624701 32.528294771909714 22.081424549221992 291.42441450059414 38.34608294069767 71.306808710098267 4.7747941613197318 21.37149815261364 99.670341283082962 233.3970880061388 160.53428357839584 64.36111806333065 45.774004459381104 12.865989968180655 17.526645570993423 235.92611487209797 17.51732562482357
leaf_count=69 69 147 155 33 85 18 19 111 25 138 136 43 30 26 95 86 1073 90 158 6 48 340 749 479 205 129 34 69 788 64
internal_value=0 -0.0027839 0.015206 0.00716151 0.00531078 -0.0175188 -0.026546 -0.00963661 -0.00266016 0.0182919 0.0232975 0.0295796 0.0188549 -0.0174808 -0.00828561 0.014373 -0.0124141 -0.00542586 0.0329009 0.00333824 0.0185906 0.00867046 0.00327677 0.0184523 -0.00514796 0.0022635 -0.0244235 -0.00336232 -0.0260997 0.00899693
internal_weight=0 1434.33 351.529 585.13 567.576 69.6884 62.5542 849.204 449.461 95.1336 281.841 214.369 145.553 399.743 354.327 54.6097 299.718 53.3426 92.2109 67.4714 43.6636 516.721 333.067 183.653 143.98 110.135 255.762 63.0592 248.792 38.8888
internal_count=5517 4681 836 1833 1800 192 174 2848 1555 276 644 457 321 1293 1279 181 1098 120 201 187 118 1653 1089 564 445 334 848 207 822 112
is_linear=0
shrinkage=0.05


Tree=16
num_leaves=31
num_cat=0
split_feature=6 8 8 5 6 2 10 10 6 10 2 2 8 11 10 9 4 0 1 4 9 8 0 9 1 9 5 2 0 5
split_gain=66.0436 20.7829 12.7926 19.0664 10.6079 15.8197 10.887 8.51503 7.71405 7.68185 7.68737 7.12622 6.33396 6.08281 6.03345 5.97154 5.9668 5.76167 5.30907 6.06431 5.74082 5.03836 4.50889 4.28251 7.28478 7.1691 7.06821 4.24757 3.6975 3.54148
threshold=0.082374309385709901 0.022958181115858269 -0.016083623433032209 0.049878099653568757 0.045508328069924185 2.3796292061778597 -0.30879375540066722 -0.25378287922380321 0.03894176716146714 0.38874621550754213 2.592011817908435 0.5749980809113695 0.044466421435018597 0.9021846146152922 -0.22997571153842081 10.578151975092085 -0.0070483104099716863 35.55085970794206 4.5064045778308364 0.47993617214646572 23.270894650778327 -0.026169994481473439 39.208434594301934 56.66052058599066 -2.7366431223167633 9.6193139548586259 0.16593652042962875 -1.0309164885256477 46.232951696377022 0.1346695804364009
decision_type=2 2 2 2 2 2 2 2 2 2 2 2 2 2 2 2 2 2 2 2 2 2 2 2 2 2 2 2 2 2
left_child=1 2 3 14 5 6 -4 -6 -7 10 -5 13 15 29 21 -13 -9 -17 19 23 -21 -1 -16 24 26 -26 -2 -15 -20 -3
right_child=18 11 4 9 7 8 -8 16 -10 -11 -12 12 -14 27 22 17 -18 -19 28 20 -22 -23 -24 -25 25 -27 -28 -29 -30 -31
leaf_value=-0.013028572228622482 -0.0089886117510123327 0.011978144055172207 0.069987655844864202 0.011878226558273095 -0.027753100115496573 -0.029796785776090375 0.016423304955291675 -0.024330513728669137 0.020536353690185069 -0.037488732850699882 -0.037469965082618982 0.10006619213774288 -0.030984909392537646 -0.045653431432555083 -0.012538955157147645 0.087988885358420255 0.0074367152798761639 -0.011086435249918931 0.0089770332309917801 0.017215399032131415 -0.029351428216032517 0.052675511642694628 -0.035201517993146546 -0.030678021947906232 0.099631222525220331 -0.013416660979529343 0.02498154828291552 0.0091920737034222131 -0.025455462906661813 0.061998752381481774
leaf_weight=7.0052274465560913 30.42257034778595 7.5521342754364031 9.669445261359213 187.66464440524578 20.231849417090416 27.649627238512039 500.80654075741768 15.600238159298895 10.504199802875517 8.98051869869232 8.2382289767265302 1.2553580850362767 43.847546175122261 5.4020991027355185 45.583689406514168 1.4890272766351689 281.70039476454258 101.17229706048965 8.2126555768772942 7.3302184427157036 68.167796776629984 5.0004434138536435 42.328245043754578 19.910385519266129 1.4157775938510884 148.71390183269978 30.831307947635651 10.187688216567038 153.93898540176451 6.6583171188831329
leaf_count=18 83 26 52 641 42 56 1794 34 39 16 14 8 86 8 118 9 921 265 30 30 157 24 77 40 9 380 119 34 353 34
internal_value=0 0.00538983 0.00780696 -0.00100291 0.0109071 0.0151167 0.0174379 0.00363386 -0.0159395 0.0077301 0.00980301 -0.0105501 -0.0150484 0.0117546 -0.0189102 -0.00832401 0.0057698 -0.00964942 -0.0163937 -0.012526 -0.0248302 0.0143376 -0.0234506 -0.0085097 -0.00642165 -0.0123506 0.00810981 -0.00981273 -0.0237115 0.0354153
internal_weight=0 1348.53 1170.96 304.801 866.162 548.63 510.476 317.532 38.1538 204.883 195.903 177.564 147.764 29.8002 99.9176 103.917 297.301 102.661 468.944 306.792 75.498 12.0057 87.9119 231.294 211.384 150.13 61.2539 15.5898 162.152 14.2105
internal_count=5517 4316 3846 908 2938 1941 1846 997 95 671 655 470 368 102 237 282 955 274 1201 818 187 42 195 631 591 389 202 42 383 60
is_linear=0
shrinkage=0.05


Tree=17
num_leaves=31
num_cat=0
split_feature=6 3 9 8 5 9 8 1 8 7 2 10 8 10 7 6 8 7 3 10 1 3 10 5 7 2 5 7 0 7
split_gain=84.1964 37.0182 38.6918 25.9807 30.2284 25.0632 23.0703 18.6169 17.3027 19.055 34.7943 24.3564 15.9527 15.8337 17.2209 20.9284 20.3114 19.1511 15.2999 15.0099 11.9628 11.8672 9.83931 8.00598 7.59727 11.4514 7.32707 7.0206 4.55098 4.3529
threshold=0.076409532161284488 -0.42174538254911081 47.06686665220149 0.046330545585134129 0.2273065411976897 47.06686665220149 -0.036612239645669724 -12.243265128820893 -0.042897144914841985 0.43923178304413041 1.5892357953248151 0.001418184160888929 -0.060774629310775333 -0.29535907933382105 0.95990573511414434 0.18573971831637187 0.046330545585134129 0.87480005598178057 -2.1762116165352183 -0.12038649328269586 15.653184198927649 -1.2900964280737457 -0.058630469252933338 0.61642941134539841 0.89631177602982748 -0.88427618282282827 0.045238852252436297 0.98147896814851376 50.713110823339761 0.49530796644676683
decision_type=2 2 2 2 2 2 2 2 2 2 2 2 2 2 2 2 2 2 2 2 2 2 2 2 2 2 2 2 2 2
left_child=1 2 6 8 -5 13 -1 -7 12 10 -10 -11 -3 -2 16 23 17 -15 -8 -18 -17 -4 -20 -16 25 -9 29 -26 -14 -23
right_child=5 3 21 4 -6 7 18 24 9 11 -12 -13 28 14 15 20 19 -19 22 -21 -22 26 -24 -25 27 -27 -28 -29 -30 -31
leaf_value=0.048686896321349489 0.067635770825535388 -0.035145439556444169 -0.010188436797833128 0.066849936514599445 -0.036464575579322027 -0.014852879033411754 0.066617864043126127 0.047835565614957526 -0.016668092754759098 -0.0092254626516246954 0.020138243658837398 -0.034844759067774699 0.012283455973401594 0.01015964467954214 -0.043930645121042181 0.031670027035734155 0.033474414406674306 0.037867620052742169 0.0018011753786516275 -0.014447511056923684 -0.039482687823179125 0.043330886914117468 -0.016230247452622335 0.016023883743870683 0.063602219566012363 -0.02036517094786406 0.025748833921998483 0.028818529835191543 0.062715637587989106 0.083793927374388538
leaf_weight=21.609953284263611 11.686782240867613 8.4846337437629717 8.1061448603868467 20.394053310155872 10.844887658953665 15.164364249445496 7.3366462439298621 16.075105130672458 314.5653974711895 153.11657685041428 80.678211033344269 235.3996050208807 6.6109022349119213 165.62527230381966 38.037184685468674 27.621385952457786 20.190865233540535 100.02464628219604 165.32094743847847 85.672214567661285 7.5143844950944176 10.142504364252092 139.49256420135498 6.5230314284563056 49.279378026723862 9.9736195504665357 13.854149878025053 20.558321483433247 13.834631994366644 19.28372323513031
leaf_count=54 22 33 24 45 24 38 15 37 1137 546 226 868 25 415 127 87 48 236 554 185 28 28 457 10 91 22 39 41 26 29
internal_value=0 -0.00790092 0.0049439 -0.013763 0.0309833 0.015294 -0.00127443 0.036626 -0.015483 -0.0168846 -0.00915508 -0.024748 0.0224906 0.0101763 0.00868805 -0.012402 0.0132122 0.0205925 -0.00473322 -0.00530754 0.0164528 0.0453325 -0.00645059 -0.0351541 0.0447674 0.0217226 0.0557313 0.0533628 0.0464088 0.0698473
internal_weight=0 1229.08 385.147 843.929 31.2389 573.947 333.76 111.051 812.69 783.76 395.244 388.516 28.9302 462.896 451.209 79.696 371.513 265.65 312.15 105.863 35.1358 51.3865 304.814 44.5602 95.8864 26.0487 43.2804 69.8377 20.4455 29.4262
internal_count=5517 4130 1200 2930 69 1387 1080 229 2861 2777 1363 1414 84 1158 1136 252 884 651 1026 233 115 120 1011 137 191 59 96 132 51 57
is_linear=0
shrinkage=0.05


Tree=18
num_leaves=30
num_cat=0
split_feature=9 4 4 1 8 8 7 4 6 5 1 9 6 10 9 7 3 1 4 8 9 5 10 11 9 3 1 7 8
split_gain=32.4469 39.69 28.4082 19.6565 14.4327 33.5459 20.657 19.4212 15.0161 18.9089 14.3999 14.1468 14.1167 13.3621 9.98979 9.57279 16.4882 18.6132 7.23695 5.81939 3.11931 2.94627 5.45488 2.63595 2.41817 0.934119 0.00463513 0.00303887 0.00086554
threshold=39.982495695238704 0.9754846241156977 -0.019713902986356811 -2.7366431223167633 0.012813007035059025 -0.0010459457052554406 0.093734151848788735 0.26645538189014134 0.031693319069269137 0.19386674285482366 1.4398178340247798 37.533111415888591 0.037252695270681556 -0.14118959443225246 16.33307982024343 0.91485421591804583 -1.4006484008578981 2.3181237977196365 0.58174692446677823 0.015869961791123117 23.533849501803868 0.1254432265410457 -0.1986434141483002 2.6241649482787639 49.437721131496481 -3.9748164894645512 -3.2218268429010091 0.49906767335539087 -0.020204736504788396
decision_type=2 2 2 2 2 2 2 2 2 2 2 2 2 2 2 2 2 2 2 2 2 2 2 2 2 2 2 2 2
left_child=2 13 19 11 5 7 -7 -5 10 -10 -6 12 -4 21 -14 16 -15 -18 24 20 -1 26 -23 -21 -17 -3 28 -28 -2
right_child=1 25 3 4 8 6 -8 -9 9 -11 -12 -13 14 15 -16 18 17 -19 -20 23 -22 22 -24 -25 -26 -27 27 -29 -30
leaf_value=0.035552141109989013 -0.046078279728856301 0.0762904040100367 0.047118065391989289 0.010419175940443087 0.075843143770298105 0.02303003462637164 -0.017751117442407396 -0.048317411464523591 -0.0012594707254376387 0.018118300739001017 0.0048943158679628715 0.034698860975331668 0.0027066181960382404 0.046347419675839871 -0.032755708822241082 -0.022724832749685134 -0.01813519069573756 0.030738712216100601 0.0032487120899840991 0.072677769996822419 -0.020239907606266802 0.019675062944442805 -0.046648621988682026 0.041916635675373792 -0.044778618325997818 0.0520042385508118 -0.046983014983136798 -0.048091710043761574 -0.046807614409074084
leaf_weight=6.7427756488323194 7.810036867856982 6.8452921770513084 7.2289406806230536 449.10005824267864 16.83740267157555 35.216928094625473 262.55256989598274 14.528662964701651 240.81628926098347 263.79969764500856 12.432408004999159 12.740617215633391 25.500372083857656 13.451008409261702 89.771843899041414 19.10151644796133 138.7117131203413 22.663727164268494 13.968529406003652 14.739039346575739 3.9864019453525543 5.2252830117940903 7.6228775456547719 13.202371686697004 35.586481735110283 9.3913657907396537 12.209784418344503 12.516267836093901 8.4900603294372505
leaf_count=22 26 18 22 1433 36 117 983 45 704 618 46 38 74 39 318 60 464 63 33 24 18 20 28 27 88 26 51 54 22
internal_value=0 -0.0138801 0.00383657 0.00269344 0.0045873 0.000167732 -0.012928 0.00857856 0.0108903 0.00887071 0.0457075 -0.0154451 -0.0206603 -0.0180367 -0.0249108 -0.013051 -0.00683815 -0.0112713 -0.0288714 0.0461238 0.0148227 -0.0405693 -0.0196751 0.0581431 -0.0370756 0.0622432 -0.0471127 -0.0475442 -0.0464582
internal_weight=0 313.594 1469.2 1430.53 1295.28 761.398 297.769 463.629 533.886 504.616 29.2698 135.242 122.501 297.357 115.272 243.483 174.826 161.375 68.6565 38.6706 10.7292 53.8743 12.8482 27.9414 54.688 16.2367 41.0261 24.7261 16.3001
internal_count=5517 992 4525 4434 3982 2578 1100 1478 1404 1322 82 452 414 948 392 747 566 527 181 91 40 201 48 51 148 44 153 105 48
is_linear=0
shrinkage=0.05


Tree=19
num_leaves=31
num_cat=0
split_feature=8 4 3 9 2 10 10 3 2 9 8 9 9 5 3 2 0 5 3 0 10 10 5 11 2 9 5 10 0 7
split_gain=45.6959 25.8202 22.9274 16.9364 20.7162 14.8983 10.6377 10.5907 9.05459 8.10186 7.59208 7.51807 7.16346 10.649 8.69576 7.86016 7.77549 6.68184 10.3602 6.82817 5.14052 6.77064 5.80446 5.1145 3.8657 3.84251 6.13499 3.49824 6.1489 4.02921
threshold=0.024188691022004823 0.27035646506772276 2.0260705617517849 22.311924617744463 -1.407955778246974 -0.10365508755317543 -0.13921211844481698 -1.0470780945972533 2.592011817908435 12.427761639890003 -0.019371614525678937 16.872566145827516 23.790439069571281 0.10109636235026367 -3.0364010209508252 4.839044964867564 40.751239802574489 0.082596912696491526 0.091384379075346397 18.802610481914304 0.15995679380670577 0.21956599395857568 0.3266082386936931 0.78725386098995198 5.9724251210651174 23.655959303591072 0.42035974020458888 0.14721495919268421 53.828248728685686 0.37035227050260494
decision_type=2 2 2 2 2 2 2 2 2 2 2 2 2 2 2 2 2 2 2 2 2 2 2 2 2 2 2 2 2 2
left_child=1 2 3 8 10 6 17 -6 9 -1 -5 -10 14 16 -2 20 -14 19 -19 -3 22 -22 -16 24 -17 26 -4 28 -15 -30
right_child=12 5 25 4 7 -7 -8 -9 11 -11 -12 -13 13 27 15 23 -18 18 -20 -21 21 -23 -24 -25 -26 -27 -28 -29 29 -31
leaf_value=0.016328202011756356 0.097615270579876429 0.032397649873856009 -0.036430239358201014 0.013165335952573158 -0.0058192329539582706 -0.023512267187773293 0.065982289152271445 0.023115397853989819 -0.02429623296181696 0.0010629594999752652 -0.0075196067467063702 0.011476259024456929 -0.0076309021802117077 -0.032629224961319044 -0.011742926815200854 -0.024978269078466186 0.062607107411470714 0.042598231779133355 -0.027722959195223884 -0.017199441031884897 0.051817100495848249 -0.00034674479256351055 0.030440922615982483 -0.037164160267200756 0.016984874898766746 -0.032010467480182624 0.02881404053543532 -0.037901331514726459 0.054995457228586425 -0.013053424099658815
leaf_weight=112.65168057382107 1.9044026434421528 8.0271353572607023 6.8507520258426648 72.339425668120384 34.604019731283188 122.13557014614344 6.2956992387771598 367.33985501527786 52.644902184605598 380.52007569372654 114.69099865853786 20.370787054300308 13.034026682376863 64.5450674071908 101.21209937334061 12.502456068992617 5.6475179791450492 16.758461177349094 7.6188150793313971 51.219433419406414 8.8196821361780184 21.108547762036324 8.8693353533744794 35.22435437142849 9.7824271470308286 41.962614893913269 7.6002686023712158 46.2634895760566 2.2576575577259055 59.624627029523253
leaf_count=401 12 33 12 251 98 289 33 1403 115 1163 318 69 36 132 265 27 29 80 16 126 42 63 36 61 35 82 30 89 11 160
internal_value=0 0.00395471 0.0067718 0.00829179 0.0142278 -0.0121407 0.003305 0.0206244 0.00211694 0.00454989 0.000480893 -0.014316 -0.0153474 -0.0222578 -0.00871596 -0.00974117 0.0136024 -0.00141372 0.0206202 -0.0104797 -0.00334866 0.0150256 -0.00834415 -0.0253041 -0.00655765 -0.0243527 -0.00211612 -0.0261372 -0.0218323 -0.0105708
internal_weight=0 1423.63 1211.58 1155.16 588.974 212.055 89.9195 401.944 566.187 493.172 187.03 73.0157 390.796 191.372 199.423 197.519 18.6815 83.6238 24.3773 59.2466 140.01 29.9282 110.081 57.5092 22.2849 56.4136 14.451 172.691 126.427 61.8823
internal_count=5517 4519 3942 3818 2070 577 288 1501 1748 1564 569 184 998 457 541 529 65 255 96 159 406 105 301 123 62 124 42 392 303 171
is_linear=0
shrinkage=0.05


Tree=20
num_leaves=31
num_cat=0
split_feature=6 4 9 4 9 9 3 9 8 9 3 7 8 10 7 10 3 2 8 10 4 5 3 5 8 8 7 2 3 3
split_gain=75.8522 47.9052 22.4288 29.7443 21.9545 39.2271 18.3303 17.2588 15.7133 18.2318 15.1003 14.2405 21.1436 20.5178 20.2728 17.4028 16.6736 15.9472 14.7472 14.3473 13.8217 13.0182 12.3929 12.6808 10.6156 9.95017 7.12498 10.3128 6.46302 5.7134
threshold=0.076409532161284488 0.17827282273495715 47.06686665220149 0.9754846241156977 11.890513869331576 17.376106712508378 -1.1155070054064848 59.702602574010179 -0.054082608226333297 50.914848784938449 -0.56487116645146584 0.95501588434188778 0.046330545585134129 -0.12038649328269586 0.87480005598178057 -0.0028085429943080875 2.1466162564652653 5.9724251210651174 0.10551895967921039 -0.34338009862070923 0.33022974593154736 0.31157706566552018 -2.1762116165352183 0.073663748498063522 0.046330545585134129 -0.01148281621295629 0.89631177602982748 -0.88427618282282827 -1.1155070054064848 2.651957041187889
decision_type=2 2 2 2 2 2 2 2 2 2 2 2 2 2 2 2 2 2 2 2 2 2 2 2 2 2 2 2 2 2
left_child=1 4 11 26 -1 10 -7 -8 -3 22 -6 12 14 -14 21 -15 -16 19 20 -13 -19 -2 -10 -24 -12 28 27 -4 -11 -21
right_child=2 8 3 -5 5 6 7 -9 9 25 24 17 13 15 16 -17 -18 18 -20 29 -22 -23 23 -25 -26 -27 -28 -29 -30 -31
leaf_value=-0.034903218770473386 0.017953911433572719 0.071617357950970503 0.044852104484558682 -0.045583456619385683 -0.033146060221857031 0.065917755297389427 -0.018863431071983891 0.03235208166482844 0.063342084716529259 -0.029495759301847693 0.0085592748020906096 0.071824550558488409 0.037214092306491142 -0.042920044232753696 0.027327616509634202 0.0052094794184951287 0.07437532021195245 0.0056116544387532687 -0.023072602760491084 -0.043158889007523238 0.072143816112782908 -0.016473811161799655 0.0087858085139069318 -0.019110061778161991 0.054546102457239891 0.071310338869394294 0.050663378208190148 -0.019810538271326651 0.038272571574028039 0.0032398828354406901
leaf_weight=99.829877182841301 135.067437723279 10.430211156606672 16.301232680678371 10.495844436809419 20.825397357344627 6.6596507877111426 607.21792577207088 16.907283306121826 8.3904115855693799 5.2642265558242789 197.24755907058716 3.3813651055097571 21.503249153494835 36.526869744062424 72.72833351790905 38.660829305648804 25.411738142371178 19.043460858985782 18.538297018967569 37.407488363794982 13.228827476501463 34.464677020907402 153.16209709644318 55.50131069123745 13.401842072606085 16.423675701022148 75.183501079678535 9.9174187928438169 10.607406303286551 8.0651723891496641
leaf_count=369 336 18 37 28 73 17 2218 53 17 14 594 5 47 80 192 89 36 60 51 125 29 84 474 202 24 27 142 22 30 24
internal_value=0 -0.00756075 0.0144497 0.034543 -0.0127052 -0.0101352 -0.0165956 -0.017476 0.0114919 0.00897683 0.00746964 0.0096043 0.0141853 -0.00585482 0.0214244 -0.0181723 0.0395098 -0.0071435 0.0124682 -0.0275406 0.032884 0.010955 0.00376167 0.00136593 0.011485 0.0440274 0.0428366 0.0203929 0.0157955 -0.0349295
internal_weight=0 1221.87 575.926 111.898 962.09 862.26 630.785 624.125 259.779 249.349 231.475 464.028 364.363 96.6909 267.672 75.1877 98.1401 99.6646 50.8106 48.854 32.2723 169.532 217.054 208.663 210.649 32.2953 101.402 26.2187 15.8716 45.4727
internal_count=5517 4130 1387 229 3348 2979 2288 2271 782 764 691 1158 864 216 648 169 228 294 140 154 89 420 693 676 618 71 201 59 44 149
is_linear=0
shrinkage=0.05


Tree=21
num_leaves=31
num_cat=0
split_feature=2 10 2 8 4 8 9 1 8 8 2 4 5 3 9 11 8 8 10 9 4 4 8 10 10 8 6 8 4 6
split_gain=30.3448 34.745 32.8694 26.2116 22.2866 22.7191 24.3004 20.738 19.0105 29.1255 16.4138 17.604 15.7154 15.5769 15.551 14.1495 13.6729 19.8224 12.8036 15.9145 16.7057 11.9082 8.12481 7.70354 6.52359 16.0734 9.78622 5.59519 5.08973 3.82027
threshold=2.8058127479256436 0.053577071915994055 7.4425307230414779 0.044466421435018597 0.58174692446677823 -0.028542865120693053 16.025139342309561 22.215172582316431 -0.03975939692432965 -0.01283745557803184 -2.2764010706796962 0.31976076992398278 0.27789405364599534 3.5287362809210561 13.012623136035783 0.38342241625821466 0.036356131675267883 0.012564888841543725 -0.1986434141483002 13.649213222369124 0.038198098527204155 0.13360483733035955 -0.037775847528165644 -0.042166405684062748 -0.0028085429943080875 0.089968521471958954 0.091624617527868588 -0.008615532980745742 0.057818745610890419 0.14078452032066677
decision_type=2 2 2 2 2 2 2 2 2 2 2 2 2 2 2 2 2 2 2 2 2 2 2 2 2 2 2 2 2 2
left_child=1 8 3 18 5 6 -3 13 12 14 27 -12 -1 29 -10 -14 17 -7 -2 23 -21 -16 -8 -20 -5 26 -26 -11 -18 -4
right_child=2 4 7 24 -6 16 22 -9 9 10 11 -13 15 -15 21 -17 28 -19 19 20 -22 -23 -24 -25 25 -27 -28 -29 -30 -31
leaf_value=-0.045593367554107957 0.056784607537495285 0.051882637008256932 -0.013401637125740504 0.056336882869437645 0.066607790374607345 0.0052782544192650988 -0.014985448618198805 0.064270278238040754 0.053425992595786835 -0.0042723557114706092 -0.012404460485419686 0.025628648104763396 0.069711541995803455 0.042148936629229583 0.01890378011196454 -0.040317867336586405 -0.006007170641977172 0.028720631153445787 -0.011275295760951716 0.031677351559011808 -0.011929758687324245 -0.0058098042321338139 -0.047528559427034961 0.040730233175772595 0.071879805923724935 -0.013355110689754188 0.017677418518279833 -0.044269029146815353 -0.048004106292267264 -0.043611378695237325
leaf_weight=55.754776056855917 13.893709450960158 11.441827520728109 14.152707591652868 45.78883159160614 15.166570998728274 315.58208641409874 58.703530445694923 7.0024196691811076 17.81255342066288 10.570806786417959 462.29429548978806 32.568216770887375 6.2259867265820485 7.2793577760457984 84.617342114448547 5.5057859979569912 17.930909126996998 126.25229027867317 8.6816202849149686 28.176499336957932 99.594207435846329 114.97196678631008 28.486379414796829 39.6086595505476 19.705904722213745 14.841417193412779 14.4223365932703 50.594910653308034 12.071120902895926 40.163039888255298
leaf_count=156 18 32 43 82 25 1073 179 18 43 29 1667 88 17 16 249 25 40 349 21 66 291 400 91 86 26 30 24 174 44 115
internal_value=0 -0.00256331 0.0138042 0.02129 0.0067872 0.0051968 -0.0166273 -0.0172655 -0.00907523 -0.00685454 -0.0129216 -0.0099014 -0.0345255 -0.0265349 0.00866265 0.0180741 0.00975887 0.0119768 0.0105749 0.0069283 -0.00231335 0.0046677 -0.0256178 0.0313807 0.0427698 0.0300839 0.0489743 -0.0373567 -0.0229044 -0.0357398
internal_weight=0 1426.55 353.311 284.713 585.635 570.468 98.6317 68.5975 840.917 773.43 556.028 494.863 67.4865 61.5951 217.402 11.7318 471.836 441.834 189.955 176.061 127.771 199.589 87.1899 48.2903 94.7585 48.9697 34.1282 61.1657 30.002 54.3157
internal_count=5517 4681 836 644 1833 1808 302 192 2848 2650 1958 1755 198 174 692 42 1506 1422 482 464 357 649 270 107 162 80 50 203 84 158
is_linear=0
shrinkage=0.05


Tree=22
num_leaves=31
num_cat=0
split_feature=6 8 8 5 6 2 2 3 3 10 2 8 2 3 10 11 6 4 4 8 0 10 4 8 5 3 10 6 11 8
split_gain=54.4281 16.9768 11.042 17.2105 9.52685 14.0667 10.7 8.84882 13.224 7.55324 6.54115 5.81113 6.00026 6.14456 5.7845 5.46673 5.45049 5.35766 4.85483 4.57139 4.41979 4.38549 4.10355 8.0992 10.9732 9.46849 5.36388 6.57026 6.44783 4.91782
threshold=0.082374309385709901 0.022958181115858269 -0.016083623433032209 0.049878099653568757 0.045508328069924185 2.0684663602877853 1.1940338984647074 1.5538433896563726 0.35887360237941218 -0.25378287922380321 0.5749980809113695 0.046330545585134129 3.4526170120883632 -0.80455090259848705 -0.22997571153842081 0.9021846146152922 0.03894176716146714 -0.0070483104099716863 0.080104996492896194 -0.026169994481473439 39.208434594301934 0.12282942545749119 0.47993617214646572 -0.0090653560752641995 0.15906917483671607 2.0260705617517849 -0.11139619716389493 0.18573971831637187 1.5273733828849492 -0.035481874596937794
decision_type=2 2 2 2 2 2 2 2 2 2 2 2 2 2 2 2 2 2 2 2 2 2 2 2 2 2 2 2 2 2
left_child=1 2 3 14 5 6 -4 8 -5 -6 15 12 13 -12 19 -3 -7 -11 -14 -1 -16 22 23 24 29 -26 27 28 -24 -2
right_child=21 10 4 7 9 16 -8 -9 -10 17 11 -13 18 -15 20 -17 -18 -19 -20 -21 -22 -23 26 -25 25 -27 -28 -29 -30 -31
leaf_value=-0.012142452904701145 -0.035105499792580583 0.033927442448190806 0.013639876539235977 -0.00026109939030370964 -0.026807858700830762 -0.020665105276728487 0.035354745336184719 -0.02553771522957158 0.027008003467731346 -0.02365758556636588 0.021501218315456077 -0.030970654244484582 0.038968679088026856 -0.020136139257797059 -0.011939852457513854 -0.0089558904154242707 0.014416086903093659 0.0065612464760883482 -0.0045717043560148871 0.05034356644012758 -0.034491390004776822 -0.023855883638317758 0.047759759373204556 -0.01426059380850846 0.04348737351253066 -0.0080792322378068129 -0.032722952267320603 -0.03868832939092412 -0.016732732306223738 0.008975691624774752
leaf_weight=6.9259846061468124 16.706130027771 14.342640459537508 434.24650804698467 113.93491549789906 19.90974223613739 38.060894131660461 65.254500105977058 18.880929708480835 72.909209683537483 15.467907249927519 10.126796320080755 37.515169471502304 10.450938627123834 70.866861164569855 45.233337640762329 15.423583537340162 15.614228621125219 283.49323676526546 16.525883749127388 5.0693770796060544 41.807363122701645 108.18031024001539 7.7916790097951907 214.79859972000122 22.909580022096634 14.559125766158102 47.684481550939381 8.6609332114458066 7.7110121846199036 10.184185102581976
leaf_count=18 31 60 1521 343 42 89 276 41 287 34 38 74 45 164 118 42 55 921 47 24 77 248 36 550 103 40 118 22 19 34
internal_value=0 0.0048699 0.00703202 -0.00116076 0.00989521 0.013863 0.0164767 0.00708328 0.0103797 0.00301187 -0.00964858 -0.0140179 -0.00812758 -0.0149301 -0.0182859 0.0117071 -0.0104599 0.00499776 0.012296 0.0142649 -0.0227718 -0.0150542 -0.0123415 -0.00959878 0.00596007 0.0234503 -0.0229978 -0.00380633 0.0156813 -0.0184106
internal_weight=0 1352.06 1176.81 304.761 872.047 553.176 499.501 205.725 186.844 318.871 175.252 145.486 107.97 80.9937 99.0361 29.7662 53.6751 298.961 26.9768 11.9954 87.0407 459.186 351.006 279.158 64.359 37.4687 71.8481 24.1636 15.5027 26.8903
internal_count=5517 4316 3846 908 2938 1941 1797 671 630 997 470 368 294 202 237 102 144 955 92 42 195 1201 953 758 208 143 195 77 55 65
is_linear=0
shrinkage=0.05


Tree=23
num_leaves=31
num_cat=0
split_feature=4 9 9 4 7 9 8 9 7 7 2 8 9 5 2 2 8 5 2 8 1 10 5 10 7 1 5 8 8 11
split_gain=64.4524 29.7058 26.5788 25.2402 23.9824 32.7234 21.5621 20.5012 19.9315 13.6007 36.9077 23.5056 12.7096 13.2004 15.3455 16.8209 15.6495 10.3447 12.0049 8.48705 23.3958 15.0616 20.4227 14.6081 12.926 8.47489 8.36119 6.09273 9.25274 5.58093
threshold=0.17685581390681074 12.048322363502399 48.896776958454765 0.80283943215712283 0.73456392976156504 17.376106712508378 -0.030520695907153776 59.702602574010179 0.53100615167674536 0.43923178304413041 1.9918500788035989 0.046330545585134129 10.152863636206691 0.052656606261279416 7.4425307230414779 -5.2634674695757928 0.10551895967921039 0.036489839414531898 -1.0039106807469933 0.026042515127421319 1.8418954774515444 0.020626504582852343 0.29672723851288013 -0.0028085429943080875 0.90796742621469539 -1.7567832790641658 0.066709022234639689 -0.010299049096643637 -0.029164518274650619 0.74030440553405119
decision_type=2 2 2 2 2 2 2 2 2 2 2 2 2 2 2 2 2 2 2 2 2 2 2 2 2 2 2 2 2 2
left_child=1 25 12 27 5 9 8 -8 -7 10 -3 -11 26 17 15 -15 -16 18 -14 21 -21 24 -23 -22 -6 -1 -2 28 29 -4
right_child=2 4 3 -5 19 6 7 -9 -10 11 -12 -13 13 14 16 -17 -18 -19 -20 20 23 22 -24 -25 -26 -27 -28 -29 -30 -31
leaf_value=0.01135623943763656 0.0053368961503135158 0.0048254486905664707 0.024234136577570269 -0.036210436527345354 0.025991355762096758 0.067435577643260955 -0.019813968447086688 0.041882231299773066 -0.01720480023876542 -0.02092517476838757 0.075733088170444107 0.055100036225322328 0.025292231200738514 0.023086153716429678 0.046861410616160865 -0.010690307491783181 -0.024274158476159886 0.041613329363845451 -0.0046859773798625191 0.052219990959563437 -0.022794551586501413 -0.03286225740959154 0.0096693534895544025 0.016664969330555106 -0.037579915813469637 -0.035372567185389621 0.064903700413913953 0.056366120916230847 0.00134020514103226 0.058833719291293808
leaf_weight=10.668381810188292 9.4981860816478747 90.568557396531105 20.897290423512459 11.582255780696867 60.895666927099228 14.54771873354912 505.73662506043911 13.833157584071158 13.32751180231571 61.606045961380005 23.014887079596519 12.176639303565024 68.588460917584598 44.39236584212631 29.587803829461336 217.25556611735374 10.466526567935942 33.92096996307373 65.085075467824936 33.56542044878006 33.858287319540977 57.163729384541512 55.752588301897049 76.333063215017319 9.2048508673906309 107.22394280135632 15.51275961101055 41.896961465477943 17.92494909465313 26.351526543498039
leaf_count=27 24 291 46 33 174 31 1890 40 48 213 40 19 175 124 69 624 37 90 219 74 87 208 123 166 45 400 30 78 48 44
internal_value=0 -0.00733278 0.0126543 0.0339054 -0.00468848 -0.00970006 -0.0158729 -0.0181714 0.0269679 0.00833576 0.0191931 -0.00837844 0.00755327 0.00570239 -0.000547625 -0.00495964 0.0282731 0.0169536 0.010696 0.00658099 0.0156729 -0.000560573 -0.0118622 0.00454032 0.0176439 -0.031144 0.0422825 0.0414901 0.0319271 0.043531
internal_weight=0 1179.48 612.961 118.653 1061.58 734.811 547.445 519.57 27.8752 187.366 113.583 73.7827 494.308 469.297 301.702 261.648 40.0543 167.595 133.674 326.774 143.757 183.017 112.916 110.191 70.1005 117.892 25.0109 107.071 65.1738 47.2488
internal_count=5517 3876 1641 249 3449 2572 2009 1930 79 563 331 232 1392 1338 854 748 106 484 394 877 327 550 331 253 219 427 54 216 138 90
is_linear=0
shrinkage=0.05


Tree=24
num_leaves=31
num_cat=0
split_feature=2 10 2 8 7 8 1 8 8 2 4 3 6 10 8 2 2 2 8 7 7 10 11 2 7 10 8 6 10 7
split_gain=27.7878 32.275 29.9083 23.8642 20.5529 22.1599 19.0781 18.1091 27.222 15.5357 16.2067 14.6157 14.0833 24.5358 13.8444 19.2711 17.7571 13.0692 13.0051 11.738 17.1998 13.0463 11.6298 10.1945 6.44504 5.70557 14.8848 9.00505 5.06751 4.66055
threshold=2.8058127479256436 0.053577071915994055 7.4425307230414779 0.044466421435018597 0.98147896814851376 -0.021868922314011746 22.215172582316431 -0.03975939692432965 -0.01283745557803184 -2.2764010706796962 0.31976076992398278 3.5287362809210561 0.043992385505516866 -0.146726384147609 -0.010299049096643637 -0.2930865201514547 -0.66172866008702058 -0.77957361163946759 -0.12931743310576146 0.94230261462203246 0.87219503724943281 -0.13686777816637194 0.38342241625821466 3.1631197339648245 0.45411638659379339 -0.0028085429943080875 0.089968521471958954 0.091624617527868588 0.31046172482976675 0.93444573931772912
decision_type=2 2 2 2 2 2 2 2 2 2 2 2 2 2 2 2 2 2 2 2 2 2 2 2 2 2 2 2 2 2
left_child=1 7 3 19 5 18 11 22 12 24 -11 29 17 -14 15 -7 -16 -9 -3 20 23 -22 -1 -2 -10 -5 27 -27 -20 -4
right_child=2 4 6 25 -6 14 -8 8 9 10 -12 -13 13 -15 16 -17 -18 -19 28 -21 21 -23 -24 -25 -26 26 -28 -29 -30 -31
leaf_value=0.0076071648080840619 0.034792575976118983 0.053101003191121654 0.0021837481979691325 0.05326105737678484 0.059259437364189038 0.051581625473678942 0.061278173055296675 0.037663239896286525 0.0020710824140659427 -0.012014305750547617 0.024323320857456424 0.040293568626721149 -0.029679318960889961 0.013768474185870613 -0.02235333614361178 0.001757778892700999 0.010136155579929272 -0.016809518539021916 -0.014402235538794259 0.051748787917833987 0.078369422533049043 -0.037457916258467637 -0.044510076822395439 0.0052551208306159773 -0.043523957286791315 0.068723282424518875 -0.013099180291741348 0.016880730264372167 -0.046463790017816732 -0.040850783717515216
leaf_weight=13.440496556460856 40.737487971782684 6.7326305806636801 7.2927820384502402 46.328256040811539 17.918946731835604 42.89281277358532 7.0211772918701163 55.842482790350914 9.1478687673807126 459.79884827136993 32.878895714879036 7.3486122936010352 48.138696491718292 99.984679466113448 48.346772834658623 35.44570280611515 323.20295570790768 13.715517640113829 97.449174165725708 15.497063770890234 2.6599795669317272 28.255067303776741 52.5752755086869 103.25165808200836 50.739218546077609 19.871103137731552 14.807662054896353 14.480203315615652 14.108735412359236 45.815358502790332
leaf_count=35 88 18 18 82 33 111 18 141 33 1667 88 16 188 293 171 117 1025 70 324 37 4 78 163 275 170 26 30 24 34 140
internal_value=0 -0.00246121 0.0132051 0.0202721 0.00653552 0.00487274 -0.0167362 -0.00876661 -0.00661255 -0.0125123 -0.00958931 -0.0257964 0.00836346 -0.000351648 0.00993605 0.0290379 0.00590856 0.0269222 -0.0143843 0.010042 0.0063466 -0.0274919 -0.0338993 0.0136119 -0.0365592 0.0406711 0.028806 0.0468699 -0.0184571 -0.0349413
internal_weight=0 1422.36 353.366 285.888 586.098 568.179 67.4779 836.262 770.246 552.565 492.678 60.4568 217.681 148.123 449.888 78.3385 371.55 69.558 118.291 190.401 174.904 30.915 66.0158 143.989 59.8871 95.4872 49.159 34.3513 111.558 53.1081
internal_count=5517 4681 836 644 1833 1800 192 2848 2650 1958 1755 174 692 481 1424 228 1196 211 376 482 445 82 198 363 203 162 80 50 358 158
is_linear=0
shrinkage=0.05


Tree=25
num_leaves=31
num_cat=0
split_feature=6 8 5 9 6 7 9 8 9 7 2 6 2 8 9 4 4 10 11 11 10 2 4 7 8 5 7 6 9 5
split_gain=49.4685 15.2473 10.1879 9.91488 16.6327 10.3544 9.28482 9.68545 9.01064 7.81386 7.09538 7.72422 6.04255 5.31986 5.72249 18.2518 6.17189 5.08748 5.0548 4.23267 4.09029 3.93907 3.81927 10.2787 5.96752 7.85214 5.74609 3.64701 3.50732 3.21277
threshold=0.082374309385709901 0.022958181115858269 0.010094312624989407 17.835362021945606 0.04308026425755087 0.68530717942523445 12.325465425193487 0.0022960539084218154 33.258180979623639 0.050347211974280603 -0.032090408641631298 0.046769888460574609 0.5749980809113695 0.046330545585134129 21.407466331622295 0.082948148130223248 0.098487611854407284 -0.29535907933382105 0.9021846146152922 2.4492889098339932 0.12282942545749119 -1.0309164885256477 0.47993617214646572 0.98673977909557076 -0.0090653560752641995 0.15906917483671607 0.90439199069575116 0.030754586769868923 37.131203611167471 0.1346695804364009
decision_type=2 2 2 2 2 2 2 2 2 2 2 2 2 2 2 2 2 2 2 2 2 2 2 2 2 2 2 2 2 2
left_child=1 2 10 6 8 -6 7 -4 -5 -8 17 19 18 14 15 -14 -16 -1 29 -12 22 -20 23 24 25 -2 -24 -19 -25 -3
right_child=20 12 3 4 5 -7 9 -9 -10 -11 11 -13 13 -15 16 -17 -18 27 21 -21 -22 -23 26 28 -26 -27 -28 -29 -30 -31
leaf_value=0.027642442178846583 -0.018060243670275884 0.010254698203799154 0.0023046030497608501 0.014308043776443577 -0.0031649462168323282 0.013617753477419593 0.052615223174861073 0.032654933389245175 0.032118485714114131 -0.005880175812700097 0.04848509686848429 -0.015771375301684137 0.048647176700360936 -0.029875504217051693 -0.027350245513228288 -0.015788202280900911 0.013395380228756665 -0.036378444484106841 -0.044047113518105044 -0.0068755372958670584 -0.023006112080826223 0.0094448238782160396 0.01966215148741263 0.074322219744198365 -0.014973574171377686 0.018929824129015269 -0.027038962467280121 -0.011894253796734531 0.014415185476235668 0.057447935632242625
leaf_weight=6.5543042719364157 25.097747817635536 7.6498221755027789 75.229539081454277 238.92274178564548 206.53687410056591 165.59165748953819 5.8558181375265113 40.404602214694023 101.04885238409042 227.75102345645428 13.478865742683416 13.392431423068045 15.956299558281897 36.641121089458466 44.457880467176437 35.309897437691689 11.750226750969885 20.468218818306923 5.2047150284051886 4.6416032016277304 106.48764341231436 10.159343302249907 7.3510598838329306 4.3715197220444661 208.72601342108101 33.492671310901642 63.331775154918432 59.19387412071228 5.5387928038835526 6.8226166367530823
leaf_count=26 61 26 233 843 605 579 28 167 420 644 63 33 74 74 92 87 41 37 8 13 248 34 27 25 525 123 168 155 24 34
internal_value=0 0.00463597 0.0066747 0.00822265 0.011607 0.00430311 0.00132193 0.0129095 0.0196018 -0.00441387 -0.00728025 0.013023 -0.0091828 -0.013423 -0.00781383 0.00426693 -0.0188324 -0.0147013 0.011298 0.0343043 -0.0144315 -0.00867606 -0.011807 -0.00916178 -0.0110155 0.00308479 -0.022182 -0.0181852 0.0408407 0.0325026
internal_weight=0 1353.02 1179.07 1061.34 712.1 372.129 349.241 115.634 339.972 233.607 117.729 31.5129 173.952 144.115 107.474 51.2662 56.2081 86.2164 29.8365 18.1205 454.397 15.3641 347.91 277.227 267.316 58.5904 70.6828 79.6621 9.91031 14.4724
internal_count=5517 4316 3846 3519 2447 1184 1072 400 1263 672 327 109 470 368 294 161 133 218 102 76 1201 42 953 758 709 184 195 192 49 60
is_linear=0
shrinkage=0.05


Tree=26
num_leaves=31
num_cat=0
split_feature=6 4 9 10 9 9 3 3 7 9 6 9 7 3 5 3 10 8 2 5 8 6 5 8 5 8 8 9 9 7
split_gain=63.5197 40.4693 19.9126 24.9944 19.8453 34.7336 19.2447 17.6509 14.8933 16.0797 17.9483 14.8345 14.2733 14.1353 11.6391 11.3913 9.84001 9.42709 8.23471 21.6575 18.2649 13.2817 10.4081 8.14415 8.1023 10.4731 22.195 15.4152 7.18294 7.17997
threshold=0.076409532161284488 0.17827282273495715 25.330565996974823 -0.11811409118526107 11.890513869331576 17.376106712508378 -4.844593999662262 -1.2292317334810545 0.86113983812311401 47.552444691076943 0.049303231220601942 59.702602574010179 0.95202787210818363 -0.56487116645146584 0.079482683369776888 -1.2900964280737457 0.032321784858730634 -0.0077428445860157529 -0.77957361163946759 0.5045255191128698 0.092330775560343595 0.14947829299405044 0.27399788933433061 0.0014320248376169852 0.013119931445550336 0.019468689523867887 0.044466421435018597 10.782323883649513 48.896776958454765 0.49183260042492222
decision_type=2 2 2 2 2 2 2 2 2 2 2 2 2 2 2 2 2 2 2 2 2 2 2 2 2 2 2 2 2 2
left_child=1 4 3 12 -1 13 -4 -7 9 10 29 -9 -2 -6 -12 -11 -15 -10 21 20 -20 28 -23 -21 -5 27 -27 -26 -8 -3
right_child=2 8 6 24 5 7 18 11 17 15 14 -13 -14 16 -16 -17 -18 -19 19 23 -22 22 -24 -25 25 26 -28 -29 -30 -31
leaf_value=-0.033297396844046118 0.044155800517597654 0.0035507599898691143 -0.042503801724384394 0.050479219535103509 -0.032427132136359463 0.076555439909764461 0.028151188540923328 -0.017631754545959583 -0.046219885150072755 -0.0099103025718721427 0.033171147669058737 0.029458171843288489 -0.025298638762653591 0.02448243437408433 -0.0011434796413975288 0.057082848377154882 0.0023559803404338349 0.014738559661116334 -0.0094806761273033158 0.073123380445475936 0.041566822633375147 0.026549596188631303 -0.032771841947185236 0.029380307851572175 0.043034749764085188 0.023356754084652358 -0.019325230036136898 -0.031816394912637588 0.052137875027253124 -0.026232929265326055
leaf_weight=96.480854317545891 44.968965843319893 48.067267388105392 11.407706037163733 6.2081904113292685 20.555231556296349 5.159266546368598 69.750677958130836 597.70298128575087 17.671171754598621 7.9432045072317115 74.158146888017654 17.206150472164154 8.8534814715385419 82.514868348836899 37.061543732881546 31.542207360267639 128.4921982884407 9.8930538445711118 79.370423272252083 14.217415526509283 22.487699702382088 17.965275883674625 12.566141038201748 42.295575673691928 7.7639869302511206 58.673350840806961 63.338033437728882 60.308160348795354 56.485468834638596 34.946874752640724
leaf_count=369 100 163 37 11 73 10 192 2225 73 23 184 53 30 250 121 62 368 24 204 20 43 35 39 107 17 130 158 161 103 132
internal_value=0 -0.00700403 0.0131623 0.00254593 -0.0118055 -0.0093707 0.0212938 -0.0155414 0.0104189 0.0145185 0.00860534 -0.0163141 0.0327309 0.0071529 0.0217365 0.043606 0.0110086 -0.0243413 0.0236032 0.0155618 0.00178932 0.0317269 0.00213404 0.0403851 -0.00573068 -0.00756652 0.00119986 -0.0232792 0.0388842 -0.00898743
internal_weight=0 1209.4 576.661 250.114 948.112 851.631 326.546 620.068 261.283 233.719 194.234 614.909 53.8224 231.562 111.22 39.4854 211.007 27.5642 315.139 158.371 101.858 156.768 30.5314 56.513 196.292 190.084 122.011 68.0721 126.236 83.0141
internal_count=5517 4130 1387 607 3348 2979 780 2288 782 685 600 2278 130 691 305 85 618 97 743 374 247 369 74 127 477 466 288 178 295 295
is_linear=0
shrinkage=0.05


Tree=27
num_leaves=31
num_cat=0
split_feature=9 2 7 10 8 8 8 5 8 7 8 1 2 5 2 1 9 1 10 8 9 2 5 7 7 6 7 7 8 6
split_gain=26.3525 23.9378 28.7436 20.9864 22.717 20.3201 30.4303 22.8872 24.0673 19.6166 16.3349 14.9309 13.9218 14.2169 11.92 12.1071 11.4676 11.3163 9.97792 9.87111 9.74353 9.2511 13.4935 23.3158 17.4172 12.8779 12.5507 9.05783 8.51324 6.98216
threshold=39.982495695238704 2.869380714748579 0.73456392976156504 0.11575893048723702 0.018915735424980106 0.012813007035059025 -0.0010459457052554406 0.17348260885025504 0.027354602427917794 0.093734151848788735 0.044466421435018597 -12.243265128820893 6.3653893809051079 0.18613124711770124 7.4425307230414779 10.251240359624719 16.239113129780986 2.2008533874509344 -0.11532952539092324 0.03967083513223086 18.907515955351354 -2.9912513842144604 0.081531420882409195 0.86667177893083613 0.94230261462203246 0.1539572165140046 0.35271896504413353 0.99066268950707992 -0.041694415011555692 0.049563155412765368
decision_type=2 2 2 2 2 2 2 2 2 2 2 2 2 2 2 2 2 2 2 2 2 2 2 2 2 2 2 2 2 2
left_child=1 2 5 18 20 6 17 8 -7 -8 12 27 13 16 -12 -16 -3 -1 29 -15 -5 25 23 -23 26 -13 -24 -2 -20 -4
right_child=11 10 3 4 -6 7 9 -9 -10 -11 14 21 -14 19 15 -17 -18 -19 28 -21 -22 22 24 -25 -26 -27 -28 -29 -30 -31
leaf_value=0.011051351675943342 -0.0038192596702098128 0.016218980629003815 0.026504299327236421 0.050498578467608593 -0.049281061952119676 0.017979840711834786 0.021999042215590559 0.043284876829546078 -0.035676285142670759 -0.01800131947813844 0.03835191517976156 -0.036533331841181925 -0.030873940507567074 0.026831280467414582 -0.036107296409890174 0.026398496273422136 -0.028424853870748043 -0.039705855898354819 -0.040849337461295113 -0.027523792452322417 0.0071747597797638327 -0.03404809669178753 -0.032381028883686477 0.058856604139012669 -0.042871673333258212 0.034255692111405847 0.016138669680237305 0.062675751659606871 -0.0080173721399177597 -0.037419706771944165
leaf_weight=374.75579668581486 10.553982831537724 25.848389625549316 4.5244283825159064 23.758796691894531 12.061005964875219 100.39901205897331 35.484508320689201 65.087588831782341 26.393231526017189 224.98787376284599 95.162102222442627 72.218692854046822 22.335064545273781 96.60125133395195 12.176218928769229 21.297673794440925 32.433051183819771 11.312680825591086 22.853570483624935 9.1432546526193601 28.600321337580681 75.266412019729614 15.746713519096373 7.4189313426613799 19.494840763509274 7.0520714670419684 86.78029790520668 9.9493169207125902 145.12210658378899 76.476703584194183
leaf_count=1207 26 61 13 57 35 318 117 162 66 890 161 216 62 218 41 52 108 50 80 19 104 266 81 15 69 16 277 26 447 257
internal_value=0 0.00340587 6.55621e-05 -0.0128536 0.0125831 0.00489465 0.000654135 0.0191831 0.00681071 -0.012552 0.01562 -0.0127585 0.00616028 0.0112032 0.0293248 0.00366185 -0.00862488 0.00956405 -0.019435 0.0221314 0.0268336 -0.0157336 -0.0101178 -0.0257122 0.000449488 -0.0302358 0.00868672 0.0284477 -0.0124843 -0.0338491
internal_weight=0 1466.81 1151.82 313.397 64.4201 838.421 646.541 191.88 126.792 260.472 314.997 304.481 186.361 164.026 128.636 33.4739 58.2814 386.068 248.977 105.745 52.3591 283.978 204.707 82.6853 122.022 79.2708 102.527 20.5033 167.976 81.0011
internal_count=5517 4525 3803 993 196 2810 2264 546 384 1007 722 992 468 406 254 93 169 1257 797 237 161 940 708 281 427 232 358 52 527 270
is_linear=0
shrinkage=0.05


Tree=28
num_leaves=31
num_cat=0
split_feature=6 8 8 3 3 8 9 1 9 10 6 7 8 10 0 1 9 1 8 7 1 4 7 9 7 3 0 8 1 6
split_gain=44.7824 13.8152 9.42375 14.9441 15.4224 15.2793 9.97954 8.52411 13.5311 18.8942 9.33871 7.29208 6.46208 8.13022 7.55841 5.72432 6.46432 6.62746 7.35589 5.86136 4.57335 5.05091 7.03 7.98339 5.59941 4.5417 4.52309 4.00848 3.99974 4.24996
threshold=0.082374309385709901 0.022958181115858269 -0.016083623433032209 0.35887360237941218 1.5538433896563726 -0.020537374162690147 14.587097384667338 -1.6132545816426498 22.001329176321082 0.098546669639125686 0.056660675868843761 0.74784302112965506 -0.011784989183910416 -0.134712333720063 14.147892475726978 0.77507503555489177 24.114796081136522 2.4746986865075091 0.044466421435018597 0.64993050394503316 4.5064045778308364 0.47993617214646572 0.91485421591804583 51.667248928684295 0.90439199069575116 -0.92521418686690649 65.847119784564782 -0.029164518274650619 -5.3067429193883973 0.1020475798779379
decision_type=2 2 2 2 2 2 2 2 2 2 2 2 2 2 2 2 2 2 2 2 2 2 2 2 2 2 2 2 2 2
left_child=1 2 3 6 5 -5 27 12 9 -9 -10 -8 13 -4 -14 25 17 19 -19 -17 21 22 28 26 -23 -3 -24 -1 -2 -30
right_child=20 15 7 4 -6 -7 11 8 10 -11 -12 -13 14 -15 -16 16 -18 18 -20 -21 -22 24 23 -25 -26 -27 -28 -29 29 -31
leaf_value=-0.003123509608005063 0.016678925201394357 -0.010166037378418674 0.065526081087885088 0.04261151868627798 -0.02519363194809256 -0.0041912907203485545 -0.0088224564668276644 0.014357234957512217 0.022450435819147511 -0.007974607013303282 0.00036851838286674674 0.015920025670912132 0.092062976633499494 -0.0021872857772190679 -0.0068397513927565537 0.013833896706332963 -0.026165945934549045 0.021750830411309867 -0.029663067275280341 -0.029234545280990867 -0.020804351890720274 0.019492997787864456 0.023011855858760553 -0.02203213051835462 -0.026558540649071479 0.026578683640004014 -0.024930996902430905 -0.038437434218300634 -0.0088175398052150016 -0.027310319334945949
leaf_weight=10.603974312543867 11.151071906089781 15.601382479071615 7.6542155295610455 47.622130408883095 18.771260946989059 27.512647613883018 127.89640615880489 223.60781878232956 276.32583147287369 164.31594228744507 57.915045291185379 38.81645330786705 1.9599249809980381 10.533390253782271 134.44301201403141 10.606472820043562 57.29142951965332 31.109855100512505 8.9606835246086103 30.957503467798233 153.63441403303295 7.3633563965558997 43.215489789843559 17.23812535405159 63.734801758080721 18.242655068635941 5.5515509098768225 33.179243937134743 103.37406587600708 44.418159306049347
leaf_count=31 40 42 40 214 41 79 348 788 1060 452 177 139 12 31 378 37 122 116 18 63 383 27 164 40 160 72 12 56 282 93
internal_value=0 0.00440668 0.00633834 -0.00124121 0.0153454 0.0254734 -0.00864077 0.0089699 0.0112509 0.00489796 0.0186242 -0.00306156 -0.0016858 0.0263097 -0.00541865 -0.00879932 -0.0132914 -0.00425599 0.0102535 -0.0182442 -0.0138048 -0.0101724 -0.00650069 0.00721565 -0.0217892 0.00964015 0.0175541 -0.0298847 -0.0121967 -0.0143754
internal_weight=0 1353.93 1181.16 304.402 93.906 75.1348 210.496 876.755 722.165 387.924 334.241 166.713 154.591 18.1876 136.403 172.77 138.926 81.6345 40.0705 41.564 449.681 296.047 224.948 66.0052 71.0982 33.844 48.767 43.7832 158.943 147.792
internal_count=5517 4316 3846 908 334 293 574 2938 2477 1240 1237 487 461 71 390 470 356 234 134 100 1201 818 631 216 187 114 176 87 415 375
is_linear=0
shrinkage=0.05


Tree=29
num_leaves=31
num_cat=0
split_feature=6 4 9 9 9 10 3 3 7 9 6 9 7 1 8 1 3 4 10 3 0 8 8 4 10 7 9 10 1 1
split_gain=57.4228 37.2762 18.8977 32.1987 18.2229 22.9914 17.6622 15.1976 13.7724 14.911 16.3061 13.267 12.9757 11.8428 15.3903 14.2899 11.0586 13.7047 11.0363 10.4459 10.0884 9.05676 7.14236 13.4296 11.2483 17.1807 13.3956 8.89245 8.51782 5.98143
