tree
version=v4
num_class=1
num_tree_per_iteration=1
label_index=0
max_feature_idx=26
objective=binary sigmoid:1
feature_names=rsi_14 macd_line macd_signal macd_hist bb_pct_upper bb_pct_lower atr_pct_14 volatility_regime trend_regime_slope adx_14 cmf_20 volume_sma_ratio corr_btc_eth_20 corr_btc_sol_20 corr_btc_eth_100 corr_btc_sol_100 ratio_btc_eth_norm ratio_btc_sol_norm ratio_btc_bnb_norm btc_funding_rate funding_mom_1 funding_mom_3 funding_spread_eth funding_spread_sol funding_spread_bnb primary_confidence primary_pred
feature_infos=[0.097962382442460694:99.999999998887304] [-1774.404831705142:1309.1858766648002] [-1368.0304875570323:1079.04975612524] [-724.23745652278672:480.33584145445934] [-3.7023867264491512:40.604163583488493] [-7.619364627712061:33.974601705586977] [0.044215891671325704:9.0695501201914031] [0.00011574074074074075:1] [-4.4071841230171991:1.0587524821589538] [4.049656739642244:99.999999996030169] [-0.65892430420187253:0.74844118256256587] [0:16.857062130976161] [-0.52134328243992756:0.99935729801761874] [-0.6744404478929763:0.99580288466776956] [0.22963672091790968:0.99667379554003144] [-0.29394905725207238:0.98201189572370018] [-8.5791567685491525:8.554968098643025] [-9.3251055645695953:9.8759635447760203] [-8.8463687565176592:9.4083726974307176] [-0.0030000000000000001:0.0030000000000000001] [-0.0028392700000000001:0.00234622] [-0.0028392700000000001:0.00234622] [-0.0025913500000000001:0.0030226099999999998] [-0.0030999999999999999:0.019670240000000002] [-0.0031936300000000003:0.0028436900000000003] [0.3339374341138639:0.92161722274905367] [-1:1]
tree_sizes=3400

Tree=0
num_leaves=31
num_cat=0
split_feature=26 6 1 6 6 4 6 19 0 5 6 19 3 0 7 11 24 5 7 14 24 22 22 22 16 6 14 0 19 19
split_gain=267624 4172.22 3203.56 1854.99 1226.22 1173.41 845.517 828.566 763.764 521.441 940.887 414.838 364.619 350.151 272.549 343.056 316.808 338.119 398.614 405.525 291.794 290.045 397.511 267.108 264.945 263.801 254.117 241.89 233.777 275.174
threshold=1.0000000180025095e-35 1.1131902472311099 7.4303393597338081 0.19977187467138821 0.57039152010402827 1.4234003549115648 0.23248653811814468 0.00050690000000000012 57.38167730836458 0.61212709072563698 0.57039152010402827 0.00013620000000000003 -12.675803544124772 51.42004866606019 0.59971064814814834 1.1935060766858214 -1.2144999999999995e-05 1.2293518754430146 0.97853009259259272 0.77087159385807447 0.00061850000000000013 1.0000000180025095e-35 2.2450000000000069e-06 1.0000000180025095e-35 -0.37448596039659188 0.5653847237055929 0.81135047063418486 66.7434955676312 0.00029064000000000005 9.7265000000000011e-05
decision_type=2 2 2 2 2 2 2 2 2 2 2 2 2 2 2 2 2 2 2 2 2 2 2 2 2 2 2 2 2 2
left_child=1 5 6 -4 7 13 -2 8 -5 10 -7 23 -12 28 15 -10 -16 -18 19 24 21 -21 -23 25 -19 -8 -9 -6 29 -1
right_child=2 -3 3 4 27 9 11 26 14 -11 12 -13 -14 -15 16 -17 17 18 -20 20 -22 22 -24 -25 -26 -27 -28 -29 -30 -31
leaf_value=-2.1187222023052414 -1.8432241597142234 -1.9413603022386834 -1.8555778929923976 -1.9001919412553812 -1.873292572015069 -2.0909130964452731 -1.8963993065565641 -1.8960426764721861 -1.9020333600825132 -2.111466138193272 -2.0488918251794899 -1.86028100018625 -1.9714340241010082 -2.1222933383162625 -1.9107708702785651 -1.9376098392484742 -1.9196547880434638 -2.1016363729989407 -1.9007699108768126 -1.9711838558290786 -1.8953038244053377 -1.8332402328609285 -1.9449201538718963 -1.8674747178961888 -1.9871144458272658 -1.8759211137569216 -1.8553299181965768 -1.897888533737768 -2.1239877571782539 -2.0992058134287115
leaf_weight=921.67566292732954 844.45118068158627 136.34427397698164 707.51679073274136 1422.0737756639719 911.87874086946249 986.9173286780715 1237.1994773000479 353.69146318733692 685.48443668335676 564.28852530568838 222.66080094873905 1105.9760076552629 72.506191357970238 2901.6286460906267 426.53816005587578 378.70830501616001 492.33817385137081 22.987458437681198 129.40905249863863 425.31777524203062 80.181919127702713 32.622669093310833 237.58636458218098 868.0118609815836 86.956160977482796 1043.8143773898482 226.23883321136236 594.44833030551672 713.1200415790081 2207.538964599371
leaf_count=9081 1515 636 1525 4921 2438 8921 4144 1181 2409 5440 1739 2536 402 28892 1608 1725 1984 215 450 2355 266 49 1133 2173 522 2871 486 2017 7136 20490
internal_value=-2.09993 -2.10601 -1.88885 -1.90171 -1.90673 -2.10863 -1.87065 -1.91388 -1.9183 -2.08744 -2.07686 -1.87609 -2.02986 -2.11443 -1.92689 -1.91469 -1.9336 -1.94006 -1.94995 -1.95714 -1.9495 -1.95574 -1.93144 -1.88164 -2.01106 -1.88703 -1.88016 -1.883 -2.10849 -2.10495
internal_weight=0 8726.68 12313.4 7213.98 6506.46 8590.34 5099.45 5000.13 4420.2 1846.37 1282.08 4255 295.167 6743.96 2998.13 1064.19 1933.94 1507.4 1015.06 885.652 775.709 695.527 270.209 3149.03 109.944 2281.01 579.93 1506.33 3842.33 3129.21
internal_count=121260 82737 38523 25284 23759 82101 13239 19304 17637 16502 11062 11724 2141 65599 12716 4134 8582 6974 4990 4540 3803 3537 1182 9188 737 7015 1667 4455 36707 29571
is_linear=0
shrinkage=1


end of trees

feature_importances:
atr_pct_14=6
btc_funding_rate=4
rsi_14=3
funding_spread_eth=3
bb_pct_lower=2
volatility_regime=2
corr_btc_eth_100=2
funding_spread_bnb=2
macd_line=1
macd_hist=1
bb_pct_upper=1
volume_sma_ratio=1
ratio_btc_eth_norm=1
primary_pred=1

parameters:
[boosting: gbdt]
[objective: binary]
[metric: binary_logloss]
[tree_learner: serial]
[device_type: cpu]
[data_sample_strategy: bagging]
[data: ]
[valid: ]
[num_iterations: 150]
[learning_rate: 0.03]
[num_leaves: 31]
[num_threads: -1]
[seed: 42]
[deterministic: 0]
[force_col_wise: 0]
[force_row_wise: 0]
[histogram_pool_size: -1]
[max_depth: -1]
[min_data_in_leaf: 100]
[min_sum_hessian_in_leaf: 0.001]
[bagging_fraction: 0.7]
[pos_bagging_fraction: 1]
[neg_bagging_fraction: 1]
[bagging_freq: 5]
[bagging_seed: 400]
[feature_fraction: 0.7]
[feature_fraction_bynode: 1]
[feature_fraction_seed: 30056]
[extra_trees: 0]
[extra_seed: 12879]
[early_stopping_round: 0]
[first_metric_only: 0]
[max_delta_step: 0]
[lambda_l1: 0]
[lambda_l2: 0]
[linear_lambda: 0]
[min_gain_to_split: 0]
[drop_rate: 0.1]
[max_drop: 50]
[skip_drop: 0.5]
[xgboost_dart_mode: 0]
[uniform_drop: 0]
[drop_seed: 17869]
[top_rate: 0.2]
[other_rate: 0.1]
[min_data_per_group: 100]
[max_cat_threshold: 32]
[cat_l2: 10]
[cat_smooth: 10]
[max_cat_to_onehot: 4]
[top_k: 20]
[monotone_constraints: ]
[monotone_constraints_method: basic]
[monotone_penalty: 0]
[feature_contri: ]
[forcedsplits_filename: ]
[refit_decay_rate: 0.9]
[cegb_tradeoff: 1]
[cegb_penalty_split: 0]
[cegb_penalty_feature_lazy: ]
[cegb_penalty_feature_coupled: ]
[path_smooth: 0]
[interaction_constraints: ]
[verbosity: -1]
[saved_feature_importance_type: 0]
[use_quantized_grad: 0]
[num_grad_quant_bins: 4]
[quant_train_renew_leaf: 0]
[stochastic_rounding: 1]
[linear_tree: 0]
[max_bin: 255]
[max_bin_by_feature: ]
[min_data_in_bin: 3]
[bin_construct_sample_cnt: 200000]
[data_random_seed: 175]
[is_enable_sparse: 1]
[enable_bundle: 1]
[use_missing: 1]
[zero_as_missing: 0]
[feature_pre_filter: 1]
[pre_partition: 0]
[two_round: 0]
[header: 0]
[label_column: ]
[weight_column: ]
[group_column: ]
[ignore_column: ]
[categorical_feature: ]
[forcedbins_filename: ]
[precise_float_parser: 0]
[parser_config_file: ]
[objective_seed: 16083]
[num_class: 1]
[is_unbalance: 0]
[scale_pos_weight: 8.16562]
[sigmoid: 1]
[boost_from_average: 1]
[reg_sqrt: 0]
[alpha: 0.9]
[fair_c: 1]
[poisson_max_delta_step: 0.7]
[tweedie_variance_power: 1.5]
[lambdarank_truncation_level: 30]
[lambdarank_norm: 1]
[label_gain: ]
[lambdarank_position_bias_regularization: 0]
[eval_at: ]
[multi_error_top_k: 1]
[auc_mu_weights: ]
[num_machines: 1]
[local_listen_port: 12400]
[time_out: 120]
[machine_list_filename: ]
[machines: ]
[gpu_platform_id: -1]
[gpu_device_id: -1]
[gpu_use_dp: 0]
[num_gpu: 1]

end of parameters

pandas_categorical:[]
