tree
version=v4
num_class=1
num_tree_per_iteration=1
label_index=0
max_feature_idx=26
objective=binary sigmoid:1
feature_names=rsi_14 macd_line macd_signal macd_hist bb_pct_upper bb_pct_lower atr_pct_14 volatility_regime trend_regime_slope adx_14 cmf_20 volume_sma_ratio corr_btc_eth_20 corr_btc_sol_20 corr_btc_eth_100 corr_btc_sol_100 ratio_btc_eth_norm ratio_btc_sol_norm ratio_btc_bnb_norm btc_funding_rate funding_mom_1 funding_mom_3 funding_spread_eth funding_spread_sol funding_spread_bnb primary_confidence primary_pred
feature_infos=[0.53727724572310365:99.999999998934598] [-1690.901090063031:1231.6490948089195] [-1511.8091391656988:1106.7134824979521] [-672.62843926828532:589.85614023043024] [-4.5605142734768398:68.169613636344764] [-8.272072965778154:30.365215621635095] [0.072819499472431784:9.8474039940488254] [0.00011574074074074075:1] [-6.4882943773682884:1.2905706528354424] [2.843857107672537:99.999999996588699] [-0.52344237776460445:0.68044717647840924] [0:13.927426072485895] [-0.79243925073022092:0.9779389128785565] [-0.77124945522018729:0.92765518086385113] [-0.44660453813882012:0.92778728957997258] [-0.34672848280903046:0.79978973518134944] [-9.1493623328052962:8.5907983380234132] [-7.8705101368651542:9.8421236695048151] [-9.3206432771613805:8.8955707779080271] [-0.0030000000000000001:0.00248993] [-0.0028392700000000001:0.00234622] [-0.0028392700000000001:0.00234622] [-0.00194918:0.0030226099999999998] [-0.0030999999999999999:0.019670240000000002] [-0.0031936300000000003:0.0028436900000000003] [0.33371835652059467:0.91376484711582007] [-1:1]
tree_sizes=3386

Tree=0
num_leaves=31
num_cat=0
split_feature=26 6 6 19 1 19 19 11 1 18 5 6 6 18 19 0 22 15 6 6 6 5 1 16 24 3 11 24 11 10
split_gain=58251.2 1014.6 491.329 287.102 254.817 180.255 276.929 143.093 134.437 123.494 87.9823 85.9573 76.8141 74.0336 70.3308 77.4065 69.7358 73.2921 76.8485 95 59.1963 56.9932 56.5448 53.3218 51.119 49.5249 44.8287 41.9075 40.6252 40.3148
threshold=1.0000000180025095e-35 1.7116631215499047 0.32634566681058935 0.00013009000000000005 -10.054431574559201 9.6095000000000021e-05 0.00010019000000000001 1.8301756813777832 -17.214129198833685 -0.3101728440017677 0.78386682484921011 0.55921095755061223 0.38362218903441631 0.61919203284453272 0.00081919000000000013 67.593428026611079 -0.00039594499999999992 0.40436065758155298 0.45442785391139845 0.84221550046372295 0.87940856320557104 -0.34224047402114027 -105.30927593386876 -1.2345249038016031 -5.0094999999999994e-05 13.796055766295494 1.0655319847609015 0.00013044000000000003 0.5269883252343911 -0.14351622559560254
decision_type=2 2 2 2 2 2 2 2 2 2 2 2 2 2 2 2 2 2 2 2 2 2 2 2 2 2 2 2 2 2
left_child=1 5 10 4 11 -1 8 9 12 28 -2 -4 -7 -12 15 -5 -11 18 24 23 -10 -8 -13 -20 -18 -15 -26 -27 -6 -14
right_child=2 -3 3 14 7 6 21 -9 20 16 13 22 29 25 -16 -17 17 -19 19 -21 -22 -23 -24 -25 26 27 -28 -29 -30 -31
leaf_value=-1.2125641380036887 -1.0619957154602249 -1.1230349946138076 -1.07328975189111 -1.0773315301762179 -1.0684225772261045 -1.2047336071743406 -1.1766609750421471 -1.109751930127411 -1.2044860204110412 -1.0760707243297658 -1.0674083357150317 -1.0805390806958379 -1.1976487788248769 -1.0801737060306715 -1.0663577438166791 -1.0942980383683194 -1.070193234362576 -1.0844240730073116 -1.090391773844233 -1.089224067030035 -1.1848702869564214 -1.2111436393661568 -1.0933026243060486 -1.1128350202243349 -1.0895315915434158 -1.1386787323312153 -1.1102613244054176 -1.0902698294684774 -1.0864740225946865 -1.1839856544180132
leaf_weight=1682.8389651179314 912.15613347291946 141.92481073737144 671.48574802279472 1360.6754332184792 129.94447207450867 246.3815735578537 44.209202170372009 537.86042478680611 1217.2045094072819 133.49467062950134 176.82963836193085 658.68707278370857 237.57498863339424 76.127067804336548 401.85053756833076 294.36716875433922 84.814221143722534 285.06637936830521 108.83174443244934 254.91680461168289 156.23333296179771 1781.0573791265488 594.18061822652817 764.80798363685608 322.80721181631088 34.185618072748184 132.39543110132217 30.413517028093338 821.94316977262497 1068.497935295105
leaf_count=9122 1774 476 1481 3128 272 1291 203 1639 6371 303 366 1563 1206 180 822 792 181 702 283 656 747 9596 1585 2385 833 127 405 79 2063 5087
internal_value=-1.17937 -1.20238 -1.08432 -1.08718 -1.09075 -1.20413 -1.20114 -1.09549 -1.19542 -1.09296 -1.06673 -1.08195 -1.18937 -1.08033 -1.07762 -1.08035 -1.09705 -1.09848 -1.10088 -1.10534 -1.20225 -1.21031 -1.08659 -1.11004 -1.09158 -1.09657 -1.09556 -1.11589 -1.08401 -1.18647
internal_weight=0 6575.92 8787.84 7558.13 5501.24 6434 4751.16 3576.88 2925.89 3039.02 1229.71 1924.35 1552.45 317.556 2056.89 1655.04 2087.13 1953.64 1668.57 1128.56 1373.44 1825.27 1252.87 873.64 540.017 140.726 455.203 64.5991 951.888 1306.07
internal_count=55718 34099 21619 19093 14351 33623 24501 9722 14702 8083 2526 4629 7584 752 4742 3920 5748 5445 4743 3324 7118 9799 3148 2668 1419 386 1238 206 2335 6293
is_linear=0
shrinkage=1


end of trees

feature_importances:
atr_pct_14=7
btc_funding_rate=4
macd_line=3
volume_sma_ratio=3
bb_pct_lower=2
ratio_btc_bnb_norm=2
funding_spread_bnb=2
rsi_14=1
macd_hist=1
cmf_20=1
corr_btc_sol_100=1
ratio_btc_eth_norm=1
funding_spread_eth=1
primary_pred=1

parameters:
[boosting: gbdt]
[objective: binary]
[metric: binary_logloss]
[tree_learner: serial]
[device_type: cpu]
[data_sample_strategy: bagging]
[data: ]
[valid: ]
[num_iterations: 150]
[learning_rate: 0.03]
[num_leaves: 31]
[num_threads: -1]
[seed: 42]
[deterministic: 0]
[force_col_wise: 0]
[force_row_wise: 0]
[histogram_pool_size: -1]
[max_depth: -1]
[min_data_in_leaf: 100]
[min_sum_hessian_in_leaf: 0.001]
[bagging_fraction: 0.7]
[pos_bagging_fraction: 1]
[neg_bagging_fraction: 1]
[bagging_freq: 5]
[bagging_seed: 400]
[feature_fraction: 0.7]
[feature_fraction_bynode: 1]
[feature_fraction_seed: 30056]
[extra_trees: 0]
[extra_seed: 12879]
[early_stopping_round: 0]
[first_metric_only: 0]
[max_delta_step: 0]
[lambda_l1: 0]
[lambda_l2: 0]
[linear_lambda: 0]
[min_gain_to_split: 0]
[drop_rate: 0.1]
[max_drop: 50]
[skip_drop: 0.5]
[xgboost_dart_mode: 0]
[uniform_drop: 0]
[drop_seed: 17869]
[top_rate: 0.2]
[other_rate: 0.1]
[min_data_per_group: 100]
[max_cat_threshold: 32]
[cat_l2: 10]
[cat_smooth: 10]
[max_cat_to_onehot: 4]
[top_k: 20]
[monotone_constraints: ]
[monotone_constraints_method: basic]
[monotone_penalty: 0]
[feature_contri: ]
[forcedsplits_filename: ]
[refit_decay_rate: 0.9]
[cegb_tradeoff: 1]
[cegb_penalty_split: 0]
[cegb_penalty_feature_lazy: ]
[cegb_penalty_feature_coupled: ]
[path_smooth: 0]
[interaction_constraints: ]
[verbosity: -1]
[saved_feature_importance_type: 0]
[use_quantized_grad: 0]
[num_grad_quant_bins: 4]
[quant_train_renew_leaf: 0]
[stochastic_rounding: 1]
[linear_tree: 0]
[max_bin: 255]
[max_bin_by_feature: ]
[min_data_in_bin: 3]
[bin_construct_sample_cnt: 200000]
[data_random_seed: 175]
[is_enable_sparse: 1]
[enable_bundle: 1]
[use_missing: 1]
[zero_as_missing: 0]
[feature_pre_filter: 1]
[pre_partition: 0]
[two_round: 0]
[header: 0]
[label_column: ]
[weight_column: ]
[group_column: ]
[ignore_column: ]
[categorical_feature: ]
[forcedbins_filename: ]
[precise_float_parser: 0]
[parser_config_file: ]
[objective_seed: 16083]
[num_class: 1]
[is_unbalance: 0]
[scale_pos_weight: 3.25232]
[sigmoid: 1]
[boost_from_average: 1]
[reg_sqrt: 0]
[alpha: 0.9]
[fair_c: 1]
[poisson_max_delta_step: 0.7]
[tweedie_variance_power: 1.5]
[lambdarank_truncation_level: 30]
[lambdarank_norm: 1]
[label_gain: ]
[lambdarank_position_bias_regularization: 0]
[eval_at: ]
[multi_error_top_k: 1]
[auc_mu_weights: ]
[num_machines: 1]
[local_listen_port: 12400]
[time_out: 120]
[machine_list_filename: ]
[machines: ]
[gpu_platform_id: -1]
[gpu_device_id: -1]
[gpu_use_dp: 0]
[num_gpu: 1]

end of parameters

pandas_categorical:[]
