tree
version=v4
num_class=1
num_tree_per_iteration=1
label_index=0
max_feature_idx=26
objective=binary sigmoid:1
feature_names=rsi_14 macd_line macd_signal macd_hist bb_pct_upper bb_pct_lower atr_pct_14 volatility_regime trend_regime_slope adx_14 cmf_20 volume_sma_ratio corr_btc_eth_20 corr_btc_sol_20 corr_btc_eth_100 corr_btc_sol_100 ratio_btc_eth_norm ratio_btc_sol_norm ratio_btc_bnb_norm btc_funding_rate funding_mom_1 funding_mom_3 funding_spread_eth funding_spread_sol funding_spread_bnb primary_confidence primary_pred
feature_infos=[0.76444887546234952:99.707802230190239] [-2375.7155869726266:1893.219029181404] [-2091.3088083381749:1752.390191175451] [-726.98026567591182:619.55904659107716] [-5.1010773958750715:93.173568177279378] [-13.128401177829078:25.636783291228777] [0.204908855339822:11.937688437840203] [0.00011574074074074075:1] [-6.2974755590355729:1.8362198251497379] [4.5736562994327832:98.482851525204723] [-0.51384070861637798:0.48312161144952126] [0.0047041929806354334:10.446859804334922] [-0.81741071002444166:0.86478179735599259] [-0.74426925413265177:0.86433291613934993] [-0.41682192042510252:0.54390876695496115] [-0.29688980865149811:0.53593011902081389] [-7.6388662984450475:6.7027294858619548] [-6.2699458391520553:9.7975389783208335] [-7.1962270559236474:8.3125540065238521] [-0.0030000000000000001:0.0030000000000000001] [-0.0028392700000000001:0.0024987999999999998] [-0.0028392700000000001:0.0024987999999999998] [-0.0025913500000000001:0.0030226099999999998] [-0.0030999999999999999:0.019670240000000002] [-0.0031936300000000003:0.0028436900000000003] [0.33411600470628028:0.54475657705400771] [-1:1]
tree_sizes=3440

Tree=0
num_leaves=31
num_cat=0
split_feature=26 6 6 6 6 11 18 4 18 6 7 19 6 19 24 22 15 22 22 19 4 14 3 15 13 22 24 10 18 5
split_gain=4357 296.023 181.16 108.752 81.1339 76.2719 61.657 44.9792 44.3995 40.1114 40.724 31.2877 28.8976 26.6793 26.4273 26.0119 25.4595 31.74 30.2836 26.6484 24.1766 25.4667 53.7763 29.3415 23.0037 22.98 23.8862 25.0431 22.4889 21.6421
threshold=1.0000000180025095e-35 0.76281383417314552 0.95250852811242381 1.1289358295852399 3.1680097285954116 0.74558676540180435 0.65273700626976749 -0.057612630885298118 0.29344851862040844 0.530669503364258 0.27604664595283629 -1.4539999999999998e-05 0.99206411424846508 0.00038055500000000003 0.00056780500000000011 0.00016708500000000003 -0.084770923599779585 8.3020000000000001e-05 -0.00010583499999999999 2.6735000000000004e-05 1.5291010607307416 -0.014420494586333852 6.7296720630036928 0.13499820019429945 -0.091111578890129996 -0.00011027999999999999 6.0445000000000008e-05 0.12178750746098609 -0.90345749091874394 3.0583173073644701
decision_type=2 2 2 2 2 2 2 2 2 2 2 2 2 2 2 2 2 2 2 2 2 2 2 2 2 2 2 2 2 2
left_child=2 7 6 8 5 25 9 -2 -3 -1 11 -11 14 20 16 -5 -10 18 -18 -20 21 22 -13 -23 -12 26 27 -4 -7 -27
right_child=1 3 4 15 -6 28 -8 -9 12 10 24 13 -14 -15 -16 -17 17 -19 19 -21 -22 23 -24 -25 -26 29 -28 -29 -30 -31
leaf_value=-0.61929345546418268 -0.54109561428294262 -0.53016015849341602 -0.60697352314363762 -0.55182709072744396 -0.54593501861552374 -0.57480335589235776 -0.61442752030200454 -0.51815895769996778 -0.52830525505645876 -0.61497280147126265 -0.59121623920021527 -0.60356210355149253 -0.53121494964189087 -0.61377172293746574 -0.5281773233075483 -0.53195289870726425 -0.53778634637593381 -0.52745864773938955 -0.57702437782070559 -0.55436176980955709 -0.57455841908844085 -0.60376676052651002 -0.54553041562600479 -0.57538875314190752 -0.60772902700143261 -0.59496972378760171 -0.56090620214729736 -0.56998314257389571 -0.5853541405948014 -0.60938742492194609
leaf_weight=76.007652401924133 90.730203658342361 402.12573584914207 43.226617604494095 1278.7017702162266 43.19363808631897 269.84909176826477 285.74530076980591 506.53171691298485 46.791387528181076 41.261210680007935 102.39098116755486 27.834915697574615 145.56548538804054 31.932639479637146 61.960542857646942 62.150865375995636 72.430293709039688 42.757356405258179 61.224931746721268 196.80528405308723 125.69919195771217 130.21859630942345 29.712461918592453 43.828298300504684 293.77308294177055 324.42759051918983 30.093106955289841 26.613931357860565 557.3591545522213 131.75653302669525
leaf_count=318 275 1154 173 4078 134 952 1175 1364 133 170 386 110 420 131 176 180 216 121 218 635 443 515 92 155 1179 1241 100 92 2053 532
internal_value=-0.583885 -0.540519 -0.593631 -0.545275 -0.586424 -0.587688 -0.602282 -0.521643 -0.537942 -0.598438 -0.59652 -0.590132 -0.542929 -0.587499 -0.546467 -0.550906 -0.549165 -0.551781 -0.554928 -0.559739 -0.585151 -0.5909 -0.5736 -0.596621 -0.603461 -0.59628 -0.58325 -0.592878 -0.581912 -0.599134
internal_weight=0 2967.78 2614.92 2370.51 1426.52 1383.33 1188.4 597.262 1029.66 902.659 826.651 430.487 627.535 389.226 481.97 1340.85 420.009 373.218 330.461 258.03 357.293 231.594 57.5474 174.047 396.164 556.118 99.9337 69.8405 827.208 456.184
internal_count=18921 8970 9951 7331 5277 5143 4674 1639 3073 3499 3181 1616 1919 1446 1499 4258 1323 1190 1069 853 1315 872 202 670 1565 2138 365 265 3005 1773
is_linear=0
shrinkage=1


end of trees

feature_importances:
atr_pct_14=6
funding_spread_eth=4
ratio_btc_bnb_norm=3
btc_funding_rate=3
bb_pct_upper=2
corr_btc_sol_100=2
funding_spread_bnb=2
macd_hist=1
bb_pct_lower=1
volatility_regime=1
cmf_20=1
volume_sma_ratio=1
corr_btc_sol_20=1
corr_btc_eth_100=1
primary_pred=1

parameters:
[boosting: gbdt]
[objective: binary]
[metric: binary_logloss]
[tree_learner: serial]
[device_type: cpu]
[data_sample_strategy: bagging]
[data: ]
[valid: ]
[num_iterations: 150]
[learning_rate: 0.03]
[num_leaves: 31]
[num_threads: -1]
[seed: 42]
[deterministic: 0]
[force_col_wise: 0]
[force_row_wise: 0]
[histogram_pool_size: -1]
[max_depth: -1]
[min_data_in_leaf: 100]
[min_sum_hessian_in_leaf: 0.001]
[bagging_fraction: 0.7]
[pos_bagging_fraction: 1]
[neg_bagging_fraction: 1]
[bagging_freq: 5]
[bagging_seed: 400]
[feature_fraction: 0.7]
[feature_fraction_bynode: 1]
[feature_fraction_seed: 30056]
[extra_trees: 0]
[extra_seed: 12879]
[early_stopping_round: 0]
[first_metric_only: 0]
[max_delta_step: 0]
[lambda_l1: 0]
[lambda_l2: 0]
[linear_lambda: 0]
[min_gain_to_split: 0]
[drop_rate: 0.1]
[max_drop: 50]
[skip_drop: 0.5]
[xgboost_dart_mode: 0]
[uniform_drop: 0]
[drop_seed: 17869]
[top_rate: 0.2]
[other_rate: 0.1]
[min_data_per_group: 100]
[max_cat_threshold: 32]
[cat_l2: 10]
[cat_smooth: 10]
[max_cat_to_onehot: 4]
[top_k: 20]
[monotone_constraints: ]
[monotone_constraints_method: basic]
[monotone_penalty: 0]
[feature_contri: ]
[forcedsplits_filename: ]
[refit_decay_rate: 0.9]
[cegb_tradeoff: 1]
[cegb_penalty_split: 0]
[cegb_penalty_feature_lazy: ]
[cegb_penalty_feature_coupled: ]
[path_smooth: 0]
[interaction_constraints: ]
[verbosity: -1]
[saved_feature_importance_type: 0]
[use_quantized_grad: 0]
[num_grad_quant_bins: 4]
[quant_train_renew_leaf: 0]
[stochastic_rounding: 1]
[linear_tree: 0]
[max_bin: 255]
[max_bin_by_feature: ]
[min_data_in_bin: 3]
[bin_construct_sample_cnt: 200000]
[data_random_seed: 175]
[is_enable_sparse: 1]
[enable_bundle: 1]
[use_missing: 1]
[zero_as_missing: 0]
[feature_pre_filter: 1]
[pre_partition: 0]
[two_round: 0]
[header: 0]
[label_column: ]
[weight_column: ]
[group_column: ]
[ignore_column: ]
[categorical_feature: ]
[forcedbins_filename: ]
[precise_float_parser: 0]
[parser_config_file: ]
[objective_seed: 16083]
[num_class: 1]
[is_unbalance: 0]
[scale_pos_weight: 1.79299]
[sigmoid: 1]
[boost_from_average: 1]
[reg_sqrt: 0]
[alpha: 0.9]
[fair_c: 1]
[poisson_max_delta_step: 0.7]
[tweedie_variance_power: 1.5]
[lambdarank_truncation_level: 30]
[lambdarank_norm: 1]
[label_gain: ]
[lambdarank_position_bias_regularization: 0]
[eval_at: ]
[multi_error_top_k: 1]
[auc_mu_weights: ]
[num_machines: 1]
[local_listen_port: 12400]
[time_out: 120]
[machine_list_filename: ]
[machines: ]
[gpu_platform_id: -1]
[gpu_device_id: -1]
[gpu_use_dp: 0]
[num_gpu: 1]

end of parameters

pandas_categorical:[]
