tree
version=v4
num_class=1
num_tree_per_iteration=1
label_index=0
max_feature_idx=35
objective=binary sigmoid:1
feature_names=rsi_14 macd_line macd_signal macd_hist bb_pct_upper bb_pct_lower atr_pct_14 volatility_regime trend_regime_slope adx_14 cmf_20 volume_sma_ratio return_1 return_2 return_3 return_5 ma10_ratio ma30_ratio bb_zscore macd_hist_ratio volume_ratio fft_real fft_imag corr_btc_eth_20 corr_btc_sol_20 corr_btc_eth_100 corr_btc_sol_100 ratio_btc_eth_norm ratio_btc_sol_norm ratio_btc_bnb_norm btc_funding_rate funding_mom_1 funding_mom_3 funding_spread_eth funding_spread_sol funding_spread_bnb
feature_infos=[18.957345845780793:83.464566009052277] [-0.24550089500743866:0.3607655813377022] [-0.16890656638021923:0.30824100488338757] [-0.11985521317661002:0.12770762337998665] [-0.33268066826119957:2.49009322718479] [-0.51791894106589853:3.0139797667601305] [0.15067709326520018:0.71017955129909549] [0.0076923076923076927:1] [-0.12070108600147605:0.20621560442422551] [7.1066694281784875:73.633299238553221] [-0.32320141495393778:0.29644256061487251] [0.19624786116715104:6.702790515338954] [-0.008743610438525784:0.011956378925239708] [-0.010407180954859041:0.015110264089300385] [-0.012595470990218405:0.015109709630797497] [-0.0156773415516549:0.021679148600709519] [-0.011824210710235282:0.013653612925763959] [-0.014189092470465171:0.015601657594725911] [-3.4942069178784618:3.7274320664893672] [-0.003822456285552125:0.0023992134846785931] [0.19624786116715104:6.702790515338954] [-5.8001624630448312:3.2810014009501591] [-4.3051299702618966:6.3098122026319476] [0.99999999999998601:1.0000000000000002] [0.99999999999998601:1.0000000000000002] [0:1.0000000000000004] [0:1.0000000000000004] none none none none none none none none none
tree_sizes=1289 1282 1280 1373 1507 1392 1392 1073 1507 1396 1377 1489 1379 1376 1483 1395 1503 1387 1488 1488 1284 1390 1396 1399 1498 1280 1282 1287 1389 1081 1272 1275 1398 1393 1172 1478 1286 1487 1074 1482 1390 1392 1496 1398 1276

Tree=0
num_leaves=11
num_cat=0
split_feature=1 9 14 22 10 1 10 17 15 13
split_gain=28.6484 20.1764 11.5234 9.85556 16.3508 7.25484 7.91993 7.09738 6.84181 1.33358
threshold=0.14625252464682606 18.781157617498298 0.0015614623401583041 0.4110504166342166 -0.047956808802711935 0.078139103163024984 0.05448357723648535 -0.00011915351169671557 0.0022710744108440655 -0.00077769067897498479
decision_type=2 2 2 2 2 2 2 2 2 2
left_child=1 3 5 4 -1 6 7 -3 -4 -2
right_child=9 2 8 -5 -6 -7 -8 -9 -10 -11
leaf_value=-0.034405528865399361 -0.019362074854519309 0.034200288656625347 0.03091319389876215 -0.035945935294440214 0.034826626248886619 0.06770368719575931 0.05630188100240386 -0.0082140865328151763 -0.012106587212322679 -0.043263892777596985
leaf_weight=4.6622604429721841 3.4558040555566549 14.395040005445479 6.681308448314665 5.6436512172222129 8.9908480942249298 7.8157962262630454 10.370029300451277 4.7132927775383058 6.6276590526103973 5.3583936262875778
leaf_count=23 17 53 25 28 33 24 34 21 30 30
internal_value=0.0172584 0.0235016 0.0334547 -0.00259903 0.0111852 0.0420068 0.0351937 0.0237383 0.00949001 -0.0338926
internal_weight=0 69.8999 50.6031 19.2968 13.6531 37.2942 29.4784 19.1083 13.309 8.8142
internal_count=318 271 187 84 56 132 108 74 55 47
is_linear=0
shrinkage=1


Tree=1
num_leaves=11
num_cat=0
split_feature=1 9 14 22 10 1 10 17 16 15
split_gain=26.9624 18.9904 10.8492 9.27554 15.3879 6.84009 7.46053 6.67856 6.504 1.28326
threshold=0.14625252464682606 18.781157617498298 0.0015614623401583041 0.4110504166342166 -0.047956808802711935 0.078139103163024984 0.05448357723648535 -0.00011915351169671557 0.0021870982807611567 0.0013088898979799481
decision_type=2 2 2 2 2 2 2 2 2 2
left_child=1 3 5 4 -1 6 7 -3 -4 -2
right_child=9 2 8 -5 -6 -7 -8 -9 -10 -11
leaf_value=-0.05012506587311414 -0.0355063940471953 0.016437308600409636 0.008625210868642286 -0.051620996485543684 0.01704517929882518 0.04898507243688939 0.037899769124035615 -0.024706798418890574 -0.034752692373427797 -0.058909319885721852
leaf_weight=4.6612279713153848 3.4944637194275838 14.391903549432753 8.3500251173973066 5.6422488540410987 8.9887917041778564 7.8074277788400641 10.362587258219717 4.7135643213987413 4.9580942988395682 5.3175597228109837
leaf_count=23 19 53 32 28 33 24 34 21 23 28
internal_value=0 0.00605818 0.0157167 -0.0192661 -0.00589221 0.0240183 0.0174035 0.00628653 -0.00753573 -0.0496287
internal_weight=0 69.8759 50.5836 19.2923 13.65 37.2755 29.4681 19.1055 13.3081 8.81202
internal_count=318 271 187 84 56 132 108 74 55 47
is_linear=0
shrinkage=0.03


Tree=2
num_leaves=11
num_cat=0
split_feature=1 9 9 5 22 10 19 10 17 14
split_gain=25.4067 17.8849 10.4258 20.12 8.74563 14.4978 7.25674 8.81191 8.28276 1.23936
threshold=0.14625252464682606 18.781157617498298 39.714003558991685 0.41608003472264687 0.4110504166342166 -0.047956808802711935 -0.001593836060001052 0.030196886959591541 -0.00030200784443336142 -0.0012730757953671732
decision_type=2 2 2 2 2 2 2 2 2 2
left_child=1 4 6 -4 5 -1 -3 8 -8 -2
right_child=9 2 3 -5 -6 -7 7 -9 -10 -11
leaf_value=-0.048694769958223541 -0.034266427844289751 0.053263156085464662 0.01926817398195458 -0.053018572462830794 -0.050153275401738424 0.016540019143064355 0.020672053458375379 0.038087176757652476 -0.022219283547789265 -0.05730306334086168
leaf_weight=4.6542883813381204 3.471620287746191 6.3720611482858613 10.207611382007597 5.2465567141771308 5.6332658082246772 8.9854719638824463 10.557946860790251 11.581861749291418 6.5758637040853598 5.3270958922803384
leaf_count=23 18 19 37 26 28 33 38 38 29 29
internal_value=0 0.0058817 0.0152582 -0.00527255 -0.0187073 -0.00572001 0.0243008 0.017874 0.00421059 -0.0482137
internal_weight=0 69.8149 50.5419 15.4542 19.273 13.6398 35.0877 28.7157 17.1338 8.79872
internal_count=318 271 187 63 84 56 124 105 67 47
is_linear=0
shrinkage=0.03


Tree=3
num_leaves=12
num_cat=0
split_feature=1 9 9 5 22 10 11 7 22 21 12
split_gain=23.9679 16.8511 9.82615 18.9325 8.25978 13.6731 5.1125 6.28324 5.46984 2.16525 1.22908
threshold=0.14625252464682606 18.781157617498298 39.714003558991685 0.41608003472264687 0.4110504166342166 -0.047956808802711935 1.0938881521027941 0.25147196574334274 0.46318258796886302 0.85307597283554115 -0.000390752570874564
decision_type=2 2 2 2 2 2 2 2 2 2 2
left_child=1 4 6 -4 5 -1 7 -3 -8 -9 -2
right_child=10 2 3 -5 -6 -7 8 9 -10 -11 -12
leaf_value=-0.047360968202471196 -0.03299453151319278 0.0035547282784444585 0.01870147335373841 -0.051426059367166543 -0.048788110782657421 0.016051916365712106 -0.014922274119882926 0.046554810548488 0.027619671222342709 0.024314209747956769 -0.055963889217848208
leaf_weight=4.6419796645641336 3.4643740374594927 5.6350391060113934 10.201508209109305 5.2467346638441077 5.6173931807279578 8.9810051620006561 5.3944890201091749 12.841958910226824 5.4866241663694382 5.683114990592002 5.3106423132121545
leaf_count=23 18 22 37 26 28 33 23 40 19 20 29
internal_value=0 0.00571238 0.0148164 -0.00511616 -0.0181778 -0.00555578 0.0236038 0.031294 0.00652881 0.0397318 -0.0468956
internal_weight=0 69.7298 50.4895 15.4482 19.2404 13.623 35.0412 24.1601 10.8811 18.5251 8.77502
internal_count=318 271 187 63 84 56 124 82 42 60 47
is_linear=0
shrinkage=0.03


Tree=4
num_leaves=13
num_cat=0
split_feature=1 8 19 1 15 15 19 19 10 1 15 15
split_gain=22.6333 9.63234 19.524 8.45372 8.94026 7.26151 6.85541 8.34981 4.71116 3.8884 1.17975 0.89964
threshold=0.14625252464682606 0.076013274688249519 -0.00093667148909862849 0.012214534392420264 -0.0014727762528788932 0.0015004983703785781 0.00047449931095913103 0.00094403215975850485 -0.06342325774230452 0.060288500567466492 0.0013088898979799481 0.0016926791818199229
decision_type=2 2 2 2 2 2 2 2 2 2 2 2
left_child=1 3 5 4 -1 8 -6 -8 -3 -5 -2 -4
right_child=10 2 11 9 6 -7 7 -9 -10 -11 -12 -13
leaf_value=0.028879700861982525 -0.032095445907057443 0.036902444266069027 -0.056988655576835058 0.048043729341014522 -0.036267083522848971 -0.024069094055100666 0.030679676647311131 -0.014709671010224221 0.0006633097418940623 0.01666058484711844 -0.054614609076646912 -0.036967428216569412
leaf_weight=9.5563931018114072 3.4753638058900815 6.9787819683551815 4.2919811904430372 7.4462670981883985 5.1363471150398317 4.504161909222602 6.1730101108551017 8.9162596166133863 6.0081745237112072 6.7962287664413452 5.2668092623353004 3.8156115263700485
leaf_count=33 19 23 22 23 24 20 21 38 24 25 28 18
internal_value=0 0.00554948 -0.00908402 0.0140583 0.0049673 0.00875349 -0.00633106 0.00385908 0.0201371 0.0330683 -0.0456623 -0.0475662
internal_weight=0 69.6232 25.5987 44.0245 29.782 17.4911 20.2256 15.0893 12.987 14.2425 8.74217 8.10759
internal_count=318 271 107 164 116 67 83 59 47 48 47 40
is_linear=0
shrinkage=0.03


Tree=5
num_leaves=12
num_cat=0
split_feature=1 19 5 6 10 24 7 19 10 13 6
split_gain=18.9973 10.7113 11.8228 17.7463 11.6115 8.30663 9.43425 4.7164 4.64377 1.25275 1.12789
threshold=0.14625252464682606 -0.0015108882623078974 0.39815762398255472 0.32344141457596637 0.023299474443617112 0.99999999999999856 0.19268578685378993 -0.0018004959194470418 0.090994578923135963 -0.00039854164729763436 0.28122186970074536
decision_type=2 2 2 2 2 2 2 2 2 2 2
left_child=1 7 4 8 5 -3 -7 -1 10 -2 -4
right_child=9 2 3 -5 -6 6 -8 -9 -10 -11 -12
leaf_value=0.0078800868274380015 -0.029281269039256683 -0.029370550980475044 -0.058904393894632957 0.015904189718318668 0.036384410001510839 -0.021069859719534682 0.029561929805824862 0.041866810118419515 -0.017267649586226855 -0.053340237262052975 -0.037498691038165916
leaf_weight=6.4792908877134314 3.2299328502267599 6.7841287106275585 5.2868396937847155 9.4990438073873502 10.661719739437101 5.235614180564883 9.0152080506086332 8.4900297820568067 6.8755531609058371 4.9071008171886188 3.8133115023374557
leaf_count=25 16 31 27 35 35 23 31 27 30 29 18
internal_value=0 0.00456477 -0.00135036 -0.0165679 0.01088 -0.00204708 0.0109603 0.0271561 -0.0358755 -0.0437902 -0.0499346
internal_weight=0 72.1407 57.1714 25.4747 31.6967 21.035 14.2508 14.9693 15.9757 8.13703 9.10015
internal_count=327 282 230 110 120 85 54 52 75 45 45
is_linear=0
shrinkage=0.03


Tree=6
num_leaves=12
num_cat=0
split_feature=1 19 5 6 10 3 24 7 3 15 21
split_gain=17.9719 10.1024 11.1368 16.7164 10.9615 9.01726 7.82001 8.88497 5.42673 1.23878 0.00651755
threshold=0.14625252464682606 -0.0015108882623078974 0.39815762398255472 0.32344141457596637 0.023299474443617112 0.020631216505672404 0.99999999999999856 0.19268578685378993 -0.021041605292381291 0.0019321200488267023 -0.25401542124282345
decision_type=2 2 2 2 2 2 2 2 2 2 2
left_child=1 8 4 5 6 10 -3 -8 -1 -2 -4
right_child=9 2 3 -5 -6 -7 7 -9 -10 -11 -12
leaf_value=0.0085304681678440228 -0.028402535953919186 -0.028502991248908913 -0.055898702863185795 0.015436916052906122 0.035391834716697761 -0.011669051397732869 -0.020437804705497394 0.028708283813946505 0.044698579296422326 -0.052343626051688866 -0.057592866567425738
leaf_weight=7.5566696375608444 3.252621226012705 6.7809436917305019 3.8949617743492118 9.4930703192949277 10.632344529032705 7.763411968946456 5.2356011569499996 9.0049275457859022 7.3798698633909208 4.8388342671096325 4.2998170256614712
leaf_count=29 18 31 20 35 35 33 23 31 23 27 22
internal_value=0 0.0044343 -0.00131122 -0.016086 0.0105685 -0.0348381 -0.0019868 0.0106395 0.0264005 -0.0427197 -0.0567876
internal_weight=0 72.0416 57.1051 25.4513 31.6538 15.9582 21.0215 14.2405 14.9365 8.09146 8.19478
internal_count=327 282 230 110 120 75 85 54 52 45 42
is_linear=0
shrinkage=0.03


Tree=7
num_leaves=9
num_cat=0
split_feature=1 9 8 16 1 10 22 13
split_gain=17.015 9.2777 12.1876 10.2392 8.9871 8.7597 5.47706 1.20693
threshold=0.14625252464682606 16.922993417016052 -0.046727026474446674 0.002298501296233272 0.072478389362757425 0.03932121917882634 0.4110504166342166 -0.00039854164729763436
decision_type=2 2 2 2 2 2 2 2
left_child=1 6 -3 4 5 -4 -1 -2
right_child=7 2 3 -5 -6 -7 -8 -9
leaf_value=-0.0024591889767353985 -0.027429861698390047 -0.035193473174181929 -0.00054254426142328997 -0.026303648847804176 0.040657835933069576 0.030922228514394204 -0.039760487465849502 -0.051170340611841711
leaf_weight=9.3101853281259519 3.2045150548219681 4.937072977423667 22.244321227073669 5.0845107287168494 12.204344376921652 12.403269872069357 5.7189741730689994 4.8354370277374965
leaf_count=38 16 23 89 23 39 42 28 29
internal_value=0 0.00430988 0.00984951 0.0141313 0.0185194 0.0107213 -0.0166533 -0.041708
internal_weight=0 71.9027 56.8735 51.9364 46.8519 34.6476 15.0292 8.03995
internal_count=327 282 216 193 170 131 66 45
is_linear=0
shrinkage=0.03


Tree=8
num_leaves=13
num_cat=0
split_feature=1 19 5 9 8 13 16 14 19 8 5 15
split_gain=16.1208 9.18858 10.1664 14.2707 18.8244 7.27959 8.41502 4.26506 4.12017 4.00857 3.91842 1.19686
threshold=0.14625252464682606 -0.0015108882623078974 0.39815762398255472 38.294978578550406 0.072806610236042207 -0.00085288299425612102 -0.0017125154676132695 -0.00053202666424090317 -0.0018004959194470418 0.10719596683701836 0.30915798169965897 0.0019321200488267023
decision_type=2 2 2 2 2 2 2 2 2 2 2 2
left_child=1 8 5 4 -4 6 -3 -7 -1 -6 -9 -2
right_child=11 2 3 -5 9 7 -8 10 -10 -11 -12 -13
leaf_value=0.0071895533722815324 -0.026635581912898821 0.010508510819018119 0.022932296819540815 -0.055694391693142019 -0.055350028961243143 -0.00089155620162835599 -0.041338776135639112 0.04533696100042188 0.039078062543087336 -0.013496365161200393 0.013317855700892767 -0.050311447305281136
leaf_weight=6.4514847397804251 3.2228077016770831 7.9022795557975769 10.992890074849134 6.0370183438062659 4.6525283604860288 5.4534872174263027 4.3784047216176969 7.3921964317560214 8.3875663280487043 3.6952972561120987 6.4335367381572723 4.759715236723423
leaf_count=25 18 30 39 31 24 22 21 23 27 16 24 27
internal_value=0 0.00418839 -0.00129132 -0.015428 -0.00285917 0.0100761 -0.00797649 0.0215755 0.0252141 -0.0368228 0.0304375 -0.0407527
internal_weight=0 71.7767 56.9376 25.3777 19.3407 31.5599 12.2807 19.2792 14.8391 8.34783 13.8257 7.98252
internal_count=327 282 230 110 79 120 51 69 52 40 47 45
is_linear=0
shrinkage=0.03


Tree=9
num_leaves=12
num_cat=0
split_feature=17 19 19 19 14 6 17 6 23 5 10
split_gain=15.23 11.5736 10.9624 12.4149 9.90235 7.92573 8.14523 7.91876 7.47882 8.01803 5.00727
threshold=0.0029156169112698432 -0.0010501687556471885 1.0000000180025095e-35 0.00072530034922465235 0.0015614623401583041 0.31648296292008776 0.0065085240859537692 0.27489854028490812 0.99999999999999856 0.29388231359046496 0.020369373748307277
decision_type=2 2 2 2 2 2 2 2 2 2 2
left_child=1 7 8 10 -5 -2 -7 -1 -3 -10 -4
right_child=5 2 3 4 -6 6 -8 -9 9 -11 -12
leaf_value=0.040472749152001254 -0.048489996012514934 -0.055714002977194317 0.010261387271398449 0.0075148310164092026 -0.048351644453535236 0.01359525576136679 -0.041355221702130289 0.003545678402098686 0.013834734315791837 -0.039094333074120732 0.047335181164194523
leaf_weight=12.158829718828203 7.4208247959613827 4.4519180953502646 6.2975704371929186 8.092411205172537 4.4124418646097174 6.2482351064681989 3.9704639613628387 9.1668808590620738 5.8947186172008497 4.5750436931848526 6.8398612141609192
leaf_count=39 38 23 24 31 22 24 23 38 22 22 21
internal_value=0 0.00670735 -0.00269916 0.00919778 -0.0121981 -0.0248923 -0.00775569 0.0245996 -0.0231435 -0.00929404 0.0295635
internal_weight=0 61.8897 40.564 25.6423 12.5049 17.6395 10.2187 21.3257 14.9217 10.4698 13.1374
internal_count=327 242 165 98 53 85 47 77 67 44 45
is_linear=0
shrinkage=0.03


Tree=10
num_leaves=12
num_cat=0
split_feature=5 10 9 9 21 3 1 6 7 10 9
split_gain=17.3375 15.1675 11.9888 12.0411 8.4712 8.87235 6.21939 4.8413 3.32826 2.11172 1.65208
threshold=0.35422602803473052 -0.097128466778877709 38.294978578550406 16.922993417016052 0.66126327243105043 0.010121294464818879 -0.014361440680666247 0.23427306948361931 0.59606739008888743 0.024061709544463097 53.38418836242564
decision_type=2 2 2 2 2 2 2 2 2 2 2
left_child=1 6 3 8 5 -5 -1 9 -2 -3 -4
right_child=2 7 10 4 -6 -7 -8 -9 -10 -11 -12
leaf_value=-0.040140475692338431 -0.052852254040305552 0.024370705455457671 -0.053114011798747494 -0.0022902104539377012 -0.017144582486460006 0.041881791307370179 0.0086130860094586741 0.011532128048632764 -0.016881538524240708 0.04738447806635946 -0.027821784834515431
leaf_weight=4.7681783586740494 4.1876039355993253 5.6638593524694469 5.3374527841806394 8.2604473531246239 8.6242959350347501 8.1108490973710996 4.6529373973607999 9.2722054570913297 5.1771953068673611 9.792707145214079 4.1173331290483475
leaf_count=23 22 20 28 34 38 26 18 35 25 30 19
internal_value=0 0.0163298 -0.0121841 -0.00395236 0.00691797 0.019594 -0.0160619 0.0286704 -0.0329664 0.0389514 -0.0420999
internal_weight=0 34.1499 43.8152 34.3604 24.9956 16.3713 9.42112 24.7288 9.3648 15.4566 9.45479
internal_count=318 126 192 145 98 60 41 85 47 50 47
is_linear=0
shrinkage=0.03


Tree=11
num_leaves=13
num_cat=0
split_feature=6 9 9 18 22 2 7 21 15 9 6 13
split_gain=12.5392 9.90777 11.0146 9.07634 8.58256 7.4935 6.83217 6.64984 12.9837 10.4752 6.37829 2.27658
threshold=0.23427306948361931 38.799390520498825 16.922993417016052 0.60213070510205957 0.53407389945313077 -0.064135089343724791 0.86468057295354295 0.66126327243105043 0.0017946446616222691 23.601989883483522 0.18036144578071958 1.0000000180025095e-35
decision_type=2 2 2 2 2 2 2 2 2 2 2 2
left_child=3 2 6 10 -5 -3 11 9 -9 -4 -1 -2
right_child=1 5 7 4 -6 -7 -8 8 -10 -11 -12 -13
leaf_value=0.0026976919190525158 -0.02355680270215765 -0.0074145141099947734 0.043843803221378701 -0.034182584036907819 0.01993697456704709 -0.055739519890932294 0.0062576532315287772 0.021102017924903883 -0.046502699191177832 -0.0058690416103317558 0.043215228135985308 -0.05435848044853954
leaf_weight=5.0478495657444062 4.2331475466489774 5.4818942248821259 8.8679841160774249 4.860183507204054 5.76603002846241 6.1030490100383741 4.5168794505298129 5.8312060385942441 4.5530477911233902 6.6945559680461875 11.37940204143524 4.4089009910821915
leaf_count=20 20 23 28 23 21 32 20 21 23 28 36 23
internal_value=0 -0.00850463 -0.00128571 0.0167891 -0.00481606 -0.0328725 -0.0236429 0.0100528 -0.00853974 0.0224588 0.0307648 -0.0392708
internal_weight=0 50.6907 39.1057 27.0535 10.6262 11.5849 13.1589 25.9468 10.3843 15.5625 16.4273 8.64205
internal_count=318 218 163 100 44 55 63 100 44 56 56 43
is_linear=0
shrinkage=0.03


Tree=12
num_leaves=12
num_cat=0
split_feature=5 10 9 8 8 1 21 8 7 15 9
split_gain=15.7295 14.1224 10.9041 12.876 12.818 5.75198 5.21047 4.39024 4.12741 2.13425 1.53478
threshold=0.35422602803473052 -0.097128466778877709 38.294978578550406 0.0791693064136689 0.15594694514572732 -0.014361440680666247 0.62007377303842148 0.066762447338846884 0.16130952380952385 0.00093320971819199638 53.38418836242564
decision_type=2 2 2 2 2 2 2 2 2 2 2
left_child=1 5 3 6 9 -1 -2 8 -3 -5 -4
right_child=2 7 10 4 -6 -7 -8 -9 -10 -11 -12
leaf_value=-0.038904797993149581 0.028679140935246809 0.017817548131697978 -0.051089403409283932 -0.026486871289311393 0.010612713329968626 0.0080558225897098615 -0.009139730643070847 0.0049495759403740203 0.046462163548555938 -0.052254796789281993 -0.02660265908548088
leaf_weight=4.7508531957864761 10.419651731848715 7.6975234150886598 5.2506759464740735 5.5373724959790724 7.3878133445978156 4.6401600837707502 4.784091815352439 5.8834900557994834 10.992273032665251 6.0574525967240334 4.1045400053262711
leaf_count=23 36 28 28 27 29 18 20 23 34 33 19
internal_value=0 0.0155912 -0.0116472 -0.00379369 -0.0202708 -0.0157013 0.0167789 0.0275501 0.0346647 -0.0399487 -0.040346
internal_weight=0 33.9643 43.5416 34.1864 18.9826 9.39101 15.2037 24.5733 18.6898 11.5948 9.35522
internal_count=318 126 192 145 89 41 56 85 62 60 47
is_linear=0
shrinkage=0.03


Tree=13
num_leaves=12
num_cat=0
split_feature=5 9 8 8 6 3 2 6 3 9 5
split_gain=14.8538 10.3443 12.1536 12.1474 8.03984 7.11619 3.89992 3.81284 3.71803 1.49155 0.0754293
threshold=0.35422602803473052 38.294978578550406 0.0791693064136689 0.15594694514572732 0.23744345103621931 0.020631216505672404 0.11613508801913409 0.18036144578071958 -0.04488904491790937 53.38418836242564 0.58667897679928205
decision_type=2 2 2 2 2 2 2 2 2 2 2
left_child=4 2 5 6 7 -2 10 -1 -6 -3 -4
right_child=1 9 3 -5 8 -7 -8 -9 -10 -11 -12
leaf_value=0.010065057395334502 -0.0066908477150721801 -0.050062418986888381 -0.054265017994390034 0.010295149998484313 0.015839179132133653 0.034656859502468954 -0.014229292664679599 0.038542536724117088 -0.013932478876068757 -0.02585646034247557 -0.048326557661013334
leaf_weight=6.5440705120563534 6.7355751246213904 5.1984220147132856 3.8360507786273974 7.3872339129447928 6.7183519452810279 8.4406591951847059 3.8263735789805651 11.973755329847334 8.6180861294269544 4.0964259803295135 3.8641236424446106
leaf_count=25 28 28 20 29 25 28 19 39 37 19 21
internal_value=0 -0.0113404 -0.00369132 -0.0197368 0.0151741 0.0163058 -0.0389839 0.0284788 -0.000890567 -0.0393944 -0.051285
internal_weight=0 43.3849 34.09 18.9138 33.8543 15.1762 11.5265 18.5178 15.3364 9.29485 7.70017
internal_count=318 192 145 89 126 56 60 64 62 47 41
is_linear=0
shrinkage=0.03


Tree=14
num_leaves=13
num_cat=0
split_feature=5 10 9 8 8 3 1 6 2 10 18 5
split_gain=14.0242 13.1261 9.8202 11.4783 11.5244 6.7312 5.50354 4.18287 3.75171 2.0801 1.49935 0.0650344
threshold=0.35422602803473052 -0.097128466778877709 38.294978578550406 0.0791693064136689 0.15594694514572732 0.020631216505672404 -0.014361440680666247 0.23427306948361931 0.11613508801913409 0.024061709544463097 1.0191591256680215 0.58667897679928205
decision_type=2 2 2 2 2 2 2 2 2 2 2 2
left_child=1 6 3 5 8 -2 -1 9 11 -3 -4 -5
right_child=2 7 10 4 -6 -7 -8 -9 -10 -11 -12 -13
leaf_value=-0.038156949407027935 -0.0064894532124662755 0.021544647549022408 -0.025405863236158448 -0.053007436315406831 0.0099875642245991283 0.033760596997804662 0.0078204514223712066 0.010425820025554176 -0.013818010992600291 0.044555507783824659 -0.04966513336126973 -0.047466771095390999
leaf_weight=4.7374594360589981 6.7362581044435492 5.6123238354921368 4.2511541992425901 3.8096400946378726 7.386309251189231 8.405328154563902 4.6361401081085187 9.2287779301404935 3.8221190739423037 9.5547942221164686 4.9777555614709854 3.8168062418699265
leaf_count=23 28 20 20 20 29 28 18 35 19 30 27 21
internal_value=0 0.0147572 -0.0110478 -0.00359364 -0.0192278 0.015854 -0.0154167 0.0263508 -0.0380768 0.0360407 -0.0384905 -0.0502345
internal_weight=0 33.7695 43.2054 33.9765 18.8349 15.1416 9.3736 24.3959 11.4486 15.1671 9.22891 7.62645
internal_count=318 126 192 145 89 56 41 85 60 50 47 41
is_linear=0
shrinkage=0.03


Tree=15
num_leaves=12
num_cat=0
split_feature=1 12 8 8 19 8 8 11 23 5 1
split_gain=13.6073 7.82137 6.72294 9.93762 11.3829 8.31782 11.5144 10.8281 4.79332 5.91206 0.0508066
threshold=0.11926165397278511 -0.00039536192732375625 -0.046727026474446674 0.066762447338846884 -0.0015276971829458145 0.054100770573051744 -0.014059324840962501 1.0318805608680208 0.99999999999999856 0.29835082132860707 0.1481346256446017
decision_type=2 2 2 2 2 2 2 2 2 2 2
left_child=2 -2 -1 5 -5 6 -4 -8 9 -6 -3
right_child=1 10 3 4 8 -7 7 -9 -10 -11 -12
leaf_value=-0.024608851940119476 -0.0018108002491483048 -0.052339119943292212 0.042113064681996083 0.020713338271768359 -0.0072329424109473604 0.03918589261458235 0.011372518623003314 -0.038809913099856937 0.00219994565710168 -0.051640014327053375 -0.047275528221913526
leaf_weight=6.3324932903051367 5.4062067605555058 3.1971655935049039 6.5922967344522467 8.8628249764442462 4.696774750947954 11.370051726698874 12.468236148357397 5.6114919930696479 5.1960435062646857 6.3410252630710602 4.0329976473003626
leaf_count=29 24 17 21 32 20 37 48 27 21 34 25
internal_value=0 -0.0291055 0.00481588 0.00786357 -0.00663086 0.0179563 0.00817264 -0.00420284 -0.0215594 -0.032744 -0.0495146
internal_weight=0 12.6364 67.4712 61.1387 25.0967 36.0421 24.672 18.0797 16.2338 11.0378 7.23016
internal_count=335 66 269 240 107 133 96 75 75 54 42
is_linear=0
shrinkage=0.03


Tree=16
num_leaves=13
num_cat=0
split_feature=1 12 8 8 19 8 8 6 23 12 8 1
split_gain=12.8867 7.50073 6.341 9.38829 10.8715 7.91643 10.9114 12.7647 6.99762 1.92087 1.23399 0.0442512
threshold=0.11926165397278511 -0.00039536192732375625 -0.046727026474446674 0.066762447338846884 -0.0012427433291333238 0.054100770573051744 -0.014059324840962501 0.1834190370947005 0.99999999999999856 -1.0000000180025095e-35 0.10350628395903315 0.1481346256446017
decision_type=2 2 2 2 2 2 2 2 2 2 2 2
left_child=2 -2 -1 5 9 6 -4 -8 10 -5 -6 -3
right_child=1 11 3 4 8 -7 7 -9 -10 -11 -12 -13
leaf_value=-0.023909464578487086 -0.0017568074549637893 -0.051235173517470742 0.041118004357780305 0.0028283460935494931 -0.053480209981751882 0.038285553630798309 -0.042217718905599756 0.012591860722804778 0.0021339628835818523 0.027123569196743091 -0.0300032354111796 -0.046483616460249053
leaf_weight=6.322348177433013 5.4052033070474863 3.1685017645359022 6.5499136894941321 6.0458646714687347 4.3001902997493726 11.289528489112852 5.4958392381668153 12.572772860527037 5.1960055977106085 5.6809467226266879 3.7916447967290878 3.9794622696936131
leaf_count=29 24 17 21 24 23 37 27 48 21 20 19 25
internal_value=0 -0.0284243 0.00468752 0.00765522 -0.00645467 0.0174846 0.00794573 -0.00407929 -0.0250341 0.0145979 -0.0424794 -0.0485899
internal_weight=0 12.5532 67.2451 60.9227 25.0147 35.9081 24.6185 18.0686 13.2878 11.7268 8.09184 7.14796
internal_count=335 66 269 240 107 133 96 75 63 44 42 42
is_linear=0
shrinkage=0.03


Tree=17
num_leaves=12
num_cat=0
split_feature=1 12 8 8 8 8 6 1 4 6 1
split_gain=12.2101 7.20352 5.9824 8.8761 7.53651 10.347 12.0431 7.50495 7.39903 4.97014 0.0386466
threshold=0.11926165397278511 -0.00039536192732375625 -0.046727026474446674 0.066762447338846884 0.054100770573051744 -0.014059324840962501 0.1834190370947005 -0.0073655141938573357 0.23630054603866699 0.25150859037094359 0.1481346256446017
decision_type=2 2 2 2 2 2 2 2 2 2 2
left_child=2 -2 -1 4 5 -4 -7 -5 -9 -10 -3
right_child=1 10 3 7 -6 6 -8 8 9 -11 -12
leaf_value=-0.023235451665496992 -0.0017044171219719245 -0.05020715405104649 0.040173419858091038 -0.039785801851126984 0.037426014487057728 -0.041074801142097071 0.01222537448699842 -0.029364089464237124 0.030884598819742613 -0.0037478570779345679 -0.045740292750235043
leaf_weight=6.3107488900423041 5.4042220078408718 3.1368528455495817 6.5035020709037772 4.8474522382020977 11.203643396496771 5.4795390665531221 12.561356991529463 5.1116437166929272 7.0009250789880735 7.9809728711843491 3.9236513804644346
leaf_count=29 24 17 21 24 37 27 48 25 24 34 25
internal_value=0 -0.0277722 0.00456404 0.00745477 0.0170379 0.00773147 -0.00396342 -0.0062808 0.00180209 0.0124356 -0.0477248
internal_weight=0 12.4647 66.9998 60.689 35.748 24.5444 18.0409 24.941 20.0935 14.9819 7.0605
internal_count=335 66 269 240 133 96 75 107 83 58 42
is_linear=0
shrinkage=0.03


Tree=18
num_leaves=13
num_cat=0
split_feature=1 5 10 9 8 2 8 8 7 9 1 3
split_gain=11.6865 5.4949 8.82627 7.93442 8.47061 12.5863 5.36511 4.37485 6.05855 4.08128 3.52909 1.19824
threshold=0.14625252464682606 0.34394398236230478 -0.097128466778877709 39.337646204345305 0.0791693064136689 0.11525206523072008 0.050659651085917988 0.066762447338846884 0.20799180327868858 59.356174326170709 -0.014361440680666247 0.030294162946352361
decision_type=2 2 2 2 2 2 2 2 2 2 2 2
left_child=1 2 10 4 6 -6 -3 8 -4 -5 -1 -2
right_child=11 3 7 9 5 -7 -8 -9 -10 -11 -12 -13
leaf_value=-0.029360199750724757 -0.047262760357538305 -0.00069076758470189314 0.011148582408797573 -0.0497828641129738 -0.043698231251553803 0.014230745839060621 0.033798343342496186 -0.00068962745184837518 0.046297165620000393 -0.0089004532362247351 0.0069493211642131861 -0.023207054958334299
leaf_weight=5.0166966170072556 4.0283568967133752 7.6956425905227723 8.4365046471357399 4.4294098019599897 6.7279027253389341 6.7745422422885895 8.5910046845674497 5.6972775608301154 9.2559570223093015 4.3618676513433456 4.6350068151950818 3.4678981304168701
leaf_count=24 26 31 32 24 36 26 29 23 29 19 18 18
internal_value=0 0.00323496 0.012214 -0.00445502 0.00293581 -0.0146337 0.0175018 0.0221743 0.0295369 -0.0294987 -0.0119234 -0.0361342
internal_weight=0 71.6218 33.0414 38.5804 29.7891 13.5024 16.2866 23.3897 17.6925 8.79128 9.6517 7.49626
internal_count=335 291 126 165 122 62 60 84 61 43 42 44
is_linear=0
shrinkage=0.03


Tree=19
num_leaves=13
num_cat=0
split_feature=5 9 22 4 4 10 15 9 11 5 9 5
split_gain=9.73694 13.9844 7.15635 7.12561 7.69544 6.5001 5.33693 4.27328 4.15494 3.95144 3.98175 0.0370341
threshold=0.39815762398255472 38.294978578550406 1.5030590765090268 0.12931370275067136 0.42966193276336834 -0.097128466778877709 0.00092165900215290819 20.987461807850647 0.51478030300718469 0.32101107578091237 21.392880923707299 0.552909909333542
decision_type=2 2 2 2 2 2 2 2 2 2 2 2
left_child=5 2 3 -2 -5 7 -4 -1 -7 10 -10 -3
right_child=1 11 6 4 -6 8 -8 -9 9 -11 -12 -13
leaf_value=-0.032881812371075694 -0.016403506222941788 -0.050121730561570293 -0.0029934318747297226 0.041153421952527323 -0.006103977341416632 -0.012721563694639755 -0.047594877802111857 0.0046749476111380755 0.010163673479975599 0.0030219693063558758 0.038953452728901404 -0.045920812394997047
leaf_weight=4.4199575334787351 6.9366368204355302 3.8930973857641211 5.2804421335458738 7.4124305099248868 5.3321299348026514 3.7671469151973751 4.4488307535648346 7.1171585321426392 6.8071357905864778 7.7998341619968405 11.850141927599905 3.6682702749967575
leaf_count=22 32 21 24 26 24 16 25 28 26 31 39 21
internal_value=0 -0.0116957 -0.00234045 0.00806427 0.0213816 0.00944347 -0.023388 -0.00971333 0.016756 0.0209532 0.0284495 -0.0480837
internal_weight=0 36.9718 29.4105 19.6812 12.7446 41.7614 9.72927 11.5371 30.2243 26.4571 18.6573 7.56137
internal_count=335 173 131 82 50 162 49 50 112 96 65 42
is_linear=0
shrinkage=0.03


Tree=20
num_leaves=11
num_cat=0
split_feature=4 4 15 17 16 19 15 7 21 8
split_gain=13.4841 7.59082 12.8591 6.14938 4.24034 3.95614 6.03375 3.82012 3.43253 3.00304
threshold=0.1547879323033923 0.40064998888204678 -0.002124032831652189 0.0027719129494143398 -0.0030571287091621228 -0.0014245012428732206 -0.00013102365172956707 0.63523206751054861 0.20692647947400347 0.023011317142260495
decision_type=2 2 2 2 2 2 2 2 2 2
left_child=8 3 4 5 -3 -2 -7 -4 -1 -8
right_child=1 2 7 -5 -6 6 9 -9 -10 -11
leaf_value=-0.013572271787837493 0.045452653749107376 -0.003076882898458371 -0.040515128484035802 -0.0092449843372822242 0.026476603491731612 -0.015480117691734997 0.04191281280831393 -0.010617527458637496 -0.043199727000790687 0.012033739130325845
leaf_weight=8.0593809783458692 6.0066071748733583 7.7427148669958141 6.84107777476311 6.1476115547120562 10.029221715405578 3.9133678376674732 6.2181784957647253 8.786405608057974 6.2476328611373892 5.8997823596000671
leaf_count=37 19 32 34 30 37 17 20 39 34 23
internal_value=0 0.00582089 -0.00385458 0.0172862 0.013601 0.0246872 0.0169068 -0.0237055 -0.0265101 0.0273658
internal_weight=0 61.585 33.3994 28.1855 17.7719 22.0379 16.0313 15.6275 14.307 12.118
internal_count=322 251 142 109 69 79 60 73 71 43
is_linear=0
shrinkage=0.03


Tree=21
num_leaves=12
num_cat=0
split_feature=4 1 4 15 22 19 15 10 22 7 12
split_gain=12.7494 8.88819 9.87018 11.4129 6.1383 5.86044 6.23631 5.1913 4.54863 3.0273 1.13193
threshold=0.1547879323033923 0.14625252464682606 0.40064998888204678 -0.002124032831652189 -0.52318744835374809 -0.0014245012428732206 0.00053099905219511367 -0.11014629947249892 0.46318258796886302 0.63523206751054861 0.0013311462312818325
decision_type=2 2 2 2 2 2 2 2 2 2 2
left_child=8 2 4 7 -2 -6 -7 -4 10 -5 -1
right_child=1 -3 3 9 5 6 -8 -9 -10 -11 -12
leaf_value=-0.052583416734190848 0.042373375003293884 -0.031088618549501904 -0.0071422215143080075 -0.038402715772007462 0.034724661031992989 -0.030660082227357204 0.017508336946625281 0.02721980290183177 -0.0076213087881678472 -0.010008979301025874 -0.029441003878588817
leaf_weight=4.0170187354087812 9.3236800432205218 5.4012729953974477 6.3595347702503213 6.0925691872835177 6.1948292106390026 4.1273356974124891 5.8446144014596939 10.473921686410904 6.6059195846319199 7.5891315042972565 3.6129830032587051
leaf_count=22 30 31 27 30 21 20 22 37 31 33 18
internal_value=0 0.0056639 0.00920837 -0.00230226 0.022988 0.0118081 -0.00242831 0.0142381 -0.0258462 -0.0226529 -0.0416249
internal_weight=0 61.4069 56.0056 30.5152 25.4905 16.1668 9.97195 16.8335 14.2359 13.6817 7.63
internal_count=322 251 220 127 93 63 42 64 71 63 40
is_linear=0
shrinkage=0.03


Tree=22
num_leaves=12
num_cat=0
split_feature=4 1 4 15 10 22 22 16 16 9 12
split_gain=12.0524 8.42778 9.4317 9.82429 5.48496 4.34243 3.42938 3.36739 3.74909 2.35711 1.09143
threshold=0.1547879323033923 0.14625252464682606 0.33533337294871984 -0.0023359491383885263 -0.11014629947249892 0.46318258796886302 -0.080211779793432053 -0.00086684725733417471 -6.4617755123682938e-05 17.078357320832804 0.0013311462312818325
decision_type=2 2 2 2 2 2 2 2 2 2 2
left_child=5 2 6 4 -4 10 -2 -5 -9 -6 -1
right_child=1 -3 3 7 9 -7 -8 8 -10 -11 -12
leaf_value=-0.051516881092113921 0.038504409709755216 -0.030450595035769572 -0.0069296776836903513 -0.036152405041847795 0.013782185812295424 -0.0073993300755071613 0.013270936685866222 0.010911108572133057 -0.021547155716530965 0.040559382115387198 -0.02870829454208269
leaf_weight=3.9777660816907865 9.6799836903810519 5.3497950583696356 6.3579783141613033 5.1532312631607047 5.7287274450063652 6.6000633239746094 9.7094329297542554 5.643070459365843 7.4059398025274348 6.118685394525528 3.5943234711885452
leaf_count=22 32 31 27 25 22 31 38 22 34 20 18
internal_value=0 0.00551836 0.00896704 -3.40792e-05 0.0155485 -0.0251864 0.0258685 -0.0156193 -0.00751051 0.0276115 -0.0406901
internal_weight=0 61.1468 55.797 36.4076 18.2054 14.1722 19.3894 18.2022 13.049 11.8474 7.57209
internal_count=322 251 220 150 69 71 70 81 56 42 40
is_linear=0
shrinkage=0.03


Tree=23
num_leaves=12
num_cat=0
split_feature=4 1 4 15 22 19 15 16 22 16 18
split_gain=11.3955 7.99073 8.98876 10.2302 5.72645 5.58942 5.80317 4.65239 4.15052 3.32203 1.01154
threshold=0.1547879323033923 0.14625252464682606 0.40064998888204678 -0.002124032831652189 -0.52318744835374809 -0.0014245012428732206 0.00053099905219511367 -0.0030571287091621228 0.46318258796886302 -0.0003468020222795699 1.5612611238256491
decision_type=2 2 2 2 2 2 2 2 2 2 2
left_child=8 2 4 7 -2 -6 -7 -4 10 -5 -1
right_child=1 -3 3 9 5 6 -8 -9 -10 -11 -12
leaf_value=-0.050193964661512325 0.040883584075911875 -0.029832096230802022 -0.0036489831903286397 -0.0070422980971796643 0.033704471694581031 -0.029953462101945882 0.016556032893055635 0.028085683468900793 -0.007183783791845498 -0.036654196320602975 -0.028137195413025947
leaf_weight=3.9713083207607252 9.1640406548976916 5.2976828571408978 7.7144305557012567 6.9612049460411072 6.129950329661372 4.1223487704992277 5.8279646188020706 9.0177856534719467 6.5942415595054626 6.6831944435834902 3.5387570112943649
leaf_count=22 30 31 32 30 21 20 22 32 31 33 18
internal_value=0 0.00537381 0.00872704 -0.00226718 0.0219564 0.01117 -0.00271254 0.0134543 -0.0245512 -0.0215466 -0.0398008
internal_weight=0 60.9186 55.6209 30.3766 25.2443 16.0803 9.95031 16.7322 14.1043 13.6444 7.51007
internal_count=322 251 220 127 93 63 42 64 71 63 40
is_linear=0
shrinkage=0.03


Tree=24
num_leaves=13
num_cat=0
split_feature=4 1 4 15 10 22 13 18 22 7 9 12
split_gain=10.7788 7.57997 8.54013 8.8064 5.1768 3.97151 3.56277 4.34686 3.18852 2.32306 2.24833 1.04391
threshold=0.1547879323033923 0.14625252464682606 0.33533337294871984 -0.0023359491383885263 -0.11014629947249892 0.46318258796886302 -0.00077769067897498479 -0.61900845686105477 -0.44670197003885687 0.28531524341580211 17.078357320832804 0.0013311462312818325
decision_type=2 2 2 2 2 2 2 2 2 2 2 2
left_child=5 2 8 4 -4 11 -5 -8 -2 -10 -6 -1
right_child=1 -3 3 6 10 -7 7 -9 9 -11 -12 -13
leaf_value=-0.049677982650289818 0.040836566264926863 -0.029231800341008325 -0.0070669249589182656 -0.035343788195709373 0.013086090808459995 -0.0069744782093961906 0.014248669218582276 -0.021187105027799209 -0.00072413488567119185 0.026052961212176002 0.039362868292643328 -0.027185376699759536
leaf_weight=3.8948833346366865 6.9935038238763836 5.2450817842036477 6.3518965542316463 5.3688243627548209 5.715718641877169 6.5884615927934647 5.3944065272808057 7.3749811053276133 4.8360356986522657 7.344061091542244 6.0143079906702042 3.5493965595960617
leaf_count=22 23 31 27 26 22 31 21 34 20 27 20 18
internal_value=0 0.00523761 0.00850143 -6.89541e-05 0.0147467 -0.0239392 -0.0148386 -0.00621732 0.0246914 0.0154213 0.0265589 -0.0389536
internal_weight=0 60.6388 55.3937 36.2201 18.0819 14.0327 18.1382 12.7694 19.1736 12.1801 11.73 7.44428
internal_count=322 251 220 150 69 71 81 55 70 47 42 40
is_linear=0
shrinkage=0.03


Tree=25
num_leaves=11
num_cat=0
split_feature=8 7 5 23 7 8 7 11 13 10
split_gain=6.0818 7.17134 6.85794 6.66686 8.58307 7.04092 5.1292 2.63146 1.48804 1.43292
threshold=0.066762447338846884 0.20799180327868858 0.73905706586220721 0.99999999999999434 0.65094920580990412 0.15594694514572732 0.028174603174603175 1.0055085588855956 0.00012939038362758118 -0.09563691539961186
decision_type=2 2 2 2 2 2 2 2 2 2
left_child=1 6 8 9 5 -5 -1 -6 -3 -2
right_child=3 2 -4 4 7 -7 -8 -9 -10 -11
leaf_value=0.0087214786895422163 -0.022844453149501585 0.035480158417384881 -0.0091862482167330943 -0.0039353614763274489 -0.03581089090152887 0.039849041190780372 -0.029151914892788032 -0.0085775026593279055 0.017767983959628073 -0.049169561153515826
leaf_weight=6.3292647600173932 3.9645634740591049 9.1313776373863274 6.4025815874338141 8.426821708679201 5.7728420477360469 5.4389173835515967 6.5475539565086365 7.1462401747703552 8.0166239738464338 3.5070741921663275
leaf_count=26 20 31 29 37 35 18 32 33 30 20
internal_value=0 0.00746507 0.0173077 -0.010143 -0.00315307 0.0132393 -0.0105362 -0.0207466 0.0271998 -0.0352011
internal_weight=0 36.4274 23.5506 34.2565 26.7848 13.8657 12.8768 12.9191 17.148 7.47164
internal_count=311 148 90 163 123 55 58 68 61 40
is_linear=0
shrinkage=0.03


Tree=26
num_leaves=11
num_cat=0
split_feature=6 9 10 7 2 21 8 8 15 12
split_gain=6.72713 8.52839 7.44239 5.10755 4.44694 5.12051 4.63634 7.42511 4.06535 3.57977
threshold=0.23744345103621931 24.639735743277672 -0.013860450917829671 0.34813448716129952 0.12369869970027186 -1.475399017706253 0.15594694514572732 0.093158424980427687 0.002418107900943101 0.00025531384258947748
decision_type=2 2 2 2 2 2 2 2 2 2
left_child=1 2 -1 -2 6 -6 7 8 -5 -3
right_child=3 9 -4 4 5 -7 -8 -9 -10 -11
leaf_value=-0.03896065898925468 -0.037581179879235822 0.037819656630164039 0.014668135623097161 0.01255861386949822 0.00054065446793921223 -0.04593594534755252 0.027175242508592948 -0.037969439979537355 -0.013940293220448765 0.0086898618631034413
leaf_weight=4.485256627202034 4.6752614229917517 8.7672837972640973 4.8443296104669589 14.413727730512624 4.0857560075819492 4.4649475775659067 4.995266765356063 4.8397612869739524 8.1606199741363508 6.6972105950117102
leaf_count=23 24 30 19 56 21 28 18 27 38 27
internal_value=0 0.0115383 -0.0111142 -0.00787449 -0.00448371 -0.0237282 0.000593642 -0.00424993 0.00297927 0.0252044
internal_weight=0 24.7941 9.32959 45.6353 40.9601 8.5507 32.4094 27.4141 22.5743 15.4645
internal_count=311 99 42 212 188 49 139 121 94 57
is_linear=0
shrinkage=0.03


Tree=27
num_leaves=11
num_cat=0
split_feature=1 19 21 7 23 9 4 17 6 14
split_gain=8.48896 5.06914 6.15426 4.94746 7.92007 7.79237 5.52597 5.08352 3.38999 1.18484
threshold=0.14625252464682606 -0.0015108882623078974 -1.2739544373735052 0.19268578685378993 0.99999999999999856 27.04742947923625 0.34649301438199936 -0.0022119680929877888 0.2760432751907082 -0.00097847151197066862
decision_type=2 2 2 2 2 2 2 2 2 2
left_child=1 8 -3 6 5 -5 -4 -6 -1 -2
right_child=9 2 3 4 7 -7 -8 -9 -10 -11
leaf_value=0.034209631809170332 -0.017383294097395554 -0.033349850785036356 0.00051949768292741043 -0.028546383208116033 0.041383820207775819 0.015797419908829158 -0.043684723986684472 0.0091823926347849166 0.0022527365609878174 -0.042318698184166614
leaf_weight=6.6957890540361387 2.9012586157768965 4.9757048040628424 6.8644643574953061 8.3637593984603864 6.4306201189756349 6.2180925905704489 4.0450309067964554 14.057292759418493 5.3944050669670105 4.1944989170879117
leaf_count=23 17 25 30 43 21 24 21 56 22 29
internal_value=0 0.00248729 -0.00165639 0.00177336 0.00726204 -0.009637 -0.0158706 0.0192896 0.0199511 -0.0321233
internal_weight=0 63.0452 50.955 45.9793 35.0698 14.5819 10.9095 20.4879 12.0902 7.09576
internal_count=311 265 220 195 144 67 51 77 45 46
is_linear=0
shrinkage=0.03


Tree=28
num_leaves=12
num_cat=0
split_feature=1 10 19 10 6 6 6 11 5 22 14
split_gain=8.09224 4.90709 6.18623 4.89002 3.75612 8.06188 6.32038 4.5791 3.88189 3.59943 1.16484
threshold=0.14625252464682606 -0.10427564388790379 -0.00075181970092014639 0.12957359716942457 0.23856650053327452 0.1941365220951167 0.31648296292008776 0.71289258343409101 0.32101107578091237 -1.0287497188739065 -0.00097847151197066862
decision_type=2 2 2 2 2 2 2 2 2 2 2
left_child=1 2 -1 4 5 8 7 -6 -3 -8 -2
right_child=10 3 -4 -5 6 -7 9 -9 -10 -11 -12
leaf_value=0.0082084149459209291 -0.016957276009309737 0.018904771335000441 -0.033666898856728959 -0.019619494241421648 0.0098870333018524995 0.040690424620786675 -0.0023447046384049968 -0.026547593150005634 -0.019659497641334126 0.030043849758425674 -0.04181458987634637
leaf_weight=5.9372394680976868 2.8851692993193865 5.0599310100078601 6.8247287124395353 5.6556182205677024 5.1331443339586276 8.9900856465101224 5.0542192012071609 7.8555453717708588 4.3850019425153732 7.938505679368971 4.1188591672107568
leaf_count=24 17 19 35 27 21 30 21 39 21 28 29
internal_value=0 0.00242108 -0.0141853 0.00665358 0.00999897 0.0203558 0.00265029 -0.0121486 0.00100053 0.0174446 -0.0315751
internal_weight=0 62.834 12.762 50.0721 44.4164 18.435 25.9814 12.9887 9.44493 12.9927 7.00403
internal_count=311 265 59 206 179 70 109 60 40 49 46
is_linear=0
shrinkage=0.03


Tree=29
num_leaves=9
num_cat=0
split_feature=1 10 19 10 19 8 22 3
split_gain=7.71605 4.63458 5.86419 4.61211 3.27718 8.86237 4.61579 1.19124
threshold=0.14625252464682606 -0.10427564388790379 -0.00075181970092014639 0.12957359716942457 -0.0015108882623078974 0.0791693064136689 0.53407389945313077 0.039471560822797049
decision_type=2 2 2 2 2 2 2 2
left_child=1 2 -1 4 -3 6 -6 -2
right_child=7 3 -4 -5 5 -7 -8 -9
leaf_value=0.0079666097170715596 -0.042965896498403502 0.026313796876461862 -0.032871525030179712 -0.019043622755772635 0.0075364322349033763 -0.024315498894688075 0.039005744649317324 -0.018033216507496667
leaf_weight=5.9339750111103058 3.6068096822127691 8.6368871331214887 6.7808333635330182 5.651897966861724 23.425783604383472 7.0850596725940695 5.1098383814096442 3.3050302863121033
leaf_count=24 27 31 35 27 95 36 17 19
internal_value=0 0.00235687 -0.0138125 0.00647612 0.00973511 0.00571531 0.0131716 -0.0310439
internal_weight=0 62.6243 12.7148 49.9095 44.2576 35.6207 28.5356 6.91184
internal_count=311 265 59 206 179 148 112 46
is_linear=0
shrinkage=0.03


Tree=30
num_leaves=11
num_cat=0
split_feature=9 1 19 8 7 5 20 9 20 10
split_gain=9.50884 6.92714 7.11564 5.95044 9.79839 6.23342 6.1769 4.92894 2.34146 2.16626
threshold=16.922993417016052 0.12317358238359334 -0.0010173070609364855 0.066762447338846884 0.17654078337779031 0.32780329090352306 1.0938881521027941 11.677603489493535 1.3259951150038842 -0.0489113050019769
decision_type=2 2 2 2 2 2 2 2 2 2
left_child=7 2 9 4 5 -4 -6 -1 -9 -2
right_child=1 -3 3 -5 6 -7 -8 8 -10 -11
leaf_value=-0.0005700910369866543 0.017980080266813386 -0.024579166297165476 0.0071454884798186572 -0.019284919961277923 0.032241573600288426 -0.039924012219684502 -0.0023520341424797097 -0.043285852008434947 -0.011993903553531733 0.04222017717736147
leaf_weight=8.3047424256801623 6.7002936452627182 5.4398808777332297 5.648683235049246 7.5866394490003577 15.124957650899889 4.5895054191350937 6.7045851200819007 6.1097230752930027 3.3224076181650162 6.5731583684682828
leaf_count=37 25 31 23 35 53 25 28 37 17 22
internal_value=0 0.00765818 0.0109715 0.00460747 0.01026 -0.0139545 0.0216167 -0.017424 -0.0322635 0.029984
internal_weight=0 58.3677 52.9278 39.6544 32.0677 10.2382 21.8295 17.7369 9.43213 13.2735
internal_count=333 242 211 164 129 48 81 91 54 47
is_linear=0
shrinkage=0.03


Tree=31
num_leaves=11
num_cat=0
split_feature=9 1 19 8 7 5 11 9 11 10
split_gain=8.9901 6.5612 6.77158 5.61597 9.2609 5.93512 5.86872 4.69521 2.24893 2.11231
threshold=16.922993417016052 0.12317358238359334 -0.0010173070609364855 0.066762447338846884 0.17654078337779031 0.32780329090352306 1.0938881521027941 11.677603489493535 1.3259951150038842 -0.0489113050019769
decision_type=2 2 2 2 2 2 2 2 2 2
left_child=7 2 9 4 5 -4 -6 -1 -9 -2
right_child=1 -3 3 -5 6 -7 -8 8 -10 -11
leaf_value=-0.00055300930264878345 0.017493015180851442 -0.024034792646836931 0.0069371735445521235 -0.018735871905286399 0.031467618039770703 -0.039131445909757118 -0.002280981382791166 -0.042424679299783011 -0.011670977810994397 0.041530498189129267
leaf_weight=8.3044296801090258 6.6805491298437119 5.3968559503555289 5.6438318789005297 7.5748727172613135 15.033442303538324 4.5426968038082123 6.7060099989175788 6.0476701632142049 3.3120647966861725 6.4832083880901319
leaf_count=37 25 31 23 35 53 25 28 37 17 22
internal_value=0 0.00746864 0.010697 0.00448695 0.00999688 -0.0136072 0.0210571 -0.0169732 -0.0315421 0.0293316
internal_weight=0 58.0615 52.6646 39.5009 31.926 10.1865 21.7395 17.6642 9.35973 13.1638
internal_count=333 242 211 164 129 48 81 91 54 47
is_linear=0
shrinkage=0.03


Tree=32
num_leaves=12
num_cat=0
split_feature=9 1 19 19 9 12 9 10 15 13 10
split_gain=8.50121 6.21535 6.44614 5.3895 7.95837 5.56542 4.47496 4.47388 3.63396 2.33805 2.06199
threshold=16.922993417016052 0.12317358238359334 -0.0010173070609364855 -6.2304707725164665e-05 39.337646204345305 1.0000000180025095e-35 11.677603489493535 0.0064627662125533317 0.00051844928171795878 -0.00040042715079940944 -0.0489113050019769
decision_type=2 2 2 2 2 2 2 2 2 2 2
left_child=6 2 10 8 7 -6 -1 -5 -4 -8 -2
right_child=1 -3 3 4 5 -7 9 -9 -10 -11 -12
leaf_value=-0.0005364388202852659 0.017020120415448287 -0.023503414308497984 -0.028113910778194182 0.0031129348050107316 0.0085384312504721456 -0.039657645552858348 -0.016380439321126258 0.033698372408048322 0.0052698231721711513 -0.046513128662122601 0.040873783051493161
leaf_weight=8.3041253387928027 6.6604867428541183 5.3539608418941489 6.3135075718164391 6.7139491587877371 5.1039401441812497 3.7338277548551559 4.8269544318318367 11.992582678794859 5.4834131896495819 4.4577461527660471 6.3911467343568784
leaf_count=37 25 31 30 28 21 20 25 42 23 29 22
internal_value=0 0.00728509 0.0104313 0.00437034 0.0116371 -0.0118237 -0.016537 0.022721 -0.0125966 -0.0308477 0.0287008
internal_weight=0 57.7468 52.3929 39.3412 27.5443 8.83777 17.5888 18.7065 11.7969 9.2847 13.0516
internal_count=333 242 211 164 111 41 91 70 53 54 47
is_linear=0
shrinkage=0.03


Tree=33
num_leaves=12
num_cat=0
split_feature=9 1 19 19 9 5 10 9 5 13 10
split_gain=8.04152 5.88735 6.13965 5.08956 7.53128 7.10701 4.27729 4.27202 3.52639 2.27395 2.01487
threshold=16.922993417016052 0.12317358238359334 -0.0010173070609364855 -6.2304707725164665e-05 39.337646204345305 0.41608003472264687 0.0064627662125533317 11.677603489493535 0.29835082132860707 -0.00040042715079940944 -0.0489113050019769
decision_type=2 2 2 2 2 2 2 2 2 2 2
left_child=7 2 10 8 6 -6 -5 -1 -4 -9 -2
right_child=1 -3 3 4 5 -7 -8 9 -10 -11 -12
leaf_value=-0.00052036436845011693 0.016560807980842099 -0.02298443562376307 0.0024109333221240523 0.0030196726411505759 0.0099417179874043572 -0.045384266471761907 0.032971931188398258 -0.015948365484209855 -0.030616752096237054 -0.045807276000994462 0.040247410003635332
leaf_weight=8.3038291633129138 6.6401694566011429 5.3112585842609397 6.5652611851692146 6.7136731296777823 5.3870925456285459 3.4138653874397278 11.89065061509609 4.8092661648988724 5.2250493466854095 4.3916427316144091 6.2973157912492734
leaf_count=37 25 31 27 28 21 20 42 25 26 29 22
internal_value=0 0.00710509 0.0101706 0.00425574 0.0113464 -0.0115191 0.0221632 -0.0161208 -0.0122258 -0.0302002 0.0280903
internal_weight=0 57.4443 52.1331 39.1956 27.4053 8.80096 18.6043 17.5047 11.7903 9.20091 12.9375
internal_count=333 242 211 164 111 41 70 91 53 54 47
is_linear=0
shrinkage=0.03


Tree=34
num_leaves=10
num_cat=0
split_feature=9 1 19 8 6 8 22 9 10
split_gain=7.60945 5.57918 5.84595 5.0058 4.46303 5.68552 4.33241 4.50428 1.97057
threshold=16.922993417016052 0.12317358238359334 -0.0010173070609364855 0.066762447338846884 0.1780988317306936 -0.025675870776229622 1.3942207498388226 11.677603489493535 -0.0489113050019769
decision_type=2 2 2 2 2 2 2 2 2
left_child=6 2 8 4 -4 -6 7 -1 -2
right_child=1 -3 3 -5 5 -7 -8 -9 -10
leaf_value=0.013316741435246207 0.016114531049439013 -0.022477309592379986 -0.016566461878657408 -0.017797661757832338 -0.012239188386476484 0.021606585715764914 -0.03891022753816447 -0.023069343802934326 0.039649010480450018
leaf_weight=5.7481037527322787 6.6196552366018295 5.2688063755631438 5.005201160907748 7.5448682606220236 5.6911191046237972 20.765095487236977 5.1185739524662486 6.5522499531507492 6.2020306438207609
leaf_count=23 25 31 24 35 27 78 30 38 22
internal_value=0 0.00693484 0.00992487 0.00414827 0.0094112 0.0143259 -0.0157171 -0.00606569 0.0274985
internal_weight=0 57.0968 51.828 39.0063 31.4614 26.4562 17.4189 12.3004 12.8217
internal_count=333 242 211 164 129 105 91 61 47
is_linear=0
shrinkage=0.03


Tree=35
num_leaves=13
num_cat=0
split_feature=1 9 9 9 6 5 11 21 12 0 9 1
split_gain=8.4306 9.00154 8.95214 6.00101 10.6502 9.93629 5.77151 5.77114 4.56735 1.57328 1.23645 0.0263428
threshold=0.12317358238359334 18.781157617498298 11.492139796158479 38.799390520498825 0.21095244819189718 0.40747889603375703 0.74877451733239309 0.69475820333991312 -0.00065828761706188111 46.804817614135509 27.470931938785164 0.1687670488082347
decision_type=2 2 2 2 2 2 2 2 2 2 2 2
left_child=1 2 -1 4 -3 6 -5 10 -2 -4 -6 -10
right_child=8 3 9 5 7 -7 -8 -9 11 -11 -12 -13
leaf_value=0.016836447139762265 -0.00091885772788663619 -0.0098815828584026977 -0.04752602329139604 0.031843501625748137 0.044611416925333811 -0.039464825875564102 -0.013241287139434574 0.0068531495457410324 -0.043804109760783784 -0.022100172943145802 0.027428932109591259 -0.039753888203066308
leaf_weight=4.7360435724258414 4.2897679917514324 8.7039151787757856 4.2250800877809507 5.9165399968624097 10.873375996947294 4.8913432955741873 4.4984513074159622 7.427728757262229 2.885869197547434 4.5478733330965042 5.768963322043418 2.8951995242387056
leaf_count=19 23 38 24 21 36 28 20 31 18 24 21 22
internal_value=0 0.0052353 -0.0164018 0.0113146 0.0185576 -0.00419421 0.0123704 0.0288415 -0.0243724 -0.0343453 0.0386552 -0.0417757
internal_weight=0 61.5893 13.509 48.0803 32.774 15.3063 10.415 24.0701 10.0708 8.77295 16.6423 5.78107
internal_count=325 262 67 195 126 69 41 88 63 48 57 40
is_linear=0
shrinkage=0.03


Tree=36
num_leaves=11
num_cat=0
split_feature=2 16 7 16 9 9 13 10 14 21
split_gain=7.21734 4.6723 5.32966 8.69194 6.14298 5.43422 5.16418 4.56876 4.38221 2.50717
threshold=0.12826163193963941 0.0032064205603009768 0.19268578685378993 0.000493511708454478 16.922993417016052 38.799390520498825 0.00051118278485329249 0.044474742257876135 -0.0011812040838788949 -1.4453519862558073
decision_type=2 2 2 2 2 2 2 2 2 2
left_child=1 2 3 -1 8 7 -7 -6 -4 -2
right_child=9 -3 4 -5 5 6 -8 -9 -10 -11
leaf_value=-0.036576346005589289 -0.0072500945718227483 -0.02181839528022321 0.0085435137580359387 0.01221262398725567 0.016378170102269912 0.016607464932206245 -0.02877918095675109 0.043905408385203896 -0.032821189859631228 -0.042585042190809025
leaf_weight=6.0130909234285337 3.2138207824900746 5.6282907873392096 5.1544246971607208 7.2472411245107651 18.793059021234516 5.3974460214376432 3.8768685460090637 7.6294211894273749 4.1696799695491773 4.1292945202440015
leaf_count=30 19 30 22 32 73 21 20 26 24 28
internal_value=0 0.00428398 0.00680472 -0.00991145 0.0117283 0.0173919 -0.00236516 0.0243266 -0.00995452 -0.0271202
internal_weight=0 63.9095 58.2812 13.2603 45.0209 35.6968 9.27431 26.4225 9.3241 7.34312
internal_count=325 278 248 62 186 140 41 99 46 47
is_linear=0
shrinkage=0.03


Tree=37
num_leaves=13
num_cat=0
split_feature=1 9 9 9 6 5 11 12 6 18 0 1
split_gain=7.7181 8.15127 8.49142 5.43855 9.81714 9.41542 5.47568 4.42913 4.25785 4.4255 1.49242 0.0240455
threshold=0.12317358238359334 18.781157617498298 11.492139796158479 38.799390520498825 0.21095244819189718 0.40747889603375703 0.74877451733239309 -0.00065828761706188111 0.2775739322208472 1.0000000180025095e-35 46.804817614135509 0.1687670488082347
decision_type=2 2 2 2 2 2 2 2 2 2 2 2
left_child=1 2 -1 4 -3 6 -5 -2 -6 -10 -4 -9
right_child=7 3 10 5 8 -7 -8 11 9 -11 -12 -13
leaf_value=0.016616695027490368 -0.00055686252412352017 -0.0095669082900765451 -0.046392508799373691 0.031197873970925286 0.041285251419541195 -0.038616880129974072 -0.012784107406179889 -0.04308491373194949 -0.0047761875390904185 0.031044552358537546 -0.021428988158287879 -0.039154847346787341
leaf_weight=4.7271282374858847 4.2656534016132355 8.6836367547512037 4.1411284655332548 5.8680446892976743 11.087700933218004 4.8273343592882147 4.5022380650043488 2.8089893609285337 5.3918927013874036 7.3157831430435181 4.4948554188013077 2.7955287136137486
leaf_count=19 23 38 24 21 38 28 20 18 23 27 24 22
internal_value=0 0.00500091 -0.0157065 0.0108049 0.0177359 -0.00400742 0.0121032 -0.0235922 0.0276995 0.0158457 -0.0333995 -0.0411246
internal_weight=0 61.0397 13.3631 47.6766 32.479 15.1976 10.3703 9.87017 23.7954 12.7077 8.63598 5.60452
internal_count=325 262 67 195 126 69 41 63 88 50 48 40
is_linear=0
shrinkage=0.03


Tree=38
num_leaves=9
num_cat=0
split_feature=1 12 8 22 2 6 24 1
split_gain=7.33814 4.30141 3.94128 8.25298 6.00041 5.41383 7.77298 0.021498
threshold=0.12317358238359334 -0.00065828761706188111 0.15031254205613745 1.5997025708498513 0.082135775775806955 0.1834190370947005 0.99999999999999856 0.1687670488082347
decision_type=2 2 2 2 2 2 2 2
left_child=2 -2 3 4 5 -1 -7 -3
right_child=1 7 -4 -5 -6 6 -8 -9
leaf_value=-0.022989655330106957 -0.00054023969965814932 -0.042559406549776684 0.025914121932842968 -0.037036543085563318 0.034557261643940781 -0.014651058083331768 0.015406798022209909 -0.038806814243762845
leaf_weight=6.6866373568773261 4.2650126162916422 2.7591180056333524 7.0806393921375266 4.4472458958625785 5.708214506506919 11.079619526863096 25.712447881698608 2.7368691563606262
leaf_count=33 23 18 26 24 21 55 103 22
internal_value=0 -0.0231472 0.00487744 0.00210024 0.0056388 0.00184216 0.00635513 -0.0406907
internal_weight=0 9.761 60.7148 53.6342 49.1869 43.4787 36.7921 5.49599
internal_count=325 63 262 236 212 191 158 40
is_linear=0
shrinkage=0.03


Tree=39
num_leaves=13
num_cat=0
split_feature=1 9 9 9 6 5 21 11 14 0 9 9
split_gain=6.97513 7.59037 7.90748 5.16183 9.02476 8.95637 5.45125 5.24644 2.34931 1.40236 1.21218 0.380314
threshold=0.12317358238359334 18.781157617498298 11.492139796158479 38.799390520498825 0.21095244819189718 0.40747889603375703 0.69475820333991312 0.74877451733239309 -0.0012730757953671732 46.804817614135509 27.470931938785164 25.020723098216596
decision_type=2 2 2 2 2 2 2 2 2 2 2 2
left_child=1 2 -1 4 -3 7 10 -5 -2 -4 -6 -10
right_child=8 3 9 5 6 -7 -8 -9 11 -11 -12 -13
leaf_value=0.015914137287513411 -0.0040997404717551481 -0.0090034817843890527 -0.045373398331078757 0.030412626527263491 0.042513830771236993 -0.038084423723647752 0.0053515678990893201 -0.012731019701000927 -0.041458771782031702 -0.020989271091346372 0.025280894812145408 -0.026185029958819373
leaf_weight=4.6890549957752219 3.7386655081063509 8.6784053444862348 4.0535070896148664 5.819846034049986 10.552089601755148 4.775488317012786 7.3440271615982047 4.4967498481273651 3.2123533142730576 4.4563698470592499 5.6355306804180136 2.7007678151130676
leaf_count=19 21 38 24 21 36 28 31 20 23 24 21 19
internal_value=0 0.00474849 -0.0153675 0.0103616 0.0171452 -0.00411627 0.0267887 0.0116074 -0.0227137 -0.0326042 0.0365144 -0.0344826
internal_weight=0 60.5011 13.1989 47.3021 32.2101 15.0921 23.5316 10.3166 9.65179 8.50988 16.1876 5.91312
internal_count=325 262 67 195 126 69 88 41 63 48 57 42
is_linear=0
shrinkage=0.03


Tree=40
num_leaves=12
num_cat=0
split_feature=16 19 19 22 9 17 0 11 6 3 2
split_gain=6.83161 5.40652 8.40372 6.47108 4.99754 4.42344 6.97491 3.3862 2.36236 1.85277 0.82135
threshold=0.0032064205603009768 -6.2304707725164665e-05 -0.0010501687556471885 2.0638151967712726 39.337646204345305 0.00016990656634246961 46.565894323968898 1.0055085588855956 0.23744345103621931 -0.00184366136457504 -0.030319835957010259
decision_type=2 2 2 2 2 2 2 2 2 2 2
left_child=1 2 3 7 9 6 -4 8 -1 -3 -11
right_child=-2 4 5 -5 -6 -7 -8 -9 -10 10 -12
leaf_value=0.024034278650063797 -0.029072763929481066 0.011267430571666407 -0.03140181188840032 -0.016104522615715565 -0.0046443553105333085 -0.043701693970613541 0.016885396761941247 0.036827826222772038 -0.0039164061599745569 0.022906216354967406 0.039370271720754205
leaf_weight=4.9107197821140343 6.1485759913921347 6.6926524341106459 5.8853343129158002 6.9363935757428399 8.212990537285803 4.8811944499611846 4.9622561931610107 5.8239262998104087 6.1045247139409184 5.3388578891754177 5.5745345950126621
leaf_count=19 36 28 30 38 38 31 19 21 32 20 20
internal_value=0 0.00400446 -0.00297294 0.00828132 0.0146802 -0.0199848 -0.00931271 0.0183263 0.00854432 0.0236949 0.031316
internal_weight=0 65.3234 39.5043 23.7756 25.819 15.7288 10.8476 16.8392 11.0152 17.606 10.9134
internal_count=332 296 190 110 106 80 49 72 51 68 40
is_linear=0
shrinkage=0.03


Tree=41
num_leaves=12
num_cat=0
split_feature=1 4 22 7 10 19 19 0 19 15 0
split_gain=8.80703 4.89246 8.0789 6.53976 7.31851 3.63525 4.90828 4.03862 3.70261 1.28785 0.458016
threshold=0.14625252464682606 0.1547879323033923 0.46318258796886302 0.19268578685378993 -0.004521797165184532 1.0000000180025095e-35 -0.00046128950892345588 46.653118169730163 0.00054346510673582106 0.0031151639216884246 66.630244205147179
decision_type=2 2 2 2 2 2 2 2 2 2 2
left_child=1 2 9 4 -3 6 7 -5 -7 -1 -2
right_child=10 3 -4 5 -6 8 -8 -9 -10 -11 -12
leaf_value=-0.02096338727928972 -0.040061600868172613 -0.041490211645174427 0.014339705637126242 -0.004273463517616336 0.0088576333791960723 0.042812582710123503 -0.021267706039993863 0.023114694916868558 0.013320993330058539 -0.046382065031289721 -0.023429424474810619
leaf_weight=3.6781603097915632 3.6082089366391292 4.5118069648742676 5.7585409581661224 7.6761416494846335 6.1269379258155805 6.3755696713924399 4.5865213572979036 13.140955835580824 9.601139232516287 3.5018459558486938 2.5384901985526085
leaf_count=20 30 25 24 33 26 23 22 51 39 21 18
internal_value=0 0.00437782 -0.0121307 0.00848393 -0.0124945 0.0138774 0.00682583 0.0130155 0.0250897 -0.0333606 -0.0331928
internal_weight=0 64.9576 12.9385 52.0191 10.6387 41.3803 25.4036 20.8171 15.9767 7.18001 6.1467
internal_count=332 284 65 219 51 168 106 84 62 41 48
is_linear=0
shrinkage=0.03


Tree=42
num_leaves=13
num_cat=0
split_feature=1 4 0 16 19 2 9 13 14 8 0 0
split_gain=8.41847 4.62766 4.79538 6.18744 6.53663 4.39752 4.37214 5.29248 4.6321 3.72719 1.87098 0.452634
threshold=0.14625252464682606 0.1547879323033923 46.065530735354592 -0.0003468020222795699 -6.2304707725164665e-05 0.039236935392185361 28.693244730991175 -0.00077769067897498479 0.00039625316489622092 0.066762447338846884 51.275599984508496 66.630244205147179
decision_type=2 2 2 2 2 2 2 2 2 2 2 2
left_child=1 9 3 4 5 -3 7 -4 -8 -1 -9 -2
right_child=11 2 6 -5 -6 -7 8 10 -10 -11 -12 -13
leaf_value=0.0013889099722441134 -0.039678144959057804 -0.027948729745779069 0.0005629906028262662 -0.028087471103829593 0.027823307004056722 0.012048791285719548 0.018089532406099004 0.044719704658858536 -0.024716643210274794 -0.031558914448472628 0.021774625064022772 -0.023013369963415669
leaf_weight=7.694213464856146 3.5348958931863299 5.1995401233434713 5.6237246096134212 5.9738112092018119 7.773199900984765 4.7193430662155151 5.3246205002069456 7.798240855336191 3.9725601673126221 5.1640166044235229 5.4223546236753464 2.5073272883892059
leaf_count=35 30 26 25 30 29 19 22 26 20 30 22 18
internal_value=0 0.00426574 0.0082639 -0.00168898 0.00722459 -0.00891816 0.0166339 0.0249397 -0.00020097 -0.0118433 0.0353089 -0.0327628
internal_weight=0 64.6656 51.8074 23.6659 17.6921 9.91888 28.1415 18.8443 9.29718 12.8582 13.2206 6.04222
internal_count=332 284 219 104 74 45 115 73 42 65 48 48
is_linear=0
shrinkage=0.03


Tree=43
num_leaves=12
num_cat=0
split_feature=15 4 0 16 10 8 16 16 22 0 17
split_gain=6.07623 6.13606 8.18113 5.14697 5.72485 5.09714 4.61079 4.28769 1.98945 1.95984 1.58524
threshold=-0.0018450705802969811 0.37550180206417699 51.562668808459598 0.0032064205603009768 0.011005699695402431 0.066762447338846884 -0.0030571287091621228 -0.0003468020222795699 -0.26845547086749988 48.971784933809708 0.00024252283182751662
decision_type=2 2 2 2 2 2 2 2 2 2 2
left_child=6 2 10 4 -4 -6 -1 -3 -9 -8 -2
right_child=1 7 3 -5 5 -7 9 8 -10 -11 -12
leaf_value=-0.0045092384157205487 0.012392373885427004 -0.0021208743649005781 -0.022839189167269271 -0.035561165390298473 0.023947145540281128 -0.01871313697031984 0.035073233666126878 -0.048917743803273385 -0.020520767642925389 0.010892431659488224 0.035003666343066092
leaf_weight=6.9313798546791103 5.5422756522893888 6.8760439753532401 6.6592924147844377 4.679627798497676 8.7731113284826261 3.5369406417012206 7.9268774539232236 4.1258565634489051 4.807827826589345 4.8699087249115109 5.6203741431236267
leaf_count=30 22 31 37 30 36 22 29 24 27 23 21
internal_value=0 -0.0044301 0.00260871 -0.00738308 -0.000431703 0.0116899 0.0151971 -0.0199289 -0.0336354 0.0258711 0.0237771
internal_weight=0 50.6214 34.8116 23.649 18.9693 12.3101 19.7282 15.8097 8.93368 12.7968 11.1626
internal_count=332 250 168 125 95 58 82 82 51 52 43
is_linear=0
shrinkage=0.03


Tree=44
num_leaves=11
num_cat=0
split_feature=1 7 10 4 6 18 23 9 17 0
split_gain=7.84605 4.46021 6.63202 5.96266 3.921 5.0855 5.15052 3.90696 3.12343 0.456799
threshold=0.14625252464682606 0.19268578685378993 -0.004521797165184532 0.1547879323033923 0.25866268521411123 0.83755739356595604 0.99999999999999856 25.020723098216596 -0.00054412674097821382 66.630244205147179
decision_type=2 2 2 2 2 2 2 2 2 2
left_child=1 2 -1 7 8 6 -6 -3 -5 -2
right_child=9 3 -4 4 5 -7 -8 -9 -10 -11
leaf_value=-0.040649007763779318 -0.039202291612310182 -0.033066059796132898 0.0040721233830818054 0.044063535006493113 -0.020333949844058969 0.032434969077955546 0.010531309295735921 0.0044958743132543638 0.014713184394553576 -0.022227917028938494
leaf_weight=4.576427534222602 3.4297410640865555 4.5727399438619596 8.5792419463396055 5.3982627093791953 7.3442875891923949 5.4862476885318747 14.418365687131882 5.4775948077440262 8.250790059566496 2.4433500543236732
leaf_count=26 30 27 39 19 36 21 57 24 35 18
internal_value=0 0.00408784 -0.0114849 0.00810897 0.0131966 0.00662236 0.000115146 -0.0125942 0.0263214 -0.0321405
internal_weight=0 64.104 13.1557 50.9483 40.898 27.2489 21.7627 10.0503 13.6491 5.87309
internal_count=332 284 65 219 168 114 93 51 54 48
is_linear=0
shrinkage=0.03


end of trees

feature_importances:
adx_14=57
macd_line=48
trend_regime_slope=40
cmf_20=40
macd_hist_ratio=34
bb_pct_lower=27
atr_pct_14=27
return_5=23
fft_imag=23
volatility_regime=20
bb_pct_upper=18
ma10_ratio=15
return_1=13
rsi_14=12
volume_sma_ratio=11
return_2=11
fft_real=11
return_3=10
ma30_ratio=10
macd_signal=9
macd_hist=9
bb_zscore=6
corr_btc_eth_20=6
corr_btc_sol_20=3
volume_ratio=2

parameters:
[boosting: gbdt]
[objective: binary]
[metric: binary_logloss]
[tree_learner: serial]
[device_type: cpu]
[data_sample_strategy: bagging]
[data: ]
[valid: ]
[num_iterations: 100]
[learning_rate: 0.03]
[num_leaves: 31]
[num_threads: 0]
[seed: 42]
[deterministic: 0]
[force_col_wise: 0]
[force_row_wise: 0]
[histogram_pool_size: -1]
[max_depth: 6]
[min_data_in_leaf: 20]
[min_sum_hessian_in_leaf: 0.001]
[bagging_fraction: 0.8]
[pos_bagging_fraction: 1]
[neg_bagging_fraction: 1]
[bagging_freq: 5]
[bagging_seed: 400]
[feature_fraction: 0.8]
[feature_fraction_bynode: 1]
[feature_fraction_seed: 30056]
[extra_trees: 0]
[extra_seed: 12879]
[early_stopping_round: 0]
[first_metric_only: 0]
[max_delta_step: 0]
[lambda_l1: 0]
[lambda_l2: 0]
[linear_lambda: 0]
[min_gain_to_split: 0]
[drop_rate: 0.1]
[max_drop: 50]
[skip_drop: 0.5]
[xgboost_dart_mode: 0]
[uniform_drop: 0]
[drop_seed: 17869]
[top_rate: 0.2]
[other_rate: 0.1]
[min_data_per_group: 100]
[max_cat_threshold: 32]
[cat_l2: 10]
[cat_smooth: 10]
[max_cat_to_onehot: 4]
[top_k: 20]
[monotone_constraints: ]
[monotone_constraints_method: basic]
[monotone_penalty: 0]
[feature_contri: ]
[forcedsplits_filename: ]
[refit_decay_rate: 0.9]
[cegb_tradeoff: 1]
[cegb_penalty_split: 0]
[cegb_penalty_feature_lazy: ]
[cegb_penalty_feature_coupled: ]
[path_smooth: 0]
[interaction_constraints: ]
[verbosity: -1]
[saved_feature_importance_type: 0]
[use_quantized_grad: 0]
[num_grad_quant_bins: 4]
[quant_train_renew_leaf: 0]
[stochastic_rounding: 1]
[linear_tree: 0]
[max_bin: 255]
[max_bin_by_feature: ]
[min_data_in_bin: 3]
[bin_construct_sample_cnt: 200000]
[data_random_seed: 175]
[is_enable_sparse: 1]
[enable_bundle: 1]
[use_missing: 1]
[zero_as_missing: 0]
[feature_pre_filter: 1]
[pre_partition: 0]
[two_round: 0]
[header: 0]
[label_column: ]
[weight_column: ]
[group_column: ]
[ignore_column: ]
[categorical_feature: ]
[forcedbins_filename: ]
[precise_float_parser: 0]
[parser_config_file: ]
[objective_seed: 16083]
[num_class: 1]
[is_unbalance: 0]
[scale_pos_weight: 1]
[sigmoid: 1]
[boost_from_average: 1]
[reg_sqrt: 0]
[alpha: 0.9]
[fair_c: 1]
[poisson_max_delta_step: 0.7]
[tweedie_variance_power: 1.5]
[lambdarank_truncation_level: 30]
[lambdarank_norm: 1]
[label_gain: ]
[lambdarank_position_bias_regularization: 0]
[eval_at: ]
[multi_error_top_k: 1]
[auc_mu_weights: ]
[num_machines: 1]
[local_listen_port: 12400]
[time_out: 120]
[machine_list_filename: ]
[machines: ]
[gpu_platform_id: -1]
[gpu_device_id: -1]
[gpu_use_dp: 0]
[num_gpu: 1]

end of parameters

pandas_categorical:[]
