{"learner":{"attributes":{"best_iteration":"48","best_score":"0.6420117977495287"},"feature_names":["rsi_14","macd_line","macd_signal","macd_hist","bb_pct_upper","bb_pct_lower","atr_pct_14","volatility_regime","trend_regime_slope","adx_14","cmf_20","volume_sma_ratio","return_1","return_2","return_3","return_5","ma10_ratio","ma30_ratio","bb_zscore","macd_hist_ratio","volume_ratio","fft_real","fft_imag","corr_btc_eth_20","corr_btc_sol_20","corr_btc_eth_100","corr_btc_sol_100","ratio_btc_eth_norm","ratio_btc_sol_norm","ratio_btc_bnb_norm","btc_funding_rate","funding_mom_1","funding_mom_3","funding_spread_eth","funding_spread_sol","funding_spread_bnb"],"feature_types":["float","float","float","float","float","float","float","float","float","float","float","float","float","float","float","float","float","float","float","float","float","float","float","float","float","float","float","float","float","float","float","float","float","float","float","float"],"gradient_booster":{"model":{"gbtree_model_param":{"num_parallel_tree":"1","num_trees":"64"},"iteration_indptr":[0,1,2,3,4,5,6,7,8,9,10,11,12,13,14,15,16,17,18,19,20,21,22,23,24,25,26,27,28,29,30,31,32,33,34,35,36,37,38,39,40,41,42,43,44,45,46,47,48,49,50,51,52,53,54,55,56,57,58,59,60,61,62,63,64],"tree_info":[0,0,0,0,0,0,0,0,0,0,0,0,0,0,0,0,0,0,0,0,0,0,0,0,0,0,0,0,0,0,0,0,0,0,0,0,0,0,0,0,0,0,0,0,0,0,0,0,0,0,0,0,0,0,0,0,0,0,0,0,0,0,0,0],"trees":[{"base_weights":[2.7408013E-2,4.592761E-1,-2.4515966E-1,7.5124294E-1,-3.2504892E-1,3.3895728E-1,-5.153516E-1,8.04652E-1,-3.6257155E-2,1.0056688E0,-5.7172644E-1,-1.0899484E0,5.3623515E-1,-1.0559372E0,-1.3501762E-1,3.6952597E-1,1.082911E0,4.4651434E-2,-1.1012714E-2,-1.1794832E0,-9.825208E-2,-1.417575E0,1.0130819E-2,-2.2793011E-1,8.3253556E-1,-6.042182E-1,-1.5351031E0,-9.306476E-1,1.1456175E-1,2.8715668E-2,5.0616276E-2,1.1930516E0,1.03620596E-1,-4.0185326E-1,-4.6142112E-2,-5.466482E-1,8.977686E-1,-4.764593E-2,-1.1012714E-2,-5.702712E-1,8.7791574E-1,2.9382703E-1,1.2238821E0,-1.4681189E0,8.644219E-2,-1.6440556E0,5.995956E-3,2.1581095E-1,-1.459422E0,5.230508E-1,-6.331122E-1,1.795985E-2,-2.1558454E-2,1.3503117E-2,4.0325496E-2,-2.9896596E-2,3.556667E-2,-3.9396096E-2,1.7818645E-2,-2.4990562E-2,1.3262361E-2,3.7933253E-2,-5.2114035E-4,-3.1054668E-2,1.1666221E-2,3.6003258E-2,4.3689143E-3,2.2602314E-2,-2.3893315E-2,-1.5030919E-2,4.108724E-2,-1.1870807E-2,-5.3516082E-2,1.7543608E-2,-3.1463925E-2,-5.2968875E-2,4.3689143E-3,-1.9174295E-2,3.0538186E-2,1.0130819E-2,-5.0410118E-2,-2.9896596E-2,1.9923288E-2,3.5519496E-2,-3.224401E-2],"categories":[],"categories_nodes":[],"categories_segments":[],"categories_sizes":[],"default_left":[0,0,0,0,0,0,0,0,0,0,0,0,0,0,0,0,0,0,0,0,0,0,0,0,0,0,0,0,0,0,0,0,0,0,0,0,0,0,0,0,0,0,0,0,0,0,0,0,0,0,0,0,0,0,0,0,0,0,0,0,0,0,0,0,0,0,0,0,0,0,0,0,0,0,0,0,0,0,0,0,0,0,0,0,0],"id":0,"left_children":[1,3,5,7,9,11,13,15,-1,17,19,21,23,25,27,29,31,-1,-1,33,35,37,-1,39,41,43,45,47,49,51,-1,53,55,57,-1,59,61,-1,-1,63,65,67,69,71,73,75,-1,77,79,81,83,-1,-1,-1,-1,-1,-1,-1,-1,-1,-1,-1,-1,-1,-1,-1,-1,-1,-1,-1,-1,-1,-1,-1,-1,-1,-1,-1,-1,-1,-1,-1,-1,-1,-1],"loss_changes":[3.3091694E1,2.5148119E1,2.7385445E1,9.299435E0,1.0488143E1,1.6125721E1,2.4176228E1,9.04908E0,0E0,3.9160056E0,7.3986692E0,3.7612648E0,1.131028E1,9.614021E0,1.412147E1,1.4303665E1,4.954815E0,0E0,0E0,2.54535E0,7.533652E0,4.7456646E-1,0E0,5.992968E0,7.1469517E0,1.606869E1,4.6732674E0,1.0597927E1,1.7011604E1,1.1678758E1,0E0,4.136528E0,8.151074E0,5.2577453E0,0E0,3.623184E0,1.7916517E0,0E0,0E0,5.612562E0,7.2729254E-1,8.766609E0,5.789736E0,3.3325043E0,9.547659E0,4.98608E0,0E0,4.919784E0,5.2272453E0,8.349959E0,1.712274E1,0E0,0E0,0E0,0E0,0E0,0E0,0E0,0E0,0E0,0E0,0E0,0E0,0E0,0E0,0E0,0E0,0E0,0E0,0E0,0E0,0E0,0E0,0E0,0E0,0E0,0E0,0E0,0E0,0E0,0E0,0E0,0E0,0E0,0E0],"parents":[2147483647,0,0,1,1,2,2,3,3,4,4,5,5,6,6,7,7,9,9,10,10,11,11,12,12,13,13,14,14,15,15,16,16,19,19,20,20,21,21,23,23,24,24,25,25,26,26,27,27,28,28,29,29,31,31,32,32,33,33,35,35,36,36,39,39,40,40,41,41,42,42,43,43,44,44,45,45,47,47,48,48,49,49,50,50],"right_children":[2,4,6,8,10,12,14,16,-1,18,20,22,24,26,28,30,32,-1,-1,34,36,38,-1,40,42,44,46,48,50,52,-1,54,56,58,-1,60,62,-1,-1,64,66,68,70,72,74,76,-1,78,80,82,84,-1,-1,-1,-1,-1,-1,-1,-1,-1,-1,-1,-1,-1,-1,-1,-1,-1,-1,-1,-1,-1,-1,-1,-1,-1,-1,-1,-1,-1,-1,-1,-1,-1,-1],"split_conditions":[1.341069E-1,1.0950983E-3,4.1304348E1,4.5328457E-2,-5.323596E-2,-1.5894294E-1,2.3923136E1,-9.593946E-2,-3.6257155E-2,8.149223E-3,2.625361E-4,4.0993034E1,-3.3797845E-1,4.355058E-1,5.187032E-1,4.073441E1,9.27398E-4,4.4651434E-2,-1.1012714E-2,1.7200855E1,3.1781008E1,3.472222E1,1.0130819E-2,5.635934E-3,6.3713354E-1,1.1587053E-2,9.86095E-1,-3.0983457E-2,4.780203E-2,2.4964663E1,5.0616276E-2,-1.0631229E-3,2.2456863E1,6.835252E-2,-4.6142112E-2,2.3249242E-1,1.118441E-1,-4.764593E-2,-1.1012714E-2,7.997708E-2,-2.3186912E-3,6.128685E-2,-2.4372382E-1,1.9444239E-1,3.4595412E-1,2.1330311E0,5.995956E-3,5.645161E1,-7.6842286E-2,-1.1804157E-1,2.674599E-2,1.795985E-2,-2.1558454E-2,1.3503117E-2,4.0325496E-2,-2.9896596E-2,3.556667E-2,-3.9396096E-2,1.7818645E-2,-2.4990562E-2,1.3262361E-2,3.7933253E-2,-5.2114035E-4,-3.1054668E-2,1.1666221E-2,3.6003258E-2,4.3689143E-3,2.2602314E-2,-2.3893315E-2,-1.5030919E-2,4.108724E-2,-1.1870807E-2,-5.3516082E-2,1.7543608E-2,-3.1463925E-2,-5.2968875E-2,4.3689143E-3,-1.9174295E-2,3.0538186E-2,1.0130819E-2,-5.0410118E-2,-2.9896596E-2,1.9923288E-2,3.5519496E-2,-3.224401E-2],"split_indices":[6,17,0,1,10,1,9,22,0,8,12,9,21,22,7,9,13,0,0,9,9,0,0,1,4,8,7,10,8,9,0,14,9,4,0,10,6,0,0,5,14,10,10,5,4,11,0,0,8,10,1,0,0,0,0,0,0,0,0,0,0,0,0,0,0,0,0,0,0,0,0,0,0,0,0,0,0,0,0,0,0,0,0,0,0],"split_type":[0,0,0,0,0,0,0,0,0,0,0,0,0,0,0,0,0,0,0,0,0,0,0,0,0,0,0,0,0,0,0,0,0,0,0,0,0,0,0,0,0,0,0,0,0,0,0,0,0,0,0,0,0,0,0,0,0,0,0,0,0,0,0,0,0,0,0,0,0,0,0,0,0,0,0,0,0,0,0,0,0,0,0,0,0],"sum_hessian":[2.7916464E2,1.0775226E2,1.7141237E2,7.8552925E1,2.9199327E1,5.413204E1,1.17280334E2,7.704278E1,1.5101528E0,4.085106E0,2.5114222E1,6.0180063E0,4.811403E1,4.7702427E1,6.957791E1,3.0958925E1,4.608385E1,2.9600263E0,1.1250796E0,1.0344626E1,1.4769595E1,4.9004617E0,1.1175448E0,1.3507817E1,3.4606213E1,2.5718283E1,2.1984144E1,1.5962489E1,5.361542E1,2.5408876E1,5.5500493E0,4.12286E1,4.8552523E0,3.9340115E0,6.4106145E0,1.0495721E1,4.273875E0,3.775382E0,1.1250796E0,1.0684489E1,2.8233273E0,1.5298228E1,1.9307985E1,1.0926003E1,1.4792279E1,2.073446E1,1.2496831E0,5.2252555E0,1.0737234E1,3.4866604E1,1.8748817E1,1.4528082E1,1.0880794E1,7.641579E0,3.3587017E1,2.4464633E0,2.4087887E0,1.887691E0,2.0463204E0,8.260631E0,2.2350895E0,2.7787921E0,1.495083E0,7.1430864E0,3.5414033E0,1.5170134E0,1.3063139E0,1.0979144E1,4.3190846E0,1.3138487E0,1.7994137E1,2.997701E0,7.9283023E0,1.0616675E1,4.1756043E0,1.9428148E1,1.3063139E0,2.6276975E0,2.597558E0,1.1175448E0,9.619689E0,2.4464633E0,3.242014E1,3.3375645E0,1.5411252E1],"tree_param":{"num_deleted":"0","num_feature":"36","num_nodes":"85","size_leaf_vector":"1"}},{"base_weights":[3.2368254E-2,2.438823E-1,-3.5506478E-1,-5.240115E-1,4.7400612E-1,-7.5633323E-1,3.435425E-1,-1.3064495E0,-1.2623538E-1,-8.5458E-1,5.392729E-1,-1.1089351E0,1.3980426E-1,-1.3573014E0,6.0914177E-1,-1.5473788E0,-2.7474838E-1,-5.9187394E-1,5.819834E-1,3.1266637E-2,-1.3881384E0,6.0791105E-1,-5.577291E-1,-5.091687E-1,-1.5609896E0,6.358794E-1,-1.3124286E0,-1.1143043E-2,-4.597645E-2,8.005914E-1,-4.1141458E-2,-8.372161E-3,-5.304411E-2,-3.053569E-2,1.2931538E-2,8.129838E-1,-1.0309572E0,-1.3164192E-1,1.2118965E0,-1.0448645E-2,-4.6805203E-2,7.767372E-1,1.6193037E-1,3.666757E-1,-1.2920243E0,1.7342505E-1,-1.4381915E0,-1.1396829E-2,-1.6478324E0,-1.1479784E-1,1.2161465E0,-4.4807844E-2,-1.0559882E-2,-8.2067704E-1,1.0194442E0,3.5484053E-2,-5.457864E-4,1.6737143E-3,-4.1802123E-2,1.8201387E-2,-2.9561505E-2,4.3509457E-2,4.285068E-3,1.1747929E-2,3.353293E-2,2.1781845E-2,-1.019508E-2,-8.908779E-3,2.830517E-2,-4.4288643E-2,-1.0549973E-2,-2.7870396E-2,1.4629553E-2,1.0408007E-2,-5.1947195E-2,-4.011381E-3,-5.2732944E-2,-4.231652E-2,2.4637816E-2,-3.8315624E-4,4.4495407E-2,9.757717E-3,-4.0277958E-2,-1.1385636E-2,3.4446415E-2],"categories":[],"categories_nodes":[],"categories_segments":[],"categories_sizes":[],"default_left":[0,0,0,0,0,0,0,0,0,0,0,0,0,0,0,0,0,0,0,0,0,0,0,0,0,0,0,0,0,0,0,0,0,0,0,0,0,0,0,0,0,0,0,0,0,0,0,0,0,0,0,0,0,0,0,0,0,0,0,0,0,0,0,0,0,0,0,0,0,0,0,0,0,0,0,0,0,0,0,0,0,0,0,0,0],"id":1,"left_children":[1,3,5,7,9,11,13,15,17,19,21,23,25,27,29,31,33,35,37,-1,39,41,43,45,47,49,51,-1,-1,53,-1,-1,-1,-1,-1,55,57,59,61,-1,-1,63,65,67,69,71,73,-1,75,77,79,-1,-1,81,83,-1,-1,-1,-1,-1,-1,-1,-1,-1,-1,-1,-1,-1,-1,-1,-1,-1,-1,-1,-1,-1,-1,-1,-1,-1,-1,-1,-1,-1,-1],"loss_changes":[2.3210833E1,3.260855E1,2.8309097E1,1.3124858E1,1.2724176E1,2.0335506E1,1.7628016E1,3.1255302E0,1.0044943E1,8.540319E0,1.0535355E1,1.1662018E1,1.4466084E1,3.5216522E-1,1.355704E1,2.688469E0,2.4948292E0,1.20913105E1,5.6313853E0,0E0,5.1191425E-1,9.505772E0,6.2403316E0,1.3712498E1,2.0115013E0,6.5766096E0,3.693409E-1,0E0,0E0,1.1691938E1,0E0,0E0,0E0,0E0,0E0,1.5286717E0,5.726016E0,4.7639813E0,1.4657745E0,0E0,0E0,1.1715477E1,1.0547484E1,2.0180411E0,3.395214E-1,5.001704E0,5.366415E0,0E0,3.7021103E0,1.0081109E1,2.782424E0,0E0,0E0,2.944271E0,5.371954E0,0E0,0E0,0E0,0E0,0E0,0E0,0E0,0E0,0E0,0E0,0E0,0E0,0E0,0E0,0E0,0E0,0E0,0E0,0E0,0E0,0E0,0E0,0E0,0E0,0E0,0E0,0E0,0E0,0E0,0E0],"parents":[2147483647,0,0,1,1,2,2,3,3,4,4,5,5,6,6,7,7,8,8,9,9,10,10,11,11,12,12,13,13,14,14,15,15,16,16,17,17,18,18,20,20,21,21,22,22,23,23,24,24,25,25,26,26,29,29,35,35,36,36,37,37,38,38,41,41,42,42,43,43,44,44,45,45,46,46,48,48,49,49,50,50,53,53,54,54],"right_children":[2,4,6,8,10,12,14,16,18,20,22,24,26,28,30,32,34,36,38,-1,40,42,44,46,48,50,52,-1,-1,54,-1,-1,-1,-1,-1,56,58,60,62,-1,-1,64,66,68,70,72,74,-1,76,78,80,-1,-1,82,84,-1,-1,-1,-1,-1,-1,-1,-1,-1,-1,-1,-1,-1,-1,-1,-1,-1,-1,-1,-1,-1,-1,-1,-1,-1,-1,-1,-1,-1,-1],"split_conditions":[8.835296E-3,-5.385025E-1,3.0967785E1,2.2132E1,-1.5894294E-1,1.9772135E-1,-8.0072234E-4,9.8105836E-1,-4.0085515E-4,-2.527642E-1,1.714135E-3,1.8167686E-2,7.468354E1,1.4545458E-2,8.69265E-2,-6.312564E-2,-8.513672E-1,2.4559002E1,2.6583913E-1,3.1266637E-2,-2.4695021E-1,3.6346637E-2,-1.582811E-1,7.3581503E-4,1.3823483E1,7.961924E-2,2.0006401E-4,-1.1143043E-2,-4.597645E-2,1.75E-1,-4.1141458E-2,-8.372161E-3,-5.304411E-2,-3.053569E-2,1.2931538E-2,-2.4707887E-2,3.7777775E1,1.3700537E-1,4.51642E-1,-1.0448645E-2,-4.6805203E-2,-1.04219876E-1,-1.1538462E-3,-5.904387E-1,6.693192E-1,-5.1079044E-4,-3.9623794E-1,-1.1396829E-2,9.739131E-2,2.1096094E1,7.981271E-1,-4.4807844E-2,-1.0559882E-2,-2.4695021E-1,-2.9832225E-2,3.5484053E-2,-5.457864E-4,1.6737143E-3,-4.1802123E-2,1.8201387E-2,-2.9561505E-2,4.3509457E-2,4.285068E-3,1.1747929E-2,3.353293E-2,2.1781845E-2,-1.019508E-2,-8.908779E-3,2.830517E-2,-4.4288643E-2,-1.0549973E-2,-2.7870396E-2,1.4629553E-2,1.0408007E-2,-5.1947195E-2,-4.011381E-3,-5.2732944E-2,-4.231652E-2,2.4637816E-2,-3.8315624E-4,4.4495407E-2,9.757717E-3,-4.0277958E-2,-1.1385636E-2,3.4446415E-2],"split_indices":[3,21,9,9,1,10,17,11,15,1,13,1,0,3,8,10,21,9,4,0,21,2,18,19,9,4,19,0,0,7,0,0,0,0,0,10,0,4,5,0,0,22,15,22,21,15,18,0,7,9,18,0,0,21,4,0,0,0,0,0,0,0,0,0,0,0,0,0,0,0,0,0,0,0,0,0,0,0,0,0,0,0,0,0,0],"split_type":[0,0,0,0,0,0,0,0,0,0,0,0,0,0,0,0,0,0,0,0,0,0,0,0,0,0,0,0,0,0,0,0,0,0,0,0,0,0,0,0,0,0,0,0,0,0,0,0,0,0,0,0,0,0,0,0,0,0,0,0,0,0,0,0,0,0,0,0,0,0,0,0,0,0,0,0,0,0,0,0,0,0,0,0,0],"sum_hessian":[2.811835E2,1.8212515E2,9.905836E1,4.1700115E1,1.4042503E2,6.2866337E1,3.6192017E1,1.3284569E1,2.8415546E1,6.009081E0,1.3441595E2,4.4944595E1,1.7921741E1,4.333139E0,3.1858877E1,1.0364382E1,2.9201865E0,1.7242954E1,1.1172593E1,1.1099317E0,4.8991494E0,1.2692053E2,7.495428E0,2.0230282E1,2.4714315E1,1.3777543E1,4.1442E0,1.1248266E0,3.2083123E0,2.9593914E1,2.264963E0,1.872218E0,8.492164E0,1.207123E0,1.7130634E0,3.9031577E0,1.3339797E1,5.6090946E0,5.563498E0,1.1248168E0,3.7743325E0,9.153012E1,3.5390408E1,3.539806E0,3.9556222E0,1.21306715E1,8.09961E0,2.060822E0,2.2653492E1,6.3564816E0,7.421061E0,3.0195038E0,1.1246959E0,3.1926622E0,2.6401253E1,2.4084935E0,1.494664E0,3.5479183E0,9.791879E0,3.1629658E0,2.446129E0,4.2574005E0,1.3060974E0,4.399387E1,4.7536255E1,1.6449444E1,1.8940964E1,1.8716664E0,1.6681395E0,2.8309715E0,1.1246506E0,2.2567046E0,9.873967E0,1.1174971E0,6.982113E0,1.6834425E0,2.097005E1,2.4534092E0,3.9030728E0,1.4946576E0,5.926403E0,1.1169933E0,2.0756688E0,2.0611753E0,2.4340076E1],"tree_param":{"num_deleted":"0","num_feature":"36","num_nodes":"85","size_leaf_vector":"1"}},{"base_weights":[-2.3145795E-2,1.5444644E-1,-5.232773E-1,-5.2805245E-1,2.9349136E-1,-2.348336E-2,-9.184778E-1,1.2304221E-1,-1.1463765E0,4.8904398E-1,-2.9167393E-1,-3.4638646E-1,1.3273594E0,5.1316756E-1,-1.1082612E0,6.66965E-1,-1.3307263E0,-1.4578265E0,3.5428366E-1,3.2071647E-1,9.467154E-1,-8.312367E-1,1.7267796E-1,2.4823172E-1,-7.8813666E-1,4.7566082E-2,4.281124E-3,3.8517475E-2,-3.3322092E-2,-1.6341606E0,-6.871719E-1,-6.841207E-1,1.0669875E0,-4.535025E-2,-1.0374826E-2,-1.6048961E0,-7.5738546E-3,3.798921E-2,-3.0921727E-2,5.902125E-1,-1.0372112E-1,1.2709392E0,2.998641E-1,-1.1029706E0,3.7798088E-2,4.1874126E-2,-1.2286299E-1,-5.6014574E-1,7.566927E-1,-1.1256621E0,2.8145084E-1,-1.0242448E-2,-1.7103931E0,8.836318E-2,-1.2427316E0,9.908617E-3,-3.6784954E-2,-1.4343868E-2,3.9610367E-2,-1.4548915E-2,-5.05461E-2,2.2791043E-2,-9.968617E-3,-2.1138348E-2,1.8986866E-2,4.449407E-2,2.144937E-2,3.467372E-2,-1.916439E-2,-4.6110854E-2,9.087243E-3,-3.0470252E-2,8.276464E-3,1.1417312E-2,-3.215292E-2,3.18045E-2,-1.4435532E-2,-4.1732535E-2,1.1523026E-2,3.2238804E-2,-2.1559186E-2,-5.3867884E-2,-1.7417962E-2,-2.3881907E-2,1.8095227E-2,-2.565864E-3,-4.82074E-2],"categories":[],"categories_nodes":[],"categories_segments":[],"categories_sizes":[],"default_left":[0,0,0,0,0,0,0,0,0,0,0,0,0,0,0,0,0,0,0,0,0,0,0,0,0,0,0,0,0,0,0,0,0,0,0,0,0,0,0,0,0,0,0,0,0,0,0,0,0,0,0,0,0,0,0,0,0,0,0,0,0,0,0,0,0,0,0,0,0,0,0,0,0,0,0,0,0,0,0,0,0,0,0,0,0,0,0],"id":2,"left_children":[1,3,5,7,9,11,13,15,17,19,21,23,25,27,29,31,33,35,37,39,41,43,45,47,49,-1,-1,-1,-1,51,53,55,57,-1,-1,59,-1,-1,-1,61,63,65,67,69,-1,-1,71,73,75,77,79,-1,81,83,85,-1,-1,-1,-1,-1,-1,-1,-1,-1,-1,-1,-1,-1,-1,-1,-1,-1,-1,-1,-1,-1,-1,-1,-1,-1,-1,-1,-1,-1,-1,-1,-1],"loss_changes":[2.521309E1,2.0044075E1,1.4668913E1,1.4565351E1,2.0139954E1,1.523265E1,1.1846352E1,1.5401611E1,9.15082E0,9.815889E0,1.12674885E1,7.583847E0,1.8354216E0,8.362336E0,7.0630684E0,8.309196E0,4.2738342E-1,2.3415337E0,6.3321147E0,1.1219134E1,6.919113E0,1.3156965E1,9.096693E0,5.664298E0,6.229295E0,0E0,0E0,0E0,0E0,9.643936E-1,9.698068E0,2.501505E0,5.019929E0,0E0,0E0,4.0301895E-1,0E0,0E0,0E0,9.604496E0,1.7590681E1,1.6385574E0,1.1127394E1,1.1974562E1,0E0,0E0,7.686756E0,3.0538E0,3.6099515E0,5.6030884E0,4.523106E0,0E0,3.6166763E-1,5.134265E0,5.3547516E0,0E0,0E0,0E0,0E0,0E0,0E0,0E0,0E0,0E0,0E0,0E0,0E0,0E0,0E0,0E0,0E0,0E0,0E0,0E0,0E0,0E0,0E0,0E0,0E0,0E0,0E0,0E0,0E0,0E0,0E0,0E0,0E0],"parents":[2147483647,0,0,1,1,2,2,3,3,4,4,5,5,6,6,7,7,8,8,9,9,10,10,11,11,12,12,13,13,14,14,15,15,16,16,17,17,18,18,19,19,20,20,21,21,22,22,23,23,24,24,29,29,30,30,31,31,32,32,35,35,39,39,40,40,41,41,42,42,43,43,46,46,47,47,48,48,49,49,50,50,52,52,53,53,54,54],"right_children":[2,4,6,8,10,12,14,16,18,20,22,24,26,28,30,32,34,36,38,40,42,44,46,48,50,-1,-1,-1,-1,52,54,56,58,-1,-1,60,-1,-1,-1,62,64,66,68,70,-1,-1,72,74,76,78,80,-1,82,84,86,-1,-1,-1,-1,-1,-1,-1,-1,-1,-1,-1,-1,-1,-1,-1,-1,-1,-1,-1,-1,-1,-1,-1,-1,-1,-1,-1,-1,-1,-1,-1,-1],"split_conditions":[4.2219963E-2,-6.093444E-1,4.9129285E-2,-1.875694E-2,1.1061854E-2,2.67084E-1,-3.6292307E-2,7.386588E-1,4.3454323E-2,4.4514846E-2,-7.5626555E-3,-1.3252054E-4,-3.5842693E-1,1.3034898E-1,6.5744287E-1,-1.279362E0,5.571018E-2,3.3091966E-2,4.387992E-1,1.4810045E-1,1.2389894E-2,2.86015E-1,4.0840244E-4,5.9969854E-2,2.6051842E-3,4.7566082E-2,4.281124E-3,3.8517475E-2,-3.3322092E-2,-1.1804157E-1,-7.614284E-2,4.600061E-1,1.4435247E1,-4.535025E-2,-1.0374826E-2,-2.1761805E-3,-7.5738546E-3,3.798921E-2,-3.0921727E-2,9.2813576E-4,7.546798E-1,-5.2301923E-4,3.0612245E-1,9.9771675E-3,3.7798088E-2,4.1874126E-2,1.8469172E-2,4.3762397E-2,1.0757745E-1,2.6888183E-1,1.6641065E-1,-1.0242448E-2,1.182499E-3,6.9519244E-2,-3.6406554E-2,9.908617E-3,-3.6784954E-2,-1.4343868E-2,3.9610367E-2,-1.4548915E-2,-5.05461E-2,2.2791043E-2,-9.968617E-3,-2.1138348E-2,1.8986866E-2,4.449407E-2,2.144937E-2,3.467372E-2,-1.916439E-2,-4.6110854E-2,9.087243E-3,-3.0470252E-2,8.276464E-3,1.1417312E-2,-3.215292E-2,3.18045E-2,-1.4435532E-2,-4.1732535E-2,1.1523026E-2,3.2238804E-2,-2.1559186E-2,-5.3867884E-2,-1.7417962E-2,-2.3881907E-2,1.8095227E-2,-2.565864E-3,-4.82074E-2],"split_indices":[1,21,8,1,3,6,3,7,2,8,1,13,21,8,11,21,10,1,4,6,10,10,17,1,14,0,0,0,0,10,21,11,9,0,0,16,0,0,0,14,7,17,7,8,0,0,3,1,1,10,6,0,13,8,10,0,0,0,0,0,0,0,0,0,0,0,0,0,0,0,0,0,0,0,0,0,0,0,0,0,0,0,0,0,0,0,0],"split_type":[0,0,0,0,0,0,0,0,0,0,0,0,0,0,0,0,0,0,0,0,0,0,0,0,0,0,0,0,0,0,0,0,0,0,0,0,0,0,0,0,0,0,0,0,0,0,0,0,0,0,0,0,0,0,0,0,0,0,0,0,0,0,0,0,0,0,0,0,0,0,0,0,0,0,0,0,0,0,0,0,0,0,0,0,0,0,0],"sum_hessian":[2.8195905E2,2.0858394E2,7.337511E1,3.4828976E1,1.7375496E2,3.2867867E1,4.0507236E1,1.735509E1,1.7473886E1,1.303563E2,4.3398666E1,2.7127045E1,5.7408237E0,4.5418086E0,3.5965427E1,1.3023577E1,4.331513E0,1.4494262E1,2.9796247E0,9.6547676E1,3.380862E1,1.9708218E1,2.369045E1,1.1749582E1,1.5377461E1,4.4357324E0,1.3050916E0,3.2219496E0,1.3198589E0,1.4711458E1,2.1253971E1,2.812862E0,1.0210715E1,3.2073882E0,1.1241248E0,1.2622675E1,1.8715864E0,1.8482574E0,1.1313674E0,5.8813534E1,3.7734142E1,2.1877878E1,1.1930741E1,1.785999E1,1.8482268E0,3.885799E0,1.9804651E1,4.497529E0,7.2520533E0,1.1649006E1,3.728456E0,1.1242962E0,1.3587162E1,9.221766E0,1.2032205E1,1.1156482E0,1.6972138E0,1.3134445E0,8.89727E0,1.3121212E0,1.13105545E1,4.9834095E1,8.979437E0,2.0805573E1,1.692857E1,1.4627294E1,7.250585E0,6.1194572E0,5.8112845E0,1.3575376E1,4.284614E0,5.6366673E0,1.4167984E1,1.6745791E0,2.8229501E0,5.9395795E0,1.3124735E0,9.974122E0,1.674884E0,2.0377657E0,1.6906903E0,1.2086361E1,1.5008006E0,3.1918917E0,6.029875E0,3.1758046E0,8.8564E0],"tree_param":{"num_deleted":"0","num_feature":"36","num_nodes":"87","size_leaf_vector":"1"}},{"base_weights":[-1.6208967E-2,2.2242226E-1,-4.1792172E-1,6.6762716E-2,1.0513871E0,-9.283705E-1,-6.1139937E-2,4.3689194E-1,-3.7733194E-1,-3.0945536E-1,1.2196374E0,2.6645413E-1,-1.1762582E0,-3.405948E-1,1.4344184E0,5.412549E-1,-1.2682644E0,-5.4695016E-1,5.011431E-1,1.6998423E-2,-3.3450842E-2,2.3424663E-1,1.4275478E0,6.843482E-1,-3.2081444E-2,-6.7520493E-1,-1.5400311E0,1.0808149E-1,-1.0303899E0,5.140794E-2,-1.1292019E-2,6.7293394E-1,-8.6559033E-1,-4.346186E-2,-1.03672E-2,-7.664551E-2,-9.7049344E-1,1.1069157E0,-8.09142E-1,1.0643644E0,-3.5121657E-2,1.5486715E0,-1.4331614E-3,-1.4927983E-2,1.0602609E0,1.7141381E-1,-1.2700695E0,-4.9937133E-2,-5.038822E-4,-3.779908E-1,4.8111886E-1,3.616667E-2,-1.517867E0,4.2859025E-2,1.32257445E-2,-3.9096206E-2,3.84935E-3,7.449874E-3,-3.163061E-2,-3.6215667E-2,1.25386575E-2,4.3495055E-2,-4.3079043E-3,-3.708187E-2,-6.843666E-4,9.2088645E-3,3.7601378E-2,4.829295E-2,9.377901E-3,3.9302103E-2,4.538117E-3,2.3013799E-2,-3.634449E-2,-4.5560382E-2,5.295936E-3,-2.02271E-2,1.4740079E-2,4.3538153E-2,-3.312683E-3,1.830119E-2,-3.6568455E-2,-4.7457706E-2,-1.4996503E-2],"categories":[],"categories_nodes":[],"categories_segments":[],"categories_sizes":[],"default_left":[0,0,0,0,0,0,0,0,0,0,0,0,0,0,0,0,0,0,0,0,0,0,0,0,0,0,0,0,0,0,0,0,0,0,0,0,0,0,0,0,0,0,0,0,0,0,0,0,0,0,0,0,0,0,0,0,0,0,0,0,0,0,0,0,0,0,0,0,0,0,0,0,0,0,0,0,0,0,0,0,0,0,0],"id":3,"left_children":[1,3,5,7,9,11,13,15,17,19,21,23,25,27,29,31,33,35,37,-1,-1,39,41,43,-1,45,47,49,51,-1,-1,53,55,-1,-1,57,59,61,63,65,-1,67,-1,-1,69,71,73,-1,-1,75,77,79,81,-1,-1,-1,-1,-1,-1,-1,-1,-1,-1,-1,-1,-1,-1,-1,-1,-1,-1,-1,-1,-1,-1,-1,-1,-1,-1,-1,-1,-1,-1],"loss_changes":[2.6489756E1,2.2304663E1,1.8695118E1,2.4336592E1,6.6383934E0,1.2838875E1,2.6265224E1,1.5042119E1,1.0314767E1,3.3181586E0,4.69289E0,5.2432566E0,5.377537E0,1.6444464E1,5.6508636E0,1.4794737E1,3.2388163E-1,1.127124E1,9.9656925E0,0E0,0E0,7.627641E0,3.659851E0,3.533596E0,0E0,8.573015E0,3.6936035E0,6.1438117E0,1.0917707E1,0E0,0E0,1.1772129E1,3.2134004E0,0E0,0E0,9.182E0,1.0325254E1,3.7402573E0,1.3785303E0,1.8264341E-1,0E0,8.994522E-1,0E0,0E0,1.039937E0,7.295371E0,3.8151684E0,0E0,0E0,4.1523385E0,1.1088861E1,6.1677227E0,1.4578629E-1,0E0,0E0,0E0,0E0,0E0,0E0,0E0,0E0,0E0,0E0,0E0,0E0,0E0,0E0,0E0,0E0,0E0,0E0,0E0,0E0,0E0,0E0,0E0,0E0,0E0,0E0,0E0,0E0,0E0,0E0],"parents":[2147483647,0,0,1,1,2,2,3,3,4,4,5,5,6,6,7,7,8,8,9,9,10,10,11,11,12,12,13,13,14,14,15,15,16,16,17,17,18,18,21,21,22,22,23,23,25,25,26,26,27,27,28,28,31,31,32,32,35,35,36,36,37,37,38,38,39,39,41,41,44,44,45,45,46,46,49,49,50,50,51,51,52,52],"right_children":[2,4,6,8,10,12,14,16,18,20,22,24,26,28,30,32,34,36,38,-1,-1,40,42,44,-1,46,48,50,52,-1,-1,54,56,-1,-1,58,60,62,64,66,-1,68,-1,-1,70,72,74,-1,-1,76,78,80,82,-1,-1,-1,-1,-1,-1,-1,-1,-1,-1,-1,-1,-1,-1,-1,-1,-1,-1,-1,-1,-1,-1,-1,-1,-1,-1,-1,-1,-1,-1],"split_conditions":[1.782854E-1,3.8925037E1,2.5082676E1,2.2864252E-1,-9.0252707E-4,1.3668192E1,3.025233E-1,6.998247E-2,5.603799E-1,-4.0284678E-4,2.7272728E-1,1.6803204E-1,-7.3540903E-4,1.6114763E-3,3.758431E-1,6.9020353E-3,4.9276674E-1,4.0764444E-2,2.2901635E-1,1.6998423E-2,-3.3450842E-2,1.0495933E-1,2.6226964E-2,2.0762335E-1,-3.2081444E-2,4.7256786E-1,3.8526434E-1,1.4208108E-1,2.940891E1,5.140794E-2,-1.1292019E-2,1.3335675E-1,1.3833159E-1,-4.346186E-2,-1.03672E-2,1.516915E-1,1.0748354E-3,1.7031312E-1,3.9520484E-4,-8.656811E-3,-3.5121657E-2,1.0269576E-3,-1.4331614E-3,-1.4927983E-2,1.4115232E-3,2.7292168E-1,9.302072E-1,-4.9937133E-2,-5.038822E-4,-9.4670905E-3,-3.315419E-2,7.078909E-1,4.7127728E1,4.2859025E-2,1.32257445E-2,-3.9096206E-2,3.84935E-3,7.449874E-3,-3.163061E-2,-3.6215667E-2,1.25386575E-2,4.3495055E-2,-4.3079043E-3,-3.708187E-2,-6.843666E-4,9.2088645E-3,3.7601378E-2,4.829295E-2,9.377901E-3,3.9302103E-2,4.538117E-3,2.3013799E-2,-3.634449E-2,-4.5560382E-2,5.295936E-3,-2.02271E-2,1.4740079E-2,4.3538153E-2,-3.312683E-3,1.830119E-2,-3.6568455E-2,-4.7457706E-2,-1.4996503E-2],"split_indices":[6,9,9,5,14,9,6,8,7,12,7,2,19,3,6,3,7,22,4,0,0,6,3,5,0,22,6,22,9,0,0,4,6,0,0,6,12,6,12,8,0,12,0,0,12,6,7,0,0,3,3,22,9,0,0,0,0,0,0,0,0,0,0,0,0,0,0,0,0,0,0,0,0,0,0,0,0,0,0,0,0,0,0],"split_type":[0,0,0,0,0,0,0,0,0,0,0,0,0,0,0,0,0,0,0,0,0,0,0,0,0,0,0,0,0,0,0,0,0,0,0,0,0,0,0,0,0,0,0,0,0,0,0,0,0,0,0,0,0,0,0,0,0,0,0,0,0,0,0,0,0,0,0,0,0,0,0,0,0,0,0,0,0,0,0,0,0,0,0],"sum_hessian":[2.743648E2,1.7239973E2,1.01965065E2,1.4605472E2,2.6345007E1,4.12897E1,6.067537E1,7.9670135E1,6.638459E1,2.806468E0,2.353854E1,7.0815516E0,3.420815E1,5.1773426E1,8.90194E0,7.5718414E1,3.9517167E0,5.595755E1,1.0427041E1,1.4865068E0,1.3199611E0,4.471684E0,1.9066854E1,5.765584E0,1.3159676E0,1.5590388E1,1.8617762E1,3.1880266E1,1.9893162E1,7.759347E0,1.1425934E0,6.971486E1,6.0035586E0,2.8284106E0,1.123306E0,2.7074663E1,2.8882885E1,7.236612E0,3.1904292E0,2.9632766E0,1.5084072E0,1.7574287E1,1.4925674E0,1.3131275E0,4.4524565E0,6.7275286E0,8.86286E0,1.7124842E1,1.492919E0,1.383709E1,1.8043177E1,6.5305986E0,1.3362562E1,1.5167988E1,5.4546867E1,3.9521976E0,2.0513608E0,2.088037E1,6.194294E0,2.4787746E1,4.095138E0,5.554144E0,1.6824679E0,1.6970917E0,1.4933376E0,1.115872E0,1.8474046E0,1.64585E1,1.1157882E0,3.1464977E0,1.3059587E0,5.0132413E0,1.7142872E0,7.520563E0,1.3422962E0,1.0487585E1,3.3495042E0,6.2839184E0,1.1759259E1,4.8342185E0,1.69638E0,1.2050319E1,1.3122432E0],"tree_param":{"num_deleted":"0","num_feature":"36","num_nodes":"83","size_leaf_vector":"1"}},{"base_weights":[-2.249024E-2,1.3893892E-1,-4.5849007E-1,3.0847237E-1,-4.3873343E-1,7.418728E-2,-9.221877E-1,-3.2804832E-1,4.81661E-1,-1.8999574E-1,-1.5202703E0,-2.6996106E-1,1.0296866E0,5.739784E-1,-1.1194725E0,-1.0971657E0,2.2559844E-1,-5.6203586E-1,5.4631E-1,-3.4114984E-1,4.1795723E-2,-1.0523694E-2,-4.9494877E-2,-2.1287554E-3,-1.3205402E0,-1.0734393E-1,4.2720288E-2,3.708489E-2,-3.0197663E-2,-4.06252E-1,-1.495312E0,-4.8144653E-1,-4.959079E-2,9.46612E-1,-4.1820472E-1,2.642066E-2,-1.3030167E0,1.1255302E0,4.249235E-1,-4.9101032E-2,-1.2132194E0,-3.487071E-1,1.0161642E0,-1.0024297E-2,-4.4895593E-2,1.0647046E-2,-1.452685E-2,1.6122444E-1,-1.2841716E0,-1.6644948E0,1.8345859E-2,2.5809862E-2,-3.944347E-2,-8.093155E-3,3.7679043E-2,2.532567E-2,-2.7275521E-2,-9.432309E-3,-4.452022E-2,-3.6591247E-2,4.160218E-2,1.9812327E-2,-3.4119664E-3,8.858387E-3,-2.8975585E-2,-4.9702533E-2,3.1050473E-2,-1.8544333E-2,2.2043874E-2,4.5841344E-2,-1.3889015E-2,-3.627601E-2,1.9157846E-2,-9.374313E-3,-4.384097E-2,-5.3567506E-2,-2.043418E-2],"categories":[],"categories_nodes":[],"categories_segments":[],"categories_sizes":[],"default_left":[0,0,0,0,0,0,0,0,0,0,0,0,0,0,0,0,0,0,0,0,0,0,0,0,0,0,0,0,0,0,0,0,0,0,0,0,0,0,0,0,0,0,0,0,0,0,0,0,0,0,0,0,0,0,0,0,0,0,0,0,0,0,0,0,0,0,0,0,0,0,0,0,0,0,0,0,0],"id":4,"left_children":[1,3,5,7,9,11,13,15,17,19,21,23,25,27,29,31,33,35,37,39,-1,-1,-1,41,43,45,-1,-1,-1,47,49,51,-1,53,55,-1,57,59,61,63,65,67,69,-1,-1,-1,-1,71,73,75,-1,-1,-1,-1,-1,-1,-1,-1,-1,-1,-1,-1,-1,-1,-1,-1,-1,-1,-1,-1,-1,-1,-1,-1,-1,-1,-1],"loss_changes":[1.9547773E1,1.9996058E1,1.8601784E1,1.750622E1,1.2200376E1,1.2065005E1,1.2505032E1,1.4833868E1,8.681622E0,9.781198E0,7.148819E-1,7.6353564E0,4.501708E0,6.836405E0,9.001156E0,4.1695747E0,1.0026348E1,9.413811E0,7.7748833E0,9.185907E0,0E0,0E0,0E0,8.341782E0,4.56913E-1,7.6897323E-1,0E0,0E0,0E0,7.0540295E0,9.252403E0,1.040542E1,0E0,4.1367655E0,7.9906693E0,0E0,5.196619E-1,1.3778692E1,1.2588766E1,9.199759E0,1.0753993E1,5.6010537E0,5.25217E0,0E0,0E0,0E0,0E0,6.814461E0,4.9160767E-1,1.3621254E0,0E0,0E0,0E0,0E0,0E0,0E0,0E0,0E0,0E0,0E0,0E0,0E0,0E0,0E0,0E0,0E0,0E0,0E0,0E0,0E0,0E0,0E0,0E0,0E0,0E0,0E0,0E0],"parents":[2147483647,0,0,1,1,2,2,3,3,4,4,5,5,6,6,7,7,8,8,9,9,10,10,11,11,12,12,13,13,14,14,15,15,16,16,17,17,18,18,19,19,23,23,24,24,25,25,29,29,30,30,31,31,33,33,34,34,36,36,37,37,38,38,39,39,40,40,41,41,42,42,47,47,48,48,49,49],"right_children":[2,4,6,8,10,12,14,16,18,20,22,24,26,28,30,32,34,36,38,40,-1,-1,-1,42,44,46,-1,-1,-1,48,50,52,-1,54,56,-1,58,60,62,64,66,68,70,-1,-1,-1,-1,72,74,76,-1,-1,-1,-1,-1,-1,-1,-1,-1,-1,-1,-1,-1,-1,-1,-1,-1,-1,-1,-1,-1,-1,-1,-1,-1,-1,-1],"split_conditions":[4.2219963E-2,1.1224895E-2,4.9129285E-2,-5.177414E-1,2.8934813E-1,2.4756545E-1,-3.6292307E-2,-1.3403099E-3,-1.5665074E-1,2.0329577E-3,5.799539E-4,7.5926703E-1,6.631579E1,1.3034898E-1,4.7256786E-1,6.0082304E-1,-1.5102196E-2,-3.4782817E0,-1.9728377E-2,1.516915E-1,4.1795723E-2,-1.0523694E-2,-4.9494877E-2,6.1478263E-1,-8.292598E-1,-9.1755146E-4,4.2720288E-2,3.708489E-2,-3.0197663E-2,7.780614E-2,9.790454E-1,-2.593607E-3,-4.959079E-2,-1.1899366E0,2.4004184E-2,2.642066E-2,-1.5750099E-3,-4.2219486E-2,-5.561568E-5,6.8181816E1,4.1364238E-2,-1.653233E-4,2.0857227E-1,-1.0024297E-2,-4.4895593E-2,1.0647046E-2,-1.452685E-2,-2.8848657E-3,-3.823117E-4,6.447736E-1,1.8345859E-2,2.5809862E-2,-3.944347E-2,-8.093155E-3,3.7679043E-2,2.532567E-2,-2.7275521E-2,-9.432309E-3,-4.452022E-2,-3.6591247E-2,4.160218E-2,1.9812327E-2,-3.4119664E-3,8.858387E-3,-2.8975585E-2,-4.9702533E-2,3.1050473E-2,-1.8544333E-2,2.2043874E-2,4.5841344E-2,-1.3889015E-2,-3.627601E-2,1.9157846E-2,-9.374313E-3,-4.384097E-2,-5.3567506E-2,-2.043418E-2],"split_indices":[1,3,8,21,4,6,3,16,1,19,19,5,0,8,22,7,1,22,8,6,0,0,0,7,21,12,0,0,0,21,7,17,0,18,8,0,13,3,19,0,8,19,21,0,0,0,0,3,12,21,0,0,0,0,0,0,0,0,0,0,0,0,0,0,0,0,0,0,0,0,0,0,0,0,0,0,0],"split_type":[0,0,0,0,0,0,0,0,0,0,0,0,0,0,0,0,0,0,0,0,0,0,0,0,0,0,0,0,0,0,0,0,0,0,0,0,0,0,0,0,0,0,0,0,0,0,0,0,0,0,0,0,0,0,0,0,0,0,0,0,0,0,0,0,0,0,0,0,0,0,0,0,0,0,0,0,0],"sum_hessian":[2.758289E2,2.0179538E2,7.403351E1,1.5637033E2,4.5425053E1,3.4844986E1,3.9188522E1,3.325478E1,1.2311555E2,3.788722E1,7.5378356E0,2.614547E1,8.699516E0,4.3429694E0,3.484555E1,1.3507986E1,1.9746792E1,6.732477E0,1.16383064E2,3.5301353E1,2.5858655E0,1.1215537E0,6.4162817E0,2.1632544E1,4.5129256E0,2.427525E0,6.271991E0,3.2142477E0,1.1287217E0,1.2743491E1,2.210206E1,7.2943087E0,6.213678E0,9.09297E0,1.0653821E1,2.220505E0,4.5119724E0,1.8731178E1,9.7651886E1,2.723641E1,8.064942E0,1.6630032E1,5.002512E0,1.1221025E0,3.3908234E0,1.1164889E0,1.3110361E0,8.23612E0,4.5073705E0,2.065351E1,1.448553E0,2.7822099E0,4.512099E0,1.8696172E0,7.223353E0,2.7818358E0,7.8719854E0,1.1217766E0,3.3901958E0,1.509432E0,1.7221746E1,6.778979E1,2.9862104E1,2.0291683E1,6.944726E0,6.9557924E0,1.1091502E0,1.366213E1,2.967901E0,3.6918209E0,1.3106914E0,1.7317128E0,6.504408E0,1.1213887E0,3.3859818E0,1.7662737E1,2.9907706E0],"tree_param":{"num_deleted":"0","num_feature":"36","num_nodes":"77","size_leaf_vector":"1"}},{"base_weights":[-3.957227E-2,2.6192114E-1,-2.9101685E-1,4.831647E-1,-3.708369E-1,-1.1177472E0,-1.592565E-1,1.0950526E0,3.206282E-1,-9.796414E-3,-1.2578982E0,3.9230558E-1,-1.581043E0,-8.618511E-2,-4.686075E-2,1.3260216E0,-1.3761235E-2,-4.6296465E-1,6.0636955E-1,-5.837121E-1,9.643622E-1,-6.618272E-3,-1.4790704E0,-3.785207E-2,4.268123E-2,-5.2292116E-2,-9.63946E-3,-2.24036E-1,7.8554577E-1,1.4421095E0,7.3112957E-3,6.669449E-1,-1.0434557E0,7.5264E-1,-4.0359735E-1,-9.266073E-1,7.031986E-1,-6.1781483E-4,1.150053E0,-1.0759745E-2,-4.8435852E-2,-1.2203631E-1,-1.1729876E0,-2.7302155E-1,1.4310305E0,4.06681E-3,4.663852E-2,-3.8026E-4,3.7530195E-2,-3.9906606E-2,4.845202E-3,-1.4436897E-3,2.795211E-2,-2.396071E-2,3.082916E-2,-4.090462E-2,-4.4025555E-3,3.7267823E-2,-1.0520305E-2,4.416156E-3,3.9669313E-2,1.5456333E-3,-1.8597784E-2,-4.509683E-2,7.2301663E-3,2.5338812E-2,-4.198791E-2,1.0639622E-2,4.7798257E-2],"categories":[],"categories_nodes":[],"categories_segments":[],"categories_sizes":[],"default_left":[0,0,0,0,0,0,0,0,0,0,0,0,0,0,0,0,0,0,0,0,0,0,0,0,0,0,0,0,0,0,0,0,0,0,0,0,0,0,0,0,0,0,0,0,0,0,0,0,0,0,0,0,0,0,0,0,0,0,0,0,0,0,0,0,0,0,0,0,0],"id":5,"left_children":[1,3,5,7,9,11,13,15,17,19,21,23,25,27,-1,29,-1,31,33,35,37,-1,39,-1,-1,-1,-1,41,43,45,-1,47,49,51,53,55,57,-1,59,-1,-1,61,63,65,67,-1,-1,-1,-1,-1,-1,-1,-1,-1,-1,-1,-1,-1,-1,-1,-1,-1,-1,-1,-1,-1,-1,-1,-1],"loss_changes":[2.1063238E1,1.787687E1,1.6316574E1,9.007664E0,1.0657766E1,1.506665E1,1.3372489E1,7.5473785E0,1.7244963E1,1.4364918E1,1.8829336E0,1.1423182E1,2.7057495E0,1.5354262E1,0E0,1.7958736E0,0E0,1.4346991E1,8.569565E0,7.7815547E0,1.7665405E0,0E0,5.9895706E-1,0E0,0E0,0E0,0E0,1.0488527E1,1.2326608E1,2.0282822E0,0E0,3.0618348E0,5.100436E0,7.104183E0,5.191445E0,4.2936735E0,2.6898384E0,0E0,1.1934166E0,0E0,0E0,8.698701E0,5.286031E0,1.057095E1,1.3579693E0,0E0,0E0,0E0,0E0,0E0,0E0,0E0,0E0,0E0,0E0,0E0,0E0,0E0,0E0,0E0,0E0,0E0,0E0,0E0,0E0,0E0,0E0,0E0,0E0],"parents":[2147483647,0,0,1,1,2,2,3,3,4,4,5,5,6,6,7,7,8,8,9,9,10,10,11,11,12,12,13,13,15,15,17,17,18,18,19,19,20,20,22,22,27,27,28,28,29,29,31,31,32,32,33,33,34,34,35,35,36,36,38,38,41,41,42,42,43,43,44,44],"right_children":[2,4,6,8,10,12,14,16,18,20,22,24,26,28,-1,30,-1,32,34,36,38,-1,40,-1,-1,-1,-1,42,44,46,-1,48,50,52,54,56,58,-1,60,-1,-1,62,64,66,68,-1,-1,-1,-1,-1,-1,-1,-1,-1,-1,-1,-1,-1,-1,-1,-1,-1,-1,-1,-1,-1,-1,-1,-1],"split_conditions":[1.4952992E-1,1.0950983E-3,5.011601E-1,-1.4722999E-2,3.7475225E-2,3.4848484E1,1.7952497E-1,8.9812675E-4,6.40218E-3,2.5997564E-2,1.4199031E-3,1.6380952E-1,5.4910198E-2,3.025233E-1,-4.686075E-2,7.541627E-3,-1.3761235E-2,-1.063871E-4,3.2173738E-2,2.635852E-3,-3.7874494E-4,-6.618272E-3,1.2715395E-3,-3.785207E-2,4.268123E-2,-5.2292116E-2,-9.63946E-3,8.904934E-1,2.2809435E-2,3.0970746E-1,7.3112957E-3,3.1681034E-1,1.5643184E0,-1.142527E-3,2.1160291E-1,1.5656574E-1,1.1532548E-3,-6.1781483E-4,8.1069964E-1,-1.0759745E-2,-4.8435852E-2,1.5001787E-2,9.4150734E-1,4.3076923E1,-9.0087426E-4,4.06681E-3,4.663852E-2,-3.8026E-4,3.7530195E-2,-3.9906606E-2,4.845202E-3,-1.4436897E-3,2.795211E-2,-2.396071E-2,3.082916E-2,-4.090462E-2,-4.4025555E-3,3.7267823E-2,-1.0520305E-2,4.416156E-3,3.9669313E-2,1.5456333E-3,-1.8597784E-2,-4.509683E-2,7.2301663E-3,2.5338812E-2,-4.198791E-2,1.0639622E-2,4.7798257E-2],"split_indices":[6,17,7,8,2,0,1,14,8,2,10,6,8,6,0,2,0,19,1,17,19,0,17,0,0,0,0,7,10,11,0,7,11,16,10,10,14,0,11,0,0,3,7,0,19,0,0,0,0,0,0,0,0,0,0,0,0,0,0,0,0,0,0,0,0,0,0,0,0],"split_type":[0,0,0,0,0,0,0,0,0,0,0,0,0,0,0,0,0,0,0,0,0,0,0,0,0,0,0,0,0,0,0,0,0,0,0,0,0,0,0,0,0,0,0,0,0,0,0,0,0,0,0,0,0,0,0,0,0,0,0,0,0,0,0,0,0,0,0,0,0],"sum_hessian":[2.758411E2,1.2541781E2,1.504233E2,9.310137E1,3.2316437E1,1.9649471E1,1.3077382E2,1.8336012E1,7.4765366E1,2.3686783E1,8.629653E0,4.649208E0,1.5000264E1,1.2530787E2,5.465953E0,1.609068E1,2.245332E0,1.9812641E1,5.4952724E1,1.5157625E1,8.529158E0,1.8676944E0,6.7619586E0,1.6983855E0,2.9508226E0,1.2950826E1,2.0494378E0,1.08839554E2,1.646831E1,1.4231757E1,1.8589216E0,6.6736455E0,1.3138995E1,4.8223454E1,6.729268E0,1.218968E1,2.9679449E0,1.493946E0,7.0352116E0,1.1227894E0,5.639169E0,9.929524E1,9.544317E0,6.4566727E0,1.0011637E1,1.3031558E0,1.2928601E1,3.5366547E0,3.1369908E0,1.0529231E1,2.6097643E0,8.947861E0,3.9275593E1,5.619862E0,1.1094062E0,7.333194E0,4.856487E0,1.8453069E0,1.1226379E0,1.3031434E0,5.732068E0,7.429394E1,2.5001305E1,7.6861076E0,1.8582097E0,3.3668106E0,3.089862E0,1.7287236E0,8.282913E0],"tree_param":{"num_deleted":"0","num_feature":"36","num_nodes":"69","size_leaf_vector":"1"}},{"base_weights":[2.5405372E-2,-8.8804916E-2,6.8285483E-1,1.0015433E-1,-5.937773E-1,1.0070634E0,-1.07439674E-1,-1.3760338E0,1.5602669E-1,-4.2426416E-1,-4.876839E-2,1.1379323E0,-3.189767E-2,-9.1743994E-1,1.2379838E0,-9.8661985E-3,-4.589743E-2,2.7497044E-1,-4.660045E-1,-8.397248E-1,6.9873005E-2,6.946708E-1,1.5784115E0,1.6740927E-2,-1.4388783E0,4.2377964E-2,8.818116E-3,1.4374283E-3,5.2272993E-1,3.683829E-2,-6.36042E-1,3.5252565E-1,-1.06465E0,-5.4382706E-1,6.8184555E-1,4.440057E-2,-1.2812176E-1,8.968746E-3,5.0033666E-2,-1.0364989E-2,-4.7789168E-2,1.8079259E-2,-8.458075E-3,4.0191915E-2,7.933949E-3,-2.5754232E-2,2.965197E-2,3.721451E-2,-1.10968035E-2,1.1569968E-2,-3.6649216E-2,8.998751E-3,-3.418327E-2,4.655972E-3,3.775151E-2,3.757941E-2,-3.325907E-2],"categories":[],"categories_nodes":[],"categories_segments":[],"categories_sizes":[],"default_left":[0,0,0,0,0,0,0,0,0,0,0,0,0,0,0,0,0,0,0,0,0,0,0,0,0,0,0,0,0,0,0,0,0,0,0,0,0,0,0,0,0,0,0,0,0,0,0,0,0,0,0,0,0,0,0,0,0],"id":6,"left_children":[1,3,5,7,9,11,13,15,17,19,-1,21,-1,23,25,-1,-1,27,29,31,33,35,37,-1,39,-1,-1,41,43,-1,45,47,49,51,53,-1,55,-1,-1,-1,-1,-1,-1,-1,-1,-1,-1,-1,-1,-1,-1,-1,-1,-1,-1,-1,-1],"loss_changes":[2.1558947E1,2.3419937E1,1.0995178E1,1.4979115E1,1.0995897E1,9.3995075E0,1.5590936E1,5.6521416E-1,1.2955957E1,1.2116736E1,0E0,4.5486183E0,0E0,7.614818E0,4.7663498E-1,0E0,0E0,9.905748E0,8.904357E0,8.952581E0,1.0793076E1,1.0655651E1,1.0698471E0,0E0,5.989151E-1,0E0,0E0,1.2176883E1,1.5829493E1,0E0,1.03473625E1,4.1971664E0,6.6544228E0,7.584899E0,4.158358E0,0E0,1.3343568E1,0E0,0E0,0E0,0E0,0E0,0E0,0E0,0E0,0E0,0E0,0E0,0E0,0E0,0E0,0E0,0E0,0E0,0E0,0E0,0E0],"parents":[2147483647,0,0,1,1,2,2,3,3,4,4,5,5,6,6,7,7,8,8,9,9,11,11,13,13,14,14,17,17,18,18,19,19,20,20,21,21,22,22,24,24,27,27,28,28,30,30,31,31,32,32,33,33,34,34,36,36],"right_children":[2,4,6,8,10,12,14,16,18,20,-1,22,-1,24,26,-1,-1,28,30,32,34,36,38,-1,40,-1,-1,42,44,-1,46,48,50,52,54,-1,56,-1,-1,-1,-1,-1,-1,-1,-1,-1,-1,-1,-1,-1,-1,-1,-1,-1,-1,-1,-1],"split_conditions":[4.0052277E1,1.2275753E-2,1.8613607E-1,-1.5894294E-1,8.228891E-2,2.0673745E-3,2.9445288E-1,6.8417716E-1,6.3950315E-2,2.6943937E-2,-4.876839E-2,3.350974E-2,-3.189767E-2,-3.5892215E-2,1.3369567E0,-9.8661985E-3,-4.589743E-2,2.8366588E-2,-6.1484348E-2,1.3925132E1,2.4934412E1,-2.1998717E-2,-4.1113862E-1,1.6740927E-2,-3.645576E-2,4.2377964E-2,8.818116E-3,-1.2229555E-2,4.042553E1,3.683829E-2,1.664959E-3,1.2881292E-1,-1.4475589E-3,1.2524879E-1,2.3192924E-1,4.440057E-2,7.793552E-3,8.968746E-3,5.0033666E-2,-1.0364989E-2,-4.7789168E-2,1.8079259E-2,-8.458075E-3,4.0191915E-2,7.933949E-3,-2.5754232E-2,2.965197E-2,3.721451E-2,-1.10968035E-2,1.1569968E-2,-3.6649216E-2,8.998751E-3,-3.418327E-2,4.655972E-3,3.775151E-2,3.757941E-2,-3.325907E-2],"split_indices":[9,3,6,1,8,19,6,4,8,3,0,8,0,3,20,0,0,22,3,9,9,2,21,0,8,0,0,8,0,0,14,10,14,22,6,0,8,0,0,0,0,0,0,0,0,0,0,0,0,0,0,0,0,0,0,0,0],"split_type":[0,0,0,0,0,0,0,0,0,0,0,0,0,0,0,0,0,0,0,0,0,0,0,0,0,0,0,0,0,0,0,0,0,0,0,0,0,0,0,0,0,0,0,0,0,0,0,0,0,0,0,0,0,0,0,0,0],"sum_hessian":[2.8531006E2,2.4381937E2,4.1490696E1,1.7801013E2,6.580923E1,2.9226568E1,1.2264128E1,5.6301203E0,1.7238002E2,5.7735447E1,8.073783E0,2.7912523E1,1.3140452E0,7.8538756E0,4.4102526E0,1.1232921E0,4.5068283E0,1.4517738E2,2.7202627E1,3.0984732E1,2.6750715E1,1.5196807E1,1.2715716E1,2.0325005E0,5.821375E0,3.3029935E0,1.1072592E0,6.947783E1,7.569956E1,1.9139432E0,2.5288685E1,4.8276663E0,2.6157064E1,1.3412105E1,1.3338612E1,7.3666396E0,7.8301673E0,1.1139673E0,1.1601749E1,1.1195699E0,4.701805E0,2.18962E1,4.758163E1,1.7176294E1,5.8523266E1,2.265772E1,2.630963E0,1.8439988E0,2.9836676E0,2.412568E0,2.3744497E1,5.7552505E0,7.6568537E0,7.634222E0,5.7043896E0,3.1362004E0,4.693967E0],"tree_param":{"num_deleted":"0","num_feature":"36","num_nodes":"57","size_leaf_vector":"1"}},{"base_weights":[-1.6678946E-2,1.6979374E-1,-5.909701E-1,4.4556868E-1,-1.6345137E-1,3.9969634E-2,-6.7660004E-1,5.5799055E-1,-4.878545E-1,-1.0757368E0,5.135675E-2,3.2814676E-1,-8.455769E-1,2.0644777E-1,7.8923446E-1,5.157452E-1,-7.8802294E-1,1.3491338E-1,-1.4964869E0,-1.9922693E-1,6.440877E-1,-7.0955783E-1,8.941046E-1,-9.923917E-1,2.5749382E-1,1.1214797E0,-3.9332324E-1,8.817779E-1,-4.155772E-1,-1.1256417E-2,3.2217883E-2,-1.0859811E0,1.7784927E-2,-2.755138E-2,3.3118136E-2,-5.0668158E-2,1.4794079E-3,-7.1973413E-1,2.5512582E-1,4.8701994E-2,2.2683315E-1,1.5633454E-3,-3.4520034E-2,2.6790088E-1,1.1579261E0,2.4264019E-2,-1.056367E0,-9.1048574E-1,1.0696657E0,-1.6825221E-3,3.9072894E-2,-2.8580435E-2,1.3504029E-2,4.4359643E-2,2.1110656E-2,-3.7901986E-2,1.4090597E-2,2.1712196E-3,-4.328241E-2,-4.9113263E-3,-4.107902E-2,8.1882856E-5,4.5978297E-2,2.4044951E-2,-3.80779E-2,2.8523728E-2,-1.4106163E-2,9.884836E-3,3.9694317E-2,-1.397018E-2,-3.9602175E-2,-3.2471552E-2,-8.322531E-3,4.109034E-2,4.040829E-3],"categories":[],"categories_nodes":[],"categories_segments":[],"categories_sizes":[],"default_left":[0,0,0,0,0,0,0,0,0,0,0,0,0,0,0,0,0,0,0,0,0,0,0,0,0,0,0,0,0,0,0,0,0,0,0,0,0,0,0,0,0,0,0,0,0,0,0,0,0,0,0,0,0,0,0,0,0,0,0,0,0,0,0,0,0,0,0,0,0,0,0,0,0,0,0],"id":7,"left_children":[1,3,5,7,9,-1,11,13,15,17,19,21,23,25,27,29,31,33,35,37,39,41,43,45,47,49,51,53,55,-1,-1,57,-1,-1,-1,-1,-1,59,61,-1,63,-1,-1,65,67,-1,69,71,73,-1,-1,-1,-1,-1,-1,-1,-1,-1,-1,-1,-1,-1,-1,-1,-1,-1,-1,-1,-1,-1,-1,-1,-1,-1,-1],"loss_changes":[2.9858654E1,1.9422209E1,1.21557255E1,1.2389933E1,1.8881897E1,0E0,1.1497484E1,8.253185E0,4.306531E0,9.551748E0,1.1819834E1,6.6451645E0,9.462456E0,2.3729103E1,7.289959E0,2.1858952E0,4.906851E0,6.7818966E0,4.1601334E0,1.3448481E1,9.285825E0,1.4608278E0,8.5698795E-1,6.6597137E0,8.061761E0,3.708374E0,1.2871391E1,5.1233177E0,4.428027E0,0E0,0E0,3.7723398E0,0E0,0E0,0E0,0E0,0E0,9.312052E0,9.8900585E0,0E0,1.6260387E1,0E0,0E0,2.1584244E0,2.032032E-1,0E0,7.0312386E0,9.202051E-2,1.180737E0,0E0,0E0,0E0,0E0,0E0,0E0,0E0,0E0,0E0,0E0,0E0,0E0,0E0,0E0,0E0,0E0,0E0,0E0,0E0,0E0,0E0,0E0,0E0,0E0,0E0,0E0],"parents":[2147483647,0,0,1,1,2,2,3,3,4,4,6,6,7,7,8,8,9,9,10,10,11,11,12,12,13,13,14,14,15,15,16,16,17,17,18,18,19,19,20,20,21,21,22,22,23,23,24,24,25,25,26,26,27,27,28,28,31,31,37,37,38,38,40,40,43,43,44,44,46,46,47,47,48,48],"right_children":[2,4,6,8,10,-1,12,14,16,18,20,22,24,26,28,30,32,34,36,38,40,42,44,46,48,50,52,54,56,-1,-1,58,-1,-1,-1,-1,-1,60,62,-1,64,-1,-1,66,68,-1,70,72,74,-1,-1,-1,-1,-1,-1,-1,-1,-1,-1,-1,-1,-1,-1,-1,-1,-1,-1,-1,-1,-1,-1,-1,-1,-1,-1],"split_conditions":[4.4560466E-2,1.4810045E-1,3.917526E1,1.8078513E-3,5.011601E-1,3.9969634E-2,3.567258E-2,5.9321704E-3,4.9122807E1,3.4848484E1,4.1364238E-2,2.703414E-1,2.5371954E-1,-1.4722999E-2,6.5399535E-2,3.3230588E-1,1.771836E-1,1.6380952E-1,2.7774582E-2,2.1101499E-1,3.7792397E-3,5.304976E-1,9.1972144E-4,-3.0889069E-3,6.3829786E-1,-1.5625183E-2,2.1359348E-1,-2.8675454E-2,3.4136184E-2,-1.1256417E-2,3.2217883E-2,1.3121638E-4,1.7784927E-2,-2.755138E-2,3.3118136E-2,-5.0668158E-2,1.4794079E-3,1.7907393E-1,1.9619526E-2,4.8701994E-2,4.6534653E1,1.5633454E-3,-3.4520034E-2,-2.5773197E-4,7.240757E-1,2.4264019E-2,-1.2229788E-2,1.3303179E-3,-5.205882E-4,-1.6825221E-3,3.9072894E-2,-2.8580435E-2,1.3504029E-2,4.4359643E-2,2.1110656E-2,-3.7901986E-2,1.4090597E-2,2.1712196E-3,-4.328241E-2,-4.9113263E-3,-4.107902E-2,8.1882856E-5,4.5978297E-2,2.4044951E-2,-3.80779E-2,2.8523728E-2,-1.4106163E-2,9.884836E-3,3.9694317E-2,-1.397018E-2,-3.9602175E-2,-3.2471552E-2,-8.322531E-3,4.109034E-2,4.040829E-3],"split_indices":[1,6,0,15,7,0,2,8,0,0,8,22,10,8,8,5,10,6,1,6,2,7,14,13,7,3,22,2,1,0,0,13,0,0,0,0,0,6,2,0,0,0,0,12,22,0,10,14,19,0,0,0,0,0,0,0,0,0,0,0,0,0,0,0,0,0,0,0,0,0,0,0,0,0,0],"split_type":[0,0,0,0,0,0,0,0,0,0,0,0,0,0,0,0,0,0,0,0,0,0,0,0,0,0,0,0,0,0,0,0,0,0,0,0,0,0,0,0,0,0,0,0,0,0,0,0,0,0,0,0,0,0,0,0,0,0,0,0,0,0,0,0,0,0,0,0,0,0,0,0,0,0,0],"sum_hessian":[2.768823E2,2.095467E2,6.7335594E1,1.1447586E2,9.507085E1,2.2495904E0,6.5086006E1,1.0252938E2,1.1946474E1,1.7355314E1,7.771553E1,9.2345915E0,5.5851414E1,4.1433655E1,6.1095726E1,2.5851052E0,9.361369E0,4.651272E0,1.27040415E1,5.5089645E1,2.2625887E1,3.1694887E0,6.065103E0,4.9379513E1,6.471901E0,1.6060833E1,2.5372824E1,5.6986618E1,4.109111E0,1.1219975E0,1.4631078E0,7.8755426E0,1.4858265E0,2.2537715E0,2.3975E0,1.1215159E1,1.4888829E0,2.5403393E1,2.9686253E1,5.8963227E0,1.6729565E1,1.4858017E0,1.683687E0,2.3952434E0,3.6698596E0,1.2943851E0,4.808513E1,2.6048422E0,3.8670588E0,2.2311704E0,1.3829662E1,1.5177816E1,1.0195007E1,1.1417456E1,4.556916E1,1.8807552E0,2.2283554E0,2.0421586E0,5.833384E0,1.4361827E1,1.1041567E1,2.5625484E1,4.060768E0,1.2422308E1,4.307256E0,1.0944853E0,1.3007581E0,1.1080754E0,2.5617843E0,1.5694866E1,3.2390263E1,1.4904023E0,1.11444E0,2.5756474E0,1.2914114E0],"tree_param":{"num_deleted":"0","num_feature":"36","num_nodes":"75","size_leaf_vector":"1"}},{"base_weights":[1.1036202E-2,4.066608E-1,-1.3501523E-1,-6.0141313E-1,5.434853E-1,1.8699226E-1,-3.4832808E-1,5.9825784E-1,-4.4722993E-2,5.9587866E-1,-3.456969E-2,3.5682327E-1,-1.0877212E0,-7.870245E-1,-3.1922773E-2,3.2325167E-2,-5.07215E-3,-2.9677903E-2,6.4053184E-1,5.10298E-1,-5.7375777E-1,2.1716977E-2,-4.8062827E-2,-4.4287813E-1,-1.2361381E0,-1.8836252E-1,1.2785943E0,4.1450077E-1,1.0810206E0,1.4352777E0,3.352087E-1,-9.671788E-1,4.0548182E-1,-1.0966957E0,1.09701306E-1,-1.4015144E0,1.07197715E-2,-1.2749139E0,-3.708323E-2,4.2288493E-2,7.947393E-3,1.7414743E-2,-1.5410766E-2,3.7168253E-2,-1.7489543E-2,4.6312075E-2,9.554492E-3,-2.8435782E-2,2.1964787E-2,-4.1123834E-2,3.8750404E-3,-1.1728529E-2,2.664449E-2,-8.906751E-3,-4.7684353E-2,2.5237933E-2,-2.3971992E-2,-4.5745578E-2,2.0352192E-3,8.930129E-3,-4.7288433E-2,2.4965106E-2,-7.6831295E-3],"categories":[],"categories_nodes":[],"categories_segments":[],"categories_sizes":[],"default_left":[0,0,0,0,0,0,0,0,0,0,0,0,0,0,0,0,0,0,0,0,0,0,0,0,0,0,0,0,0,0,0,0,0,0,0,0,0,0,0,0,0,0,0,0,0,0,0,0,0,0,0,0,0,0,0,0,0,0,0,0,0,0,0],"id":8,"left_children":[1,3,5,7,9,11,13,15,-1,17,-1,19,21,23,25,-1,-1,-1,27,29,31,-1,-1,33,35,37,39,41,43,45,47,49,51,53,55,57,-1,59,61,-1,-1,-1,-1,-1,-1,-1,-1,-1,-1,-1,-1,-1,-1,-1,-1,-1,-1,-1,-1,-1,-1,-1,-1],"loss_changes":[1.5941607E1,1.0586327E1,1.3910098E1,1.0882565E1,6.5522995E0,1.7916674E1,1.6852776E1,1.9105972E0,0E0,5.213133E0,0E0,1.0604771E1,1.0260427E1,7.320965E0,1.4937538E1,0E0,0E0,0E0,5.877537E0,9.642557E0,4.511589E0,0E0,0E0,1.1096409E1,6.173786E0,1.0622517E1,6.589565E-1,7.0171804E0,6.2206097E0,6.7653084E-1,2.8128292E1,3.6832223E0,1.7961774E0,5.048479E0,1.2222905E1,3.6748352E0,0E0,4.2147274E0,1.1257161E1,0E0,0E0,0E0,0E0,0E0,0E0,0E0,0E0,0E0,0E0,0E0,0E0,0E0,0E0,0E0,0E0,0E0,0E0,0E0,0E0,0E0,0E0,0E0,0E0],"parents":[2147483647,0,0,1,1,2,2,3,3,4,4,5,5,6,6,7,7,9,9,11,11,12,12,13,13,14,14,18,18,19,19,20,20,23,23,24,24,25,25,26,26,27,27,28,28,29,29,30,30,31,31,32,32,33,33,34,34,35,35,37,37,38,38],"right_children":[2,4,6,8,10,12,14,16,-1,18,-1,20,22,24,26,-1,-1,-1,28,30,32,-1,-1,34,36,38,40,42,44,46,48,50,52,54,56,58,-1,60,62,-1,-1,-1,-1,-1,-1,-1,-1,-1,-1,-1,-1,-1,-1,-1,-1,-1,-1,-1,-1,-1,-1,-1,-1],"split_conditions":[4.042553E1,-1.5894294E-1,1.305723E-1,-3.0587153E0,2E-3,4.5328457E-2,2.3923136E1,-1.3159626E-3,-4.4722993E-2,-4.5809755E-3,-3.456969E-2,1.4713751E-3,3.567258E-2,4.4015384E-1,2.9445288E-1,3.2325167E-2,-5.07215E-3,-2.9677903E-2,6.9063866E-1,-1.3264235E-2,1.2302117E-1,2.1716977E-2,-4.8062827E-2,1.1587053E-2,9.790454E-1,3.0873016E-1,1.0534848E-1,6.3319534E-2,3.673469E1,8.037508E-4,6.5625657E-4,1.0211897E-3,9.3060354E-4,-5.130178E-4,1.7791136E1,1.7438861E0,1.07197715E-2,4.3356644E1,1.605556E-1,4.2288493E-2,7.947393E-3,1.7414743E-2,-1.5410766E-2,3.7168253E-2,-1.7489543E-2,4.6312075E-2,9.554492E-3,-2.8435782E-2,2.1964787E-2,-4.1123834E-2,3.8750404E-3,-1.1728529E-2,2.664449E-2,-8.906751E-3,-4.7684353E-2,2.5237933E-2,-2.3971992E-2,-4.5745578E-2,2.0352192E-3,8.930129E-3,-4.7288433E-2,2.4965106E-2,-7.6831295E-3],"split_indices":[0,1,6,22,14,1,9,13,0,14,0,15,2,22,6,0,0,0,4,8,6,0,0,8,7,7,3,8,0,13,8,12,13,12,9,11,0,0,6,0,0,0,0,0,0,0,0,0,0,0,0,0,0,0,0,0,0,0,0,0,0,0,0],"split_type":[0,0,0,0,0,0,0,0,0,0,0,0,0,0,0,0,0,0,0,0,0,0,0,0,0,0,0,0,0,0,0,0,0,0,0,0,0,0,0,0,0,0,0,0,0,0,0,0,0,0,0,0,0,0,0,0,0,0,0,0,0,0,0],"sum_hessian":[2.7394424E2,7.3382126E1,2.005621E2,8.363958E0,6.5018166E1,7.996855E1,1.2059355E2,3.7001054E0,4.663853E0,6.3698757E1,1.3194087E0,7.120229E1,8.766258E0,4.9908268E1,7.068528E1,2.0287743E0,1.6713312E0,1.1656308E0,6.2533127E1,6.1509556E1,9.692741E0,1.8485005E0,6.9177575E0,2.9380629E1,2.0527641E1,6.391219E1,6.7730923E0,4.260958E1,1.9923548E1,8.644437E0,5.2865116E1,6.9234715E0,2.7692697E0,1.3006511E1,1.6374119E1,1.8706648E1,1.8209926E0,6.9031706E0,5.7009018E1,5.6519628E0,1.1211295E0,3.6463364E1,6.1462173E0,1.8429916E1,1.4936316E0,7.5307884E0,1.1136488E0,1.2162924E1,4.0702194E1,4.877507E0,2.0459642E0,1.1166865E0,1.6525832E0,5.5694976E0,7.4370127E0,9.112658E0,7.261461E0,1.722316E1,1.4834878E0,1.1121335E0,5.791037E0,1.0909958E1,4.609906E1],"tree_param":{"num_deleted":"0","num_feature":"36","num_nodes":"63","size_leaf_vector":"1"}},{"base_weights":[-3.5911735E-2,-1.5643653E-1,6.2896365E-1,1.3624825E-1,-4.1544437E-1,1.2878125E0,1.6810267E-1,3.2352984E-1,-5.618889E-1,-1.1890191E0,-2.628939E-1,1.4438117E0,1.7391364E-3,3.836792E-1,-3.9428487E-2,1.0546864E0,1.5946881E-1,-7.7686626E-1,7.3273176E-1,-1.5182713E0,-2.0920606E-1,-5.88007E-2,-7.630815E-1,3.9648136E-1,4.7610093E-2,3.966685E-2,-8.94669E-2,1.1934483E0,1.7627222E-3,-6.643656E-1,5.5332255E-1,1.2006471E-1,-9.970512E-1,3.8351897E-2,-1.0329668E-2,-4.9660124E-2,-4.9603033E-1,6.16604E-1,-9.374849E-1,-2.5330704E-1,5.318262E-1,9.8668337E-1,-1.090549E0,2.8835308E-2,-1.051195E-2,-1.1309724E0,6.7475003E-1,4.1759394E-2,9.810865E-3,4.977728E-3,-3.8621604E-2,-2.2703221E-2,2.159444E-2,3.71321E-2,-2.6874727E-2,1.1823073E-2,-3.3531033E-2,-3.0999145E-2,8.476757E-3,3.077908E-2,6.368084E-4,-3.3441886E-2,-8.019099E-3,1.1166807E-2,-1.7567566E-2,-1.1298768E-2,3.831211E-2,-1.0004111E-2,4.2251844E-2,1.3209412E-2,-3.8849063E-2,-4.157995E-2,-4.368501E-3,4.0735297E-2,-1.1206842E-2],"categories":[],"categories_nodes":[],"categories_segments":[],"categories_sizes":[],"default_left":[0,0,0,0,0,0,0,0,0,0,0,0,0,0,0,0,0,0,0,0,0,0,0,0,0,0,0,0,0,0,0,0,0,0,0,0,0,0,0,0,0,0,0,0,0,0,0,0,0,0,0,0,0,0,0,0,0,0,0,0,0,0,0,0,0,0,0,0,0,0,0,0,0,0,0],"id":9,"left_children":[1,3,5,7,9,11,13,15,17,19,21,23,-1,25,-1,27,29,31,33,35,37,39,41,43,-1,-1,45,47,-1,49,51,53,55,-1,-1,-1,57,59,61,63,65,67,69,-1,-1,71,73,-1,-1,-1,-1,-1,-1,-1,-1,-1,-1,-1,-1,-1,-1,-1,-1,-1,-1,-1,-1,-1,-1,-1,-1,-1,-1,-1,-1],"loss_changes":[2.2647839E1,1.8175804E1,1.295573E1,1.4951851E1,1.4680458E1,3.313118E0,9.029103E0,1.0592439E1,7.3210306E0,6.3421364E0,1.0919671E1,1.7208443E0,0E0,1.080413E1,0E0,2.1772003E0,2.4522568E1,4.324339E0,2.7730145E0,1.3214798E0,4.3983045E0,9.022397E0,1.8862637E1,1.6939341E0,0E0,0E0,1.4242193E1,1.9910126E0,0E0,1.290422E1,1.1649563E1,6.8868423E0,3.3276157E0,0E0,0E0,0E0,1.6455605E0,8.5074925E-1,1.5010262E-1,1.2455397E1,1.3675154E1,3.4863229E0,8.901585E0,0E0,0E0,1.6931219E0,7.9503427E0,0E0,0E0,0E0,0E0,0E0,0E0,0E0,0E0,0E0,0E0,0E0,0E0,0E0,0E0,0E0,0E0,0E0,0E0,0E0,0E0,0E0,0E0,0E0,0E0,0E0,0E0,0E0,0E0],"parents":[2147483647,0,0,1,1,2,2,3,3,4,4,5,5,6,6,7,7,8,8,9,9,10,10,11,11,13,13,15,15,16,16,17,17,18,18,19,19,20,20,21,21,22,22,23,23,26,26,27,27,29,29,30,30,31,31,32,32,36,36,37,37,38,38,39,39,40,40,41,41,42,42,45,45,46,46],"right_children":[2,4,6,8,10,12,14,16,18,20,22,24,-1,26,-1,28,30,32,34,36,38,40,42,44,-1,-1,46,48,-1,50,52,54,56,-1,-1,-1,58,60,62,64,66,68,70,-1,-1,72,74,-1,-1,-1,-1,-1,-1,-1,-1,-1,-1,-1,-1,-1,-1,-1,-1,-1,-1,-1,-1,-1,-1,-1,-1,-1,-1,-1,-1],"split_conditions":[3.943723E1,1.4810045E-1,-7.170036E-2,3.1227136E-1,5.051546E-1,1.0645376E-3,1.3623243E-3,-1.4722999E-2,2.2837825E-3,3.0151563E-2,7.086939E-2,-1.1806375E-3,1.7391364E-3,-1.5372598E-2,-3.9428487E-2,1.612673E-1,6.40218E-3,-2.02782E-3,1.1809474E-3,5.9840214E-1,-2.6791694E-4,3.0967785E1,3.3125598E-2,-2.211526E-3,4.7610093E-2,3.966685E-2,3.7261285E-2,3.2033261E-3,1.7627222E-3,-1.063871E-4,-1.1584503E-3,6.352389E-4,-6.111221E-4,3.8351897E-2,-1.0329668E-2,-4.9660124E-2,-6.561716E-2,-9.337068E-4,7.730962E-4,1.7907393E-1,3.6843595E-1,1.0239384E0,-2.1387343E-3,2.8835308E-2,-1.051195E-2,4.2676407E-1,1.8613607E-1,4.1759394E-2,9.810865E-3,4.977728E-3,-3.8621604E-2,-2.2703221E-2,2.159444E-2,3.71321E-2,-2.6874727E-2,1.1823073E-2,-3.3531033E-2,-3.0999145E-2,8.476757E-3,3.077908E-2,6.368084E-4,-3.3441886E-2,-8.019099E-3,1.1166807E-2,-1.7567566E-2,-1.1298768E-2,3.831211E-2,-1.0004111E-2,4.2251844E-2,1.3209412E-2,-3.8849063E-2,-4.157995E-2,-4.368501E-3,4.0735297E-2,-1.1206842E-2],"split_indices":[9,6,10,5,7,13,19,8,16,1,2,14,0,8,0,10,8,1,12,4,13,9,8,13,0,0,8,1,0,19,13,19,19,0,0,0,1,14,15,6,5,5,16,0,0,5,6,0,0,0,0,0,0,0,0,0,0,0,0,0,0,0,0,0,0,0,0,0,0,0,0,0,0,0,0],"split_type":[0,0,0,0,0,0,0,0,0,0,0,0,0,0,0,0,0,0,0,0,0,0,0,0,0,0,0,0,0,0,0,0,0,0,0,0,0,0,0,0,0,0,0,0,0,0,0,0,0,0,0,0,0,0,0,0,0,0,0,0,0,0,0,0,0,0,0,0,0,0,0,0,0,0,0],"sum_hessian":[2.8039682E2,2.3801547E2,4.2381367E1,1.1196567E2,1.26049805E2,1.6705193E1,2.5676174E1,8.870605E1,2.3259619E1,1.9643661E1,1.0640614E2,1.4670349E1,2.034842E0,2.306335E1,2.612823E0,1.5261743E1,7.3444305E1,2.029026E1,2.9693584E0,1.42916155E1,5.352047E0,7.6364456E1,3.0041681E1,2.2178023E0,1.2452547E1,7.1284885E0,1.5934863E1,1.3221304E1,2.0404387E0,2.3532955E1,4.9911346E1,4.0888596E0,1.62014E1,1.8467875E0,1.122571E0,1.2055803E1,2.2358115E0,2.5799408E0,2.772106E0,5.7875813E1,1.8488647E1,4.4186E0,2.5623081E1,1.0995437E0,1.1182586E0,6.540837E0,9.394026E0,1.026304E1,2.9582639E0,1.0402885E1,1.313007E1,5.227974E0,4.4683372E1,1.8429188E0,2.2459407E0,1.1120787E0,1.5089323E1,1.1293437E0,1.1064676E0,1.1002274E0,1.4797134E0,1.6677164E0,1.1043895E0,2.0036217E1,3.7839592E1,8.554883E0,9.933764E0,1.120417E0,3.2981832E0,2.8825107E0,2.274057E1,4.873023E0,1.667814E0,5.509014E0,3.885012E0],"tree_param":{"num_deleted":"0","num_feature":"36","num_nodes":"75","size_leaf_vector":"1"}},{"base_weights":[1.4130827E-2,2.685012E-1,-2.6346242E-1,-2.7615297E-1,4.5654154E-1,-5.229538E-1,3.0546853E-1,-7.176006E-1,4.3309706E-1,5.2195233E-1,-8.241592E-1,-7.7050453E-1,3.0302668E-1,-1.3509957E0,6.012177E-1,2.854829E-1,-9.98595E-1,1.130601E0,-3.599396E-1,1.8859233E-1,7.483865E-1,1.5755039E-2,-4.2995226E-2,-3.2282752E-1,-1.217353E0,8.536816E-1,-8.431494E-1,-1.3108496E-2,-4.4611346E-2,7.381537E-1,-3.5103325E-2,8.1213E-1,-2.0099737E-2,-1.2779229E0,4.5852503E-1,-3.4808644E-4,4.1362453E-2,-1.1256572E0,6.0590297E-1,5.7645535E-1,-3.992339E-1,3.0710187E-2,9.218897E-1,-9.1269773E-1,1.251394E-1,-1.7689067E-1,-1.3531412E0,1.0838852E0,-1.9695697E-2,2.3608094E-2,-1.2979954E0,-5.03915E-1,8.934088E-1,-8.615109E-3,3.8547467E-2,-1.3300393E-2,-4.1407783E-2,2.7498674E-2,-1.004708E-2,-8.173419E-3,-3.933949E-2,-9.633615E-3,3.162341E-2,-1.6329158E-2,2.6601633E-2,-2.7395362E-2,9.560726E-3,2.1094777E-2,-4.378865E-2,3.0227035E-2,-3.3673046E-3,1.9701656E-2,-3.4827538E-2,-2.2231387E-2,1.4022057E-2,2.4754424E-2,-3.5325408E-2,-4.2530145E-2,-8.696157E-3,9.580368E-3,4.1847717E-2,-9.537807E-3,-4.329906E-2,-3.581605E-2,1.6442109E-2,2.9856209E-2,-2.9286617E-2],"categories":[],"categories_nodes":[],"categories_segments":[],"categories_sizes":[],"default_left":[0,0,0,0,0,0,0,0,0,0,0,0,0,0,0,0,0,0,0,0,0,0,0,0,0,0,0,0,0,0,0,0,0,0,0,0,0,0,0,0,0,0,0,0,0,0,0,0,0,0,0,0,0,0,0,0,0,0,0,0,0,0,0,0,0,0,0,0,0,0,0,0,0,0,0,0,0,0,0,0,0,0,0,0,0,0,0],"id":10,"left_children":[1,3,5,7,9,11,13,15,17,19,21,23,25,27,29,31,33,35,37,39,41,-1,-1,43,45,47,49,-1,-1,51,-1,53,-1,55,57,-1,-1,59,61,63,65,67,69,71,73,75,77,79,-1,-1,81,83,85,-1,-1,-1,-1,-1,-1,-1,-1,-1,-1,-1,-1,-1,-1,-1,-1,-1,-1,-1,-1,-1,-1,-1,-1,-1,-1,-1,-1,-1,-1,-1,-1,-1,-1],"loss_changes":[1.978847E1,1.510063E1,1.9947071E1,1.2254553E1,9.566681E0,1.9130035E1,2.1688988E1,7.01845E0,8.846971E0,7.7376595E0,5.426381E0,1.3887707E1,1.462298E1,1.9135094E-1,9.802174E0,3.5659695E0,8.271887E0,2.3853874E0,6.523588E0,1.016095E1,7.6694756E0,0E0,0E0,9.896933E0,4.7572556E0,6.0573673E0,6.694751E0,0E0,0E0,7.1646996E0,0E0,2.6160367E0,0E0,7.639942E-1,1.6785599E0,0E0,0E0,3.960657E-1,2.0599072E0,9.750114E0,6.897822E0,1.4124919E1,4.5210686E0,7.0345287E0,6.8452168E0,6.218658E0,1.7251854E0,2.8171825E0,0E0,0E0,4.4685173E-1,3.9264135E0,6.930868E0,0E0,0E0,0E0,0E0,0E0,0E0,0E0,0E0,0E0,0E0,0E0,0E0,0E0,0E0,0E0,0E0,0E0,0E0,0E0,0E0,0E0,0E0,0E0,0E0,0E0,0E0,0E0,0E0,0E0,0E0,0E0,0E0,0E0,0E0],"parents":[2147483647,0,0,1,1,2,2,3,3,4,4,5,5,6,6,7,7,8,8,9,9,10,10,11,11,12,12,13,13,14,14,15,15,16,16,17,17,18,18,19,19,20,20,23,23,24,24,25,25,26,26,29,29,31,31,33,33,34,34,37,37,38,38,39,39,40,40,41,41,42,42,43,43,44,44,45,45,46,46,47,47,50,50,51,51,52,52],"right_children":[2,4,6,8,10,12,14,16,18,20,22,24,26,28,30,32,34,36,38,40,42,-1,-1,44,46,48,50,-1,-1,52,-1,54,-1,56,58,-1,-1,60,62,64,66,68,70,72,74,76,78,80,-1,-1,82,84,86,-1,-1,-1,-1,-1,-1,-1,-1,-1,-1,-1,-1,-1,-1,-1,-1,-1,-1,-1,-1,-1,-1,-1,-1,-1,-1,-1,-1,-1,-1,-1,-1,-1,-1],"split_conditions":[4.429962E-4,-5.385025E-1,3.2151684E1,-8.4750116E-4,1.8078513E-3,1.9628946E-1,-8.6348446E-4,3.6065575E1,3.5410452E-5,-1.04219876E-1,9.675547E-4,1.2275753E-2,2.8411131E-2,2.753346E-1,8.69265E-2,-7.514408E-1,-1.0231488E-3,-7.180201E-1,2.8005434E1,-2.1552204E-3,-9.3570485E-4,1.5755039E-2,-4.2995226E-2,1.21304445E-1,1.3925132E1,7.468354E1,-9.186483E-2,-1.3108496E-2,-4.4611346E-2,1.75E-1,-3.5103325E-2,-4.9252096E-3,-2.0099737E-2,-1.4999507E-1,-8.0138905E-4,-3.4808644E-4,4.1362453E-2,-3.961442E-4,3.8042983E-1,-2.5464094E-3,-9.124976E-3,-5.234917E-4,1.0426195E0,-2.9055757E-2,5.488562E-3,1.2881292E-1,2.4656177E0,-5.904387E-1,-1.9695697E-2,2.3608094E-2,-8.292598E-1,1.3117269E-1,7.9710144E1,-8.615109E-3,3.8547467E-2,-1.3300393E-2,-4.1407783E-2,2.7498674E-2,-1.004708E-2,-8.173419E-3,-3.933949E-2,-9.633615E-3,3.162341E-2,-1.6329158E-2,2.6601633E-2,-2.7395362E-2,9.560726E-3,2.1094777E-2,-4.378865E-2,3.0227035E-2,-3.3673046E-3,1.9701656E-2,-3.4827538E-2,-2.2231387E-2,1.4022057E-2,2.4754424E-2,-3.5325408E-2,-4.2530145E-2,-8.696157E-3,9.580368E-3,4.1847717E-2,-9.537807E-3,-4.329906E-2,-3.581605E-2,1.6442109E-2,2.9856209E-2,-2.9286617E-2],"split_indices":[3,21,9,16,15,10,17,0,17,22,16,3,8,7,8,21,15,22,9,17,19,0,0,6,9,0,22,0,0,7,0,16,0,10,12,0,0,16,22,16,3,16,22,1,3,10,11,22,0,0,21,10,0,0,0,0,0,0,0,0,0,0,0,0,0,0,0,0,0,0,0,0,0,0,0,0,0,0,0,0,0,0,0,0,0,0,0],"split_type":[0,0,0,0,0,0,0,0,0,0,0,0,0,0,0,0,0,0,0,0,0,0,0,0,0,0,0,0,0,0,0,0,0,0,0,0,0,0,0,0,0,0,0,0,0,0,0,0,0,0,0,0,0,0,0,0,0,0,0,0,0,0,0,0,0,0,0,0,0,0,0,0,0,0,0,0,0,0,0,0,0,0,0,0,0,0,0],"sum_hessian":[2.7824246E2,1.4521167E2,1.3303079E2,3.714719E1,1.0806448E2,9.141631E1,4.1614487E1,2.2888979E1,1.4258211E1,1.0337703E2,4.6874514E0,7.038786E1,2.1028446E1,5.763818E0,3.585067E1,5.005293E0,1.7883686E1,7.3595576E0,6.8986535E0,4.2556927E1,6.0820103E1,1.5005424E0,3.186909E0,3.6021767E1,3.4366096E1,1.4376681E1,6.6517663E0,1.2924182E0,4.4714E0,3.3819466E1,2.031204E0,3.3234613E0,1.6818318E0,1.51100855E1,2.7736013E0,1.4836533E0,5.8759046E0,3.7556872E0,3.142966E0,2.5651045E1,1.6905882E1,1.207018E1,4.8749924E1,1.51004715E1,2.0921295E1,4.2331033E0,3.0132996E1,1.2720034E1,1.6566476E0,1.2918595E0,5.3599067E0,3.508123E0,3.0311342E1,1.1175597E0,2.2059016E0,2.232863E0,1.2877222E1,1.6599406E0,1.1136607E0,1.1121557E0,2.6435316E0,1.116756E0,2.02621E0,5.397945E0,2.02531E1,9.694124E0,7.211757E0,8.681298E0,3.3888814E0,4.5043728E1,3.7061932E0,1.8374057E0,1.3263065E1,5.595433E0,1.5325862E1,2.2026772E0,2.0304263E0,2.8094606E1,2.038388E0,4.264504E0,8.455529E0,1.103688E0,4.256219E0,2.0371616E0,1.4709613E0,2.918971E1,1.1216316E0],"tree_param":{"num_deleted":"0","num_feature":"36","num_nodes":"87","size_leaf_vector":"1"}},{"base_weights":[3.1822626E-2,3.2533988E-1,-2.196607E-1,5.571804E-1,-3.2195684E-1,-3.336299E-1,5.850116E-1,-7.7892524E-1,6.075664E-1,1.5170625E-3,-9.6006966E-1,-1.8016656E-1,-9.241442E-1,-2.2301996E-1,1.0762426E0,-3.6469806E-2,-7.127546E-4,2.9564092E-1,8.497009E-1,-5.951575E-1,6.686076E-1,2.2162095E-2,-1.2358476E0,1.551736E-1,-4.7373736E-1,-1.392363E0,-2.230493E-1,9.0505695E-1,-4.1341443E-2,4.3718126E-2,-3.0283598E-2,-6.122843E-1,9.929642E-1,1.2583455E0,3.7249437E-1,-1.2510478E0,1.3184011E-1,-4.0316328E-1,1.0941422E0,-1.4484327E0,-4.381236E-3,3.616349E-1,-1.0421737E0,2.6261622E-1,-7.296005E-1,9.922118E-3,-4.897277E-2,-6.316421E-1,8.706303E-1,3.9746393E-2,-4.981522E-4,-1.8944067E-4,-3.8769636E-2,3.3900406E-2,-2.9710183E-2,4.413254E-2,2.4019817E-2,-2.2027295E-3,2.2434678E-2,7.007368E-4,-4.7644135E-2,2.4222726E-2,-2.6208859E-2,1.1564211E-2,-3.2525335E-2,3.907858E-2,8.9646806E-4,-9.993602E-3,-4.701454E-2,-3.6481419E-3,2.4867574E-2,-3.9234746E-2,4.996388E-3,4.8102595E-2,-2.3464225E-2,2.2615045E-2,-2.8682886E-2,1.706447E-2,-3.9348535E-2,5.493437E-3,3.4662038E-2],"categories":[],"categories_nodes":[],"categories_segments":[],"categories_sizes":[],"default_left":[0,0,0,0,0,0,0,0,0,0,0,0,0,0,0,0,0,0,0,0,0,0,0,0,0,0,0,0,0,0,0,0,0,0,0,0,0,0,0,0,0,0,0,0,0,0,0,0,0,0,0,0,0,0,0,0,0,0,0,0,0,0,0,0,0,0,0,0,0,0,0,0,0,0,0,0,0,0,0,0,0],"id":11,"left_children":[1,3,5,7,9,11,13,15,17,19,21,23,25,27,29,-1,-1,31,33,35,37,-1,39,41,43,45,47,49,-1,-1,-1,51,53,55,57,59,61,63,65,67,-1,69,71,73,75,-1,-1,77,79,-1,-1,-1,-1,-1,-1,-1,-1,-1,-1,-1,-1,-1,-1,-1,-1,-1,-1,-1,-1,-1,-1,-1,-1,-1,-1,-1,-1,-1,-1,-1,-1],"loss_changes":[2.1134203E1,1.9999424E1,1.4343309E1,7.0444107E0,7.321483E0,1.2137387E1,7.9812818E0,1.2855303E0,6.8955307E0,1.0162482E1,6.502653E0,1.0804838E1,8.8033695E0,1.1934177E1,1.1246573E1,0E0,0E0,2.7759819E1,9.815571E0,6.591867E0,5.9383864E0,0E0,2.2532692E0,1.3141852E1,1.1188886E1,7.3469105E0,6.0500083E0,1.8611114E0,0E0,0E0,0E0,7.923722E0,7.8158684E0,1.547409E0,4.364339E0,3.1220102E0,5.6623235E0,2.6501722E0,1.9351063E0,6.4185524E-1,0E0,1.0213711E1,2.739067E0,2.3369116E1,1.536425E1,0E0,0E0,8.533392E0,5.2615213E-1,0E0,0E0,0E0,0E0,0E0,0E0,0E0,0E0,0E0,0E0,0E0,0E0,0E0,0E0,0E0,0E0,0E0,0E0,0E0,0E0,0E0,0E0,0E0,0E0,0E0,0E0,0E0,0E0,0E0,0E0,0E0,0E0],"parents":[2147483647,0,0,1,1,2,2,3,3,4,4,5,5,6,6,7,7,8,8,9,9,10,10,11,11,12,12,13,13,14,14,17,17,18,18,19,19,20,20,22,22,23,23,24,24,25,25,26,26,27,27,31,31,32,32,33,33,34,34,35,35,36,36,37,37,38,38,39,39,41,41,42,42,43,43,44,44,47,47,48,48],"right_children":[2,4,6,8,10,12,14,16,18,20,22,24,26,28,30,-1,-1,32,34,36,38,-1,40,42,44,46,48,50,-1,-1,-1,52,54,56,58,60,62,64,66,68,-1,70,72,74,76,-1,-1,78,80,-1,-1,-1,-1,-1,-1,-1,-1,-1,-1,-1,-1,-1,-1,-1,-1,-1,-1,-1,-1,-1,-1,-1,-1,-1,-1,-1,-1,-1,-1,-1,-1],"split_conditions":[1.4810045E-1,1.0950983E-3,3.025233E-1,-7.628863E-4,3.5389394E-2,5.206306E-4,2.5813434E-2,-2.7929246E-3,2.3195876E-1,3.3488683E-2,3.6329325E-2,1.8350308E-1,2.0981573E-1,-2.4704987E-3,1.7952497E-1,-3.6469806E-2,-7.127546E-4,-7.000431E-3,-1.9465033E-2,2.0700274E-4,1.283697E-4,2.2162095E-2,5.1802646E-2,1.1380495E-1,2.485752E-2,-1.300052E-3,1.16067916E-1,-3.4894645E-3,-4.1341443E-2,4.3718126E-2,-3.0283598E-2,-2.8675454E-2,1.2822641E-1,1.3289481E-1,5.4736843E1,7.57461E-2,3.488372E-1,3.7839297E-2,4.474713E-2,2.2348577E-1,-4.381236E-3,4.1364238E-2,1.5412278E-3,-4.0070165E-4,3.7792397E-3,9.922118E-3,-4.897277E-2,1.1144168E-3,8.3863634E-1,3.9746393E-2,-4.981522E-4,-1.8944067E-4,-3.8769636E-2,3.3900406E-2,-2.9710183E-2,4.413254E-2,2.4019817E-2,-2.2027295E-3,2.2434678E-2,7.007368E-4,-4.7644135E-2,2.4222726E-2,-2.6208859E-2,1.1564211E-2,-3.2525335E-2,3.907858E-2,8.9646806E-4,-9.993602E-3,-4.701454E-2,-3.6481419E-3,2.4867574E-2,-3.9234746E-2,4.996388E-3,4.8102595E-2,-2.3464225E-2,2.2615045E-2,-2.8682886E-2,1.706447E-2,-3.9348535E-2,5.493437E-3,3.4662038E-2],"split_indices":[6,17,6,19,2,19,10,15,7,1,1,6,6,17,1,0,0,1,1,19,13,0,2,10,8,12,10,14,0,0,0,2,6,6,0,6,7,1,8,5,0,8,14,19,2,0,0,19,7,0,0,0,0,0,0,0,0,0,0,0,0,0,0,0,0,0,0,0,0,0,0,0,0,0,0,0,0,0,0,0,0],"split_type":[0,0,0,0,0,0,0,0,0,0,0,0,0,0,0,0,0,0,0,0,0,0,0,0,0,0,0,0,0,0,0,0,0,0,0,0,0,0,0,0,0,0,0,0,0,0,0,0,0,0,0,0,0,0,0,0,0,0,0,0,0,0,0,0,0,0,0,0,0,0,0,0,0,0,0,0,0,0,0,0,0],"sum_hessian":[2.8434616E2,1.3107227E2,1.5327388E2,9.6609215E1,3.4463043E1,1.3477106E2,1.8502825E1,2.9853892E0,9.3623825E1,2.353184E1,1.0931204E1,1.0800717E2,2.6763893E1,7.202064E0,1.1300761E1,1.5051352E0,1.4802542E0,4.1885952E1,5.1737877E1,1.2478427E1,1.1053412E1,1.2922351E0,9.638968E0,5.0636974E1,5.7370193E1,1.5455871E1,1.13080225E1,3.7530284E0,3.449036E0,9.809923E0,1.4908375E0,1.8248322E1,2.3637632E1,2.6989315E1,2.4748562E1,6.1810765E0,6.297351E0,3.1563237E0,7.8970885E0,7.7902718E0,1.8486965E0,4.3784996E1,6.8519773E0,1.4787259E1,4.2582935E1,1.843812E0,1.3612059E1,8.539989E0,2.7680326E0,2.277928E0,1.4751002E0,1.01833725E1,8.064948E0,2.2512238E1,1.1253947E0,1.6913479E1,1.0075836E1,1.1678264E1,1.3070298E1,1.4876312E0,4.693445E0,3.8843718E0,2.4129791E0,1.663689E0,1.4926347E0,6.4162474E0,1.480841E0,1.1156032E0,6.674669E0,2.1888685E1,2.1896313E1,5.550174E0,1.301803E0,6.2418995E0,8.54536E0,5.3320947E0,3.725084E1,3.1472244E0,5.3927655E0,1.291945E0,1.4760876E0],"tree_param":{"num_deleted":"0","num_feature":"36","num_nodes":"81","size_leaf_vector":"1"}},{"base_weights":[1.9837866E-2,3.1428754E-1,-1.6101001E-1,4.3449426E-1,-8.873987E-1,-5.397142E-1,1.3786258E-1,2.9459712E-1,1.2258003E0,1.6024843E-2,-1.1998607E0,-2.2191639E-1,-8.420012E-1,3.4108262E-3,1.3180403E0,6.6829777E-1,-6.868911E-2,1.37771E0,-1.1171593E-3,-4.5140244E-2,8.116849E-3,-1.2359164E0,-1.9873036E-2,-1.2889696E0,-8.1200466E-2,4.9294183E-1,-2.7995023E-1,9.455228E-3,4.4567168E-2,1.7157933E-1,9.956846E-1,-2.9036987E-1,6.513884E-1,1.4652594E0,7.3953513E-3,-4.1548762E-2,-8.536662E-3,-3.3970463E-1,6.225103E-1,-3.608538E-1,-1.368873E0,3.5494182E-1,-3.9748933E-2,-3.74037E-2,6.745738E-1,-7.7438724E-1,7.4282095E-2,2.3030667E-2,-2.2483211E-2,4.1202918E-2,1.0045161E-2,9.20237E-3,-1.8675614E-2,3.7437193E-2,-9.999362E-3,1.5355047E-2,4.6653863E-2,-1.8418025E-2,3.466143E-2,3.547564E-2,-1.4477804E-2,-2.8835582E-2,1.1810717E-2,-1.5180182E-2,-4.324514E-2,-9.463513E-3,2.447552E-2,1.705356E-3,2.84422E-2,-2.964707E-2,2.9896632E-2,2.3149827E-2,-1.113011E-2],"categories":[],"categories_nodes":[],"categories_segments":[],"categories_sizes":[],"default_left":[0,0,0,0,0,0,0,0,0,0,0,0,0,0,0,0,0,0,0,0,0,0,0,0,0,0,0,0,0,0,0,0,0,0,0,0,0,0,0,0,0,0,0,0,0,0,0,0,0,0,0,0,0,0,0,0,0,0,0,0,0,0,0,0,0,0,0,0,0,0,0,0,0],"id":12,"left_children":[1,3,5,7,9,11,13,15,17,-1,19,21,23,25,27,29,31,33,-1,-1,-1,35,37,39,41,43,45,-1,-1,47,49,51,53,55,-1,-1,-1,57,59,61,63,65,-1,-1,67,69,71,-1,-1,-1,-1,-1,-1,-1,-1,-1,-1,-1,-1,-1,-1,-1,-1,-1,-1,-1,-1,-1,-1,-1,-1,-1,-1],"loss_changes":[1.4636212E1,1.5489053E1,1.9355022E1,1.0235367E1,5.01022E0,7.050953E0,1.5229311E1,1.1267469E1,2.749754E0,0E0,4.159583E0,7.7783027E0,1.2904224E1,1.223233E1,1.1810265E0,6.4701633E0,7.024293E0,8.8471603E-1,0E0,0E0,0E0,5.0085354E-1,6.9452143E0,1.2881432E0,8.729044E0,1.1056344E1,9.841356E0,0E0,0E0,1.01457615E1,5.632698E0,6.8215632E0,6.5175333E0,1.8720818E-1,0E0,0E0,0E0,9.945631E0,7.531185E0,1.8564028E0,6.348114E-1,3.9840012E0,0E0,0E0,5.0011597E0,9.848166E0,1.0675888E1,0E0,0E0,0E0,0E0,0E0,0E0,0E0,0E0,0E0,0E0,0E0,0E0,0E0,0E0,0E0,0E0,0E0,0E0,0E0,0E0,0E0,0E0,0E0,0E0,0E0,0E0],"parents":[2147483647,0,0,1,1,2,2,3,3,4,4,5,5,6,6,7,7,8,8,10,10,11,11,12,12,13,13,14,14,15,15,16,16,17,17,21,21,22,22,23,23,24,24,25,25,26,26,29,29,30,30,31,31,32,32,33,33,37,37,38,38,39,39,40,40,41,41,44,44,45,45,46,46],"right_children":[2,4,6,8,10,12,14,16,18,-1,20,22,24,26,28,30,32,34,-1,-1,-1,36,38,40,42,44,46,-1,-1,48,50,52,54,56,-1,-1,-1,58,60,62,64,66,-1,-1,68,70,72,-1,-1,-1,-1,-1,-1,-1,-1,-1,-1,-1,-1,-1,-1,-1,-1,-1,-1,-1,-1,-1,-1,-1,-1,-1,-1],"split_conditions":[1.341069E-1,4.8431654E-2,2.4934412E1,3.8925037E1,3.567258E-2,-2.629503E-4,3.025233E-1,-2.591234E-4,8.798438E-1,1.6024843E-2,1.3101836E-1,-8.7418395E-1,1.0522163E-3,-6.835399E-1,-9.497227E-2,-8.4073806E-1,1.6053687E-1,2.6226964E-2,-1.1171593E-3,-4.5140244E-2,8.116849E-3,2.3923136E1,-6.3889596E-4,-1.2738854E-3,2.9608652E-3,-1.772776E-1,3.7846226E-1,9.455228E-3,4.4567168E-2,2.462502E1,2.6588675E-4,-2.629503E-4,1.9279663E-1,4.073441E1,7.3953513E-3,-4.1548762E-2,-8.536662E-3,3.5185117E-1,1.8509192E1,1.2815584E-4,3.472222E1,2.2089515E-2,-3.9748933E-2,-3.74037E-2,-3.9755926E-1,6.2874046E1,1.9169086E-1,2.3030667E-2,-2.2483211E-2,4.1202918E-2,1.0045161E-2,9.20237E-3,-1.8675614E-2,3.7437193E-2,-9.999362E-3,1.5355047E-2,4.6653863E-2,-1.8418025E-2,3.466143E-2,3.547564E-2,-1.4477804E-2,-2.8835582E-2,1.1810717E-2,-1.5180182E-2,-4.324514E-2,-9.463513E-3,2.447552E-2,1.705356E-3,2.84422E-2,-2.964707E-2,2.9896632E-2,2.3149827E-2,-1.113011E-2],"split_indices":[6,1,9,9,2,12,6,3,21,0,6,21,12,18,10,18,10,3,0,0,0,9,12,13,15,1,5,0,0,9,14,12,21,9,0,0,0,6,9,12,0,10,0,0,21,9,6,0,0,0,0,0,0,0,0,0,0,0,0,0,0,0,0,0,0,0,0,0,0,0,0,0,0],"split_type":[0,0,0,0,0,0,0,0,0,0,0,0,0,0,0,0,0,0,0,0,0,0,0,0,0,0,0,0,0,0,0,0,0,0,0,0,0,0,0,0,0,0,0,0,0,0,0,0,0,0,0,0,0,0,0,0,0,0,0,0,0,0,0,0,0,0,0,0,0,0,0,0,0],"sum_hessian":[2.7290506E2,1.03558E2,1.6934706E2,9.47213E1,8.836703E0,7.434191E1,9.500515E1,8.1657196E1,1.3064103E1,1.4644765E0,7.372226E0,3.7086536E1,3.725538E1,8.6188965E1,8.816189E0,3.9837784E1,4.181941E1,1.1580491E1,1.4836124E0,6.087096E0,1.2851305E0,5.311665E0,3.177487E1,2.3030685E1,1.4224692E1,3.132781E1,5.4861153E1,1.6743888E0,7.1418E0,1.6431557E1,2.3406227E1,3.243181E1,9.387601E0,1.0474497E1,1.1059937E0,4.1981997E0,1.1134654E0,2.1527754E1,1.0247116E1,2.2628407E0,2.0767845E1,1.1060725E1,3.1639667E0,2.4071302E0,2.8920681E1,2.2403826E1,3.245733E1,1.00763445E1,6.3552117E0,1.4207047E1,9.19918E0,1.1619545E1,2.0812263E1,5.6796513E0,3.70795E0,1.479008E0,8.995489E0,1.8689144E1,2.8386092E0,6.754314E0,3.4928021E0,1.1076816E0,1.1551591E0,2.230941E0,1.8536903E1,4.6348796E0,6.4258456E0,9.245825E0,1.9674856E1,2.0384308E1,2.0195172E0,1.2362693E1,2.0094635E1],"tree_param":{"num_deleted":"0","num_feature":"36","num_nodes":"73","size_leaf_vector":"1"}},{"base_weights":[2.289793E-2,1.7059636E-1,-4.3743038E-1,4.9177967E-2,7.5417304E-1,1.0130306E0,-5.776108E-1,-2.2327778E-1,2.718876E-1,1.247628E0,3.4965876E-1,3.9893553E-2,1.9787812E-4,1.0359654E-1,-9.18828E-1,3.664245E-1,-4.100958E-1,5.5874383E-1,-1.3320126E-1,1.3350211E0,9.070682E-3,7.8059983E-1,-3.8887265E-1,-3.322027E-1,9.800512E-1,-1.1439611E0,4.7529213E-2,-3.8053393E-1,7.893355E-1,-6.076091E-1,5.725051E-1,7.095742E-1,-3.57694E-1,6.529595E-2,-1.2478197E0,1.4788981E-2,1.3926688E0,1.0842906E0,-4.8167374E-2,-1.1894783E0,3.56036E-1,3.5959634E-1,-7.610015E-1,3.4900906E-4,1.2166396E0,1.1424717E-2,-1.2353697E0,-7.354341E-1,1.056991E0,-3.8378876E-2,9.242377E-3,2.994528E-2,-1.4962165E-2,-3.7067137E-3,-2.5945526E-2,3.872036E-2,-6.4612716E-3,-3.0593863E-3,2.6838139E-2,-2.7367478E-2,1.4636859E-2,-8.540032E-3,1.6726155E-2,-4.1648548E-2,-8.96301E-3,7.3745316E-3,4.432138E-2,1.4230192E-2,3.6771934E-2,3.0976424E-2,-2.5571356E-2,-4.0568687E-2,-1.1215578E-2,2.9059373E-2,-1.8180441E-2,-3.2209232E-2,2.9804107E-2,1.1267558E-2,-3.215161E-2,6.122769E-3,4.1827768E-2,-3.9952993E-2,-3.2603722E-3,9.225004E-3,-3.1800132E-2,3.7374698E-2,8.139932E-3],"categories":[],"categories_nodes":[],"categories_segments":[],"categories_sizes":[],"default_left":[0,0,0,0,0,0,0,0,0,0,0,0,0,0,0,0,0,0,0,0,0,0,0,0,0,0,0,0,0,0,0,0,0,0,0,0,0,0,0,0,0,0,0,0,0,0,0,0,0,0,0,0,0,0,0,0,0,0,0,0,0,0,0,0,0,0,0,0,0,0,0,0,0,0,0,0,0,0,0,0,0,0,0,0,0,0,0],"id":13,"left_children":[1,3,5,7,9,11,13,15,17,19,21,-1,-1,23,25,27,29,31,33,35,-1,37,39,41,43,45,47,49,51,53,55,57,59,61,63,-1,65,67,69,71,73,75,77,-1,79,-1,81,83,85,-1,-1,-1,-1,-1,-1,-1,-1,-1,-1,-1,-1,-1,-1,-1,-1,-1,-1,-1,-1,-1,-1,-1,-1,-1,-1,-1,-1,-1,-1,-1,-1,-1,-1,-1,-1,-1,-1],"loss_changes":[1.9061234E1,1.4994559E1,1.4434926E1,1.0781049E1,6.8427944E0,2.020687E0,1.4680777E1,8.964911E0,1.1423063E1,9.2123985E-1,7.1234665E0,0E0,0E0,8.667715E0,9.172169E0,6.548052E0,1.2231957E1,8.183559E0,9.217956E0,1.1882782E-2,0E0,3.5418444E0,5.530707E0,4.8223968E0,1.7056756E0,5.2135963E0,7.7950187E0,5.2366266E0,3.982274E0,6.30217E0,6.3683386E0,7.5385876E0,4.558629E0,6.3608394E0,4.2401886E-1,0E0,8.918247E-1,2.9762936E-1,4.9437785E0,7.314348E-2,3.6551108E0,7.0142703E0,3.8590183E0,0E0,7.9865265E-1,0E0,3.367855E0,2.218254E0,2.9824543E-1,0E0,0E0,0E0,0E0,0E0,0E0,0E0,0E0,0E0,0E0,0E0,0E0,0E0,0E0,0E0,0E0,0E0,0E0,0E0,0E0,0E0,0E0,0E0,0E0,0E0,0E0,0E0,0E0,0E0,0E0,0E0,0E0,0E0,0E0,0E0,0E0,0E0,0E0],"parents":[2147483647,0,0,1,1,2,2,3,3,4,4,5,5,6,6,7,7,8,8,9,9,10,10,13,13,14,14,15,15,16,16,17,17,18,18,19,19,21,21,22,22,23,23,24,24,25,25,26,26,27,27,28,28,29,29,30,30,31,31,32,32,33,33,34,34,36,36,37,37,38,38,39,39,40,40,41,41,42,42,44,44,46,46,47,47,48,48],"right_children":[2,4,6,8,10,12,14,16,18,20,22,-1,-1,24,26,28,30,32,34,36,-1,38,40,42,44,46,48,50,52,54,56,58,60,62,64,-1,66,68,70,72,74,76,78,-1,80,-1,82,84,86,-1,-1,-1,-1,-1,-1,-1,-1,-1,-1,-1,-1,-1,-1,-1,-1,-1,-1,-1,-1,-1,-1,-1,-1,-1,-1,-1,-1,-1,-1,-1,-1,-1,-1,-1,-1,-1,-1],"split_conditions":[4.4560466E-2,3.943723E1,3.7198086E-4,-1.04219876E-1,-7.170036E-2,7.069839E-2,3.4842595E-2,-1.4172643E0,4.429962E-4,1.1565151E-3,3.7433577E-1,3.9893553E-2,1.9787812E-4,2.0286101E-1,-2.6350323E-4,-8.1993654E-2,5.5560365E-2,1.0963694E-1,2.7147382E-1,-6.257484E-2,9.070682E-3,8.6399126E-1,8.439126E-3,-6.111221E-4,1.1308169E-2,-2.7458158E-3,3.1596663E1,3.2339063E-2,7.939711E-3,-1.0934114E-2,2.0074976E1,-1.4858454E-3,1.9323622E-1,5.076453E-1,1.0537407E-3,1.4788981E-2,-1.7294133E-3,1.2941974E-1,4.310988E1,5.2638503E-4,1.078585E-2,-2.591234E-4,-9.2862826E-4,3.4900906E-4,-5.9106923E-3,1.1424717E-2,2.373105E-3,-2.0257695E-2,4.4553384E-2,-3.8378876E-2,9.242377E-3,2.994528E-2,-1.4962165E-2,-3.7067137E-3,-2.5945526E-2,3.872036E-2,-6.4612716E-3,-3.0593863E-3,2.6838139E-2,-2.7367478E-2,1.4636859E-2,-8.540032E-3,1.6726155E-2,-4.1648548E-2,-8.96301E-3,7.3745316E-3,4.432138E-2,1.4230192E-2,3.6771934E-2,3.0976424E-2,-2.5571356E-2,-4.0568687E-2,-1.1215578E-2,2.9059373E-2,-1.8180441E-2,-3.2209232E-2,2.9804107E-2,1.1267558E-2,-3.215161E-2,6.122769E-3,4.1827768E-2,-3.9952993E-2,-3.2603722E-3,9.225004E-3,-3.1800132E-2,3.7374698E-2,8.139932E-3],"split_indices":[1,9,17,22,10,8,8,22,3,13,4,0,0,10,19,2,8,10,4,2,0,11,10,19,4,13,9,10,1,8,9,16,10,22,14,0,15,4,9,12,3,3,13,0,8,0,13,4,2,0,0,0,0,0,0,0,0,0,0,0,0,0,0,0,0,0,0,0,0,0,0,0,0,0,0,0,0,0,0,0,0,0,0,0,0,0,0],"split_type":[0,0,0,0,0,0,0,0,0,0,0,0,0,0,0,0,0,0,0,0,0,0,0,0,0,0,0,0,0,0,0,0,0,0,0,0,0,0,0,0,0,0,0,0,0,0,0,0,0,0,0,0,0,0,0,0,0,0,0,0,0,0,0,0,0,0,0,0,0,0,0,0,0,0,0,0,0,0,0,0,0,0,0,0,0,0,0],"sum_hessian":[2.7825687E2,2.1114078E2,6.711608E1,1.7567441E2,3.5466377E1,5.3660808E0,6.175E1,7.901161E1,9.666279E1,1.50378685E1,2.0428509E1,3.8371384E0,1.5289425E0,2.0840446E1,4.0909554E1,1.87776E1,6.0234013E1,5.6367714E1,4.0295074E1,1.3387813E1,1.6500564E0,1.2864798E1,7.563711E0,1.43340845E1,6.5063615E0,3.30306E1,7.878952E0,6.8243775E0,1.1953222E1,5.0470528E1,9.763484E0,4.8595444E1,7.7722726E0,3.500298E1,5.2920985E0,1.4698087E0,1.1918004E1,9.189214E0,3.6755834E0,3.357914E0,4.205797E0,5.5467186E0,8.787366E0,1.4834381E0,5.0229235E0,1.6890721E0,3.134153E1,4.590166E0,3.2887862E0,2.5883443E0,4.2360334E0,1.0479244E1,1.4739773E0,1.8027842E1,3.2442688E1,4.773842E0,4.9896426E0,9.105787E0,3.9489655E1,4.6462994E0,3.1259732E0,2.0704584E1,1.4298393E1,4.206675E0,1.0854234E0,1.0881381E0,1.0829865E1,2.5492806E0,6.639933E0,1.4470642E0,2.2285192E0,2.2506685E0,1.1072454E0,2.565375E0,1.6404219E0,1.4881411E0,4.0585775E0,1.8417218E0,6.945644E0,1.070337E0,3.9525862E0,2.87037E1,2.6378312E0,1.1019357E0,3.4882302E0,2.179293E0,1.1094933E0],"tree_param":{"num_deleted":"0","num_feature":"36","num_nodes":"87","size_leaf_vector":"1"}},{"base_weights":[2.1402342E-2,2.2996596E-1,-3.5999244E-1,2.8482443E-1,-1.2696981E0,-5.386288E-1,4.4932902E-1,-1.1224924E-1,5.1379645E-1,-9.160864E-3,-4.2477697E-2,-9.398246E-1,-2.3702909E-1,7.999353E-1,-5.560679E-1,3.6380842E-1,-6.373744E-1,7.064983E-1,-6.6145286E-3,-1.1601366E0,1.4624101E-1,5.648982E-1,-5.7530105E-1,-2.14126E-1,1.2824954E0,2.6788482E-2,-3.7033997E-2,6.548768E-1,-9.01069E-1,-8.280308E-1,3.3522706E-2,-1.320177E-1,8.024994E-1,3.4588763E-1,-5.4959005E-1,-1.2276179E0,4.493602E-3,5.4141855E-1,-2.8086793E-2,-3.142329E-2,8.335516E-1,-8.2878196E-1,6.3331187E-1,5.462953E-1,-3.4278765E-2,4.188266E-2,6.0155774E-3,4.1828655E-2,4.2138025E-3,-4.045312E-2,1.7720342E-4,2.6862215E-2,-2.9153718E-2,1.8692285E-2,-2.6575902E-2,1.7310865E-3,2.8270977E-2,-3.833141E-2,1.803935E-2,1.6874708E-3,-3.6022544E-2,-4.010778E-2,-2.0556424E-2,2.8320104E-2,-1.2384534E-2,5.395105E-3,3.7621856E-2,-2.8921652E-3,-3.4008004E-2,3.6820415E-2,-2.8691487E-2,-9.488601E-3,3.1843767E-2],"categories":[],"categories_nodes":[],"categories_segments":[],"categories_sizes":[],"default_left":[0,0,0,0,0,0,0,0,0,0,0,0,0,0,0,0,0,0,0,0,0,0,0,0,0,0,0,0,0,0,0,0,0,0,0,0,0,0,0,0,0,0,0,0,0,0,0,0,0,0,0,0,0,0,0,0,0,0,0,0,0,0,0,0,0,0,0,0,0,0,0,0,0],"id":14,"left_children":[1,3,5,7,9,11,13,15,17,-1,-1,19,21,23,25,27,29,31,33,35,37,39,41,43,45,-1,-1,47,49,51,-1,53,55,57,59,61,-1,63,-1,-1,65,67,69,71,-1,-1,-1,-1,-1,-1,-1,-1,-1,-1,-1,-1,-1,-1,-1,-1,-1,-1,-1,-1,-1,-1,-1,-1,-1,-1,-1,-1,-1],"loss_changes":[2.1472963E1,1.4713692E1,1.4042252E1,1.5433173E1,4.6157455E-1,9.29388E0,6.7209263E0,1.58993635E1,1.0779211E1,0E0,0E0,8.16489E0,1.2867124E1,6.9351835E0,6.207551E0,1.2926823E1,1.1016981E1,6.4183273E0,5.936664E0,2.649353E0,3.297307E0,7.0332766E0,1.0638907E1,4.327885E0,8.7113285E-1,0E0,0E0,1.0385679E1,2.7221613E0,7.753477E0,0E0,5.626181E0,7.289955E0,8.572588E0,4.882428E0,6.6301346E-1,0E0,2.4688816E0,0E0,0E0,3.2785807E0,6.0796757E0,7.1140075E0,1.9178498E0,0E0,0E0,0E0,0E0,0E0,0E0,0E0,0E0,0E0,0E0,0E0,0E0,0E0,0E0,0E0,0E0,0E0,0E0,0E0,0E0,0E0,0E0,0E0,0E0,0E0,0E0,0E0,0E0,0E0],"parents":[2147483647,0,0,1,1,2,2,3,3,4,4,5,5,6,6,7,7,8,8,11,11,12,12,13,13,14,14,15,15,16,16,17,17,18,18,19,19,20,20,21,21,22,22,23,23,24,24,27,27,28,28,29,29,31,31,32,32,33,33,34,34,35,35,37,37,40,40,41,41,42,42,43,43],"right_children":[2,4,6,8,10,12,14,16,18,-1,-1,20,22,24,26,28,30,32,34,36,38,40,42,44,46,-1,-1,48,50,52,-1,54,56,58,60,62,-1,64,-1,-1,66,68,70,72,-1,-1,-1,-1,-1,-1,-1,-1,-1,-1,-1,-1,-1,-1,-1,-1,-1,-1,-1,-1,-1,-1,-1,-1,-1,-1,-1,-1,-1],"split_conditions":[1.7977147E-1,8.228891E-2,3.025233E-1,5.9321704E-3,-9.12171E-4,-2.524392E-1,6.774249E-2,-1.2229555E-2,6.0211815E-2,-9.160864E-3,-4.2477697E-2,1.3042911E-3,-1.2738854E-3,2.2809435E-2,4.8800892E-1,1.0369626E0,1.7121662E0,5.3534225E-2,3.9149344E-2,2.2967425E-1,-7.9990214E-1,-1.402419E-1,2.2189224E-1,-3.2651767E-2,2.5866184E-2,2.6788482E-2,-3.7033997E-2,1.2968618E-1,-1.8513177E-2,-2.414171E-2,3.3522706E-2,-3.708771E-2,-7.68053E-1,-1.1840548E-3,-6.2523724E-4,2.5809783E-4,4.493602E-3,1.8078513E-3,-2.8086793E-2,-3.142329E-2,-7.894737E-4,1.9680926E-1,1.7358192E0,-5.0240263E-2,-3.4278765E-2,4.188266E-2,6.0155774E-3,4.1828655E-2,4.2138025E-3,-4.045312E-2,1.7720342E-4,2.6862215E-2,-2.9153718E-2,1.8692285E-2,-2.6575902E-2,1.7310865E-3,2.8270977E-2,-3.833141E-2,1.803935E-2,1.6874708E-3,-3.6022544E-2,-4.010778E-2,-2.0556424E-2,2.8320104E-2,-1.2384534E-2,5.395105E-3,3.7621856E-2,-2.8921652E-3,-3.4008004E-2,3.6820415E-2,-2.8691487E-2,-9.488601E-3,3.1843767E-2],"split_indices":[6,8,6,8,13,21,8,8,10,0,0,12,15,10,18,18,18,4,2,10,21,10,10,3,8,0,0,6,8,3,0,10,22,15,19,15,0,15,0,0,12,21,18,3,0,0,0,0,0,0,0,0,0,0,0,0,0,0,0,0,0,0,0,0,0,0,0,0,0,0,0,0,0],"split_type":[0,0,0,0,0,0,0,0,0,0,0,0,0,0,0,0,0,0,0,0,0,0,0,0,0,0,0,0,0,0,0,0,0,0,0,0,0,0,0,0,0,0,0,0,0,0,0,0,0,0,0,0,0,0,0,0,0,0,0,0,0,0,0,0,0,0,0,0,0,0,0,0,0],"sum_hessian":[2.6790637E2,1.7345209E2,9.445427E1,1.6811252E2,5.339567E0,7.7649635E1,1.6804642E1,6.1672466E1,1.06440056E2,1.1096784E0,4.229889E0,3.241467E1,4.5234962E1,1.2611177E1,4.1934643E0,3.250863E1,2.916384E1,7.741619E1,2.9023859E1,2.6891449E1,5.523219E0,1.3221456E1,3.2013508E1,4.24562E0,8.365558E0,1.2363776E0,2.9570866E0,2.6819334E1,5.6892943E0,2.6782131E1,2.3817089E0,7.9142723E0,6.950192E1,1.7818794E1,1.1205066E1,2.5633747E1,1.257702E0,4.41226E0,1.1109592E0,1.4743259E0,1.174713E1,2.6723162E1,5.290346E0,2.5603688E0,1.685251E0,7.3079996E0,1.0575575E0,1.0301603E1,1.651773E1,3.484041E0,2.2052536E0,1.659463E0,2.5122667E1,4.040526E0,3.8737464E0,1.1211676E1,5.8290245E1,1.8781326E0,1.5940662E1,6.2778172E0,4.927248E0,2.0115204E1,5.5185432E0,3.1106322E0,1.301628E0,5.157334E0,6.5897965E0,8.240428E0,1.8482735E1,4.017155E0,1.2731909E0,1.101717E0,1.4586518E0],"tree_param":{"num_deleted":"0","num_feature":"36","num_nodes":"73","size_leaf_vector":"1"}},{"base_weights":[-1.9107852E-2,4.309906E-2,-7.172973E-1,1.837565E-1,-2.2342764E-1,3.477817E-2,-9.398045E-1,3.466911E-1,-2.2618288E-1,-3.427029E-1,8.5980994E-1,-1.1987106E0,3.9584202E-1,4.2386952E-1,-9.2474806E-1,-4.975596E-1,6.955494E-1,-1.9202417E-2,-5.802462E-1,-5.019126E-1,4.275533E-2,-3.2849455E-1,-1.4450524E0,3.992394E-2,-2.8025122E-2,7.624136E-1,2.5060517E-1,1.7631804E-3,-1.184456E0,-7.3903275E-1,1.0791751E0,-1.1858373E-1,1.0381385E0,-9.4908726E-1,3.040323E-1,-7.089853E-1,1.0026903E0,8.510277E-3,-3.004337E-2,-3.3133622E-2,4.1515842E-1,-4.5727246E-2,-1.6319856E-2,1.8741013E-3,3.234156E-2,-7.2373073E-3,1.5324622E-2,-4.020727E-2,-8.3161285E-3,-3.9308216E-2,-1.4074969E-2,4.0510666E-2,2.751204E-3,-2.9065164E-2,1.6988652E-2,-9.886806E-3,3.8972966E-2,-4.6936765E-2,2.117606E-3,-1.316195E-3,3.0509137E-2,-2.5905611E-2,8.255511E-3,3.4621302E-2,9.50995E-3,3.1452384E-2,-1.0634431E-2],"categories":[],"categories_nodes":[],"categories_segments":[],"categories_sizes":[],"default_left":[0,0,0,0,0,0,0,0,0,0,0,0,0,0,0,0,0,0,0,0,0,0,0,0,0,0,0,0,0,0,0,0,0,0,0,0,0,0,0,0,0,0,0,0,0,0,0,0,0,0,0,0,0,0,0,0,0,0,0,0,0,0,0,0,0,0,0],"id":15,"left_children":[1,3,5,7,9,-1,11,13,15,17,19,21,23,25,27,29,31,33,35,37,-1,39,41,-1,-1,43,45,-1,47,49,51,53,55,57,59,61,63,-1,-1,-1,65,-1,-1,-1,-1,-1,-1,-1,-1,-1,-1,-1,-1,-1,-1,-1,-1,-1,-1,-1,-1,-1,-1,-1,-1,-1,-1],"loss_changes":[1.2067592E1,9.616047E0,1.0579931E1,1.1281585E1,1.1752337E1,0E0,7.6921234E0,1.2208398E1,1.2430177E1,6.182473E0,7.7065015E0,3.3263397E0,6.392158E0,6.508417E0,1.9101281E0,1.522934E1,3.304194E0,1.0856395E1,1.017454E1,1.6197948E0,0E0,3.462706E0,1.3588333E-1,0E0,0E0,8.366705E0,9.983061E0,0E0,4.408369E-1,4.544073E0,1.3330374E0,3.0382853E0,3.329812E0,5.954297E0,6.703742E0,6.8583736E0,3.9645433E-2,0E0,0E0,0E0,2.0215216E0,0E0,0E0,0E0,0E0,0E0,0E0,0E0,0E0,0E0,0E0,0E0,0E0,0E0,0E0,0E0,0E0,0E0,0E0,0E0,0E0,0E0,0E0,0E0,0E0,0E0,0E0],"parents":[2147483647,0,0,1,1,2,2,3,3,4,4,6,6,7,7,8,8,9,9,10,10,11,11,12,12,13,13,14,14,15,15,16,16,17,17,18,18,19,19,21,21,22,22,25,25,26,26,28,28,29,29,30,30,31,31,32,32,33,33,34,34,35,35,36,36,40,40],"right_children":[2,4,6,8,10,-1,12,14,16,18,20,22,24,26,28,30,32,34,36,38,-1,40,42,-1,-1,44,46,-1,48,50,52,54,56,58,60,62,64,-1,-1,-1,66,-1,-1,-1,-1,-1,-1,-1,-1,-1,-1,-1,-1,-1,-1,-1,-1,-1,-1,-1,-1,-1,-1,-1,-1,-1,-1],"split_conditions":[8.779975E-2,2.0857227E-1,-6.1484348E-2,1.7907393E-1,3.025233E-1,3.477817E-2,2.4278047E-3,7.304348E1,-1.191957E-1,2.387871E-3,-5.0025217E-2,9.354217E-2,1.1224895E-2,-5.560645E-2,5.217164E-4,2.2967425E-1,3.1048232E-1,-7.68053E-1,6.8417716E-1,1.5669715E-5,4.275533E-2,6.9297574E-2,1.1565151E-3,3.992394E-2,-2.8025122E-2,3.18038E-1,-9.402007E-2,1.7631804E-3,5.235244E-1,2.035747E-1,-5.385025E-1,5.7082552E-2,-1.402419E-1,-1.0480527E-2,4.847632E-2,2.5092846E-1,1.989126E-1,8.510277E-3,-3.004337E-2,-3.3133622E-2,7.1749605E-2,-4.5727246E-2,-1.6319856E-2,1.8741013E-3,3.234156E-2,-7.2373073E-3,1.5324622E-2,-4.020727E-2,-8.3161285E-3,-3.9308216E-2,-1.4074969E-2,4.0510666E-2,2.751204E-3,-2.9065164E-2,1.6988652E-2,-9.886806E-3,3.8972966E-2,-4.6936765E-2,2.117606E-3,-1.316195E-3,3.0509137E-2,-2.5905611E-2,8.255511E-3,3.4621302E-2,9.50995E-3,3.1452384E-2,-1.0634431E-2],"split_indices":[8,21,3,6,6,0,14,0,21,10,10,8,3,10,14,10,4,22,4,3,0,2,13,0,0,7,18,0,7,6,21,10,10,3,8,10,6,0,0,0,2,0,0,0,0,0,0,0,0,0,0,0,0,0,0,0,0,0,0,0,0,0,0,0,0,0,0],"split_type":[0,0,0,0,0,0,0,0,0,0,0,0,0,0,0,0,0,0,0,0,0,0,0,0,0,0,0,0,0,0,0,0,0,0,0,0,0,0,0,0,0,0,0,0,0,0,0,0,0,0,0,0,0,0,0,0,0,0,0,0,0,0,0,0,0,0,0],"sum_hessian":[2.7613712E2,2.5440825E2,2.172886E1,1.667289E2,8.767935E1,1.8570368E0,1.9871824E1,1.19418915E2,4.7309982E1,7.9598404E1,8.080947E0,1.673113E1,3.1406932E0,1.132133E2,6.2056074E0,3.6904686E1,1.0405297E1,3.4159214E1,4.543919E1,2.4037082E0,5.6772385E0,4.206153E0,1.2524978E1,1.8439004E0,1.2967926E0,3.717539E1,7.603792E1,1.4579624E0,4.7476454E0,3.2464165E1,4.44052E0,3.2754157E0,7.1298823E0,8.31173E0,2.5847483E1,4.253219E1,2.9070048E0,1.1022996E0,1.3014086E0,1.8209358E0,2.3852172E0,1.0877405E1,1.6475725E0,1.192625E1,2.5249138E1,2.6334478E1,4.9703438E1,3.6445715E0,1.1030737E0,9.179083E0,2.3285082E1,3.1954787E0,1.2450411E0,1.2762945E0,1.9991212E0,1.1003027E0,6.0295796E0,4.8499475E0,3.4617825E0,1.8001455E1,7.8460283E0,3.686604E1,5.666147E0,1.8218356E0,1.0851692E0,1.1098374E0,1.2753799E0],"tree_param":{"num_deleted":"0","num_feature":"36","num_nodes":"67","size_leaf_vector":"1"}},{"base_weights":[-1.1204678E-2,-5.724525E-1,8.593368E-2,-1.3181758E0,-2.2777994E-1,2.6307604E-1,-2.7344173E-1,-1.4152944E0,-6.638575E-3,-4.93255E-1,8.7470835E-1,5.290926E-1,-3.0114831E-2,-6.2537515E-1,4.859907E-1,-1.0045838E-2,-4.50295E-2,-9.681847E-2,-1.0890591E0,-1.0298314E-2,3.664492E-2,1.1605662E0,3.9864573E-1,-3.5818484E-1,6.763377E-1,4.6989647E-1,-7.726679E-1,1.1709893E0,-2.4434367E-1,-5.259832E-1,8.72302E-1,-1.3227379E0,5.6614615E-3,1.3433425E0,3.3834156E-1,-3.6351338E-1,6.7802346E-1,-5.194173E-1,1.126327E0,9.389874E-1,-9.667915E-1,2.9784352E-2,-8.017869E-2,-3.1205392E-1,-1.1545E0,5.754463E-1,4.1186627E-2,2.978025E-1,-1.0908581E0,1.3154486E-2,-2.2212243E-2,3.7833463E-2,-1.0163912E-3,-5.395033E-3,-4.429386E-2,4.3259464E-2,1.2816085E-2,-1.5719905E-2,3.0443275E-2,-3.375036E-2,1.368521E-2,-1.1080152E-4,2.5892543E-2,-2.1210875E-2,2.5164861E-2,3.942503E-2,6.1215367E-3,3.6225174E-2,5.5823205E-3,-3.420858E-2,-8.61029E-3,-2.7793298E-2,1.7555594E-2,-2.8983489E-2,1.5523598E-2,6.711839E-3,-3.7176296E-2,3.1159988E-2,2.795288E-3,-3.0512204E-2,3.7312858E-2,-5.869684E-3,-3.8436927E-2],"categories":[],"categories_nodes":[],"categories_segments":[],"categories_sizes":[],"default_left":[0,0,0,0,0,0,0,0,0,0,0,0,0,0,0,0,0,0,0,0,0,0,0,0,0,0,0,0,0,0,0,0,0,0,0,0,0,0,0,0,0,0,0,0,0,0,0,0,0,0,0,0,0,0,0,0,0,0,0,0,0,0,0,0,0,0,0,0,0,0,0,0,0,0,0,0,0,0,0,0,0,0,0],"id":16,"left_children":[1,3,5,7,9,11,13,15,-1,17,19,21,23,25,27,-1,-1,29,31,-1,-1,33,35,37,39,41,43,45,47,49,51,53,-1,55,57,59,61,63,65,67,69,-1,71,73,75,77,-1,79,81,-1,-1,-1,-1,-1,-1,-1,-1,-1,-1,-1,-1,-1,-1,-1,-1,-1,-1,-1,-1,-1,-1,-1,-1,-1,-1,-1,-1,-1,-1,-1,-1,-1,-1],"loss_changes":[1.4584599E1,9.843877E0,1.4595888E1,9.935417E-1,8.685181E0,1.1974621E1,2.0567682E1,5.234947E-1,0E0,5.413794E0,2.883195E0,6.163805E0,1.7366322E1,8.791681E0,1.2578798E1,0E0,0E0,6.7509727E0,3.0080957E0,0E0,0E0,1.5366554E0,1.4767119E1,1.2817891E1,1.1169123E1,2.0398965E0,7.805868E0,7.552948E-1,6.1623535E0,2.622082E0,1.8112595E0,1.1285849E0,0E0,3.3312607E-1,2.717006E0,1.2337354E1,6.3428535E0,1.2515142E1,6.539445E-1,4.02236E0,1.173048E-1,0E0,2.933262E0,1.266109E1,3.197857E0,1.014739E0,0E0,1.1886385E1,6.3216305E-1,0E0,0E0,0E0,0E0,0E0,0E0,0E0,0E0,0E0,0E0,0E0,0E0,0E0,0E0,0E0,0E0,0E0,0E0,0E0,0E0,0E0,0E0,0E0,0E0,0E0,0E0,0E0,0E0,0E0,0E0,0E0,0E0,0E0,0E0],"parents":[2147483647,0,0,1,1,2,2,3,3,4,4,5,5,6,6,7,7,9,9,10,10,11,11,12,12,13,13,14,14,17,17,18,18,21,21,22,22,23,23,24,24,25,25,26,26,27,27,28,28,29,29,30,30,31,31,33,33,34,34,35,35,36,36,37,37,38,38,39,39,40,40,42,42,43,43,44,44,45,45,47,47,48,48],"right_children":[2,4,6,8,10,12,14,16,-1,18,20,22,24,26,28,-1,-1,30,32,-1,-1,34,36,38,40,42,44,46,48,50,52,54,-1,56,58,60,62,64,66,68,70,-1,72,74,76,78,-1,80,82,-1,-1,-1,-1,-1,-1,-1,-1,-1,-1,-1,-1,-1,-1,-1,-1,-1,-1,-1,-1,-1,-1,-1,-1,-1,-1,-1,-1,-1,-1,-1,-1,-1,-1],"split_conditions":[-7.062456E-1,2.1096094E1,1.0629261E-3,3.4066793E-1,1.2076597E-1,1.4283797E-1,3.1781008E1,1.1999523E1,-6.638575E-3,-4.4783973E-4,3.4312832E-1,-1.4722999E-2,4.2692848E-2,1.3823483E1,3.8562924E-2,-1.0045838E-2,-4.50295E-2,-6.3783646E-4,2.1237398E-3,-1.0298314E-2,3.664492E-2,1.3394053E-4,5.9321704E-3,9.476813E-1,4.4602137E-2,-7.614284E-2,3.0284071E-2,1.8167686E-2,1.8613607E-1,2.4559002E1,5.310194E-1,-1.1977642E-3,5.6614615E-3,-1.5983056E-2,-2.8911581E-2,-1.2022741E-2,-1.0631229E-3,2.3731856E-2,1.1494253E-3,2.2090173E-5,2.1733683E-1,2.9784352E-2,1.3360054E-3,9.859267E-4,1.7239697E-3,6.079384E-1,4.1186627E-2,5.665829E-1,-1.1532548E-3,1.3154486E-2,-2.2212243E-2,3.7833463E-2,-1.0163912E-3,-5.395033E-3,-4.429386E-2,4.3259464E-2,1.2816085E-2,-1.5719905E-2,3.0443275E-2,-3.375036E-2,1.368521E-2,-1.1080152E-4,2.5892543E-2,-2.1210875E-2,2.5164861E-2,3.942503E-2,6.1215367E-3,3.6225174E-2,5.5823205E-3,-3.420858E-2,-8.61029E-3,-2.7793298E-2,1.7555594E-2,-2.8983489E-2,1.5523598E-2,6.711839E-3,-3.7176296E-2,3.1159988E-2,2.795288E-3,-3.0512204E-2,3.7312858E-2,-5.869684E-3,-3.8436927E-2],"split_indices":[21,9,17,6,10,6,9,9,0,17,5,8,8,9,2,0,0,15,16,0,0,14,8,7,10,21,8,1,6,9,11,12,0,8,2,2,14,1,12,17,5,0,15,8,2,11,0,7,12,0,0,0,0,0,0,0,0,0,0,0,0,0,0,0,0,0,0,0,0,0,0,0,0,0,0,0,0,0,0,0,0,0,0],"split_type":[0,0,0,0,0,0,0,0,0,0,0,0,0,0,0,0,0,0,0,0,0,0,0,0,0,0,0,0,0,0,0,0,0,0,0,0,0,0,0,0,0,0,0,0,0,0,0,0,0,0,0,0,0,0,0,0,0,0,0,0,0,0,0,0,0,0,0,0,0,0,0,0,0,0,0,0,0,0,0,0,0,0,0],"sum_hessian":[2.656133E2,3.8466675E1,2.2714662E2,1.1266461E1,2.7200212E1,1.52329E2,7.4817635E1,1.0083398E1,1.1830635E0,2.2366936E1,4.833276E0,7.94438E1,7.288519E1,5.1245945E1,2.3571688E1,1.1015882E0,8.98181E0,1.4128563E1,8.238372E0,1.0734065E0,3.7598696E0,1.22494135E1,6.719439E1,5.010833E1,2.2776863E1,5.8150325E0,4.5430912E1,1.1852024E1,1.1719665E1,1.0109109E1,4.0194545E0,6.934927E0,1.3034451E0,9.503127E0,2.7462866E0,1.7943176E1,4.9251213E1,4.5785667E1,4.322661E0,2.000729E1,2.7695727E0,2.568493E0,3.2465394E0,2.141486E1,2.4016052E1,3.975526E0,7.8764977E0,7.5393343E0,4.1803303E0,1.6486571E0,8.460452E0,2.5385597E0,1.4808948E0,1.0794345E0,5.8554926E0,8.06121E0,1.4419178E0,1.3063136E0,1.439973E0,9.108648E0,8.834528E0,1.0724618E1,3.8526596E1,4.0650192E1,5.135477E0,3.2382133E0,1.0844476E0,1.4302609E1,5.7046804E0,1.6667528E0,1.10282E0,1.2562971E0,1.9902422E0,1.1881594E1,9.533267E0,1.2955986E0,2.2720453E1,1.4393394E0,2.5361867E0,3.123089E0,4.4162455E0,1.0886866E0,3.0916436E0],"tree_param":{"num_deleted":"0","num_feature":"36","num_nodes":"83","size_leaf_vector":"1"}},{"base_weights":[5.319288E-3,2.6370317E-1,-1.868182E-1,4.7328985E-1,-3.207687E-1,-5.011694E-1,3.032394E-2,1.4596355E-1,7.239435E-1,8.668805E-1,-5.269876E-1,-7.9958826E-1,-1.0830003E-1,-7.933795E-2,1.0764604E0,-9.370641E-1,9.270605E-1,1.165846E0,3.4913766E-1,3.9050493E-2,-1.0644816E-2,-1.0800736E0,8.526029E-2,3.000162E-1,-1.127622E0,6.940864E-1,-6.689063E-1,5.398843E-1,-2.6087934E-1,4.22686E-2,-1.4611649E-2,-2.958126E-1,-4.9921904E-2,1.071756E0,-2.9656257E-2,4.3437424E-1,1.3729441E0,-7.61153E-1,5.1488197E-1,-3.1577745E-1,-1.3480201E0,-7.145674E-1,7.330842E-1,-3.062787E-2,6.8908703E-1,-7.088841E-1,-1.465134E0,-3.69019E-1,9.59032E-1,-9.111525E-2,-1.0920471E0,9.716725E-1,-3.9518622E-1,-1.2499642E0,-1.4881353E-1,1.398805E-2,-4.211577E-2,3.544861E-2,-8.3441366E-5,3.0864712E-2,-2.2677928E-2,4.4438332E-2,6.8900036E-3,-1.7565568E-3,-3.4579735E-2,2.462955E-2,9.4996835E-4,1.99203E-2,-3.5621878E-2,-7.4681533E-3,-4.6582844E-2,3.6114857E-3,-3.312223E-2,3.2877006E-2,-2.5563205E-2,-1.3448466E-2,2.9930586E-2,-2.4436947E-2,4.750239E-3,-9.198004E-3,-4.6139188E-2,1.0227134E-2,-2.7056461E-2,3.4069695E-2,-7.5575165E-3,-2.4012802E-2,1.9993998E-2,1.2758476E-2,-4.335027E-2,-6.3990355E-3,3.801461E-2,-3.975594E-2,1.6527459E-2,-4.2185567E-2,-7.2476338E-3,-3.970369E-2,-1.4293353E-3],"categories":[],"categories_nodes":[],"categories_segments":[],"categories_sizes":[],"default_left":[0,0,0,0,0,0,0,0,0,0,0,0,0,0,0,0,0,0,0,0,0,0,0,0,0,0,0,0,0,0,0,0,0,0,0,0,0,0,0,0,0,0,0,0,0,0,0,0,0,0,0,0,0,0,0,0,0,0,0,0,0,0,0,0,0,0,0,0,0,0,0,0,0,0,0,0,0,0,0,0,0,0,0,0,0,0,0,0,0,0,0,0,0,0,0,0,0],"id":17,"left_children":[1,3,5,7,9,11,13,15,17,19,21,23,25,27,29,31,33,35,37,-1,-1,39,41,43,45,47,49,51,53,-1,-1,55,-1,57,-1,59,61,63,65,67,69,71,73,-1,75,77,79,81,83,85,87,89,91,93,95,-1,-1,-1,-1,-1,-1,-1,-1,-1,-1,-1,-1,-1,-1,-1,-1,-1,-1,-1,-1,-1,-1,-1,-1,-1,-1,-1,-1,-1,-1,-1,-1,-1,-1,-1,-1,-1,-1,-1,-1,-1,-1],"loss_changes":[1.3486412E1,1.4342745E1,1.0651073E1,6.9234695E0,8.0915985E0,7.383463E0,1.0766024E1,3.3358925E1,7.587282E0,3.1125903E0,9.296946E0,1.3343302E1,1.3357091E1,9.718398E0,5.3140173E0,7.241995E0,7.3837185E0,2.6944065E0,5.4605975E0,0E0,0E0,2.5140266E0,7.6889443E0,5.367088E0,2.915779E0,3.8126311E0,4.1502633E0,8.314165E0,7.191383E0,0E0,0E0,9.125157E0,0E0,2.5643158E0,0E0,5.204388E0,1.6993484E0,1.0276098E0,3.6071358E0,5.085826E0,1.9363308E0,2.3101106E0,5.6118093E0,0E0,3.11709E0,1.4509959E0,7.567234E-1,1.5073627E0,2.4479551E0,5.0684566E0,5.9396105E0,5.0761633E0,6.8149147E0,7.060461E-1,7.1763916E0,0E0,0E0,0E0,0E0,0E0,0E0,0E0,0E0,0E0,0E0,0E0,0E0,0E0,0E0,0E0,0E0,0E0,0E0,0E0,0E0,0E0,0E0,0E0,0E0,0E0,0E0,0E0,0E0,0E0,0E0,0E0,0E0,0E0,0E0,0E0,0E0,0E0,0E0,0E0,0E0,0E0,0E0],"parents":[2147483647,0,0,1,1,2,2,3,3,4,4,5,5,6,6,7,7,8,8,9,9,10,10,11,11,12,12,13,13,14,14,15,15,16,16,17,17,18,18,21,21,22,22,23,23,24,24,25,25,26,26,27,27,28,28,31,31,33,33,35,35,36,36,37,37,38,38,39,39,40,40,41,41,42,42,44,44,45,45,46,46,47,47,48,48,49,49,50,50,51,51,52,52,53,53,54,54],"right_children":[2,4,6,8,10,12,14,16,18,20,22,24,26,28,30,32,34,36,38,-1,-1,40,42,44,46,48,50,52,54,-1,-1,56,-1,58,-1,60,62,64,66,68,70,72,74,-1,76,78,80,82,84,86,88,90,92,94,96,-1,-1,-1,-1,-1,-1,-1,-1,-1,-1,-1,-1,-1,-1,-1,-1,-1,-1,-1,-1,-1,-1,-1,-1,-1,-1,-1,-1,-1,-1,-1,-1,-1,-1,-1,-1,-1,-1,-1,-1,-1,-1],"split_conditions":[1.4100878E-1,1.0950983E-3,2.430127E1,2.2239502E-1,-5.323596E-2,1.2843565E-4,3.025233E-1,-8.505692E-3,-1.9465033E-2,7.903056E-4,7.6795084E-4,-2.492784E-3,4.0840244E-4,1.4645927E-1,3.758431E-1,-2.8911581E-2,1.2822641E-1,1.865107E1,-6.310622E-1,3.9050493E-2,-1.0644816E-2,1.730314E1,2.2132E1,5.2878106E-1,4.0134707E-1,4.805915E-1,-7.0772035E-4,6.372549E-1,3.991228E-1,4.22686E-2,-1.4611649E-2,-1.3329778E-4,-4.9921904E-2,3.050465E-2,-2.9656257E-2,-3.1264212E-2,1.8078513E-3,3.7168142E-1,1.6884614E-2,2.6588675E-4,3.240624E-2,1.5189145E1,3.7475225E-2,-3.062787E-2,-4.988186E-3,2.3342067E-1,-2.2895623E-3,6.691649E-4,2.2265137E1,-1.3490695E-3,1.3823483E1,-1.2813942E-3,-3.9755926E-1,4.6659894E-2,-1.491235E-1,1.398805E-2,-4.211577E-2,3.544861E-2,-8.3441366E-5,3.0864712E-2,-2.2677928E-2,4.4438332E-2,6.8900036E-3,-1.7565568E-3,-3.4579735E-2,2.462955E-2,9.4996835E-4,1.99203E-2,-3.5621878E-2,-7.4681533E-3,-4.6582844E-2,3.6114857E-3,-3.312223E-2,3.2877006E-2,-2.5563205E-2,-1.3448466E-2,2.9930586E-2,-2.4436947E-2,4.750239E-3,-9.198004E-3,-4.6139188E-2,1.0227134E-2,-2.7056461E-2,3.4069695E-2,-7.5575165E-3,-2.4012802E-2,1.9993998E-2,1.2758476E-2,-4.335027E-2,-6.3990355E-3,3.801461E-2,-3.975594E-2,1.6527459E-2,-4.2185567E-2,-7.2476338E-3,-3.970369E-2,-1.4293353E-3],"split_indices":[6,17,9,7,10,14,6,1,1,14,13,14,17,5,6,2,6,9,21,0,0,9,9,4,4,7,19,7,7,0,0,15,0,1,0,2,15,7,21,14,4,9,2,0,15,6,14,14,9,19,9,12,21,1,2,0,0,0,0,0,0,0,0,0,0,0,0,0,0,0,0,0,0,0,0,0,0,0,0,0,0,0,0,0,0,0,0,0,0,0,0,0,0,0,0,0,0],"split_type":[0,0,0,0,0,0,0,0,0,0,0,0,0,0,0,0,0,0,0,0,0,0,0,0,0,0,0,0,0,0,0,0,0,0,0,0,0,0,0,0,0,0,0,0,0,0,0,0,0,0,0,0,0,0,0,0,0,0,0,0,0,0,0,0,0,0,0,0,0,0,0,0,0,0,0,0,0,0,0,0,0,0,0,0,0,0,0,0,0,0,0,0,0,0,0,0,0],"sum_hessian":[2.696634E2,1.1484667E2,1.5481671E2,8.4673645E1,3.0173027E1,6.2716133E1,9.210058E1,3.740679E1,4.7266857E1,3.9900384E0,2.6182987E1,3.5054157E1,2.7661976E1,8.419858E1,7.9020057E0,1.5590354E1,2.1816437E1,2.072325E1,2.6543606E1,2.894449E0,1.0955894E0,1.3354674E1,1.2828314E1,8.074149E0,2.698001E1,1.1279589E1,1.6382387E1,1.8641184E1,6.555739E1,6.597792E0,1.3042138E0,9.031231E0,6.5591235E0,2.0693834E1,1.1226021E0,5.2561E0,1.546715E1,2.981143E0,2.3562464E1,4.0320587E0,9.322616E0,5.694564E0,7.13375E0,1.4675637E0,6.6065855E0,1.3424761E1,1.3555248E1,2.1719074E0,9.107681E0,7.4393806E0,8.943007E0,1.2725691E1,5.9154935E0,5.6385045E0,5.9918888E1,5.694158E0,3.3370726E0,1.8683878E1,2.0099564E0,3.5959253E0,1.6601748E0,1.3858332E1,1.6088178E0,1.4780916E0,1.5030515E0,1.3996867E1,9.565597E0,2.0103776E0,2.0216808E0,1.8119066E0,7.510709E0,2.031264E0,3.6633E0,6.0562654E0,1.0774845E0,1.3133785E0,5.2932067E0,1.2020638E1,1.4041224E0,1.1099714E0,1.2445277E1,1.0856955E0,1.0862119E0,8.0026245E0,1.105056E0,3.8128843E0,3.626496E0,1.6490586E0,7.293948E0,2.595407E0,1.0130284E1,2.7810478E0,3.1344457E0,4.5405602E0,1.0979444E0,3.7933862E0,5.61255E1],"tree_param":{"num_deleted":"0","num_feature":"36","num_nodes":"97","size_leaf_vector":"1"}},{"base_weights":[5.2895628E-2,3.527612E-1,-1.3395016E-1,4.6651527E-1,-8.2973105E-1,2.628297E-1,-3.1866682E-1,5.226541E-1,-3.641733E-2,-1.267524E0,1.9972377E-2,-4.8794666E-1,5.042981E-1,-8.532246E-1,-1.1526006E-1,-5.808185E-1,5.96641E-1,-4.224271E-2,-6.687024E-3,2.8733047E-2,-6.928856E-1,-2.820474E-2,6.1926967E-1,-1.0186043E0,2.8305358E-1,-2.525219E-1,6.8505526E-1,1.7762858E-2,-1.1735795E0,9.2662984E-1,3.487776E-1,-1.0369774E0,3.1851172E-1,8.540594E-1,-1.8591669E-1,-3.5536605E-1,-1.308425E0,3.6881477E-2,-2.958714E-2,3.898284E-1,-5.2655363E-1,1.2985971E0,-4.1028962E-1,-1.0785802E-2,-4.0020783E-2,1.4444437E-2,3.8956426E-2,-2.2401202E-2,1.3201627E-2,5.308106E-3,-3.7475158E-2,-2.8041268E-2,3.432981E-2,3.009252E-2,-1.4935927E-3,-1.8597696E-2,3.2578226E-2,1.4113495E-2,-3.9440367E-2,-2.9079667E-3,-4.2586043E-2,2.4726095E-2,-7.458923E-3,-2.5673443E-2,3.3749652E-3,4.494029E-2,2.8988437E-3,-2.7961552E-2,2.5825987E-2],"categories":[],"categories_nodes":[],"categories_segments":[],"categories_sizes":[],"default_left":[0,0,0,0,0,0,0,0,0,0,0,0,0,0,0,0,0,0,0,0,0,0,0,0,0,0,0,0,0,0,0,0,0,0,0,0,0,0,0,0,0,0,0,0,0,0,0,0,0,0,0,0,0,0,0,0,0,0,0,0,0,0,0,0,0,0,0,0,0],"id":18,"left_children":[1,3,5,7,9,11,13,15,-1,17,-1,19,21,23,25,27,29,-1,-1,-1,31,-1,33,35,37,39,41,-1,43,45,47,49,51,53,55,57,59,-1,-1,61,63,65,67,-1,-1,-1,-1,-1,-1,-1,-1,-1,-1,-1,-1,-1,-1,-1,-1,-1,-1,-1,-1,-1,-1,-1,-1,-1,-1],"loss_changes":[1.5144099E1,1.4338145E1,1.2303975E1,9.620409E0,7.0384293E0,9.94723E0,1.2321263E1,7.9289436E0,0E0,8.1141186E-1,0E0,4.6725545E0,7.3880634E0,6.175194E0,9.389041E0,5.104545E0,6.8361416E0,0E0,0E0,0E0,4.656463E0,0E0,7.4490843E0,4.83342E0,6.9332986E0,1.2939397E1,8.967942E0,0E0,1.14480495E-1,5.4908123E0,5.4870834E0,2.6707706E0,5.1272078E0,4.0955906E0,5.9322553E0,8.346565E0,2.394291E0,0E0,0E0,6.363826E0,1.0854808E1,1.8411245E0,4.2951937E0,0E0,0E0,0E0,0E0,0E0,0E0,0E0,0E0,0E0,0E0,0E0,0E0,0E0,0E0,0E0,0E0,0E0,0E0,0E0,0E0,0E0,0E0,0E0,0E0,0E0,0E0],"parents":[2147483647,0,0,1,1,2,2,3,3,4,4,5,5,6,6,7,7,9,9,11,11,12,12,13,13,14,14,15,15,16,16,20,20,22,22,23,23,24,24,25,25,26,26,28,28,29,29,30,30,31,31,32,32,33,33,34,34,35,35,36,36,39,39,40,40,41,41,42,42],"right_children":[2,4,6,8,10,12,14,16,-1,18,-1,20,22,24,26,28,30,-1,-1,-1,32,-1,34,36,38,40,42,-1,44,46,48,50,52,54,56,58,60,-1,-1,62,64,66,68,-1,-1,-1,-1,-1,-1,-1,-1,-1,-1,-1,-1,-1,-1,-1,-1,-1,-1,-1,-1,-1,-1,-1,-1,-1,-1],"split_conditions":[1.3306841E-1,4.8431654E-2,4.059406E1,7.272727E1,-1.8498625E-4,-3.637043E-1,5.187032E-1,-6.9764996E-1,-3.641733E-2,6.789989E-2,1.9972377E-2,1.807419E-1,1.3823483E1,6.897861E-2,2.2967425E-1,-1.5102196E-2,-1.9319875E-3,-4.224271E-2,-6.687024E-3,2.8733047E-2,1.4208108E-1,-2.820474E-2,6.932308E-4,-8.9445437E-4,8.228891E-2,1.782854E-1,3.4842595E-2,1.7762858E-2,-3.9750893E-4,-7.6506716E-1,-3.605715E-1,-2.8056955E0,5.23204E-1,3.8163085E-4,3.025233E-1,1.4952992E-1,1.3577484E-1,3.6881477E-2,-2.958714E-2,2.387871E-3,9.020619E-4,1.4923054E0,2.2950866E-4,-1.0785802E-2,-4.0020783E-2,1.4444437E-2,3.8956426E-2,-2.2401202E-2,1.3201627E-2,5.308106E-3,-3.7475158E-2,-2.8041268E-2,3.432981E-2,3.009252E-2,-1.4935927E-3,-1.8597696E-2,3.2578226E-2,1.4113495E-2,-3.9440367E-2,-2.9079667E-3,-4.2586043E-2,2.4726095E-2,-7.458923E-3,-2.5673443E-2,3.3749652E-3,4.494029E-2,2.8988437E-3,-2.7961552E-2,2.5825987E-2],"split_indices":[6,1,0,0,19,21,7,21,0,1,0,7,9,8,10,1,3,0,0,0,22,0,19,13,8,6,8,0,13,18,18,22,4,15,6,6,6,0,0,10,13,18,19,0,0,0,0,0,0,0,0,0,0,0,0,0,0,0,0,0,0,0,0,0,0,0,0,0,0],"split_type":[0,0,0,0,0,0,0,0,0,0,0,0,0,0,0,0,0,0,0,0,0,0,0,0,0,0,0,0,0,0,0,0,0,0,0,0,0,0,0,0,0,0,0,0,0,0,0,0,0,0,0,0,0,0,0,0,0,0,0,0,0,0,0,0,0,0,0,0,0],"sum_hessian":[2.6844882E2,1.0271512E2,1.657337E2,9.425354E1,8.461575E0,5.25122E1,1.132215E2,9.187326E1,2.3802814E0,6.663344E0,1.7982303E0,1.2530737E1,3.998146E1,3.0326933E1,8.289457E1,5.342504E0,8.6530754E1,5.566381E0,1.0969629E0,1.0996891E0,1.1431047E1,2.4185455E0,3.7562916E1,2.6564205E1,3.762728E0,7.134302E1,1.1551549E1,1.7939283E0,3.5485756E0,3.5941784E1,5.0588974E1,8.510397E0,2.9206507E0,2.9035547E1,8.527369E0,8.7550125E0,1.7809193E1,2.173616E0,1.5891122E0,2.1207808E1,5.0135212E1,7.2852564E0,4.2662926E0,1.1178355E0,2.43074E0,1.7404692E1,1.8537092E1,3.3386347E0,4.7250336E1,1.2910079E0,7.2193894E0,1.1077368E0,1.8129139E0,2.4831562E1,4.203985E0,6.7400055E0,1.7873638E0,4.9787216E0,3.7762907E0,1.6534219E0,1.615577E1,1.2447943E1,8.759865E0,3.286476E1,1.727045E1,6.037336E0,1.2479204E0,3.213882E0,1.0524106E0],"tree_param":{"num_deleted":"0","num_feature":"36","num_nodes":"69","size_leaf_vector":"1"}},{"base_weights":[-1.4909586E-2,1.17775E-1,-3.7753606E-1,3.7198588E-1,-1.510898E-1,6.9642967E-1,-4.9581736E-1,4.2782548E-1,-3.680761E-2,-8.26407E-1,8.9263156E-2,-2.807317E-2,1.1340761E0,9.537711E-2,-7.5914323E-1,6.437076E-2,6.883637E-1,1.8154381E-1,-1.0607508E0,-8.022569E-2,7.750606E-1,4.057747E-2,4.5374637E-3,-2.410391E-1,3.463718E-2,-9.283515E-1,1.6469467E-1,-6.8413347E-1,5.323006E-1,1.0945463E0,2.6967874E-1,8.9327806E-1,-3.0279307E-2,-1.2012024E0,8.274178E-3,-3.206575E-1,5.8511996E-1,-2.8868841E-2,1.3215525E0,3.59284E-1,-9.15441E-1,1.2352126E-2,-9.9897724E-1,7.250389E-1,-2.4755824E-2,2.8400164E-2,-2.5720138E-2,2.4474107E-2,-1.6664453E-2,5.4916143E-3,3.446452E-2,-2.2089457E-2,1.5651887E-2,3.4804195E-2,5.0387583E-3,-1.2153876E-2,-4.3557532E-2,-1.2019236E-3,-2.833978E-2,2.420608E-2,-2.18736E-2,3.0914715E-2,-2.4447102E-2,4.4809513E-2,1.4197427E-2,-2.4468303E-2,2.7779622E-2,8.460679E-3,-3.3978943E-2,-2.0491015E-2,-4.2399593E-2,3.22263E-2,-2.3020715E-3],"categories":[],"categories_nodes":[],"categories_segments":[],"categories_sizes":[],"default_left":[0,0,0,0,0,0,0,0,0,0,0,0,0,0,0,0,0,0,0,0,0,0,0,0,0,0,0,0,0,0,0,0,0,0,0,0,0,0,0,0,0,0,0,0,0,0,0,0,0,0,0,0,0,0,0,0,0,0,0,0,0,0,0,0,0,0,0,0,0,0,0,0,0],"id":19,"left_children":[1,3,5,7,9,11,13,15,-1,17,19,-1,21,23,25,27,29,31,33,35,37,-1,-1,39,-1,41,43,45,47,49,51,53,-1,55,-1,57,59,61,63,65,67,-1,69,71,-1,-1,-1,-1,-1,-1,-1,-1,-1,-1,-1,-1,-1,-1,-1,-1,-1,-1,-1,-1,-1,-1,-1,-1,-1,-1,-1,-1,-1],"loss_changes":[1.3063869E1,1.3648364E1,9.5834E0,9.677011E0,1.5876469E1,6.5120525E0,1.0361553E1,9.405163E0,0E0,6.2519894E0,8.51311E0,0E0,1.1847458E0,7.852234E0,7.318283E0,1.5343818E1,9.572025E0,5.7268114E0,4.265938E0,9.658497E0,6.4092894E0,0E0,0E0,7.1949015E0,0E0,4.092285E0,5.005326E0,5.582303E0,8.74242E0,1.2303619E0,7.965076E0,5.9754205E-1,0E0,3.2346115E0,0E0,7.689734E0,5.2713995E0,6.5413322E0,5.566063E-1,7.207283E0,2.4698982E0,0E0,3.909336E0,1.6517663E0,0E0,0E0,0E0,0E0,0E0,0E0,0E0,0E0,0E0,0E0,0E0,0E0,0E0,0E0,0E0,0E0,0E0,0E0,0E0,0E0,0E0,0E0,0E0,0E0,0E0,0E0,0E0,0E0,0E0],"parents":[2147483647,0,0,1,1,2,2,3,3,4,4,5,5,6,6,7,7,9,9,10,10,12,12,13,13,14,14,15,15,16,16,17,17,18,18,19,19,20,20,23,23,25,25,26,26,27,27,28,28,29,29,30,30,31,31,33,33,35,35,36,36,37,37,38,38,39,39,40,40,42,42,43,43],"right_children":[2,4,6,8,10,12,14,16,-1,18,20,-1,22,24,26,28,30,32,34,36,38,-1,-1,40,-1,42,44,46,48,50,52,54,-1,56,-1,58,60,62,64,66,68,-1,70,72,-1,-1,-1,-1,-1,-1,-1,-1,-1,-1,-1,-1,-1,-1,-1,-1,-1,-1,-1,-1,-1,-1,-1,-1,-1,-1,-1,-1,-1],"split_conditions":[4.2219963E-2,1.4283797E-1,3.7198086E-4,7.272727E1,5.187032E-1,-3.1211833E-3,3.4842595E-2,2.3195876E-1,-3.680761E-2,-1.4018068E0,1.2206517E0,-2.807317E-2,-1.5806112E-3,2.67084E-1,2.4418456E-3,-7.000431E-3,-3.8512975E-3,-7.430454E-1,3.0151563E-2,4.834882E-2,2.4409456E-2,