{"learner":{"attributes":{"best_iteration":"34","best_score":"0.5845382100059873"},"feature_names":["rsi_14","macd_line","macd_signal","macd_hist","bb_pct_upper","bb_pct_lower","atr_pct_14","volatility_regime","trend_regime_slope","adx_14","cmf_20","volume_sma_ratio","return_1","return_2","return_3","return_5","ma10_ratio","ma30_ratio","bb_zscore","macd_hist_ratio","volume_ratio","fft_real","fft_imag","corr_btc_eth_20","corr_btc_sol_20","corr_btc_eth_100","corr_btc_sol_100","ratio_btc_eth_norm","ratio_btc_sol_norm","ratio_btc_bnb_norm","btc_funding_rate","funding_mom_1","funding_mom_3","funding_spread_eth","funding_spread_sol","funding_spread_bnb"],"feature_types":["float","float","float","float","float","float","float","float","float","float","float","float","float","float","float","float","float","float","float","float","float","float","float","float","float","float","float","float","float","float","float","float","float","float","float","float"],"gradient_booster":{"model":{"gbtree_model_param":{"num_parallel_tree":"1","num_trees":"50"},"iteration_indptr":[0,1,2,3,4,5,6,7,8,9,10,11,12,13,14,15,16,17,18,19,20,21,22,23,24,25,26,27,28,29,30,31,32,33,34,35,36,37,38,39,40,41,42,43,44,45,46,47,48,49,50],"tree_info":[0,0,0,0,0,0,0,0,0,0,0,0,0,0,0,0,0,0,0,0,0,0,0,0,0,0,0,0,0,0,0,0,0,0,0,0,0,0,0,0,0,0,0,0,0,0,0,0,0,0],"trees":[{"base_weights":[-1.03691965E-2,6.286684E-1,-4.7783066E-2,1.1913993E0,-8.2154757E-1,-3.1631067E-2,1.6154592E0,9.984014E-3,-4.010366E-2,5.278705E-2,9.984014E-3],"categories":[],"categories_nodes":[],"categories_segments":[],"categories_sizes":[],"default_left":[0,0,0,0,0,0,0,0,0,0,0],"id":0,"left_children":[1,3,-1,5,7,-1,9,-1,-1,-1,-1],"loss_changes":[1.8363728E1,1.1545122E1,0E0,1.0975453E1,2.9497223E0,0E0,1.0012302E0,0E0,0E0,0E0,0E0],"parents":[2147483647,0,0,1,1,3,3,4,4,6,6],"right_children":[2,4,-1,6,8,-1,10,-1,-1,-1,-1],"split_conditions":[2.1954909E-1,1.849847E-1,-4.7783066E-2,2E-1,-1.2753475E-3,-3.1631067E-2,4.2221085E-3,9.984014E-3,-4.010366E-2,5.278705E-2,9.984014E-3],"split_indices":[8,1,0,7,14,0,13,0,0,0,0],"split_type":[0,0,0,0,0,0,0,0,0,0,0],"sum_hessian":[1.616988E1,1.1947645E1,4.222235E0,8.736188E0,3.2114575E0,1.1515186E0,7.584669E0,1.10034E0,2.1111176E0,6.484329E0,1.10034E0],"tree_param":{"num_deleted":"0","num_feature":"36","num_nodes":"11","size_leaf_vector":"1"}},{"base_weights":[-2.4252422E-1,4.1401756E-1,-4.8091937E-2,1.0844537E0,-6.09594E-1,-3.1135539E-2,4.7610074E-2,3.094433E-1,-4.1064505E-2,3.148941E-2,-1.4604837E-2],"categories":[],"categories_nodes":[],"categories_segments":[],"categories_sizes":[],"default_left":[0,0,0,0,0,0,0,0,0,0,0],"id":1,"left_children":[1,3,-1,5,7,-1,-1,9,-1,-1,-1],"loss_changes":[1.6520897E1,9.423858E0,0E0,1.02598295E1,4.396253E0,0E0,0E0,2.5098357E0,0E0,0E0,0E0],"parents":[2147483647,0,0,1,1,3,3,4,4,7,7],"right_children":[2,4,-1,6,8,-1,-1,10,-1,-1,-1],"split_conditions":[1E0,1.5596119E-1,-4.8091937E-2,2E-1,2.6709919E1,-3.1135539E-2,4.7610074E-2,6.6666664E1,-4.1064505E-2,3.148941E-2,-1.4604837E-2],"split_indices":[26,1,0,7,9,0,0,0,0,0,0],"split_type":[0,0,0,0,0,0,0,0,0,0,0],"sum_hessian":[1.675222E1,1.176878E1,4.9834414E0,7.075253E0,4.6935267E0,1.1506765E0,5.9245768E0,2.3912935E0,2.3022332E0,1.0743699E0,1.3169235E0],"tree_param":{"num_deleted":"0","num_feature":"36","num_nodes":"11","size_leaf_vector":"1"}},{"base_weights":[-1.995215E-1,3.6361316E-1,-4.667504E-2,1.2153964E0,-7.862603E-1,4.7609974E-2,-1.4306061E-2,3.4515485E-2,-4.65575E-2],"categories":[],"categories_nodes":[],"categories_segments":[],"categories_sizes":[],"default_left":[0,0,0,0,0,0,0,0,0],"id":2,"left_children":[1,3,-1,5,7,-1,-1,-1,-1],"loss_changes":[1.5120069E1,1.4937654E1,0E0,6.1608276E0,1.1694245E1,0E0,0E0,0E0,0E0],"parents":[2147483647,0,0,1,1,3,3,4,4],"right_children":[2,4,-1,6,8,-1,-1,-1,-1],"split_conditions":[8.7239957E-1,2.6709919E1,-4.667504E-2,1.9265555E0,-6.376078E-2,4.7609974E-2,-1.4306061E-2,3.4515485E-2,-4.65575E-2],"split_indices":[25,9,0,5,10,0,0,0,0],"split_type":[0,0,0,0,0,0,0,0,0],"sum_hessian":[1.8055506E1,1.3275495E1,4.78001E0,7.593518E0,5.681977E0,6.277297E0,1.3162206E0,1.467412E0,4.214565E0],"tree_param":{"num_deleted":"0","num_feature":"36","num_nodes":"9","size_leaf_vector":"1"}},{"base_weights":[5.209701E-2,5.970305E-1,-4.45952E-2,4.6148237E-2,5.4689944E-2,1.2019308E0,-7.449957E-1,1.0072605E-2,4.1337762E-2,1.8220017E-2,-1.2513176E0,-1.0552586E-2,-4.2416513E-2],"categories":[],"categories_nodes":[],"categories_segments":[],"categories_sizes":[],"default_left":[0,0,0,0,0,0,0,0,0,0,0,0,0],"id":3,"left_children":[1,3,-1,-1,5,7,9,-1,-1,-1,11,-1,-1],"loss_changes":[1.661235E1,7.3500237E0,0E0,0E0,1.032327E1,2.3913813E-1,5.3288946E0,0E0,0E0,0E0,2.60437E-1,0E0,0E0],"parents":[2147483647,0,0,1,1,4,4,5,5,6,6,10,10],"right_children":[2,4,-1,-1,6,8,10,-1,-1,-1,12,-1,-1],"split_conditions":[1E0,7.024574E-1,-4.45952E-2,4.6148237E-2,-2.2590805E-2,7.5438595E-1,-2.9893424E-3,1.0072605E-2,4.1337762E-2,1.8220017E-2,2.2027285E1,-1.0552586E-2,-4.2416513E-2],"split_indices":[26,23,0,0,3,7,12,0,0,0,9,0,0],"split_type":[0,0,0,0,0,0,0,0,0,0,0,0,0],"sum_hessian":[1.7754976E1,1.3563207E1,4.1917696E0,4.2868752E0,9.276331E0,3.6035793E0,5.672752E0,1.0995868E0,2.5039923E0,1.4909879E0,4.181764E0,1.1242801E0,3.0574841E0],"tree_param":{"num_deleted":"0","num_feature":"36","num_nodes":"13","size_leaf_vector":"1"}},{"base_weights":[5.7231657E-2,5.826298E-1,-4.2841926E-2,1.1903539E0,-5.158697E-1,4.5517482E-2,-3.8283388E-3,-1.0614178E0,1.7650452E-2,-3.6665507E-2,-1.0208845E-2],"categories":[],"categories_nodes":[],"categories_segments":[],"categories_sizes":[],"default_left":[0,0,0,0,0,0,0,0,0,0,0],"id":4,"left_children":[1,3,-1,5,7,-1,-1,9,-1,-1,-1],"loss_changes":[1.4284397E1,9.589217E0,0E0,4.053051E0,3.9294076E0,0E0,0E0,5.1146984E-2,0E0,0E0,0E0],"parents":[2147483647,0,0,1,1,3,3,4,4,7,7],"right_children":[2,4,-1,6,8,-1,-1,10,-1,-1,-1],"split_conditions":[8.7239957E-1,1.6081984E-1,-4.2841926E-2,1.9345365E-1,6.4851455E-2,4.5517482E-2,-3.8283388E-3,6.507353E1,1.7650452E-2,-3.6665507E-2,-1.0208845E-2],"split_indices":[25,1,0,21,3,0,0,0,0,0,0],"split_type":[0,0,0,0,0,0,0,0,0,0,0],"sum_hessian":[1.6238407E1,1.2444213E1,3.7941937E0,7.9579887E0,4.4862247E0,6.2552814E0,1.702707E0,3.0286539E0,1.4575708E0,1.9083712E0,1.1202826E0],"tree_param":{"num_deleted":"0","num_feature":"36","num_nodes":"11","size_leaf_vector":"1"}},{"base_weights":[2.0231476E-2,5.377741E-1,-4.199619E-2,1.0774313E0,-4.5982733E-1,-2.9628342E-2,4.5489572E-2,1.7001111E-2,-2.995538E-2],"categories":[],"categories_nodes":[],"categories_segments":[],"categories_sizes":[],"default_left":[0,0,0,0,0,0,0,0,0],"id":5,"left_children":[1,3,-1,5,7,-1,-1,-1,-1],"loss_changes":[1.3128054E1,7.5280457E0,0E0,9.451695E0,3.4892602E0,0E0,0E0,0E0,0E0],"parents":[2147483647,0,0,1,1,3,3,4,4],"right_children":[2,4,-1,6,8,-1,-1,-1,-1],"split_conditions":[2.1954909E-1,1.6081984E-1,-4.199619E-2,2E-1,4.8246026E-1,-2.9628342E-2,4.5489572E-2,1.7001111E-2,-2.995538E-2],"split_indices":[8,1,0,7,6,0,0,0,0],"split_type":[0,0,0,0,0,0,0,0,0],"sum_hessian":[1.5837871E1,1.2062962E1,3.7749095E0,7.776308E0,4.286653E0,1.1438826E0,6.6324253E0,1.4573952E0,2.829258E0],"tree_param":{"num_deleted":"0","num_feature":"36","num_nodes":"9","size_leaf_vector":"1"}},{"base_weights":[-1.4520985E-2,4.9911255E-1,-4.1610546E-2,8.4114534E-1,-3.421771E-2,1.1596439E0,-1.8282038E-1,6.479796E-3,4.1327022E-2,1.7402697E-2,-2.920346E-2],"categories":[],"categories_nodes":[],"categories_segments":[],"categories_sizes":[],"default_left":[0,0,0,0,0,0,0,0,0,0,0],"id":6,"left_children":[1,3,-1,5,-1,7,9,-1,-1,-1,-1],"loss_changes":[1.2796643E1,8.379111E0,0E0,3.969697E0,0E0,1.5377436E0,2.734564E0,0E0,0E0,0E0,0E0],"parents":[2147483647,0,0,1,1,3,3,5,5,6,6],"right_children":[2,4,-1,6,-1,8,10,-1,-1,-1,-1],"split_conditions":[1E0,3.4313404E1,-4.1610546E-2,7.7485135E-3,-3.421771E-2,1.1055274E0,1.8954391E1,6.479796E-3,4.1327022E-2,1.7402697E-2,-2.920346E-2],"split_indices":[26,9,0,17,0,22,9,0,0,0,0],"split_type":[0,0,0,0,0,0,0,0,0,0,0],"sum_hessian":[1.617027E1,1.2229818E1,3.9404528E0,1.0522002E1,1.7078168E0,7.9245987E0,2.597403E0,1.8602968E0,6.064302E0,1.4573946E0,1.1400086E0],"tree_param":{"num_deleted":"0","num_feature":"36","num_nodes":"11","size_leaf_vector":"1"}},{"base_weights":[3.098927E-2,4.207463E-2,-4.4402602E-1,-1.2358292E0,6.3299E-1,-9.889018E-3,-4.417387E-2,1.234188E0,-2.9426778E-2,8.624908E-3,4.2360425E-2],"categories":[],"categories_nodes":[],"categories_segments":[],"categories_sizes":[],"default_left":[0,0,0,0,0,0,0,0,0,0,0],"id":7,"left_children":[1,-1,3,5,7,-1,-1,9,-1,-1,-1],"loss_changes":[1.2349156E1,0E0,1.2831029E1,1.3333025E0,7.6604404E0,0E0,0E0,4.8395157E-1,0E0,0E0,0E0],"parents":[2147483647,0,0,2,2,3,3,4,4,7,7],"right_children":[2,-1,4,6,8,-1,-1,10,-1,-1,-1],"split_conditions":[7.024574E-1,4.207463E-2,7.037037E-1,5.84828E-2,-2.084939E-3,-9.889018E-3,-4.417387E-2,6.394957E-1,-2.9426778E-2,8.624908E-3,4.2360425E-2],"split_indices":[23,0,7,8,19,0,0,6,0,0,0],"split_type":[0,0,0,0,0,0,0,0,0,0,0],"sum_hessian":[1.699958E1,3.8708556E0,1.3128724E1,7.4812117E0,5.6475124E0,2.0445495E0,5.436662E0,4.286127E0,1.3613853E0,1.0915873E0,3.1945395E0],"tree_param":{"num_deleted":"0","num_feature":"36","num_nodes":"11","size_leaf_vector":"1"}},{"base_weights":[-6.276797E-4,5.669106E-1,-4.076305E-2,1.057665E0,-9.366945E-1,4.3077573E-2,-9.079638E-2,-9.257362E-3,-3.2762755E-2,1.0736447E-2,-1.3740457E-2],"categories":[],"categories_nodes":[],"categories_segments":[],"categories_sizes":[],"default_left":[0,0,0,0,0,0,0,0,0,0,0],"id":8,"left_children":[1,3,-1,5,7,-1,9,-1,-1,-1,-1],"loss_changes":[1.3738514E1,1.026724E1,0E0,4.4517612E0,1.6715527E-2,0E0,7.2495615E-1,0E0,0E0,0E0,0E0],"parents":[2147483647,0,0,1,1,3,3,4,4,6,6],"right_children":[2,4,-1,6,8,-1,10,-1,-1,-1,-1],"split_conditions":[8.7239957E-1,2.938481E1,-4.076305E-2,1.849847E-1,-7.944915E-4,4.3077573E-2,3.2783404E-3,-9.257362E-3,-3.2762755E-2,1.0736447E-2,-1.3740457E-2],"split_indices":[25,9,0,1,12,0,16,0,0,0,0],"split_type":[0,0,0,0,0,0,0,0,0,0,0],"sum_hessian":[1.5824424E1,1.1571515E1,4.252908E0,8.9477E0,2.6238155E0,6.542561E0,2.405139E0,1.112566E0,1.5112497E0,1.0939491E0,1.3111898E0],"tree_param":{"num_deleted":"0","num_feature":"36","num_nodes":"11","size_leaf_vector":"1"}},{"base_weights":[4.551277E-2,5.190701E-1,-3.9324425E-2,1.1717954E0,-2.6489067E-1,4.096215E-2,8.172817E-3,5.24619E-1,-3.687574E-2,3.6638197E-2,-1.686546E-2],"categories":[],"categories_nodes":[],"categories_segments":[],"categories_sizes":[],"default_left":[0,0,0,0,0,0,0,0,0,0,0],"id":9,"left_children":[1,3,-1,5,7,-1,-1,9,-1,-1,-1],"loss_changes":[1.2016983E1,7.371339E0,0E0,9.7122765E-1,6.0386453E0,0E0,0E0,4.166538E0,0E0,0E0,0E0],"parents":[2147483647,0,0,1,1,3,3,4,4,7,7],"right_children":[2,4,-1,6,8,-1,-1,10,-1,-1,-1],"split_conditions":[2.257617E-1,2.6709919E1,-3.9324425E-2,1.757209E-1,-2.084939E-3,4.096215E-2,8.172817E-3,4.5138395E-1,-3.687574E-2,3.6638197E-2,-1.686546E-2],"split_indices":[8,9,0,10,19,0,0,18,0,0,0],"split_type":[0,0,0,0,0,0,0,0,0,0,0],"sum_hessian":[1.6650015E1,1.279869E1,3.8513255E0,6.7139482E0,6.0847416E0,5.098251E0,1.6156976E0,3.596285E0,2.4884562E0,2.1161025E0,1.4801826E0],"tree_param":{"num_deleted":"0","num_feature":"36","num_nodes":"11","size_leaf_vector":"1"}},{"base_weights":[-8.447993E-2,3.485628E-1,-3.8723703E-2,9.0079653E-1,-6.962984E-1,-3.1986117E-2,4.2437445E-2,6.3809925E-3,-3.7269033E-2],"categories":[],"categories_nodes":[],"categories_segments":[],"categories_sizes":[],"default_left":[0,0,0,0,0,0,0,0,0],"id":10,"left_children":[1,3,-1,5,7,-1,-1,-1,-1],"loss_changes":[9.56362E0,8.489068E0,0E0,1.0957425E1,2.8824313E0,0E0,0E0,0E0,0E0],"parents":[2147483647,0,0,1,1,3,3,4,4],"right_children":[2,4,-1,6,8,-1,-1,-1,-1],"split_conditions":[2.1954909E-1,1.6081984E-1,-3.8723703E-2,2E-1,2.6709919E1,-3.1986117E-2,4.2437445E-2,6.3809925E-3,-3.7269033E-2],"split_indices":[8,1,0,7,9,0,0,0,0],"split_type":[0,0,0,0,0,0,0,0,0],"sum_hessian":[1.644636E1,1.2625201E1,3.8211594E0,8.34994E0,4.275261E0,1.5066419E0,6.8432984E0,1.8334057E0,2.441855E0],"tree_param":{"num_deleted":"0","num_feature":"36","num_nodes":"9","size_leaf_vector":"1"}},{"base_weights":[-1.2280664E-1,3.484862E-1,-3.878217E-2,9.4376785E-1,-5.565737E-1,-2.9935073E-2,4.369969E-2,1.1585076E-2,-1.0187484E0,-8.626034E-3,-3.5647485E-2],"categories":[],"categories_nodes":[],"categories_segments":[],"categories_sizes":[],"default_left":[0,0,0,0,0,0,0,0,0,0,0],"id":11,"left_children":[1,3,-1,5,7,-1,-1,-1,9,-1,-1],"loss_changes":[9.924681E0,7.548707E0,0E0,9.653976E0,2.9211106E0,0E0,0E0,0E0,1.7489243E-1,0E0,0E0],"parents":[2147483647,0,0,1,1,3,3,4,4,8,8],"right_children":[2,4,-1,6,8,-1,-1,-1,10,-1,-1],"split_conditions":[2.1954909E-1,1.6081984E-1,-3.878217E-2,2E-1,-2.9893424E-3,-2.9935073E-2,4.369969E-2,1.1585076E-2,0E0,-8.626034E-3,-3.5647485E-2],"split_indices":[8,1,0,7,12,0,0,0,12,0,0],"split_type":[0,0,0,0,0,0,0,0,0,0,0],"sum_hessian":[1.6182642E1,1.2036156E1,4.146486E0,7.234842E0,4.8013134E0,1.3142108E0,5.920631E0,1.633584E0,3.1677294E0,1.1035337E0,2.0641956E0],"tree_param":{"num_deleted":"0","num_feature":"36","num_nodes":"11","size_leaf_vector":"1"}},{"base_weights":[4.0040698E-2,5.3961766E-1,-3.7459407E-2,1.0423578E0,-3.7550914E-1,3.3898014E-3,3.8468406E-2,2.2121256E-2,-3.6531363E-2],"categories":[],"categories_nodes":[],"categories_segments":[],"categories_sizes":[],"default_left":[0,0,0,0,0,0,0,0,0],"id":12,"left_children":[1,3,-1,5,7,-1,-1,-1,-1],"loss_changes":[1.0922275E1,5.990424E0,0E0,1.6655788E0,5.631423E0,0E0,0E0,0E0,0E0],"parents":[2147483647,0,0,1,1,3,3,4,4],"right_children":[2,4,-1,6,8,-1,-1,-1,-1],"split_conditions":[8.7239957E-1,1.6081984E-1,-3.7459407E-2,1.3451459E-2,-1.2753475E-3,3.3898014E-3,3.8468406E-2,2.2121256E-2,-3.6531363E-2],"split_indices":[25,1,0,1,14,0,0,0,0],"split_type":[0,0,0,0,0,0,0,0,0],"sum_hessian":[1.4918769E1,1.1169881E1,3.7488875E0,7.1195865E0,4.0502944E0,1.7626673E0,5.3569193E0,1.7983841E0,2.2519104E0],"tree_param":{"num_deleted":"0","num_feature":"36","num_nodes":"9","size_leaf_vector":"1"}},{"base_weights":[1.8126026E-2,-3.7561145E-2,4.5133686E-1,8.266212E-1,-7.215859E-1,1.1676046E0,-2.0656855E-1,8.428453E-3,-3.5078485E-2,5.7512377E-3,1.2740408E0,1.838528E-2,-2.954591E-2,4.1632697E-2,8.781231E-3],"categories":[],"categories_nodes":[],"categories_segments":[],"categories_sizes":[],"default_left":[0,0,0,0,0,0,0,0,0,0,0,0,0,0,0],"id":13,"left_children":[1,-1,3,5,7,9,11,-1,-1,-1,13,-1,-1,-1,-1],"loss_changes":[1.0947598E1,0E0,7.1133313E0,4.3568883E0,2.1788788E0,6.837225E-1,2.9941502E0,0E0,0E0,0E0,4.729433E-1,0E0,0E0,0E0,0E0],"parents":[2147483647,0,0,2,2,3,3,4,4,5,5,6,6,10,10],"right_children":[2,-1,4,6,8,10,12,-1,-1,-1,14,-1,-1,-1,-1],"split_conditions":[0E0,-3.7561145E-2,2.9762268E1,1.5394397E0,-2.3310024E-3,-2.0511476E-2,0E0,8.428453E-3,-3.5078485E-2,5.7512377E-3,1.6081984E-1,1.838528E-2,-2.954591E-2,4.1632697E-2,8.781231E-3],"split_indices":[27,0,9,5,16,1,12,0,0,0,1,0,0,0,0],"split_type":[0,0,0,0,0,0,0,0,0,0,0,0,0,0,0],"sum_hessian":[1.7868748E1,4.0637603E0,1.3804988E1,1.0682348E1,3.12264E0,7.933846E0,2.748502E0,1.0789621E0,2.0436778E0,1.0556768E0,6.878169E0,1.4424417E0,1.3060604E0,5.7927566E0,1.0854121E0],"tree_param":{"num_deleted":"0","num_feature":"36","num_nodes":"15","size_leaf_vector":"1"}},{"base_weights":[1.0642247E-1,5.5483973E-1,-3.6300495E-2,-2.7397435E-2,7.616611E-1,3.9685402E-2,-2.092343E-1,1.7057367E-2,-2.494647E-2],"categories":[],"categories_nodes":[],"categories_segments":[],"categories_sizes":[],"default_left":[0,0,0,0,0,0,0,0,0],"id":14,"left_children":[1,3,-1,-1,5,-1,7,-1,-1],"loss_changes":[1.079195E1,4.7867064E0,0E0,0E0,7.0086637E0,0E0,3.0813622E0,0E0,0E0],"parents":[2147483647,0,0,1,1,4,4,6,6],"right_children":[2,4,-1,-1,6,-1,8,-1,-1],"split_conditions":[1.061358E0,2E-1,-3.6300495E-2,-2.7397435E-2,1.6081984E-1,3.9685402E-2,-2.9893424E-3,1.7057367E-2,-2.494647E-2],"split_indices":[29,7,0,0,1,0,12,0,0],"split_type":[0,0,0,0,0,0,0,0,0],"sum_hessian":[1.6144411E1,1.2473951E1,3.6704595E0,1.1185403E0,1.1355412E1,6.9663186E0,4.3890924E0,1.9891984E0,2.3998938E0],"tree_param":{"num_deleted":"0","num_feature":"36","num_nodes":"9","size_leaf_vector":"1"}},{"base_weights":[9.993536E-3,7.008041E-1,-9.1526943E-1,1.1112306E0,-2.7832992E-2,-1.1838106E0,1.02490485E-2,4.1126914E-2,-9.328732E-3,-7.555686E-3,-3.9655935E-2],"categories":[],"categories_nodes":[],"categories_segments":[],"categories_sizes":[],"default_left":[0,0,0,0,0,0,0,0,0,0,0],"id":15,"left_children":[1,3,5,7,-1,9,-1,-1,-1,-1,-1],"loss_changes":[1.1173878E1,7.7154813E0,2.928278E0,3.544114E0,0E0,4.8857498E-1,0E0,0E0,0E0,0E0,0E0],"parents":[2147483647,0,0,1,1,2,2,3,3,5,5],"right_children":[2,4,6,8,-1,10,-1,-1,-1,-1,-1],"split_conditions":[1.6081984E-1,1.0916427E-1,7.865169E1,7.2498834E-1,-2.7832992E-2,4.6496815E1,1.02490485E-2,4.1126914E-2,-9.328732E-3,-7.555686E-3,-3.9655935E-2],"split_indices":[1,8,0,21,0,0,0,0,0,0,0],"split_type":[0,0,0,0,0,0,0,0,0,0,0],"sum_hessian":[1.5478033E1,9.0006485E0,6.477385E0,7.4426446E0,1.5580038E0,5.385015E0,1.0923698E0,6.32405E0,1.118595E0,1.059181E0,4.3258343E0],"tree_param":{"num_deleted":"0","num_feature":"36","num_nodes":"11","size_leaf_vector":"1"}},{"base_weights":[-9.06011E-2,3.375658E-1,-3.488723E-2,7.0343053E-1,-2.443095E-2,1.052385E0,-1.1297857E-2,3.9561566E-2,5.1559554E-3],"categories":[],"categories_nodes":[],"categories_segments":[],"categories_sizes":[],"default_left":[0,0,0,0,0,0,0,0,0],"id":16,"left_children":[1,3,-1,5,-1,7,-1,-1,-1],"loss_changes":[7.141122E0,5.326559E0,0E0,3.8248148E0,0E0,1.4475656E0,0E0,0E0,0E0],"parents":[2147483647,0,0,1,1,3,3,5,5],"right_children":[2,4,-1,6,-1,8,-1,-1,-1],"split_conditions":[2.257617E-1,3.0030497E1,-3.488723E-2,3.599826E-3,-2.443095E-2,-1.16362914E-1,-1.1297857E-2,3.9561566E-2,5.1559554E-3],"split_indices":[8,9,0,16,0,21,0,0,0],"split_type":[0,0,0,0,0,0,0,0,0],"sum_hessian":[1.3698711E1,1.0279394E1,3.4193172E0,8.09704E0,2.1823545E0,6.1391E0,1.9579399E0,4.3313284E0,1.8077718E0],"tree_param":{"num_deleted":"0","num_feature":"36","num_nodes":"9","size_leaf_vector":"1"}},{"base_weights":[8.950689E-2,5.0358826E-1,-3.4498397E-2,1.0242435E0,-4.192139E-1,3.7638534E-2,-1.7935511E-3,1.7086338E-2,-3.5067763E-2],"categories":[],"categories_nodes":[],"categories_segments":[],"categories_sizes":[],"default_left":[0,0,0,0,0,0,0,0,0],"id":17,"left_children":[1,3,-1,5,7,-1,-1,-1,-1],"loss_changes":[8.944629E0,6.633717E0,0E0,2.2091913E0,4.644522E0,0E0,0E0,0E0,0E0],"parents":[2147483647,0,0,1,1,3,3,4,4],"right_children":[2,4,-1,6,8,-1,-1,-1,-1],"split_conditions":[8.7239957E-1,1.6081984E-1,-3.4498397E-2,2.3596895E-1,-2.9893424E-3,3.7638534E-2,-1.7935511E-3,1.7086338E-2,-3.5067763E-2],"split_indices":[25,1,0,21,12,0,0,0,0],"split_type":[0,0,0,0,0,0,0,0,0],"sum_hessian":[1.5299621E1,1.1913286E1,3.3863344E0,7.5458856E0,4.3674E0,6.0935397E0,1.4523461E0,1.9870676E0,2.3803325E0],"tree_param":{"num_deleted":"0","num_feature":"36","num_nodes":"9","size_leaf_vector":"1"}},{"base_weights":[4.3887828E-2,4.5046344E-1,-3.473831E-2,7.349397E-1,-3.068859E-2,1.1983356E0,-1.1963666E-1,4.7348375E-3,3.9865285E-2,2.7051596E-2,-8.329262E-1,-7.0315353E-3,-3.0004034E-2],"categories":[],"categories_nodes":[],"categories_segments":[],"categories_sizes":[],"default_left":[0,0,0,0,0,0,0,0,0,0,0,0,0],"id":18,"left_children":[1,3,-1,5,-1,7,9,-1,-1,-1,11,-1,-1],"loss_changes":[9.025897E0,6.5045176E0,0E0,4.9293203E0,0E0,8.6671734E-1,4.509129E0,0E0,0E0,0E0,1.2158537E-1,0E0,0E0],"parents":[2147483647,0,0,1,1,3,3,5,5,6,6,10,10],"right_children":[2,4,-1,6,-1,8,10,-1,-1,-1,12,-1,-1],"split_conditions":[1E0,3.4313404E1,-3.473831E-2,1.6081984E-1,-3.068859E-2,-2.0511476E-2,-1.2753475E-3,4.7348375E-3,3.9865285E-2,2.7051596E-2,1.8264405E-1,-7.0315353E-3,-3.0004034E-2],"split_indices":[26,9,0,1,0,1,14,0,0,0,4,0,0],"split_type":[0,0,0,0,0,0,0,0,0,0,0,0,0],"sum_hessian":[1.6404154E1,1.2724637E1,3.6795163E0,1.1085526E1,1.6391103E0,6.9270573E0,4.158469E0,1.0182332E0,5.908824E0,1.6013426E0,2.557127E0,1.0828148E0,1.4743121E0],"tree_param":{"num_deleted":"0","num_feature":"36","num_nodes":"13","size_leaf_vector":"1"}},{"base_weights":[4.8650097E-2,3.9181894E-1,-3.3154987E-2,8.404254E-1,-4.3603498E-1,-2.8719349E-2,3.754197E-2,2.11537E-2,-3.539733E-2],"categories":[],"categories_nodes":[],"categories_segments":[],"categories_sizes":[],"default_left":[0,0,0,0,0,0,0,0,0],"id":19,"left_children":[1,3,-1,5,7,-1,-1,-1,-1],"loss_changes":[7.1303945E0,5.482333E0,0E0,8.051022E0,5.5005465E0,0E0,0E0,0E0,0E0],"parents":[2147483647,0,0,1,1,3,3,4,4],"right_children":[2,4,-1,6,8,-1,-1,-1,-1],"split_conditions":[8.7239957E-1,1.5889397E-1,-3.3154987E-2,2E-1,-2.9893424E-3,-2.8719349E-2,3.754197E-2,2.11537E-2,-3.539733E-2],"split_indices":[25,1,0,7,12,0,0,0,0],"split_type":[0,0,0,0,0,0,0,0,0],"sum_hessian":[1.5914521E1,1.2775298E1,3.1392233E0,8.275627E0,4.4996715E0,1.2924857E0,6.983141E0,1.7962275E0,2.703444E0],"tree_param":{"num_deleted":"0","num_feature":"36","num_nodes":"9","size_leaf_vector":"1"}},{"base_weights":[-3.953079E-2,3.754667E-1,-3.3802263E-2,7.4954015E-1,-2.5097296E-2,3.6179878E-2,-2.7632785E-1,2.1201469E-2,-2.9926607E-2],"categories":[],"categories_nodes":[],"categories_segments":[],"categories_sizes":[],"default_left":[0,0,0,0,0,0,0,0,0],"id":20,"left_children":[1,3,-1,5,-1,-1,7,-1,-1],"loss_changes":[7.5039454E0,6.11688E0,0E0,4.912915E0,0E0,0E0,3.4170382E0,0E0,0E0],"parents":[2147483647,0,0,1,1,3,3,6,6],"right_children":[2,4,-1,6,-1,-1,8,-1,-1],"split_conditions":[8.7239957E-1,3.0030497E1,-3.3802263E-2,6.386161E-3,-2.5097296E-2,3.6179878E-2,1.5915119E-3,2.1201469E-2,-2.9926607E-2],"split_indices":[25,9,0,17,0,0,14,0,0],"split_type":[0,0,0,0,0,0,0,0,0],"sum_hessian":[1.4693813E1,1.1108326E1,3.5854876E0,8.7801075E0,2.328219E0,5.954909E0,2.8251982E0,1.204103E0,1.6210952E0],"tree_param":{"num_deleted":"0","num_feature":"36","num_nodes":"9","size_leaf_vector":"1"}},{"base_weights":[-6.475037E-2,6.2268543E-1,-1.0974263E0,3.1498548E-2,9.432501E-2,-7.394873E-3,-3.6374435E-2,6.8145484E-1,-2.7842425E-2,2.904071E-2,6.26455E-4],"categories":[],"categories_nodes":[],"categories_segments":[],"categories_sizes":[],"default_left":[0,0,0,0,0,0,0,0,0,0,0],"id":21,"left_children":[1,3,5,-1,7,-1,-1,9,-1,-1,-1],"loss_changes":[1.193723E1,2.1935256E0,3.5683918E-1,0E0,4.0175686E0,0E0,0E0,7.6703215E-1,0E0,0E0,0E0],"parents":[2147483647,0,0,1,1,2,2,4,4,7,7],"right_children":[2,4,6,-1,8,-1,-1,10,-1,-1,-1],"split_conditions":[1.8656701E-1,2.2803194E1,-3.4689794E-3,3.1498548E-2,-1.6505945E-2,-7.394873E-3,-3.6374435E-2,2.815E-5,-2.7842425E-2,2.904071E-2,6.26455E-4],"split_indices":[2,9,12,0,3,0,0,33,0,0,0],"split_type":[0,0,0,0,0,0,0,0,0,0,0],"sum_hessian":[1.48528E1,9.155289E0,5.6975117E0,4.5160956E0,4.6391935E0,1.05289E0,4.6446214E0,3.1587305E0,1.4804629E0,1.8784109E0,1.2803197E0],"tree_param":{"num_deleted":"0","num_feature":"36","num_nodes":"11","size_leaf_vector":"1"}},{"base_weights":[-7.503673E-4,6.177967E-1,-7.2380716E-1,-8.073558E-3,8.668469E-1,-1.0736942E0,7.618979E-3,3.3685222E-2,7.9514703E-4,-1.0431923E-2,-3.580244E-2],"categories":[],"categories_nodes":[],"categories_segments":[],"categories_sizes":[],"default_left":[0,0,0,0,0,0,0,0,0,0,0],"id":22,"left_children":[1,3,5,-1,7,9,-1,-1,-1,-1,-1],"loss_changes":[7.5053325E0,2.2311828E0,2.9194293E0,0E0,1.5403752E0,9.683895E-2,0E0,0E0,0E0,0E0,0E0],"parents":[2147483647,0,0,1,1,2,2,4,4,5,5],"right_children":[2,4,6,-1,8,10,-1,-1,-1,-1,-1],"split_conditions":[1.7704268E-1,1.1055274E0,9.456082E-1,-8.073558E-3,7.7104315E-2,5.188653E-1,7.618979E-3,3.3685222E-2,7.9514703E-4,-1.0431923E-2,-3.580244E-2],"split_indices":[2,22,4,0,8,6,0,0,0,0,0],"split_type":[0,0,0,0,0,0,0,0,0,0,0],"sum_hessian":[1.4781447E1,8.044912E0,6.7365346E0,1.746108E0,6.2988043E0,4.8889627E0,1.8475717E0,4.5703616E0,1.7284429E0,1.2448626E0,3.6441004E0],"tree_param":{"num_deleted":"0","num_feature":"36","num_nodes":"11","size_leaf_vector":"1"}},{"base_weights":[7.2414696E-2,4.2278787E-1,-3.200986E-2,8.9137626E-1,-3.0439958E-1,-2.6083507E-2,3.831479E-2,2.0862635E-2,-8.995401E-1,-3.2306418E-2,-5.672126E-3],"categories":[],"categories_nodes":[],"categories_segments":[],"categories_sizes":[],"default_left":[0,0,0,0,0,0,0,0,0,0,0],"id":23,"left_children":[1,3,-1,5,7,-1,-1,-1,9,-1,-1],"loss_changes":[7.0147057E0,4.8001356E0,0E0,6.773725E0,4.168171E0,0E0,0E0,0E0,3.2155466E-1,0E0,0E0],"parents":[2147483647,0,0,1,1,3,3,4,4,8,8],"right_children":[2,4,-1,6,8,-1,-1,-1,10,-1,-1],"split_conditions":[2.257617E-1,1.6081984E-1,-3.200986E-2,2E-1,-2.9893424E-3,-2.6083507E-2,3.831479E-2,2.0862635E-2,3.4889096E-1,-3.2306418E-2,-5.672126E-3],"split_indices":[8,1,0,7,12,0,0,0,4,0,0],"split_type":[0,0,0,0,0,0,0,0,0,0,0],"sum_hessian":[1.5441097E1,1.2290623E1,3.150475E0,7.336992E0,4.9536304E0,1.0932693E0,6.2437224E0,1.785514E0,3.1681166E0,2.12257E0,1.0455465E0],"tree_param":{"num_deleted":"0","num_feature":"36","num_nodes":"11","size_leaf_vector":"1"}},{"base_weights":[-1.9894675E-3,5.263172E-1,-7.7410585E-1,-5.1508355E-1,1.0569006E0,-3.639586E-2,1.234421E-2,1.53883835E-2,-3.1144658E-2,3.0304254E-3,3.6658492E-2],"categories":[],"categories_nodes":[],"categories_segments":[],"categories_sizes":[],"default_left":[0,0,0,0,0,0,0,0,0,0,0],"id":24,"left_children":[1,3,5,7,9,-1,-1,-1,-1,-1,-1],"loss_changes":[6.96926E0,6.1507845E0,4.111946E0,2.735608E0,9.8873997E-1,0E0,0E0,0E0,0E0,0E0,0E0],"parents":[2147483647,0,0,1,1,2,2,3,3,4,4],"right_children":[2,4,6,8,10,-1,-1,-1,-1,-1,-1],"split_conditions":[1.6081984E-1,3.7142858E-1,6.4851455E-2,4.8442775E-1,-2.8014772E-3,-3.639586E-2,1.234421E-2,1.53883835E-2,-3.1144658E-2,3.0304254E-3,3.6658492E-2],"split_indices":[1,7,3,4,12,0,0,0,0,0,0],"split_type":[0,0,0,0,0,0,0,0,0,0,0],"sum_hessian":[1.5086311E1,9.146399E0,5.939913E0,3.0969954E0,6.0494037E0,4.3175707E0,1.622342E0,1.0509156E0,2.0460799E0,1.1280872E0,4.921316E0],"tree_param":{"num_deleted":"0","num_feature":"36","num_nodes":"11","size_leaf_vector":"1"}},{"base_weights":[-4.7098733E-2,3.175498E-2,-3.859889E-1,-9.9287105E-1,4.9732292E-1,3.4454486E-3,-3.7375808E-2,3.170567E-2,-1.9072708E-2],"categories":[],"categories_nodes":[],"categories_segments":[],"categories_sizes":[],"default_left":[0,0,0,0,0,0,0,0,0],"id":25,"left_children":[1,-1,3,5,7,-1,-1,-1,-1],"loss_changes":[6.3123994E0,0E0,7.351759E0,2.3617187E0,4.397444E0,0E0,0E0,0E0,0E0],"parents":[2147483647,0,0,2,2,3,3,4,4],"right_children":[2,-1,4,6,8,-1,-1,-1,-1],"split_conditions":[7.024574E-1,3.175498E-2,7.037037E-1,-2.9893424E-3,8.412675E-4,3.4454486E-3,-3.7375808E-2,3.170567E-2,-1.9072708E-2],"split_indices":[23,0,7,12,16,0,0,0,0],"split_type":[0,0,0,0,0,0,0,0,0],"sum_hessian":[1.4757148E1,2.963986E0,1.1793162E1,6.9168715E0,4.876291E0,1.3875382E0,5.529333E0,3.309352E0,1.5669388E0],"tree_param":{"num_deleted":"0","num_feature":"36","num_nodes":"9","size_leaf_vector":"1"}},{"base_weights":[-1.0690413E-1,3.0403096E-2,-4.4453263E-1,3.6693808E-1,-1.046053E0,-1.8193334E-1,2.7169863E-2,-3.682653E-2,-6.2847706E-3,-2.3352794E-2,1.1865448E-2],"categories":[],"categories_nodes":[],"categories_segments":[],"categories_sizes":[],"default_left":[0,0,0,0,0,0,0,0,0,0,0],"id":26,"left_children":[1,-1,3,5,7,9,-1,-1,-1,-1,-1],"loss_changes":[5.870545E0,0E0,6.097629E0,1.8571696E0,8.0297995E-1,1.5712295E0,0E0,0E0,0E0,0E0,0E0],"parents":[2147483647,0,0,2,2,3,3,4,4,5,5],"right_children":[2,-1,4,6,8,10,-1,-1,-1,-1,-1],"split_conditions":[6.990322E-1,3.0403096E-2,-7.655991E-4,5.96024E-1,4.647E-5,-1.977066E-3,2.7169863E-2,-3.682653E-2,-6.2847706E-3,-2.3352794E-2,1.1865448E-2],"split_indices":[23,0,13,6,35,13,0,0,0,0,0],"split_type":[0,0,0,0,0,0,0,0,0,0,0],"sum_hessian":[1.3328912E1,2.6231089E0,1.0705802E1,4.723555E0,5.9822474E0,2.6677964E0,2.0557587E0,4.531687E0,1.4505606E0,1.1410588E0,1.5267375E0],"tree_param":{"num_deleted":"0","num_feature":"36","num_nodes":"11","size_leaf_vector":"1"}},{"base_weights":[3.5922418E-3,4.066535E-1,-3.2014195E-2,1.0164887E0,-2.3857008E-1,3.528598E-2,5.906885E-3,6.47299E-1,-3.358984E-2,2.712989E-2,1.0488221E-3],"categories":[],"categories_nodes":[],"categories_segments":[],"categories_sizes":[],"default_left":[0,0,0,0,0,0,0,0,0,0,0],"id":27,"left_children":[1,3,-1,5,7,-1,-1,9,-1,-1,-1],"loss_changes":[7.2423472E0,5.0372386E0,0E0,6.1330366E-1,5.978393E0,0E0,0E0,5.963675E-1,0E0,0E0,0E0],"parents":[2147483647,0,0,1,1,3,3,4,4,7,7],"right_children":[2,4,-1,6,8,-1,-1,10,-1,-1,-1],"split_conditions":[8.7239957E-1,2.6709919E1,-3.2014195E-2,7.7485135E-3,-2.2590805E-2,3.528598E-2,5.906885E-3,1.1669103E-1,-3.358984E-2,2.712989E-2,1.0488221E-3],"split_indices":[25,9,0,17,3,0,0,1,0,0,0],"split_type":[0,0,0,0,0,0,0,0,0,0,0],"sum_hessian":[1.4775846E1,1.1185456E1,3.5903893E0,5.4546084E0,5.7308474E0,4.2008953E0,1.2537134E0,2.9899888E0,2.7408586E0,1.7701265E0,1.2198625E0],"tree_param":{"num_deleted":"0","num_feature":"36","num_nodes":"11","size_leaf_vector":"1"}},{"base_weights":[-6.503695E-2,3.1046715E-1,-3.111455E-2,-2.6053678E-2,5.4348475E-1,3.290335E-2,-3.8489452E-1,-2.883915E-2,9.605308E-3],"categories":[],"categories_nodes":[],"categories_segments":[],"categories_sizes":[],"default_left":[0,0,0,0,0,0,0,0,0],"id":28,"left_children":[1,3,-1,-1,5,-1,7,-1,-1],"loss_changes":[5.592174E0,3.5444102E0,0E0,0E0,5.5349393E0,0E0,2.1192117E0,0E0,0E0],"parents":[2147483647,0,0,1,1,4,4,6,6],"right_children":[2,4,-1,-1,6,-1,8,-1,-1],"split_conditions":[8.7239957E-1,2E-1,-3.111455E-2,-2.6053678E-2,1.5889397E-1,3.290335E-2,3.8443994E-2,-2.883915E-2,9.605308E-3],"split_indices":[25,7,0,0,1,0,3,0,0],"split_type":[0,0,0,0,0,0,0,0,0],"sum_hessian":[1.3437521E1,1.018423E1,3.2532914E0,1.2306937E0,8.953536E0,5.4964075E0,3.4571283E0,1.7021612E0,1.7549671E0],"tree_param":{"num_deleted":"0","num_feature":"36","num_nodes":"9","size_leaf_vector":"1"}},{"base_weights":[2.0966489E-2,3.8165683E-1,-2.9948687E-2,7.8666055E-1,-7.7630514E-1,3.2738328E-2,1.0942322E-2,-6.907137E-3,-2.739883E-2,2.0455565E-2,-2.3615804E-2],"categories":[],"categories_nodes":[],"categories_segments":[],"categories_sizes":[],"default_left":[0,0,0,0,0,0,0,0,0,0,0],"id":29,"left_children":[1,3,-1,5,7,-1,9,-1,-1,-1,-1],"loss_changes":[5.4806905E0,5.755035E0,0E0,2.0257726E0,4.0002823E-2,0E0,2.379682E0,0E0,0E0,0E0,0E0],"parents":[2147483647,0,0,1,1,3,3,4,4,6,6],"right_children":[2,4,-1,6,8,-1,10,-1,-1,-1,-1],"split_conditions":[8.7239957E-1,2.9762268E1,-2.9948687E-2,0E0,2.5892213E-3,3.2738328E-2,1.8714076E-3,-6.907137E-3,-2.739883E-2,2.0455565E-2,-2.3615804E-2],"split_indices":[25,9,0,21,17,0,14,0,0,0,0],"split_type":[0,0,0,0,0,0,0,0,0,0,0],"sum_hessian":[1.2871571E1,9.969247E0,2.9023244E0,7.623526E0,2.3457205E0,5.1818624E0,2.4416635E0,1.0080652E0,1.3376552E0,1.405717E0,1.0359464E0],"tree_param":{"num_deleted":"0","num_feature":"36","num_nodes":"11","size_leaf_vector":"1"}},{"base_weights":[-8.25231E-2,2.817209E-2,-3.5298377E-1,-3.4336276E-2,2.4512787E-1,-4.3376237E-1,8.397287E-1,1.3507921E-2,-3.0472497E-2,5.1141027E-3,3.1102065E-2],"categories":[],"categories_nodes":[],"categories_segments":[],"categories_sizes":[],"default_left":[0,0,0,0,0,0,0,0,0,0,0],"id":30,"left_children":[1,-1,3,-1,5,7,9,-1,-1,-1,-1],"loss_changes":[4.2296515E0,0E0,5.905974E0,0E0,3.4287376E0,2.6202612E0,4.0177274E-1,0E0,0E0,0E0,0E0],"parents":[2147483647,0,0,2,2,4,4,5,5,6,6],"right_children":[2,-1,4,-1,6,8,10,-1,-1,-1,-1],"split_conditions":[7.024574E-1,2.817209E-2,5.3333336E-1,-3.4336276E-2,5.3861314E-1,7.396059E-2,7.1428573E-1,1.3507921E-2,-3.0472497E-2,5.1141027E-3,3.1102065E-2],"split_indices":[23,0,7,0,4,8,7,0,0,0,0],"split_type":[0,0,0,0,0,0,0,0,0,0,0],"sum_hessian":[1.3108452E1,2.226465E0,1.0881987E1,4.290378E0,6.5916085E0,3.20396E0,3.3876486E0,1.3617798E0,1.84218E0,1.1946304E0,2.1930182E0],"tree_param":{"num_deleted":"0","num_feature":"36","num_nodes":"11","size_leaf_vector":"1"}},{"base_weights":[1.2732863E-1,5.21322E-1,-2.9253285E-2,8.0737984E-1,-2.4694001E-2,3.4731682E-2,-2.5503907E-1,1.19563835E-2,-2.3536945E-2],"categories":[],"categories_nodes":[],"categories_segments":[],"categories_sizes":[],"default_left":[0,0,0,0,0,0,0,0,0],"id":31,"left_children":[1,3,-1,5,-1,-1,7,-1,-1],"loss_changes":[6.224641E0,4.64399E0,0E0,3.6587963E0,0E0,0E0,1.3718659E0,0E0,0E0],"parents":[2147483647,0,0,1,1,3,3,6,6],"right_children":[2,4,-1,6,-1,-1,8,-1,-1],"split_conditions":[8.7239957E-1,3.4313404E1,-2.9253285E-2,7.7485135E-3,-2.4694001E-2,3.4731682E-2,3.469991E-3,1.19563835E-2,-2.3536945E-2],"split_indices":[25,9,0,17,0,0,14,0,0],"split_type":[0,0,0,0,0,0,0,0,0],"sum_hessian":[1.2160472E1,9.347093E0,2.8133788E0,8.036626E0,1.3104668E0,5.976208E0,2.0604177E0,1.0328904E0,1.0275272E0],"tree_param":{"num_deleted":"0","num_feature":"36","num_nodes":"9","size_leaf_vector":"1"}},{"base_weights":[-8.293326E-2,2.4622409E-1,-3.003504E-2,8.370104E-1,-3.5848233E-1,3.5857674E-2,-1.069094E-2,5.507885E-1,-3.2539893E-2,2.5699612E-2,-1.8587585E-3],"categories":[],"categories_nodes":[],"categories_segments":[],"categories_sizes":[],"default_left":[0,0,0,0,0,0,0,0,0,0,0],"id":32,"left_children":[1,3,-1,5,7,-1,-1,9,-1,-1,-1],"loss_changes":[4.827718E0,4.572887E0,0E0,3.1405473E0,4.9623947E0,0E0,0E0,7.275022E-1,0E0,0E0,0E0],"parents":[2147483647,0,0,1,1,3,3,4,4,7,7],"right_children":[2,4,-1,6,8,-1,-1,10,-1,-1,-1],"split_conditions":[8.7239957E-1,2.6709919E1,-3.003504E-2,1.9265555E0,-2.1091351E-2,3.5857674E-2,-1.069094E-2,-1.137286E0,-3.2539893E-2,2.5699612E-2,-1.8587585E-3],"split_indices":[25,9,0,5,3,0,0,21,0,0,0],"split_type":[0,0,0,0,0,0,0,0,0,0,0],"sum_hessian":[1.4157322E1,1.0960271E1,3.1970508E0,5.349629E0,5.610642E0,4.1132693E0,1.2363595E0,2.5985072E0,3.012135E0,1.4677806E0,1.1307267E0],"tree_param":{"num_deleted":"0","num_feature":"36","num_nodes":"11","size_leaf_vector":"1"}},{"base_weights":[-1.7194028E-1,2.2432621E-1,-3.173984E-2,7.9672587E-1,-4.7173122E-1,2.9137595E-2,2.8754005E-3,2.068008E-2,-9.1231066E-1,-8.155262E-3,-3.0670866E-2],"categories":[],"categories_nodes":[],"categories_segments":[],"categories_sizes":[],"default_left":[0,0,0,0,0,0,0,0,0,0,0],"id":33,"left_children":[1,3,-1,5,7,-1,-1,-1,9,-1,-1],"loss_changes":[5.25237E0,4.6367526E0,0E0,6.702504E-1,3.4188628E0,0E0,0E0,0E0,3.1093359E-2,0E0,0E0],"parents":[2147483647,0,0,1,1,3,3,4,4,8,8],"right_children":[2,4,-1,6,8,-1,-1,-1,10,-1,-1],"split_conditions":[2.2589678E-1,0E0,-3.173984E-2,2.298557E-3,6.691797E-1,2.9137595E-2,2.8754005E-3,2.068008E-2,3.316395E-2,-8.155262E-3,-3.0670866E-2],"split_indices":[2,21,0,12,23,0,0,0,10,0,0],"split_type":[0,0,0,0,0,0,0,0,0,0,0],"sum_hessian":[1.3283221E1,9.694441E0,3.58878E0,5.2403975E0,4.4540434E0,3.886779E0,1.3536185E0,1.069901E0,3.3841426E0,1.005068E0,2.3790746E0],"tree_param":{"num_deleted":"0","num_feature":"36","num_nodes":"11","size_leaf_vector":"1"}},{"base_weights":[-3.495162E-2,2.7096778E-1,-2.8439227E-2,8.26911E-1,-3.7365893E-1,3.2218892E-2,-6.400756E-3,1.6383385E-2,-3.0939538E-2],"categories":[],"categories_nodes":[],"categories_segments":[],"categories_sizes":[],"default_left":[0,0,0,0,0,0,0,0,0],"id":34,"left_children":[1,3,-1,5,7,-1,-1,-1,-1],"loss_changes":[4.1283426E0,4.308394E0,0E0,1.8490982E0,4.1057916E0,0E0,0E0,0E0,0E0],"parents":[2147483647,0,0,1,1,3,3,4,4],"right_children":[2,4,-1,6,8,-1,-1,-1,-1],"split_conditions":[8.7239957E-1,2.6709919E1,-2.8439227E-2,1.9265555E0,-2.1091351E-2,3.2218892E-2,-6.400756E-3,1.6383385E-2,-3.0939538E-2],"split_indices":[25,9,0,5,3,0,0,0,0],"split_type":[0,0,0,0,0,0,0,0,0],"sum_hessian":[1.2860779E1,1.0159824E1,2.7009544E0,5.303323E0,4.8565016E0,4.25938E0,1.0439429E0,2.095476E0,2.7610257E0],"tree_param":{"num_deleted":"0","num_feature":"36","num_nodes":"9","size_leaf_vector":"1"}},{"base_weights":[-5.0058767E-2,4.9931875E-1,-6.845103E-1,-1.6842455E-2,8.1855565E-1,-9.3297637E-1,9.5764E-3,1.0392584E-3,3.2177467E-2,-5.404236E-3,-3.1967707E-2],"categories":[],"categories_nodes":[],"categories_segments":[],"categories_sizes":[],"default_left":[0,0,0,0,0,0,0,0,0,0,0],"id":35,"left_children":[1,3,5,-1,7,9,-1,-1,-1,-1,-1],"loss_changes":[4.8053365E0,2.9793682E0,1.8850951E0,0E0,1.1828842E0,3.428297E-1,0E0,0E0,0E0,0E0,0E0],"parents":[2147483647,0,0,1,1,2,2,4,4,5,5],"right_children":[2,4,6,-1,8,10,-1,-1,-1,-1,-1],"split_conditions":[1.6081984E-1,6.4486307E-1,8.800576E-1,-1.6842455E-2,3.9E-1,7.8317165E-1,9.5764E-3,1.0392584E-3,3.2177467E-2,-5.404236E-3,-3.1967707E-2],"split_indices":[1,11,6,0,7,23,0,0,0,0,0],"split_type":[0,0,0,0,0,0,0,0,0,0,0],"sum_hessian":[1.1805922E1,6.4413166E0,5.3646045E0,1.3146131E0,5.1267037E0,4.356631E0,1.007974E0,1.5328317E0,3.593872E0,1.00571E0,3.3509207E0],"tree_param":{"num_deleted":"0","num_feature":"36","num_nodes":"11","size_leaf_vector":"1"}},{"base_weights":[-1.0604204E-1,2.7967514E-2,-4.14977E-1,-7.9097277E-1,4.316961E-1,-1.0014488E0,1.0107878E-2,2.3364646E-2,-7.818205E-3,8.6506846E-4,-3.534634E-2],"categories":[],"categories_nodes":[],"categories_segments":[],"categories_sizes":[],"default_left":[0,0,0,0,0,0,0,0,0,0,0],"id":36,"left_children":[1,-1,3,5,7,9,-1,-1,-1,-1,-1],"loss_changes":[4.8973002E0,0E0,4.011671E0,2.3165154E0,1.2104509E0,1.3593006E0,0E0,0E0,0E0,0E0,0E0],"parents":[2147483647,0,0,2,2,3,3,4,4,5,5],"right_children":[2,-1,4,6,8,10,-1,-1,-1,-1,-1],"split_conditions":[7.024574E-1,2.7967514E-2,9.0424716E-1,7.865169E1,-8.25E-6,-7.00304E-1,1.0107878E-2,2.3364646E-2,-7.818205E-3,8.6506846E-4,-3.534634E-2],"split_indices":[23,0,23,0,35,22,0,0,0,0,0],"split_type":[0,0,0,0,0,0,0,0,0,0,0],"sum_hessian":[1.3061509E1,2.5324907E0,1.0529018E1,7.336685E0,3.192333E0,6.277386E0,1.0592992E0,2.042991E0,1.1493421E0,1.0418268E0,5.235559E0],"tree_param":{"num_deleted":"0","num_feature":"36","num_nodes":"11","size_leaf_vector":"1"}},{"base_weights":[4.6124496E-3,4.6656266E-1,-6.745885E-1,7.304056E-1,-1.4745354E-2,1.3741702E-2,-3.3153858E-2,2.9560693E-2,-7.779731E-3],"categories":[],"categories_nodes":[],"categories_segments":[],"categories_sizes":[],"default_left":[0,0,0,0,0,0,0,0,0],"id":37,"left_children":[1,3,5,7,-1,-1,-1,-1,-1],"loss_changes":[4.722716E0,2.6221468E0,3.4789436E0,2.1283503E0,0E0,0E0,0E0,0E0,0E0],"parents":[2147483647,0,0,1,1,2,2,3,3],"right_children":[2,4,6,8,-1,-1,-1,-1,-1],"split_conditions":[1.8656701E-1,7.2498834E-1,-3.463434E-3,1.6335176E0,-1.4745354E-2,1.3741702E-2,-3.3153858E-2,2.9560693E-2,-7.779731E-3],"split_indices":[2,21,15,11,0,0,0,0,0],"split_type":[0,0,0,0,0,0,0,0,0],"sum_hessian":[1.304902E1,7.9529734E0,5.096046E0,6.422045E0,1.5309278E0,1.385975E0,3.710071E0,5.110117E0,1.3119285E0],"tree_param":{"num_deleted":"0","num_feature":"36","num_nodes":"9","size_leaf_vector":"1"}},{"base_weights":[-1.7128253E-1,2.793486E-2,-5.090485E-1,-3.333491E-2,7.519947E-2,2.7858818E-2,-4.768719E-1,2.043311E-2,-3.2295242E-2],"categories":[],"categories_nodes":[],"categories_segments":[],"categories_sizes":[],"default_left":[0,0,0,0,0,0,0,0,0],"id":38,"left_children":[1,-1,3,-1,5,-1,7,-1,-1],"loss_changes":[5.7568045E0,0E0,4.131316E0,0E0,3.635575E0,0E0,4.049082E0,0E0,0E0],"parents":[2147483647,0,0,2,2,4,4,6,6],"right_children":[2,-1,4,-1,6,-1,8,-1,-1],"split_conditions":[7.024574E-1,2.793486E-2,5.3333336E-1,-3.333491E-2,2.5892213E-3,2.7858818E-2,4.8246026E-1,2.043311E-2,-3.2295242E-2],"split_indices":[23,0,7,0,17,0,6,0,0],"split_type":[0,0,0,0,0,0,0,0,0],"sum_hessian":[1.3187024E1,2.680672E0,1.0506352E1,4.7299166E0,5.7764354E0,2.0010319E0,3.7754035E0,1.2416854E0,2.533718E0],"tree_param":{"num_deleted":"0","num_feature":"36","num_nodes":"9","size_leaf_vector":"1"}},{"base_weights":[7.5648375E-2,3.7690187E-1,-2.7672982E-2,-2.4693519E-2,5.958665E-1,3.1141652E-2,-1.02149926E-1,5.907445E-1,-2.757671E-2,2.1168047E-3,2.676743E-2],"categories":[],"categories_nodes":[],"categories_segments":[],"categories_sizes":[],"default_left":[0,0,0,0,0,0,0,0,0,0,0],"id":39,"left_children":[1,3,-1,-1,5,-1,7,9,-1,-1,-1],"loss_changes":[4.817429E0,3.6775093E0,0E0,0E0,3.4510694E0,0E0,3.43792E0,4.6647823E-1,0E0,0E0,0E0],"parents":[2147483647,0,0,1,1,4,4,6,6,7,7],"right_children":[2,4,-1,-1,6,-1,8,10,-1,-1,-1],"split_conditions":[8.7239957E-1,2E-1,-2.7672982E-2,-2.4693519E-2,1.6081984E-1,3.1141652E-2,0E0,6.530612E1,-2.757671E-2,2.1168047E-3,2.676743E-2],"split_indices":[25,7,0,0,1,0,12,0,0,0,0],"split_type":[0,0,0,0,0,0,0,0,0,0,0],"sum_hessian":[1.386574E1,1.1129013E1,2.7367265E0,1.2915636E0,9.83745E0,5.7241135E0,4.113336E0,2.375698E0,1.7376381E0,1.3245231E0,1.0511749E0],"tree_param":{"num_deleted":"0","num_feature":"36","num_nodes":"11","size_leaf_vector":"1"}},{"base_weights":[6.8408385E-2,3.5520834E-1,-2.618348E-2,6.1104214E-1,-2.4023376E-2,9.35309E-1,-2.9897657E-1,3.1905174E-2,7.69525E-3,8.168226E-3,-2.194912E-2],"categories":[],"categories_nodes":[],"categories_segments":[],"categories_sizes":[],"default_left":[0,0,0,0,0,0,0,0,0,0,0],"id":40,"left_children":[1,3,-1,5,-1,7,9,-1,-1,-1,-1],"loss_changes":[3.8120496E0,3.6402452E0,0E0,3.021283E0,0E0,3.443718E-1,9.897771E-1,0E0,0E0,0E0,0E0],"parents":[2147483647,0,0,1,1,3,3,5,5,6,6],"right_children":[2,4,-1,6,-1,8,10,-1,-1,-1,-1],"split_conditions":[2.257617E-1,3.2438187E1,-2.618348E-2,3.599826E-3,-2.4023376E-2,2.3596895E-1,1.5656893E-1,3.1905174E-2,7.69525E-3,8.168226E-3,-2.194912E-2],"split_indices":[8,9,0,16,0,21,2,0,0,0,0],"split_type":[0,0,0,0,0,0,0,0,0,0,0],"sum_hessian":[1.1973675E1,9.654386E0,2.3192892E0,8.290917E0,1.3634676E0,6.092269E0,2.1986487E0,4.6477604E0,1.4445086E0,1.1073244E0,1.0913243E0],"tree_param":{"num_deleted":"0","num_feature":"36","num_nodes":"11","size_leaf_vector":"1"}},{"base_weights":[1.3071907E-1,4.032805E-1,-2.6212309E-2,6.5885115E-1,-2.4512557E-2,9.4323695E-1,-1.2045433E-1,3.3645626E-2,1.6475237E-3,1.4224932E-2,-2.2994574E-2],"categories":[],"categories_nodes":[],"categories_segments":[],"categories_sizes":[],"default_left":[0,0,0,0,0,0,0,0,0,0,0],"id":41,"left_children":[1,3,-1,5,-1,7,9,-1,-1,-1,-1],"loss_changes":[4.196021E0,4.1958857E0,0E0,2.3852615E0,0E0,1.1456623E0,1.7567931E0,0E0,0E0,0E0,0E0],"parents":[2147483647,0,0,1,1,3,3,5,5,6,6],"right_children":[2,4,-1,6,-1,8,10,-1,-1,-1,-1],"split_conditions":[8.7239957E-1,3.4313404E1,-2.6212309E-2,2.3596895E-1,-2.4512557E-2,4.2221085E-3,1.5934139E-3,3.3645626E-2,1.6475237E-3,1.4224932E-2,-2.2994574E-2],"split_indices":[25,9,0,21,0,13,14,0,0,0,0],"split_type":[0,0,0,0,0,0,0,0,0,0,0],"sum_hessian":[1.3039333E1,1.0727054E1,2.3122797E0,9.250021E0,1.4770323E0,6.6228437E0,2.6271775E0,5.2971888E0,1.325655E0,1.506554E0,1.1206236E0],"tree_param":{"num_deleted":"0","num_feature":"36","num_nodes":"11","size_leaf_vector":"1"}},{"base_weights":[2.6480747E-2,7.345263E-1,-3.7837595E-1,3.0759204E-2,-6.4516747E-3,1.22765325E-1,-8.587276E-1,-1.8711729E-2,1.9303542E-2,-2.982975E-2,-6.104663E-3],"categories":[],"categories_nodes":[],"categories_segments":[],"categories_sizes":[],"default_left":[0,0,0,0,0,0,0,0,0,0,0],"id":42,"left_children":[1,3,5,-1,-1,7,9,-1,-1,-1,-1],"loss_changes":[4.169155E0,1.677911E0,2.3432698E0,0E0,0E0,2.5098164E0,2.3051E-1,0E0,0E0,0E0,0E0],"parents":[2147483647,0,0,1,1,2,2,5,5,6,6],"right_children":[2,4,6,-1,-1,8,10,-1,-1,-1,-1],"split_conditions":[1.9605938E1,1.9265555E0,1.6081984E-1,3.0759204E-2,-6.4516747E-3,8.2644767E-1,6.627907E1,-1.8711729E-2,1.9303542E-2,-2.982975E-2,-6.104663E-3],"split_indices":[9,5,1,0,0,11,0,0,0,0,0],"split_type":[0,0,0,0,0,0,0,0,0,0,0],"sum_hessian":[1.257451E1,4.2781878E0,8.296322E0,3.2141938E0,1.0639942E0,4.424625E0,3.871697E0,1.7367775E0,2.6878474E0,2.7790833E0,1.0926138E0],"tree_param":{"num_deleted":"0","num_feature":"36","num_nodes":"11","size_leaf_vector":"1"}},{"base_weights":[-3.532373E-2,2.3061095E-2,-4.0072936E-1,-8.4669715E-1,4.6194097E-1,-8.0085E-3,-3.0344767E-2,2.4051156E-2,-3.2642882E-3],"categories":[],"categories_nodes":[],"categories_segments":[],"categories_sizes":[],"default_left":[0,0,0,0,0,0,0,0,0],"id":43,"left_children":[1,-1,3,5,7,-1,-1,-1,-1],"loss_changes":[3.7583365E0,0E0,3.7503915E0,3.1363297E-1,7.8973895E-1,0E0,0E0,0E0,0E0],"parents":[2147483647,0,0,2,2,3,3,4,4],"right_children":[2,-1,4,6,8,-1,-1,-1,-1],"split_conditions":[1.8954391E1,2.3061095E-2,8.9954674E-1,4.651861E-1,4.9112427E1,-8.0085E-3,-3.0344767E-2,2.4051156E-2,-3.2642882E-3],"split_indices":[9,0,23,6,0,0,0,0,0],"split_type":[0,0,0,0,0,0,0,0,0],"sum_hessian":[1.0743847E1,3.0121999E0,7.731647E0,5.1090026E0,2.6226442E0,1.7106936E0,3.3983092E0,1.3903354E0,1.2323089E0],"tree_param":{"num_deleted":"0","num_feature":"36","num_nodes":"9","size_leaf_vector":"1"}},{"base_weights":[-2.2083886E-2,3.7476116E-1,-2.816858E-2,7.1679705E-1,-2.4282822E-1,-8.313631E-3,3.1301625E-2,1.2756014E-2,-2.4604203E-2],"categories":[],"categories_nodes":[],"categories_segments":[],"categories_sizes":[],"default_left":[0,0,0,0,0,0,0,0,0],"id":44,"left_children":[1,3,-1,5,7,-1,-1,-1,-1],"loss_changes":[4.7074323E0,2.0898252E0,0E0,2.2659097E0,1.883452E0,0E0,0E0,0E0,0E0],"parents":[2147483647,0,0,1,1,3,3,4,4],"right_children":[2,4,-1,6,8,-1,-1,-1,-1],"split_conditions":[1.0916427E-1,1.6081984E-1,-2.816858E-2,2.5721774E-2,4.8246026E-1,-8.313631E-3,3.1301625E-2,1.2756014E-2,-2.4604203E-2],"split_indices":[8,1,0,1,6,0,0,0,0],"split_type":[0,0,0,0,0,0,0,0,0],"sum_hessian":[1.0970568E1,8.069244E0,2.9013226E0,5.0897703E0,2.9794745E0,1.2962734E0,3.7934968E0,1.5033618E0,1.4761126E0],"tree_param":{"num_deleted":"0","num_feature":"36","num_nodes":"9","size_leaf_vector":"1"}},{"base_weights":[-7.695645E-2,2.3186484E-1,-2.682238E-2,4.9770266E-1,-1.916333E-2,9.372279E-1,-1.6231911E-1,3.1442758E-2,7.3029343E-3,2.2771727E-2,-2.7644264E-2],"categories":[],"categories_nodes":[],"categories_segments":[],"categories_sizes":[],"default_left":[0,0,0,0,0,0,0,0,0,0,0],"id":45,"left_children":[1,3,-1,5,-1,7,9,-1,-1,-1,-1],"loss_changes":[3.4457374E0,2.657304E0,0E0,2.5614676E0,0E0,1.3967943E-1,3.617834E0,0E0,0E0,0E0,0E0],"parents":[2147483647,0,0,1,1,3,3,5,5,6,6],"right_children":[2,4,-1,6,-1,8,10,-1,-1,-1,-1],"split_conditions":[2.257617E-1,3.0030497E1,-2.682238E-2,3.599826E-3,-1.916333E-2,0E0,1.3448316E-1,3.1442758E-2,7.3029343E-3,2.2771727E-2,-2.7644264E-2],"split_indices":[8,9,0,16,0,21,1,0,0,0,0],"split_type":[0,0,0,0,0,0,0,0,0,0,0],"sum_hessian":[1.1833352E1,9.107522E0,2.7258306E0,7.305305E0,1.8022168E0,4.133024E0,3.172281E0,3.1232824E0,1.0097415E0,1.4330906E0,1.7391903E0],"tree_param":{"num_deleted":"0","num_feature":"36","num_nodes":"11","size_leaf_vector":"1"}},{"base_weights":[7.635246E-2,4.3004355E-1,-2.6863154E-2,7.618507E-1,-4.101394E-1,3.078575E-2,-1.0505649E-2,3.5735648E-3,-2.3001295E-2],"categories":[],"categories_nodes":[],"categories_segments":[],"categories_sizes":[],"default_left":[0,0,0,0,0,0,0,0,0],"id":46,"left_children":[1,3,-1,5,7,-1,-1,-1,-1],"loss_changes":[4.755036E0,3.0993934E0,0E0,2.568921E0,7.481279E-1,0E0,0E0,0E0,0E0],"parents":[2147483647,0,0,1,1,3,3,4,4],"right_children":[2,4,-1,6,8,-1,-1,-1,-1],"split_conditions":[8.7239957E-1,2.3596895E-1,-2.6863154E-2,3.0030497E1,2.6667412E1,3.078575E-2,-1.0505649E-2,3.5735648E-3,-2.3001295E-2],"split_indices":[25,21,0,9,9,0,0,0,0],"split_type":[0,0,0,0,0,0,0,0,0],"sum_hessian":[1.1713945E1,8.996919E0,2.7170272E0,6.516599E0,2.4803193E0,5.3274236E0,1.1891755E0,1.2664527E0,1.2138666E0],"tree_param":{"num_deleted":"0","num_feature":"36","num_nodes":"9","size_leaf_vector":"1"}},{"base_weights":[-7.227733E-3,2.8268167E-1,-2.6315618E-2,4.7193936E-1,-2.1168709E-2,5.6979597E-2,3.211782E-2,2.0305503E-2,-5.366867E-1,-2.9739905E-2,1.0432044E-2],"categories":[],"categories_nodes":[],"categories_segments":[],"categories_sizes":[],"default_left":[0,0,0,0,0,0,0,0,0,0,0],"id":47,"left_children":[1,3,-1,5,-1,7,-1,-1,9,-1,-1],"loss_changes":[3.5973983E0,2.3376064E0,0E0,2.3223095E0,0E0,2.8371284E0,0E0,0E0,1.94973E0,0E0,0E0],"parents":[2147483647,0,0,1,1,3,3,5,5,8,8],"right_children":[2,4,-1,6,-1,8,-1,-1,10,-1,-1],"split_conditions":[8.7239957E-1,3.4313404E1,-2.6315618E-2,6.165975E-1,-2.1168709E-2,1.9605938E1,3.211782E-2,2.0305503E-2,3.8132807E-3,-2.9739905E-2,1.0432044E-2],"split_indices":[25,9,0,4,0,9,0,0,12,0,0],"split_type":[0,0,0,0,0,0,0,0,0,0,0],"sum_hessian":[1.2280364E1,9.7172165E0,2.5631473E0,8.593972E0,1.123245E0,5.7225466E0,2.8714252E0,2.7309425E0,2.991604E0,1.8960472E0,1.0955569E0],"tree_param":{"num_deleted":"0","num_feature":"36","num_nodes":"11","size_leaf_vector":"1"}},{"base_weights":[6.781357E-2,5.2875787E-1,-3.9220956E-1,-3.7431787E-3,2.4845924E-2,1.592897E-2,-7.577309E-1,-3.176217E-2,6.8335338E-3],"categories":[],"categories_nodes":[],"categories_segments":[],"categories_sizes":[],"default_left":[0,0,0,0,0,0,0,0,0],"id":48,"left_children":[1,3,5,-1,-1,-1,7,-1,-1],"loss_changes":[2.90969E0,1.4323851E0,2.7483878E0,0E0,0E0,0E0,1.8408532E0,0E0,0E0],"parents":[2147483647,0,0,1,1,2,2,6,6],"right_children":[2,4,6,-1,-1,-1,8,-1,-1],"split_conditions":[1.3473614E-1,3.136673E-2,4.8246026E-1,-3.7431787E-3,2.4845924E-2,1.592897E-2,8.1943655E-1,-3.176217E-2,6.8335338E-3],"split_indices":[1,1,6,0,0,0,4,0,0],"split_type":[0,0,0,0,0,0,0,0,0],"sum_hessian":[1.1744019E1,5.7915025E0,5.9525156E0,2.0030766E0,3.788426E0,1.5599694E0,4.392546E0,3.3079054E0,1.0846409E0],"tree_param":{"num_deleted":"0","num_feature":"36","num_nodes":"9","size_leaf_vector":"1"}},{"base_weights":[5.5934694E-2,3.128215E-1,-2.4529548E-2,-2.3310328E-2,5.4734325E-1,2.7529422E-2,-4.604476E-3,1.8456971E-2,-1.705391E-2],"categories":[],"categories_nodes":[],"categories_segments":[],"categories_sizes":[],"default_left":[0,0,0,0,0,0,0,0,0],"id":49,"left_children":[1,3,-1,-1,5,-1,7,-1,-1],"loss_changes":[3.0115569E0,3.0355642E0,0E0,0E0,1.8418729E0,0E0,1.9592127E0,0E0,0E0],"parents":[2147483647,0,0,1,1,4,4,6,6],"right_children":[2,4,-1,-1,6,-1,8,-1,-1],"split_conditions":[8.7239957E-1,2E-1,-2.4529548E-2,-2.3310328E-2,1.6081984E-1,2.7529422E-2,-2.9893424E-3,1.8456971E-2,-1.705391E-2],"split_indices":[25,7,0,0,1,0,12,0,0],"split_type":[0,0,0,0,0,0,0,0,0],"sum_hessian":[1.1279949E1,9.212757E0,2.0671923E0,1.221805E0,7.990952E0,4.385882E0,3.60507E0,1.6738914E0,1.9311786E0],"tree_param":{"num_deleted":"0","num_feature":"36","num_nodes":"9","size_leaf_vector":"1"}}]},"name":"gbtree"},"learner_model_param":{"base_score":"4.923864E-1","boost_from_average":"1","num_class":"0","num_feature":"36","num_target":"1"},"objective":{"name":"binary:logistic","reg_loss_param":{"scale_pos_weight":"1"}}},"version":[2,0,3]}